{"iterations": 10000, "final_fidelity": 0.9992887740150763, "final_purity": -1, "optimized_trainable_parameters": {"initial_params": [[], [7.19515607144342, 4.2780803757634, 5.611393246560218, 5.892377935131412, 1.5587964934465015, 2.4347339228060907, 1.556250371914017, 4.684840039933451, 1.6786065189147388, 3.864856988789411, 4.45907029378009, 6.9685608003166895, 4.981546340195808, 1.1192127716910714, 2.344204195149228, 5.1280562840416914, 5.218484959495083, 2.2090679368862562, 4.797623141852699, 5.823692301996493, 0.31556435942240246, 3.030490137966179, 1.7194749653008563, 4.973147098793945, 2.1101587208352393, 5.761418510212814, 1.7378942656024712, 0.7489007037358073, 3.8035879784646354, 4.024079350584393, 0.49962092934359587, 2.407947629545122, 1.0349465677176044, 3.84955605923953, 5.120795367833689, 0.7189289435020886, 2.5414270162837855, 0.6522975772936652, 3.8286470205634715, 3.499474904498579, 3.7692283670685587, 3.6303310113268448, 0.6207926218368923, 4.904313122280499, 5.723220750518726, 3.722899579187097, 5.434779557779153, 4.0106792444627954, 2.5607915416242704, 3.6208438586059253, 1.4732495566829824, 6.027600351085779, 1.4745133273364592, 0.5026579935413034, 3.084843341081983, 2.5505854402911914, 0.1739883108495692, 1.8030495617431304, 7.039920063786624, 2.436511620149419, 0.21559547209128527, 4.053528477455882, 5.270703946947565, 2.668373369648374, 1.5726396769453093, 6.386350996380345, 0.049044842003534865, 6.2515507266970145, 4.713127529670808, 0.03728356272565986, 4.711121979756027, 6.196706314997218], [6.094363009698324, 1.980346031110394, 4.153791127233861, 6.229067048932181, 1.7751352004394012, 2.233601835029501, 3.3002877923679588, 2.0270080429275144, 0.3686831206784092, 3.864856988789411, 5.998718376191112, 5.270125085447247, 4.981546340195808, 1.1192127716910714, 2.344204195149228, 4.8330570839390745, 5.218484959495083, 2.2090679368862562, 4.797623141852699, 5.823692301996493, 0.31556435942240246, 3.030490137966179, 1.7194749653008563, 4.973147098793945, 2.1101587208352393, 5.761418510212814, 1.7378942656024712, 0.7489007037358073, 4.456599926224252, 4.691879038729621, 2.3886105832554008, 2.29713601226842, 2.258161719529259, 4.80035533176193, 5.280894609627821, 2.701561590392014, 1.9916554950935172, 0.6522975772936652, 3.7174330446199817, 4.025395429880456, 3.7692283670685587, 3.6303310113268448, 0.6207926218368923, 3.844441479341378, 5.723220750518726, 3.722899579187097, 5.434779557779153, 4.0106792444627954, 2.5607915416242704, 3.6208438586059253, 1.4732495566829824, 6.027600351085779, 1.4745133273364592, 0.5026579935413034, 3.084843341081983, 2.5505854402911914, 2.8747856376057754, 0.05932658899645032, 4.925228858701095, 3.671936945383406, 1.7285193729825767, 3.917877352620044, 5.354829688403799, 3.4221099749950374, 1.761416159209946, 5.784620527289228, 0.0007077399087626888, 6.180694055093325, 5.245667767192338, 1.3114847229744826, 4.644379254015441, 5.143584142402586], [0.08062436666431605, 0.923948835561414, 0.7339523451366718, 0.5794502442667795, 0.5976030059699919, 0.7000266287193331, 0.8056200973061387, 0.8894700350923472, 0.07627888141344874, 0.8728580575304441, 0.22663938029178654, 0.6564232100473297, 0.29224536994517436, 0.6596231091705356, 0.629365131022366, 0.4619819572813424, 0.8193514805281565, 0.6512831230341642, 0.9733046870263129, 0.9444505395292015, 0.9182082032288363, 0.5543627964382509, 0.7830599900634658, 0.6542280042611439, 0.7626502422760495, 0.9888408853930919, 0.6299959315030015, 0.9162851472155082, 0.706661011532282, 0.827052482249405, 0.4143085575562553, 0.301302335753453, 0.05760853211194594, 0.7207888384390386, 0.1923819370949056, 0.15724463390189425, 0.9167070879854895, 0.5428114841934542, 0.30390380628201474, 0.2765018768384566, 0.5833472829696598, 0.7757670168741624, 0.8151969697108865, 0.6730294070586214, 0.3425704284896489, 0.2816810660044804, 0.32252491583720855, 0.2149071806352678, 0.7559688675013756, 0.3074243349346728, 0.950506417112257, 0.8364326348445001, 0.9862761290834987, 0.1625085191882869, 0.5606424964766055, 0.1594550505153438, 0.4145701339543364, 0.06871425770856554, 0.5767713099864875, 0.185962538695982, 0.8177615934270606, 0.5290150682036481, 0.4916001550510516, 0.6132162644788453]], "rnn_params": {"params": {"Dense_0": {"bias": [3.7702155113220215, 3.398010730743408, 3.563565254211426, 3.4713735580444336, 3.3519020080566406, 3.3241889476776123, 2.6911375522613525, 3.8279011249542236, 4.4305644035339355, 3.1415927410125732, 2.8447680473327637, 3.6686484813690186, 3.1415927410125732, 3.1415927410125732, 3.1415927410125732, 3.4278478622436523, 3.1415927410125732, 3.1415927410125732, 3.1415927410125732, 3.1415927410125732, 3.1415927410125732, 3.1415927410125732, 3.1415927410125732, 3.1415927410125732, 3.1415927410125732, 3.1415927410125732, 3.1415927410125732, 3.1415927410125732, 4.238278865814209, 2.6659128665924072, 3.3677475452423096, 2.5505728721618652, 3.017770290374756, 4.21006965637207, 3.026599645614624, 2.75327467918396, 4.469655990600586, 3.1415927410125732, 3.7101686000823975, 2.562196731567383, 3.1415927410125732, 3.1415927410125732, 3.1415927410125732, 3.835324764251709, 3.1415927410125732, 3.1415927410125732, 3.1415927410125732, 3.1415927410125732, 3.1415927410125732, 3.1415927410125732, 3.1415927410125732, 3.1415927410125732, 3.1415927410125732, 3.1415927410125732, 3.1415927410125732, 3.1415927410125732, 3.6703734397888184, 3.463496446609497, 2.40830135345459, 2.7708756923675537, 2.9978842735290527, 3.6366488933563232, 3.6171460151672363, 2.851717710494995, 3.160095691680908, 3.1245336532592773, 4.297624111175537, 3.1528024673461914, 3.1581766605377197, 3.1096339225769043, 3.0633673667907715, 3.1301119327545166, 2.9899697303771973, 3.1358213424682617, 3.0264463424682617, 3.3781113624572754, 3.023444890975952, 3.001296281814575, 3.09736704826355, 3.1739628314971924, 3.2927794456481934, 3.1415927410125732, 3.0263969898223877, 3.1897900104522705, 3.1415927410125732, 3.1415927410125732, 3.1415927410125732, 3.06634521484375, 3.1415927410125732, 3.1415927410125732, 3.1415927410125732, 3.1415927410125732, 3.1415927410125732, 3.1415927410125732, 3.1415927410125732, 3.1415927410125732, 3.1415927410125732, 3.1415927410125732, 3.1415927410125732, 3.1415927410125732, 3.3068299293518066, 3.0441277027130127, 3.066748857498169, 3.169139862060547, 3.036496877670288, 3.1180360317230225, 3.2053616046905518, 3.0710830688476562, 3.0657923221588135, 3.1415927410125732, 3.1282126903533936, 3.1443088054656982, 3.1415927410125732, 3.1415927410125732, 3.1415927410125732, 3.1346654891967773, 3.1415927410125732, 3.1415927410125732, 3.1415927410125732, 3.1415927410125732, 3.1415927410125732, 3.1415927410125732, 3.1415927410125732, 3.1415927410125732, 3.1415927410125732, 3.1415927410125732, 3.1415927410125732, 3.1415927410125732, 3.223626136779785, 3.231860637664795, 3.126275062561035, 3.1696481704711914, 2.9907171726226807, 3.0020413398742676, 3.1848247051239014, 3.165438413619995, 3.135591983795166, 3.13543438911438, 3.13002347946167, 3.1326308250427246, 3.1377971172332764, 3.1460492610931396, 3.13957142829895, 3.1385037899017334, 3.7069664001464844, 3.389826536178589, 3.6501221656799316, 3.041792631149292, 3.336784839630127, 3.04335355758667, 2.283507823944092, 3.3041839599609375, 2.4027864933013916, 3.1415927410125732, 3.9408180713653564, 2.3778111934661865, 3.1415927410125732, 3.1415927410125732, 3.1415927410125732, 3.381723403930664, 3.1415927410125732, 3.1415927410125732, 3.1415927410125732, 3.1415927410125732, 3.1415927410125732, 3.1415927410125732, 3.1415927410125732, 3.1415927410125732, 3.1415927410125732, 3.1415927410125732, 3.1415927410125732, 3.1415927410125732, 2.400223731994629, 2.8510489463806152, 3.6956253051757812, 3.8230185508728027, 2.45517897605896, 2.491136074066162, 3.1450438499450684, 3.354314088821411, 3.3372557163238525, 3.1415927410125732, 2.5954833030700684, 1.988477349281311, 3.1415927410125732, 3.1415927410125732, 3.1415927410125732, 3.1752214431762695, 3.1415927410125732, 3.1415927410125732, 3.1415927410125732, 3.1415927410125732, 3.1415927410125732, 3.1415927410125732, 3.1415927410125732, 3.1415927410125732, 3.1415927410125732, 3.1415927410125732, 3.1415927410125732, 3.1415927410125732, 4.712212085723877, 3.38179349899292, 1.7329343557357788, 3.4297995567321777, 1.9577689170837402, 2.633643388748169, 2.6673316955566406, 3.227062463760376], "kernel": [[0.18099167943000793, -0.21529431641101837, 0.34984442591667175, -0.1266511231660843, 0.0014325921656563878, 0.027189461514353752, -0.17320114374160767, 0.6215952038764954, 0.17298579216003418, -0.12196922302246094, -0.2886538505554199, 0.29315996170043945, 0.06906227767467499, 0.003314841538667679, -0.059839241206645966, 0.13580532371997833, -0.11067640036344528, 0.03344724699854851, -0.15226875245571136, 0.044100385159254074, -0.0452943816781044, 0.020017001777887344, -0.14598530530929565, -0.10254927724599838, -0.10453002154827118, -0.018412653356790543, 0.1523095667362213, -0.08039117604494095, 0.6991714239120483, -0.1955830156803131, 0.1917102038860321, -0.14854998886585236, -0.326154887676239, 0.28820347785949707, -0.20844964683055878, -0.08469174057245255, 0.7689623832702637, -0.06874766200780869, 0.023948324844241142, -0.29084157943725586, -0.11769058555364609, 0.14503911137580872, -0.08481695502996445, 0.6532120108604431, 0.14014659821987152, 0.07329833507537842, 0.006989157758653164, -0.12717357277870178, 0.11466741561889648, -0.06445130705833435, 0.11857102066278458, -0.14081914722919464, -0.011992082931101322, -0.055718570947647095, 0.09369600564241409, -0.10727445781230927, 0.3035662770271301, 0.01562488917261362, -0.37494274973869324, 0.02432991750538349, -0.2885170578956604, -0.0729873850941658, 0.048747722059488297, 0.07607478648424149, -0.17698320746421814, -0.08082684129476547, 0.32404062151908875, 0.023531580343842506, -0.013534842059016228, -0.10419198870658875, -0.001772861578501761, -0.12423117458820343, -0.23030361533164978, -0.11390272527933121, -0.08936246484518051, 0.2892166078090668, -0.11173787713050842, -0.11986221373081207, 0.09965768456459045, -0.0977417379617691, 0.041002459824085236, 0.09683675318956375, 0.036938246339559555, 0.021556954830884933, 0.07655082643032074, -0.08466792106628418, 0.15254177153110504, 0.10196815431118011, 0.08460470288991928, -0.0349842868745327, 0.05775022879242897, 0.05265633761882782, 0.09158731251955032, 0.07796468585729599, 0.02992280013859272, -0.09402693808078766, -0.05578629672527313, 0.06324663758277893, 0.07557650655508041, 0.06198056414723396, 0.07930579781532288, -0.06098616123199463, 0.05755725875496864, 0.07889673858880997, -0.03024541400372982, 0.10463149100542068, 0.35029590129852295, -0.03683090955018997, -0.026541301980614662, -0.03651916980743408, -0.1513579785823822, -0.07873076945543289, -0.09259884804487228, 0.1489463448524475, -0.08039238303899765, 0.008620836772024632, 0.1442158967256546, -0.04941383749246597, -0.1270333230495453, -0.08185000717639923, -0.1130208969116211, 0.06713752448558807, 0.07427836954593658, -0.048975661396980286, 0.053642433136701584, -0.08863712847232819, 0.031497467309236526, -0.07356744259595871, 0.1163073405623436, 0.048649199306964874, -0.09944739937782288, 0.09490621834993362, -0.2154843956232071, -0.07230903953313828, -0.051525793969631195, -0.055997997522354126, -0.013353256508708, 0.04938512295484543, -0.04263395443558693, -0.012016343884170055, -0.1176430955529213, 0.03189360722899437, 0.12009527534246445, 0.14175152778625488, 0.0806276872754097, 0.3935830295085907, 0.5617538094520569, 0.28649866580963135, -0.29304444789886475, -0.056902918964624405, -0.3750171959400177, 0.5556120276451111, -0.6305634379386902, 0.12050100415945053, 0.019772760570049286, -0.0799587219953537, -0.047450169920921326, 0.1513194590806961, 0.06285127997398376, 0.31315937638282776, -0.09043298661708832, 0.07179278880357742, -0.04936852678656578, 0.08421353995800018, 0.03554166853427887, -0.03628439083695412, 0.051341548562049866, -0.1166900247335434, -0.11148203909397125, -0.15355134010314941, 0.12055078148841858, 0.13107183575630188, -0.20217104256153107, -0.25038138031959534, -0.0715254470705986, -0.17048078775405884, -0.13916629552841187, -0.07975323498249054, -0.16271238029003143, 0.12323208898305893, -0.22714319825172424, 0.010748420841991901, -0.17082111537456512, -0.5305628180503845, -0.03903624787926674, 0.15630534291267395, -0.12664636969566345, -0.2605323791503906, -0.15702955424785614, 0.09701463580131531, 0.08994416147470474, -0.0630776509642601, 0.05670531094074249, 0.02416299469769001, 0.1148395836353302, -0.11596997827291489, 0.02163758873939514, -0.14149747788906097, -0.01550990529358387, -0.14273923635482788, 0.33057621121406555, 0.340404748916626, -0.23032242059707642, 0.3577295243740082, -1.6716086864471436, -0.858079731464386, -0.411696195602417, 0.396259069442749], [0.11857868731021881, -0.2555939853191376, 0.15513141453266144, -0.06138893961906433, 0.02503669261932373, -0.06108948588371277, -0.2845996916294098, 0.5379626750946045, 0.23541776835918427, 0.13828779757022858, -0.19143842160701752, 0.3513023853302002, -0.10807684063911438, -0.0779157355427742, 0.004576939158141613, -0.057929880917072296, 0.031145641580224037, 0.037475548684597015, -0.010362675413489342, 0.11349900811910629, 0.11735287308692932, 0.10524570941925049, 0.11013896763324738, 0.14183437824249268, -0.042303089052438736, 0.1458406150341034, -0.06483417749404907, -0.0626298263669014, 0.6685907244682312, -0.3065964877605438, -0.12083564698696136, -0.10707767307758331, -0.1811627745628357, 0.3387395441532135, -0.24044379591941833, -0.22827689349651337, 0.4194083511829376, 0.036092426627874374, -0.0328739732503891, -0.08918190747499466, -0.10003571957349777, -0.14055047929286957, -0.055693019181489944, 0.47163206338882446, 0.06253344565629959, 0.05092926323413849, -0.10331504791975021, 0.023266276344656944, 0.04284567013382912, -0.062213338911533356, 0.11332794278860092, -0.1494826376438141, -0.06714849919080734, -0.011204427108168602, -0.14177986979484558, 0.08391918241977692, 0.14524374902248383, 0.11201576143503189, -0.2964138984680176, -0.034575365483760834, -0.009963570162653923, 0.08208749443292618, -0.05853274092078209, 0.2997272312641144, -0.03416673466563225, 0.10557552427053452, 0.030961262062191963, 0.24001231789588928, 0.014025780372321606, -0.1053934097290039, -0.08032290637493134, -0.00720019917935133, -0.2809918224811554, 0.03838520124554634, -0.2512288987636566, 0.2681596577167511, -0.21882294118404388, -0.29543766379356384, 0.1387614607810974, -0.07043089717626572, 0.14224383234977722, -0.0013481804635375738, 0.08524399995803833, -0.12550334632396698, 0.09984507411718369, -0.060107938945293427, -0.11172938346862793, -0.04502657428383827, 0.1534077525138855, -0.14230458438396454, 0.08731518685817719, 0.09555444121360779, -0.1089622750878334, -0.10949467122554779, -0.06346885114908218, -0.13580599427223206, 0.03715839609503746, 0.10286154597997665, 0.0938761979341507, -0.12265463173389435, 0.2699156701564789, -0.07096879929304123, 0.015608283691108227, 0.007529132068157196, -0.23818540573120117, -0.05259685590863228, 0.20580272376537323, -0.09994178265333176, 0.07293416559696198, -0.08158554881811142, -0.15089382231235504, 0.13157403469085693, -0.009464632719755173, -0.004158675204962492, 0.021659960970282555, -0.014254597015678883, -0.11199937015771866, 0.15278109908103943, -0.0285885501652956, -0.11873838305473328, -0.016578031703829765, -0.06681295484304428, -0.11783204972743988, 0.04276231303811073, -0.08448424935340881, -0.056406062096357346, -0.12432454526424408, -0.0004967757849954069, 0.051691412925720215, 0.09931859374046326, 0.15271472930908203, -0.008451824076473713, -0.18674543499946594, -0.3307856023311615, 0.057901427149772644, 0.011581337079405785, 0.0356479175388813, -0.11742851883172989, -0.02553436905145645, 0.02935626357793808, 0.048646990209817886, 0.015946824103593826, 0.09034963697195053, -0.04089474678039551, 0.05065920948982239, 0.3164981007575989, 0.4591071605682373, 0.15218766033649445, 0.03319794312119484, 0.021464841440320015, -0.3085269629955292, -0.27493977546691895, -0.32112354040145874, -0.08262081444263458, -0.05231160670518875, 0.025876518338918686, -0.06139229238033295, 0.03498228266835213, -0.09254660457372665, 0.2062952220439911, -0.004774506203830242, 0.01800987310707569, -0.11965008825063705, 0.1284288614988327, 0.12348184734582901, -0.14065654575824738, -0.030813612043857574, -0.09815377742052078, 0.130273699760437, 0.13134807348251343, 0.08137302845716476, -0.0018130820244550705, -0.10858901590108871, -0.21663492918014526, -0.24881868064403534, -0.13464125990867615, -0.31814104318618774, 0.008877106942236423, -0.1701187938451767, 0.005089588463306427, -0.1674640029668808, -0.1532270610332489, -0.28887736797332764, -0.2944413125514984, 0.05432477593421936, 0.15467287600040436, 0.1106802225112915, 0.01854800619184971, 0.1460401564836502, 0.11567693948745728, 0.07261307537555695, 0.09099479764699936, -0.06613458693027496, 0.015799006447196007, 0.040800876915454865, 0.10423913598060608, 0.06760117411613464, 0.10763286799192429, -0.1317509263753891, 0.1476481407880783, -0.09204991161823273, 0.4256107211112976, -0.21837261319160461, 0.0247225109487772, -0.898970365524292, -0.39583849906921387, -0.6733102798461914, 0.48043546080589294], [-0.005650846287608147, 0.31447139382362366, -0.22859282791614532, 0.4035027325153351, 0.2901204824447632, -0.3409004211425781, 0.07174193114042282, 0.3046051263809204, 0.6732237935066223, 0.14495328068733215, -0.33262717723846436, 0.5070574879646301, -0.035848524421453476, 0.14675630629062653, -0.031032415106892586, -0.27603861689567566, -0.02956385537981987, -0.13830679655075073, 0.11458167433738708, 0.05036730319261551, -0.039963286370038986, 0.12001864612102509, 0.03320315480232239, -0.14475208520889282, -0.029631389304995537, -0.14394031465053558, 0.0642269030213356, 0.12011756747961044, 0.24759353697299957, -0.20002488791942596, 0.3485562801361084, -0.3079483211040497, 0.17877323925495148, 0.6334168910980225, -0.08238337934017181, -0.2741158604621887, -0.5788497924804688, 0.15358279645442963, 0.5106683373451233, -0.11097518354654312, 0.08082018792629242, 0.05604276433587074, -0.15179423987865448, 0.5995849967002869, 0.004272506106644869, 0.03166043758392334, -0.1107863336801529, 0.15543203055858612, -0.059196874499320984, 0.10650898516178131, 0.11508132517337799, -0.03857903182506561, 0.13101550936698914, -0.010259253904223442, -0.09721897542476654, 0.04527053236961365, -0.26082658767700195, -0.17516963183879852, 0.01143873855471611, -0.8476142287254333, 1.2885128259658813, 1.0902940034866333, -0.07706553488969803, -0.0037444436457008123, 0.006499095819890499, -0.06295906007289886, -0.23917855322360992, -0.5130559206008911, -0.08584911376237869, 0.17765134572982788, 0.12080326676368713, -0.06584548950195312, 0.035839758813381195, -0.1926988959312439, 0.03958861157298088, -0.416433185338974, -0.05318069085478783, 0.1344665288925171, -0.049151286482810974, 0.09301596134901047, -0.11355488747358322, 0.01954100839793682, 0.10599129647016525, -0.1833900511264801, 0.04947618767619133, 0.045675963163375854, 0.13718155026435852, -0.163560688495636, -0.13240674138069153, 0.037615422159433365, 0.14902257919311523, 0.08791617304086685, -0.04333748668432236, 0.02765522710978985, -0.02471863478422165, 0.043517377227544785, 0.06710909307003021, -0.1341918408870697, 0.14442463219165802, 0.008349527604877949, -0.040528301149606705, -0.10202112793922424, -0.23913541436195374, -0.18237797915935516, -0.08973877876996994, 0.031241068616509438, 0.09071492403745651, -0.020093103870749474, 0.053349096328020096, -0.15807822346687317, 0.1724529266357422, -0.18170222640037537, 0.07758136093616486, -0.11885421723127365, -0.13143037259578705, -0.03755612671375275, -0.13982240855693817, -0.07834554463624954, -0.004715262446552515, -0.11574027687311172, 0.010256906971335411, 0.03282346576452255, -0.13230937719345093, -0.08193923532962799, 0.08346521854400635, 0.11088695377111435, 0.08415040373802185, -0.09201473742723465, 0.13805033266544342, -0.055437881499528885, 0.05246935412287712, -0.09992948174476624, -0.026173027232289314, -0.012920472770929337, 0.02183680795133114, -0.011699393391609192, 0.06130213290452957, 0.019044561311602592, 0.09947945177555084, -0.053615231066942215, 0.06962087750434875, 0.0056670233607292175, -0.006425977684557438, 0.034109197556972504, -0.07202913612127304, -0.044477615505456924, -0.1676960587501526, -0.24268090724945068, 0.671210765838623, 0.4614847004413605, 0.6270846128463745, -0.8274052739143372, 1.2039313316345215, -0.03050452284514904, -0.7157266736030579, 0.2746853232383728, -0.11578990519046783, 0.059963975101709366, -0.035810936242341995, 0.9438968300819397, 0.12951284646987915, 0.10618414729833603, -0.03491160646080971, -0.11124135553836823, 0.13022005558013916, 0.06524884700775146, -0.14500178396701813, -0.0953892394900322, 0.020995108410716057, 0.018923358991742134, 0.08933155238628387, 0.03132961690425873, -0.10191276669502258, -0.34701117873191833, 0.7183485627174377, 0.7385879158973694, 0.32512202858924866, -0.24305960536003113, -0.1392689049243927, -0.5400642156600952, 0.24623271822929382, -0.10346245765686035, -0.4959641695022583, -0.7294567823410034, -0.13100484013557434, 0.031101124361157417, -0.10799968987703323, 0.6812335848808289, -0.14323276281356812, 0.13978947699069977, 0.056388650089502335, -0.04461434856057167, 0.0028005766216665506, -0.07981297373771667, -0.0036111732479184866, 0.14810891449451447, 0.05381513014435768, 0.0396365225315094, -0.13595791161060333, -0.13393250107765198, 0.2042199820280075, 0.4556284248828888, -0.6936311721801758, 0.44244226813316345, 0.4544612765312195, -1.25950026512146, -0.7596422433853149, 0.7796291708946228], [0.02558702416718006, -0.1345769315958023, -0.22923052310943604, 0.41664576530456543, 0.052762988954782486, -0.3101406693458557, 0.057028431445360184, 0.30008965730667114, 0.4464135766029358, 0.0031542214564979076, -0.45345380902290344, 0.2589382827281952, 0.1443987786769867, 0.10917574167251587, -0.14904317259788513, -0.09052489697933197, -0.08514141291379929, -0.04467480257153511, 0.047556426376104355, -0.11505383998155594, -0.14472807943820953, 0.05457715690135956, -0.07988705486059189, -0.12142769992351532, 0.10317616164684296, -0.09014926105737686, -0.03214763477444649, -0.012939564883708954, 0.3411802351474762, -0.30023130774497986, 0.05712585151195526, -0.2355370819568634, 0.3575986325740814, 0.18298281729221344, -0.41001206636428833, -0.028197821229696274, 0.3089416027069092, -0.06336020678281784, 0.2781667411327362, -0.18348057568073273, -0.13960526883602142, -0.02183152176439762, -0.06647490710020065, 0.30673328042030334, 0.13022013008594513, 0.04537796601653099, 0.07639728486537933, -0.031707677990198135, 0.0030361127573996782, 0.14879567921161652, 0.027416851371526718, -0.06308503448963165, -0.13900530338287354, -0.13319113850593567, -0.03834807500243187, -0.11263579875230789, -0.4844934642314911, -0.10415500402450562, 0.10073394328355789, -0.6076705455780029, 1.0800327062606812, 0.36166486144065857, -0.3113832175731659, 0.3303924798965454, 0.007251076400279999, 0.03583237901329994, -0.2759798467159271, -0.306388795375824, 0.02975703775882721, -0.15009260177612305, 0.11954248696565628, 0.11932173371315002, -0.11517481505870819, -0.08473017811775208, -0.03625538945198059, -0.10952828824520111, -0.1926150918006897, -0.39548221230506897, -0.07635273039340973, -0.006787552498281002, -0.06968604028224945, 0.14932914078235626, -0.1202162504196167, 0.034106168895959854, 0.0053799268789589405, 0.13235725462436676, -0.15078838169574738, -0.11347565054893494, -0.08539069443941116, -0.08098198473453522, 0.0410691574215889, 0.07358062267303467, 0.09099797904491425, -0.14879144728183746, 0.10365385562181473, 0.010074027813971043, 0.07866425067186356, 0.1170194074511528, -0.12460698187351227, -0.14566655457019806, 0.07997942715883255, 0.18469132483005524, -0.2745839059352875, 0.10606704652309418, -0.055953215807676315, -0.053215134888887405, 0.17600654065608978, 0.09521637856960297, 0.05446339771151543, 0.03437553718686104, 0.02424856834113598, 0.10955381393432617, 0.02814446948468685, 0.11689490079879761, -0.06523086130619049, 0.1408102810382843, -0.010056046769022942, -0.10274305939674377, -0.11678549647331238, -0.12307016551494598, 0.12548787891864777, 0.024173177778720856, -0.10050546377897263, 0.12384843826293945, -0.10884715616703033, 0.030906356871128082, 0.01299540139734745, -0.07248618453741074, 0.14006352424621582, 0.2309861183166504, 0.176267609000206, 0.008172279223799706, -0.1674565076828003, -0.31082141399383545, 0.009056590497493744, 0.014079785905778408, -0.02503497712314129, -0.10975381731987, -0.05060158669948578, -0.07667311280965805, -0.04263727739453316, 0.12123788893222809, 0.09532593935728073, 0.001261119032278657, -0.1431785374879837, 0.5105284452438354, 0.0730087086558342, -0.2660009562969208, 0.26745447516441345, 0.21608015894889832, 0.384189635515213, -0.4480995833873749, 0.5887072086334229, 0.14759285748004913, -0.8707192540168762, 0.31873318552970886, 0.026299702003598213, -0.10156866908073425, -0.1471894383430481, 0.4758695065975189, -0.05111365765333176, 0.028594568371772766, 0.13363003730773926, 0.11870691925287247, -0.017496591433882713, -0.014355846680700779, -0.1437549740076065, -0.017478762194514275, 0.005456280894577503, 0.13905280828475952, 0.07541070133447647, -0.09914456307888031, -0.03743321821093559, -0.5109150409698486, 0.40482088923454285, 0.25358057022094727, -0.06985562294721603, -0.19940441846847534, -0.16001728177070618, -0.2652985751628876, -0.3512103259563446, -0.012290837243199348, -0.5607334971427917, -0.4253799319267273, 0.04845045879483223, -0.114501953125, 0.11066432297229767, 0.2812926769256592, -0.11184367537498474, -0.04331227391958237, 0.05371367558836937, 0.076780304312706, 0.08719828724861145, 0.010083340108394623, -0.10820217430591583, 0.11211032420396805, 0.12212669849395752, -0.0026285997591912746, -0.04354364797472954, 0.08205912262201309, -0.48771241307258606, 1.0494073629379272, -0.33319738507270813, 0.5501990914344788, 0.08941920846700668, -0.6363402009010315, -0.9256101250648499, 0.7184504866600037], [-0.23429712653160095, 0.11143960058689117, -0.27491477131843567, 0.3755476474761963, -0.38996657729148865, -1.1298454999923706, -0.8635050058364868, 0.43586403131484985, -0.29565590620040894, 0.07289339601993561, -0.4182576835155487, 0.36241787672042847, -0.1130606085062027, 0.15233322978019714, -0.15770785510540009, -0.3438188433647156, -0.0447315089404583, 0.05513446405529976, -0.02062934823334217, 0.10860961675643921, -0.014002240262925625, 0.14234478771686554, -0.08963583409786224, 0.03891776129603386, 0.07794666290283203, 0.017341649159789085, -0.11023292690515518, -0.08056334406137466, -0.317161500453949, -0.5594143271446228, -0.44482988119125366, 0.13936452567577362, -0.25162309408187866, -0.6393824219703674, -0.48205065727233887, -0.26343318819999695, -0.9356452822685242, -0.00865884404629469, -0.7390914559364319, 0.4443897604942322, -0.12229125946760178, 2.9451462978613563e-05, -0.07075505703687668, -0.8521491289138794, 0.11251257359981537, 0.09770439565181732, 0.03514661267399788, 0.06725404411554337, -0.10919705033302307, -0.1350586861371994, 0.031368836760520935, -0.123702771961689, 0.030567172914743423, -0.02089872770011425, 0.04581379517912865, -0.12283675372600555, -2.1077284812927246, -0.8900995850563049, 0.9148103594779968, -0.11069368571043015, 2.0582070350646973, 0.5534610152244568, -0.6969528794288635, 1.2679108381271362, 0.030339661985635757, -0.08006876707077026, -0.66926509141922, -0.3908858001232147, 0.1470782458782196, 0.09443239867687225, 0.07476961612701416, -0.07008866220712662, 0.05382110923528671, -0.23862701654434204, -0.10349005460739136, 0.1719965934753418, 0.0037119982298463583, 0.09401732683181763, 0.11656327545642853, -0.15645182132720947, 0.04672636464238167, -0.10399061441421509, -0.12312117964029312, -0.14734633266925812, 0.06796315312385559, -0.005001827608793974, -0.06850588321685791, -0.11781845986843109, 0.002498188056051731, -0.13179351389408112, 0.09119944274425507, 0.0009168944670818746, 0.08468321710824966, -0.14055907726287842, 0.09019457548856735, 0.0064667160622775555, -0.03340102359652519, -0.06777894496917725, 0.12470339983701706, -0.14350539445877075, 0.060807812958955765, 0.017945295199751854, -0.13899485766887665, -0.005984855350106955, 0.11270775645971298, -0.06072607263922691, 0.03475264832377434, 0.00613735057413578, -0.13251279294490814, 0.08382817357778549, -0.1636856645345688, 0.11809447407722473, -0.15546473860740662, 0.12410354614257812, -0.10058654844760895, 0.011308037675917149, -0.11768785864114761, -0.1407778412103653, -0.09250356256961823, -0.1370847523212433, 0.12455160170793533, 0.07783075422048569, 0.11312651634216309, -0.004986117593944073, -0.08338981121778488, -0.1223207488656044, 0.013928725384175777, 0.04756619408726692, 0.12213452160358429, 0.1618024706840515, -0.09463457763195038, 0.058143194764852524, -0.19890791177749634, 0.018959064036607742, 0.07588041573762894, -0.027957169339060783, 0.0003591829154174775, -0.03588322177529335, 0.0609700009226799, -0.04155319556593895, 0.027628451585769653, 0.008405807428061962, -0.04205509275197983, -0.02533365786075592, 1.153719186782837, 0.7844972610473633, -0.3283483386039734, 0.07619898021221161, 1.1249816417694092, 0.4174351692199707, -0.7154303193092346, -1.0934844017028809, 0.03783729672431946, -0.09023576229810715, -1.788739562034607, 0.04769080877304077, 0.004623463377356529, -0.14332391321659088, 0.03275502473115921, -0.21851158142089844, 0.014981633983552456, 0.11789090931415558, -0.061799466609954834, -0.026076052337884903, -0.0021803167182952166, -0.09766540676355362, -0.032093197107315063, -0.03841644152998924, -0.012551055289804935, -0.07224659621715546, 0.08530177175998688, 0.09614691138267517, -0.04991842061281204, -0.21061646938323975, -0.8848770260810852, -0.05811922997236252, -0.5275050401687622, -0.3045262396335602, -0.4500132203102112, -1.1731566190719604, -0.9228594303131104, 0.14150689542293549, -0.7898182272911072, -0.6995373964309692, 0.11457383632659912, -0.1284772753715515, -0.04987078905105591, 1.1950503587722778, -0.14346730709075928, 0.07911257445812225, 0.0023079272359609604, -0.12492496520280838, 0.01166357472538948, 0.09011337906122208, -0.030009450390934944, -0.1260337084531784, -0.0599634051322937, 0.05841111019253731, -0.05332088842988014, -0.024436121806502342, -2.651200532913208, 1.6045622825622559, 0.5276568531990051, 0.31379222869873047, 1.5182875394821167, -0.8371036648750305, -0.29317712783813477, -0.2246907502412796], [-0.2661876380443573, -0.41651469469070435, 0.14078034460544586, -0.3917809724807739, -0.07028622180223465, -0.013814578764140606, 0.19802701473236084, -0.37793633341789246, -0.9385994672775269, -0.08395586162805557, 0.01512278150767088, -0.26967763900756836, -0.02380109764635563, 0.08671370148658752, 0.026130905374884605, -0.1922459751367569, 0.042761292308568954, -0.12616507709026337, -0.09837894141674042, -0.09570858627557755, 0.08933859318494797, -0.018796922639012337, 0.1179487556219101, -0.07028807699680328, -0.04551628977060318, -0.07155107706785202, -0.107072614133358, -0.13881057500839233, -0.5874005556106567, 0.019333723932504654, -0.14582756161689758, 0.00805650930851698, 0.3367968797683716, -0.4078523516654968, 0.024300798773765564, 0.9251432418823242, -0.7262478470802307, 0.02937234565615654, -0.39761510491371155, 0.36743080615997314, 0.11640872806310654, 0.14549590647220612, 0.14093467593193054, -0.31591796875, 0.040549136698246, -0.104282446205616, 0.0948389321565628, -0.09822376817464828, 0.1281873732805252, -0.06755552440881729, -0.0585714653134346, 0.0126157496124506, 0.07619169354438782, 0.09347784519195557, -0.1518976241350174, 0.04179034009575844, -0.3269050121307373, 0.25430458784103394, 0.20933397114276886, 0.18592029809951782, 0.030848754569888115, -0.3143140375614166, -0.3629293143749237, 0.4162876009941101, -0.04109686613082886, -0.02086099050939083, -0.5246081948280334, -0.08027831465005875, 0.052552785724401474, -0.01611781306564808, -0.13775859773159027, 0.036469750106334686, 0.030381012707948685, 0.19794373214244843, 0.06119494512677193, -0.21977858245372772, 0.24074198305606842, -0.2841816246509552, -0.11045015603303909, -0.03675328195095062, 0.03004944883286953, 0.13663744926452637, 0.0005631753010675311, 0.04927549138665199, 0.11925593763589859, 0.13322365283966064, -0.15647165477275848, 0.21495141088962555, -0.03621087595820427, 0.021685589104890823, 0.09614032506942749, 0.009554236195981503, 0.11833813786506653, -0.11252661794424057, -0.10384976118803024, 0.06188486889004707, 0.09513768553733826, -0.13337628543376923, -0.13325117528438568, 0.0825086161494255, 0.0634128749370575, -0.00024144991766661406, 0.03311757370829582, -0.039335981011390686, 0.09817886352539062, -0.03412003442645073, -0.07268909364938736, 0.0059115830808877945, -0.1234036460518837, 0.046860381960868835, -0.10780610889196396, 0.07626836001873016, -0.07401663810014725, 0.025028973817825317, -0.005889232736080885, -0.12173804640769958, 0.040118154138326645, -0.13775210082530975, 0.10191228240728378, -0.020403655245900154, 0.01835901290178299, -0.12921541929244995, 0.05248848721385002, 0.045041773468256, -0.1580767184495926, -0.11835861206054688, -0.07753116637468338, 0.04112476482987404, 0.00042283369111828506, 0.029749926179647446, 0.109089195728302, 0.056551020592451096, 0.03863590583205223, -0.0486253947019577, -0.19753941893577576, -0.21695320308208466, 0.022703945636749268, 0.010698694735765457, -0.025147657841444016, 0.0545114204287529, -0.039109908044338226, 0.05034095421433449, 0.024698816239833832, 0.05627494677901268, -0.9812559485435486, 0.801602840423584, 0.35918134450912476, 0.6119412779808044, -1.2310653924942017, -0.361701101064682, 0.3461568057537079, 1.555764079093933, -0.9848884344100952, -0.11501284688711166, -0.48403510451316833, 0.7737587690353394, 0.14473837614059448, 0.08003253489732742, -0.06504473090171814, 1.1963249444961548, -0.0422518327832222, 0.11068760603666306, -0.007016110699623823, 0.11822418868541718, 0.05550260841846466, 0.12206681072711945, -0.03930407389998436, -0.10885147005319595, -0.09722363203763962, 0.031045816838741302, -0.012732609175145626, -0.07621622085571289, 0.6204383969306946, -0.6996185183525085, -0.4197978675365448, -0.5878146290779114, 0.518659234046936, 0.7657877802848816, -0.4940185248851776, 0.17573042213916779, -0.43140190839767456, -0.10265807062387466, 0.8237675428390503, 0.2564707100391388, -0.1260598748922348, -0.08286543935537338, 0.14510391652584076, 0.07601238787174225, 0.09031809866428375, -0.15073195099830627, 0.02250496856868267, -0.11656048893928528, 0.027776097878813744, -0.11671750992536545, -0.04978383705019951, 0.04596446081995964, 0.15388154983520508, -0.1149601861834526, 0.1272600293159485, 0.145865336060524, -3.3249411582946777, -0.7902885675430298, 1.9281030893325806, 0.8367327451705933, 0.7702279686927795, -2.3378684520721436, -0.7628946304321289, 1.8248437643051147], [-0.024017367511987686, -0.26999470591545105, 0.22600513696670532, 0.001837683841586113, 0.1712074875831604, 0.09481971710920334, -0.2142549604177475, 0.0050597782246768475, -0.22230009734630585, -0.04327434301376343, -0.390796959400177, -0.034336209297180176, -0.05191785842180252, -0.13196492195129395, 0.06371994316577911, -0.08326024562120438, -0.1540742665529251, -0.03280026093125343, -0.11345085501670837, 0.06551871448755264, -0.11928875744342804, -0.0615944042801857, -0.0548117458820343, -0.05208657681941986, 0.11052997410297394, -0.008999958634376526, 0.026160091161727905, 0.024886637926101685, 0.20985686779022217, -0.14728118479251862, -0.0930606871843338, -0.21665045619010925, -0.017614617943763733, 0.01272654440253973, -0.20412743091583252, 0.2739518880844116, -0.0879707857966423, -0.0778365433216095, -0.19035649299621582, -0.13633209466934204, 0.03991146385669708, -0.09147348254919052, 0.07786330580711365, -0.03997498378157616, 0.03661078214645386, 0.051308196038007736, -0.10576508939266205, 0.035626694560050964, -0.08275588601827621, 0.05051955580711365, -0.0017422925448045135, -0.11525353044271469, 0.06274490058422089, -0.12457310408353806, 0.15053486824035645, 0.09314070641994476, 0.11163400858640671, 0.06381136924028397, -0.16249871253967285, -0.10243120044469833, -0.11929204314947128, 0.0069069452583789825, -0.14854960143566132, 0.4021679759025574, 0.047148074954748154, -0.0007630498730577528, 0.04777463153004646, -0.002007473027333617, 0.12019767612218857, -0.03473609685897827, -0.07568811625242233, 0.11266541481018066, -0.18299032747745514, -0.004607472103089094, -0.07626533508300781, 0.0038011171855032444, -0.017084944993257523, -0.1366739124059677, 0.10631831735372543, -0.010320646688342094, 0.1644568294286728, 0.1008693277835846, -0.07670655101537704, -0.006664715241640806, 0.07394804060459137, -0.112381711602211, -0.04213327169418335, -0.13726474344730377, -0.03323601558804512, 0.05492255091667175, 0.043218206614255905, -0.12189082056283951, 0.14526918530464172, 0.1543533354997635, 0.042433008551597595, -0.05493064969778061, 0.0522686243057251, -0.12035521864891052, -0.12659363448619843, -0.1476287841796875, 0.23230385780334473, 0.12257568538188934, -0.19753311574459076, -0.008198106661438942, -0.19671669602394104, -0.09084423631429672, 0.3406459391117096, 0.06986020505428314, 0.017459437251091003, -0.06037762016057968, 0.03745073825120926, 0.15536534786224365, -0.0699625164270401, -0.1387288123369217, -0.15679705142974854, 0.01903245784342289, 0.10016465187072754, 0.04127436876296997, 0.006799123715609312, 0.15710663795471191, -0.050498396158218384, 0.062372785061597824, -0.1574125736951828, 0.12534458935260773, 0.10598646849393845, 0.05520264059305191, -0.14800602197647095, -0.10352374613285065, 0.12211263924837112, 0.23560045659542084, -0.06628988683223724, 0.009583706967532635, -0.02606571651995182, -0.08298024535179138, 0.11549345403909683, -0.20859111845493317, 0.055073175579309464, 0.17920918762683868, -0.08904073387384415, 0.014241082593798637, -0.00922796968370676, -0.12385477870702744, 0.059233590960502625, 0.10340751707553864, -0.2823399603366852, 0.5611724257469177, 0.4397573471069336, 0.45744970440864563, -0.3975481390953064, -0.22734737396240234, -0.3939732015132904, 0.7119760513305664, -0.6830765604972839, 0.0748654305934906, -0.38211721181869507, 0.15176409482955933, 0.12314565479755402, -0.062254033982753754, 0.026301860809326172, 1.1104800701141357, 0.0585860013961792, -0.10195823758840561, -0.13465546071529388, -0.04948265850543976, 0.04162222146987915, -0.059123244136571884, 0.10865715891122818, 0.15681461989879608, 0.01633344776928425, 0.13255342841148376, -0.14129970967769623, 0.1494157463312149, 0.27449658513069153, -0.6918631196022034, -0.06160248443484306, -0.19405916333198547, 0.10626982897520065, 0.1595126837491989, -0.17677995562553406, -0.19545505940914154, -0.1842312216758728, -0.01440115924924612, 0.13635124266147614, -0.40829047560691833, -0.08935513347387314, -0.1026199534535408, -0.09295234084129333, 0.043533891439437866, -0.1181187629699707, 0.13160890340805054, -0.12436198443174362, -0.00791865773499012, -0.029877865687012672, -0.14607301354408264, 0.06082222983241081, -0.13687415421009064, 0.045320235192775726, 0.08802016079425812, -0.0977587178349495, -0.05290425196290016, -1.5548224449157715, 0.3565259873867035, 0.5580704808235168, 0.9664397835731506, -0.16337889432907104, -1.8524761199951172, -0.7842558026313782, 1.345003604888916], [0.24814023077487946, -0.1072891429066658, -0.07117249071598053, -0.008678331971168518, 0.4283849596977234, -0.53169184923172, -0.2980831265449524, -0.021663276478648186, 0.6035802960395813, -0.03730330616235733, -0.4753977060317993, -0.2651287317276001, -0.12470623850822449, 0.02944302186369896, -0.14393126964569092, -0.4437045753002167, 0.10711758583784103, -0.06908877938985825, -0.0433373749256134, 0.11600904911756516, 0.08194411545991898, 0.03184732794761658, 0.03807449713349342, 0.1393888145685196, -0.03134585916996002, -0.06885453313589096, 0.0815105214715004, 0.11809059977531433, 0.4171232283115387, -0.4215529263019562, 0.19357247650623322, 0.010008069686591625, 0.09717660397291183, 0.1583300083875656, -0.2925698459148407, 0.011092773638665676, -0.3198341131210327, -0.02276083268225193, 0.19485434889793396, -0.13686566054821014, -0.11892281472682953, -0.0390474908053875, -0.0086951470002532, 0.5749700665473938, 0.12931369245052338, -0.12651072442531586, -0.016270343214273453, 0.037231456488370895, -0.12135642021894455, 0.13711942732334137, 0.025084620341658592, -0.15755203366279602, 0.014082001522183418, -0.09284834563732147, 0.1448121964931488, 0.041786666959524155, -0.019342906773090363, -0.21810033917427063, -0.5643897652626038, -0.8772180676460266, 0.11494512856006622, 0.6676328182220459, 0.280620276927948, 0.5417866706848145, -0.023328488692641258, 0.15322725474834442, -0.04422935098409653, 0.23700381815433502, -0.019381863996386528, 0.12282218784093857, 0.08772914856672287, -0.21037940680980682, 0.1915670931339264, -0.1538453847169876, -0.2376740276813507, -0.20881247520446777, -0.25286993384361267, 0.024074416607618332, -0.20585879683494568, -0.09350904822349548, -0.4000248312950134, -0.012121283449232578, 0.2032259702682495, -0.22485624253749847, -0.15589489042758942, -0.157208651304245, 0.07423949241638184, -0.0455067902803421, 0.14354825019836426, -0.10658934712409973, -0.1043962761759758, 0.028220634907484055, 0.0920514166355133, 0.03274287283420563, 0.0796811580657959, 0.15409353375434875, 0.08404527604579926, 0.1055503711104393, 0.0012747031869366765, -0.0014100739499554038, -0.14561662077903748, -0.05411180853843689, -0.35404297709465027, -0.08788644522428513, -0.2013278752565384, -0.2911089360713959, 0.05388598516583443, 0.00686675263568759, -0.2798207998275757, 0.10251975059509277, 0.4282422363758087, -0.20978491008281708, 0.05897681787610054, -0.09028981626033783, 0.09927251189947128, 0.2480621039867401, -0.117836132645607, -0.011914706788957119, -0.036258991807699203, 0.14194341003894806, 0.1331789493560791, 0.002985613653436303, -0.11697045713663101, -0.008372013457119465, -0.059253543615341187, 0.016973203048110008, 0.11759715527296066, 0.0562942773103714, -0.16272912919521332, 0.03425930440425873, -0.06139791011810303, 0.4571382999420166, 0.057761043310165405, -0.07387752085924149, -0.2934357523918152, -0.1733746975660324, 0.17223842442035675, -0.00024319447402376682, 0.21292535960674286, 0.0928628221154213, -0.15080174803733826, -0.057040195912122726, -0.02249687723815441, 0.03212051838636398, 0.15736255049705505, 0.12990149855613708, -0.13039058446884155, -0.02139289863407612, 0.4858168065547943, 0.3100880980491638, 0.10984062403440475, -1.122814416885376, 0.804654061794281, 0.11773934215307236, -0.6886464953422546, 0.13239161670207977, -0.10859182476997375, -0.15540684759616852, -0.08402930200099945, 0.6817748546600342, -0.004836589097976685, 0.043710969388484955, -0.03974497690796852, -0.12507109344005585, -0.04432521015405655, 0.054998867213726044, 0.1325041800737381, 0.06022653728723526, 0.05273829400539398, -0.061356935650110245, 0.04271223023533821, 0.1479048728942871, 0.033383626490831375, -0.4026508629322052, 0.29069599509239197, 0.45013099908828735, 0.057136811316013336, -0.26510903239250183, -0.16341853141784668, -0.34879401326179504, 0.10247023403644562, 0.0525248683989048, -0.6587228178977966, -0.39002227783203125, -0.016014782711863518, -0.013556568883359432, -0.05540633946657181, 0.4431268870830536, 0.07078087329864502, -0.14745715260505676, 0.147563636302948, 0.00832692813128233, 0.037573933601379395, -0.1353418529033661, 0.01489869225770235, -0.1367635428905487, -0.07508139312267303, -0.059968817979097366, -0.08064283430576324, -0.1132378876209259, -0.04014978185296059, 0.6583526134490967, -0.2845000624656677, 0.14079315960407257, 0.017218561843037605, -1.14010488986969, -0.6956902146339417, 0.3603704273700714], [-0.5480589270591736, -0.06905364990234375, -0.5060126185417175, -0.3395899832248688, -0.07289142161607742, -0.2010502964258194, 0.21789796650409698, -0.6769166588783264, -0.8777809739112854, 0.03250805661082268, 0.20550397038459778, -0.5586408972740173, -0.028550656512379646, 0.08769960701465607, 0.0037775475066155195, -0.3416489064693451, -0.018942590802907944, 0.08062334358692169, 0.1155598908662796, 0.05326369032263756, 0.12771184742450714, 0.057902030646800995, -0.0925387293100357, -0.028555048629641533, -0.0635739341378212, -0.0335991233587265, 0.11998124420642853, -0.14362607896327972, -0.6242477893829346, 0.4070676267147064, -0.04477852210402489, -0.19561871886253357, 0.16115692257881165, -0.7711085677146912, -0.04471132531762123, 0.3419910967350006, -0.8430916666984558, 0.10025879740715027, -0.4714430570602417, 0.3921773135662079, 0.04593481868505478, -0.1300879418849945, -0.06335611641407013, -0.9089605212211609, 0.06680522859096527, -0.08213766664266586, -0.03344667702913284, -0.14380089938640594, 0.13861119747161865, -0.02142658270895481, 0.10795566439628601, 0.0049835811369121075, 0.03266345337033272, -0.01682935282588005, 0.09982448816299438, -0.008876473642885685, -0.6641836762428284, -0.23384782671928406, 0.6543282866477966, -0.029527828097343445, 0.30023813247680664, -0.20777295529842377, -0.5288759469985962, 0.43380725383758545, -0.09594573825597763, -0.13177251815795898, -0.3569539189338684, 0.31489893794059753, -0.0918935239315033, -0.1619015336036682, -0.08899509161710739, -0.1451651155948639, 0.11043741554021835, 0.1627897471189499, 0.023869628086686134, -0.07093531638383865, -0.08178314566612244, 0.17327982187271118, 0.01657693460583687, -0.04668459668755531, -0.09940622746944427, -0.1275937259197235, 0.017784448340535164, 0.0062169586308300495, -0.14175553619861603, 0.015373512171208858, 0.018520010635256767, -0.10960949957370758, 0.07008933275938034, 0.1077083945274353, -0.0887606143951416, -0.0204186849296093, -0.1170819029211998, -0.020356524735689163, -0.008423080667853355, 0.1444610208272934, -0.09587851911783218, 0.03491239994764328, 0.08550581336021423, 0.08038299530744553, -0.03298940882086754, -0.06628847122192383, 0.059493038803339005, -0.11073239147663116, 0.20104414224624634, 0.05524084344506264, -0.3593154847621918, 0.013213740661740303, 0.051312919706106186, 0.10563971102237701, -0.10552150011062622, -0.17845119535923004, -0.026122651994228363, -0.0020175387617200613, 0.15105783939361572, -0.163188174366951, 0.0973556712269783, -0.002491071354597807, 0.005444205366075039, -0.06120971590280533, 0.06539466232061386, 0.15854816138744354, -0.03157510980963707, 0.0139559805393219, 0.13954629004001617, 0.046953506767749786, -0.026352548971772194, -0.14714571833610535, 0.04467996209859848, -0.149973526597023, 0.03897770494222641, -0.05488044396042824, 0.036553721874952316, 0.22966131567955017, 0.10286469757556915, -0.11862089484930038, -0.004919914063066244, -0.0630737841129303, 0.1164814829826355, 0.004652564879506826, 0.00021029144409112632, 0.08679986745119095, 0.023325130343437195, 0.03063543140888214, -0.1835675835609436, -0.12498335540294647, -0.11170615255832672, 0.14399755001068115, -0.5555996298789978, 0.18799276649951935, -0.28451889753341675, 0.4893793761730194, -0.21125702559947968, -0.12325535714626312, -0.19292490184307098, 0.45099759101867676, -0.01893509551882744, -0.1137123629450798, -0.044338345527648926, -0.3864683210849762, -0.1313912719488144, -0.027749599888920784, -0.1164899617433548, 0.06116243451833725, 0.0005317162722349167, 0.11638779193162918, 0.07583308964967728, 0.00718630850315094, -0.013380125164985657, -0.0437459833920002, -0.11662207543849945, -0.12372555583715439, 0.46102839708328247, 0.31561174988746643, -0.43898218870162964, -1.033420443534851, -0.41350916028022766, 0.48353084921836853, 0.0449252612888813, -0.11698982119560242, -0.8792505264282227, 0.011467937380075455, 0.6146490573883057, 0.9178880453109741, 0.10157234221696854, 0.031155066564679146, -0.0984906479716301, -0.3356345295906067, -0.14384381473064423, 0.08026352524757385, 0.08086198568344116, 0.08362281322479248, 0.07174694538116455, 0.14470374584197998, 0.012118443846702576, -0.06564587354660034, -0.13818387687206268, 0.05638391897082329, 0.07379598170518875, 0.060915201902389526, -1.5083328485488892, 0.4326901137828827, 2.626887798309326, -0.18500083684921265, 1.6155028343200684, 0.9567810297012329, 0.4660619795322418, -0.6030368804931641], [-0.0016442564083263278, -0.1107255220413208, -0.017859742045402527, -0.03585001826286316, 0.04589473083615303, -0.18378448486328125, -0.4187781512737274, 0.07148682326078415, -0.24675928056240082, -0.08929819613695145, -0.5044488906860352, 0.12360098212957382, 0.055774446576833725, -0.07745647430419922, -0.013787941075861454, -0.27300357818603516, -0.04053698480129242, 0.09076513350009918, 0.08559923619031906, -0.1510438770055771, -0.1197345033288002, -0.09598580002784729, -0.05993024259805679, -0.12508271634578705, -0.13637757301330566, -0.0842670351266861, -0.026729701086878777, 0.15178772807121277, -0.03665084391832352, -0.09988007694482803, -0.4379767179489136, -0.1049225851893425, 0.11902843415737152, -0.24855686724185944, -0.19722795486450195, 0.26998990774154663, -0.2600384056568146, -0.06836846470832825, 0.058641690760850906, 0.06007184088230133, -0.12984654307365417, -0.08262721449136734, -0.10856562852859497, -0.05050200596451759, -0.07986108958721161, -0.1258319467306137, 0.05474977567791939, 0.0014927121810615063, 0.09100385010242462, 0.03819699585437775, -0.06966572999954224, -0.13309676945209503, -0.05183427035808563, -0.12091843038797379, -0.07408171147108078, -0.12976916134357452, -0.08853050321340561, 0.05884663388133049, -0.22666536271572113, -0.2607564926147461, 0.610764741897583, 0.030442791059613228, -0.4262668788433075, 0.5279605984687805, -0.11580581218004227, -0.05235433205962181, -0.15834447741508484, -0.03502517566084862, -0.003023809054866433, 0.17617450654506683, 0.1274481564760208, -0.05271558836102486, -0.002578612184152007, 0.02990202233195305, -0.15053832530975342, 0.08946818858385086, 0.015986384823918343, -0.26732689142227173, -0.07823563367128372, 0.05539509281516075, -0.04124826565384865, -0.022961996495723724, 0.10810399800539017, 0.0717911347746849, -0.052411679178476334, -0.13736779987812042, -0.1101977601647377, 0.1084432378411293, 0.11766699701547623, 0.012023692019283772, 0.04588371515274048, -0.12231578677892685, -0.05584394931793213, 0.0653364434838295, -0.009962430223822594, 0.12128858268260956, 0.139309361577034, 0.03271326795220375, 0.00280909426510334, 0.15102975070476532, 0.1507931798696518, -0.04757129028439522, -0.13817811012268066, -0.04553430527448654, -0.164870023727417, 0.038464054465293884, 0.10489419847726822, -0.10126370936632156, 0.01246264111250639, -0.14512643218040466, 0.0729987695813179, -0.15398336946964264, 0.06842684000730515, 0.09221574664115906, 0.059137552976608276, -0.09901455044746399, -0.07751890271902084, -0.11641277372837067, -0.0860709547996521, -0.12095761299133301, 0.10358764976263046, -0.15745186805725098, -0.10955603420734406, 0.03678885102272034, -0.1256033033132553, -0.1356651782989502, -0.14938296377658844, -0.07535660266876221, 0.1762198954820633, 0.010110576637089252, 0.20556901395320892, 0.07165084779262543, -0.023386651650071144, -0.24005089700222015, -0.11769130825996399, -0.1177099272608757, 0.015336545184254646, -0.04679923132061958, -0.06261155754327774, 0.17790894210338593, 0.12744562327861786, 0.031839799135923386, 0.07622956484556198, -0.09393393993377686, -0.10636767745018005, 0.5506834387779236, 0.25175315141677856, 0.3131340742111206, 0.17003683745861053, 0.12946446239948273, -0.01594017632305622, -0.16355976462364197, -0.06938870996236801, -0.022203829139471054, -0.527326762676239, 0.04250034689903259, 0.023398658260703087, -0.031339649111032486, -0.1323689967393875, 0.4844832122325897, -0.09513136744499207, -0.06148939207196236, 0.07980237156152725, 0.10992739349603653, -0.08638840913772583, -0.12146002799272537, -0.03000793606042862, -0.11324538290500641, -0.09091503918170929, 0.07799588143825531, -0.10081909596920013, 0.09501776099205017, 0.03248969838023186, -0.32589221000671387, -0.15202520787715912, -0.4102993607521057, -0.23820450901985168, -0.1224418431520462, -0.35568150877952576, -0.47626015543937683, -0.3356713056564331, -0.08483312278985977, -0.0176985040307045, -0.05578092485666275, 0.11135367304086685, 0.03283444419503212, 0.06571715325117111, 0.2703952193260193, 0.053591251373291016, 0.058530278503894806, -0.0027350489981472492, -0.014639762230217457, -0.027246804907917976, 0.03929059952497482, 0.0016062782378867269, 0.13912802934646606, 0.007815539836883545, 0.04836626723408699, 0.13024069368839264, -0.08325228095054626, -1.6705892086029053, 0.6609012484550476, 0.8000162243843079, 0.5406747460365295, 0.21046845614910126, -0.8216577172279358, -0.7850525975227356, 0.568852424621582], [0.193245992064476, -0.08517108857631683, -0.15299367904663086, -0.25571587681770325, 0.18012948334217072, -0.24280314147472382, -0.21426057815551758, 0.2558954954147339, 0.1696072369813919, 0.06329448521137238, -0.13784992694854736, 0.10214857012033463, 0.02389214001595974, 0.08044201135635376, 0.03158760070800781, -0.18299125134944916, -0.102643683552742, 0.04144354537129402, -0.15614567697048187, 0.04047740250825882, 0.004784651566296816, -0.04553109034895897, -0.016070542857050896, -0.004116390831768513, -0.04607904702425003, 0.12170585989952087, 0.07405100762844086, 0.04791124537587166, 0.3024963140487671, 0.07040169090032578, -0.02458668127655983, 0.0484350360929966, 0.02343636006116867, 0.2096414715051651, -0.365486204624176, -0.2408224642276764, 0.23106005787849426, 0.01574377529323101, -0.026208488270640373, -0.1271836906671524, -0.021401144564151764, 0.0186258926987648, 0.09576279670000076, 0.41137799620628357, 0.07775156199932098, 0.11830266565084457, -0.1393122673034668, 0.09870805591344833, 0.0278639979660511, 0.03799912706017494, -0.12176578491926193, -0.11288874596357346, -0.14271020889282227, -0.1340680867433548, 0.009369767270982265, 0.07891859859228134, -0.08361995220184326, -0.06134328618645668, 0.23679187893867493, -0.23755678534507751, 0.0847131609916687, -0.235157772898674, -0.22486309707164764, 0.5507259368896484, 0.0040435465052723885, 0.01198976393789053, 0.12283290922641754, 0.022944051772356033, -0.06169513985514641, -0.08141475170850754, 0.025791069492697716, -0.04064396396279335, -0.09611470997333527, -0.16769316792488098, -0.23167841136455536, 0.18865101039409637, -0.1804327666759491, -0.08142577111721039, 0.05693229287862778, 0.16970010101795197, 0.14569944143295288, -0.00921826995909214, -0.0786191076040268, 0.028694961220026016, 0.13333620131015778, -0.14373056590557098, 0.09425490349531174, -0.013126445934176445, 0.0821809396147728, -0.056676462292671204, -0.13263238966464996, 0.0035632862709462643, 0.01052026730030775, -0.019083639606833458, 0.12200351804494858, -0.06377127766609192, -0.05502680316567421, -0.020981743931770325, -0.08856762945652008, 0.06721895188093185, 0.1040598526597023, -0.0838632807135582, -0.21199104189872742, 0.03715737536549568, -0.16939711570739746, 0.0985085591673851, 0.3912079930305481, -0.14830629527568817, -0.19855910539627075, 0.11202098429203033, -0.04033208638429642, 0.16009490191936493, -0.13668295741081238, 0.08713794499635696, 0.056706443428993225, 0.03642300143837929, 0.08938624709844589, -0.02011232078075409, 0.10771403461694717, 0.12114972621202469, 0.1213049367070198, -0.0633208379149437, 0.003911025356501341, 0.10070079565048218, -0.10067641735076904, -0.06560669094324112, 0.018839813768863678, 0.11591807752847672, 0.15684810280799866, 0.026478860527276993, -0.028995253145694733, -0.001601720112375915, -0.2619644105434418, -0.08566983789205551, 0.09669726341962814, 0.004030897747725248, 0.007154294289648533, 0.05926409736275673, -0.03952985629439354, 0.09552541375160217, -0.04594320431351662, 0.0828448086977005, 0.014800219796597958, 0.07377951592206955, -0.10836882144212723, 0.09278804063796997, 0.11172576248645782, -0.08634345978498459, -0.13091233372688293, -0.218700110912323, -0.29169705510139465, -0.0781412199139595, 0.04645176976919174, -0.04117530211806297, -0.2199716717004776, 0.19771194458007812, 0.009456455707550049, -0.04819417744874954, -0.0853395164012909, 0.2556825280189514, 0.11628066003322601, -0.1321115791797638, 0.1294012814760208, 0.04918625205755234, 0.05061805620789528, 0.1187310740351677, -0.1465011090040207, 0.022487251088023186, -0.0026834900490939617, 0.061762820929288864, -0.07548762112855911, -0.11512576788663864, -0.2676370143890381, 0.049777790904045105, 0.10863955318927765, 0.23030023276805878, -0.16106677055358887, 0.04489067941904068, 0.2903633415699005, -0.28074124455451965, -0.16490139067173004, 0.11302211135625839, -0.26261287927627563, -0.275209903717041, 0.13088946044445038, 0.03496108204126358, 0.024183133617043495, -0.4367835819721222, -0.07117343693971634, -0.1362902820110321, -0.11511721462011337, 0.11798210442066193, -0.10043209791183472, -0.02881462313234806, -0.049567002803087234, -0.12332936376333237, -0.01232619397342205, -0.07561061531305313, -0.03530522435903549, -0.07085469365119934, -0.3211548328399658, -0.1706445813179016, 0.6153780221939087, -0.38960400223731995, 0.13945306837558746, 0.38984712958335876, 0.06061071529984474, 0.40221261978149414], [0.3351481556892395, 0.16758142411708832, -0.14601671695709229, 0.0676758661866188, -0.041311029344797134, -0.1305927187204361, 0.1609591245651245, 0.2999543845653534, 0.28149381279945374, -0.017338281497359276, 0.2392282336950302, -0.07456780970096588, 0.02755328267812729, 0.03232142701745033, 0.15568728744983673, -0.002853444078937173, 0.08880558609962463, 0.08714385330677032, 0.0798824355006218, -0.14535747468471527, 0.1420375555753708, 0.10868290066719055, 0.14927458763122559, 0.01524688582867384, 0.11156604439020157, 0.02970747835934162, -0.09925533086061478, -0.08474715054035187, 0.2268025428056717, 0.18014264106750488, 0.09179005026817322, 0.2472853660583496, -0.0003761561238206923, 0.32371604442596436, 0.13231277465820312, -0.2902621328830719, 0.15907104313373566, 0.04888015240430832, 0.13574817776679993, 0.08388377726078033, -0.057422783225774765, -0.12592019140720367, -0.04296919330954552, 0.14032520353794098, 0.15587584674358368, 0.12240815162658691, -0.004877700004726648, 0.02687506563961506, -0.0951022207736969, 0.08116263151168823, 0.15783679485321045, 0.1550452560186386, -0.10140388458967209, -0.14501135051250458, 0.04650427773594856, -0.09214268624782562, 0.2952256500720978, 0.11820515990257263, -0.0581684410572052, -0.10043513029813766, -0.2971002161502838, 0.19089357554912567, 0.23542392253875732, -0.3123979866504669, -0.04037247598171234, 0.19781066477298737, 0.005530826281756163, 0.0067686946131289005, -0.10883676260709763, -0.10385490953922272, -0.1802964210510254, -0.19095095992088318, 0.2166849672794342, -0.1533856838941574, 0.1197320744395256, -0.07137396931648254, 0.06695068627595901, 0.12071119248867035, 0.11673323810100555, 0.056519560515880585, -0.23284229636192322, -0.07723286747932434, 0.04470144212245941, 0.08958876878023148, 0.11510297656059265, -0.062428925186395645, 0.13394415378570557, -0.09457428753376007, -0.013661769218742847, -0.03156647831201553, 0.025865349918603897, 0.10005998611450195, -0.1030469611287117, 0.10145411640405655, -0.14445404708385468, -0.14750458300113678, 0.07023530453443527, 0.10148103535175323, -0.12295236438512802, 0.05310666561126709, -0.2041843980550766, 0.13973668217658997, -0.016106178984045982, 0.08027826249599457, 0.09900037199258804, 0.0142677528783679, -0.27335190773010254, -0.021404478698968887, -0.12487446516752243, 0.0004607374721672386, -0.06088583916425705, -0.05063420906662941, 0.023262150585651398, 0.0743570327758789, 0.09971205145120621, 0.0265878327190876, -0.010864106938242912, -0.07555227726697922, 0.07028663903474808, 0.0744527280330658, -0.006681128870695829, -0.09349923580884933, 0.14824292063713074, 0.026095813140273094, -0.08764350414276123, -0.0017005002591758966, 0.08366960287094116, -0.01216061506420374, -0.15562398731708527, -0.04200687259435654, -0.061588551849126816, -0.1284433752298355, 0.010932127945125103, 0.10099223256111145, -0.08210620284080505, -0.07786214351654053, -0.209192156791687, 0.04090683534741402, 0.044731367379426956, 0.06610225886106491, 0.013463419862091541, -0.06644156575202942, 0.0783078745007515, -0.10246557742357254, 0.6264929175376892, -0.728889524936676, -0.32718008756637573, -0.3691267967224121, 0.951750636100769, 0.003458017483353615, -0.3690885603427887, -1.314102053642273, 0.3722037374973297, -0.13810256123542786, 0.3688923418521881, -0.248056098818779, -0.06286747753620148, -0.0809316337108612, 0.13043008744716644, -0.5205150842666626, -0.1255260705947876, 0.006199835799634457, -0.062239762395620346, -0.08545879274606705, 0.1515948623418808, -0.00621660565957427, -0.15580543875694275, -0.01899842731654644, -0.13781392574310303, 0.028397683054208755, -0.015124802477657795, 0.10534337908029556, -0.15035882592201233, 0.21665766835212708, 0.11047310382127762, 0.7372822165489197, 0.42306867241859436, -0.38961997628211975, 0.10081446915864944, 0.13969987630844116, -0.03123614750802517, 0.07225780189037323, -0.5212640166282654, -0.09498517215251923, 0.047451455146074295, 0.101316437125206, -0.14084886014461517, -0.19847717881202698, 0.051310885697603226, 0.1483713537454605, 0.12366850674152374, 0.022852744907140732, 0.005024048499763012, 0.0520605705678463, 0.0076170265674591064, -0.08255790174007416, -0.12591136991977692, 0.13485729694366455, -0.1515158861875534, -0.10233663767576218, 1.7692853212356567, -0.5824305415153503, -1.1924875974655151, -0.31441688537597656, -0.3462885022163391, 1.1802780628204346, 0.4074452519416809, -0.8517417311668396], [0.31863752007484436, -0.1615258753299713, 0.2801893353462219, 0.10859855264425278, 0.004705846309661865, -0.1515495926141739, 0.03830639272928238, 0.36621996760368347, 0.3387996256351471, -0.14425897598266602, -0.1721542775630951, 0.12817305326461792, 0.09459098428487778, 0.15784898400306702, -0.038231782615184784, 0.06711097806692123, 0.10315511375665665, 0.05922836810350418, -0.0798024833202362, 0.062382664531469345, 0.037885066121816635, 0.08439138531684875, 0.09163239598274231, -0.04488217458128929, 0.01943895034492016, -0.04081302881240845, -0.10841439664363861, -0.06743813306093216, 0.3424100875854492, -0.11894948035478592, 0.164754256606102, 0.04213804751634598, -0.10732132941484451, 0.40161141753196716, -0.2638213634490967, -0.09484003484249115, 0.47833845019340515, -0.1313292533159256, -0.09643103927373886, -0.2516070306301117, 0.12163208425045013, 0.1481815129518509, 0.10133139044046402, 0.36129486560821533, -0.011607245542109013, -0.016834501177072525, 0.05596762150526047, 0.10474912822246552, -0.05707939714193344, 0.12512356042861938, 0.11470545828342438, -0.12249639630317688, -0.04683373123407364, -0.0010308012133464217, 0.011700710281729698, -0.03318574279546738, 0.2682734727859497, 0.07612329721450806, -0.20779414474964142, -0.0016566149424761534, -0.4375734031200409, -0.17636841535568237, 0.18485182523727417, 0.2049812376499176, 0.029359063133597374, 0.04254988580942154, 0.16697441041469574, 0.01269958820194006, 0.058093439787626266, -0.1443314105272293, -0.03561786934733391, -0.03640009090304375, -0.1453559696674347, 0.04682302474975586, -0.12373331934213638, 0.2362641990184784, -0.16412608325481415, -0.21985547244548798, -0.05925661697983742, 0.06037101149559021, 0.10485832393169403, 0.1521616280078888, -0.09223653376102448, -0.09629487991333008, 0.05416321009397507, -0.0247272290289402, 0.03031570091843605, -0.17860561609268188, 0.15203428268432617, 0.004011228680610657, -0.022996066138148308, 0.01558625977486372, -0.09823671728372574, 0.142944797873497, -0.08193927258253098, -0.05977484956383705, 0.141310915350914, -0.13927073776721954, -0.15006951987743378, 0.048862285912036896, 0.27310582995414734, -0.1620548665523529, -0.08600979298353195, -0.04417826980352402, -0.22717811167240143, -0.1337580680847168, 0.3328157365322113, -0.12216544896364212, -0.1580556482076645, 0.13968154788017273, 0.003359164809808135, 0.15273062884807587, 0.007338183932006359, 0.09744686633348465, 0.09130199253559113, -0.05551334097981453, -0.043755143880844116, -0.09246237576007843, 0.10544373095035553, -0.1024758368730545, -0.1474759727716446, -0.03847023472189903, 0.07582461088895798, 0.025130577385425568, 0.09441529214382172, -0.05275942012667656, 0.13086526095867157, -0.005370538681745529, 0.09355498850345612, -0.00010122941603185609, 0.09237632900476456, -0.0968407392501831, -0.13107484579086304, -0.23186086118221283, 0.1582953780889511, 0.04960673674941063, 0.0832725316286087, -0.10020080953836441, -0.054300129413604736, -0.011466707102954388, 0.07773846387863159, -0.028216347098350525, -0.0019475462613627315, -0.1104886531829834, 0.12388291209936142, 0.03404085710644722, 0.3498518764972687, 0.28122827410697937, -0.14582057297229767, 0.1830533742904663, -0.08985649049282074, -0.15210860967636108, -0.407640278339386, 0.06569679081439972, 0.18196377158164978, -0.39268815517425537, -0.0726504772901535, 0.1458248645067215, 0.11282216012477875, -0.09964340925216675, 0.012111971154808998, 0.033264368772506714, 0.1212407723069191, -0.0462992899119854, 0.1273587942123413, -0.10563240200281143, 0.11084016412496567, 0.06060846149921417, 0.08072569966316223, -0.004276443272829056, 0.10258391499519348, 0.15537092089653015, -0.13061021268367767, -0.2710844576358795, -0.06497212499380112, -0.13968825340270996, -0.018763331696391106, -0.10054884105920792, -0.08226042985916138, 0.08922700583934784, -0.15648627281188965, -0.03721684589982033, -0.17286165058612823, -0.17478936910629272, 0.12590867280960083, -0.0422750748693943, -0.0998142659664154, -0.3260391056537628, -0.027877362444996834, -0.1284402459859848, 0.11867202073335648, -0.10538376867771149, -0.019730927422642708, -0.14301736652851105, 0.13749045133590698, -5.958432302577421e-05, -0.0675472691655159, -0.11745985597372055, -0.022357825189828873, 0.05926554277539253, 0.738091766834259, 0.04305592551827431, -0.7159463167190552, 0.05359576269984245, -1.132019281387329, -0.20617496967315674, -0.020440520718693733, 0.2098565697669983], [0.18723128736019135, -0.20438015460968018, 0.12662862241268158, 0.009425788186490536, -0.040850553661584854, -0.003300643293187022, -0.17311270534992218, 0.18038970232009888, 0.12874378263950348, -0.00823160819709301, 0.014187050051987171, 0.026659879833459854, -0.14929139614105225, -0.032129690051078796, -0.04295264929533005, -0.17423918843269348, 0.053157731890678406, 0.015986882150173187, 0.0738985687494278, 0.0005866822320967913, -0.12120893597602844, -0.09885186702013016, -0.06191931664943695, -0.04421466961503029, 0.02990659698843956, 0.14507396519184113, -0.04922895133495331, 0.0014824155950918794, 0.4464395046234131, -0.20374351739883423, 0.021116051822900772, -0.04872363433241844, 0.048812832683324814, 0.11551576107740402, -0.24790756404399872, 0.019067738205194473, 0.32114338874816895, 0.0951806902885437, -0.056451957672834396, -0.12415111064910889, -0.01910695806145668, -0.07561969757080078, 0.05971375107765198, 0.25100818276405334, -0.12863266468048096, -0.037645138800144196, -0.0777258574962616, 0.14063088595867157, -0.059646859765052795, -0.06206801161170006, -0.13660545647144318, 0.109315425157547, -0.032768577337265015, 0.08667966723442078, 0.14179198443889618, -0.08950405567884445, -0.09052655845880508, 0.038240280002355576, -0.2510097622871399, -0.022395581007003784, 0.1270267814397812, 0.04497108235955238, -0.059951361268758774, 0.3494317829608917, 0.016789769753813744, -0.05982474237680435, 0.1009371429681778, -0.022054288536310196, 0.16267609596252441, -0.04773586615920067, -0.10694132000207901, -0.12363702058792114, -0.19001086056232452, 0.031157270073890686, -0.2852626442909241, 0.27336743474006653, -0.21580734848976135, -0.13769757747650146, 0.06408881396055222, -0.04800506681203842, 0.16020090878009796, -0.023769034072756767, 0.029626969248056412, -0.04936835169792175, -0.04226326569914818, 0.1062193512916565, -0.12502214312553406, -0.15045587718486786, 0.14690427482128143, -0.0366470068693161, -0.07000446319580078, -0.06285206973552704, 0.15113559365272522, -0.09751754254102707, -0.10279283672571182, -0.09199652820825577, 0.06107400730252266, 0.1313612163066864, 0.00987365934997797, 0.12994083762168884, 0.08548635989427567, 0.061249591410160065, -0.03419281169772148, 0.10419034957885742, -0.1698644608259201, -0.07176452875137329, 0.10852956026792526, -0.06299267709255219, -0.02509886957705021, -0.072971411049366, -0.1402510553598404, 0.055982496589422226, -0.12395091354846954, -0.08634547889232635, 0.05973691865801811, -0.002427996601909399, 0.023670723661780357, 0.027756111696362495, 0.11869625002145767, -0.10146509855985641, 0.13853086531162262, 0.1111375167965889, -0.14355437457561493, -0.08874142169952393, -0.010301236063241959, 0.020631998777389526, -0.02966633066534996, -0.0780801847577095, 0.22025816142559052, 0.20578131079673767, 0.10955814272165298, -0.03683624789118767, -0.07435562461614609, -0.20354655385017395, -0.0514860637485981, -0.16658304631710052, 0.02273452840745449, 0.11288715153932571, -0.06217151880264282, 0.10437549650669098, -0.08530212938785553, -0.07215844839811325, -0.09507092833518982, 0.10887134820222855, -0.21971894800662994, 0.387968510389328, 0.34230291843414307, 0.33088406920433044, -0.2345890998840332, 0.062479179352521896, -0.0316772386431694, 0.5957610607147217, -0.3212999105453491, 0.07774565368890762, -0.07631108909845352, 0.12434618920087814, 0.11389202624559402, -0.0636826902627945, 0.11227518320083618, 0.47566863894462585, 0.0044815815053880215, -0.1265357881784439, 0.007182106375694275, -0.04807122424244881, -0.09093548357486725, -0.10787393152713776, -0.012525048106908798, 0.08134422451257706, 0.08006326854228973, -0.15300731360912323, -0.14909902215003967, -0.12095519155263901, -0.15962213277816772, -0.25501367449760437, -0.17386388778686523, -0.29719674587249756, -0.1177150160074234, -0.03198835626244545, -0.14776386320590973, 0.07167182117700577, -0.0003905237535946071, -0.022394469007849693, 0.10231667011976242, -0.23862260580062866, 0.04429564252495766, 0.04384906589984894, -0.009093687869608402, 0.02193191833794117, 0.1030479446053505, -0.047618888318538666, 0.1324073076248169, -0.06045832484960556, 0.1280232071876526, -0.06392091512680054, -0.1325865089893341, -0.12705758213996887, 0.1421077400445938, 0.08895810693502426, 0.027206186205148697, 0.06818623095750809, -0.20930272340774536, 0.4044643044471741, -0.09825040400028229, 0.42130962014198303, -0.7745625972747803, -0.7929463386535645, -0.3859621286392212, 0.7131439447402954], [-0.08670805394649506, -0.11457277089357376, 0.018529582768678665, 0.053279295563697815, 0.033731043338775635, -0.16638094186782837, -0.15453895926475525, 0.3388982117176056, 0.09350553900003433, 0.03343736752867699, -0.18622954189777374, 0.024748047813773155, 0.03035033866763115, -0.14332425594329834, -0.0068527269177138805, 0.11820686608552933, 0.08262539654970169, 0.12195112556219101, 0.061194196343421936, 0.10998489707708359, -0.1361013799905777, 0.12860643863677979, -0.10230366885662079, 0.05325626954436302, 0.046505752950906754, 0.039334170520305634, 0.044498663395643234, -0.0025168887805193663, -0.07654481381177902, -0.03941350057721138, -0.2312391698360443, -0.1133125051856041, 0.15860046446323395, -0.17078310251235962, -0.0941176638007164, -0.014535704627633095, 0.18802830576896667, -0.1072540134191513, -0.009070361033082008, 0.04955704137682915, 0.048433613032102585, 0.04106196388602257, -0.022468475624918938, -0.12344495952129364, -0.07330537587404251, 0.10539834201335907, 0.016991108655929565, 0.011712710373103619, 0.12779948115348816, -0.08850796520709991, 0.014690034091472626, -0.019970590248703957, 0.07845260202884674, -0.1112995371222496, 0.15304739773273468, 0.0016235403018072248, 0.28742703795433044, 0.12350285053253174, -0.3254161477088928, -0.053033240139484406, 0.2173435539007187, 0.10999356210231781, -0.23760011792182922, 0.24827280640602112, 0.0896148532629013, 0.08206985145807266, -0.06690428406000137, 0.10795356333255768, -0.16759991645812988, -0.05257198587059975, -0.10376743227243423, 0.02391830086708069, 0.006134699564427137, 0.05725941061973572, -0.10193047672510147, -0.24955350160598755, -0.12255332618951797, 0.0322938971221447, -0.08242781460285187, -0.028160452842712402, -0.0756332129240036, 0.0576326884329319, -0.009711191989481449, 0.09244786202907562, -0.11357139050960541, 0.025974903255701065, 0.06430871039628983, 0.0025049084797501564, 0.007753797806799412, 0.017681855708360672, -0.1184811145067215, -0.13922534883022308, 0.042687397450208664, 0.06600269675254822, 0.12349104136228561, 0.009786062873899937, 0.017576618120074272, 0.07539445906877518, -0.08905168622732162, -0.024295829236507416, 0.1145828366279602, -0.038982681930065155, -0.0003903338802047074, -0.08228950202465057, -0.22801871597766876, 0.03970024734735489, 0.028012685477733612, -0.07788290083408356, -0.07480093091726303, 0.04215121269226074, 0.18568624556064606, -0.0983842983841896, -0.008136704564094543, -0.08865882456302643, 0.07869619876146317, 0.05339115858078003, -0.05287745222449303, 0.03660714626312256, -0.03989794850349426, -0.036191266030073166, -0.11284241080284119, 0.06939415633678436, 0.06084604188799858, 0.12659034132957458, -0.0870642438530922, -0.1544199287891388, -0.11246230453252792, 0.11164489388465881, -0.020710082724690437, -0.045649636536836624, -0.19632311165332794, 0.24155737459659576, 0.2536300718784332, 0.2147492915391922, -0.055897392332553864, -0.16734996438026428, -0.026147231459617615, -0.027340572327375412, -0.1651739478111267, 0.06500198692083359, -0.01556414645165205, -0.039364129304885864, 0.046885110437870026, -0.034120868891477585, 0.08099114894866943, 0.11969433724880219, -0.1365310251712799, 0.026604393497109413, 0.22295290231704712, 0.15475691854953766, 0.041012559086084366, -0.06410735100507736, 0.2538158595561981, 0.000824148824904114, -0.33245399594306946, -0.19188860058784485, -0.11239144206047058, 0.12875626981258392, 0.07151541858911514, 0.04190294072031975, 0.13139399886131287, 0.02738838456571102, -0.03128502517938614, 0.15112866461277008, 0.09424029290676117, 0.06694817543029785, -0.04802394285798073, -0.010808913968503475, -0.11748692393302917, -0.08785136789083481, -0.024836137890815735, -0.011159568093717098, 0.04851015284657478, -0.05228382721543312, 0.11618981510400772, -0.18473054468631744, -0.1909310519695282, -0.1413867473602295, 0.013203171081840992, -0.2588984966278076, -0.18385285139083862, -0.10667164623737335, -0.11051466315984726, -0.089507557451725, 0.043769266456365585, 0.1497451663017273, 0.15052759647369385, -0.18123331665992737, 0.11927736550569534, 0.1185968741774559, 0.15438346564769745, -0.0749451145529747, -0.006537391804158688, 0.07258222252130508, -0.054748643189668655, -0.031050169840455055, -0.03718137368559837, 0.06894193589687347, 0.027040986344218254, 0.05480713024735451, -0.345742791891098, 0.353319376707077, -0.20283453166484833, 0.0075957272201776505, 0.28507211804389954, -0.09553282707929611, -0.05354912579059601, -0.13017010688781738], [0.04187692329287529, -0.1972486525774002, -0.0411539301276207, 0.17142954468727112, -0.03371400013566017, 0.28178170323371887, 0.17090730369091034, -0.12551170587539673, 0.002143061952665448, -0.030878761783242226, 0.010380424559116364, 0.10321035981178284, -0.09662090241909027, -0.021881641820073128, -0.11764761805534363, 0.13887880742549896, -0.10416717827320099, 0.04707346856594086, -0.0010022582719102502, 0.13576136529445648, 0.06986924260854721, 0.05123399943113327, -0.08013924956321716, -0.07790301740169525, -0.12348116189241409, -0.14371560513973236, -0.11449608206748962, 0.1128663718700409, 0.03262615576386452, 0.29707926511764526, -0.37321093678474426, -0.13968054950237274, 0.13980644941329956, 0.1427810788154602, -0.10544446110725403, -0.06638660281896591, 0.43845850229263306, 0.010340492241084576, 0.0874241441488266, -0.21686795353889465, -0.09751265496015549, 0.025989970192313194, -0.14658232033252716, 0.24218373000621796, -0.017810791730880737, -0.04769308492541313, -0.1425517499446869, 0.09647046029567719, 0.12529894709587097, 0.02178976684808731, 0.14420640468597412, 0.13688461482524872, -0.13325682282447815, -0.009444114752113819, -0.10249022394418716, -0.13332033157348633, 0.0076330904848873615, 0.15345433354377747, 0.1166781634092331, 0.1730220913887024, 0.1057133749127388, -0.31273871660232544, -0.2496001273393631, -0.220871239900589, -0.038165152072906494, 0.08689510822296143, 0.0357457734644413, -0.21806743741035461, -0.13992922008037567, -0.11672335118055344, 0.28109997510910034, -0.12007389962673187, -0.22970470786094666, -0.06451061367988586, 0.20517748594284058, 0.4312001168727875, 0.27804237604141235, -0.058935027569532394, 0.10662131756544113, -0.010896045714616776, 0.24870407581329346, -0.15401577949523926, -0.00020103993301745504, 0.2568254768848419, -0.05149255320429802, -0.06870099157094955, -0.0004897346952930093, -0.14601069688796997, -0.014772255904972553, -0.07416900247335434, -0.12581703066825867, 0.061392899602651596, 0.0795525312423706, -0.12791962921619415, 0.08421044051647186, 0.038108035922050476, -0.007646212819963694, 0.03875524923205376, -0.07785967737436295, -0.11195474117994308, 0.11450514942407608, -0.07343243807554245, 0.20484420657157898, 0.19975145161151886, 0.2257203310728073, 0.10503149032592773, 0.05284920707345009, -0.12315923720598221, 0.06512816250324249, -0.106184221804142, -0.0202396921813488, -0.04205584526062012, -0.07107292860746384, -0.02226053550839424, -0.0755692720413208, -0.23497696220874786, -0.04728648066520691, 0.10536226630210876, -0.09558162093162537, -0.08725783228874207, 0.13473521173000336, -0.12209433317184448, 0.04121826961636543, 0.040104225277900696, -0.13089631497859955, -0.1042972058057785, 0.06777311861515045, -0.10501857846975327, -0.14435487985610962, -0.2868424952030182, -0.06142539158463478, -0.16215190291404724, -0.25716015696525574, -0.13844285905361176, 0.12376894801855087, 0.14761824905872345, 0.09065559506416321, 0.001973961014300585, -0.30019497871398926, -0.21678534150123596, 0.06093582883477211, -0.030991673469543457, -0.17207679152488708, -0.11520470678806305, -0.3165731132030487, -0.07958623021841049, 0.21115665137767792, -0.11624141037464142, -0.158662348985672, -0.017824500799179077, 0.03768494352698326, 0.689965546131134, -0.10935318470001221, -0.09812288731336594, 0.16485799849033356, 0.1754513531923294, 0.023427465930581093, -0.11254963278770447, 0.13393132388591766, 0.0782453864812851, -0.05294157937169075, -0.08140868693590164, -0.00506701460108161, 0.13626937568187714, -0.050509560853242874, 0.12980373203754425, -0.025722559541463852, 0.13136298954486847, -0.03292298689484596, -0.05159411579370499, 0.13313624262809753, 0.06878188252449036, -0.3434511423110962, 0.10336490720510483, -0.09294287115335464, -0.19220320880413055, -0.05876946449279785, 0.10533115267753601, 0.17953279614448547, 0.20820985734462738, 0.2635815441608429, 0.09556227177381516, -0.00547378696501255, 0.1302378922700882, -0.03487526252865791, 0.08461382240056992, -0.1558832973241806, 0.07394714653491974, 0.012043111957609653, 0.05954392999410629, -0.030649244785308838, -0.029800867661833763, 0.14210005104541779, -0.1330142319202423, 0.10785337537527084, -0.12242348492145538, -0.048488352447748184, -0.15460124611854553, -0.15869155526161194, 0.04484621062874794, 0.2136388123035431, -0.10907512158155441, -0.21778011322021484, 0.0556953102350235, -0.013372699730098248, -0.08293414115905762, -0.10090967267751694, 0.30391407012939453], [0.043537553399801254, -0.06817816942930222, -0.0937856063246727, -0.1821150928735733, -0.16214890778064728, 0.23825229704380035, -0.219137042760849, -0.12333489209413528, -0.17864644527435303, -0.1192181184887886, 0.35730215907096863, -0.3202003538608551, -0.01885688677430153, -0.14812950789928436, -0.13269446790218353, 0.1866615265607834, -0.13372504711151123, 0.09950891882181168, 0.06570140272378922, 0.13601559400558472, 0.08979126811027527, 0.13035865128040314, 0.04654020071029663, 0.05015190318226814, -0.027051130309700966, -0.0502246618270874, -0.12209777534008026, -0.052472587674856186, 0.04122070595622063, 0.0950162410736084, 0.09535516798496246, 0.013573496602475643, -0.06505706161260605, -0.3649843633174896, 0.14817547798156738, -0.19127856194972992, -0.40020376443862915, 0.04061564803123474, -0.03622891381382942, 0.06999383866786957, -0.11349662393331528, 0.10321447253227234, 0.13330167531967163, -0.10608562082052231, 0.07907740771770477, -0.03653839975595474, 0.15691395103931427, 0.09988940507173538, 0.1343044638633728, -0.14620129764080048, -0.15315237641334534, 0.1561436653137207, 0.02008260414004326, 0.04481528326869011, 0.04892868548631668, -0.10816678404808044, 0.3194006085395813, -0.0008552881772629917, 0.07660429924726486, 0.29626837372779846, -0.7014290690422058, -0.27751660346984863, 0.3248330354690552, -0.2455296814441681, 0.24466757476329803, 0.20728980004787445, 0.28342771530151367, -0.31612497568130493, 0.11331910640001297, -0.07511555403470993, -0.15921859443187714, -0.10141440480947495, 0.04649853706359863, -0.025004738941788673, 0.04396844282746315, 0.1556938737630844, 0.23408296704292297, 0.05201330780982971, -0.12779374420642853, 0.058243278414011, 0.09232691675424576, 0.10394920408725739, -0.10416340082883835, -0.030593864619731903, -0.03418958932161331, -0.10121861845254898, 0.049856558442115784, 0.05023060366511345, -0.15206782519817352, -0.06826209276914597, -0.024647125974297523, 0.08399523049592972, -0.054706964641809464, -0.0561353974044323, 0.1406935304403305, -0.062170106917619705, 0.02786494605243206, -0.0220619086176157, -0.07648484408855438, -0.07486993074417114, 0.09447730332612991, 0.022497594356536865, 0.11259299516677856, 0.06563970446586609, 0.25742775201797485, 0.03518085554242134, 0.09772361069917679, -0.06764405220746994, 0.15422876179218292, 0.09662862122058868, -0.019084304571151733, -0.06692759692668915, -0.07240290194749832, 0.14855487644672394, 0.02568667195737362, 0.04434875398874283, -0.011033737100660801, 0.04867168515920639, -0.047510698437690735, 0.005518477410078049, -0.15043000876903534, 0.0699770525097847, -0.11247649788856506, 0.02097080461680889, 0.025856075808405876, -0.02896237187087536, 0.1332094520330429, 0.11154556274414062, 0.006183524616062641, -0.10177452117204666, 0.07336506247520447, 0.07362925261259079, 0.07330920547246933, -0.029432961717247963, -0.1156841441988945, -0.028238827362656593, -0.00681660883128643, 0.0945512056350708, -0.0559312105178833, -0.044026460498571396, -0.06927170604467392, -0.05766944959759712, 0.15157172083854675, 0.06884384155273438, 0.09735743701457977, -0.25470811128616333, -0.1879321187734604, 0.2672725021839142, -0.3038026988506317, -0.3109539747238159, -0.5514119267463684, 0.4251105487346649, -0.6364419460296631, -0.144972026348114, 0.5017271637916565, -0.5217037200927734, 0.03882516548037529, 0.06821276992559433, -0.10076022893190384, -0.33300158381462097, -0.14952030777931213, -0.15419460833072662, -0.06135481595993042, 0.055143699049949646, -0.06012478470802307, 0.014405588619410992, 0.034277793020009995, 0.09664739668369293, 0.13044488430023193, -0.13792085647583008, -0.012914050370454788, -0.07893052697181702, -0.010827240534126759, 0.49180686473846436, -0.16097579896450043, -0.18270498514175415, -0.027567390352487564, 0.23657137155532837, 0.23345854878425598, 0.2172401398420334, -0.16017138957977295, -0.06878684461116791, 0.30595165491104126, 0.23270386457443237, 0.14578519761562347, 0.05423407256603241, 0.0075797392055392265, -0.48828622698783875, 0.14756648242473602, 0.015333498828113079, -0.08473841100931168, -0.0038440595380961895, -0.0801362544298172, 0.01353540737181902, -0.023021768778562546, -0.14757663011550903, -0.08553329110145569, -0.07521513849496841, 0.09064941108226776, -0.1455659717321396, 0.18714787065982819, -0.9778485298156738, 0.14906805753707886, -0.2159617841243744, 0.2443731278181076, 0.9073116779327393, 1.0353457927703857, -0.3845531940460205], [-0.37721091508865356, -0.09395090490579605, -0.31739750504493713, -0.03914825990796089, -0.28632768988609314, -0.03364098444581032, 0.19002430140972137, -0.58686763048172, -0.17806725203990936, -0.046636734157800674, 0.24418847262859344, -0.32431742548942566, -0.04506425932049751, -0.1311476230621338, 0.014392528682947159, -0.16279353201389313, 0.15404728055000305, 0.10689620673656464, 0.058053188025951385, -0.13120050728321075, -0.02564847655594349, 0.1374482810497284, -0.02315676212310791, 0.032893650233745575, -0.10545232892036438, -0.028524573892354965, 0.027045035734772682, -0.1472296416759491, -0.25083407759666443, 0.621944785118103, -0.06779727339744568, 0.3130280375480652, -0.301388680934906, -0.4482504427433014, 0.08722561597824097, -0.08708476275205612, -0.376995325088501, 0.07782901078462601, -0.23840491473674774, 0.26575493812561035, 0.09233707189559937, -0.09819860011339188, 0.15064381062984467, -0.5507705211639404, 0.07007256150245667, 0.09548391401767731, 0.14980146288871765, 0.0026280698366463184, 0.01731094904243946, 0.08294845372438431, -0.07822921872138977, -0.09378889948129654, 0.015271037817001343, -0.11928584426641464, 0.02012602426111698, -0.15252196788787842, -0.2503502070903778, -0.34893515706062317, 0.6389579772949219, -0.10238813608884811, 0.09053301066160202, 0.04038038104772568, -0.036933545023202896, -0.21067725121974945, 0.024193929508328438, -0.0022461318876594305, -0.2821890711784363, -0.16530533134937286, 0.06600231677293777, 0.03739418461918831, -0.007893628440797329, 0.007064811885356903, 0.1568463295698166, -0.059005625545978546, 0.255920946598053, -0.2193768322467804, 0.1773814707994461, 0.041552819311618805, 0.06592971086502075, -0.0024981216993182898, -0.19178497791290283, -0.012765505351126194, 0.19848357141017914, -0.05630965158343315, 0.050005897879600525, 0.11172348260879517, 0.07502661645412445, 0.07522627711296082, -0.1538759022951126, -0.15738597512245178, 0.052928708493709564, 0.06660811603069305, 0.07978450506925583, 0.02966424822807312, 0.06650662422180176, 0.09812311083078384, 0.11536327004432678, -0.04016021266579628, 0.06278900802135468, 0.11772139370441437, -0.08155305683612823, -0.06324978917837143, 0.18069027364253998, -0.15175528824329376, 0.21393974125385284, -0.00043484842171892524, -0.31584352254867554, 0.02897927537560463, 0.20748725533485413, -0.012283910065889359, -0.11944185942411423, -0.04927556589245796, -0.09683943539857864, 0.02206781506538391, -0.059459589421749115, 0.02203298918902874, -0.08380834013223648, 0.0757535919547081, -0.019503379240632057, 0.06138256564736366, 0.09815177321434021, 0.0021188019309192896, -0.11168668419122696, -0.12655766308307648, 0.013078417629003525, 0.12624725699424744, 0.11169588565826416, -0.011881583370268345, -0.016320595517754555, -0.0008672979893162847, -0.07963194698095322, -0.17959663271903992, 0.20869962871074677, 0.2179006189107895, 0.09300585091114044, -0.07247685641050339, 0.018834225833415985, 0.06831106543540955, -0.06968429684638977, 0.09715791791677475, -0.08960401266813278, 0.04963754490017891, 0.07239855080842972, 0.1057916134595871, 0.4459136426448822, -0.9075997471809387, -0.762226402759552, -0.3274407684803009, 0.9550597667694092, 0.13845212757587433, -0.027610821649432182, -1.569504976272583, 1.0525635480880737, 0.020481863990426064, 0.04880427569150925, -0.06137470155954361, -0.09722548723220825, 0.10547942668199539, -0.15242233872413635, -1.253029465675354, -0.010000058449804783, -0.05901751294732094, -0.09869283437728882, 0.13513562083244324, 0.1532091647386551, 0.01998872309923172, -0.1197674423456192, -0.09185540676116943, -0.15689554810523987, 0.12151060253381729, -0.005282184109091759, -0.011537175625562668, -0.238982155919075, 0.4401927888393402, 0.11166837811470032, 0.19708624482154846, -0.439998984336853, 0.2533676326274872, 0.35040760040283203, -0.26579880714416504, -0.36986085772514343, -0.026356862857937813, 0.04258117824792862, 0.4523625373840332, -0.0718897357583046, -0.10269956290721893, -0.06742177903652191, -0.09142836928367615, 0.10206067562103271, 0.025678003206849098, -0.07889463752508163, 0.012511155568063259, 0.08715800940990448, -0.03735039755702019, -0.08870212733745575, -0.09665943682193756, 0.11123162508010864, 0.13317376375198364, -0.03503758832812309, -0.01057776901870966, 1.31020188331604, 0.05400652810931206, 0.5336591005325317, -1.544285535812378, 0.9824708700180054, 1.8183702230453491, 1.0897022485733032, -1.4245527982711792], [-0.2551720142364502, 0.14267265796661377, -0.26979702711105347, 0.1313699185848236, -0.10873817652463913, 0.2315344214439392, 0.22804667055606842, -0.4261038899421692, -0.06500068306922913, 0.11313048750162125, 0.20537292957305908, -0.09631598740816116, -0.116797536611557, 0.14123544096946716, 0.08073558658361435, 0.07796303927898407, -0.12501494586467743, 0.0940345823764801, 0.009360075928270817, -0.05087282136082649, -0.032378967851400375, -0.052105505019426346, 0.039686642587184906, -0.03169787675142288, 0.0150863416492939, -0.0827128067612648, -0.12859614193439484, 0.12022999674081802, -0.3737387955188751, 0.17503155767917633, 0.09016306698322296, -0.03413785994052887, 0.20928943157196045, -0.04621584340929985, 0.1888737678527832, 0.2503843903541565, -0.2004714012145996, 0.018344702199101448, -0.19402232766151428, 0.022237448021769524, -0.013452580198645592, -0.12011385709047318, -0.03291197121143341, -0.11287813633680344, -0.11282052844762802, 0.010016790591180325, -0.027549609541893005, 0.1362643539905548, 0.03898945823311806, -0.10235682129859924, 0.06762389093637466, 0.15634573996067047, -0.13700127601623535, -0.09500731527805328, -0.0706024244427681, 0.011360428296029568, -0.06230408698320389, -0.06330002099275589, 0.19526687264442444, 0.12332721799612045, 0.15071356296539307, 0.05891382321715355, -0.06094355508685112, -0.13607750833034515, -0.049385424703359604, 0.006332331337034702, -0.13014476001262665, -0.1817062646150589, 0.015424455516040325, -0.08332983404397964, 0.022269543260335922, 0.0013152128085494041, 0.008569853380322456, -0.021091341972351074, 0.24966095387935638, -0.3172183334827423, 0.22214648127555847, 0.20383024215698242, 0.09448792785406113, -0.029198814183473587, -0.08318614959716797, 0.15646059811115265, 0.12841813266277313, 0.012957857921719551, 0.15725979208946228, 0.056468524038791656, -0.13117162883281708, 0.05883026868104935, -0.14344248175621033, -0.05867253988981247, 0.05828732252120972, -0.02205490507185459, 0.14063039422035217, 0.07970251142978668, 0.008920840919017792, 0.10714805871248245, -0.007676421664655209, 0.08915847539901733, -0.056482113897800446, 0.03830038011074066, -0.018451020121574402, -0.11145865172147751, 0.1102108359336853, -0.12519009411334991, 0.06367440521717072, -0.08502310514450073, -0.1749372035264969, 0.111083984375, 0.0011655950220301747, 0.060886092483997345, -0.07397141307592392, -0.10051761567592621, -0.14741790294647217, -0.01333659142255783, 0.06865071505308151, -0.0326119139790535, 0.0376385897397995, 0.07268893718719482, -0.1240915060043335, 0.15335489809513092, -0.05009739100933075, -0.0020120118279010057, 0.013482674956321716, -0.02156221866607666, -0.012328692711889744, 0.14742891490459442, 0.033414576202631, -0.016441525891423225, -0.02738320454955101, -0.24691104888916016, -0.06863445043563843, -0.11524242907762527, 0.19519013166427612, 0.22012969851493835, -0.006443711929023266, -0.13584640622138977, 0.12743519246578217, -0.0013554689940065145, 0.0026240274310112, -0.003893139073625207, 0.1400335729122162, -0.03357633203268051, 0.07510916143655777, -0.015337037853896618, -0.29595130681991577, -0.06559957563877106, -0.17817381024360657, -0.16166004538536072, -0.13495774567127228, 0.0174537543207407, 0.35323092341423035, 0.380811870098114, 0.25916779041290283, 0.05129676312208176, -0.0714678093791008, 0.042869310826063156, -0.14144879579544067, -0.08139891922473907, 0.02113710343837738, 0.12514054775238037, 0.04680083692073822, -0.01203069556504488, -0.14987073838710785, 0.11245102435350418, 0.027816982939839363, -0.11455661058425903, 0.019580112770199776, -0.12382379174232483, -0.005506401415914297, -0.02930140495300293, 0.08347479999065399, -0.12440101057291031, 0.02141384221613407, 0.29540926218032837, 0.13383378088474274, 0.0466427281498909, 0.04754674434661865, 0.16620256006717682, -0.07394266128540039, 0.24208411574363708, 0.11110012978315353, -0.140265092253685, 0.27293455600738525, 0.047415826469659805, -0.13848872482776642, -0.057226501405239105, -0.06835650652647018, 0.10760897397994995, -0.06872033327817917, 0.0954432561993599, -0.08714691549539566, -0.07120553404092789, -0.07570865750312805, -0.11258786916732788, -0.07564347237348557, 0.14699259400367737, -0.15200218558311462, -0.09872467070817947, -0.01850982755422592, 0.04139088839292526, -0.26930779218673706, -0.07297404110431671, -0.006750319618731737, 0.21768160164356232, 0.45849835872650146, -0.12598676979541779, -0.012457804754376411, -0.21380212903022766], [0.1553499400615692, -0.22268983721733093, 0.11815192550420761, 0.06934312731027603, -0.10286115854978561, 0.09321146458387375, -0.20904646813869476, 0.25941482186317444, 0.02846730872988701, -0.13069605827331543, -0.2713789939880371, 0.043567441403865814, 0.09427326172590256, 0.1586698293685913, -0.0031368837226182222, -0.14814406633377075, -0.07303357124328613, -0.07671546190977097, 0.14323408901691437, 0.02699131891131401, -0.015191012062132359, -0.02151690609753132, 0.12930899858474731, -0.048170629888772964, -0.03844517469406128, -0.13573668897151947, -0.023701122030615807, 0.13746602833271027, 0.35028645396232605, -0.29756125807762146, -0.06405285745859146, -0.14505663514137268, -0.15434211492538452, 0.02252783067524433, -0.40804019570350647, 0.11016751825809479, 0.4230010211467743, 0.13491256535053253, -0.08694334328174591, -0.03844291716814041, 0.011285285465419292, -0.022613953799009323, 0.022262316197156906, 0.3712354898452759, -0.15068821609020233, 0.05065973475575447, -0.1507359892129898, -0.0413680262863636, 0.09988902509212494, 0.0362577810883522, -0.09600287675857544, -0.05278099700808525, -0.07086067646741867, 0.04554259777069092, 0.11516165733337402, -0.04236876964569092, -0.09281807392835617, 0.12145917117595673, -0.23313724994659424, -0.35415738821029663, 0.13696059584617615, 0.3430190980434418, 0.024547936394810677, 0.40405312180519104, -0.03175261616706848, 0.029121708124876022, 0.10550635308027267, -0.1384814977645874, -0.04973817616701126, -0.08804357796907425, -0.203110471367836, 0.06455373018980026, -0.12995848059654236, -0.08963990211486816, -0.15469694137573242, 0.1524859368801117, -0.20211446285247803, -0.20361247658729553, 0.08209727704524994, 0.1314801722764969, 0.03163551539182663, -0.14286984503269196, 0.0519985556602478, 0.19078056514263153, -0.09336503595113754, -0.033302564173936844, 0.0034815187100321054, 0.09515466541051865, -0.12940245866775513, -0.08650742471218109, 0.0897807776927948, -0.03438340872526169, 0.0756848081946373, -0.06838898360729218, -0.011239594779908657, -0.10014542192220688, 0.12697377800941467, -0.08343001455068588, 0.031447384506464005, -0.012096185237169266, 0.027431000024080276, -0.1346147209405899, -0.21614065766334534, -0.03843364492058754, -0.08635164052248001, -0.15845522284507751, 0.24625414609909058, 0.08715101331472397, -0.004913914483040571, -0.025567011907696724, 0.0330684632062912, 0.01114971749484539, 0.07671625167131424, -0.11171946674585342, -0.1573057919740677, 0.06552259624004364, 0.1395452320575714, -0.12252160906791687, -0.004626718815416098, -0.022244220599532127, 0.07076573371887207, 0.1276044398546219, 0.10814031958580017, 0.08574910461902618, -0.05956770479679108, 0.09970153123140335, -0.10835988074541092, 0.12479723989963531, 0.1425369381904602, 0.11889804899692535, -0.1069348156452179, -0.0438254289329052, -0.23501011729240417, -0.15893082320690155, -0.12037663161754608, -0.06557580083608627, -0.031797558069229126, -0.05213700607419014, -0.04663721099495888, -0.06155593320727348, -0.07938087731599808, 0.014948850497603416, 0.02161508984863758, 0.0997878834605217, -0.1766524314880371, 0.627951443195343, 0.39496272802352905, 0.5234574675559998, -0.249749556183815, -0.14846880733966827, -0.254321813583374, 0.44943124055862427, -0.40011194348335266, 0.1100844219326973, -0.4181603193283081, 0.1926160305738449, 0.0621248334646225, 0.13385780155658722, -0.13352392613887787, 0.7753437161445618, -0.07933266460895538, 0.002176834037527442, -0.07273640483617783, 0.03638603165745735, -0.12025755643844604, -0.12782661616802216, 0.09628194570541382, 0.13290885090827942, 0.12409510463476181, -0.020177394151687622, 0.06306436657905579, 0.13610884547233582, -0.14176473021507263, -0.692746639251709, -0.20843541622161865, -0.24044691026210785, -0.04539118707180023, -0.015257783234119415, -0.30472201108932495, -0.41050317883491516, -0.011466551572084427, 0.13465934991836548, -0.10893841087818146, -0.4746340215206146, 0.005134131759405136, 0.08992871642112732, -0.09749119728803635, 0.030820293352007866, 0.14595186710357666, 0.06424647569656372, -0.0347214974462986, 0.07507866621017456, -0.09362824261188507, 0.08131109923124313, -0.11906306445598602, 0.080739825963974, 0.04847347363829613, 0.024078350514173508, 0.04805195331573486, 0.007997775450348854, -0.6373357176780701, 0.2459472268819809, -0.4328432083129883, 0.5943088531494141, -1.0989010334014893, -1.202165961265564, -0.8694591522216797, 0.8621208667755127], [-0.3254424035549164, -0.19840863347053528, -0.17583023011684418, -0.2515389919281006, -0.10813863575458527, -0.129135400056839, 0.037928078323602676, -0.3180343210697174, -0.6921062469482422, 0.0068305060267448425, -0.024424666538834572, -0.24817033112049103, 0.003671439131721854, 0.03769124671816826, 0.018029330298304558, -0.3200203478336334, -0.15522654354572296, -0.035838719457387924, 0.02129431627690792, 0.12726734578609467, -0.0065391333773732185, -0.02148079127073288, -0.05588259920477867, 0.026833614334464073, 0.1387808918952942, 0.04256599396467209, 0.006033764220774174, 0.03052591159939766, -0.645725667476654, 0.10052996873855591, -0.2409859597682953, -0.14933258295059204, 0.20452086627483368, -0.5343002080917358, -0.15950119495391846, 0.5284436345100403, -0.7367740273475647, 0.014126178808510303, -0.3326641619205475, 0.47137147188186646, 0.1073237806558609, 0.11332006752490997, 0.05657550320029259, -0.6078905463218689, 0.10717376321554184, 0.09366674721240997, 0.10636630654335022, -0.1268891990184784, -0.023972582072019577, 0.14042434096336365, -0.08563728630542755, -0.009042545221745968, -0.011075718328356743, -0.062360405921936035, 0.020207906141877174, -0.025554632768034935, -0.48005276918411255, -0.1293298751115799, 0.3890422284603119, -0.08723150938749313, 0.42023906111717224, -0.22700783610343933, -0.4597887098789215, 0.5100632309913635, 0.1597425937652588, 0.0352761335670948, -0.44651344418525696, 0.3436000645160675, -0.06540003418922424, -0.20657166838645935, 0.1810029298067093, -0.14991982281208038, 0.14167790114879608, 0.04014348238706589, 0.14936672151088715, -0.2736479640007019, 0.02950204163789749, 0.01425390224903822, -0.24109157919883728, -0.01647593080997467, 0.00900914054363966, -0.00416526198387146, 0.14081940054893494, 0.07845383882522583, 0.09361541271209717, -0.018550295382738113, -0.14693592488765717, -0.05092395097017288, 0.11164720356464386, 0.07176511734724045, 0.013256186619400978, 0.08827761560678482, -0.11048110574483871, 0.017482547089457512, 0.10345912724733353, -0.022579088807106018, -0.01792299374938011, 0.06640797853469849, -0.09670653194189072, 0.01701662316918373, -0.047944407910108566, 0.07645375281572342, 0.10207447409629822, 0.018981441855430603, 0.215730682015419, -0.028350144624710083, -0.03358258679509163, 0.016133397817611694, 