{"iterations": 0, "final_fidelity": 0.5057285025433444, "final_purity": -1, "optimized_trainable_parameters": {"initial_params": [[], [5.598993376387784, 2.530370784534184, 3.8097565601786902, 6.389837793027573, 2.181869766341537, 1.9276179395957374, 3.052924431768843, 2.028812959518616, 1.1284313356101694, 3.864856988789411, 5.746023807746048, 5.424029044051908, 4.981546340195808, 1.1192127716910714, 2.344204195149228, 5.610433939393259, 5.218484959495083, 2.2090679368862562, 4.797623141852699, 5.823692301996493, 0.31556435942240246, 3.030490137966179, 1.7194749653008563, 4.973147098793945, 2.1101587208352393, 5.761418510212814, 1.7378942656024712, 0.7489007037358073, 4.236640707320278, 4.37165768731205, 2.4123981711891673, 2.098661438459295, 2.5378407732258976, 5.125676609969509, 4.604552869974806, 3.1238091020334444, 2.7033682950305717, 0.6522975772936652, 3.2162171996709232, 3.7100242811915662, 3.7692283670685587, 3.6303310113268448, 0.6207926218368923, 2.7160160542605554, 5.723220750518726, 3.722899579187097, 5.434779557779153, 4.0106792444627954, 2.5607915416242704, 3.6208438586059253, 1.4732495566829824, 6.027600351085779, 1.4745133273364592, 0.5026579935413034, 3.084843341081983, 2.5505854402911914, 3.0522905978863935, 0.523540628277428, 5.196114394341211, 3.738041691186128, 1.6542699002974144, 4.172726053146164, 5.1520355353532015, 3.422109973867781, 2.320246205202582, 5.474244474668787, 0.6292193425085644, 5.662703447750417, 5.577002365565033, 0.869343360446217, 5.29957662555394, 5.428064044545652], [6.094363009698324, 1.980346031110394, 4.153791127233861, 6.229067048932181, 1.7751352004394012, 2.233601835029501, 3.3002877923679588, 2.0270080429275144, 0.3686831206784092, 3.864856988789411, 5.998718376191112, 5.270125085447247, 4.981546340195808, 1.1192127716910714, 2.344204195149228, 4.8330570839390745, 5.218484959495083, 2.2090679368862562, 4.797623141852699, 5.823692301996493, 0.31556435942240246, 3.030490137966179, 1.7194749653008563, 4.973147098793945, 2.1101587208352393, 5.761418510212814, 1.7378942656024712, 0.7489007037358073, 4.456599926224252, 4.691879038729621, 2.3886105832554008, 2.29713601226842, 2.258161719529259, 4.80035533176193, 5.280894609627821, 2.701561590392014, 1.9916554950935172, 0.6522975772936652, 3.7174330446199817, 4.025395429880456, 3.7692283670685587, 3.6303310113268448, 0.6207926218368923, 3.844441479341378, 5.723220750518726, 3.722899579187097, 5.434779557779153, 4.0106792444627954, 2.5607915416242704, 3.6208438586059253, 1.4732495566829824, 6.027600351085779, 1.4745133273364592, 0.5026579935413034, 3.084843341081983, 2.5505854402911914, 2.8747856376057754, 0.05932658899645032, 4.925228858701095, 3.671936945383406, 1.7285193729825767, 3.917877352620044, 5.354829688403799, 3.4221099749950374, 1.761416159209946, 5.784620527289228, 0.0007077399087626888, 6.180694055093325, 5.245667767192338, 1.3114847229744826, 4.644379254015441, 5.143584142402586], [0.08062436666431605, 0.923948835561414, 0.7339523451366718, 0.5794502442667795, 0.5976030059699919, 0.7000266287193331, 0.8056200973061387, 0.8894700350923472, 0.07627888141344874, 0.8728580575304441, 0.22663938029178654, 0.6564232100473297, 0.29224536994517436, 0.6596231091705356, 0.629365131022366, 0.4619819572813424, 0.8193514805281565, 0.6512831230341642, 0.9733046870263129, 0.9444505395292015, 0.9182082032288363, 0.5543627964382509, 0.7830599900634658, 0.6542280042611439, 0.7626502422760495, 0.9888408853930919, 0.6299959315030015, 0.9162851472155082, 0.706661011532282, 0.827052482249405, 0.4143085575562553, 0.301302335753453, 0.05760853211194594, 0.7207888384390386, 0.1923819370949056, 0.15724463390189425, 0.9167070879854895, 0.5428114841934542, 0.30390380628201474, 0.2765018768384566, 0.5833472829696598, 0.7757670168741624, 0.8151969697108865, 0.6730294070586214, 0.3425704284896489, 0.2816810660044804, 0.32252491583720855, 0.2149071806352678, 0.7559688675013756, 0.3074243349346728, 0.950506417112257, 0.8364326348445001, 0.9862761290834987, 0.1625085191882869, 0.5606424964766055, 0.1594550505153438, 0.4145701339543364, 0.06871425770856554, 0.5767713099864875, 0.185962538695982, 0.8177615934270606, 0.5290150682036481, 0.4916001550510516, 0.6132162644788453]], "rnn_params": {"params": {"Dense_0": {"bias": [3.1266396045684814, 3.2052016258239746, 3.128690242767334, 3.1323964595794678, 3.127427577972412, 3.0907959938049316, 3.0599241256713867, 3.2268803119659424, 3.205641031265259, 3.1415927410125732, 3.0782113075256348, 3.0862226486206055, 3.1415927410125732, 3.1415927410125732, 3.1415927410125732, 3.116428852081299, 3.1415927410125732, 3.1415927410125732, 3.1415927410125732, 3.1415927410125732, 3.1415927410125732, 3.1415927410125732, 3.1415927410125732, 3.1415927410125732, 3.1415927410125732, 3.1415927410125732, 3.1415927410125732, 3.1415927410125732, 3.19020414352417, 3.078235149383545, 3.092580795288086, 3.059898853302002, 3.2251906394958496, 3.118114471435547, 3.141289234161377, 3.046917200088501, 3.143134593963623, 3.1415927410125732, 3.128106117248535, 3.0180163383483887, 3.1415927410125732, 3.1415927410125732, 3.1415927410125732, 3.1897470951080322, 3.1415927410125732, 3.1415927410125732, 3.1415927410125732, 3.1415927410125732, 3.1415927410125732, 3.1415927410125732, 3.1415927410125732, 3.1415927410125732, 3.1415927410125732, 3.1415927410125732, 3.1415927410125732, 3.1415927410125732, 3.2350707054138184, 3.204021692276001, 3.095072031021118, 3.163999557495117, 3.2722394466400146, 3.175309181213379, 3.18184494972229, 3.1415927410125732, 3.100447177886963, 3.093616247177124, 3.0946242809295654, 3.159440517425537, 3.1763975620269775, 3.195020914077759, 3.1316559314727783, 3.1583313941955566, 3.2325329780578613, 3.186448812484741, 3.2567620277404785, 3.28493332862854, 3.0729100704193115, 3.1587932109832764, 3.1837735176086426, 2.990947961807251, 2.814924716949463, 3.1415927410125732, 3.338965892791748, 3.4368176460266113, 3.1415927410125732, 3.1415927410125732, 3.1415927410125732, 3.1789371967315674, 3.1415927410125732, 3.1415927410125732, 3.1415927410125732, 3.1415927410125732, 3.1415927410125732, 3.1415927410125732, 3.1415927410125732, 3.1415927410125732, 3.1415927410125732, 3.1415927410125732, 3.1415927410125732, 3.1415927410125732, 3.0940678119659424, 3.0947556495666504, 3.175922393798828, 2.927577257156372, 3.3714375495910645, 2.9435601234436035, 3.1115643978118896, 3.2779622077941895, 2.6740915775299072, 3.1415927410125732, 3.089231014251709, 3.0542140007019043, 3.1415927410125732, 3.1415927410125732, 3.1415927410125732, 3.121473550796509, 3.1415927410125732, 3.1415927410125732, 3.1415927410125732, 3.1415927410125732, 3.1415927410125732, 3.1415927410125732, 3.1415927410125732, 3.1415927410125732, 3.1415927410125732, 3.1415927410125732, 3.1415927410125732, 3.1415927410125732, 3.4245214462280273, 3.3612236976623535, 3.388363838195801, 3.234308958053589, 3.2878317832946777, 3.1941275596618652, 3.3588736057281494, 3.1415927410125732, 3.2003283500671387, 3.2147226333618164, 3.166110038757324, 3.113309144973755, 3.6727797985076904, 3.220569610595703, 3.1685192584991455, 3.160975694656372, 3.1000795364379883, 3.2196505069732666, 3.1222963333129883, 3.349602699279785, 3.0857505798339844, 2.8984174728393555, 3.040062665939331, 3.1405251026153564, 2.9109950065612793, 3.1415927410125732, 3.41463303565979, 3.0897226333618164, 3.1415927410125732, 3.1415927410125732, 3.1415927410125732, 3.224142551422119, 3.1415927410125732, 3.1415927410125732, 3.1415927410125732, 3.1415927410125732, 3.1415927410125732, 3.1415927410125732, 3.1415927410125732, 3.1415927410125732, 3.1415927410125732, 3.1415927410125732, 3.1415927410125732, 3.1415927410125732, 2.967625379562378, 3.1299126148223877, 3.201479196548462, 3.178692102432251, 3.137644052505493, 3.2271807193756104, 3.0817201137542725, 2.496138334274292, 2.975165843963623, 3.1415927410125732, 3.412381172180176, 2.9683570861816406, 3.1415927410125732, 3.1415927410125732, 3.1415927410125732, 2.8058533668518066, 3.1415927410125732, 3.1415927410125732, 3.1415927410125732, 3.1415927410125732, 3.1415927410125732, 3.1415927410125732, 3.1415927410125732, 3.1415927410125732, 3.1415927410125732, 3.1415927410125732, 3.1415927410125732, 3.1415927410125732, 3.172790765762329, 3.095787763595581, 3.1072568893432617, 3.1780269145965576, 3.165264129638672, 3.1492903232574463, 3.1148743629455566, 3.1415927410125732], "kernel": [[-0.17332084476947784, -0.032727401703596115, 0.10127908736467361, -0.1261276751756668, 0.04343642294406891, -0.029793407768011093, -0.1349470317363739, 0.22445647418498993, -0.03857136890292168, -0.12196922302246094, -0.1287487894296646, 0.09093170613050461, 0.06906227767467499, 0.003314841538667679, -0.059839241206645966, 0.07729522138834, -0.11067640036344528, 0.03344724699854851, -0.15226875245571136, 0.044100385159254074, -0.0452943816781044, 0.020017001777887344, -0.14598530530929565, -0.10254927724599838, -0.10453002154827118, -0.018412653356790543, 0.1523095667362213, -0.08039117604494095, 0.19574835896492004, -0.06402500718832016, 0.036759041249752045, -0.10958600789308548, -0.01875144988298416, -0.10940099507570267, 0.036783672869205475, -0.22009366750717163, 0.09721770137548447, -0.06874766200780869, -0.041054680943489075, -0.25054776668548584, -0.11769058555364609, 0.14503911137580872, -0.08481695502996445, 0.20748741924762726, 0.14014659821987152, 0.07329833507537842, 0.006989157758653164, -0.12717357277870178, 0.11466741561889648, -0.06445130705833435, 0.11857102066278458, -0.14081914722919464, -0.011992082931101322, -0.055718570947647095, 0.09369600564241409, -0.10727445781230927, 0.1847396194934845, -0.007494980003684759, -0.1531580537557602, -0.04948196932673454, 0.17690083384513855, -0.128776416182518, 0.029296891763806343, -0.07845180481672287, -0.172664076089859, -0.09316454827785492, 0.06807084381580353, -0.11575224250555038, -0.03858022019267082, -0.03872665390372276, 0.04592050239443779, -0.11625485122203827, 0.0013504504458978772, 0.002543265698477626, 0.13525092601776123, 0.13412250578403473, -0.11504269391298294, 0.054518669843673706, 0.14086806774139404, -0.17669805884361267, -0.30795660614967346, 0.09683675318956375, 0.32169416546821594, 0.14308056235313416, 0.07655082643032074, -0.08466792106628418, 0.15254177153110504, 0.19410297274589539, 0.08460470288991928, -0.0349842868745327, 0.05775022879242897, 0.05265633761882782, 0.09158731251955032, 0.07796468585729599, 0.02992280013859272, -0.09402693808078766, -0.05578629672527313, 0.06324663758277893, 0.07557650655508041, 0.06198056414723396, -0.17643646895885468, -0.14053529500961304, 0.10309543460607529, -0.0708123967051506, 0.2043127864599228, -0.07125527411699295, 0.13556037843227386, 0.09941019117832184, -0.29867327213287354, -0.03651916980743408, -0.17109696567058563, -0.15985170006752014, -0.09259884804487228, 0.1489463448524475, -0.08039238303899765, 0.006665898486971855, 0.1442158967256546, -0.04941383749246597, -0.1270333230495453, -0.08185000717639923, -0.1130208969116211, 0.06713752448558807, 0.07427836954593658, -0.048975661396980286, 0.053642433136701584, -0.08863712847232819, 0.031497467309236526, -0.07356744259595871, 0.28858333826065063, 0.12015366554260254, 0.06219865009188652, 0.07818318903446198, 0.03187555819749832, 0.16247670352458954, 0.17385287582874298, -0.08793756365776062, -0.027544435113668442, 0.013723582029342651, 0.013300948776304722, -0.025928659364581108, 0.16917631030082703, 0.0387243926525116, 0.08905195444822311, 0.1324213296175003, -0.05579761043190956, 0.15976741909980774, 0.07529189437627792, 0.15323060750961304, -0.14180810749530792, -0.22237823903560638, -0.18041697144508362, 0.05569752678275108, -0.10035842657089233, 0.12050100415945053, 0.14359243214130402, -0.16031605005264282, -0.047450169920921326, 0.1513194590806961, 0.06285127997398376, 0.05448487773537636, -0.09043298661708832, 0.07179278880357742, -0.04936852678656578, 0.08421353995800018, 0.03554166853427887, -0.03628439083695412, 0.051341548562049866, -0.1166900247335434, -0.11148203909397125, -0.15355134010314941, 0.12055078148841858, 0.13107183575630188, -0.05433439090847969, 0.04177141562104225, -0.06610625982284546, -0.05422598868608475, 0.00044258154230192304, -0.0829925462603569, -0.13925756514072418, -0.3536917567253113, -0.2726893126964569, 0.010748420841991901, 0.13664594292640686, -0.1634531170129776, -0.03903624787926674, 0.15630534291267395, -0.12664636969566345, -0.4100496172904968, -0.15702955424785614, 0.09701463580131531, 0.08994416147470474, -0.0630776509642601, 0.05670531094074249, 0.02416299469769001, 0.1148395836353302, -0.11596997827291489, 0.02163758873939514, -0.14149747788906097, -0.01550990529358387, -0.14273923635482788, 0.13206206262111664, 0.0919676423072815, -0.06741859018802643, 0.18816840648651123, -0.13025949895381927, -0.05759582668542862, -0.008457436226308346, -0.1361611783504486], [-0.18291963636875153, -0.045531030744314194, -0.061502594500780106, -0.16628387570381165, -0.050879962742328644, 0.041199784725904465, -0.2280636727809906, 0.059784770011901855, 0.11310245841741562, 0.13828779757022858, -0.034620195627212524, 0.06755370646715164, -0.10807684063911438, -0.0779157355427742, 0.004576939158141613, -0.07049565017223358, 0.031145641580224037, 0.037475548684597015, -0.010362675413489342, 0.11349900811910629, 0.11735287308692932, 0.10524570941925049, 0.11013896763324738, 0.14183437824249268, -0.042303089052438736, 0.1458406150341034, -0.06483417749404907, -0.0626298263669014, 0.1779445856809616, -0.1487610638141632, 0.0617339089512825, -0.08423490822315216, 0.004195323213934898, 0.07495137304067612, -0.04791880026459694, -0.16680122911930084, 0.008666438981890678, 0.036092426627874374, 0.037520043551921844, -0.027292799204587936, -0.10003571957349777, -0.14055047929286957, -0.055693019181489944, 0.09059882909059525, 0.06253344565629959, 0.05092926323413849, -0.10331504791975021, 0.023266276344656944, 0.04284567013382912, -0.062213338911533356, 0.11332794278860092, -0.1494826376438141, -0.06714849919080734, -0.011204427108168602, -0.14177986979484558, 0.08391918241977692, 0.015102158300578594, -0.025369541719555855, -0.036498136818408966, 0.0873510092496872, 0.2117278128862381, 0.15369178354740143, 0.01833147555589676, -0.00023209114442579448, 0.005367063917219639, 0.03330240026116371, 0.10427889972925186, 0.1175399050116539, -0.08973336964845657, -0.03147246688604355, -0.03153029829263687, -0.03965046629309654, -0.09699895232915878, 0.06806709617376328, 0.09205172955989838, 0.2052021622657776, -0.15690071880817413, -0.08099038153886795, 0.12675265967845917, -0.14718028903007507, -0.06328430026769638, -0.0013481804635375738, 0.30800092220306396, 0.07771314680576324, 0.09984507411718369, -0.060107938945293427, -0.11172938346862793, 0.04964173212647438, 0.1534077525138855, -0.14230458438396454, 0.08731518685817719, 0.09555444121360779, -0.1089622750878334, -0.10949467122554779, -0.06346885114908218, -0.13580599427223206, 0.03715839609503746, 0.10286154597997665, 0.0938761979341507, -0.12265463173389435, 0.06663735955953598, -0.1307670772075653, 0.09447351098060608, -0.14279480278491974, 0.10067741572856903, -0.1776052713394165, -0.07651064544916153, -0.00227319891564548, -0.15604712069034576, -0.08158554881811142, -0.20923921465873718, -0.0025887037627398968, -0.009464632719755173, -0.004158675204962492, 0.021659960970282555, -0.039743099361658096, -0.11199937015771866, 0.15278109908103943, -0.0285885501652956, -0.11873838305473328, -0.016578031703829765, -0.06681295484304428, -0.11783204972743988, 0.04276231303811073, -0.08448424935340881, -0.056406062096357346, -0.12432454526424408, -0.0004967757849954069, 0.17367050051689148, 0.15748994052410126, 0.2566855251789093, 0.03740719333291054, 0.08377878367900848, -0.08433853089809418, 0.23456966876983643, 0.04958763346076012, 0.014453875832259655, -0.12253501266241074, 0.009647069498896599, 0.0271892249584198, 0.24700608849525452, 0.03334660828113556, 0.05501718819141388, -0.03517250716686249, -0.15038467943668365, 0.05701889470219612, -0.06664964556694031, 0.17800208926200867, 0.09632410109043121, -0.3296273350715637, -0.11826200038194656, 0.0034095218870788813, -0.17615890502929688, -0.08262081444263458, 0.07777534425258636, -0.08338682353496552, -0.06139229238033295, 0.03498228266835213, -0.09254660457372665, -0.0788847953081131, -0.004774506203830242, 0.01800987310707569, -0.11965008825063705, 0.1284288614988327, 0.12348184734582901, -0.14065654575824738, -0.030813612043857574, -0.09815377742052078, 0.130273699760437, 0.13134807348251343, 0.08137302845716476, -0.0018130820244550705, -0.11502961069345474, -0.14014454185962677, -0.12812753021717072, -0.03527391701936722, -0.08455954492092133, 0.045155808329582214, 0.05575012043118477, -0.2554906904697418, -0.008835881017148495, -0.1532270610332489, 0.17655926942825317, -0.19775480031967163, 0.05432477593421936, 0.15467287600040436, 0.1106802225112915, -0.34629982709884644, 0.1460401564836502, 0.11567693948745728, 0.07261307537555695, 0.09099479764699936, -0.06613458693027496, 0.015799006447196007, 0.040800876915454865, 0.10423913598060608, 0.06760117411613464, 0.10763286799192429, -0.1317509263753891, 0.1476481407880783, 0.09581005573272705, 0.062040917575359344, -0.16632121801376343, 0.06425723433494568, -0.02065458334982395, 0.021965382620692253, -0.036620404571294785, -0.07270580530166626], [-0.042177263647317886, 0.1551879346370697, -0.026026608422398567, -0.03604545071721077, 0.14082251489162445, 0.19841884076595306, -0.11557573825120926, 0.14770536124706268, 0.19102472066879272, 0.14495328068733215, 0.03804079815745354, 0.02469850331544876, -0.035848524421453476, 0.14675630629062653, -0.031032415106892586, -0.1617567092180252, -0.02956385537981987, -0.13830679655075073, 0.11458167433738708, 0.05036730319261551, -0.039963286370038986, 0.12001864612102509, 0.03320315480232239, -0.14475208520889282, -0.029631389304995537, -0.14394031465053558, 0.0642269030213356, 0.12011756747961044, 0.06739019602537155, 0.029386339709162712, -0.10674242675304413, -0.09767956286668777, 0.056241340935230255, 0.02505936287343502, -0.05863409861922264, -0.006311056204140186, 0.027424270287156105, 0.15358279645442963, -0.054534874856472015, 0.09526107460260391, 0.08082018792629242, 0.05604276433587074, -0.15179423987865448, -0.08309555798768997, 0.004272506106644869, 0.03166043758392334, -0.1107863336801529, 0.15543203055858612, -0.059196874499320984, 0.10650898516178131, 0.11508132517337799, -0.03857903182506561, 0.13101550936698914, -0.010259253904223442, -0.09721897542476654, 0.04527053236961365, 0.12968400120735168, -0.04955454170703888, 0.18289299309253693, 0.007011530455201864, 0.15510670840740204, -0.036991629749536514, 0.03137309104204178, -0.017070189118385315, -0.008288922719657421, -0.013593537732958794, -0.062084998935461044, -0.0876937136054039, -0.06411182135343552, 0.031520675867795944, 0.08947356790304184, -0.10491353273391724, 0.07829797267913818, -0.21710270643234253, 0.20458875596523285, -0.059927187860012054, -0.04096057265996933, 0.27458450198173523, -0.041499245911836624, -0.2253175675868988, 0.20477838814258575, 0.01954100839793682, 0.37126919627189636, -0.2026400864124298, 0.04947618767619133, 0.045675963163375854, 0.13718155026435852, -0.014013352803885937, -0.13240674138069153, 0.037615422159433365, 0.14902257919311523, 0.08791617304086685, -0.04333748668432236, 0.02765522710978985, -0.02471863478422165, 0.043517377227544785, 0.06710909307003021, -0.1341918408870697, 0.14442463219165802, 0.008349527604877949, 0.0723152831196785, -0.009225207380950451, -0.14152489602565765, -0.09860493987798691, 0.1050887256860733, 0.19952167570590973, 0.13513779640197754, -0.2539692521095276, -0.06874226033687592, -0.15807822346687317, 0.06134558096528053, -0.022365320473909378, 0.07758136093616486, -0.11885421723127365, -0.13143037259578705, -0.017514018341898918, -0.13982240855693817, -0.07834554463624954, -0.004715262446552515, -0.11574027687311172, 0.010256906971335411, 0.03282346576452255, -0.13230937719345093, -0.08193923532962799, 0.08346521854400635, 0.11088695377111435, 0.08415040373802185, -0.09201473742723465, 0.23466062545776367, -0.12370144575834274, 0.0246706772595644, 0.08041428029537201, 0.18001292645931244, 0.03554178401827812, 0.1770632266998291, 0.0896577462553978, 0.14112521708011627, 0.15909337997436523, 0.009861687198281288, -0.04846886545419693, 0.014469233341515064, 0.17439334094524384, 0.04070397838950157, 0.05846879631280899, -0.22106632590293884, 0.14956630766391754, -0.035197190940380096, -0.09740307182073593, 0.16071580350399017, 0.25865107774734497, -0.052385248243808746, 0.19855453073978424, 0.14221277832984924, -0.03050452284514904, -0.10323640704154968, 0.26209554076194763, -0.11578990519046783, 0.059963975101709366, -0.035810936242341995, -0.14730770885944366, 0.12951284646987915, 0.10618414729833603, -0.03491160646080971, -0.11124135553836823, 0.13022005558013916, 0.06524884700775146, -0.14500178396701813, -0.0953892394900322, 0.020995108410716057, 0.018923358991742134, 0.08933155238628387, 0.03132961690425873, 0.23151010274887085, 0.04806346818804741, -0.17952537536621094, 0.13328593969345093, 0.28655776381492615, -0.1664380431175232, 0.04935401678085327, -0.11427585780620575, -0.3023700714111328, -0.10346245765686035, 0.10296572744846344, 0.14066284894943237, -0.13100484013557434, 0.031101124361157417, -0.10799968987703323, -0.04084688425064087, -0.14323276281356812, 0.13978947699069977, 0.056388650089502335, -0.04461434856057167, 0.0028005766216665506, -0.07981297373771667, -0.0036111732479184866, 0.14810891449451447, 0.05381513014435768, 0.0396365225315094, -0.13595791161060333, -0.13393250107765198, -0.06831899285316467, -0.15596510469913483, -0.0908220037817955, -0.07271812856197357, 0.01158982329070568, -0.12025313079357147, 0.14666809141635895, -0.06821500509977341], [-0.02350715734064579, 0.025592438876628876, -0.11403252184391022, -0.10857224464416504, -0.04624880850315094, -0.047897402197122574, -0.21797797083854675, 0.13846799731254578, 0.21023112535476685, 0.0031542214564979076, 0.0677659884095192, -0.07127299159765244, 0.1443987786769867, 0.10917574167251587, -0.14904317259788513, -0.12717097997665405, -0.08514141291379929, -0.04467480257153511, 0.047556426376104355, -0.11505383998155594, -0.14472807943820953, 0.05457715690135956, -0.07988705486059189, -0.12142769992351532, 0.10317616164684296, -0.09014926105737686, -0.03214763477444649, -0.012939564883708954, -0.05400028079748154, -0.02284160442650318, 0.09171812981367111, 0.05564173683524132, 0.1499721258878708, -0.1068880707025528, -0.017203401774168015, -0.061952538788318634, -0.006483419332653284, -0.06336020678281784, 0.11187852919101715, -0.08336078375577927, -0.13960526883602142, -0.02183152176439762, -0.06647490710020065, 0.10844246298074722, 0.13022013008594513, 0.04537796601653099, 0.07639728486537933, -0.031707677990198135, 0.0030361127573996782, 0.14879567921161652, 0.027416851371526718, -0.06308503448963165, -0.13900530338287354, -0.13319113850593567, -0.03834807500243187, -0.11263579875230789, 0.0724627673625946, -0.022751448675990105, -0.019018737599253654, 0.1019548624753952, 0.1714196354150772, 0.005938082002103329, 0.11707141250371933, -0.15822018682956696, -0.05344235152006149, -0.03123520128428936, -0.09493919461965561, -0.09948655962944031, -0.04404011368751526, -0.0784689337015152, 0.09427689760923386, -0.06727919727563858, -0.15252254903316498, -0.057198066264390945, 0.20226146280765533, -0.050107426941394806, -0.10359832644462585, -0.075032539665699, -0.034922853112220764, -0.2546531558036804, -0.08354392647743225, 0.14932914078235626, 0.2765294909477234, -0.035755377262830734, 0.0053799268789589405, 0.13235725462436676, -0.15078838169574738, 0.05354147031903267, -0.08539069443941116, -0.08098198473453522, 0.0410691574215889, 0.07358062267303467, 0.09099797904491425, -0.14879144728183746, 0.10365385562181473, 0.010074027813971043, 0.07866425067186356, 0.1170194074511528, -0.12460698187351227, -0.14566655457019806, 0.41916021704673767, 0.2700873911380768, -0.021890293806791306, 0.09846894443035126, 0.17829373478889465, -0.039433322846889496, 0.05033400282263756, 0.17095059156417847, 0.03729201853275299, 0.03437553718686104, 0.04580160230398178, 0.1591295748949051, 0.02814446948468685, 0.11689490079879761, -0.06523086130619049, 0.13482461869716644, -0.010056046769022942, -0.10274305939674377, -0.11678549647331238, -0.12307016551494598, 0.12548787891864777, 0.024173177778720856, -0.10050546377897263, 0.12384843826293945, -0.10884715616703033, 0.030906356871128082, 0.01299540139734745, -0.07248618453741074, 0.03942785784602165, 0.22416193783283234, 0.157232865691185, -0.06643479317426682, -0.003754774108529091, -0.08051902800798416, 0.03474685549736023, 0.14601081609725952, 0.05634140223264694, -0.15201640129089355, -0.09552586823701859, -0.05809865519404411, -0.29412028193473816, 0.1630048155784607, 0.22359991073608398, -0.029136963188648224, -0.13987824320793152, 0.21621504426002502, -0.08836357295513153, -0.39128240942955017, 0.0325096994638443, -0.039976030588150024, 0.04552965611219406, 0.42722201347351074, -0.12230679392814636, 0.14759285748004913, -0.2891865074634552, 0.1312292069196701, 0.026299702003598213, -0.10156866908073425, -0.1471894383430481, -0.23782382905483246, -0.05111365765333176, 0.028594568371772766, 0.13363003730773926, 0.11870691925287247, -0.017496591433882713, -0.014355846680700779, -0.1437549740076065, -0.017478762194514275, 0.005456280894577503, 0.13905280828475952, 0.07541070133447647, -0.09914456307888031, 0.14440295100212097, 0.14057669043540955, -0.14693015813827515, 0.1519673466682434, 0.23750005662441254, -0.0275195874273777, 0.09823354333639145, 0.010037742555141449, -0.012511166743934155, -0.012290837243199348, 0.17668908834457397, 0.009616038762032986, 0.04845045879483223, -0.114501953125, 0.11066432297229767, -0.15464399755001068, -0.11184367537498474, -0.04331227391958237, 0.05371367558836937, 0.076780304312706, 0.08719828724861145, 0.010083340108394623, -0.10820217430591583, 0.11211032420396805, 0.12212669849395752, -0.0026285997591912746, -0.04354364797472954, 0.08205912262201309, -0.045118965208530426, -0.2596544921398163, -0.14805862307548523, 0.07805483788251877, -0.058296941220760345, 0.04668436199426651, 0.13227498531341553, -0.0028259067330509424], [0.04331675544381142, 0.007099091541022062, 0.022430630400776863, -0.009922938421368599, -0.12238797545433044, -0.1388423591852188, -0.062306638807058334, 0.2302549034357071, -0.09969885647296906, 0.07289339601993561, 0.017962787300348282, -0.0295412540435791, -0.1130606085062027, 0.15233322978019714, -0.15770785510540009, 0.06689566373825073, -0.0447315089404583, 0.05513446405529976, -0.02062934823334217, 0.10860961675643921, -0.014002240262925625, 0.14234478771686554, -0.08963583409786224, 0.03891776129603386, 0.07794666290283203, 0.017341649159789085, -0.11023292690515518, -0.08056334406137466, 0.07762563973665237, 0.07387259602546692, -0.04310104623436928, -0.13852882385253906, 0.2330884486436844, 0.09572111815214157, -0.12008286267518997, 0.034322962164878845, 0.08181193470954895, -0.00865884404629469, 0.1256079375743866, -0.028714705258607864, -0.12229125946760178, 2.9451462978613563e-05, -0.07075505703687668, -0.017918311059474945, 0.11251257359981537, 0.09770439565181732, 0.03514661267399788, 0.06725404411554337, -0.10919705033302307, -0.1350586861371994, 0.031368836760520935, -0.123702771961689, 0.030567172914743423, -0.02089872770011425, 0.04581379517912865, -0.12283675372600555, -0.03257748484611511, 0.08545365929603577, -0.1750224232673645, -0.028942523524165154, 0.1148528978228569, -0.0836060643196106, -0.08863681554794312, 0.09993846714496613, 0.15380240976810455, -0.11518111079931259, 0.07867629826068878, 0.024079937487840652, 0.1314125955104828, 0.0839449092745781, 0.09077998995780945, 0.017054317519068718, 0.06743291765451431, 0.03627341240644455, 0.07673060148954391, 0.10418553650379181, 0.01780923828482628, -0.0852651298046112, 0.10011708736419678, -0.02827528864145279, -0.03264695405960083, -0.10399061441421509, 0.06464390456676483, -0.0019982545636594296, 0.06796315312385559, -0.005001827608793974, -0.06850588321685791, 0.02912648394703865, 0.002498188056051731, -0.13179351389408112, 0.09119944274425507, 0.0009168944670818746, 0.08468321710824966, -0.14055907726287842, 0.09019457548856735, 0.0064667160622775555, -0.03340102359652519, -0.06777894496917725, 0.12470339983701706, -0.14350539445877075, 0.061295285820961, -0.055823009461164474, -0.16104695200920105, -0.2064070701599121, 0.28334376215934753, -0.3160659968852997, 0.04149371758103371, 0.046010591089725494, -0.4535174071788788, 0.08382817357778549, -0.028819328173995018, -0.011920339427888393, -0.15546473860740662, 0.12410354614257812, -0.10058654844760895, 0.024201946333050728, -0.11768785864114761, -0.1407778412103653, -0.09250356256961823, -0.1370847523212433, 0.12455160170793533, 0.07783075422048569, 0.11312651634216309, -0.004986117593944073, -0.08338981121778488, -0.1223207488656044, 0.013928725384175777, 0.04756619408726692, 0.3367006778717041, 0.3064284026622772, 0.337439626455307, 0.12529435753822327, -0.09221591055393219, 0.14136025309562683, 0.22038143873214722, -0.1510203629732132, -0.02873579040169716, -0.13823483884334564, 0.09111781418323517, -0.07420053333044052, 0.05858052894473076, -0.039095066487789154, 0.05164160206913948, 0.02640579268336296, -0.2027122974395752, 0.2175135761499405, -0.2684795558452606, 0.004551583901047707, 0.13471749424934387, -0.25886714458465576, -0.1363304853439331, -0.00656636618077755, 0.050154492259025574, -0.09023576229810715, 0.41808921098709106, -0.22239573299884796, 0.004623463377356529, -0.14332391321659088, 0.03275502473115921, -0.1427711546421051, 0.014981633983552456, 0.11789090931415558, -0.061799466609954834, -0.026076052337884903, -0.0021803167182952166, -0.09766540676355362, -0.032093197107315063, -0.03841644152998924, -0.012551055289804935, -0.07224659621715546, 0.08530177175998688, 0.09614691138267517, 0.06518539041280746, -0.07710413634777069, 0.2123129516839981, -0.21047472953796387, 0.15938575565814972, 0.008761792443692684, 0.01032852940261364, -0.28961387276649475, -0.25033047795295715, 0.14150689542293549, 0.18659555912017822, -0.12112092971801758, 0.11457383632659912, -0.1284772753715515, -0.04987078905105591, -0.5339154601097107, -0.14346730709075928, 0.07911257445812225, 0.0023079272359609604, -0.12492496520280838, 0.01166357472538948, 0.09011337906122208, -0.030009450390934944, -0.1260337084531784, -0.0599634051322937, 0.05841111019253731, -0.05332088842988014, -0.024436121806502342, 0.08721503615379333, -0.20164109766483307, -0.027438221499323845, -0.03709017485380173, -0.04943550378084183, 0.0547495074570179, -0.15880374610424042, -0.04642997682094574], [0.0034037630539387465, -0.17253254354000092, 0.06898912042379379, -0.09364354610443115, 0.014973967336118221, -0.06513294577598572, -0.014205869287252426, -0.20209744572639465, -0.08815771341323853, -0.08395586162805557, -0.06621071696281433, 0.21636667847633362, -0.02380109764635563, 0.08671370148658752, 0.026130905374884605, -0.09251828491687775, 0.042761292308568954, -0.12616507709026337, -0.09837894141674042, -0.09570858627557755, 0.08933859318494797, -0.018796922639012337, 0.1179487556219101, -0.07028807699680328, -0.04551628977060318, -0.07155107706785202, -0.107072614133358, -0.13881057500839233, 0.02611776441335678, 0.0985628142952919, -0.04380220174789429, 0.03131629154086113, 0.02745511196553707, 0.06506888568401337, 0.10206931084394455, 0.19483527541160583, -0.00925530306994915, 0.02937234565615654, -0.14114205539226532, 0.236763596534729, 0.11640872806310654, 0.14549590647220612, 0.14093467593193054, 0.07401550561189651, 0.040549136698246, -0.104282446205616, 0.0948389321565628, -0.09822376817464828, 0.1281873732805252, -0.06755552440881729, -0.0585714653134346, 0.0126157496124506, 0.07619169354438782, 0.09347784519195557, -0.1518976241350174, 0.04179034009575844, -0.1184730976819992, 0.0857071802020073, 0.1418752372264862, 0.12880365550518036, -0.10530403256416321, 0.1054997518658638, -0.171000137925148, 0.09192974865436554, 0.024953097105026245, 0.061947714537382126, -0.005437165033072233, 0.005104985553771257, 0.035234324634075165, 0.049476660788059235, -0.11830170452594757, 0.03633500635623932, 0.10916955769062042, 0.033061232417821884, -0.022360144183039665, -0.003407140960916877, 0.23652487993240356, -0.08001875132322311, -0.002014461439102888, 0.016186494380235672, 0.29308652877807617, 0.13663744926452637, -0.19764266908168793, -0.11576741188764572, 0.11925593763589859, 0.13322365283966064, -0.15647165477275848, 0.14308664202690125, -0.03621087595820427, 0.021685589104890823, 0.09614032506942749, 0.009554236195981503, 0.11833813786506653, -0.11252661794424057, -0.10384976118803024, 0.06188486889004707, 0.09513768553733826, -0.13337628543376923, -0.13325117528438568, 0.0825086161494255, 0.1452164500951767, 0.03779006376862526, 0.15913593769073486, 0.26655715703964233, -0.1018761694431305, 0.20629210770130157, 0.07168855518102646, -0.1119774729013443, 0.228406623005867, 0.046860381960868835, -0.14634810388088226, 0.21980223059654236, -0.07401663810014725, 0.025028973817825317, -0.005889232736080885, -0.09268403798341751, 0.040118154138326645, -0.13775210082530975, 0.10191228240728378, -0.020403655245900154, 0.01835901290178299, -0.12921541929244995, 0.05248848721385002, 0.045041773468256, -0.1580767184495926, -0.11835861206054688, -0.07753116637468338, 0.04112476482987404, -0.20168069005012512, -0.19142794609069824, -0.3007962107658386, -0.04844653233885765, -0.18449687957763672, -0.18300233781337738, -0.30003148317337036, -0.11103281378746033, 0.10262702405452728, -0.08535850793123245, 0.1223997175693512, -0.0070320251397788525, -0.2098599672317505, 0.110653817653656, 0.09199731796979904, 0.045476917177438736, 0.10002289712429047, -0.03409445285797119, 0.03149186074733734, -0.09011183679103851, -0.03775395080447197, 0.17861488461494446, 0.2648914158344269, -0.13430537283420563, 0.09966401755809784, -0.11501284688711166, 0.03401722386479378, 0.18443743884563446, 0.14473837614059448, 0.08003253489732742, -0.06504473090171814, 0.15881633758544922, -0.0422518327832222, 0.11068760603666306, -0.007016110699623823, 0.11822418868541718, 0.05550260841846466, 0.12206681072711945, -0.03930407389998436, -0.10885147005319595, -0.09722363203763962, 0.031045816838741302, -0.012732609175145626, -0.07621622085571289, 0.09056522697210312, -0.241110697388649, -0.06542894244194031, 0.21867403388023376, 0.058214470744132996, 0.1675950288772583, -0.09838838130235672, 0.325457900762558, 0.03747936710715294, -0.10265807062387466, -0.16716036200523376, 0.0687628835439682, -0.1260598748922348, -0.08286543935537338, 0.14510391652584076, 0.18895187973976135, 0.09031809866428375, -0.15073195099830627, 0.02250496856868267, -0.11656048893928528, 0.027776097878813744, -0.11671750992536545, -0.04978383705019951, 0.04596446081995964, 0.15388154983520508, -0.1149601861834526, 0.1272600293159485, 0.145865336060524, 0.042735859751701355, 0.03939051553606987, 0.14693869650363922, 0.08625107258558273, 0.10722768306732178, 0.009701551869511604, 0.07832088321447372, 0.028838833793997765], [0.0059728180058300495, 0.14491267502307892, -0.0015453580999746919, 0.005801401101052761, 0.03408025577664375, 0.12223438918590546, -0.012275741435587406, -0.051304370164871216, -0.08557097613811493, -0.04327434301376343, -0.14268822968006134, -0.1587853729724884, -0.05191785842180252, -0.13196492195129395, 0.06371994316577911, -0.001219749916344881, -0.1540742665529251, -0.03280026093125343, -0.11345085501670837, 0.06551871448755264, -0.11928875744342804, -0.0615944042801857, -0.0548117458820343, -0.05208657681941986, 0.11052997410297394, -0.008999958634376526, 0.026160091161727905, 0.024886637926101685, 0.14187093079090118, 0.04177018627524376, -0.0538753867149353, -0.18344254791736603, -0.024713173508644104, -0.13880442082881927, 0.08065967261791229, -0.1743425875902176, 0.01776396669447422, -0.0778365433216095, -0.04642438516020775, -0.19385164976119995, 0.03991146385669708, -0.09147348254919052, 0.07786330580711365, -0.0707729384303093, 0.03661078214645386, 0.051308196038007736, -0.10576508939266205, 0.035626694560050964, -0.08275588601827621, 0.05051955580711365, -0.0017422925448045135, -0.11525353044271469, 0.06274490058422089, -0.12457310408353806, 0.15053486824035645, 0.09314070641994476, 0.2264203578233719, 0.13428771495819092, -0.058597855269908905, 0.12544216215610504, 0.046597108244895935, -0.06374260038137436, 0.005230787675827742, 0.026576651260256767, 0.06341123580932617, 0.048631452023983, -0.08313611149787903, -0.024813013151288033, 0.05596577003598213, -0.07197685539722443, -0.03881903365254402, 0.1328309029340744, 0.05612749606370926, -0.03217935934662819, 0.14728662371635437, -0.0568777471780777, -0.014809616841375828, 0.031247541308403015, 0.14330722391605377, -0.18296444416046143, -0.04334713891148567, 0.1008693277835846, 0.17203669250011444, 0.09949192404747009, 0.07394804060459137, -0.112381711602211, -0.04213327169418335, -0.07344895601272583, -0.03323601558804512, 0.05492255091667175, 0.043218206614255905, -0.12189082056283951, 0.14526918530464172, 0.1543533354997635, 0.042433008551597595, -0.05493064969778061, 0.0522686243057251, -0.12035521864891052, -0.12659363448619843, -0.1476287841796875, 0.02899223379790783, 0.04039890691637993, -0.12726742029190063, -0.19391418993473053, 0.09840337187051773, -0.2338859736919403, 0.042488470673561096, 0.11732040345668793, -0.1939554661512375, -0.06037762016057968, 0.024051126092672348, -0.03785250708460808, -0.0699625164270401, -0.1387288123369217, -0.15679705142974854, -0.015323963016271591, 0.10016465187072754, 0.04127436876296997, 0.006799123715609312, 0.15710663795471191, -0.050498396158218384, 0.062372785061597824, -0.1574125736951828, 0.12534458935260773, 0.10598646849393845, 0.05520264059305191, -0.14800602197647095, -0.10352374613285065, 0.20520344376564026, 0.2164418250322342, 0.019065001979470253, 0.058377690613269806, 0.21699678897857666, 0.14861629903316498, 0.28653329610824585, -0.14111097157001495, 0.12937483191490173, 0.14889739453792572, -0.07389116287231445, -0.01755388081073761, 0.09988214075565338, -0.14502395689487457, -0.048432644456624985, 0.09413398802280426, -0.04354146495461464, 0.049046944826841354, -0.08178412169218063, -0.10947933048009872, -0.13080427050590515, -0.15895867347717285, -0.064423568546772, 0.027569353580474854, -0.19624164700508118, 0.0748654305934906, 0.01454582717269659, -0.20230993628501892, 0.12314565479755402, -0.062254033982753754, 0.026301860809326172, -0.01629018411040306, 0.0585860013961792, -0.10195823758840561, -0.13465546071529388, -0.04948265850543976, 0.04162222146987915, -0.059123244136571884, 0.10865715891122818, 0.15681461989879608, 0.01633344776928425, 0.13255342841148376, -0.14129970967769623, 0.1494157463312149, 0.04262973368167877, -0.0059038433246314526, 0.09213655441999435, 0.008929954841732979, 0.07542815804481506, -0.047563888132572174, 0.06134993955492973, -0.2967873513698578, -0.11506965011358261, -0.01440115924924612, 0.09350042790174484, 0.006861709989607334, -0.08935513347387314, -0.1026199534535408, -0.09295234084129333, -0.2882445156574249, -0.1181187629699707, 0.13160890340805054, -0.12436198443174362, -0.00791865773499012, -0.029877865687012672, -0.14607301354408264, 0.06082222983241081, -0.13687415421009064, 0.045320235192775726, 0.08802016079425812, -0.0977587178349495, -0.05290425196290016, -0.11030716449022293, 0.014326786622405052, 0.036785077303647995, 0.09653318673372269, 0.0009487788775004447, -0.025716809555888176, 0.0604533776640892, 0.0964440405368805], [-0.004348201211541891, -0.15549810230731964, -0.12069005519151688, -0.30994123220443726, -0.20135150849819183, -0.190952867269516, -0.05382293835282326, -0.29936686158180237, 0.15604326128959656, -0.03730330616235733, 0.050835393369197845, 0.1862708181142807, -0.12470623850822449, 0.02944302186369896, -0.14393126964569092, -0.19188277423381805, 0.10711758583784103, -0.06908877938985825, -0.0433373749256134, 0.11600904911756516, 0.08194411545991898, 0.03184732794761658, 0.03807449713349342, 0.1393888145685196, -0.03134585916996002, -0.06885453313589096, 0.0815105214715004, 0.11809059977531433, 0.09539119899272919, 0.15196353197097778, -0.09177606552839279, -0.11379463225603104, -0.10895215719938278, -0.2875947952270508, -0.08177673816680908, 0.0783623605966568, -0.07615173608064651, -0.02276083268225193, -0.05573645979166031, 0.09309693425893784, -0.11892281472682953, -0.0390474908053875, -0.0086951470002532, 0.14749103784561157, 0.12931369245052338, -0.12651072442531586, -0.016270343214273453, 0.037231456488370895, -0.12135642021894455, 0.13711942732334137, 0.025084620341658592, -0.15755203366279602, 0.014082001522183418, -0.09284834563732147, 0.1448121964931488, 0.041786666959524155, -0.23129995167255402, -0.1528998464345932, -0.013051485642790794, 0.04015480354428291, -0.15326125919818878, -0.09187048673629761, -0.0327037051320076, -0.002442275872454047, -0.09656181931495667, -0.05276345834136009, -0.00890580378472805, 0.03499152138829231, 0.00044707683264277875, 0.0018297790084034204, 0.014749931171536446, -0.16306020319461823, -0.09893930703401566, -0.05905498191714287, -0.5029458999633789, -0.21506819128990173, -0.07920251041650772, -0.0324837751686573, -0.19469842314720154, -0.0045484877191483974, -0.3177938759326935, -0.012121283449232578, 0.129803866147995, -0.31099066138267517, -0.15589489042758942, -0.157208651304245, 0.07423949241638184, -0.31466925144195557, 0.14354825019836426, -0.10658934712409973, -0.1043962761759758, 0.028220634907484055, 0.0920514166355133, 0.03274287283420563, 0.0796811580657959, 0.15409353375434875, 0.08404527604579926, 0.1055503711104393, 0.0012747031869366765, -0.0014100739499554038, 0.06657405942678452, -0.11878185719251633, -0.2437017560005188, -0.14100763201713562, -0.20193496346473694, -0.016009826213121414, -0.18526528775691986, 0.16108815371990204, 0.11448918282985687, 0.10251975059509277, 0.2552742660045624, 0.273505300283432, 0.05897681787610054, -0.09028981626033783, 0.09927251189947128, 0.10218040645122528, -0.117836132645607, -0.011914706788957119, -0.036258991807699203, 0.14194341003894806, 0.1331789493560791, 0.002985613653436303, -0.11697045713663101, -0.008372013457119465, -0.059253543615341187, 0.016973203048110008, 0.11759715527296066, 0.0562942773103714, -0.28994446992874146, 0.024010688066482544, 0.04009023681282997, -0.16967840492725372, -0.1251865178346634, 0.028491349890828133, -0.2768133878707886, 0.12120836973190308, 0.1240951269865036, 0.03167015686631203, 0.1609044224023819, -0.04057687893509865, -0.3084273934364319, -0.0006914454861544073, 0.0018368205055594444, -0.0014112028293311596, 0.20819948613643646, 0.04271170124411583, -0.07812248170375824, -0.3588734567165375, -0.1244012638926506, 0.11442697048187256, 0.018967334181070328, 0.19122330844402313, 0.14533384144306183, 0.11773934215307236, -0.3220437169075012, 0.01227554026991129, -0.10859182476997375, -0.15540684759616852, -0.08402930200099945, 0.019299602136015892, -0.004836589097976685, 0.043710969388484955, -0.03974497690796852, -0.12507109344005585, -0.04432521015405655, 0.054998867213726044, 0.1325041800737381, 0.06022653728723526, 0.05273829400539398, -0.061356935650110245, 0.04271223023533821, 0.1479048728942871, 0.013289684429764748, 0.2587190270423889, -0.1612509787082672, 0.040642429143190384, -0.1742965430021286, 0.14466378092765808, 0.09741368144750595, 0.25189822912216187, 0.28181982040405273, 0.0525248683989048, -0.012931816279888153, 0.2740591764450073, -0.016014782711863518, -0.013556568883359432, -0.05540633946657181, 0.42300257086753845, 0.07078087329864502, -0.14745715260505676, 0.147563636302948, 0.00832692813128233, 0.037573933601379395, -0.1353418529033661, 0.01489869225770235, -0.1367635428905487, -0.07508139312267303, -0.059968817979097366, -0.08064283430576324, -0.1132378876209259, -0.1641070395708084, -0.18547333776950836, -0.08039243519306183, -0.0456591472029686, 0.1158733144402504, 0.04282035678625107, 0.19124045968055725, 0.06559602171182632], [0.048387739807367325, 0.09418394416570663, -0.013036435469985008, 0.041465625166893005, 0.1034611240029335, -0.011460445821285248, 0.09009593725204468, -0.09602813422679901, -0.09141650795936584, 0.03250805661082268, 0.20882807672023773, -0.033811867237091064, -0.028550656512379646, 0.08769960701465607, 0.0037775475066155195, 0.014611138962209225, -0.018942590802907944, 0.08062334358692169, 0.1155598908662796, 0.05326369032263756, 0.12771184742450714, 0.057902030646800995, -0.0925387293100357, -0.028555048629641533, -0.0635739341378212, -0.0335991233587265, 0.11998124420642853, -0.14362607896327972, 0.016426246613264084, 0.212496817111969, 0.1557423174381256, -0.09385711699724197, 0.000719767005648464, 0.09438838809728622, -0.11429919302463531, -0.04433831945061684, -0.03344838321208954, 0.10025879740715027, -0.039895955473184586, 0.06014300882816315, 0.04593481868505478, -0.1300879418849945, -0.06335611641407013, -0.1835661232471466, 0.06680522859096527, -0.08213766664266586, -0.03344667702913284, -0.14380089938640594, 0.13861119747161865, -0.02142658270895481, 0.10795566439628601, 0.0049835811369121075, 0.03266345337033272, -0.01682935282588005, 0.09982448816299438, -0.008876473642885685, -0.0975525975227356, -0.10299712419509888, 0.046243973076343536, -0.13203831017017365, -0.21606333553791046, 0.07881280779838562, -0.17430007457733154, 0.14899642765522003, -0.08232337981462479, -0.11781621724367142, 0.03389691188931465, 0.16242597997188568, -0.04826707765460014, -0.17208532989025116, -0.20478355884552002, -0.1135396808385849, 0.033588897436857224, 0.009530511684715748, -0.10237526148557663, 0.04831627383828163, -0.06331303715705872, 0.11795210838317871, 0.034772101789712906, 0.06843194365501404, 0.12935668230056763, -0.1275937259197235, -0.19804129004478455, 2.9506605642382056e-05, -0.14175553619861603, 0.015373512171208858, 0.018520010635256767, -0.17195582389831543, 0.07008933275938034, 0.1077083945274353, -0.0887606143951416, -0.0204186849296093, -0.1170819029211998, -0.020356524735689163, -0.008423080667853355, 0.1444610208272934, -0.09587851911783218, 0.03491239994764328, 0.08550581336021423, 0.08038299530744553, 0.13354609906673431, 0.09225506335496902, -0.023900117725133896, 0.09864212572574615, 0.013959463685750961, 0.2317681610584259, 0.002040700986981392, -0.14311003684997559, 0.2682676315307617, 0.10563971102237701, -0.16115200519561768, -0.07254121452569962, -0.026122651994228363, -0.0020175387617200613, 0.15105783939361572, -0.09056824445724487, 0.0973556712269783, -0.002491071354597807, 0.005444205366075039, -0.06120971590280533, 0.06539466232061386, 0.15854816138744354, -0.03157510980963707, 0.0139559805393219, 0.13954629004001617, 0.046953506767749786, -0.026352548971772194, -0.14714571833610535, -0.04937903955578804, -0.26315614581108093, -0.16162315011024475, 0.012750760652124882, -0.19907471537590027, -0.1536766141653061, -0.1336885392665863, -0.13699498772621155, -0.012978685088455677, -0.11893122643232346, 0.049172576516866684, 0.016725342720746994, -0.01587044820189476, 0.07946781069040298, -0.03066345863044262, 0.0017139124684035778, 0.06958647817373276, -0.4012635052204132, 0.25700706243515015, 0.16594582796096802, 0.0001251809298992157, 0.3835168778896332, 0.0035842773504555225, -0.2143072634935379, 0.08758065104484558, -0.12325535714626312, 0.12072809040546417, 0.12319109588861465, -0.01893509551882744, -0.1137123629450798, -0.044338345527648926, 0.1067015677690506, -0.1313912719488144, -0.027749599888920784, -0.1164899617433548, 0.06116243451833725, 0.0005317162722349167, 0.11638779193162918, 0.07583308964967728, 0.00718630850315094, -0.013380125164985657, -0.0437459833920002, -0.11662207543849945, -0.12372555583715439, -0.008613789454102516, -0.2198488861322403, 0.117397740483284, -0.052110254764556885, 0.0821852758526802, 0.27570492029190063, -0.10820142179727554, 0.13793431222438812, 0.17794622480869293, 0.011467937380075455, -0.22823503613471985, -0.005125990603119135, 0.10157234221696854, 0.031155066564679146, -0.0984906479716301, 0.20131397247314453, -0.14384381473064423, 0.08026352524757385, 0.08086198568344116, 0.08362281322479248, 0.07174694538116455, 0.14470374584197998, 0.012118443846702576, -0.06564587354660034, -0.13818387687206268, 0.05638391897082329, 0.07379598170518875, 0.060915201902389526, -0.03747250884771347, 0.027399472892284393, 0.07925587147474289, 0.0965890884399414, -0.019057370722293854, 0.08555898070335388, 0.0745164006948471, 0.0823008343577385], [0.12404979020357132, 0.20105324685573578, 0.12017805874347687, -0.08805733174085617, 0.07702774554491043, 0.0881456807255745, -0.0801115483045578, 0.09991095960140228, 0.03254522755742073, -0.08929819613695145, -0.1782580316066742, -0.17297306656837463, 0.055774446576833725, -0.07745647430419922, -0.013787941075861454, -0.12071681767702103, -0.04053698480129242, 0.09076513350009918, 0.08559923619031906, -0.1510438770055771, -0.1197345033288002, -0.09598580002784729, -0.05993024259805679, -0.12508271634578705, -0.13637757301330566, -0.0842670351266861, -0.026729701086878777, 0.15178772807121277, -0.025906119495630264, 0.034318577498197556, -0.15331001579761505, 0.036724600940942764, 0.13551855087280273, -0.04733268544077873, 0.06295514851808548, 0.02762412838637829, 0.1737683117389679, -0.06836846470832825, 0.19232282042503357, -0.011575686745345592, -0.12984654307365417, -0.08262721449136734, -0.10856562852859497, 0.012722535990178585, -0.07986108958721161, -0.1258319467306137, 0.05474977567791939, 0.0014927121810615063, 0.09100385010242462, 0.03819699585437775, -0.06966572999954224, -0.13309676945209503, -0.05183427035808563, -0.12091843038797379, -0.07408171147108078, -0.12976916134357452, 0.1133483350276947, 0.13682205975055695, -0.11489555239677429, -0.06404565274715424, 0.14350450038909912, -0.0379236601293087, -0.09354650229215622, -0.00010043020301964134, -0.07376497983932495, -0.021390516310930252, -0.10005772858858109, -0.0967712327837944, -0.02593950927257538, 0.17029336094856262, 0.09141873568296432, -0.00895497016608715, 0.17871040105819702, 0.12744010984897614, 0.17291730642318726, 0.14819978177547455, 0.00923699140548706, -0.16655904054641724, 0.06679311394691467, 0.03421997278928757, -0.2477448433637619, -0.022961996495723724, 0.3361430764198303, 0.16274264454841614, -0.052411679178476334, -0.13736779987812042, -0.1101977601647377, 0.19788731634616852, 0.11766699701547623, 0.012023692019283772, 0.04588371515274048, -0.12231578677892685, -0.05584394931793213, 0.0653364434838295, -0.009962430223822594, 0.12128858268260956, 0.139309361577034, 0.03271326795220375, 0.00280909426510334, 0.15102975070476532, 0.06541809439659119, -0.01798388920724392, 0.10088521242141724, -0.06448101997375488, 0.0703098326921463, -0.133191779255867, -0.051892008632421494, -0.02242935448884964, -0.24511119723320007, -0.14512643218040466, 0.27605190873146057, -0.20158255100250244, 0.06842684000730515, 0.09221574664115906, 0.059137552976608276, -0.1773684173822403, -0.07751890271902084, -0.11641277372837067, -0.0860709547996521, -0.12095761299133301, 0.10358764976263046, -0.15745186805725098, -0.10955603420734406, 0.03678885102272034, -0.1256033033132553, -0.1356651782989502, -0.14938296377658844, -0.07535660266876221, 0.18641065061092377, -0.035208653658628464, 0.3459460735321045, 0.1302419751882553, 0.17197786271572113, 0.13697171211242676, 0.21243421733379364, -0.028383828699588776, 0.03989417105913162, -0.024327263236045837, -0.11174680292606354, 0.17276820540428162, 0.16993896663188934, 0.06821545958518982, 0.10069778561592102, -0.015284874476492405, -0.2909389138221741, 0.2255311757326126, -0.18861423432826996, 0.11020733416080475, 0.26125985383987427, -0.42674416303634644, -0.10640470683574677, 0.06068616732954979, -0.11079300940036774, -0.022203829139471054, 0.48220449686050415, -0.11068379133939743, 0.023398658260703087, -0.031339649111032486, -0.1323689967393875, -0.35234442353248596, -0.09513136744499207, -0.06148939207196236, 0.07980237156152725, 0.10992739349603653, -0.08638840913772583, -0.12146002799272537, -0.03000793606042862, -0.11324538290500641, -0.09091503918170929, 0.07799588143825531, -0.10081909596920013, 0.09501776099205017, 0.19110944867134094, -0.15687814354896545, 0.10056021809577942, -0.2598779499530792, 0.1402621865272522, -0.09642474353313446, -0.09370040893554688, -0.4435099959373474, -0.3141857981681824, -0.08483312278985977, 0.26373526453971863, -0.0033538409043103456, 0.11135367304086685, 0.03283444419503212, 0.06571715325117111, -0.40392744541168213, 0.053591251373291016, 0.058530278503894806, -0.0027350489981472492, -0.014639762230217457, -0.027246804907917976, 0.03929059952497482, 0.0016062782378867269, 0.13912802934646606, 0.007815539836883545, 0.04836626723408699, 0.13024069368839264, -0.08325228095054626, 0.008847285062074661, -0.055338338017463684, 0.05970752611756325, 0.023963721469044685, -0.14955146610736847, -0.02487846650183201, -0.09481769800186157, 0.001966038951650262], [0.064205102622509, 0.11708316206932068, -0.16381391882896423, -0.06430366635322571, -0.12898938357830048, 0.04584287479519844, -0.22414739429950714, 0.13057658076286316, 0.03588380664587021, 0.06329448521137238, 0.018297091126441956, -0.16999512910842896, 0.02389214001595974, 0.08044201135635376, 0.03158760070800781, -0.038977328687906265, -0.102643683552742, 0.04144354537129402, -0.15614567697048187, 0.04047740250825882, 0.004784651566296816, -0.04553109034895897, -0.016070542857050896, -0.004116390831768513, -0.04607904702425003, 0.12170585989952087, 0.07405100762844086, 0.04791124537587166, -0.03821100667119026, 0.018681328743696213, -0.003875914728268981, -0.07215538620948792, 0.1965756118297577, -0.0177390668541193, -0.06825806200504303, -0.23452036082744598, 0.23011058568954468, 0.01574377529323101, -0.02474331296980381, -0.20368145406246185, -0.021401144564151764, 0.0186258926987648, 0.09576279670000076, 0.12310802191495895, 0.07775156199932098, 0.11830266565084457, -0.1393122673034668, 0.09870805591344833, 0.0278639979660511, 0.03799912706017494, -0.12176578491926193, -0.11288874596357346, -0.14271020889282227, -0.1340680867433548, 0.009369767270982265, 0.07891859859228134, -0.01446163933724165, -0.044299449771642685, 0.0989941656589508, 0.044522665441036224, 0.03428557887673378, -0.11860392987728119, -0.042419109493494034, 0.1495966613292694, -0.1745811551809311, 0.09931270778179169, -0.04169664531946182, -0.08280540257692337, -0.05004733055830002, -0.06639264523983002, -0.0674474686384201, -0.11483785510063171, -0.03342806175351143, 0.04798037186264992, 0.003024140140041709, 0.10373281687498093, -0.1258118450641632, 0.17897196114063263, -0.03011011704802513, -0.07130248099565506, -0.12595321238040924, -0.00921826995909214, 0.2324337214231491, 0.3436088562011719, 0.13333620131015778, -0.14373056590557098, 0.09425490349531174, 0.021843019872903824, 0.0821809396147728, -0.056676462292671204, -0.13263238966464996, 0.0035632862709462643, 0.01052026730030775, -0.019083639606833458, 0.12200351804494858, -0.06377127766609192, -0.05502680316567421, -0.020981743931770325, -0.08856762945652008, 0.06721895188093185, -0.17415642738342285, -0.31399866938591003, -0.2128639668226242, -0.27429142594337463, 0.24373403191566467, -0.020213106647133827, 0.09012629091739655, 0.10162808746099472, -0.4196694493293762, 0.11202098429203033, -0.1149015799164772, 0.1609681397676468, -0.13668295741081238, 0.08713794499635696, 0.056706443428993225, 0.2315623015165329, 0.08938624709844589, -0.02011232078075409, 0.10771403461694717, 0.12114972621202469, 0.1213049367070198, -0.0633208379149437, 0.003911025356501341, 0.10070079565048218, -0.10067641735076904, -0.06560669094324112, 0.018839813768863678, 0.11591807752847672, 0.40275534987449646, 0.2554481625556946, 0.14418870210647583, -0.01185520924627781, 0.06801825761795044, 0.2251126617193222, 0.29274487495422363, 0.012027136981487274, 0.038061246275901794, -0.027962451800704002, 0.1179049015045166, 0.09112614393234253, 0.13129916787147522, 0.09568578749895096, -0.11337748914957047, 0.03435186669230461, -0.1648649275302887, 0.21351978182792664, -0.07551202923059464, -0.21842746436595917, -0.08158967643976212, -0.1729784905910492, -0.19832223653793335, 0.08557553589344025, -0.17371806502342224, -0.04117530211806297, -0.2626127004623413, -0.038947753608226776, 0.009456455707550049, -0.04819417744874954, -0.0853395164012909, 0.17625921964645386, 0.11628066003322601, -0.1321115791797638, 0.1294012814760208, 0.04918625205755234, 0.05061805620789528, 0.1187310740351677, -0.1465011090040207, 0.022487251088023186, -0.0026834900490939617, 0.061762820929288864, -0.07548762112855911, -0.11512576788663864, -0.08934887498617172, 0.16642020642757416, -0.009970440529286861, 0.1377284973859787, 0.08440146595239639, -0.05656789243221283, 0.06320521235466003, -0.010106757283210754, 0.020085906609892845, 0.11302211135625839, 0.25664275884628296, 0.0035698157735168934, 0.13088946044445038, 0.03496108204126358, 0.024183133617043495, -0.3930565118789673, -0.07117343693971634, -0.1362902820110321, -0.11511721462011337, 0.11798210442066193, -0.10043209791183472, -0.02881462313234806, -0.049567002803087234, -0.12332936376333237, -0.01232619397342205, -0.07561061531305313, -0.03530522435903549, -0.07085469365119934, 0.027155373245477676, -0.19239042699337006, -0.02595384791493416, 0.010589230805635452, -0.14276015758514404, 0.15072795748710632, -0.03017573244869709, -0.02678178995847702], [0.2591938376426697, -0.019579820334911346, 0.013461367227137089, 0.08863968402147293, 0.05530364066362381, 0.08148858696222305, -0.11869547516107559, 0.21743451058864594, -0.20334364473819733, -0.017338281497359276, -0.16093085706233978, -0.17398473620414734, 0.02755328267812729, 0.03232142701745033, 0.15568728744983673, 0.021467706188559532, 0.08880558609962463, 0.08714385330677032, 0.0798824355006218, -0.14535747468471527, 0.1420375555753708, 0.10868290066719055, 0.14927458763122559, 0.01524688582867384, 0.11156604439020157, 0.02970747835934162, -0.09925533086061478, -0.08474715054035187, -0.12935373187065125, -0.17161500453948975, 0.18844877183437347, 0.14706666767597198, 0.30639785528182983, 0.24331462383270264, 0.0745561495423317, 0.04015378654003143, 0.07443660497665405, 0.04888015240430832, 0.03717543184757233, -0.17006166279315948, -0.057422783225774765, -0.12592019140720367, -0.04296919330954552, -0.08628085255622864, 0.15587584674358368, 0.12240815162658691, -0.004877700004726648, 0.02687506563961506, -0.0951022207736969, 0.08116263151168823, 0.15783679485321045, 0.1550452560186386, -0.10140388458967209, -0.14501135051250458, 0.04650427773594856, -0.09214268624782562, -0.04766117036342621, 0.18561412394046783, 0.17823636531829834, 0.03394113481044769, 0.24624823033809662, 0.014303234405815601, 0.06014435365796089, -0.007812624797224998, -0.017207453027367592, 0.09783584624528885, 0.07904835045337677, -0.11477959901094437, -0.03643873706459999, -0.04990848898887634, 0.04913722723722458, -0.08884836733341217, 0.1670999974012375, -0.1796165555715561, 0.1602998673915863, 0.0748707726597786, 0.08249326795339584, -0.04061532020568848, 0.2087154984474182, 0.1241120919585228, -0.2060379981994629, -0.07723286747932434, 0.0028697322122752666, 0.00406046025454998, 0.11510297656059265, -0.062428925186395645, 0.13394415378570557, 0.09638353437185287, -0.013661769218742847, -0.03156647831201553, 0.025865349918603897, 0.10005998611450195, -0.1030469611287117, 0.10145411640405655, -0.14445404708385468, -0.14750458300113678, 0.07023530453443527, 0.10148103535175323, -0.12295236438512802, 0.05310666561126709, 0.03369859978556633, 0.07363378256559372, 0.07542888075113297, 0.12622810900211334, 0.11176202446222305, -0.24353748559951782, 0.018907099962234497, -0.06741134077310562, -0.13924099504947662, 0.0004607374721672386, 0.020818546414375305, -0.2039533406496048, 0.023262150585651398, 0.0743570327758789, 0.09971205145120621, -0.22977633774280548, -0.010864106938242912, -0.07555227726697922, 0.07028663903474808, 0.0744527280330658, -0.006681128870695829, -0.09349923580884933, 0.14824292063713074, 0.026095813140273094, -0.08764350414276123, -0.0017005002591758966, 0.08366960287094116, -0.01216061506420374, 0.001982526620849967, 0.14310789108276367, 0.07597345113754272, -0.010908600874245167, -0.08420787006616592, -0.03541219234466553, 0.018705645576119423, -0.07170181721448898, 0.09830791503190994, -0.026087988168001175, 0.09270942956209183, -0.006050190422683954, 0.13986243307590485, 0.00872401986271143, -0.11075980961322784, -0.14214827120304108, -0.034664709120988846, 0.1715066134929657, -0.03127753362059593, 0.04835452511906624, 0.07187139987945557, -0.17737838625907898, -0.05913557857275009, -0.26497772336006165, -0.19136089086532593, -0.13810256123542786, 0.36207592487335205, 0.13110101222991943, -0.06286747753620148, -0.0809316337108612, 0.13043008744716644, -0.23063671588897705, -0.1255260705947876, 0.006199835799634457, -0.062239762395620346, -0.08545879274606705, 0.1515948623418808, -0.00621660565957427, -0.15580543875694275, -0.01899842731654644, -0.13781392574310303, 0.028397683054208755, -0.015124802477657795, 0.10534337908029556, -0.028002234175801277, -0.18554414808750153, -0.009896811097860336, 0.00862297136336565, -0.10256435722112656, -0.011714874766767025, -0.12847746908664703, -0.17159073054790497, -0.1673808991909027, 0.07225780189037323, 0.23651441931724548, -0.1512162983417511, 0.047451455146074295, 0.101316437125206, -0.14084886014461517, -0.3263668119907379, 0.051310885697603226, 0.1483713537454605, 0.12366850674152374, 0.022852744907140732, 0.005024048499763012, 0.0520605705678463, 0.0076170265674591064, -0.08255790174007416, -0.12591136991977692, 0.13485729694366455, -0.1515158861875534, -0.10233663767576218, -0.010810105130076408, 0.07394899427890778, 0.06193618103861809, 0.10536865890026093, 0.017653077840805054, 0.10317143052816391, -0.025851352140307426, -0.14158757030963898], [-0.058808859437704086, 0.042610034346580505, 0.06790322810411453, 0.10570774227380753, -0.03673082962632179, -0.1842692494392395, 0.05860297381877899, 0.020696967840194702, 0.1130271703004837, -0.14425897598266602, -0.12893477082252502, 0.054425839334726334, 0.09459098428487778, 0.15784898400306702, -0.038231782615184784, -0.0196557454764843, 0.10315511375665665, 0.05922836810350418, -0.0798024833202362, 0.062382664531469345, 0.037885066121816635, 0.08439138531684875, 0.09163239598274231, -0.04488217458128929, 0.01943895034492016, -0.04081302881240845, -0.10841439664363861, -0.06743813306093216, 0.009479746222496033, 0.06200424209237099, 0.02222038246691227, -0.1300383061170578, 0.1397933065891266, 0.12514963746070862, -0.08587073534727097, -0.002349009271711111, -0.027851669117808342, -0.1313292533159256, -0.13734570145606995, -0.1688312292098999, 0.12163208425045013, 0.1481815129518509, 0.10133139044046402, -0.012939841486513615, -0.011607245542109013, -0.016834501177072525, 0.05596762150526047, 0.10474912822246552, -0.05707939714193344, 0.12512356042861938, 0.11470545828342438, -0.12249639630317688, -0.04683373123407364, -0.0010308012133464217, 0.011700710281729698, -0.03318574279546738, -0.05728006735444069, -0.02086891420185566, 0.10905042290687561, 0.0445333831012249, 0.09957066178321838, -0.07664690911769867, 0.020459167659282684, 0.08693663030862808, 0.07825327664613724, 0.10809684544801712, -0.02634618990123272, -0.04461916163563728, 0.09279216080904007, -0.1045023500919342, -0.002121272264048457, -0.07964721322059631, 0.0954282358288765, 0.12150133401155472, 0.17331485450267792, 0.15129637718200684, -0.1161000207066536, -0.02235783450305462, -0.023479994386434555, -0.07767923921346664, -0.28829264640808105, 0.1521616280078888, 0.23395824432373047, 0.11901033669710159, 0.05416321009397507, -0.0247272290289402, 0.03031570091843605, -0.06494169682264328, 0.15203428268432617, 0.004011228680610657, -0.022996066138148308, 0.01558625977486372, -0.09823671728372574, 0.142944797873497, -0.08193927258253098, -0.05977484956383705, 0.141310915350914, -0.13927073776721954, -0.15006951987743378, 0.048862285912036896, 0.08406122773885727, -0.17952263355255127, 0.016515439376235008, -0.22435231506824493, 0.10743483155965805, -0.3026828467845917, 0.1471702754497528, 0.06126496195793152, -0.4789741039276123, 0.13968154788017273, -0.024193638935685158, 0.020152892917394638, 0.007338183932006359, 0.09744686633348465, 0.09130199253559113, -0.06466688215732574, -0.043755143880844116, -0.09246237576007843, 0.10544373095035553, -0.1024758368730545, -0.1474759727716446, -0.03847023472189903, 0.07582461088895798, 0.025130577385425568, 0.09441529214382172, -0.05275942012667656, 0.13086526095867157, -0.005370538681745529, 0.26507240533828735, 0.07342802733182907, 0.28937655687332153, -0.06158708035945892, 0.10626664012670517, -0.012551630847156048, 0.33827662467956543, 0.014393550343811512, 0.07577282935380936, -0.11269497126340866, -0.02822280302643776, 0.006136848125606775, 0.39108070731163025, -0.02358376979827881, 0.03273392096161842, -0.10678459703922272, -0.17713643610477448, 0.13115684688091278, 0.041907887905836105, 0.28781700134277344, -0.07473338395357132, -0.3163992762565613, 0.015842512249946594, -0.022071706131100655, -0.37394973635673523, 0.06569679081439972, 0.270928293466568, -0.06441324949264526, -0.0726504772901535, 0.1458248645067215, 0.11282216012477875, 0.02540270797908306, 0.012111971154808998, 0.033264368772506714, 0.1212407723069191, -0.0462992899119854, 0.1273587942123413, -0.10563240200281143, 0.11084016412496567, 0.06060846149921417, 0.08072569966316223, -0.004276443272829056, 0.10258391499519348, 0.15537092089653015, -0.10607213526964188, -0.13797461986541748, -0.07647010684013367, -0.08295903354883194, -0.03900492563843727, 0.008856216445565224, 0.018550554290413857, -0.49254363775253296, -0.10708487778902054, -0.03721684589982033, 0.3154807388782501, -0.2859492599964142, 0.12590867280960083, -0.0422750748693943, -0.0998142659664154, -0.39703208208084106, -0.027877362444996834, -0.1284402459859848, 0.11867202073335648, -0.10538376867771149, -0.019730927422642708, -0.14301736652851105, 0.13749045133590698, -5.958432302577421e-05, -0.0675472691655159, -0.11745985597372055, -0.022357825189828873, 0.05926554277539253, 0.12183583527803421, -0.028448550030589104, 0.02366441674530506, -0.09358672797679901, -0.04242731258273125, 0.07585915923118591, 0.06395401060581207, 0.0974060446023941], [-0.12222178280353546, -0.07505912333726883, -0.08048506081104279, 0.005510041490197182, -0.0964345782995224, -0.08133260160684586, -0.13140271604061127, 0.2193986475467682, 0.19176805019378662, -0.00823160819709301, 0.07181429117918015, -0.1904391348361969, -0.14929139614105225, -0.032129690051078796, -0.04295264929533005, -0.22732847929000854, 0.053157731890678406, 0.015986882150173187, 0.0738985687494278, 0.0005866822320967913, -0.12120893597602844, -0.09885186702013016, -0.06191931664943695, -0.04421466961503029, 0.02990659698843956, 0.14507396519184113, -0.04922895133495331, 0.0014824155950918794, 0.18644213676452637, 0.05909176170825958, -0.18807701766490936, -0.028778735548257828, 0.16295276582241058, -0.03254065290093422, -0.1056484654545784, -0.17319829761981964, 0.01266729086637497, 0.0951806902885437, -0.061846718192100525, -0.017137296497821808, -0.01910695806145668, -0.07561969757080078, 0.05971375107765198, 0.0953136757016182, -0.12863266468048096, -0.037645138800144196, -0.0777258574962616, 0.14063088595867157, -0.059646859765052795, -0.06206801161170006, -0.13660545647144318, 0.109315425157547, -0.032768577337265015, 0.08667966723442078, 0.14179198443889618, -0.08950405567884445, -0.04168444871902466, 0.01371455006301403, -0.055893879383802414, 0.11301068961620331, -0.0215165838599205, -0.03613952547311783, 0.09983859211206436, 0.15152153372764587, 0.027982279658317566, -0.09878575801849365, 0.04726823791861534, -0.04070572182536125, 0.12550139427185059, 0.006124476902186871, -0.028311192989349365, -0.08630891144275665, -0.08559716492891312, -0.16039465367794037, -0.01376638375222683, 0.06074317917227745, -0.13636359572410583, 0.14961791038513184, 0.014315249398350716, -0.1060175895690918, 0.23485347628593445, -0.023769034072756767, 0.06389909982681274, -0.1649928241968155, -0.04226326569914818, 0.1062193512916565, -0.12502214312553406, -0.058095790445804596, 0.14690427482128143, -0.0366470068693161, -0.07000446319580078, -0.06285206973552704, 0.15113559365272522, -0.09751754254102707, -0.10279283672571182, -0.09199652820825577, 0.06107400730252266, 0.1313612163066864, 0.00987365934997797, 0.12994083762168884, -0.015613679774105549, 0.24574491381645203, 0.20120684802532196, 0.23062534630298615, -0.17212437093257904, -0.028894152492284775, -0.09488148987293243, -0.031170576810836792, 0.27990689873695374, -0.072971411049366, -0.14610549807548523, 0.23162159323692322, -0.12395091354846954, -0.08634547889232635, 0.05973691865801811, -0.1059345230460167, 0.023670723661780357, 0.027756111696362495, 0.11869625002145767, -0.10146509855985641, 0.13853086531162262, 0.1111375167965889, -0.14355437457561493, -0.08874142169952393, -0.010301236063241959, 0.020631998777389526, -0.02966633066534996, -0.0780801847577095, 0.06208924576640129, -0.10938873142004013, -0.2237316071987152, 0.08712730556726456, 0.20889079570770264, 0.08649726212024689, -0.08868715167045593, -0.15651321411132812, 0.042944446206092834, 0.2595531642436981, 0.03820834308862686, -0.08637218922376633, 0.042685411870479584, -0.0515582375228405, 0.27386316657066345, 0.07750885933637619, 0.08258534967899323, -0.033845704048871994, 0.09451805055141449, -0.06307715177536011, -0.19123145937919617, 0.038912128657102585, 0.026224521920084953, 0.22969762980937958, -0.30503854155540466, 0.07774565368890762, -0.36866459250450134, 0.11526855826377869, 0.11389202624559402, -0.0636826902627945, 0.11227518320083618, 0.44468405842781067, 0.0044815815053880215, -0.1265357881784439, 0.007182106375694275, -0.04807122424244881, -0.09093548357486725, -0.10787393152713776, -0.012525048106908798, 0.08134422451257706, 0.08006326854228973, -0.15300731360912323, -0.14909902215003967, -0.12095519155263901, -0.44920703768730164, -0.1565343290567398, -0.39623281359672546, 0.25289034843444824, -0.4902828633785248, -0.016955673694610596, 0.2446981966495514, -0.14079968631267548, 0.2521941065788269, -0.022394469007849693, 0.3029143214225769, -0.7152850031852722, 0.04429564252495766, 0.04384906589984894, -0.009093687869608402, 0.14471769332885742, 0.1030479446053505, -0.047618888318538666, 0.1324073076248169, -0.06045832484960556, 0.1280232071876526, -0.06392091512680054, -0.1325865089893341, -0.12705758213996887, 0.1421077400445938, 0.08895810693502426, 0.027206186205148697, 0.06818623095750809, 0.07630828768014908, 0.1344222128391266, -0.22708329558372498, 0.0002292990538990125, 0.20113174617290497, 0.24942319095134735, 0.18385519087314606, 0.09836316853761673], [-0.011472303420305252, -0.18284021317958832, 0.209498330950737, 0.0435665138065815, -0.07247050851583481, -0.014703050255775452, -0.019574521109461784, 0.05633572116494179, -0.02738094888627529, 0.03343736752867699, 0.11871951818466187, -0.04569356143474579, 0.03035033866763115, -0.14332425594329834, -0.0068527269177138805, 0.1814100593328476, 0.08262539654970169, 0.12195112556219101, 0.061194196343421936, 0.10998489707708359, -0.1361013799905777, 0.12860643863677979, -0.10230366885662079, 0.05325626954436302, 0.046505752950906754, 0.039334170520305634, 0.044498663395643234, -0.0025168887805193663, -0.16050341725349426, -0.02480774186551571, 0.08349042385816574, -0.08502161502838135, -0.14637449383735657, -0.01141238585114479, -0.032330818474292755, 0.11595768481492996, 0.0414300411939621, -0.1072540134191513, -0.15011346340179443, 0.1893511712551117, 0.048433613032102585, 0.04106196388602257, -0.022468475624918938, -0.22521306574344635, -0.07330537587404251, 0.10539834201335907, 0.016991108655929565, 0.011712710373103619, 0.12779948115348816, -0.08850796520709991, 0.014690034091472626, -0.019970590248703957, 0.07845260202884674, -0.1112995371222496, 0.15304739773273468, 0.0016235403018072248, 0.05779484286904335, -0.23478655517101288, -0.17353889346122742, 0.00963375810533762, 0.005848094820976257, 0.021425869315862656, -0.18992505967617035, 0.01451215147972107, -0.010434901341795921, 0.16725364327430725, 0.11320564150810242, 0.024776678532361984, -0.048528190702199936, 0.0339788980782032, -0.04987271502614021, 0.0011591364163905382, 0.07725310325622559, 0.0155156459659338, 0.05805043503642082, 0.010427404195070267, -0.13198909163475037, 0.005678407847881317, 0.07148576527833939, -0.015866050496697426, -0.0941973328590393, 0.0576326884329319, 0.022800786420702934, 0.1673140674829483, -0.11357139050960541, 0.025974903255701065, 0.06430871039628983, -0.08265670388936996, 0.007753797806799412, 0.017681855708360672, -0.1184811145067215, -0.13922534883022308, 0.042687397450208664, 0.06600269675254822, 0.12349104136228561, 0.009786062873899937, 0.017576618120074272, 0.07539445906877518, -0.08905168622732162, -0.024295829236507416, 0.17636410892009735, 0.014129001647233963, -0.023796388879418373, 0.1837783008813858, 0.012262927368283272, -0.09408517926931381, -0.15432961285114288, 0.035127341747283936, -0.357047975063324, 0.04215121269226074, -0.015459489077329636, 0.12718886137008667, -0.008136704564094543, -0.08865882456302643, 0.07869619876146317, -0.08362152427434921, -0.05287745222449303, 0.03660714626312256, -0.03989794850349426, -0.036191266030073166, -0.11284241080284119, 0.06939415633678436, 0.06084604188799858, 0.12659034132957458, -0.0870642438530922, -0.1544199287891388, -0.11246230453252792, 0.11164489388465881, 0.12040597200393677, 0.11241912841796875, 0.17977359890937805, 0.08511218428611755, 0.24472962319850922, 0.18508891761302948, 0.1412661373615265, -0.013680052943527699, -0.06759460270404816, -0.08805578202009201, -0.2533610761165619, 0.17838388681411743, 0.12164448946714401, -0.11788822710514069, 0.06596545875072479, 0.10845641046762466, 0.023939721286296844, 0.2592198848724365, -0.009113202802836895, 0.05961312726140022, 0.25794467329978943, -0.14161023497581482, -0.04459087923169136, -0.019960975274443626, -0.016562702134251595, 0.000824148824904114, 0.40258321166038513, -0.1280038058757782, -0.11239144206047058, 0.12875626981258392, 0.07151541858911514, -0.07000990957021713, 0.13139399886131287, 0.02738838456571102, -0.03128502517938614, 0.15112866461277008, 0.09424029290676117, 0.06694817543029785, -0.04802394285798073, -0.010808913968503475, -0.11748692393302917, -0.08785136789083481, -0.024836137890815735, -0.011159568093717098, 0.03309987112879753, -0.01938830502331257, 0.1557321399450302, -0.304095983505249, -0.03892749920487404, 0.06569359451532364, -0.11536672711372375, -0.3614243268966675, -0.1610976755619049, -0.10667164623737335, 0.23091071844100952, -0.037068359553813934, 0.043769266456365585, 0.1497451663017273, 0.15052759647369385, -0.31490784883499146, 0.11927736550569534, 0.1185968741774559, 0.15438346564769745, -0.0749451145529747, -0.006537391804158688, 0.07258222252130508, -0.054748643189668655, -0.031050169840455055, -0.03718137368559837, 0.06894193589687347, 0.027040986344218254, 0.05480713024735451, -0.07695760577917099, -0.033601146191358566, -0.05880079045891762, -0.07213640213012695, 0.10155623406171799, 0.12764683365821838, -0.06625532358884811, -0.11613190174102783], [0.1334022879600525, -0.07497365027666092, -0.0463310070335865, 0.1601383090019226, -0.0373179130256176, 0.09864562004804611, 0.02280079759657383, -0.14682166278362274, -0.018891528248786926, -0.030878761783242226, 0.03290274739265442, 0.10982432961463928, -0.09662090241909027, -0.021881641820073128, -0.11764761805534363, 0.19889190793037415, -0.10416717827320099, 0.04707346856594086, -0.0010022582719102502, 0.13576136529445648, 0.06986924260854721, 0.05123399943113327, -0.08013924956321716, -0.07790301740169525, -0.12348116189241409, -0.14371560513973236, -0.11449608206748962, 0.1128663718700409, -0.15107716619968414, 0.22713753581047058, -0.0018868717597797513, -0.06164846196770668, -0.09345880895853043, -0.015280463732779026, -0.03680074214935303, -0.036116115748882294, -0.023702340200543404, 0.010340492241084576, 0.07571101188659668, 0.056758370250463486, -0.09751265496015549, 0.025989970192313194, -0.14658232033252716, -0.028555259108543396, -0.017810791730880737, -0.04769308492541313, -0.1425517499446869, 0.09647046029567719, 0.12529894709587097, 0.02178976684808731, 0.14420640468597412, 0.13688461482524872, -0.13325682282447815, -0.009444114752113819, -0.10249022394418716, -0.13332033157348633, -0.1271921694278717, -0.22622284293174744, -0.07211925089359283, -0.10897977650165558, 0.013715074397623539, -0.0969240814447403, -0.18405091762542725, 0.030224772170186043, -0.033438678830862045, 0.07184228301048279, 0.1348140388727188, -0.009232813492417336, -0.13361257314682007, -0.1308637261390686, -0.06781395524740219, 0.12505613267421722, -0.22549767792224884, -0.13272368907928467, -0.05118563771247864, 0.10276814550161362, 0.12015513330698013, -0.03776457533240318, -0.04703923687338829, -0.052446573972702026, 0.03898971900343895, -0.15401577949523926, -0.0017964892322197556, -0.030140407383441925, -0.05149255320429802, -0.06870099157094955, -0.0004897346952930093, -0.21235375106334686, -0.014772255904972553, -0.07416900247335434, -0.12581703066825867, 0.061392899602651596, 0.0795525312423706, -0.12791962921619415, 0.08421044051647186, 0.038108035922050476, -0.007646212819963694, 0.03875524923205376, -0.07785967737436295, -0.11195474117994308, 0.10441908985376358, -0.008909573778510094, 0.05732526257634163, 0.214080348610878, -0.08691845834255219, 0.10159970819950104, 0.010701954364776611, 0.02319742925465107, 0.16119670867919922, -0.106184221804142, 0.04357348009943962, 0.025426525622606277, -0.07107292860746384, -0.02226053550839424, -0.0755692720413208, -0.11006808280944824, -0.04728648066520691, 0.10536226630210876, -0.09558162093162537, -0.08725783228874207, 0.13473521173000336, -0.12209433317184448, 0.04121826961636543, 0.040104225277900696, -0.13089631497859955, -0.1042972058057785, 0.06777311861515045, -0.10501857846975327, -0.1649826318025589, -0.3312388062477112, -0.23510795831680298, -0.07927364856004715, -0.14190448820590973, -0.2098281979560852, -0.23787161707878113, -0.09594389796257019, 0.0940733253955841, -0.042461272329092026, 0.05475885421037674, -0.0906064510345459, 0.08292379230260849, 0.07983945310115814, -0.057187650352716446, -0.06715404242277145, 0.0070954286493361, -0.08515720069408417, 0.028114719316363335, 0.17183732986450195, 0.025348618626594543, 0.13978038728237152, 0.07020413875579834, -0.12728826701641083, -0.03153626620769501, -0.09812288731336594, -0.07263761758804321, 0.29331955313682556, 0.023427465930581093, -0.11254963278770447, 0.13393132388591766, 0.09046896547079086, -0.05294157937169075, -0.08140868693590164, -0.00506701460108161, 0.13626937568187714, -0.050509560853242874, 0.12980373203754425, -0.025722559541463852, 0.13136298954486847, -0.03292298689484596, -0.05159411579370499, 0.13313624262809753, 0.06878188252449036, -0.1232462003827095, -0.26491814851760864, 0.040683768689632416, -0.07642411440610886, -0.10878469794988632, 0.10977482050657272, 0.18972499668598175, 0.119720458984375, 0.27699005603790283, 0.09556227177381516, -0.16246289014816284, -0.1167214959859848, -0.03487526252865791, 0.08461382240056992, -0.1558832973241806, 0.40278664231300354, 0.012043111957609653, 0.05954392999410629, -0.030649244785308838, -0.029800867661833763, 0.14210005104541779, -0.1330142319202423, 0.10785337537527084, -0.12242348492145538, -0.048488352447748184, -0.15460124611854553, -0.15869155526161194, 0.04484621062874794, 0.0021804485004395247, 0.19766564667224884, -0.011461351066827774, 0.0885799452662468, -0.013996337540447712, -0.04142014682292938, -0.14160150289535522, 0.13310979306697845], [-0.06263096630573273, 0.21030908823013306, -0.13505573570728302, 0.017230641096830368, 0.026467513293027878, 0.02121538668870926, 0.26184797286987305, -0.03284984454512596, -0.005570502951741219, -0.1192181184887886, 0.041027218103408813, 0.19404438138008118, -0.01885688677430153, -0.14812950789928436, -0.13269446790218353, 0.13171155750751495, -0.13372504711151123, 0.09950891882181168, 0.06570140272378922, 0.13601559400558472, 0.08979126811027527, 0.13035865128040314, 0.04654020071029663, 0.05015190318226814, -0.027051130309700966, -0.0502246618270874, -0.12209777534008026, -0.052472587674856186, 0.020092004910111427, 0.1821986883878708, -0.056460630148649216, -0.18537846207618713, 0.08273531496524811, -0.03640775755047798, 0.007393701002001762, -0.013637378811836243, -0.2783885598182678, 0.04061564803123474, -0.009597091004252434, 0.0023639227729290724, -0.11349662393331528, 0.10321447253227234, 0.13330167531967163, 0.11221978068351746, 0.07907740771770477, -0.03653839975595474, 0.15691395103931427, 0.09988940507173538, 0.1343044638633728, -0.14620129764080048, -0.15315237641334534, 0.1561436653137207, 0.02008260414004326, 0.04481528326869011, 0.04892868548631668, -0.10816678404808044, -0.15843050181865692, 0.003194608027115464, 0.06695780903100967, -0.011570977047085762, -0.017022721469402313, -0.11448653042316437, 0.12274464964866638, 0.01923680305480957, 0.1684449315071106, 0.15268993377685547, 0.007671650964766741, 0.002440039999783039, 0.1504487842321396, -0.003400910645723343, -0.04852185398340225, 0.043577808886766434, 0.16460946202278137, 0.029096486046910286, -0.12970377504825592, -0.08163174241781235, 0.12460140883922577, 0.1144450232386589, -0.08919917047023773, 0.08786812424659729, -0.12274681031703949, 0.10394920408725739, -0.13643699884414673, -0.062498439103364944, -0.03418958932161331, -0.10121861845254898, 0.049856558442115784, -0.10107504576444626, -0.15206782519817352, -0.06826209276914597, -0.024647125974297523, 0.08399523049592972, -0.054706964641809464, -0.0561353974044323, 0.1406935304403305, -0.062170106917619705, 0.02786494605243206, -0.0220619086176157, -0.07648484408855438, -0.07486993074417114, -0.13855712115764618, -0.02105998992919922, -0.015772545710206032, 0.0885053500533104, 0.10377632081508636, 0.08325923979282379, 0.08647652715444565, -0.002272452227771282, 0.25242558121681213, 0.09662862122058868, -0.04907629266381264, -0.1686428338289261, -0.07240290194749832, 0.14855487644672394, 0.02568667195737362, 0.23576389253139496, -0.011033737100660801, 0.04867168515920639, -0.047510698437690735, 0.005518477410078049, -0.15043000876903534, 0.0699770525097847, -0.11247649788856506, 0.02097080461680889, 0.025856075808405876, -0.02896237187087536, 0.1332094520330429, 0.11154556274414062, -0.04512834548950195, -0.2676282525062561, -0.09894376248121262, -0.11753097921609879, -0.12778429687023163, -0.12367694824934006, -0.2319961041212082, -0.1242896020412445, -0.09705233573913574, 0.055538762360811234, -0.04939005896449089, -0.071070097386837, 0.03491222858428955, -0.15910199284553528, 0.09818433970212936, 0.0721767321228981, 0.05536174401640892, -0.2417185753583908, 0.08257700502872467, 0.14258325099945068, -0.2735818922519684, 0.12037193775177002, 0.07522193342447281, -0.24791845679283142, -0.16461828351020813, -0.144972026348114, -0.0021827323362231255, 0.009170283563435078, 0.03882516548037529, 0.06821276992559433, -0.10076022893190384, 0.030559275299310684, -0.14952030777931213, -0.15419460833072662, -0.06135481595993042, 0.055143699049949646, -0.06012478470802307, 0.014405588619410992, 0.034277793020009995, 0.09664739668369293, 0.13044488430023193, -0.13792085647583008, -0.012914050370454788, -0.07893052697181702, -0.10708530992269516, 0.02125556394457817, 0.1400127410888672, 0.022509697824716568, -0.29594436287879944, 0.05516526848077774, 0.02626323699951172, -0.08352681994438171, 0.2935493588447571, -0.06878684461116791, -0.0803336426615715, -0.21524539589881897, 0.14578519761562347, 0.05423407256603241, 0.0075797392055392265, 0.03254448622465134, 0.14756648242473602, 0.015333498828113079, -0.08473841100931168, -0.0038440595380961895, -0.0801362544298172, 0.01353540737181902, -0.023021768778562546, -0.14757663011550903, -0.08553329110145569, -0.07521513849496841, 0.09064941108226776, -0.1455659717321396, 0.036226388067007065, 0.19894231855869293, -0.08993547409772873, -0.0979459136724472, 0.1693848818540573, 0.07935644686222076, -0.03820458799600601, -0.11205456405878067], [-0.05991068482398987, -0.20392008125782013, 0.18390001356601715, 0.13151510059833527, -0.08052034676074982, 0.1733512431383133, 0.0680302157998085, -0.02667047455906868, -0.23468010127544403, -0.046636734157800674, 0.140530526638031, 0.11805540323257446, -0.04506425932049751, -0.1311476230621338, 0.014392528682947159, 0.0574474036693573, 0.15404728055000305, 0.10689620673656464, 0.058053188025951385, -0.13120050728321075, -0.02564847655594349, 0.1374482810497284, -0.02315676212310791, 0.032893650233745575, -0.10545232892036438, -0.028524573892354965, 0.027045035734772682, -0.1472296416759491, -0.02333812229335308, 0.17860102653503418, 0.03623567521572113, 0.16499322652816772, -0.20869305729866028, 0.09680922329425812, -0.06680838018655777, 0.21517962217330933, -0.11026538163423538, 0.07782901078462601, 0.003684390801936388, 0.001115870662033558, 0.09233707189559937, -0.09819860011339188, 0.15064381062984467, -0.0879206582903862, 0.07007256150245667, 0.09548391401767731, 0.14980146288871765, 0.0026280698366463184, 0.01731094904243946, 0.08294845372438431, -0.07822921872138977, -0.09378889948129654, 0.015271037817001343, -0.11928584426641464, 0.02012602426111698, -0.15252196788787842, -0.1703471541404724, -0.13139325380325317, 0.1464143693447113, -0.11236347258090973, 0.008454296737909317, 0.006899960804730654, 0.05281893163919449, -0.07810626178979874, -0.0022822250612080097, -0.0561121329665184, -0.05046362429857254, -0.05778922513127327, 0.09374456852674484, 0.03858125954866409, -0.012455618940293789, -0.011920194141566753, 0.06632614880800247, -0.15181222558021545, -0.02941109985113144, -0.17218910157680511, 0.15387313067913055, -0.005474445875734091, 0.06661028414964676, 0.1306164711713791, 0.005611157976090908, -0.012765505351126194, -0.07455448806285858, -0.10619782656431198, 0.050005897879600525, 0.11172348260879517, 0.07502661645412445, 0.0024781450629234314, -0.1538759022951126, -0.15738597512245178, 0.052928708493709564, 0.06660811603069305, 0.07978450506925583, 0.02966424822807312, 0.06650662422180176, 0.09812311083078384, 0.11536327004432678, -0.04016021266579628, 0.06278900802135468, 0.11772139370441437, -0.019301485270261765, -0.08376418799161911, -0.014401559717953205, -0.08057320863008499, 0.01219708751887083, 0.15895859897136688, -0.052695292979478836, -0.05128508061170578, 0.563037633895874, -0.012283910065889359, -0.27550604939460754, -0.09688049554824829, -0.09683943539857864, 0.02206781506538391, -0.059459589421749115, 0.0645124539732933, -0.08380834013223648, 0.0757535919547081, -0.019503379240632057, 0.06138256564736366, 0.09815177321434021, 0.0021188019309192896, -0.11168668419122696, -0.12655766308307648, 0.013078417629003525, 0.12624725699424744, 0.11169588565826416, -0.011881583370268345, -0.008262081071734428, -0.024564579129219055, -0.34716251492500305, -0.22327031195163727, -0.1468672901391983, -0.18367841839790344, -0.18182510137557983, -0.10328715294599533, 0.054363884031772614, 0.05626911669969559, -0.10073919594287872, 0.09421342611312866, -0.14743369817733765, -0.03660532459616661, 0.11195670813322067, 0.09696488082408905, 0.32064124941825867, -0.2728220820426941, 0.18439127504825592, 0.15780028700828552, -0.14812715351581573, 0.31215739250183105, 0.05634412169456482, -0.3936865031719208, 0.21395239233970642, 0.020481863990426064, -0.09589547663927078, 0.08478736132383347, -0.09722548723220825, 0.10547942668199539, -0.15242233872413635, 0.21792863309383392, -0.010000058449804783, -0.05901751294732094, -0.09869283437728882, 0.13513562083244324, 0.1532091647386551, 0.01998872309923172, -0.1197674423456192, -0.09185540676116943, -0.15689554810523987, 0.12151060253381729, -0.005282184109091759, -0.011537175625562668, 0.010263769887387753, -0.049697961658239365, 0.07323817163705826, 0.04230345040559769, -0.2361171543598175, 0.21097531914710999, -0.04827607050538063, 0.14114998281002045, 0.3260590732097626, -0.026356862857937813, -0.29591161012649536, 0.1203240230679512, -0.0718897357583046, -0.10269956290721893, -0.06742177903652191, 0.11555098742246628, 0.10206067562103271, 0.025678003206849098, -0.07889463752508163, 0.012511155568063259, 0.08715800940990448, -0.03735039755702019, -0.08870212733745575, -0.09665943682193756, 0.11123162508010864, 0.13317376375198364, -0.03503758832812309, -0.01057776901870966, 0.07477438449859619, 0.13471834361553192, 0.20329943299293518, 0.047890257090330124, 0.18475140631198883, -0.044455043971538544, 0.000872282893396914, 0.031036704778671265], [0.01412810105830431, -0.10815320163965225, -0.07850924879312515, 0.1564713567495346, -0.0038200574927031994, 0.046423621475696564, 0.06916260719299316, -0.18474465608596802, 0.02356846071779728, 0.11313048750162125, 0.18656934797763824, 0.12703770399093628, -0.116797536611557, 0.14123544096946716, 0.08073558658361435, 0.04368852451443672, -0.12501494586467743, 0.0940345823764801, 0.009360075928270817, -0.05087282136082649, -0.032378967851400375, -0.052105505019426346, 0.039686642587184906, -0.03169787675142288, 0.0150863416492939, -0.0827128067612648, -0.12859614193439484, 0.12022999674081802, -0.04269647225737572, -0.0034259860403835773, -0.05751436948776245, 0.08860988169908524, -0.14170405268669128, 0.1678156703710556, 0.10928250849246979, 0.061094336211681366, -0.2144090086221695, 0.018344702199101448, -0.20506638288497925, 0.03127637878060341, -0.013452580198645592, -0.12011385709047318, -0.03291197121143341, 0.10349930077791214, -0.11282052844762802, 0.010016790591180325, -0.027549609541893005, 0.1362643539905548, 0.03898945823311806, -0.10235682129859924, 0.06762389093637466, 0.15634573996067047, -0.13700127601623535, -0.09500731527805328, -0.0706024244427681, 0.011360428296029568, 0.04911180958151817, -0.05985287204384804, 0.05854729190468788, -0.001525909872725606, -0.09264538437128067, 0.017623867839574814, -0.08166531473398209, 0.0986340120434761, -0.012120263651013374, 0.16629667580127716, 0.16090579330921173, -0.008045477792620659, 0.10977780073881149, -0.1217605248093605, 0.0018082259921357036, -0.09427893906831741, -0.1625870168209076, -0.05095263943076134, 0.01330343447625637, -0.17935314774513245, 0.19160065054893494, 0.03397288918495178, 0.08948200941085815, 0.10130682587623596, 0.18331336975097656, 0.15646059811115265, -0.1514982283115387, -0.1369636058807373, 0.15725979208946228, 0.056468524038791656, -0.13117162883281708, -0.018402572721242905, -0.14344248175621033, -0.05867253988981247, 0.05828732252120972, -0.02205490507185459, 0.14063039422035217, 0.07970251142978668, 0.008920840919017792, 0.10714805871248245, -0.007676421664655209, 0.08915847539901733, -0.056482113897800446, 0.03830038011074066, 0.14224372804164886, -0.04751506447792053, 0.02540145069360733, 0.0662451907992363, -0.18493054807186127, 0.054701026529073715, 0.10437051951885223, -0.009285017848014832, 0.26478731632232666, 0.060886092483997345, 0.0028569339774549007, 0.02122228965163231, -0.14741790294647217, -0.01333659142255783, 0.06865071505308151, -0.02097158692777157, 0.0376385897397995, 0.07268893718719482, -0.1240915060043335, 0.15335489809513092, -0.05009739100933075, -0.0020120118279010057, 0.013482674956321716, -0.02156221866607666, -0.012328692711889744, 0.14742891490459442, 0.033414576202631, -0.016441525891423225, -0.1606297641992569, -0.3289589583873749, -0.23854254186153412, -0.11920721083879471, -0.0839214101433754, -0.01768786832690239, -0.18086500465869904, -0.11419456452131271, 0.11931663751602173, 0.0622829794883728, -0.03767634183168411, -0.021156640723347664, -0.08149861544370651, -0.05102081596851349, 0.1049087718129158, -0.016340743750333786, 0.01996835134923458, -0.030398480594158173, -0.11337172240018845, -0.09079166501760483, 0.16312731802463531, 0.3338029384613037, 0.11490629613399506, -0.005440308712422848, 0.2844092845916748, 0.05129676312208176, -0.014818217605352402, 0.055708158761262894, -0.14144879579544067, -0.08139891922473907, 0.02113710343837738, 0.019605468958616257, 0.04680083692073822, -0.01203069556504488, -0.14987073838710785, 0.11245102435350418, 0.027816982939839363, -0.11455661058425903, 0.019580112770199776, -0.12382379174232483, -0.005506401415914297, -0.02930140495300293, 0.08347479999065399, -0.12440101057291031, 0.06544795632362366, -0.05486142262816429, -0.1618567258119583, 0.02354789339005947, 0.014600618742406368, 0.15557345747947693, 0.09512093663215637, 0.3585531711578369, 0.03531113266944885, -0.140265092253685, -0.15418735146522522, 0.1221121996641159, -0.13848872482776642, -0.057226501405239105, -0.06835650652647018, 0.3027478754520416, -0.06872033327817917, 0.0954432561993599, -0.08714691549539566, -0.07120553404092789, -0.07570865750312805, -0.11258786916732788, -0.07564347237348557, 0.14699259400367737, -0.15200218558311462, -0.09872467070817947, -0.01850982755422592, 0.04139088839292526, -0.13663697242736816, 0.1467592567205429, 0.025671986863017082, 0.017873676493763924, -0.03777259215712547, -0.07391834259033203, -0.059997718781232834, -0.043239012360572815], [-0.05013353005051613, -0.03316552937030792, -0.0705517828464508, 0.008007030002772808, -0.14358313381671906, 0.07793585956096649, -0.23516084253787994, 0.07547858357429504, 0.05873250216245651, -0.13069605827331543, -0.07741817831993103, -0.1286356896162033, 0.09427326172590256, 0.1586698293685913, -0.0031368837226182222, -0.0578823946416378, -0.07303357124328613, -0.07671546190977097, 0.14323408901691437, 0.02699131891131401, -0.015191012062132359, -0.02151690609753132, 0.12930899858474731, -0.048170629888772964, -0.03844517469406128, -0.13573668897151947, -0.023701122030615807, 0.13746602833271027, 0.01026349887251854, -0.06740417331457138, -0.17098160088062286, -0.2133660465478897, -0.049603596329689026, -0.12651801109313965, -0.1383073627948761, -0.11890958994626999, -0.04587361216545105, 0.13491256535053253, 0.020732322707772255, -0.02909669280052185, 0.011285285465419292, -0.022613953799009323, 0.022262316197156906, 0.1535751074552536, -0.15068821609020233, 0.05065973475575447, -0.1507359892129898, -0.0413680262863636, 0.09988902509212494, 0.0362577810883522, -0.09600287675857544, -0.05278099700808525, -0.07086067646741867, 0.04554259777069092, 0.11516165733337402, -0.04236876964569092, -0.056579168885946274, 0.14342476427555084, -0.1605437695980072, -0.11631064116954803, 0.06954744458198547, 0.18675225973129272, 0.16017787158489227, 0.05725311487913132, -0.0007608031737618148, 0.02993880771100521, -0.012080306187272072, -0.11046312004327774, -0.09341632574796677, -0.099115751683712, -0.13342082500457764, 0.04738824442028999, 0.01907040737569332, 0.04035959392786026, 0.12983888387680054, 0.08177472651004791, -0.1416342705488205, -0.116732656955719, 0.09348691999912262, 0.08594370633363724, -0.27589547634124756, -0.14286984503269196, 0.3291623294353485, 0.3420727849006653, -0.09336503595113754, -0.033302564173936844, 0.0034815187100321054, 0.22660164535045624, -0.12940245866775513, -0.08650742471218109, 0.0897807776927948, -0.03438340872526169, 0.0756848081946373, -0.06838898360729218, -0.011239594779908657, -0.10014542192220688, 0.12697377800941467, -0.08343001455068588, 0.031447384506464005, -0.012096185237169266, -0.09341270476579666, -0.13176211714744568, -0.06001605838537216, -0.1377970576286316, 0.18197868764400482, -0.3216613531112671, 0.08410627394914627, 0.24833235144615173, -0.37680482864379883, -0.025567011907696724, 0.16384470462799072, -0.06517865508794785, 0.07671625167131424, -0.11171946674585342, -0.1573057919740677, 0.030494743958115578, 0.1395452320575714, -0.12252160906791687, -0.004626718815416098, -0.022244220599532127, 0.07076573371887207, 0.1276044398546219, 0.10814031958580017, 0.08574910461902618, -0.05956770479679108, 0.09970153123140335, -0.10835988074541092, 0.12479723989963531, 0.25095948576927185, 0.21842873096466064, 0.21632614731788635, -0.030595814809203148, 0.015866776928305626, 0.17263935506343842, 0.13139910995960236, -0.10704781860113144, -0.024836089462041855, -0.03429330512881279, -0.045560676604509354, -0.042768239974975586, 0.0870744064450264, 0.02522665448486805, 0.05371183156967163, 0.11024986952543259, -0.23737698793411255, 0.2432532012462616, -0.18781059980392456, 0.19213996827602386, -0.14160870015621185, -0.2814891040325165, -0.1630157232284546, 0.1142137423157692, -0.11340800672769547, 0.1100844219326973, 0.39416491985321045, 0.05069160461425781, 0.0621248334646225, 0.13385780155658722, -0.13352392613887787, -0.07260983437299728, -0.07933266460895538, 0.002176834037527442, -0.07273640483617783, 0.03638603165745735, -0.12025755643844604, -0.12782661616802216, 0.09628194570541382, 0.13290885090827942, 0.12409510463476181, -0.020177394151687622, 0.06306436657905579, 0.13610884547233582, 0.11450482159852982, 0.020030999556183815, 0.15264897048473358, -0.21977268159389496, 0.19868727028369904, -0.12990891933441162, -0.05540236830711365, -0.3515143096446991, -0.2579962909221649, 0.13465934991836548, 0.418331116437912, 0.035549864172935486, 0.005134131759405136, 0.08992871642112732, -0.09749119728803635, -0.2324206382036209, 0.14595186710357666, 0.06424647569656372, -0.0347214974462986, 0.07507866621017456, -0.09362824261188507, 0.08131109923124313, -0.11906306445598602, 0.080739825963974, 0.04847347363829613, 0.024078350514173508, 0.04805195331573486, 0.007997775450348854, -0.046852968633174896, -0.22299975156784058, -0.1813800036907196, 0.12031964212656021, -0.12756986916065216, 0.04004531353712082, -0.14129036664962769, 0.034466344863176346], [0.19100618362426758, 0.06090501695871353, 0.019937366247177124, 0.06878550350666046, 0.02103118970990181, 0.06605376303195953, 0.1377209573984146, 0.0649719312787056, 0.014642284251749516, 0.0068305060267448425, 0.18334950506687164, -0.04657072201371193, 0.003671439131721854, 0.03769124671816826, 0.018029330298304558, 0.06033425033092499, -0.15522654354572296, -0.035838719457387924, 0.02129431627690792, 0.12726734578609467, -0.0065391333773732185, -0.02148079127073288, -0.05588259920477867, 0.026833614334464073, 0.1387808918952942, 0.04256599396467209, 0.006033764220774174, 0.03052591159939766, -0.05442294105887413, 0.060850463807582855, 0.052831392735242844, 0.047878801822662354, 0.005707915872335434, 0.06040352210402489, -0.09383192658424377, 0.09540331363677979, -0.10709111392498016, 0.014126178808510303, 0.0688830018043518, 0.22816264629364014, 0.1073237806558609, 0.11332006752490997, 0.05657550320029259, 0.05560103803873062, 0.10717376321554184, 0.09366674721240997, 0.10636630654335022, -0.1268891990184784, -0.023972582072019577, 0.14042434096336365, -0.08563728630542755, -0.009042545221745968, -0.011075718328356743, -0.062360405921936035, 0.020207906141877174, -0.025554632768034935, 0.011976795271039009, -0.0502711646258831, 0.0004951656446792185, -0.11011824011802673, -0.10842176526784897, -0.06265076249837875, -0.12313946336507797, 0.06021131947636604, 0.16937100887298584, 0.0687159076333046, 0.019927620887756348, -0.06467732787132263, -0.03440888226032257, -0.16274183988571167, 0.08889667689800262, -0.06012373045086861, -0.0015563338529318571, 0.04395446181297302, 0.14894087612628937, -0.14465855062007904, 0.04076474532485008, -0.09969458729028702, -0.13488420844078064, 0.2933468818664551, 0.5360843539237976, -0.00416526198387146, -0.08655877411365509, -0.13929347693920135, 0.09361541271209717, -0.018550295382738113, -0.14693592488765717, 