{"iterations": 0, "final_fidelity": 0.8117520210593487, "final_purity": -1, "optimized_trainable_parameters": {"initial_params": [[], [6.081818356925523, 1.9098623849180514, 4.112870670098074, 6.208847098585861, 1.8665415709423838, 2.1409663018244003, 3.484752069914651, 2.2005755998136776, 1.0196610012297953, 3.864856988789411, 6.202810411969698, 5.026453401715452, 4.981546340195808, 1.1192127716910714, 2.344204195149228, 4.9888866004014485, 5.218484959495083, 2.2090679368862562, 4.797623141852699, 5.823692301996493, 0.31556435942240246, 3.030490137966179, 1.7194749653008563, 4.973147098793945, 2.1101587208352393, 5.761418510212814, 1.7378942656024712, 0.7489007037358073, 4.6781768892406115, 4.637498310611812, 2.21427085913183, 2.319366731039796, 2.0292355087754457, 4.899956244024256, 5.536009330129965, 2.3214158927180395, 2.296462335298388, 0.6522975772936652, 3.735988458504629, 4.273096532958062, 3.7692283670685587, 3.6303310113268448, 0.6207926218368923, 3.8387797811611177, 5.723220750518726, 3.722899579187097, 5.434779557779153, 4.0106792444627954, 2.5607915416242704, 3.6208438586059253, 1.4732495566829824, 6.027600351085779, 1.4745133273364592, 0.5026579935413034, 3.084843341081983, 2.5505854402911914, 2.4907021605588406, 0.28404692181491864, 5.26380602338987, 3.7449026386493216, 1.7568897479797516, 3.851650786328229, 5.559876999785181, 3.4221099750095134, 1.97155474317766, 5.956578716424884, 0.49075443028711696, 6.28318530677286, 5.333108284659329, 1.042693225346008, 5.0480190392589845, 5.5302310083631605], [6.094363009698324, 1.980346031110394, 4.153791127233861, 6.229067048932181, 1.7751352004394012, 2.233601835029501, 3.3002877923679588, 2.0270080429275144, 0.3686831206784092, 3.864856988789411, 5.998718376191112, 5.270125085447247, 4.981546340195808, 1.1192127716910714, 2.344204195149228, 4.8330570839390745, 5.218484959495083, 2.2090679368862562, 4.797623141852699, 5.823692301996493, 0.31556435942240246, 3.030490137966179, 1.7194749653008563, 4.973147098793945, 2.1101587208352393, 5.761418510212814, 1.7378942656024712, 0.7489007037358073, 4.456599926224252, 4.691879038729621, 2.3886105832554008, 2.29713601226842, 2.258161719529259, 4.80035533176193, 5.280894609627821, 2.701561590392014, 1.9916554950935172, 0.6522975772936652, 3.7174330446199817, 4.025395429880456, 3.7692283670685587, 3.6303310113268448, 0.6207926218368923, 3.844441479341378, 5.723220750518726, 3.722899579187097, 5.434779557779153, 4.0106792444627954, 2.5607915416242704, 3.6208438586059253, 1.4732495566829824, 6.027600351085779, 1.4745133273364592, 0.5026579935413034, 3.084843341081983, 2.5505854402911914, 2.8747856376057754, 0.05932658899645032, 4.925228858701095, 3.671936945383406, 1.7285193729825767, 3.917877352620044, 5.354829688403799, 3.4221099749950374, 1.761416159209946, 5.784620527289228, 0.0007077399087626888, 6.180694055093325, 5.245667767192338, 1.3114847229744826, 4.644379254015441, 5.143584142402586], [0.08062436666431605, 0.923948835561414, 0.7339523451366718, 0.5794502442667795, 0.5976030059699919, 0.7000266287193331, 0.8056200973061387, 0.8894700350923472, 0.07627888141344874, 0.8728580575304441, 0.22663938029178654, 0.6564232100473297, 0.29224536994517436, 0.6596231091705356, 0.629365131022366, 0.4619819572813424, 0.8193514805281565, 0.6512831230341642, 0.9733046870263129, 0.9444505395292015, 0.9182082032288363, 0.5543627964382509, 0.7830599900634658, 0.6542280042611439, 0.7626502422760495, 0.9888408853930919, 0.6299959315030015, 0.9162851472155082, 0.706661011532282, 0.827052482249405, 0.4143085575562553, 0.301302335753453, 0.05760853211194594, 0.7207888384390386, 0.1923819370949056, 0.15724463390189425, 0.9167070879854895, 0.5428114841934542, 0.30390380628201474, 0.2765018768384566, 0.5833472829696598, 0.7757670168741624, 0.8151969697108865, 0.6730294070586214, 0.3425704284896489, 0.2816810660044804, 0.32252491583720855, 0.2149071806352678, 0.7559688675013756, 0.3074243349346728, 0.950506417112257, 0.8364326348445001, 0.9862761290834987, 0.1625085191882869, 0.5606424964766055, 0.1594550505153438, 0.4145701339543364, 0.06871425770856554, 0.5767713099864875, 0.185962538695982, 0.8177615934270606, 0.5290150682036481, 0.4916001550510516, 0.6132162644788453]], "rnn_params": {"params": {"Dense_0": {"bias": [3.046407699584961, 3.165266990661621, 3.1733624935150146, 3.1776211261749268, 3.04219913482666, 3.188814878463745, 3.040038824081421, 3.218937873840332, 3.1694347858428955, 3.1415927410125732, 3.0234620571136475, 3.085738182067871, 3.1415927410125732, 3.1415927410125732, 3.1415927410125732, 3.1205108165740967, 3.1415927410125732, 3.1415927410125732, 3.1415927410125732, 3.1415927410125732, 3.1415927410125732, 3.1415927410125732, 3.1415927410125732, 3.1415927410125732, 3.1415927410125732, 3.1415927410125732, 3.1415927410125732, 3.1415927410125732, 3.0624454021453857, 3.181680679321289, 3.003026008605957, 3.195056200027466, 3.2100398540496826, 3.1329565048217773, 3.199843645095825, 3.036702871322632, 3.141510248184204, 3.1415927410125732, 3.1213724613189697, 2.9772653579711914, 3.1415927410125732, 3.1415927410125732, 3.1415927410125732, 3.1288421154022217, 3.1415927410125732, 3.1415927410125732, 3.1415927410125732, 3.1415927410125732, 3.1415927410125732, 3.1415927410125732, 3.1415927410125732, 3.1415927410125732, 3.1415927410125732, 3.1415927410125732, 3.1415927410125732, 3.1415927410125732, 3.0381100177764893, 3.1654911041259766, 3.1838436126708984, 3.214540481567383, 3.135143518447876, 2.981771945953369, 3.0748324394226074, 3.1415927410125732, 3.1023237705230713, 3.114928960800171, 3.1345860958099365, 3.171571969985962, 3.160902500152588, 3.181579351425171, 3.15041184425354, 3.1580567359924316, 3.193774938583374, 3.108092784881592, 3.2240562438964844, 3.1091156005859375, 3.246685743331909, 3.113111734390259, 3.198849678039551, 3.0652589797973633, 3.1605398654937744, 3.1415927410125732, 3.175482988357544, 3.204352378845215, 3.1415927410125732, 3.1415927410125732, 3.1415927410125732, 3.160831928253174, 3.1415927410125732, 3.1415927410125732, 3.1415927410125732, 3.1415927410125732, 3.1415927410125732, 3.1415927410125732, 3.1415927410125732, 3.1415927410125732, 3.1415927410125732, 3.1415927410125732, 3.1415927410125732, 3.1415927410125732, 3.101015567779541, 3.2256886959075928, 3.1276259422302246, 3.230512857437134, 3.196181058883667, 3.114403009414673, 3.152225971221924, 3.176053524017334, 3.1236910820007324, 3.1415927410125732, 3.112348794937134, 3.267765522003174, 3.1415927410125732, 3.1415927410125732, 3.1415927410125732, 3.2163517475128174, 3.1415927410125732, 3.1415927410125732, 3.1415927410125732, 3.1415927410125732, 3.1415927410125732, 3.1415927410125732, 3.1415927410125732, 3.1415927410125732, 3.1415927410125732, 3.1415927410125732, 3.1415927410125732, 3.1415927410125732, 3.189758539199829, 3.100133180618286, 3.228630304336548, 3.2218728065490723, 3.3014333248138428, 3.2328109741210938, 3.222580671310425, 3.1415927410125732, 3.17413592338562, 3.176159381866455, 3.180001974105835, 3.108160972595215, 3.2052383422851562, 3.129984140396118, 3.112900495529175, 3.143439292907715, 3.1816678047180176, 3.130897045135498, 3.150052547454834, 3.2076706886291504, 3.0578970909118652, 3.1497669219970703, 3.2591025829315186, 3.277857542037964, 3.219278335571289, 3.1415927410125732, 3.0382728576660156, 3.0122663974761963, 3.1415927410125732, 3.1415927410125732, 3.1415927410125732, 3.1129608154296875, 3.1415927410125732, 3.1415927410125732, 3.1415927410125732, 3.1415927410125732, 3.1415927410125732, 3.1415927410125732, 3.1415927410125732, 3.1415927410125732, 3.1415927410125732, 3.1415927410125732, 3.1415927410125732, 3.1415927410125732, 2.996401309967041, 3.1022958755493164, 3.1924986839294434, 3.3120548725128174, 3.059743881225586, 3.091348886489868, 3.072551965713501, 3.017965793609619, 3.249685764312744, 3.1415927410125732, 3.1093733310699463, 3.0537753105163574, 3.1415927410125732, 3.1415927410125732, 3.1415927410125732, 3.147094249725342, 3.1415927410125732, 3.1415927410125732, 3.1415927410125732, 3.1415927410125732, 3.1415927410125732, 3.1415927410125732, 3.1415927410125732, 3.1415927410125732, 3.1415927410125732, 3.1415927410125732, 3.1415927410125732, 3.1415927410125732, 3.0247437953948975, 3.297917604446411, 3.085232734680176, 3.202789783477783, 2.9216766357421875, 3.1068308353424072, 3.3437771797180176, 3.1415927410125732], "kernel": [[-0.2519747316837311, -0.05593123286962509, 0.16543567180633545, -0.07360434532165527, -0.018785061314702034, 0.07109382003545761, -0.15597958862781525, 0.19377443194389343, -0.09796663373708725, -0.12196922302246094, -0.1854565292596817, 0.09348350763320923, 0.06906227767467499, 0.003314841538667679, -0.059839241206645966, 0.09831865131855011, -0.11067640036344528, 0.03344724699854851, -0.15226875245571136, 0.044100385159254074, -0.0452943816781044, 0.020017001777887344, -0.14598530530929565, -0.10254927724599838, -0.10453002154827118, -0.018412653356790543, 0.1523095667362213, -0.08039117604494095, 0.05919237434864044, 0.04106990247964859, -0.04963560774922371, 0.019691305235028267, -0.019540030509233475, -0.09034231305122375, 0.09962283819913864, -0.2185082584619522, 0.02240072749555111, -0.06874766200780869, -0.08051284402608871, -0.30064424872398376, -0.11769058555364609, 0.14503911137580872, -0.08481695502996445, 0.14871661365032196, 0.14014659821987152, 0.07329833507537842, 0.006989157758653164, -0.12717357277870178, 0.11466741561889648, -0.06445130705833435, 0.11857102066278458, -0.14081914722919464, -0.011992082931101322, -0.055718570947647095, 0.09369600564241409, -0.10727445781230927, -0.009555493481457233, -0.04201868548989296, -0.05180718004703522, -0.0036331757437437773, 0.06693045794963837, -0.29417654871940613, -0.07712416350841522, -0.07845180481672287, -0.17558230459690094, -0.07628421485424042, 0.1046198233962059, -0.14180582761764526, -0.029244475066661835, -0.06816365569829941, 0.056667618453502655, -0.09953605383634567, -0.0419534295797348, -0.1420082151889801, 0.08898986130952835, 0.04257694259285927, 0.09546419978141785, -0.004835321567952633, 0.11691425740718842, -0.16598758101463318, -0.07290099561214447, 0.09683675318956375, 0.14159874618053436, 0.06652147322893143, 0.07655082643032074, -0.08466792106628418, 0.15254177153110504, 0.16287285089492798, 0.08460470288991928, -0.0349842868745327, 0.05775022879242897, 0.05265633761882782, 0.09158731251955032, 0.07796468585729599, 0.02992280013859272, -0.09402693808078766, -0.05578629672527313, 0.06324663758277893, 0.07557650655508041, 0.06198056414723396, -0.11590653657913208, 0.06897098571062088, 0.13297882676124573, 0.1103934496641159, 0.1138545349240303, 0.12305682897567749, 0.15715062618255615, 0.052519720047712326, 0.03762105479836464, -0.03651916980743408, -0.196794331073761, 0.032778285443782806, -0.09259884804487228, 0.1489463448524475, -0.08039238303899765, 0.07970587909221649, 0.1442158967256546, -0.04941383749246597, -0.1270333230495453, -0.08185000717639923, -0.1130208969116211, 0.06713752448558807, 0.07427836954593658, -0.048975661396980286, 0.053642433136701584, -0.08863712847232819, 0.031497467309236526, -0.07356744259595871, 0.08367808908224106, -0.10580426454544067, -0.04631510749459267, 0.11701779067516327, 0.08947529643774033, 0.20725740492343903, 0.030318917706608772, -0.08793756365776062, -0.014259983785450459, 0.015447637997567654, 0.0044408319517970085, -0.018340079113841057, -0.07104703783988953, 0.024797968566417694, 0.08375491946935654, 0.1147426962852478, 0.09859241545200348, 0.07042346894741058, 0.09650182723999023, 0.09279613196849823, -0.18730151653289795, 0.0029644821770489216, 0.0013277550460770726, 0.19005921483039856, 0.11596720665693283, 0.12050100415945053, -0.11732690036296844, -0.2239658534526825, -0.047450169920921326, 0.1513194590806961, 0.06285127997398376, -0.0011975612724199891, -0.09043298661708832, 0.07179278880357742, -0.04936852678656578, 0.08421353995800018, 0.03554166853427887, -0.03628439083695412, 0.051341548562049866, -0.1166900247335434, -0.11148203909397125, -0.15355134010314941, 0.12055078148841858, 0.13107183575630188, -0.12822654843330383, -0.0736275240778923, -0.07869962602853775, 0.014597839675843716, -0.04045623540878296, -0.14546321332454681, -0.18327908217906952, 0.05098932236433029, 0.049685388803482056, 0.010748420841991901, -0.11880137771368027, -0.14233213663101196, -0.03903624787926674, 0.15630534291267395, -0.12664636969566345, -0.054956018924713135, -0.15702955424785614, 0.09701463580131531, 0.08994416147470474, -0.0630776509642601, 0.05670531094074249, 0.02416299469769001, 0.1148395836353302, -0.11596997827291489, 0.02163758873939514, -0.14149747788906097, -0.01550990529358387, -0.14273923635482788, -0.08002409338951111, 0.23089566826820374, -0.023784084245562553, 0.1432524174451828, -0.23089875280857086, -0.06725752353668213, 0.24252311885356903, -0.13616278767585754], [-0.263762503862381, -0.024335864931344986, 0.0017932535847648978, -0.10493265837430954, -0.12381128966808319, 0.12173115462064743, -0.22832076251506805, 0.010459447279572487, 0.05051746964454651, 0.13828779757022858, -0.08856883645057678, 0.06774988770484924, -0.10807684063911438, -0.0779157355427742, 0.004576939158141613, -0.05011014640331268, 0.031145641580224037, 0.037475548684597015, -0.010362675413489342, 0.11349900811910629, 0.11735287308692932, 0.10524570941925049, 0.11013896763324738, 0.14183437824249268, -0.042303089052438736, 0.1458406150341034, -0.06483417749404907, -0.0626298263669014, 0.03774874657392502, -0.04645208641886711, -0.02313925325870514, 0.025736862793564796, -0.009340738877654076, 0.10869215428829193, -0.015660909935832024, -0.17153194546699524, -0.10113952308893204, 0.036092426627874374, -0.03432925418019295, -0.06885090470314026, -0.10003571957349777, -0.14055047929286957, -0.055693019181489944, 0.04859161376953125, 0.06253344565629959, 0.05092926323413849, -0.10331504791975021, 0.023266276344656944, 0.04284567013382912, -0.062213338911533356, 0.11332794278860092, -0.1494826376438141, -0.06714849919080734, -0.011204427108168602, -0.14177986979484558, 0.08391918241977692, -0.165470689535141, -0.048240404576063156, 0.06943118572235107, 0.08599279820919037, 0.10379640012979507, -0.00025315763195976615, -0.07244010269641876, -0.0002320911589777097, 0.0010426511289551854, 0.03903310000896454, 0.11493624746799469, 0.14969736337661743, -0.06584921479225159, -0.06252031028270721, -0.07977103441953659, -0.06031773239374161, -0.09555460512638092, 0.02735590562224388, -0.07421060651540756, 0.09345991909503937, -0.021467726677656174, -0.1528143584728241, 0.18622411787509918, -0.1247418150305748, 0.07606570422649384, -0.0013481804635375738, 0.18191015720367432, -0.03525969386100769, 0.09984507411718369, -0.060107938945293427, -0.11172938346862793, 0.01542102824896574, 0.1534077525138855, -0.14230458438396454, 0.08731518685817719, 0.09555444121360779, -0.1089622750878334, -0.10949467122554779, -0.06346885114908218, -0.13580599427223206, 0.03715839609503746, 0.10286154597997665, 0.0938761979341507, -0.12265463173389435, 0.09197075664997101, 0.044674742966890335, 0.11823144555091858, 0.05363982543349266, -0.08386737108230591, 0.0037735227961093187, -0.016041822731494904, -0.017804937437176704, 0.14424127340316772, -0.08158554881811142, -0.19971780478954315, 0.23974215984344482, -0.009464632719755173, -0.004158675204962492, 0.021659960970282555, 0.04883551970124245, -0.11199937015771866, 0.15278109908103943, -0.0285885501652956, -0.11873838305473328, -0.016578031703829765, -0.06681295484304428, -0.11783204972743988, 0.04276231303811073, -0.08448424935340881, -0.056406062096357346, -0.12432454526424408, -0.0004967757849954069, 0.0050075300969183445, -0.07007341831922531, 0.15975989401340485, 0.0003528918605297804, 0.10982545465230942, -0.04426886513829231, 0.15448755025863647, 0.04958763346076012, 0.017479458823800087, -0.11714931577444077, 0.015907971188426018, 0.03437119722366333, 0.09660644084215164, 0.03131117299199104, 0.06337282806634903, -0.05932092294096947, 0.05472291260957718, -0.05188869312405586, 0.04479913040995598, 0.1729406714439392, 0.090741828083992, -0.12109071761369705, 0.0535929836332798, 0.15552616119384766, 0.009747331030666828, -0.08262081444263458, -0.08197386562824249, -0.11430588364601135, -0.06139229238033295, 0.03498228266835213, -0.09254660457372665, -0.0937076061964035, -0.004774506203830242, 0.01800987310707569, -0.11965008825063705, 0.1284288614988327, 0.12348184734582901, -0.14065654575824738, -0.030813612043857574, -0.09815377742052078, 0.130273699760437, 0.13134807348251343, 0.08137302845716476, -0.0018130820244550705, -0.22384557127952576, -0.15796814858913422, -0.12692978978157043, 0.11409489065408707, -0.18490388989448547, 0.060955069959163666, 0.06161879003047943, 0.0529622808098793, 0.26289692521095276, -0.1532270610332489, -0.07510711997747421, -0.19540230929851532, 0.05432477593421936, 0.15467287600040436, 0.1106802225112915, 0.03567231819033623, 0.1460401564836502, 0.11567693948745728, 0.07261307537555695, 0.09099479764699936, -0.06613458693027496, 0.015799006447196007, 0.040800876915454865, 0.10423913598060608, 0.06760117411613464, 0.10763286799192429, -0.1317509263753891, 0.1476481407880783, -0.1516488641500473, 0.19997991621494293, -0.1109776645898819, 0.038900189101696014, -0.031282782554626465, 0.03085348755121231, 0.20872080326080322, -0.07270729541778564], [-0.10049916803836823, 0.15841829776763916, -0.10725921392440796, 0.04963260516524315, 0.04437733069062233, 0.20791801810264587, -0.04118972644209862, 0.057951461523771286, 0.12652485072612762, 0.14495328068733215, 0.0527031384408474, 0.07221628725528717, -0.035848524421453476, 0.14675630629062653, -0.031032415106892586, -0.02227654680609703, -0.02956385537981987, -0.13830679655075073, 0.11458167433738708, 0.05036730319261551, -0.039963286370038986, 0.12001864612102509, 0.03320315480232239, -0.14475208520889282, -0.029631389304995537, -0.14394031465053558, 0.0642269030213356, 0.12011756747961044, -0.042469512671232224, 0.13664700090885162, -0.1766054332256317, -0.11961915343999863, 0.16319730877876282, 0.14034485816955566, -0.06626946479082108, 0.037580087780952454, -0.06639710068702698, 0.15358279645442963, -0.18147338926792145, 0.08517587184906006, 0.08082018792629242, 0.05604276433587074, -0.15179423987865448, -0.18425162136554718, 0.004272506106644869, 0.03166043758392334, -0.1107863336801529, 0.15543203055858612, -0.059196874499320984, 0.10650898516178131, 0.11508132517337799, -0.03857903182506561, 0.13101550936698914, -0.010259253904223442, -0.09721897542476654, 0.04527053236961365, 0.022939492017030716, -0.036768436431884766, 0.21726685762405396, -0.04586246609687805, 0.09595987945795059, -0.1201670840382576, -0.08175063133239746, -0.017070189118385315, 0.01601117104291916, 0.10190822184085846, 0.020219260826706886, -0.13982689380645752, -0.072764091193676, -0.074351966381073, 0.11046379804611206, 0.003223792649805546, 0.03670340031385422, -0.10082074254751205, 0.11933223903179169, -0.0816279798746109, 0.12400957942008972, 0.13282959163188934, 0.006104981526732445, 0.09585753083229065, 0.23451310396194458, 0.01954100839793682, 0.0977175384759903, 0.030332589522004128, 0.04947618767619133, 0.045675963163375854, 0.13718155026435852, -0.09347696602344513, -0.13240674138069153, 0.037615422159433365, 0.14902257919311523, 0.08791617304086685, -0.04333748668432236, 0.02765522710978985, -0.02471863478422165, 0.043517377227544785, 0.06710909307003021, -0.1341918408870697, 0.14442463219165802, 0.008349527604877949, 0.00220590946264565, -0.07289957255125046, -0.054808638989925385, -0.11632837355136871, 0.11667099595069885, 0.15244776010513306, 0.05291801318526268, -0.0444362536072731, 0.09509632736444473, -0.15807822346687317, 0.061881180852651596, -0.025543030351400375, 0.07758136093616486, -0.11885421723127365, -0.13143037259578705, -0.033372681587934494, -0.13982240855693817, -0.07834554463624954, -0.004715262446552515, -0.11574027687311172, 0.010256906971335411, 0.03282346576452255, -0.13230937719345093, -0.08193923532962799, 0.08346521854400635, 0.11088695377111435, 0.08415040373802185, -0.09201473742723465, 0.18334323167800903, -0.15182903409004211, 0.0820331871509552, -0.05566931888461113, 0.06353791803121567, 0.049894679337739944, 0.15446391701698303, 0.0896577462553978, 0.004731218330562115, 0.20358820259571075, 0.03330231085419655, -0.06472103297710419, 0.1166626513004303, 0.06324843317270279, 0.06240861490368843, 0.010567725636065006, 0.010572262108325958, 0.16980445384979248, -0.18166443705558777, -0.02932371012866497, 0.23241743445396423, 0.09789314866065979, -0.1145082637667656, 0.3781682550907135, 0.14128351211547852, -0.03050452284514904, -0.08336816728115082, 0.16836315393447876, -0.11578990519046783, 0.059963975101709366, -0.035810936242341995, -0.02791549079120159, 0.12951284646987915, 0.10618414729833603, -0.03491160646080971, -0.11124135553836823, 0.13022005558013916, 0.06524884700775146, -0.14500178396701813, -0.0953892394900322, 0.020995108410716057, 0.018923358991742134, 0.08933155238628387, 0.03132961690425873, -0.09103294461965561, -0.193032905459404, 0.06570319831371307, -0.05887989327311516, 0.13461071252822876, -0.15659622848033905, -0.262062132358551, -0.02746247872710228, 0.29627540707588196, -0.10346245765686035, -0.07750486582517624, -0.0733189731836319, -0.13100484013557434, 0.031101124361157417, -0.10799968987703323, 0.3915651738643646, -0.14323276281356812, 0.13978947699069977, 0.056388650089502335, -0.04461434856057167, 0.0028005766216665506, -0.07981297373771667, -0.0036111732479184866, 0.14810891449451447, 0.05381513014435768, 0.0396365225315094, -0.13595791161060333, -0.13393250107765198, -0.5329919457435608, -0.44202202558517456, 0.30956119298934937, -0.42742258310317993, 0.5785441398620605, 0.10779234766960144, 0.44134947657585144, -0.06821500509977341], [-0.0627041757106781, 0.05827022343873978, -0.16670441627502441, 0.05170660465955734, -0.14476986229419708, -0.04572967067360878, -0.1443633884191513, 0.07934661954641342, 0.2028822898864746, 0.0031542214564979076, 0.06205879524350166, -0.02486305683851242, 0.1443987786769867, 0.10917574167251587, -0.14904317259788513, 0.002157490234822035, -0.08514141291379929, -0.04467480257153511, 0.047556426376104355, -0.11505383998155594, -0.14472807943820953, 0.05457715690135956, -0.07988705486059189, -0.12142769992351532, 0.10317616164684296, -0.09014926105737686, -0.03214763477444649, -0.012939564883708954, -0.17795440554618835, 0.11234832555055618, 0.03358221426606178, 0.006378756370395422, 0.21266989409923553, 0.003048175247386098, -0.016513030976057053, -0.05289816856384277, -0.06995437294244766, -0.06336020678281784, -0.004395248368382454, -0.10740970075130463, -0.13960526883602142, -0.02183152176439762, -0.06647490710020065, 0.033675458282232285, 0.13022013008594513, 0.04537796601653099, 0.07639728486537933, -0.031707677990198135, 0.0030361127573996782, 0.14879567921161652, 0.027416851371526718, -0.06308503448963165, -0.13900530338287354, -0.13319113850593567, -0.03834807500243187, -0.11263579875230789, -0.02712089754641056, -0.006086305715143681, -0.01699029467999935, 0.048840295523405075, 0.09409306943416595, -0.1167488619685173, 0.018353817984461784, -0.15822018682956696, -0.0068770237267017365, 0.07505776733160019, -0.10963212698698044, -0.03501727059483528, -0.0022260393016040325, -0.13598912954330444, -0.03920788690447807, -0.01772485487163067, 0.05741751566529274, -0.06256712973117828, 0.11670361459255219, 0.0014617311535403132, -0.01579124666750431, -0.16193071007728577, 0.02059866487979889, -0.05498087406158447, 0.02648943103849888, 0.14932914078235626, -0.053837358951568604, 0.20510722696781158, 0.0053799268789589405, 0.13235725462436676, -0.15078838169574738, -0.054500874131917953, -0.08539069443941116, -0.08098198473453522, 0.0410691574215889, 0.07358062267303467, 0.09099797904491425, -0.14879144728183746, 0.10365385562181473, 0.010074027813971043, 0.07866425067186356, 0.1170194074511528, -0.12460698187351227, -0.14566655457019806, -0.0588858425617218, 0.21195034682750702, -0.07110954076051712, 0.1676717847585678, 0.16132773458957672, 0.07730934023857117, -0.0479428730905056, 0.16414649784564972, 0.1311175525188446, 0.03437553718686104, -0.05491069704294205, 0.25112828612327576, 0.02814446948468685, 0.11689490079879761, -0.06523086130619049, 0.15767067670822144, -0.010056046769022942, -0.10274305939674377, -0.11678549647331238, -0.12307016551494598, 0.12548787891864777, 0.024173177778720856, -0.10050546377897263, 0.12384843826293945, -0.10884715616703033, 0.030906356871128082, 0.01299540139734745, -0.07248618453741074, 0.10497372597455978, 0.07511528581380844, 0.10523966699838638, -0.04590251296758652, 0.028773527592420578, -0.04706643521785736, 0.1355786770582199, 0.14601081609725952, -0.0292893685400486, -0.05806366726756096, -0.060945115983486176, -0.1108396053314209, -0.01103262510150671, 0.07515411823987961, 0.11421605944633484, -0.029464442282915115, 0.04755115136504173, 0.12032808363437653, -0.1477995663881302, -0.08928228169679642, 0.04992081969976425, -0.045633260160684586, 0.019065966829657555, 0.2693272531032562, 0.002708233194425702, 0.14759285748004913, -0.2054113894701004, 0.1118144765496254, 0.026299702003598213, -0.10156866908073425, -0.1471894383430481, -0.1817060112953186, -0.05111365765333176, 0.028594568371772766, 0.13363003730773926, 0.11870691925287247, -0.017496591433882713, -0.014355846680700779, -0.1437549740076065, -0.017478762194514275, 0.005456280894577503, 0.13905280828475952, 0.07541070133447647, -0.09914456307888031, -0.2057579755783081, -0.1872750073671341, -0.049896448850631714, 0.06984405219554901, 0.19792167842388153, -0.04218512773513794, -0.15943989157676697, -0.09703328460454941, 0.20190295577049255, -0.012290837243199348, -0.07055432349443436, -0.18683385848999023, 0.04845045879483223, -0.114501953125, 0.11066432297229767, 0.23778322339057922, -0.11184367537498474, -0.04331227391958237, 0.05371367558836937, 0.076780304312706, 0.08719828724861145, 0.010083340108394623, -0.10820217430591583, 0.11211032420396805, 0.12212669849395752, -0.0026285997591912746, -0.04354364797472954, 0.08205912262201309, -0.416718989610672, -0.2730836868286133, 0.041716575622558594, -0.07966837286949158, 0.3370983302593231, 0.15034349262714386, 0.4406298100948334, -0.0028260154649615288], [-0.07435093820095062, 0.0020973675418645144, 0.11391571164131165, -0.043197158724069595, -0.2088565230369568, -0.04181794822216034, -0.034144069999456406, 0.159453347325325, -0.06935670971870422, 0.07289339601993561, 0.0229637548327446, -0.07763346284627914, -0.1130606085062027, 0.15233322978019714, -0.15770785510540009, 0.025720303878188133, -0.0447315089404583, 0.05513446405529976, -0.02062934823334217, 0.10860961675643921, -0.014002240262925625, 0.14234478771686554, -0.08963583409786224, 0.03891776129603386, 0.07794666290283203, 0.017341649159789085, -0.11023292690515518, -0.08056334406137466, -0.1041647270321846, 0.0636134073138237, -0.09124793857336044, -0.030949285253882408, 0.08456970751285553, 0.06447888910770416, -0.16158246994018555, 0.026499556377530098, 0.021226318553090096, -0.00865884404629469, 0.0944325178861618, 0.032462846487760544, -0.12229125946760178, 2.9451462978613563e-05, -0.07075505703687668, -0.030557353049516678, 0.11251257359981537, 0.09770439565181732, 0.03514661267399788, 0.06725404411554337, -0.10919705033302307, -0.1350586861371994, 0.031368836760520935, -0.123702771961689, 0.030567172914743423, -0.02089872770011425, 0.04581379517912865, -0.12283675372600555, -0.15058818459510803, 0.06452382355928421, 0.032704610377550125, -0.036915380507707596, -0.05054660886526108, -0.24618934094905853, -0.06313975900411606, 0.09993846714496613, 0.10973066836595535, -0.29846277832984924, 0.1882396787405014, -0.00010565325646894053, 0.18736141920089722, -0.08560732752084732, 0.09093708544969559, -0.055722564458847046, -0.03937852010130882, -0.17373961210250854, -0.005095182452350855, -0.06367991864681244, 0.1385517120361328, -0.13398778438568115, 0.005561576224863529, -0.027377678081393242, 0.08308140933513641, -0.10399061441421509, -0.16669651865959167, -0.19038233160972595, 0.06796315312385559, -0.005001827608793974, -0.06850588321685791, -0.11885914951562881, 0.002498188056051731, -0.13179351389408112, 0.09119944274425507, 0.0009168944670818746, 0.08468321710824966, -0.14055907726287842, 0.09019457548856735, 0.0064667160622775555, -0.03340102359652519, -0.06777894496917725, 0.12470339983701706, -0.14350539445877075, 0.0065268222242593765, 0.02744927629828453, -0.2314225286245346, -0.0965004488825798, 0.020844805985689163, -0.13259106874465942, -0.03785961493849754, -0.021755855530500412, -0.09050484001636505, 0.08382817357778549, -0.20612965524196625, 0.2167774736881256, -0.15546473860740662, 0.12410354614257812, -0.10058654844760895, 0.15867336094379425, -0.11768785864114761, -0.1407778412103653, -0.09250356256961823, -0.1370847523212433, 0.12455160170793533, 0.07783075422048569, 0.11312651634216309, -0.004986117593944073, -0.08338981121778488, -0.1223207488656044, 0.013928725384175777, 0.04756619408726692, 0.18650229275226593, 0.0751304030418396, 0.13637197017669678, 0.21446000039577484, -0.037238769233226776, 0.16536098718643188, 0.0715382769703865, -0.1510203629732132, 0.008549705147743225, -0.20492252707481384, 0.08277471363544464, 0.03304392844438553, -0.07111461460590363, 0.12174671143293381, 0.11543112248182297, 0.057250648736953735, 0.039713677018880844, -0.1393432468175888, 0.014259980991482735, -0.09545499086380005, 0.056029725819826126, -0.010764184407889843, -0.10836830735206604, 0.08555002510547638, 0.08306669443845749, -0.09023576229810715, 0.03402087092399597, -0.20657934248447418, 0.004623463377356529, -0.14332391321659088, 0.03275502473115921, -0.010953256860375404, 0.014981633983552456, 0.11789090931415558, -0.061799466609954834, -0.026076052337884903, -0.0021803167182952166, -0.09766540676355362, -0.032093197107315063, -0.03841644152998924, -0.012551055289804935, -0.07224659621715546, 0.08530177175998688, 0.09614691138267517, -0.03697657212615013, -0.11522193253040314, 0.10754884034395218, -0.0510479211807251, -0.024500250816345215, 0.06265734881162643, 0.15343596041202545, -0.09907013922929764, 0.04444172605872154, 0.14150689542293549, -0.008823929354548454, -0.0768413320183754, 0.11457383632659912, -0.1284772753715515, -0.04987078905105591, -0.3465372323989868, -0.14346730709075928, 0.07911257445812225, 0.0023079272359609604, -0.12492496520280838, 0.01166357472538948, 0.09011337906122208, -0.030009450390934944, -0.1260337084531784, -0.0599634051322937, 0.05841111019253731, -0.05332088842988014, -0.024436121806502342, 0.08865673094987869, -0.16810563206672668, 0.05177082121372223, 0.06375472247600555, -0.044639747589826584, 0.265979528427124, -0.14686313271522522, -0.0464315190911293], [0.05884313955903053, -0.11492816358804703, -0.01151215098798275, -0.14483141899108887, 0.03164107725024223, -0.06911801546812057, -0.02245115488767624, -0.21131081879138947, -0.0624539777636528, -0.08395586162805557, -0.02304229885339737, 0.17741791903972626, -0.02380109764635563, 0.08671370148658752, 0.026130905374884605, -0.09873782098293304, 0.042761292308568954, -0.12616507709026337, -0.09837894141674042, -0.09570858627557755, 0.08933859318494797, -0.018796922639012337, 0.1179487556219101, -0.07028807699680328, -0.04551628977060318, -0.07155107706785202, -0.107072614133358, -0.13881057500839233, 0.18850170075893402, 0.02333536371588707, -0.009360948577523232, -0.0572442002594471, 0.07165215164422989, 0.06609280407428741, 0.07660645991563797, 0.2316107600927353, 0.03930600360035896, 0.02937234565615654, -0.07716704159975052, 0.23292692005634308, 0.11640872806310654, 0.14549590647220612, 0.14093467593193054, 0.10559859871864319, 0.040549136698246, -0.104282446205616, 0.0948389321565628, -0.09822376817464828, 0.1281873732805252, -0.06755552440881729, -0.0585714653134346, 0.0126157496124506, 0.07619169354438782, 0.09347784519195557, -0.1518976241350174, 0.04179034009575844, 0.046929873526096344, 0.1506989300251007, 0.05780809372663498, 0.13746748864650726, 0.09324450045824051, 0.32945528626441956, -0.08178681880235672, 0.09192974865436554, -0.0002749826817307621, 0.07572723180055618, -0.10657303035259247, 0.012652012519538403, -0.11125652492046356, 0.12468601763248444, -0.022129150107502937, -0.02852541022002697, 0.08131800591945648, 0.17686878144741058, -0.10801810771226883, 0.14195500314235687, 0.04798628389835358, -0.10427182167768478, -0.02904306910932064, -0.026418086141347885, 0.07983026653528214, 0.13663744926452637, -0.02959461696445942, 0.05206653103232384, 0.11925593763589859, 0.13322365283966064, -0.15647165477275848, 0.1456933319568634, -0.03621087595820427, 0.021685589104890823, 0.09614032506942749, 0.009554236195981503, 0.11833813786506653, -0.11252661794424057, -0.10384976118803024, 0.06188486889004707, 0.09513768553733826, -0.13337628543376923, -0.13325117528438568, 0.0825086161494255, 0.1530207395553589, -0.11375751346349716, 0.1699104905128479, -0.043839458376169205, -0.050400421023368835, 0.05291839316487312, 0.0290153156965971, -0.03266676887869835, -0.10244734585285187, 0.046860381960868835, -0.07639472931623459, 0.0072370111010968685, -0.07401663810014725, 0.025028973817825317, -0.005889232736080885, -0.2452622354030609, 0.040118154138326645, -0.13775210082530975, 0.10191228240728378, -0.020403655245900154, 0.01835901290178299, -0.12921541929244995, 0.05248848721385002, 0.045041773468256, -0.1580767184495926, -0.11835861206054688, -0.07753116637468338, 0.04112476482987404, -0.09288443624973297, 0.10218396782875061, -0.12712235748767853, -0.06763153523206711, -0.22875085473060608, -0.17502927780151367, -0.21013517677783966, -0.11103281378746033, 0.09891833364963531, -0.002486407058313489, 0.09823694080114365, 0.06727229058742523, 0.04744500294327736, -0.04202241078019142, -0.003928494639694691, -0.042427342385053635, -0.11625150591135025, 0.12288796901702881, -0.15547753870487213, -0.09238738566637039, -0.0026495608035475016, -0.12814703583717346, 0.11340419948101044, 0.04466000944375992, -0.1863335818052292, -0.11501284688711166, 0.17469234764575958, 0.28384408354759216, 0.14473837614059448, 0.08003253489732742, -0.06504473090171814, 0.16085973381996155, -0.0422518327832222, 0.11068760603666306, -0.007016110699623823, 0.11822418868541718, 0.05550260841846466, 0.12206681072711945, -0.03930407389998436, -0.10885147005319595, -0.09722363203763962, 0.031045816838741302, -0.012732609175145626, -0.07621622085571289, 0.08100717514753342, -0.052446410059928894, -0.04574362188577652, 0.03639276698231697, 0.10279549658298492, 0.0821802020072937, -0.12926390767097473, 0.11250816285610199, -0.17109966278076172, -0.10265807062387466, 0.09201553463935852, -0.008243509568274021, -0.1260598748922348, -0.08286543935537338, 0.14510391652584076, 0.08271661400794983, 0.09031809866428375, -0.15073195099830627, 0.02250496856868267, -0.11656048893928528, 0.027776097878813744, -0.11671750992536545, -0.04978383705019951, 0.04596446081995964, 0.15388154983520508, -0.1149601861834526, 0.1272600293159485, 0.145865336060524, -0.03421687334775925, -0.13160841166973114, 0.32270747423171997, -0.021390696987509727, 0.22610048949718475, -0.13986419141292572, 0.0043386914767324924, 0.028840288519859314], [-0.060368612408638, 0.17380785942077637, 0.07492377609014511, 0.09258744865655899, -0.03280740603804588, 0.19577239453792572, -0.009371413849294186, -0.08420813828706741, -0.1210651770234108, -0.04327434301376343, -0.20121929049491882, -0.16098977625370026, -0.05191785842180252, -0.13196492195129395, 0.06371994316577911, 0.022678690031170845, -0.1540742665529251, -0.03280026093125343, -0.11345085501670837, 0.06551871448755264, -0.11928875744342804, -0.0615944042801857, -0.0548117458820343, -0.05208657681941986, 0.11052997410297394, -0.008999958634376526, 0.026160091161727905, 0.024886637926101685, -0.0018498067511245608, 0.14073587954044342, -0.12865084409713745, -0.07546263188123703, -0.037799425423145294, -0.06327950954437256, 0.10714089870452881, -0.1856561154127121, -0.041184235364198685, -0.0778365433216095, -0.12650823593139648, -0.2514267861843109, 0.03991146385669708, -0.09147348254919052, 0.07786330580711365, -0.108579121530056, 0.03661078214645386, 0.051308196038007736, -0.10576508939266205, 0.035626694560050964, -0.08275588601827621, 0.05051955580711365, -0.0017422925448045135, -0.11525353044271469, 0.06274490058422089, -0.12457310408353806, 0.15053486824035645, 0.09314070641994476, 0.0559193454682827, 0.10687141120433807, 0.03797498345375061, 0.09545335918664932, -0.07026278227567673, -0.22748348116874695, -0.08352518081665039, 0.026576651260256767, 0.08233464509248734, 0.05142904818058014, -0.074563167989254, 0.08565342426300049, 0.06955152750015259, -0.12218853831291199, -0.10028569400310516, 0.05771290138363838, 0.00315293506719172, -0.008483655750751495, 0.10828114300966263, -0.12912996113300323, 0.1796218454837799, 0.015990348532795906, 0.1767672896385193, -0.056359875947237015, 0.12054688483476639, 0.1008693277835846, 0.021372905001044273, 0.10160095989704132, 0.07394804060459137, -0.112381711602211, -0.04213327169418335, -0.06663236021995544, -0.03323601558804512, 0.05492255091667175, 0.043218206614255905, -0.12189082056283951, 0.14526918530464172, 0.1543533354997635, 0.042433008551597595, -0.05493064969778061, 0.0522686243057251, -0.12035521864891052, -0.12659363448619843, -0.1476287841796875, 0.05766332522034645, 0.21507248282432556, -0.07189798355102539, 0.04232211038470268, -0.025056609883904457, -0.020239152014255524, 0.13159270584583282, 0.14194804430007935, 0.08625362813472748, -0.06037762016057968, -0.00658403430134058, 0.26438891887664795, -0.0699625164270401, -0.1387288123369217, -0.15679705142974854, 0.0867360383272171, 0.10016465187072754, 0.04127436876296997, 0.006799123715609312, 0.15710663795471191, -0.050498396158218384, 0.062372785061597824, -0.1574125736951828, 0.12534458935260773, 0.10598646849393845, 0.05520264059305191, -0.14800602197647095, -0.10352374613285065, 0.09403624385595322, 0.07199770212173462, -0.06762350350618362, 0.007322259247303009, 0.256591796875, 0.19470827281475067, 0.21484623849391937, -0.14111097157001495, 0.1662759929895401, 0.15096233785152435, -0.05819811299443245, -0.0277645792812109, 0.02741549350321293, -0.12008288502693176, -0.008277208544313908, 0.0960344523191452, 0.05425126105546951, -0.12156992405653, -0.04838390648365021, -0.0927584320306778, -0.13456779718399048, 0.021860776469111443, 0.11452468484640121, 0.13726399838924408, 0.06056766211986542, 0.0748654305934906, -0.2052304595708847, -0.1998234987258911, 0.12314565479755402, -0.062254033982753754, 0.026301860809326172, -0.00704634515568614, 0.0585860013961792, -0.10195823758840561, -0.13465546071529388, -0.04948265850543976, 0.04162222146987915, -0.059123244136571884, 0.10865715891122818, 0.15681461989879608, 0.01633344776928425, 0.13255342841148376, -0.14129970967769623, 0.1494157463312149, -0.07554434984922409, -0.07676874846220016, 0.1525193750858307, 0.04720716178417206, 0.07544727623462677, -0.042441677302122116, 0.041976071894168854, -0.06736216694116592, 0.2123100608587265, -0.01440115924924612, -0.22491051256656647, 0.04390314966440201, -0.08935513347387314, -0.1026199534535408, -0.09295234084129333, 0.023740040138363838, -0.1181187629699707, 0.13160890340805054, -0.12436198443174362, -0.00791865773499012, -0.029877865687012672, -0.14607301354408264, 0.06082222983241081, -0.13687415421009064, 0.045320235192775726, 0.08802016079425812, -0.0977587178349495, -0.05290425196290016, -0.2608281373977661, 0.1214122474193573, 0.10575679689645767, 0.14072197675704956, 0.08860475569963455, 0.05055011436343193, 0.32588323950767517, 0.09644331783056259], [0.036031562834978104, -0.005715937353670597, 0.06665567308664322, -0.013474552892148495, -0.07758595049381256, -0.04607493430376053, -0.1735861897468567, -0.11718720197677612, 0.10843107104301453, -0.03730330616235733, -0.03504461050033569, 0.12916609644889832, -0.12470623850822449, 0.02944302186369896, -0.14393126964569092, -0.017237046733498573, 0.10711758583784103, -0.06908877938985825, -0.0433373749256134, 0.11600904911756516, 0.08194411545991898, 0.03184732794761658, 0.03807449713349342, 0.1393888145685196, -0.03134585916996002, -0.06885453313589096, 0.0815105214715004, 0.11809059977531433, -0.09218346327543259, 0.10829848051071167, 0.02107888087630272, -0.062080156058073044, 0.21755996346473694, -0.03499048948287964, 0.09010054916143417, -0.10523347556591034, -0.04320179671049118, -0.02276083268225193, 7.779754378134385e-05, -0.17298416793346405, -0.11892281472682953, -0.0390474908053875, -0.0086951470002532, 0.029367227107286453, 0.12931369245052338, -0.12651072442531586, -0.016270343214273453, 0.037231456488370895, -0.12135642021894455, 0.13711942732334137, 0.025084620341658592, -0.15755203366279602, 0.014082001522183418, -0.09284834563732147, 0.1448121964931488, 0.041786666959524155, -0.20929010212421417, 0.0007957540801726282, 0.10196173936128616, 0.08872643113136292, -0.07648079842329025, -0.17176881432533264, -0.14213941991329193, -0.002442275872454047, -0.008994215168058872, 0.05485399812459946, 0.06596499681472778, -0.037112344056367874, 0.04971864074468613, -0.01571660302579403, 0.05935169756412506, -0.17595656216144562, 0.24617184698581696, -0.13088418543338776, -0.00691194087266922, -0.005734775681048632, -0.024885818362236023, 0.08870720118284225, -0.03589063882827759, -0.10774917155504227, -0.11023776978254318, -0.012121283449232578, 0.14101891219615936, -0.16942332684993744, -0.15589489042758942, -0.157208651304245, 0.07423949241638184, -0.08472346514463425, 0.14354825019836426, -0.10658934712409973, -0.1043962761759758, 0.028220634907484055, 0.0920514166355133, 0.03274287283420563, 0.0796811580657959, 0.15409353375434875, 0.08404527604579926, 0.1055503711104393, 0.0012747031869366765, -0.0014100739499554038, -0.014663414098322392, -0.03370564058423042, -0.1514541059732437, 0.12215147167444229, 0.08561644703149796, -0.15087315440177917, -0.09589489549398422, 0.00966669898480177, -0.1084476187825203, 0.10251975059509277, 0.13699617981910706, 0.18172010779380798, 0.05897681787610054, -0.09028981626033783, 0.09927251189947128, 0.0716545507311821, -0.117836132645607, -0.011914706788957119, -0.036258991807699203, 0.14194341003894806, 0.1331789493560791, 0.002985613653436303, -0.11697045713663101, -0.008372013457119465, -0.059253543615341187, 0.016973203048110008, 0.11759715527296066, 0.0562942773103714, -0.08164018392562866, -0.15269212424755096, -7.039865158731118e-05, 0.12189838290214539, 0.02523016929626465, 0.09374658763408661, -0.06734346598386765, 0.12120836973190308, 0.038109924644231796, -0.07775883376598358, 0.07882802933454514, 0.09233420342206955, -0.26347389817237854, -0.156270369887352, -0.007646435406059027, -0.008964608423411846, 0.0016529541462659836, 0.11073079705238342, -0.12402486056089401, -0.021389685571193695, -0.0890527218580246, 0.046147119253873825, 0.082082100212574, -0.12209784239530563, 0.0814027190208435, 0.11773934215307236, -0.3131217956542969, 0.00018603753414936364, -0.10859182476997375, -0.15540684759616852, -0.08402930200099945, -0.0006030965596437454, -0.004836589097976685, 0.043710969388484955, -0.03974497690796852, -0.12507109344005585, -0.04432521015405655, 0.054998867213726044, 0.1325041800737381, 0.06022653728723526, 0.05273829400539398, -0.061356935650110245, 0.04271223023533821, 0.1479048728942871, -0.22452130913734436, -0.026540568098425865, 0.04353401064872742, 0.19060800969600677, -0.039592765271663666, -0.05444874241948128, -0.1672009825706482, -0.019932933151721954, 0.029936810955405235, 0.0525248683989048, -0.09404142200946808, 0.13109314441680908, -0.016014782711863518, -0.013556568883359432, -0.05540633946657181, 0.35322660207748413, 0.07078087329864502, -0.14745715260505676, 0.147563636302948, 0.00832692813128233, 0.037573933601379395, -0.1353418529033661, 0.01489869225770235, -0.1367635428905487, -0.07508139312267303, -0.059968817979097366, -0.08064283430576324, -0.1132378876209259, -0.3725135326385498, -0.2288818061351776, -0.1538134068250656, -0.009614008478820324, 0.19055505096912384, 0.07604748755693436, 0.36461466550827026, 0.0655960962176323], [0.12192386388778687, 0.05729687586426735, -0.0966510996222496, -0.05376095324754715, 0.15802420675754547, -0.06610181927680969, 0.06409583240747452, -0.04279876500368118, -0.03323236107826233, 0.03250805661082268, 0.2603161633014679, -0.04512949660420418, -0.028550656512379646, 0.08769960701465607, 0.0037775475066155195, -0.02812166139483452, -0.018942590802907944, 0.08062334358692169, 0.1155598908662796, 0.05326369032263756, 0.12771184742450714, 0.057902030646800995, -0.0925387293100357, -0.028555048629641533, -0.0635739341378212, -0.0335991233587265, 0.11998124420642853, -0.14362607896327972, 0.15288697183132172, 0.09481853991746902, 0.22922693192958832, -0.1732569932937622, 0.012211442925035954, 0.015376534312963486, -0.12088809162378311, -0.04421510919928551, 0.09864842146635056, 0.10025879740715027, 0.046305593103170395, 0.08937352150678635, 0.04593481868505478, -0.1300879418849945, -0.06335611641407013, -0.17195411026477814, 0.06680522859096527, -0.08213766664266586, -0.03344667702913284, -0.14380089938640594, 0.13861119747161865, -0.02142658270895481, 0.10795566439628601, 0.0049835811369121075, 0.03266345337033272, -0.01682935282588005, 0.09982448816299438, -0.008876473642885685, 0.04262956976890564, -0.11020080000162125, -0.05724833533167839, -0.1165129765868187, -0.10480119287967682, 0.22183044254779816, -0.11662378162145615, 0.14899642765522003, -0.08836732804775238, -0.11927527189254761, 0.050214625895023346, 0.13898912072181702, -0.15682733058929443, -0.16308240592479706, -0.1168942004442215, -0.06653127819299698, -0.05924410745501518, 0.14621961116790771, -0.12132418900728226, 0.1149807795882225, -0.2659979462623596, 0.044206973165273666, 0.02005794271826744, 0.06369336694478989, -0.03979730233550072, -0.1275937259197235, -0.09575282782316208, -0.040328871458768845, -0.14175553619861603, 0.015373512171208858, 0.018520010635256767, -0.1680075079202652, 0.07008933275938034, 0.1077083945274353, -0.0887606143951416, -0.0204186849296093, -0.1170819029211998, -0.020356524735689163, -0.008423080667853355, 0.1444610208272934, -0.09587851911783218, 0.03491239994764328, 0.08550581336021423, 0.08038299530744553, 0.16585323214530945, -0.1076224222779274, -0.042251601815223694, -0.11555098742246628, 0.058811478316783905, -0.00010104211105499417, -0.09836801886558533, -0.09122176468372345, 0.00337014882825315, 0.10563971102237701, -0.04301214590668678, -0.27074331045150757, -0.026122651994228363, -0.0020175387617200613, 0.15105783939361572, -0.21379342675209045, 0.0973556712269783, -0.002491071354597807, 0.005444205366075039, -0.06120971590280533, 0.06539466232061386, 0.15854816138744354, -0.03157510980963707, 0.0139559805393219, 0.13954629004001617, 0.046953506767749786, -0.026352548971772194, -0.14714571833610535, 0.06482736766338348, 0.015469375066459179, 0.04938048869371414, -0.06494081765413284, -0.27249646186828613, -0.08393878489732742, 0.02013637311756611, -0.13699498772621155, -0.008436068892478943, -0.10875868052244186, 0.0586395226418972, 0.011905149556696415, -0.020275689661502838, 0.06432107836008072, -0.039022210985422134, 0.039025384932756424, -0.18327580392360687, -0.1840743124485016, 0.11481800675392151, -0.03651313856244087, 0.03958089277148247, 0.09098760038614273, -0.139053612947464, -0.09021728485822678, -0.032180577516555786, -0.12325535714626312, 0.21318195760250092, 0.23690244555473328, -0.01893509551882744, -0.1137123629450798, -0.044338345527648926, -0.05781111866235733, -0.1313912719488144, -0.027749599888920784, -0.1164899617433548, 0.06116243451833725, 0.0005317162722349167, 0.11638779193162918, 0.07583308964967728, 0.00718630850315094, -0.013380125164985657, -0.0437459833920002, -0.11662207543849945, -0.12372555583715439, 0.25821754336357117, -0.0642816349864006, 0.07539404183626175, -0.19517435133457184, 0.1524801254272461, 0.2047932744026184, -0.024991877377033234, 0.03448706120252609, -0.0970526710152626, 0.011467937380075455, 0.0833204910159111, 0.17222627997398376, 0.10157234221696854, 0.031155066564679146, -0.0984906479716301, 0.012440156191587448, -0.14384381473064423, 0.08026352524757385, 0.08086198568344116, 0.08362281322479248, 0.07174694538116455, 0.14470374584197998, 0.012118443846702576, -0.06564587354660034, -0.13818387687206268, 0.05638391897082329, 0.07379598170518875, 0.060915201902389526, 0.2620212137699127, -0.14762599766254425, 0.09398232400417328, 0.07900427281856537, -0.007460595574229956, 0.14211058616638184, -0.13275960087776184, 0.08230124413967133], [0.06118587777018547, 0.2194354087114334, 0.05192001163959503, 0.011980212293565273, -0.07334746420383453, 0.13436315953731537, 0.02477598749101162, 0.013936900533735752, 0.07323363423347473, -0.08929819613695145, -0.16465012729167938, -0.16701571643352509, 0.055774446576833725, -0.07745647430419922, -0.013787941075861454, -0.10593846440315247, -0.04053698480129242, 0.09076513350009918, 0.08559923619031906, -0.1510438770055771, -0.1197345033288002, -0.09598580002784729, -0.05993024259805679, -0.12508271634578705, -0.13637757301330566, -0.0842670351266861, -0.026729701086878777, 0.15178772807121277, -0.1825835108757019, 0.12037422508001328, -0.22050976753234863, 0.10169576853513718, 0.1057245060801506, 0.10772877931594849, -0.02078956924378872, 0.01434363890439272, 0.1299392282962799, -0.06836846470832825, 0.1069677397608757, 0.06939202547073364, -0.12984654307365417, -0.08262721449136734, -0.10856562852859497, -0.02674037590622902, -0.07986108958721161, -0.1258319467306137, 0.05474977567791939, 0.0014927121810615063, 0.09100385010242462, 0.03819699585437775, -0.06966572999954224, -0.13309676945209503, -0.05183427035808563, -0.12091843038797379, -0.07408171147108078, -0.12976916134357452, -0.016342146322131157, 0.11623816192150116, 0.028461387380957603, -0.09390527009963989, 0.0033260455820709467, -0.15850602090358734, -0.14546622335910797, -0.00010043024667538702, -0.0319269560277462, 0.027138730511069298, -0.01976233720779419, 0.10239263623952866, 0.03691539168357849, 0.059206265956163406, 0.04455093294382095, -0.06535370647907257, 0.17638276517391205, 0.06277969479560852, 0.033510759472846985, 0.08454939723014832, 0.1873764842748642, -0.08612523972988129, 0.03045804798603058, 0.03737226128578186, -0.0017493758350610733, -0.022961996495723724, 0.19607119262218475, 0.24676108360290527, -0.052411679178476334, -0.13736779987812042, -0.1101977601647377, 0.1780082732439041, 0.11766699701547623, 0.012023692019283772, 0.04588371515274048, -0.12231578677892685, -0.05584394931793213, 0.0653364434838295, -0.009962430223822594, 0.12128858268260956, 0.139309361577034, 0.03271326795220375, 0.00280909426510334, 0.15102975070476532, -0.006828235927969217, 0.030198117718100548, 0.041039902716875076, 0.00892113707959652, 0.03841283917427063, 0.16186198592185974, -0.07026497274637222, -0.07466422766447067, 0.08556784689426422, -0.14512643218040466, 0.048804305493831635, -0.0793362483382225, 0.06842684000730515, 0.09221574664115906, 0.059137552976608276, -0.004227953497320414, -0.07751890271902084, -0.11641277372837067, -0.0860709547996521, -0.12095761299133301, 0.10358764976263046, -0.15745186805725098, -0.10955603420734406, 0.03678885102272034, -0.1256033033132553, -0.1356651782989502, -0.14938296377658844, -0.07535660266876221, 0.1167769730091095, -0.1593691110610962, 0.17309388518333435, 0.09587222337722778, 0.20419475436210632, 0.005792275071144104, 0.015769856050610542, -0.028383828699588776, 0.05269770696759224, 0.03479549288749695, -0.09016157686710358, 0.12807585299015045, 0.13481080532073975, -0.021248433738946915, 0.09803546965122223, -0.05348322540521622, -0.05698629096150398, -0.0022589582949876785, -0.003207447472959757, 0.09051652252674103, 0.15813998878002167, -0.05924040451645851, -0.012598142959177494, 0.02436882257461548, 0.007219690829515457, -0.022203829139471054, 0.023022562265396118, -0.20411349833011627, 0.023398658260703087, -0.031339649111032486, -0.1323689967393875, -0.07235876470804214, -0.09513136744499207, -0.06148939207196236, 0.07980237156152725, 0.10992739349603653, -0.08638840913772583, -0.12146002799272537, -0.03000793606042862, -0.11324538290500641, -0.09091503918170929, 0.07799588143825531, -0.10081909596920013, 0.09501776099205017, -0.0063961283303797245, -0.0519290491938591, -0.028941312804818153, -0.10653462260961533, -0.00656438572332263, -0.11579354107379913, -0.03905041143298149, -0.1495179384946823, 0.21239861845970154, -0.08483312278985977, 0.00973273441195488, 0.09459780901670456, 0.11135367304086685, 0.03283444419503212, 0.06571715325117111, 0.00820955354720354, 0.053591251373291016, 0.058530278503894806, -0.0027350489981472492, -0.014639762230217457, -0.027246804907917976, 0.03929059952497482, 0.0016062782378867269, 0.13912802934646606, 0.007815539836883545, 0.04836626723408699, 0.13024069368839264, -0.08325228095054626, -0.23754751682281494, -0.11478216201066971, 0.2789041996002197, -0.08879569917917252, 0.1402900069952011, 0.17185179889202118, 0.0272662416100502, 0.0019637462683022022], [0.021386459469795227, 0.10060425102710724, -0.015231829136610031, 0.07010800391435623, -0.1271224468946457, 0.11793137341737747, -0.20281824469566345, 0.1281205713748932, 0.016443461179733276, 0.06329448521137238, -0.04991960525512695, -0.11988065391778946, 0.02389214001595974, 0.08044201135635376, 0.03158760070800781, 0.03408209607005119, -0.102643683552742, 0.04144354537129402, -0.15614567697048187, 0.04047740250825882, 0.004784651566296816, -0.04553109034895897, -0.016070542857050896, -0.004116390831768513, -0.04607904702425003, 0.12170585989952087, 0.07405100762844086, 0.04791124537587166, -0.18746963143348694, 0.09845513850450516, -0.01912965252995491, 0.06166403368115425, 0.23701651394367218, 0.04889973625540733, -0.05788188800215721, -0.1993413120508194, 0.129291832447052, 0.01574377529323101, -0.12995481491088867, -0.30598321557044983, -0.021401144564151764, 0.0186258926987648, 0.09576279670000076, 0.045148905366659164, 0.07775156199932098, 0.11830266565084457, -0.1393122673034668, 0.09870805591344833, 0.0278639979660511, 0.03799912706017494, -0.12176578491926193, -0.11288874596357346, -0.14271020889282227, -0.1340680867433548, 0.009369767270982265, 0.07891859859228134, -0.22739219665527344, -0.11182238906621933, 0.2393369823694229, 0.001967781689018011, -0.13924981653690338, -0.3495599329471588, -0.16239115595817566, 0.1495966613292694, -0.1567528247833252, 0.08028120547533035, 0.03643178567290306, -0.04461222514510155, -0.04848535731434822, -0.16528812050819397, -0.004659762606024742, -0.08310317248106003, 0.07024243474006653, -0.1985074132680893, -0.028267981484532356, -0.060793548822402954, 0.024532435461878777, 0.020686466246843338, 0.05474355071783066, 0.0773148313164711, 0.032828379422426224, -0.00921826995909214, 0.00010987871792167425, 0.0737181231379509, 0.13333620131015778, -0.14373056590557098, 0.09425490349531174, 0.01767461560666561, 0.0821809396147728, -0.056676462292671204, -0.13263238966464996, 0.0035632862709462643, 0.01052026730030775, -0.019083639606833458, 0.12200351804494858, -0.06377127766609192, -0.05502680316567421, -0.020981743931770325, -0.08856762945652008, 0.06721895188093185, -0.0839490219950676, 0.0007206576992757618, -0.14334823191165924, 0.053508661687374115, 0.025879736989736557, 0.10449525713920593, 0.11092992126941681, -0.044599052518606186, -0.1614358276128769, 0.11202098429203033, -0.12195602059364319, 0.26103511452674866, -0.13668295741081238, 0.08713794499635696, 0.056706443428993225, 0.10953589528799057, 0.08938624709844589, -0.02011232078075409, 0.10771403461694717, 0.12114972621202469, 0.1213049367070198, -0.0633208379149437, 0.003911025356501341, 0.10070079565048218, -0.10067641735076904, -0.06560669094324112, 0.018839813768863678, 0.11591807752847672, 0.15512308478355408, -0.1392383724451065, -0.0029474198818206787, -0.018264485523104668, 0.025773806497454643, 0.23286931216716766, 0.19537176191806793, 0.012027136981487274, 0.02453722432255745, -0.024591991677880287, 0.050614383071660995, 0.0659460797905922, -0.08686363697052002, 0.13810227811336517, -0.13351398706436157, 0.14087054133415222, 0.12241799384355545, -0.025776607915759087, 0.0559999905526638, -0.03452027589082718, -0.011250745505094528, -0.07007208466529846, -0.1221478208899498, -0.02950196899473667, 0.04684147238731384, -0.04117530211806297, -0.07245548814535141, 0.140483096241951, 0.009456455707550049, -0.04819417744874954, -0.0853395164012909, 0.004264616407454014, 0.11628066003322601, -0.1321115791797638, 0.1294012814760208, 0.04918625205755234, 0.05061805620789528, 0.1187310740351677, -0.1465011090040207, 0.022487251088023186, -0.0026834900490939617, 0.061762820929288864, -0.07548762112855911, -0.11512576788663864, -0.33069002628326416, -0.15632928907871246, 0.08022405207157135, 0.18864065408706665, 0.1295943260192871, 0.07355344295501709, -0.09034828841686249, 0.05098193511366844, 0.0912584513425827, 0.11302211135625839, -0.1400110274553299, 0.2251969426870346, 0.13088946044445038, 0.03496108204126358, 0.024183133617043495, -0.18800531327724457, -0.07117343693971634, -0.1362902820110321, -0.11511721462011337, 0.11798210442066193, -0.10043209791183472, -0.02881462313234806, -0.049567002803087234, -0.12332936376333237, -0.01232619397342205, -0.07561061531305313, -0.03530522435903549, -0.07085469365119934, 0.024848083034157753, -0.4502340853214264, 0.12377778440713882, -0.060471706092357635, 0.3281545042991638, 0.4145592153072357, 0.06971479952335358, -0.026782093569636345], [0.2862164080142975, -0.05929623544216156, -0.09274767339229584, -0.08627680689096451, 0.02817925624549389, -0.16164369881153107, 0.08742482215166092, 0.09762036800384521, -0.11807075887918472, -0.017338281497359276, -0.10578802973031998, -0.06876394897699356, 0.02755328267812729, 0.03232142701745033, 0.15568728744983673, -0.14362317323684692, 0.08880558609962463, 0.08714385330677032, 0.0798824355006218, -0.14535747468471527, 0.1420375555753708, 0.10868290066719055, 0.14927458763122559, 0.01524688582867384, 0.11156604439020157, 0.02970747835934162, -0.09925533086061478, -0.08474715054035187, -0.14790663123130798, -0.06025012955069542, 0.12754656374454498, 0.05804721266031265, -0.05577162653207779, 0.12429359555244446, -0.08541279286146164, 0.10818089544773102, 0.022255273535847664, 0.04888015240430832, -0.07696972042322159, 0.07780594378709793, -0.057422783225774765, -0.12592019140720367, -0.04296919330954552, -0.013182579539716244, 0.15587584674358368, 0.12240815162658691, -0.004877700004726648, 0.02687506563961506, -0.0951022207736969, 0.08116263151168823, 0.15783679485321045, 0.1550452560186386, -0.10140388458967209, -0.14501135051250458, 0.04650427773594856, -0.09214268624782562, -0.06911125034093857, 0.04177268594503403, 0.038855668157339096, -0.018656153231859207, 0.055662065744400024, -0.02948155626654625, 0.1203741580247879, -0.007812624797224998, 0.044367119669914246, -0.0006001791334711015, 0.018461888656020164, 0.037503208965063095, 0.09148439019918442, -0.05248552933335304, -0.13516567647457123, -0.1410135179758072, 0.030288919806480408, -0.03127549961209297, -0.030298525467514992, 0.18772082030773163, 0.14313456416130066, 0.009253453463315964, -0.016184324398636818, 0.14248140156269073, 0.034517936408519745, -0.07723286747932434, 0.0864831730723381, 0.12244794517755508, 0.11510297656059265, -0.062428925186395645, 0.13394415378570557, 0.06487159430980682, -0.013661769218742847, -0.03156647831201553, 0.025865349918603897, 0.10005998611450195, -0.1030469611287117, 0.10145411640405655, -0.14445404708385468, -0.14750458300113678, 0.07023530453443527, 0.10148103535175323, -0.12295236438512802, 0.05310666561126709, -0.08037654310464859, 0.1783350110054016, -0.021427610889077187, 0.11601843684911728, 0.14025229215621948, 0.04608673229813576, -0.06815262138843536, -0.03635663539171219, -0.1737433224916458, 0.0004607374721672386, -0.027417976409196854, -0.17994607985019684, 0.023262150585651398, 0.0743570327758789, 0.09971205145120621, -0.0421106331050396, -0.010864106938242912, -0.07555227726697922, 0.07028663903474808, 0.0744527280330658, -0.006681128870695829, -0.09349923580884933, 0.14824292063713074, 0.026095813140273094, -0.08764350414276123, -0.0017005002591758966, 0.08366960287094116, -0.01216061506420374, -0.08366642892360687, 0.19439701735973358, 0.050132300704717636, -0.12064433097839355, -0.07716014236211777, -0.2154979109764099, -0.13698957860469818, -0.07170181721448898, 0.14858247339725494, 0.1738269329071045, 0.09478949010372162, -0.18069125711917877, 0.08786509186029434, 0.06463535875082016, 0.07392846792936325, 0.07063811272382736, -0.08108408749103546, -0.13176624476909637, 0.12045493721961975, -0.06989973783493042, -0.10839598625898361, -0.04446253553032875, -0.00730910524725914, -0.21932430565357208, -0.09697400778532028, -0.13810256123542786, 0.1708526760339737, -0.08126845955848694, -0.06286747753620148, -0.0809316337108612, 0.13043008744716644, -0.1023315042257309, -0.1255260705947876, 0.006199835799634457, -0.062239762395620346, -0.08545879274606705, 0.1515948623418808, -0.00621660565957427, -0.15580543875694275, -0.01899842731654644, -0.13781392574310303, 0.028397683054208755, -0.015124802477657795, 0.10534337908029556, 0.08835501968860626, 0.046611033380031586, -0.14550846815109253, 0.0649745985865593, -0.18311986327171326, 0.12834104895591736, 0.1882491558790207, -0.1257149875164032, -0.20750999450683594, 0.07225780189037323, 0.1316412389278412, -0.1057550460100174, 0.047451455146074295, 0.101316437125206, -0.14084886014461517, -0.5684635043144226, 0.051310885697603226, 0.1483713537454605, 0.12366850674152374, 0.022852744907140732, 0.005024048499763012, 0.0520605705678463, 0.0076170265674591064, -0.08255790174007416, -0.12591136991977692, 0.13485729694366455, -0.1515158861875534, -0.10233663767576218, 0.35190120339393616, 0.5815446376800537, -0.25154969096183777, 0.5292911529541016, -0.4722931683063507, -0.019506556913256645, -0.2319619506597519, -0.14158757030963898], [-0.14205817878246307, 0.007515812758356333, 0.11987589299678802, 0.14316876232624054, -0.12511372566223145, -0.0796295776963234, 0.04303025081753731, 0.010690858587622643, 0.06959525495767593, -0.14425897598266602, -0.1839052140712738, 0.045212965458631516, 0.09459098428487778, 0.15784898400306702, -0.038231782615184784, -0.020440058782696724, 0.10315511375665665, 0.05922836810350418, -0.0798024833202362, 0.062382664531469345, 0.037885066121816635, 0.08439138531684875, 0.09163239598274231, -0.04488217458128929, 0.01943895034492016, -0.04081302881240845, -0.10841439664363861, -0.06743813306093216, -0.13055917620658875, 0.15697845816612244, -0.07354218512773514, 0.0008364673121832311, 0.1181519478559494, 0.1342058628797531, -0.03104177676141262, -0.019682032987475395, -0.06735551357269287, -0.1313292533159256, -0.1595454216003418, -0.20160992443561554, 0.12163208425045013, 0.1481815129518509, 0.10133139044046402, -0.06993918120861053, -0.011607245542109013, -0.016834501177072525, 0.05596762150526047, 0.10474912822246552, -0.05707939714193344, 0.12512356042861938, 0.11470545828342438, -0.12249639630317688, -0.04683373123407364, -0.0010308012133464217, 0.011700710281729698, -0.03318574279546738, -0.25544682145118713, -0.061339978128671646, 0.21035753190517426, 0.09660372883081436, -0.031551867723464966, -0.26308995485305786, -0.08706268668174744, 0.08693663030862808, 0.07741732895374298, 0.10569698363542557, 0.009594353847205639, -0.029940634965896606, 0.10624614357948303, -0.12127859145402908, 0.002367696026340127, -0.08105956763029099, 0.03986362740397453, 0.01587030664086342, 0.05936654284596443, -0.016637684777379036, 0.04424143210053444, -0.10875894874334335, -0.043467212468385696, -0.0042217751033604145, -0.014752734452486038, 0.1521616280078888, 0.012656803242862225, -0.05889561027288437, 0.05416321009397507, -0.0247272290289402, 0.03031570091843605, -0.11737034469842911, 0.15203428268432617, 0.004011228680610657, -0.022996066138148308, 0.01558625977486372, -0.09823671728372574, 0.142944797873497, -0.08193927258253098, -0.05977484956383705, 0.141310915350914, -0.13927073776721954, -0.15006951987743378, 0.048862285912036896, 0.07505753636360168, -0.03352668881416321, -0.014416955411434174, -0.008463697507977486, -0.08026544749736786, -0.12020177394151688, 0.14951305091381073, -0.03083050437271595, -0.09228450804948807, 0.13968154788017273, -0.03904114291071892, 0.2651294469833374, 0.007338183932006359, 0.09744686633348465, 0.09130199253559113, 0.017880773171782494, -0.043755143880844116, -0.09246237576007843, 0.10544373095035553, -0.1024758368730545, -0.1474759727716446, -0.03847023472189903, 0.07582461088895798, 0.025130577385425568, 0.09441529214382172, -0.05275942012667656, 0.13086526095867157, -0.005370538681745529, 0.0609600655734539, -0.15289649367332458, 0.15687650442123413, -0.07130878418684006, 0.1750209480524063, 0.044948965311050415, 0.22957967221736908, 0.014393550343811512, 0.08809187263250351, -0.11797574907541275, -0.019515786319971085, -0.0017273795092478395, 0.10031859576702118, -0.0331311896443367, -0.016956830397248268, -0.12781935930252075, -0.09762168675661087, 0.018397971987724304, 0.09186915308237076, 0.19957919418811798, -0.10079959034919739, -0.051185235381126404, 0.22645719349384308, 0.10130482912063599, -0.08145704865455627, 0.06569679081439972, -0.03910883888602257, -0.14744924008846283, -0.0726504772901535, 0.1458248645067215, 0.11282216012477875, -0.04254430904984474, 0.012111971154808998, 0.033264368772506714, 0.1212407723069191, -0.0462992899119854, 0.1273587942123413, -0.10563240200281143, 0.11084016412496567, 0.06060846149921417, 0.08072569966316223, -0.004276443272829056, 0.10258391499519348, 0.15537092089653015, -0.07761725038290024, -0.16315022110939026, -0.06706804037094116, 0.04357939586043358, -0.09726662188768387, -0.09602111577987671, 0.030301189050078392, -0.006208488252013922, 0.15729139745235443, -0.03721684589982033, 0.04928135499358177, -0.21039369702339172, 0.12590867280960083, -0.0422750748693943, -0.0998142659664154, -0.10710429400205612, -0.027877362444996834, -0.1284402459859848, 0.11867202073335648, -0.10538376867771149, -0.019730927422642708, -0.14301736652851105, 0.13749045133590698, -5.958432302577421e-05, -0.0675472691655159, -0.11745985597372055, -0.022357825189828873, 0.05926554277539253, -0.01901113986968994, 0.20455090701580048, 0.009616978466510773, -0.06686490029096603, -0.3166593313217163, 0.009906084276735783, 0.24465610086917877, 0.09740280359983444], [-0.152338907122612, -0.024540722370147705, 0.028292395174503326, 0.1343889683485031, -0.12353236973285675, -0.026823190972208977, -0.09638552367687225, 0.1890421360731125, 0.1732107549905777, -0.00823160819709301, 0.02773081138730049, -0.18407616019248962, -0.14929139614105225, -0.032129690051078796, -0.04295264929533005, -0.17529919743537903, 0.053157731890678406, 0.015986882150173187, 0.0738985687494278, 0.0005866822320967913, -0.12120893597602844, -0.09885186702013016, -0.06191931664943695, -0.04421466961503029, 0.02990659698843956, 0.14507396519184113, -0.04922895133495331, 0.0014824155950918794, 0.03250069171190262, 0.14975318312644958, -0.24304114282131195, 0.05299896001815796, 0.15767580270767212, 0.07179860770702362, -0.05602063238620758, -0.2006576508283615, -0.016706256195902824, 0.0951806902885437, -0.16940850019454956, -0.07599654048681259, -0.01910695806145668, -0.07561969757080078, 0.05971375107765198, 0.060195647180080414, -0.12863266468048096, -0.037645138800144196, -0.0777258574962616, 0.14063088595867157, -0.059646859765052795, -0.06206801161170006, -0.13660545647144318, 0.109315425157547, -0.032768577337265015, 0.08667966723442078, 0.14179198443889618, -0.08950405567884445, -0.19974815845489502, -0.02343795821070671, 0.02245086431503296, 0.054880570620298386, -0.13368536531925201, -0.2047676295042038, -0.0008254367276094854, 0.15152153372764587, 0.10884639620780945, -0.027067070826888084, 0.06284179538488388, 0.0688047781586647, 0.16860076785087585, -0.09663866460323334, -0.1365864872932434, -0.18762078881263733, -0.016808029264211655, 0.03690424561500549, -0.10577350109815598, 0.06501384824514389, -0.02625243179500103, -0.0060021234676241875, 0.11020093411207199, -0.11289625614881516, 0.08840365707874298, -0.023769034072756767, 0.12807497382164001, 0.032472677528858185, -0.04226326569914818, 0.1062193512916565, -0.12502214312553406, -0.08089547604322433, 0.14690427482128143, -0.0366470068693161, -0.07000446319580078, -0.06285206973552704, 0.15113559365272522, -0.09751754254102707, -0.10279283672571182, -0.09199652820825577, 0.06107400730252266, 0.1313612163066864, 0.00987365934997797, 0.12994083762168884, -0.10462203621864319, 0.1571068912744522, 0.0718657597899437, 0.13003836572170258, -0.02463420107960701, -0.02486579492688179, -0.10581369698047638, 0.009158305823802948, 0.02122064307332039, -0.072971411049366, -0.1617809534072876, 0.12985891103744507, -0.12395091354846954, -0.08634547889232635, 0.05973691865801811, 0.09968001395463943, 0.023670723661780357, 0.027756111696362495, 0.11869625002145767, -0.10146509855985641, 0.13853086531162262, 0.1111375167965889, -0.14355437457561493, -0.08874142169952393, -0.010301236063241959, 0.020631998777389526, -0.02966633066534996, -0.0780801847577095, 0.19586431980133057, 0.03143308311700821, 0.12100882083177567, -0.004884980618953705, 0.20140595734119415, 0.08359650522470474, 0.05604765564203262, -0.15651321411132812, -0.03448573872447014, 0.16130009293556213, -0.06508339196443558, 0.07821975648403168, -0.0793069526553154, -0.06586326658725739, -0.03359690681099892, 0.09674794226884842, -0.0905139148235321, -0.09223223477602005, -0.088333360850811, 0.13421694934368134, -0.08577591180801392, 0.03263747692108154, 0.11531814932823181, 0.2564365565776825, -0.006587426643818617, 0.07774565368890762, -0.015523652546107769, -0.07399190217256546, 0.11389202624559402, -0.0636826902627945, 0.11227518320083618, 0.10534881055355072, 0.0044815815053880215, -0.1265357881784439, 0.007182106375694275, -0.04807122424244881, -0.09093548357486725, -0.10787393152713776, -0.012525048106908798, 0.08134422451257706, 0.08006326854228973, -0.15300731360912323, -0.14909902215003967, -0.12095519155263901, -0.2649838626384735, -0.09591173380613327, -0.1100243628025055, 0.03245805576443672, -0.08137203752994537, -0.1229642704129219, -0.05958683788776398, 0.05579187721014023, 0.16356350481510162, -0.022394469007849693, 0.07807343453168869, -0.3067258298397064, 0.04429564252495766, 0.04384906589984894, -0.009093687869608402, -0.007398413028568029, 0.1030479446053505, -0.047618888318538666, 0.1324073076248169, -0.06045832484960556, 0.1280232071876526, -0.06392091512680054, -0.1325865089893341, -0.12705758213996887, 0.1421077400445938, 0.08895810693502426, 0.027206186205148697, 0.06818623095750809, -0.07577550411224365, 0.17414677143096924, -0.16389812529087067, 0.04821275547146797, 0.09317556768655777, 0.1806706190109253, 0.30330130457878113, 0.09836319088935852], [-0.16066481173038483, -0.13677062094211578, 0.1939365714788437, -0.06778379529714584, -0.18085244297981262, 0.013273721560835838, -0.1650942862033844, 0.2260850965976715, 0.061771098524332047, 0.03343736752867699, 0.05223779380321503, -0.14281490445137024, 0.03035033866763115, -0.14332425594329834, -0.0068527269177138805, 0.09953880310058594, 0.08262539654970169, 0.12195112556219101, 0.061194196343421936, 0.10998489707708359, -0.1361013799905777, 0.12860643863677979, -0.10230366885662079, 0.05325626954436302, 0.046505752950906754, 0.039334170520305634, 0.044498663395643234, -0.0025168887805193663, -0.18139004707336426, -0.14685332775115967, 0.017250237986445427, -0.06369242072105408, -0.11770886182785034, -0.12754325568675995, -0.13399982452392578, -0.015322537161409855, 0.08911225944757462, -0.1072540134191513, -0.08160508424043655, 0.07272578030824661, 0.048433613032102585, 0.04106196388602257, -0.022468475624918938, -0.1654542237520218, -0.07330537587404251, 0.10539834201335907, 0.016991108655929565, 0.011712710373103619, 0.12779948115348816, -0.08850796520709991, 0.014690034091472626, -0.019970590248703957, 0.07845260202884674, -0.1112995371222496, 0.15304739773273468, 0.0016235403018072248, 0.09353788197040558, -0.1606793999671936, 0.05958632379770279, 0.18870410323143005, 0.052996885031461716, -0.06808491051197052, -0.171781525015831, 0.01451215147972107, -0.1828916072845459, -0.08593657612800598, 0.06003645062446594, 0.05560505762696266, -0.0868377834558487, 0.1975606381893158, 0.00123226351570338, -0.08443188667297363, 0.11274018883705139, -0.12816040217876434, 0.1002158522605896, -0.18640518188476562, -0.17032480239868164, -0.001743347616866231, 0.12117718905210495, 0.1078934371471405, -0.09455645829439163, 0.0576326884329319, -0.15804478526115417, -0.023446494713425636, -0.11357139050960541, 0.025974903255701065, 0.06430871039628983, -0.18367549777030945, 0.007753797806799412, 0.017681855708360672, -0.1184811145067215, -0.13922534883022308, 0.042687397450208664, 0.06600269675254822, 0.12349104136228561, 0.009786062873899937, 0.017576618120074272, 0.07539445906877518, -0.08905168622732162, -0.024295829236507416, 0.07256416976451874, -0.09022428840398788, -0.14233994483947754, 0.10766514390707016, -0.09113519638776779, -0.07432767003774643, -0.1790579855442047, -0.1620514690876007, 0.03195992857217789, 0.04215121269226074, -0.06529439240694046, 0.22009874880313873, -0.008136704564094543, -0.08865882456302643, 0.07869619876146317, -0.14652179181575775, -0.05287745222449303, 0.03660714626312256, -0.03989794850349426, -0.036191266030073166, -0.11284241080284119, 0.06939415633678436, 0.06084604188799858, 0.12659034132957458, -0.0870642438530922, -0.1544199287891388, -0.11246230453252792, 0.11164489388465881, 0.05295424908399582, -0.09385445713996887, -0.04929492995142937, -0.011028913781046867, -0.009612953290343285, 0.30360764265060425, -0.017922010272741318, -0.013680052943527699, -0.16487759351730347, -0.15647515654563904, -0.19637881219387054, 0.10963387787342072, -0.0891953706741333, -0.1020926684141159, -0.21333861351013184, 0.03139027580618858, -0.0027586540672928095, -0.20683078467845917, 0.23519498109817505, 0.07009334862232208, -0.06760835647583008, 0.13870401680469513, 0.14248205721378326, -0.23984114825725555, 0.1853395700454712, 0.000824148824904114, 0.012844770215451717, -0.21724045276641846, -0.11239144206047058, 0.12875626981258392, 0.07151541858911514, 0.09562234580516815, 0.13139399886131287, 0.02738838456571102, -0.03128502517938614, 0.15112866461277008, 0.09424029290676117, 0.06694817543029785, -0.04802394285798073, -0.010808913968503475, -0.11748692393302917, -0.08785136789083481, -0.024836137890815735, -0.011159568093717098, -0.05033396556973457, 0.005942893214523792, 0.0782216340303421, 0.0016763091553002596, -0.18420425057411194, -0.03588303551077843, -0.0060619753785431385, -0.08893489092588425, -0.18145987391471863, -0.10667164623737335, 0.05175907537341118, 0.06413498520851135, 0.043769266456365585, 0.1497451663017273, 0.15052759647369385, -0.3133231997489929, 0.11927736550569534, 0.1185968741774559, 0.15438346564769745, -0.0749451145529747, -0.006537391804158688, 0.07258222252130508, -0.054748643189668655, -0.031050169840455055, -0.03718137368559837, 0.06894193589687347, 0.027040986344218254, 0.05480713024735451, 0.27636730670928955, 0.2619735896587372, -0.23511075973510742, 0.2732740640640259, -0.357699990272522, 0.06253796070814133, -0.22883456945419312, -0.11613226681947708], [0.21023599803447723, -0.08939407765865326, -0.11468915641307831, 0.058384399861097336, 0.03512382507324219, 0.008859114721417427, 0.0024480195716023445, -0.061548925936222076, 0.02008446305990219, -0.030878761783242226, 0.09275608509778976, 0.11266498267650604, -0.09662090241909027, -0.021881641820073128, -0.11764761805534363, 0.14614079892635345, -0.10416717827320099, 0.04707346856594086, -0.0010022582719102502, 0.13576136529445648, 0.06986924260854721, 0.05123399943113327, -0.08013924956321716, -0.07790301740169525, -0.12348116189241409, -0.14371560513973236, -0.11449608206748962, 0.1128663718700409, -0.023609764873981476, 0.08948914706707001, 0.0832022950053215, -0.15550503134727478, -0.11506988853216171, -0.06386847794055939, -0.07750027626752853, -0.06877411901950836, 0.052558448165655136, 0.010340492241084576, 0.15501965582370758, 0.08578580617904663, -0.09751265496015549, 0.025989970192313194, -0.14658232033252716, 0.008779333904385567, -0.017810791730880737, -0.04769308492541313, -0.1425517499446869, 0.09647046029567719, 0.12529894709587097, 0.02178976684808731, 0.14420640468597412, 0.13688461482524872, -0.13325682282447815, -0.009444114752113819, -0.10249022394418716, -0.13332033157348633, 0.01947173662483692, -0.23583659529685974, -0.11776433140039444, -0.07466904073953629, 0.06806826591491699, 0.020238520577549934, -0.11456901580095291, 0.030224772170186043, -0.05788234621286392, 0.008124545216560364, 0.14814522862434387, -0.006272857077419758, -0.12423736602067947, -0.10440708696842194, -0.02174360863864422, 0.088448666036129, -0.1995459645986557, -0.04368021711707115, -0.024207914248108864, 0.13347581028938293, -0.03073875792324543, -0.06692647188901901, -0.04980238899588585, -0.04505511000752449, -0.013922479003667831, -0.15401577949523926, 0.06346221268177032, -0.009496727026998997, -0.05149255320429802, -0.06870099157094955, -0.0004897346952930093, -0.1404878944158554, -0.014772255904972553, -0.07416900247335434, -0.12581703066825867, 0.061392899602651596, 0.0795525312423706, -0.12791962921619415, 0.08421044051647186, 0.038108035922050476, -0.007646212819963694, 0.03875524923205376, -0.07785967737436295, -0.11195474117994308, 0.1672629415988922, -0.12508592009544373, 0.00021258257038425654, -0.04955904185771942, -0.0011373228626325727, -0.0265633687376976, 0.03697357699275017, 0.019649842754006386, -0.10648989677429199, -0.106184221804142, 0.07720482349395752, -0.19973096251487732, -0.07107292860746384, -0.02226053550839424, -0.0755692720413208, -0.20490455627441406, -0.04728648066520691, 0.10536226630210876, -0.09558162093162537, -0.08725783228874207, 0.13473521173000336, -0.12209433317184448, 0.04121826961636543, 0.040104225277900696, -0.13089631497859955, -0.1042972058057785, 0.06777311861515045, -0.10501857846975327, -0.06925926357507706, -0.1138007640838623, -0.21428512036800385, -0.10760681331157684, -0.2798881232738495, -0.20384927093982697, -0.12252382934093475, -0.09594389796257019, 0.033189356327056885, -0.04078198969364166, 0.019236156716942787, -0.05946837365627289, 0.06097503378987312, 0.009561736136674881, -0.114207424223423, -0.07234802097082138, -0.2523089647293091, -0.16892263293266296, -0.0368313193321228, 0.06324205547571182, -0.09632972627878189, 0.07864231616258621, 0.05608509108424187, -0.2454870045185089, -0.08425752818584442, -0.09812288731336594, 0.13207265734672546, 0.14573046565055847, 0.023427465930581093, -0.11254963278770447, 0.13393132388591766, 0.045793045312166214, -0.05294157937169075, -0.08140868693590164, -0.00506701460108161, 0.13626937568187714, -0.050509560853242874, 0.12980373203754425, -0.025722559541463852, 0.13136298954486847, -0.03292298689484596, -0.05159411579370499, 0.13313624262809753, 0.06878188252449036, 0.05492771416902542, 0.015485366806387901, -0.05429576337337494, -0.15947027504444122, 0.012563037686049938, -0.06214126572012901, 0.28302162885665894, 0.16436822712421417, -0.06926574558019638, 0.09556227177381516, 0.025399643927812576, 0.10664450377225876, -0.03487526252865791, 0.08461382240056992, -0.1558832973241806, -0.136704683303833, 0.012043111957609653, 0.05954392999410629, -0.030649244785308838, -0.029800867661833763, 0.14210005104541779, -0.1330142319202423, 0.10785337537527084, -0.12242348492145538, -0.048488352447748184, -0.15460124611854553, -0.15869155526161194, 0.04484621062874794, 0.39886510372161865, 0.27483752369880676, -0.14728014171123505, 0.3453845679759979, -0.25750893354415894, -0.057911429554224014, -0.3694635033607483, 0.13310979306697845], [-0.04032115265727043, 0.07836249470710754, 0.036234814673662186, -0.028154978528618813, 0.02501806616783142, 0.23557493090629578, 0.09417970478534698, 0.10206472128629684, -0.018122905865311623, -0.1192181184887886, -0.14341303706169128, -0.04194752499461174, -0.01885688677430153, -0.14812950789928436, -0.13269446790218353, 0.018059104681015015, -0.13372504711151123, 0.09950891882181168, 0.06570140272378922, 0.13601559400558472, 0.08979126811027527, 0.13035865128040314, 0.04654020071029663, 0.05015190318226814, -0.027051130309700966, -0.0502246618270874, -0.12209777534008026, -0.052472587674856186, 0.054174646735191345, 0.04669585078954697, -0.04673745855689049, -0.14385080337524414, 0.07396478950977325, -0.15559767186641693, 0.141760915517807, -0.09383469074964523, -0.09072218090295792, 0.04061564803123474, 0.1759912222623825, -0.09922657161951065, -0.11349662393331528, 0.10321447253227234, 0.13330167531967163, 0.21546009182929993, 0.07907740771770477, -0.03653839975595474, 0.15691395103931427, 0.09988940507173538, 0.1343044638633728, -0.14620129764080048, -0.15315237641334534, 0.1561436653137207, 0.02008260414004326, 0.04481528326869011, 0.04892868548631668, -0.10816678404808044, -0.08644326031208038, 0.021351434290409088, 0.19062545895576477, 0.014662995003163815, 0.08697628229856491, -0.009521298110485077, 0.2307548224925995, 0.01923680305480957, 0.18657813966274261, 0.0936594307422638, -0.06752138584852219, -0.20125676691532135, 0.356039434671402, 0.0831167995929718, 0.005956671666353941, 0.062254004180431366, -0.032796360552310944, -0.2627016305923462, 0.10314998775720596, -0.27317169308662415, 0.08465699106454849, -0.009327986277639866, -0.2130838930606842, 0.12988430261611938, -0.27521267533302307, 0.10394920408725739, -0.37581637501716614, -0.28346747159957886, -0.03418958932161331, -0.10121861845254898, 0.049856558442115784, -0.13925746083259583, -0.15206782519817352, -0.06826209276914597, -0.024647125974297523, 0.08399523049592972, -0.054706964641809464, -0.0561353974044323, 0.1406935304403305, -0.062170106917619705, 0.02786494605243206, -0.0220619086176157, -0.07648484408855438, -0.07486993074417114, 0.03746287524700165, -0.10373469442129135, -0.08385491371154785, 0.08248995989561081, 0.035380538552999496, -0.2252710610628128, 0.0615537129342556, -0.03599577397108078, 0.1576818972826004, 0.09662862122058868, -0.0034088282845914364, -0.13375580310821533, -0.07240290194749832, 0.14855487644672394, 0.02568667195737362, 0.08080562204122543, -0.011033737100660801, 0.04867168515920639, -0.047510698437690735, 0.005518477410078049, -0.15043000876903534, 0.0699770525097847, -0.11247649788856506, 0.02097080461680889, 0.025856075808405876, -0.02896237187087536, 0.1332094520330429, 0.11154556274414062, 0.07008637487888336, -0.08169124275445938, 0.07966203987598419, 0.18255062401294708, 0.07775148004293442, 0.07387211173772812, -0.17748303711414337, -0.1242896020412445, 0.05145519971847534, 0.15516671538352966, -0.0832270160317421, 0.05634159967303276, 0.060480404645204544, 0.1484835296869278, -0.06401629000902176, 0.023535100743174553, -0.2034767121076584, -0.17223356664180756, 0.21691016852855682, 0.0013929179403930902, -0.19017812609672546, 0.008137245662510395, -0.04520271345973015, 0.2111728936433792, -0.26949456334114075, -0.144972026348114, -0.016182348132133484, 0.050513237714767456, 0.03882516548037529, 0.06821276992559433, -0.10076022893190384, -0.053831279277801514, -0.14952030777931213, -0.15419460833072662, -0.06135481595993042, 0.055143699049949646, -0.06012478470802307, 0.014405588619410992, 0.034277793020009995, 0.09664739668369293, 0.13044488430023193, -0.13792085647583008, -0.012914050370454788, -0.07893052697181702, 0.24601943790912628, 0.016631130129098892, 0.10770083218812943, -0.004754452034831047, -0.11570487916469574, 0.067617267370224, 0.06024995818734169, -0.05528267100453377, -0.08497720956802368, -0.06878684461116791, 0.09616095572710037, -0.2625957727432251, 0.14578519761562347, 0.05423407256603241, 0.0075797392055392265, -0.41708508133888245, 0.14756648242473602, 0.015333498828113079, -0.08473841100931168, -0.0038440595380961895, -0.0801362544298172, 0.01353540737181902, -0.023021768778562546, -0.14757663011550903, -0.08553329110145569, -0.07521513849496841, 0.09064941108226776, -0.1455659717321396, 0.23531198501586914, 0.5267782211303711, -0.1363210827112198, 0.0041584051214158535, -0.16791854798793793, -0.21916493773460388, -0.20414258539676666, -0.11205456405878067], [0.018031219020485878, -0.22431662678718567, 0.10575970262289047, 0.04051433131098747, -0.022334927693009377, 0.09517315775156021, 0.03925417736172676, 0.037641312927007675, -0.1808701753616333, -0.046636734157800674, 0.19855812191963196, 0.11326867341995239, -0.04506425932049751, -0.1311476230621338, 0.014392528682947159, 0.019039953127503395, 0.15404728055000305, 0.10689620673656464, 0.058053188025951385, -0.13120050728321075, -0.02564847655594349, 0.1374482810497284, -0.02315676212310791, 0.032893650233745575, -0.10545232892036438, -0.028524573892354965, 0.027045035734772682, -0.1472296416759491, 0.11546030640602112, 0.06402741372585297, 0.11173558235168457, 0.056139931082725525, -0.20708128809928894, 0.026307592168450356, -0.08011016994714737, 0.19946475327014923, 0.00708630820736289, 0.07782901078462601, 0.0602654404938221, 0.02651727758347988, 0.09233707189559937, -0.09819860011339188, 0.15064381062984467, -0.07054083049297333, 0.07007256150245667, 0.09548391401767731, 0.14980146288871765, 0.0026280698366463184, 0.01731094904243946, 0.08294845372438431, -0.07822921872138977, -0.09378889948129654, 0.015271037817001343, -0.11928584426641464, 0.02012602426111698, -0.15252196788787842, -0.02563708834350109, -0.14308233559131622, 0.011152394115924835, -0.11536528170108795, 0.11123020201921463, 0.12233476340770721, 0.0904887393116951, -0.07810626178979874, -0.010513263754546642, -0.09670189023017883, -0.057580843567848206, -0.1319923847913742, 0.031107379123568535, 0.1129850298166275, 0.07614021003246307, 0.01006575021892786, -0.028670789673924446, -0.05310371145606041, 0.0778934583067894, -0.06864626705646515, -0.012883263640105724, -0.11830862611532211, 0.029088687151670456, 0.0657530352473259, -0.1455845683813095, -0.012765505351126194, 0.1030333936214447, -0.15121622383594513, 0.050005897879600525, 0.11172348260879517, 0.07502661645412445, 0.019284216687083244, -0.1538759022951126, -0.15738597512245178, 0.052928708493709564, 0.06660811603069305, 0.07978450506925583, 0.02966424822807312, 0.06650662422180176, 0.09812311083078384, 0.11536327004432678, -0.04016021266579628, 0.06278900802135468, 0.11772139370441437, 0.092667356133461, -0.1542327105998993, 0.0630582645535469, -0.19215460121631622, 0.06634163111448288, -0.0639529600739479, -0.09667894244194031, -0.05447518825531006, 0.13748028874397278, -0.012283910065889359, -0.0642428994178772, -0.15781770646572113, -0.09683943539857864, 0.02206781506538391, -0.059459589421749115, -0.04232710227370262, -0.08380834013223648, 0.0757535919547081, -0.019503379240632057, 0.06138256564736366, 0.09815177321434021, 0.0021188019309192896, -0.11168668419122696, -0.12655766308307648, 0.013078417629003525, 0.12624725699424744, 0.11169588565826416, -0.011881583370268345, 0.026851899921894073, 0.170176699757576, -0.06358413398265839, -0.19047780334949493, -0.08366985619068146, -0.07332314550876617, -0.0081262132152915, -0.10328715294599533, 0.09115104377269745, 0.046563826501369476, -0.11429817974567413, 0.1038491278886795, -0.14899711310863495, 0.03020942024886608, 0.13697995245456696, 0.16351239383220673, -0.04915037378668785, -0.039880089461803436, 0.040718451142311096, 0.031065357849001884, -0.12179138511419296, -0.10138370841741562, -0.15328232944011688, -0.27779749035835266, -0.033561304211616516, 0.020481863990426064, 0.07342814654111862, 0.11705651879310608, -0.09722548723220825, 0.10547942668199539, -0.15242233872413635, 0.01814746856689453, -0.010000058449804783, -0.05901751294732094, -0.09869283437728882, 0.13513562083244324, 0.1532091647386551, 0.01998872309923172, -0.1197674423456192, -0.09185540676116943, -0.15689554810523987, 0.12151060253381729, -0.005282184109091759, -0.011537175625562668, 0.23865371942520142, 0.022252503782510757, 0.09680896997451782, -0.2029464840888977, -0.04297777637839317, 0.07040109485387802, -0.025373242795467377, -0.045837946236133575, -0.16171017289161682, -0.026356862857937813, 0.04745437204837799, 0.1711655706167221, -0.0718897357583046, -0.10269956290721893, -0.06742177903652191, -0.3189738988876343, 0.10206067562103271, 0.025678003206849098, -0.07889463752508163, 0.012511155568063259, 0.08715800940990448, -0.03735039755702019, -0.08870212733745575, -0.09665943682193756, 0.11123162508010864, 0.13317376375198364, -0.03503758832812309, -0.01057776901870966, 0.370553582906723, 0.019513828679919243, 0.03329061344265938, 0.09071557968854904, 0.0031376087572425604, -0.12922023236751556, -0.2781514823436737, 0.03103991225361824], [0.09765545278787613, -0.11247450858354568, -0.1517551690340042, 0.09073665738105774, 0.05920080468058586, -0.05792718753218651, 0.08058085292577744, -0.13437144458293915, 0.06415822356939316, 0.11313048750162125, 0.24348357319831848, 0.12217579782009125, -0.116797536611557, 0.14123544096946716, 0.08073558658361435, 0.01932474412024021, -0.12501494586467743, 0.0940345823764801, 0.009360075928270817, -0.05087282136082649, -0.032378967851400375, -0.052105505019426346, 0.039686642587184906, -0.03169787675142288, 0.0150863416492939, -0.0827128067612648, -0.12859614193439484, 0.12022999674081802, 0.08804301917552948, -0.12651121616363525, 0.030406977981328964, -0.035820335149765015, -0.15262174606323242, 0.13705547153949738, 0.06196648254990578, 0.04823789373040199, -0.133096382021904, 0.018344702199101448, -0.14239302277565002, 0.08364848792552948, -0.013452580198645592, -0.12011385709047318, -0.03291197121143341, 0.15568622946739197, -0.11282052844762802, 0.010016790591180325, -0.027549609541893005, 0.1362643539905548, 0.03898945823311806, -0.10235682129859924, 0.06762389093637466, 0.15634573996067047, -0.13700127601623535, -0.09500731527805328, -0.0706024244427681, 0.011360428296029568, 0.2426421344280243, -0.03615929186344147, -0.042373355478048325, -0.004684648010879755, 0.013555463403463364, 0.16838811337947845, 0.015659429132938385, 0.0986340120434761, -0.0075230468064546585, 0.1393149495124817, 0.1475922167301178, -0.04254200682044029, 0.12382136285305023, -0.11126075685024261, 0.016597744077444077, -0.10231945663690567, -0.17331399023532867, -0.003877128241583705, 0.08067356795072556, -0.0893261507153511, 0.0181615948677063, 0.08617886155843735, 0.061685092747211456, 0.042087722569704056, 0.01934804953634739, 0.15646059811115265, 0.023782480508089066, -0.05332256481051445, 0.15725979208946228, 0.056468524038791656, -0.13117162883281708, -0.006959402468055487, -0.14344248175621033, -0.05867253988981247, 0.05828732252120972, -0.02205490507185459, 0.14063039422035217, 0.07970251142978668, 0.008920840919017792, 0.10714805871248245, -0.007676421664655209, 0.08915847539901733, -0.056482113897800446, 0.03830038011074066, 0.17671135067939758, -0.2227950096130371, 0.024338822811841965, -0.15433643758296967, -0.07662343978881836, -0.11994803696870804, 0.03668707609176636, 0.020351264625787735, -0.05632992461323738, 0.060886092483997345, -0.034437038004398346, -0.20077182352542877, -0.14741790294647217, -0.01333659142255783, 0.06865071505308151, -0.10147039592266083, 0.0376385897397995, 0.07268893718719482, -0.1240915060043335, 0.15335489809513092, -0.05009739100933075, -0.0020120118279010057, 0.013482674956321716, -0.02156221866607666, -0.012328692711889744, 0.14742891490459442, 0.033414576202631, -0.016441525891423225, 0.012313636019825935, -0.08677931874990463, -0.10923939943313599, -0.13047382235527039, -0.10820107161998749, -0.06849652528762817, -0.0941593125462532, -0.11419456452131271, 0.11497654020786285, 0.04644535854458809, -0.04913720488548279, -0.0024698420893400908, 0.10545311868190765, -0.028225313872098923, 0.11549153923988342, 0.02742869034409523, -0.13131436705589294, 0.02686183527112007, -0.1346001774072647, -0.07633574306964874, 0.10533314198255539, 0.16554325819015503, -0.08133511245250702, -0.16041885316371918, 0.021545691415667534, 0.05129676312208176, 0.1682920604944229, 0.05052289739251137, -0.14144879579544067, -0.08139891922473907, 0.02113710343837738, 0.06501366943120956, 0.04680083692073822, -0.01203069556504488, -0.14987073838710785, 0.11245102435350418, 0.027816982939839363, -0.11455661058425903, 0.019580112770199776, -0.12382379174232483, -0.005506401415914297, -0.02930140495300293, 0.08347479999065399, -0.12440101057291031, 0.10988222807645798, -0.013916225172579288, -0.18491633236408234, -0.09577897191047668, 0.08688776195049286, 0.18140636384487152, 0.1214822307229042, 0.056359533220529556, -0.32472583651542664, -0.140265092253685, 0.1060674712061882, 0.041031546890735626, -0.13848872482776642, -0.057226501405239105, -0.06835650652647018, -0.16079050302505493, -0.06872033327817917, 0.0954432561993599, -0.08714691549539566, -0.07120553404092789, -0.07570865750312805, -0.11258786916732788, -0.07564347237348557, 0.14699259400367737, -0.15200218558311462, -0.09872467070817947, -0.01850982755422592, 0.04139088839292526, 0.09904185682535172, 0.06500616669654846, -0.09834054857492447, 0.10013680160045624, -0.09465165436267853, -0.11986345797777176, -0.3592354953289032, -0.043237436562776566], [-0.11762233078479767, -0.06602749228477478, -0.004633469972759485, 0.059666957706213, -0.21999652683734894, 0.16715244948863983, -0.24339473247528076, 0.0808967873454094, 0.009586072526872158, -0.13069605827331543, -0.12690284848213196, -0.12936851382255554, 0.09427326172590256, 0.1586698293685913, -0.0031368837226182222, -0.042029716074466705, -0.07303357124328613, -0.07671546190977097, 0.14323408901691437, 0.02699131891131401, -0.015191012062132359, -0.02151690609753132, 0.12930899858474731, -0.048170629888772964, -0.03844517469406128, -0.13573668897151947, -0.023701122030615807, 0.13746602833271027, -0.13854271173477173, 0.026127567514777184, -0.2605544924736023, -0.08071694523096085, -0.06606031954288483, -0.10795482993125916, -0.0811769887804985, -0.14202958345413208, -0.12482886761426926, 0.13491256535053253, -0.0072905695997178555, -0.07025055587291718, 0.011285285465419292, -0.022613953799009323, 0.022262316197156906, 0.09755807369947433, -0.15068821609020233, 0.05065973475575447, -0.1507359892129898, -0.0413680262863636, 0.09988902509212494, 0.0362577810883522, -0.09600287675857544, -0.05278099700808525, -0.07086067646741867, 0.04554259777069092, 0.11516165733337402, -0.04236876964569092, -0.24225415289402008, 0.0977209210395813, -0.06015811488032341, -0.07726339250802994, -0.060020774602890015, -0.01013555470854044, 0.05248653143644333, 0.05725311487913132, -0.002030173083767295, 0.023034999147057533, 0.04340813681483269, -0.08472907543182373, -0.06464441120624542, -0.12957866489887238, -0.15164481103420258, 0.06541142612695694, 0.05204389616847038, -0.12243117392063141, 0.0407022088766098, -0.08967830240726471, 0.005418997257947922, -0.08267150074243546, 0.09481187909841537, 0.06919285655021667, -0.08002429455518723, -0.14286984503269196, 0.1523941308259964, 0.22712960839271545, -0.09336503595113754, -0.033302564173936844, 0.0034815187100321054, 0.15602809190750122, -0.12940245866775513, -0.08650742471218109, 0.0897807776927948, -0.03438340872526169, 0.0756848081946373, -0.06838898360729218, -0.011239594779908657, -0.10014542192220688, 0.12697377800941467, -0.08343001455068588, 0.031447384506464005, -0.012096185237169266, -0.16867873072624207, -0.024673616513609886, -0.12845107913017273, 0.003983835224062204, 0.06371092796325684, -0.1474681794643402, 0.06530177593231201, 0.17592096328735352, 0.05845905467867851, -0.025567011907696724, -0.011605074629187584, 0.12842494249343872, 0.07671625167131424, -0.11171946674585342, -0.1573057919740677, 0.14293447136878967, 0.1395452320575714, -0.12252160906791687, -0.004626718815416098, -0.022244220599532127, 0.07076573371887207, 0.1276044398546219, 0.10814031958580017, 0.08574910461902618, -0.05956770479679108, 0.09970153123140335, -0.10835988074541092, 0.12479723989963531, 0.11682450771331787, -0.039298705756664276, -0.05127480626106262, -0.02147623710334301, 0.0606200285255909, 0.1216411143541336, -0.040599655359983444, -0.10704781860113144, -0.0338461734354496, -0.030764088034629822, -0.023136604577302933, -0.06667336821556091, -0.07203996926546097, 0.0012819755356758833, 0.029986144974827766, 0.09334176033735275, -0.06848692148923874, -0.022595375776290894, -0.02323785610496998, 0.20220142602920532, -0.23133771121501923, 0.06555089354515076, 0.09098953753709793, 0.06890493631362915, 0.09085877984762192, 0.1100844219326973, 0.0031174039468169212, -0.03665812313556671, 0.0621248334646225, 0.13385780155658722, -0.13352392613887787, 0.042213067412376404, -0.07933266460895538, 0.002176834037527442, -0.07273640483617783, 0.03638603165745735, -0.12025755643844604, -0.12782661616802216, 0.09628194570541382, 0.13290885090827942, 0.12409510463476181, -0.020177394151687622, 0.06306436657905579, 0.13610884547233582, -0.10827644169330597, -0.04129543527960777, 0.1366979032754898, 0.0408635251224041, 0.02644871361553669, -0.18320731818675995, -0.016324877738952637, -0.03552911430597305, 0.0646391212940216, 0.13465934991836548, 0.11824468523263931, 0.0011315420269966125, 0.005134131759405136, 0.08992871642112732, -0.09749119728803635, 0.03480585291981697, 0.14595186710357666, 0.06424647569656372, -0.0347214974462986, 0.07507866621017456, -0.09362824261188507, 0.08131109923124313, -0.11906306445598602, 0.080739825963974, 0.04847347363829613, 0.024078350514173508, 0.04805195331573486, 0.007997775450348854, -0.13018789887428284, 0.1219908595085144, -0.22348661720752716, 0.20781509578227997, -0.4170823097229004, -0.01681656949222088, 0.017298951745033264, 0.03446407988667488], [0.25834882259368896, 0.07310021668672562, -0.08902609348297119, -0.009420749731361866, 0.06878867000341415, -0.04381299763917923, 0.16227838397026062, 0.07859132438898087, 0.056462354958057404, 0.0068305060267448425, 0.23010316491127014, -0.049351222813129425, 0.003671439131721854, 0.03769124671816826, 0.018029330298304558, 0.023887692019343376, -0.15522654354572296, -0.035838719457387924, 0.02129431627690792, 0.12726734578609467, -0.0065391333773732185, -0.02148079127073288, -0.05588259920477867, 0.026833614334464073, 0.1387808918952942, 0.04256599396467209, 0.006033764220774174, 0.03052591159939766, 0.09184425324201584, -0.038542844355106354, 0.13549162447452545, -0.07798102498054504, -0.014827113598585129, 0.029410213232040405, -0.17604456841945648, 0.10629185289144516, -0.016073936596512794, 0.014126178808510303, 0.11802694946527481, 0.3008593022823334, 0.1073237806558609, 0.11332006752490997, 0.05657550320029259, 0.12688316404819489, 0.10717376321554184, 0.09366674721240997, 0.10636630654335022, -0.1268891990184784, -0.023972582072019577, 0.14042434096336365, -0.08563728630542755, -0.009042545221745968, -0.011075718328356743, -0.062360405921936035, 0.020207906141877174, -0.025554632768034935, 0.2086750566959381, -0.012249507009983063, -0.0955050066113472, -0.129958838224411, 0.008024187758564949, 0.11445555835962296, 0.014512077905237675, 0.06021131947636604, 0.17978990077972412, 0.10463454574346542, 0.0018238667398691177, 0.05205614119768143, -0.07102658599615097, -0.18575377762317657, 0.009096374735236168, -0.13901260495185852, 0.006471928209066391, 0.06436795741319656, 0.006515902932733297, -0.08206810802221298, -0.1940128654241562, -0.1275315284729004, -0.1864698976278305, 0.10735070705413818, 0.11159868538379669, -0.00416526198387146, 0.03706839680671692, 