{"iterations": 1000, "returned_params": [[[[1.5707963267948968, -8.22374715699738e-16], [1.5707963267948968, -8.22374715699738e-16], [1.5707963267948968, -8.22374715699738e-16], [1.5707963267948968, -8.22374715699738e-16], [1.5707963267948968, -8.22374715699738e-16], [1.5707963267948968, -8.22374715699738e-16], [1.5707963267948968, -8.22374715699738e-16], [1.5707963267948968, -8.22374715699738e-16], [1.5707963267948968, -8.22374715699738e-16], [1.5707963267948968, -8.22374715699738e-16]], [[0.0, 0.0], [0.0, 0.0], [0.0, 0.0], [0.0, 0.0], [0.0, 0.0], [0.0, 0.0], [0.0, 0.0], [0.0, 0.0], [0.0, 0.0], [0.0, 0.0]], [[3.18890086146821, 3.0991564122961233, 0.0, 0.0, 3.1806997320379202, 3.2103103432453817, 0.0, 0.0, 3.178885254442746, 3.1886086853122646, 0.0, 0.0, 3.207000595503317, 2.9038252001099822, 0.0], [3.1245369549555617, 3.0041030125855226, 0.0, 0.0, 3.123403494087852, 3.1535572030946315, 0.0, 0.0, 3.1154861118752626, 3.1183474019575494, 0.0, 0.0, 3.092336789565021, 3.106046309762986, 0.0], [3.084034422436073, 2.9317822393769717, 0.0, 0.0, 3.1164211304448437, 3.174372630377991, 0.0, 0.0, 3.1175913232165464, 3.214236768426426, 0.0, 0.0, 3.0647103265558533, 2.536263124035344, 0.0], [3.0531305275670735, 3.007917584284807, 0.0, 0.0, 3.0696619648108614, 3.085859781972348, 0.0, 0.0, 3.037917479801319, 2.9857416614878076, 0.0, 0.0, 3.0440743849837006, 3.2684916719986346, 0.0], [3.1569886641223923, 3.0528900677073723, 0.0, 0.0, 3.1483243764698905, 3.16456384516727, 0.0, 0.0, 3.1444373245191306, 3.1524758655689675, 0.0, 0.0, 3.1775305438033232, 2.9253542712719183, 0.0], [3.1887783664841214, 3.1206613394697373, 0.0, 0.0, 3.189372889951465, 3.246700960419716, 0.0, 0.0, 3.17561873147128, 3.2190525185219125, 0.0, 0.0, 3.191589740302413, 3.0084048047101057, 0.0], [3.127178367587319, 2.97046003147848, 0.0, 0.0, 3.123171246369516, 3.1258135871987243, 0.0, 0.0, 3.1301274794696328, 3.106997692183448, 0.0, 0.0, 3.134833826343738, 2.828641357332961, 0.0], [3.134478964679, 2.9699740666221333, 0.0, 0.0, 3.143835180882963, 3.1737150686747735, 0.0, 0.0, 3.134274570751447, 3.2063410420667338, 0.0, 0.0, 3.1585151479676132, 2.6360043804488464, 0.0], [3.1578106727849184, 2.98837486298838, 0.0, 0.0, 3.155035615564872, 3.157349381788786, 0.0, 0.0, 3.1619915041704236, 3.152581840415601, 0.0, 0.0, 3.177941991903471, 2.7429658077104984, 0.0], [3.1580194231047902, 2.9653593523202573, 0.0, 0.0, 3.1600386666485183, 3.1872124520839504, 0.0, 0.0, 3.1583091115095443, 3.2049959633827867, 0.0, 0.0, 3.1688385952563753, 2.6416825325441677, 0.0]], [[0.0, 0.0], [0.0, 0.0], [0.0, 0.0], [0.0, 0.0], [0.0, 0.0], [0.0, 0.0], [0.0, 0.0], [0.0, 0.0], [0.0, 0.0], [0.0, 0.0]]], [[[0.0, 0.0], [0.0, 0.0], [0.0, 0.0], [0.0, 0.0], [0.0, 0.0], [0.0, 0.0], [0.0, 0.0], [0.0, 0.0], [0.0, 0.0], [0.0, 0.0]], [[0.0, 0.0], [0.0, 0.0], [0.0, 0.0], [0.0, 0.0], [0.0, 0.0], [0.0, 0.0], [0.0, 0.0], [0.0, 0.0], [0.0, 0.0], [0.0, 0.0]], [[0.0, 5.393943628239317, 0.0, 0.0, 0.0, 3.8159825422864286, 0.0, 0.0, 0.0, 5.452097447161028, 0.0, 0.36619093780216977, 0.0, 3.436402052231032, 0.0], [0.0, 5.012187776992042, 0.0, 0.0, 0.0, 3.6114474201924702, 0.0, 0.0, 0.0, 4.941662632601832, 0.0, 0.2684881269633944, 0.0, 3.1560335529692556, 0.0], [0.0, 5.1104834902467955, 0.0, 0.0, 0.0, 3.7248198590538952, 0.0, 0.0, 0.0, 5.154919091095378, 0.0, 0.34713981633824426, 0.0, 3.2076164146798996, 0.0], [0.0, 4.264289897851464, 0.0, 0.0, 0.0, 3.126679878877205, 0.0, 0.0, 0.0, 4.496405869130526, 0.0, 0.21090727066967052, 0.0, 2.8785751378263758, 0.0], [0.0, 4.704708564243023, 0.0, 0.0, 0.0, 3.5147622317528557, 0.0, 0.0, 0.0, 4.768950307546801, 0.0, 0.2621104509200836, 0.0, 2.9690841334831686, 0.0], [0.0, 5.069198665183757, 0.0, 0.0, 0.0, 3.6814333384805726, 0.0, 0.0, 0.0, 5.249905309409595, 0.0, 0.3596279850532848, 0.0, 3.304064004903526, 0.0], [0.0, 5.193194923351127, 0.0, 0.0, 0.0, 3.7491441189943733, 0.0, 0.0, 0.0, 5.251559826783847, 0.0, 0.34592377849883427, 0.0, 3.342034345334922, 0.0], [0.0, 5.153233227561731, 0.0, 0.0, 0.0, 3.756440740903271, 0.0, 0.0, 0.0, 5.280939511718719, 0.0, 0.34877413553633113, 0.0, 3.289257105642363, 0.0], [0.0, 5.350178126821345, 0.0, 0.0, 0.0, 3.8089739554386965, 0.0, 0.0, 0.0, 5.258796299083466, 0.0, 0.30251491657434687, 0.0, 3.3181269130447406, 0.0], [0.0, 4.894861023100184, 0.0, 0.0, 0.0, 3.3762957908113322, 0.0, 0.0, 0.0, 5.1541746377076265, 0.0, 0.33238975436696017, 0.0, 3.359879066042712, 0.0]], [[0.0, 0.0], [0.0, 0.0], [0.0, 0.0], [0.0, 0.0], [0.0, 0.0], [0.0, 0.0], [0.0, 0.0], [0.0, 0.0], [0.0, 0.0], [0.0, 0.0]]]], "final_fidelity": 0.9434735681684571, "final_purity": -1, "optimized_trainable_parameters": {"initial_params": [[1.5707963267948968, -8.22374715699738e-16], [-1.3175074087819514, 1.3318745472976856], [0.4772778420518262, 1.1923763861901362, -0.9010030875098405, -0.0631237241149105, 0.010175745932540366, -0.6944343811378926, -0.5045604229512405, 1.226988064481387, 0.4745049839226395, -1.2839033335156373, -0.9735639795031124, 0.22918536062935532, -0.3587501437208183, -0.8879627293750545, -1.1919668679752333], [0.7871853617856772, -0.06394168367583902]], "rnn_params": {"params": {"Dense_0": {"bias": [-0.03669905290007591, 0.4801180362701416, 0.022454997524619102, -0.24571974575519562, 0.04246858134865761, 0.3205150067806244, -0.004694615490734577, 0.15978224575519562, -0.1260429173707962, 0.00490539288148284, -0.11649555712938309, 0.11081086844205856, -0.01099151186645031, 0.2338939905166626, -0.08329388499259949, 0.3597971200942993, -0.1204717755317688, -0.320229172706604, 0.30531540513038635, -0.08372002840042114, 0.08356411010026932, -0.06484144181013107, 0.31825387477874756, -0.1255815476179123, 0.42032480239868164, 0.08224894851446152, 0.1544567495584488, 0.2858619689941406, 0.2411554753780365, 0.33545276522636414], "kernel": [[-0.3268280625343323, -0.19396300613880157, 0.4047527313232422, -0.2780349552631378, 0.17257428169250488, -0.026791706681251526, -0.16679100692272186, 0.1958981454372406, -0.19925905764102936, -0.1772196739912033, -0.20938678085803986, 0.21682056784629822, 0.1305929720401764, -0.11097855120897293, -0.15857204794883728, 0.04250973463058472, -0.28321418166160583, -0.07215332239866257, -0.26501765847206116, 0.014252816326916218, -0.09980101883411407, 0.00535094877704978, -0.29186439514160156, -0.21519754827022552, -0.21457818150520325, -0.02756880410015583, 0.3281877338886261, -0.17760899662971497, 0.1753414422273636, -0.0018254482420161366], [0.10899019241333008, -0.1319425255060196, -0.08440954238176346, -0.15159687399864197, 0.15333329141139984, -0.29576677083969116, 0.20003357529640198, -0.10150807350873947, -0.13982589542865753, -0.3006129860877991, -0.19428075850009918, 0.419450581073761, -0.21448378264904022, 0.20714695751667023, 0.22636678814888, 0.10515572130680084, 0.06948166340589523, -0.3004097044467926, 0.19872543215751648, -0.1743718683719635, 0.25154441595077515, -0.31929802894592285, -0.018276426941156387, -0.10016853362321854, 0.13118024170398712, -0.16120320558547974, 0.23221084475517273, -0.13944195210933685, -0.25093400478363037, -0.17610810697078705], [0.07088655978441238, -0.44572919607162476, -0.013072457164525986, 0.023942196741700172, -0.3328101336956024, -0.20272944867610931, 0.4275793731212616, -0.5272254347801208, -0.1094905287027359, -0.26773157715797424, 0.1451549530029297, -0.39349550008773804, -0.20802414417266846, -0.3309399485588074, 0.06257153302431107, -0.03749724477529526, 0.14091408252716064, -0.041332196444272995, 0.057102084159851074, -0.0775228962302208, 0.012440933845937252, 0.34987708926200867, 0.12613093852996826, 0.08755012601613998, 0.049165915697813034, -0.1528623402118683, 0.5332688689231873, 0.2406628429889679, 0.08955670148134232, -0.17644113302230835], [0.05101519823074341, 0.008030476979911327, 0.17094886302947998, 0.36334773898124695, 0.300818532705307, -0.321431964635849, 0.023556960746645927, 0.050882961601018906, 0.28709015250205994, 0.24011412262916565, -0.08740276843309402, 0.03870624303817749, 0.38380852341651917, 0.012650545686483383, 0.19942939281463623, 0.686407744884491, 0.3120588958263397, -0.028028152883052826, 0.11873427033424377, -0.02970948815345764, -0.18772268295288086, -0.11508075147867203, -0.2371363788843155, 0.21551106870174408, -0.235624298453331, -0.035401735454797745, 0.38172054290771484, -0.08291590213775635, -0.27460500597953796, -0.1972895711660385], [-0.23173104226589203, -0.13377641141414642, 0.016061969101428986, 0.18693581223487854, 0.1762266457080841, -0.15086254477500916, 0.04286109656095505, -0.12700362503528595, 0.1784946471452713, -0.009982275776565075, -0.2892053723335266, -0.013716774061322212, -0.06104833260178566, 0.3089941740036011, -0.09109871089458466, -0.2702641487121582, -0.1493719071149826, 0.04526051878929138, -0.12806516885757446, -0.13470616936683655, -0.2068745195865631, -0.042304132133722305, 0.05731482431292534, 0.11973489075899124, 0.04643731564283371, 0.02124890685081482, 0.17373153567314148, 0.15068909525871277, -0.37260738015174866, -0.27334287762641907], [-0.07834495604038239, 0.1258544772863388, -0.11331704258918762, 0.2897421717643738, -0.08502247929573059, -0.19625520706176758, -0.28654226660728455, 0.23874416947364807, 0.32716837525367737, 0.0730396956205368, -0.0966123640537262, 0.19928885996341705, -0.00013245503942016512, 0.3733745515346527, 0.09110306948423386, 0.07818018645048141, -0.008426818065345287, -0.11596781760454178, -0.08266054838895798, -0.27900031208992004, 0.12223806232213974, 0.25599944591522217, 0.13796855509281158, 0.0012475817929953337, -0.23983652889728546, -0.3109646439552307, -0.09469013661146164, 0.0444893017411232, -0.04301679506897926, 0.35508978366851807], [-0.2524549961090088, 0.022660253569483757, -0.1282797008752823, -0.06723504513502121, 0.14599642157554626, 0.25358593463897705, -0.068588986992836, -0.17394782602787018, -0.23819880187511444, 0.19235438108444214, 0.24949957430362701, -0.10800031572580338, 0.16476844251155853, -0.006393381394445896, 0.22722101211547852, -0.26108601689338684, 0.12630264461040497, -0.37102535367012024, 0.05570844188332558, -0.26033827662467957, 0.2710639238357544, 0.22564798593521118, -0.08693129569292068, 0.2793128192424774, -0.2567959129810333, -0.09708218276500702, 0.1304083913564682, -0.1937638372182846, -0.24199581146240234, -0.14693039655685425], [-0.1754639893770218, -0.3504711389541626, -0.06398787349462509, 0.17609438300132751, -0.10587244480848312, -0.11202549934387207, 0.07429366558790207, 0.2971183657646179, 0.2915340065956116, 0.32017043232917786, -0.21190790832042694, -0.04265027120709419, 0.08404979854822159, -0.040297236293554306, 0.0009323012200184166, 0.07385464012622833, 0.05047422647476196, 0.136245995759964, 0.2528696358203888, 0.20226815342903137, 0.10806125402450562, 0.31575557589530945, -0.050412580370903015, 0.22288645803928375, -0.2141071856021881, -0.14378772675991058, 0.25104081630706787, -0.07759194821119308, 0.23939156532287598, -0.07834380865097046], [0.02332727611064911, 0.21703429520130157, -0.23335973918437958, -0.1922009438276291, -0.47270891070365906, 0.13717517256736755, -0.079845130443573, 0.14637981355190277, -0.4485223591327667, -0.4296145439147949, -0.13674813508987427, 0.025583000853657722, 0.0569583885371685, 0.0917271301150322, -0.2636430263519287, 0.00541941961273551, 0.05005074664950371, 0.0035336334258317947, 0.1519792526960373, -0.24901548027992249, -0.09820999205112457, -0.0653301328420639, -0.5424320697784424, 0.22947204113006592, -0.07033143192529678, -0.08967072516679764, -0.021684963256120682, -0.041256215423345566, 0.15433581173419952, 0.26477640867233276], [-0.21069663763046265, -0.12259068340063095, 0.1594214290380478, 0.1871803104877472, 0.2652299404144287, 0.1604008823633194, -0.05866660177707672, -0.11702585965394974, -0.30574914813041687, -0.133794367313385, -0.2944326102733612, 0.044283803552389145, -0.23451033234596252, 0.07677887380123138, -0.325783908367157, -0.39676234126091003, 0.2857927680015564, -0.2574308216571808, 0.003746097907423973, -0.04879234358668327, 0.284042626619339, -0.22348564863204956, 0.07721088081598282, -0.15411004424095154, -0.3040698170661926, -0.059441160410642624, 0.3018273711204529, -0.3832586705684662, 0.03070148080587387, 0.11669362336397171], [-0.3715675175189972, -0.1651374101638794, -0.12317999452352524, -0.4502851963043213, 0.27211233973503113, 0.18315567076206207, 0.22144943475723267, -0.22838667035102844, 0.37535542249679565, 0.08071742206811905, 0.3271605372428894, 0.04259854927659035, -0.15875789523124695, 0.053898029029369354, -0.01793898083269596, 0.030233265832066536, 0.2347370833158493, -0.3148491084575653, -0.16348733007907867, 0.2550269663333893, -0.009465758688747883, 0.02418544329702854, -0.06943739205598831, -0.12632064521312714, -0.21959596872329712, 0.19482512772083282, -0.028994355350732803, -0.06968934088945389, 0.08954665809869766, -0.09231716394424438], [-0.22577537596225739, 0.21501591801643372, -0.2198030799627304, -0.6236811280250549, -0.14050021767616272, 0.09315944463014603, -0.09616486728191376, -0.06836960464715958, 0.04167891666293144, -0.058986861258745193, -0.1695692241191864, -0.35160768032073975, 0.14102767407894135, 0.18158699572086334, -0.026835713535547256, -0.1595250368118286, -0.13148851692676544, 0.07587733864784241, 0.18722118437290192, -0.0732373520731926, 0.16486142575740814, -0.3129194676876068, -0.055356405675411224, -0.3064291179180145, 0.23307117819786072, 0.28872373700141907, 0.22763380408287048, -0.18117749691009521, 0.011705894954502583, 0.04169820249080658], [-0.20845958590507507, -0.17045186460018158, 0.0723692774772644, -0.15766727924346924, 0.03230026364326477, 0.07020978629589081, -0.07692123204469681, 0.021163268014788628, 0.0156400129199028, 0.0446249395608902, -0.10389309376478195, 0.18697942793369293, 0.29762646555900574, -0.319677472114563, -0.09941419214010239, -0.2047737091779709, 0.24633465707302094, 0.08515172451734543, 0.11802936345338821, -0.07332304120063782, -0.09831105917692184, -0.11888177692890167, -0.3101767599582672, -0.03783226013183594, -0.2003353089094162, 0.24614880979061127, 0.3546653091907501, 0.2555576264858246, 0.14904974400997162, -0.26020482182502747], [-0.06502553075551987, -0.27397415041923523, 0.155335932970047, 0.5218872427940369, 0.24386905133724213, -0.1985202133655548, 0.3883877396583557, 0.2102152705192566, 0.23563820123672485, 0.22748567163944244, -0.02208758518099785, 0.31972458958625793, 0.09358073025941849, 0.1412772685289383, 0.10263792425394058, 0.3082906901836395, -0.1669401377439499, 0.12339147180318832, 0.1142578199505806, 0.31864696741104126, -0.231133371591568, 0.23465882241725922, 0.000762088515330106, 0.11712769418954849, -0.14900413155555725, -0.15710966289043427, 0.0833696648478508, 0.22048547863960266, -0.2206537276506424, -0.1922471672296524], [0.0931544229388237, -0.00765184173360467, -0.06845555454492569, 0.2623852491378784, 0.2666004002094269, 0.11958108842372894, 0.3088782727718353, 0.08553718030452728, -0.0014822178054600954, 0.37254637479782104, -0.05418385937809944, -0.20635883510112762, 0.01447120402008295, -0.3974549472332001, 0.2351347953081131, -0.07311283051967621, -0.08209492266178131, 0.3327561914920807, -0.06687945127487183, -0.3076897859573364, -0.02465289644896984, -0.3808923661708832, -0.05262095481157303, 0.16531965136528015, -0.07541631162166595, 0.1961381584405899, -0.09208585321903229, -0.3122457265853882, -0.17281748354434967, -0.2936469614505768], [-0.0887068510055542, 0.23832465708255768, -0.1890202760696411, 0.24936456978321075, -0.41026967763900757, 0.3415869176387787, 0.12509870529174805, 0.039032887667417526, -0.45688581466674805, -0.3475029170513153, 0.04740503802895546, 0.04766759276390076, -0.323110431432724, 0.23036348819732666, -0.11659317463636398, 0.23586571216583252, 0.30456268787384033, -0.026901129633188248, 0.21181844174861908, 0.013818053528666496, -0.16893796622753143, 0.10385400801897049, 0.3150835931301117, -0.13566841185092926, 0.3478007912635803, -0.10648444294929504, 0.1434483528137207, -0.3712000846862793, -0.10834252089262009, 0.06150967255234718], [0.16436561942100525, 0.09468229115009308, -0.05080617591738701, -0.38016974925994873, -0.1543402224779129, 0.016842180863022804, 0.03584146872162819, -0.1523420512676239, 0.0032404509838670492, -0.13413618505001068, 0.1936797946691513, -0.2938691973686218, 0.10302922129631042, 0.39204806089401245, -0.17948520183563232, 0.3221132755279541, 0.15812040865421295, 0.11301805824041367, 0.09259169548749924, -0.24383991956710815, -0.06530331820249557, -0.010342881083488464, 0.16050827503204346, -0.34231746196746826, -0.12678995728492737, 0.08013653755187988, 0.020410994067788124, 0.17802831530570984, -0.03941289335489273, 0.09242354333400726], [0.02154884673655033, 0.17311468720436096, 0.07803762704133987, -0.27315589785575867, 0.1908794492483139, 0.16149847209453583, -0.04050907865166664, -0.4279167652130127, -0.16250339150428772, -0.13057175278663635, 0.06693551689386368, 0.4221068024635315, 0.024689767509698868, -0.029536046087741852, 0.272464394569397, -0.1403493583202362, 0.14141808450222015, -0.07919278740882874, 0.16489270329475403, -0.22522445023059845, -0.18375661969184875, -0.12546108663082123, -0.20373672246932983, -0.1295039802789688, 0.10318539291620255, -0.1281936764717102, 0.029645182192325592, 0.09313143044710159, -0.22274303436279297, -0.09931164234876633], [0.1274910420179367, 0.27088767290115356, 0.0918096974492073, -0.10503052175045013, 0.30371391773223877, -0.19227886199951172, -0.09831228107213974, -0.29072073101997375, -0.0577421560883522, 0.10564948618412018, 0.12841515243053436, 0.21698838472366333, -0.00732157938182354, 0.41699472069740295, 0.16272684931755066, -0.5678515434265137, 0.12838497757911682, 0.4211864471435547, 0.2047155499458313, 0.13499779999256134, -0.2985735535621643, -0.17063377797603607, -0.174062117934227, -0.2167588174343109, 0.28221264481544495, 0.2906942069530487, -0.31197589635849, 0.32674407958984375, 0.2833276391029358, -0.026075849309563637], [-0.16005204617977142, 0.32706937193870544, -0.18356244266033173, 0.06629391759634018, -0.13704879581928253, -0.04471004009246826, 0.18680812418460846, 0.24741524457931519, -0.19855469465255737, -0.27042973041534424, 0.2819669842720032, 0.09153182804584503, -0.3191351592540741, -0.36284753680229187, -0.05790659785270691, 0.013386995531618595, 0.29088836908340454, -0.1971910446882248, -0.01288175955414772, -0.1432759314775467, 0.08894610404968262, -0.15741795301437378, -0.06079305335879326, -0.1212720051407814, -0.12156818062067032, -0.15332603454589844, 0.13402172923088074, -0.2789023220539093, -0.20725581049919128, -0.014644432812929153], [-0.12983722984790802, 0.08966616541147232, -0.4129659831523895, -0.10596130043268204, -0.2711317539215088, 0.2677142024040222, -0.011702575720846653, -0.03683261200785637, 0.06142612546682358, -0.1328405737876892, 0.030897676944732666, 0.4281652569770813, 0.1510249823331833, 0.16496571898460388, -0.20912407338619232, -0.22097405791282654, -0.1741471290588379, 0.12932869791984558, 0.02323717065155506, 0.15750253200531006, 0.24827030301094055, -0.045291654765605927, 0.32292720675468445, -0.07364264875650406, 0.05878738686442375, 0.016880808398127556, -0.37382832169532776, -0.10612260550260544, -0.13226889073848724, -0.10697005689144135], [-0.3142075538635254, 0.21752183139324188, 0.18547649681568146, -0.20284511148929596, 0.04465017095208168, 0.10922034829854965, 0.03671563044190407, 0.22846870124340057, -0.3596274256706238, -0.09742607921361923, -0.2410181760787964, -0.31109437346458435, 0.05129509046673775, -0.18323154747486115, -0.23895946145057678, -0.07776344567537308, -0.28207170963287354, -0.12776674330234528, 0.19727830588817596, -0.1494651734828949, -0.16917742788791656, -0.07458098977804184, -0.648679256439209, 0.07076910883188248, 0.3536188304424286, 0.012499423697590828, 0.02878238819539547, -0.18184547126293182, -0.024973135441541672, 0.10522998124361038], [-0.3791208267211914, -0.25114744901657104, 0.19948221743106842, -0.1785489022731781, -0.14196836948394775, -0.0960153117775917, 0.00994053203612566, 0.2444327026605606, 0.23890940845012665, 0.1767377406358719, 0.23207208514213562, -0.0966462790966034, -0.0026802481152117252, 0.14398957788944244, 0.034115020185709, -0.17888331413269043, -0.14924027025699615, -0.3159874975681305, -0.19381530582904816, -0.18067558109760284, 0.10913541167974472, -0.17736636102199554, -0.3091422915458679, 0.04642457142472267, 0.15915586054325104, -0.011470646597445011, 0.24745415151119232, -0.3851257562637329, -0.017514541745185852, -0.02658277377486229], [-0.11065387725830078, 0.04988962039351463, 0.029489275068044662, -0.23674191534519196, -0.023072341457009315, 0.07027443498373032, -0.061772871762514114, -0.25657761096954346, 0.21537069976329803, -0.0038992587942630053, -0.30400705337524414, -0.2641878128051758, -0.14867207407951355, 0.18765272200107574, 0.00894695334136486, 0.3108401298522949, -0.3161202073097229, 0.2874201238155365, 0.11268576234579086, 0.2810858190059662, -0.2656356990337372, -0.19799622893333435, -0.05898589268326759, -0.19540636241436005, 0.19281265139579773, 0.17610511183738708, 0.04865048825740814, -0.17264924943447113, 0.3154480755329132, 0.08949396759271622], [0.24359896779060364, 0.2044161707162857, -0.36531901359558105, -0.4233691692352295, 0.05166379734873772, 0.2839585840702057, -0.22590792179107666, 0.0958683118224144, 0.15651124715805054, 0.09858255088329315, -0.03693414106965065, 0.36585697531700134, 0.28783556818962097, 0.15557505190372467, -0.04730561748147011, 0.2557573914527893, -0.022069089114665985, 0.41501083970069885, -0.14533451199531555, 0.1830986589193344, -0.029491445049643517, -0.31985166668891907, -0.21323926746845245, -0.22015422582626343, 0.2700902223587036, 0.09446978569030762, -0.33919385075569153, 0.18802392482757568, -0.19501329958438873, 0.0397079698741436], [-0.028044136241078377, -0.3557600677013397, 0.0025917370803654194, 0.7195364832878113, 0.18900248408317566, -0.39340031147003174, -0.09439801424741745, -0.21357616782188416, 0.30716219544410706, 0.3938028812408447, -0.1291458010673523, -0.12920302152633667, -0.09109921008348465, -0.04544588178396225, -0.06203693524003029, 0.30953535437583923, 0.25246185064315796, 0.18023575842380524, -0.12437700480222702, -0.18321821093559265, -0.08866355568170547, -0.2450309693813324, -0.1291956752538681, -0.10667439550161362, -0.0873974859714508, 0.17540691792964935, 0.007031222805380821, 0.41429272294044495, -0.27308472990989685, -0.04257072135806084], [-0.07605718076229095, -0.039792973548173904, -0.3817076086997986, -0.1869204193353653, -0.06614932417869568, 0.004712902009487152, 0.21147765219211578, 0.3375643193721771, -0.005295204930007458, 0.0384683683514595, -0.37182676792144775, -0.1480334848165512, -0.09372159093618393, 0.13184164464473724, 0.11183779686689377, -0.28480541706085205, -0.13069304823875427, -0.17916764318943024, -0.16467393934726715, 0.05376361310482025, 0.3134004473686218, 0.16360434889793396, -0.2561885416507721, -0.3032680153846741, -0.020950475707650185, 0.060306698083877563, 0.007291634101420641, -0.11118807643651962, -0.004977354779839516, -0.06975466758012772], [0.034703340381383896, -0.319509893655777, -0.25337550044059753, -0.12013813108205795, 0.20112204551696777, 0.1286918818950653, 0.1614854633808136, 0.058551814407110214, -0.04359931871294975, 0.27079159021377563, 0.2966510057449341, -0.03348105773329735, -0.0031895528081804514, 0.1627943068742752, -0.13245055079460144, -0.18274521827697754, -0.1621042788028717, 0.27674782276153564, 0.14508841931819916, 0.030084723606705666, 0.2552163898944855, -0.05859016627073288, 0.06831774115562439, -0.18928556144237518, 0.03271947056055069, -0.01144521962851286, -0.15497489273548126, -0.08294941484928131, -0.029301203787326813, 0.16543911397457123], [-0.05939813703298569, 0.09869809448719025, 0.09101597964763641, 0.14075325429439545, -0.3958151638507843, 0.3065267503261566, -0.42166227102279663, 0.07248231768608093, -0.1167774498462677, 0.04809873178601265, -0.10023900121450424, 0.2182478904724121, -0.08257709443569183, 0.3394114077091217, -0.1433630734682083, 0.048917148262262344, 0.09551237523555756, 0.24943625926971436, -0.27388450503349304, -0.15965594351291656, 0.011324523948132992, 0.2529776394367218, -0.059622056782245636, -0.08551090210676193, 0.2118607759475708, 0.20091940462589264, -0.38497790694236755, 0.19216139614582062, 0.1296224147081375, -0.08947428315877914], [0.10061778128147125, 0.17199411988258362, -0.18531058728694916, -0.0012913759564980865, -0.006937262136489153, -0.11725348234176636, 0.3328857719898224, 0.2312893122434616, 0.013297793455421925, 0.12181874364614487, -0.23409231007099152, -0.40902480483055115, -0.00202831719070673, -0.35499170422554016, 0.010400756262242794, -0.22670526802539825, 0.07966085523366928, -0.3583837151527405, -0.14199942350387573, 0.08568419516086578, -0.24109874665737152, -0.06489019095897675, -0.041161779314279556, -0.27876946330070496, -0.17864122986793518, 0.1765291392803192, 0.32955360412597656, -0.34664109349250793, 0.04033268243074417, -0.0916208028793335]]}, "Dense_1": {"bias": [-0.08556153625249863, 0.2512797713279724, -0.04148280620574951, 0.2231510430574417, 0.42163369059562683, 0.15189406275749207, 0.3111279606819153, -0.12266526371240616, -0.07137218862771988, -0.07195517420768738, 0.017582660540938377, 0.13447965681552887, -0.056276533752679825, -0.10410583764314651, -0.12230870127677917, 0.218104749917984, -0.09754861891269684, -0.03913646191358566, 0.38420894742012024, -0.03888212889432907, -0.104624904692173, 0.15585897862911224, -0.10433574765920639, -0.07589329034090042, -0.13805951178073883, 0.21391157805919647, 0.22232037782669067, 0.260685533285141, -0.052308324724435806, -0.06858888268470764], "kernel": [[-0.12188984453678131, -0.004102562554180622, 0.10925585776567459, -0.08308449387550354, 0.170175701379776, 0.24637871980667114, -0.061194367706775665, 0.0025257780216634274, -0.18332156538963318, 0.07647906988859177, -0.09144004434347153, -0.34738197922706604, 0.19231998920440674, -0.27000537514686584, -0.3726922571659088, -0.17290496826171875, 0.23668944835662842, -0.016915975138545036, 0.1141878142952919, -0.17066839337348938, -0.26720237731933594, 0.18369907140731812, 0.06709522753953934, -0.058814793825149536, 0.11709623038768768, -0.19173835217952728, -0.020563730970025063, -0.1560583859682083, 0.011586704291403294, -0.16162404417991638], [-0.27250438928604126, -0.15529915690422058, 0.22119978070259094, -0.05667801946401596, 0.2838182747364044, -0.04734871909022331, 0.17102952301502228, -0.2736324071884155, -0.23502039909362793, -0.15349358320236206, 0.03875257074832916, -0.19577834010124207, -0.2239168882369995, -0.28868868947029114, -0.2115584760904312, 0.1698722094297409, -0.2681067883968353, -0.3596162796020508, 0.2890971302986145, 0.08669601380825043, -0.2891281247138977, -0.4268774092197418, 0.08695962280035019, 0.04657023027539253, 0.1299256682395935, 0.08810228109359741, -0.0041649374179542065, 0.28054922819137573, -0.3350089490413666, -0.31114262342453003], [0.09988433867692947, 0.3809821605682373, 0.23494358360767365, 0.27485910058021545, 0.13523724675178528, 0.18611156940460205, -0.04414510726928711, -0.24306099116802216, -0.28055432438850403, 0.1452493518590927, 0.19166383147239685, 0.3090422749519348, 0.07000960409641266, -0.24799767136573792, 0.07872090488672256, 0.011126387864351273, 0.32074546813964844, -0.1192668080329895, 0.18020150065422058, -0.08962316066026688, 0.20105017721652985, 0.06623837351799011, 0.09843990206718445, 0.16647057235240936, 0.1629277616739273, -0.0953054204583168, 0.03859063610434532, 0.2509444057941437, -0.2376640886068344, -0.3567623794078827], [-0.08947263658046722, -0.06631527841091156, -0.21715614199638367, 0.13621433079242706, 0.4798366129398346, 0.05366551876068115, 0.20907966792583466, -0.07948820292949677, -0.2363443672657013, 0.1515405774116516, -0.08451470732688904, -0.43126532435417175, 0.04273746535181999, -0.12150314450263977, 0.2187640517950058, -0.31734219193458557, 0.10899677872657776, 0.30563801527023315, 0.1583113819360733, -0.11423490941524506, 0.16533935070037842, -0.10267965495586395, -0.2976485788822174, -0.22130735218524933, -0.11809829622507095, 0.09669764339923859, -0.04230782389640808, -0.023409616202116013, -0.015694143250584602, -0.19686312973499298], [-0.11439386010169983, -0.3548031747341156, 0.1623631715774536, 0.23823055624961853, -0.4517461359500885, 0.1954246163368225, -0.2899641990661621, -0.27072587609291077, -0.1420820951461792, 0.12277836352586746, -0.22502776980400085, 0.07277589291334152, -0.1789100617170334, -0.19421394169330597, 0.1583060771226883, 0.06647966057062149, -0.30467480421066284, 0.3797171115875244, -0.40860798954963684, -0.36884909868240356, -0.13105276226997375, 0.1194244772195816, -0.2288920134305954, 0.1190023347735405, -0.18799404799938202, -0.15195898711681366, -0.1306595504283905, -0.2805345952510834, -0.20275679230690002, 0.26815375685691833], [0.1295042484998703, 0.31478151679039, -0.12445342540740967, 0.023539215326309204, 0.21944282948970795, 0.14781500399112701, 0.32492902874946594, 0.029516413807868958, -0.07912801206111908, -0.1553124487400055, 0.2500995397567749, 0.3019070327281952, 0.045891910791397095, -0.1185666024684906, -0.12702791392803192, 0.07951290160417557, -0.22773075103759766, -0.46355390548706055, 0.1487683802843094, -0.037415649741888046, 0.12065683305263519, -0.0703762024641037, 0.07697344571352005, -0.20849968492984772, -0.32631397247314453, -0.13459816575050354, 0.043040573596954346, 0.14433953166007996, 0.29315251111984253, 0.14636938273906708], [-0.33290550112724304, -0.19421878457069397, -0.12640012800693512, 0.2901875376701355, 0.1602455973625183, -0.06737194210290909, -0.11939721554517746, -0.18915529549121857, 0.10281582176685333, -0.1640210598707199, 0.2672484815120697, 0.23945003747940063, -0.3330789804458618, 0.04365246742963791, -0.09807643294334412, -0.13782291114330292, 0.024629220366477966, -0.15082348883152008, -0.3759329319000244, -0.26404109597206116, -0.032577671110630035, -0.12329916656017303, 0.05271996185183525, -0.06271559000015259, -0.170854851603508, 0.03654398024082184, 0.3075411319732666, -0.4076666533946991, -0.19875912368297577, 0.10162033140659332], [0.13402503728866577, -0.02281835302710533, 0.002988510997965932, 0.2127685397863388, 0.10250865668058395, 0.07342910021543503, 0.10373001545667648, -0.029053423553705215, -0.2109164148569107, 0.1988237202167511, -0.10084648430347443, -0.06327182054519653, -0.2176535576581955, 0.13479632139205933, -0.32337686419487, 0.2631280720233917, 0.16171963512897491, -0.04530990496277809, 0.08985893428325653, -0.2907455861568451, -0.4231176972389221, -0.11799377202987671, 0.13608205318450928, -0.20247207581996918, -0.4145359396934509, 0.26017341017723083, 0.22059711813926697, 0.05179499462246895, -0.14098015427589417, -0.5451140403747559], [0.014005297794938087, 0.04229601100087166, -0.11313380300998688, 0.24018841981887817, -0.2029130756855011, -0.008633713237941265, -0.4034850001335144, 0.10436118394136429, 0.013754299841821194, -0.147956982254982, -0.022587893530726433, 0.1291130930185318, 0.27796679735183716, -0.3387017548084259, 0.28560110926628113, -0.09319785982370377, -0.36065801978111267, 0.2273927628993988, -0.22841960191726685, 0.06652935594320297, -0.002775981090962887, 0.15582828223705292, 0.27191394567489624, -0.2098102867603302, -0.1487119495868683, -0.21178996562957764, -0.22872963547706604, -0.32546111941337585, 0.06636947393417358, 0.329690545797348], [-0.25546368956565857, -0.36844608187675476, 0.07549835741519928, 0.03845702111721039, -0.46650856733322144, -0.33173897862434387, -0.09541220217943192, 0.06753820925951004, -0.11044813692569733, -0.394268274307251, -0.12356897443532944, 0.036368228495121, 0.06936697661876678, -0.19353443384170532, 0.15218216180801392, 0.017806323245167732, 0.1991415172815323, 0.21321842074394226, -0.3523091673851013, -0.12747998535633087, -0.2815502882003784, 0.10496775805950165, -0.4288541376590729, 0.0027370178140699863, -0.29598116874694824, -0.48255282640457153, 0.17999103665351868, -0.21917331218719482, 0.07945079356431961, -0.06933378428220749], [-0.08721920102834702, 0.06388314813375473, 0.1438829004764557, 0.24103575944900513, -0.30451416969299316, -0.10169874876737595, -0.040432095527648926, -0.09912391006946564, 0.18699456751346588, 0.2321746051311493, -0.1476188749074936, -0.09854770451784134, -0.19077619910240173, 0.0490499846637249, 0.10633935034275055, -0.3598329722881317, -0.1996193528175354, 0.24423755705356598, 0.15654592216014862, 0.16052067279815674, -0.17989248037338257, 0.09222785383462906, -0.13952530920505524, -0.039655063301324844, 0.23252353072166443, 0.3736507296562195, 0.004346064291894436, -0.307772159576416, 0.09613333642482758, 0.2895151674747467], [-0.13428813219070435, -0.23647162318229675, -0.10186833888292313, 0.0863608792424202, 0.0990511029958725, -0.2362462431192398, -0.04191501811146736, -0.04760171100497246, -0.2501778304576874, 0.18466326594352722, 0.2860240042209625, -0.03277834504842758, 0.013523414731025696, 0.10188224166631699, -0.13889434933662415, -0.18116766214370728, -0.05419619381427765, 0.2244335263967514, 0.19043877720832825, 0.06558780372142792, -0.2856529653072357, 0.1849118322134018, -0.12700699269771576, -0.3349704444408417, 0.1118924617767334, 0.16067764163017273, -0.011974789202213287, 0.21082881093025208, -0.1250113695859909, -0.26243865489959717], [-0.29913994669914246, 0.27739208936691284, 0.021999597549438477, 0.14280860126018524, -0.07295814901590347, 0.12005244940519333, 0.3275723159313202, -0.07232910394668579, 0.11678057909011841, 0.05104841664433479, 0.18957291543483734, 0.2861689329147339, 0.292431503534317, 0.06323476880788803, 0.09539562463760376, -0.07632472366094589, -0.23175297677516937, 0.2926314175128937, 0.3193146288394928, 0.010931548662483692, 0.007181866094470024, -0.2726210951805115, -0.3478853404521942, 0.1768830567598343, -0.0732143446803093, 0.11010176688432693, 0.34684330224990845, -0.06972513347864151, -0.21707075834274292, -0.10651006549596786], [-0.29128363728523254, -0.2382359653711319, -0.3260294795036316, -0.114291712641716, 0.3058450222015381, 0.11550533771514893, 0.32397833466529846, 0.09212470054626465, -0.15471087396144867, -0.22372636198997498, -0.023099198937416077, 0.12772898375988007, 0.173043355345726, 0.24290816485881805, -0.27691563963890076, -0.3882976174354553, 0.2245841771364212, 0.4480174779891968, 0.2175883948802948, 0.11161663383245468, 0.010707986541092396, -0.3551786541938782, -0.3963043689727783, 0.2027890831232071, -0.08593994379043579, -0.1887381225824356, -0.34267765283584595, -0.11541204899549484, -0.3329765498638153, -0.19260740280151367], [-0.08181194216012955, -0.3325713872909546, -0.05853966996073723, 0.09620962291955948, -0.28606730699539185, 0.17836149036884308, -0.02999751828610897, -0.23917385935783386, -0.0005338182090781629, -0.2157941460609436, 0.038743503391742706, -0.23830819129943848, 0.0245661623775959, -0.36538562178611755, -0.18372738361358643, -0.036776307970285416, 0.02691393531858921, -0.005929839331656694, 0.06527065485715866, 0.24226729571819305, 0.21086697280406952, -0.273603618144989, -0.2751106321811676, -0.08469462394714355, 0.012279854156076908, 0.33766618371009827, 0.3452560603618622, -0.17030780017375946, 0.2093174159526825, -0.190201073884964], [-0.34365174174308777, 0.3388459086418152, 0.07782036811113358, 0.060087546706199646, 0.13188894093036652, 0.06262815743684769, -0.026792803779244423, -0.16446349024772644, -0.33136186003685, -0.39044255018234253, 0.20358401536941528, 0.0048995241522789, 0.13797993957996368, 0.2371269315481186, -0.05911920964717865, -0.22596125304698944, 0.00029041734524071217, 0.06032116711139679, 0.4952656924724579, -0.283669114112854, -0.06239558383822441, 0.09912768006324768, -0.03134949505329132, 0.2710074484348297, 0.17509980499744415, 0.01458633504807949, 0.0774269551038742, 0.37806034088134766, 0.20701611042022705, 0.14694726467132568], [0.20480960607528687, -0.06262695789337158, -0.2334204614162445, 0.38764703273773193, -0.15198227763175964, 0.06268728524446487, -0.07113021612167358, -0.29925912618637085, -0.363728404045105, 0.18566082417964935, -0.06632265448570251, 0.03778102621436119, 0.030502257868647575, -0.23739171028137207, -0.026422657072544098, 0.18939854204654694, 0.08381133526563644, -0.17808419466018677, -0.10909389704465866, -0.12587687373161316, -0.1464051753282547, -0.10624311864376068, -0.017693646252155304, 0.10046717524528503, 0.1870838701725006, -0.2414618581533432, 0.16676631569862366, 0.14737911522388458, 0.2079550325870514, 0.22768060863018036], [0.11082863807678223, -0.19599589705467224, -0.3296201229095459, 0.1845528483390808, -0.0115812411531806, 0.021207615733146667, -0.37093767523765564, -0.2270869016647339, 0.06874578446149826, 0.05339306220412254, -0.11833027005195618, -0.23006416857242584, 0.48840808868408203, -0.12668432295322418, -0.010760342702269554, -0.1892428994178772, -0.3967133164405823, 0.409315824508667, -0.23077145218849182, 0.09303750097751617, 0.18657417595386505, -0.1657201498746872, -0.33197546005249023, -0.3056250810623169, 0.09167064726352692, -0.2801269590854645, -0.06529521942138672, -0.16624663770198822, 0.14468902349472046, -0.17455390095710754], [-0.029557526111602783, 0.10465336591005325, -0.05016874521970749, 0.03519555553793907, 0.4201368987560272, 0.04432081803679466, -0.021106813102960587, 0.09227057546377182, -0.21142353117465973, 0.27703914046287537, 0.02102833241224289, -0.06560715287923813, -0.022101696580648422, -0.09670785814523697, 0.1612527221441269, -0.09482906758785248, -0.06879042834043503, 0.0806904062628746, 0.2233530730009079, 0.018862128257751465, -0.12430360913276672, 0.16978876292705536, -0.06512182205915451, -0.008210981264710426, -0.26382681727409363, -0.08415239304304123, 0.0020277227740734816, 0.27423059940338135, -0.16558897495269775, 0.5451747179031372], [-0.18762333691120148, -0.13609819114208221, -0.16142255067825317, 0.23618531227111816, -0.12018105387687683, 0.01952049322426319, -0.024755574762821198, -0.13941869139671326, -0.13634563982486725, -0.2042272537946701, 0.05051957443356514, 0.09578925371170044, -0.0670764371752739, -0.09508320689201355, -0.0883227065205574, 0.11962424218654633, 0.1955578476190567, 0.3176623582839966, 0.10277212411165237, -0.05095129460096359, 0.0041431221179664135, 0.15293844044208527, 0.24795743823051453, 0.023974480107426643, 0.13221803307533264, 0.22823596000671387, 0.06116775423288345, 0.15890486538410187, -0.03355269506573677, -0.22324222326278687], [-0.18657217919826508, -0.26105087995529175, 0.18362204730510712, 0.0298346895724535, -0.43717846274375916, 0.08270784467458725, -0.3923993706703186, 0.08549218624830246, -0.04159166291356087, -0.10083227604627609, -0.18796369433403015, 0.24227274954319, -0.3024413287639618, 0.11038899421691895, -0.34918248653411865, -0.1697521060705185, 0.12999403476715088, 0.2268771231174469, 0.11385219544172287, 0.22359678149223328, 0.10272961109876633, 0.2775621712207794, -0.2394000142812729, 0.10969860851764679, -0.295166015625, 0.02919607423245907, 0.10975953936576843, -0.1322641223669052, -0.3505963385105133, -0.3149363398551941], [0.08256649225950241, -0.03372543677687645, -0.02834383398294449, 0.4149259924888611, -0.37589946389198303, -0.011843553744256496, 0.23058198392391205, -0.3056659698486328, -0.28208422660827637, -0.15026257932186127, 0.311164915561676, 0.2117430418729782, 0.2688244581222534, -0.2606864273548126, 0.2125612050294876, 0.05650050565600395, -0.21087951958179474, 0.09014997631311417, 0.1747792661190033, -0.01445966400206089, -0.13543184101581573, 0.22361712157726288, -0.22454982995986938, -0.1664970964193344, 0.11586599797010422, 0.26827767491340637, -0.25540387630462646, 0.09700722247362137, -0.27643463015556335, -0.2112397700548172], [-0.1302921622991562, 0.1539200097322464, 0.016992708668112755, 0.24445559084415436, 0.17635005712509155, 0.3144301176071167, 0.4531678855419159, -0.2558392584323883, 0.15734852850437164, -0.28761595487594604, 0.2034742832183838, 0.008680646307766438, 0.04756946861743927, -0.21865904331207275, 0.09652630239725113, -0.6237868666648865, 0.19140498340129852, -0.3410397171974182, 0.28310999274253845, 0.19257637858390808, 0.06019461154937744, -0.016951102763414383, -0.12318960577249527, 0.18168219923973083, 0.2103315144777298, 0.23200716078281403, 0.10392291843891144, 0.26146358251571655, -0.21330153942108154, 0.2293420433998108], [0.25457364320755005, -0.10027134418487549, 0.14677046239376068, -0.11004018038511276, -0.2347410023212433, -0.01946316659450531, 0.11345168948173523, -0.301336407661438, -0.013374393805861473, 0.19035480916500092, -0.11313775181770325, -0.2131132036447525, 0.07628919929265976, -0.1884608417749405, 0.22961924970149994, 0.3223133981227875, 0.0005610109656117857, -0.07118961215019226, -0.17460355162620544, -0.23165899515151978, 0.0743374302983284, 0.2136608362197876, -0.06020219251513481, 0.06297972798347473, -0.02976357378065586, -0.26477164030075073, 0.0233239084482193, 0.2144598364830017, 0.045998260378837585, -0.17542779445648193], [-0.04418079927563667, 0.3893335461616516, -0.3216395676136017, -0.15537665784358978, 0.262401282787323, 0.38773852586746216, -0.20137687027454376, -0.276565283536911, -0.06627767533063889, -0.08289642632007599, 0.3581407368183136, 0.15629428625106812, 0.053705088794231415, 0.018499206751585007, 0.14755479991436005, -0.07669233530759811, -0.13387058675289154, -0.37462759017944336, -0.048010263592004776, -0.2741522490978241, -0.26695334911346436, -0.5540773868560791, -0.10729201138019562, -0.26653480529785156, 0.04103313013911247, 0.33069998025894165, -0.16344568133354187, 0.3137721121311188, -0.18846161663532257, -0.4153616726398468], [-0.1468866467475891, 0.28992876410484314, -0.36061155796051025, 0.33967047929763794, 0.09744585305452347, 0.3043529987335205, 0.16259203851222992, -0.07597221434116364, -0.38067519664764404, 0.13925319910049438, 0.22411121428012848, -0.16140606999397278, 0.1567944586277008, -0.42535221576690674, -0.0475974939763546, -0.2902641296386719, -0.3756277859210968, 0.43576234579086304, -0.24112407863140106, -0.251006543636322, -0.15235748887062073, 0.07369127124547958, -0.2589383125305176, -0.12328989803791046, -0.31540167331695557, 0.2381144016981125, -0.0004051129217259586, -0.20715852081775665, 0.12469862401485443, 0.008261424489319324], [-0.1535472422838211, -0.3325219452381134, -0.3269246220588684, 0.32832926511764526, -0.15620483458042145, -0.014459226280450821, -0.02371588535606861, -0.01547886710613966, -0.18867962062358856, -0.1732410341501236, -0.18455974757671356, -0.06909191608428955, -0.1122593805193901, 0.0019944082014262676, -0.15620864927768707, -0.19499418139457703, -0.3786812126636505, -0.30396056175231934, 0.15193013846874237, 0.07853319495916367, -0.04384775832295418, 0.278881698846817, 0.06772457808256149, -0.16748687624931335, -0.1245044693350792, -0.39358919858932495, 0.28785303235054016, -0.04538906365633011, -0.05026550218462944, -0.054256245493888855], [-0.33000630140304565, 0.09708357602357864, -0.09405502676963806, 0.12698832154273987, -0.08293522149324417, -0.060679346323013306, 0.22449083626270294, -0.09096390008926392, 0.07053384184837341, -0.09277563542127609, 0.22496357560157776, 0.034967463463544846, 0.1866399645805359, 0.1819908320903778, -0.07652554661035538, -0.009410212747752666, -0.2056058794260025, 0.27124062180519104, 0.2479652315378189, -0.004973655100911856, -0.05760975182056427, -0.20014019310474396, -0.03568160906434059, -0.36158788204193115, 0.11373656243085861, -0.0057114725932478905, -0.4806477427482605, 0.3440772294998169, -0.2343055158853531, 0.11277027428150177], [0.20853087306022644, 0.32523801922798157, -0.1824953556060791, -0.33817094564437866, 0.2760672867298126, -0.10316799581050873, -0.03482414036989212, 0.105681411921978, -0.2911872863769531, 0.01806616596877575, 0.17049546539783478, -0.0072269984520971775, -0.20064447820186615, -0.3032330274581909, -0.07873526215553284, 0.23021993041038513, 0.14980752766132355, 0.14951908588409424, 0.1493849903345108, -0.238112673163414, -0.2425708919763565, 0.14299428462982178, 0.1556798368692398, -0.3993125855922699, 0.006236319895833731, -0.0003794681397266686, -0.05222554877400398, 0.1142226904630661, -0.09062059223651886, 0.07915834337472916], [-0.03283052146434784, 0.23926417529582977, 0.03717061132192612, -0.28440070152282715, 0.4417996108531952, -0.10798410326242447, 0.13277912139892578, 0.08169056475162506, -0.2486771047115326, -0.3160662353038788, 0.10017251968383789, -0.1423565149307251, 0.026623986661434174, -0.2180970013141632, 0.03704579919576645, -0.04134291037917137, -0.19189010560512543, 0.03435990586876869, -0.12850415706634521, -0.3067322075366974, -0.14387230575084686, 0.05014776811003685, 0.061832182109355927, -0.3602491617202759, -0.30048683285713196, 0.27121347188949585, -0.21304190158843994, 0.3242650330066681, -0.34768104553222656, -0.34541627764701843]]}, "Dense_2": {"bias": [0.02210805006325245, -0.0058066402561962605, 0.03584776818752289, 0.04349744692444801, 0.41378486156463623, 0.5290740132331848, -0.07028824836015701, -0.055491913110017776, 0.4408825635910034, 0.7661139369010925, -0.022731147706508636, -0.05435870960354805, 0.3601302206516266, 0.46082937717437744, -0.03229134529829025, -0.04658449813723564, 0.17968235909938812, 0.3342636823654175, -0.026099205017089844, -0.03156689554452896, 0.23453275859355927], "kernel": [[-0.05154455453157425, -0.22473642230033875, -0.15559911727905273, -0.03701132535934448, 0.37964150309562683, -0.27236998081207275, 0.24024108052253723, 0.31941771507263184, -0.009154677391052246, -0.07078216224908829, -0.0917658731341362, -0.08501727879047394, 0.22954607009887695, -0.2375127375125885, 0.1349135786294937, -0.24708877503871918, 0.3180159032344818, -0.3183844983577728, 0.04276324436068535, -0.20548678934574127, 0.20146876573562622], [-0.13505703210830688, 0.06743162870407104, 0.0030520723666995764, -0.2013632357120514, 0.21553441882133484, 0.47552230954170227, -0.21741905808448792, -0.12330247461795807, 0.19093528389930725, 0.15820223093032837, -0.2017640769481659, -0.02028794400393963, 0.3062335252761841, -0.02913055010139942, 0.10079560428857803, -0.18125279247760773, 0.35389280319213867, 0.07761529833078384, -0.2640146315097809, 0.20471754670143127, -0.28784289956092834], [0.11115983128547668, 0.222645103931427, -0.2388240545988083, 0.3611816167831421, 0.10385461896657944, 0.2915838360786438, -0.056813254952430725, 0.2713746428489685, 0.16346335411071777, 0.2670820951461792, -0.1134529709815979, -0.13242541253566742, 0.2676730751991272, 0.3302289545536041, 0.050039757043123245, -0.16491733491420746, 0.09607728570699692, -0.2696714401245117, 0.1742779016494751, 0.10337145626544952, -0.2594541013240814], [-0.012086545117199421, -0.33249354362487793, -0.37210237979888916, 0.13151532411575317, -0.16267147660255432, 0.7943711876869202, 0.2805754244327545, -0.22672297060489655, -0.43046385049819946, 0.5551159977912903, -0.248749241232872, -0.32857614755630493, 0.08828487247228622, 1.0417954921722412, 0.16151610016822815, 0.27034804224967957, 0.006405764725059271, 0.12099980562925339, 0.010277463123202324, -0.24339327216148376, -0.022419273853302002], [-0.11016827821731567, -0.22399376332759857, -0.36865729093551636, -0.29348403215408325, 0.3651784658432007, 0.25658655166625977, 0.06241213530302048, -0.1204594150185585, 0.4086992144584656, 0.28893187642097473, -0.30845803022384644, -0.2921753227710724, 0.31024765968322754, 0.1681441366672516, -0.43902432918548584, 0.13523611426353455, 0.45202693343162537, 0.1114497259259224, -0.0032043594401329756, -0.05451378971338272, -0.08307571709156036], [-0.3321012556552887, -0.2188928723335266, 0.07166571915149689, -0.3719426989555359, 0.2004617601633072, 0.2868748903274536, -0.12980662286281586, 0.18480868637561798, 0.05540615692734718, 0.46344026923179626, 0.05320419371128082, 0.11836572736501694, 0.111530601978302, 0.4754018783569336, 0.004746430087834597, -0.1859494149684906, 0.07351257652044296, 0.1667536050081253, -0.2947986125946045, 0.08969513326883316, 0.02487923577427864], [-0.08133642375469208, -0.42556118965148926, -0.07572345435619354, -0.0030433444771915674, 0.15800362825393677, 0.19303487241268158, -0.2862856984138489, -0.19257304072380066, 0.294925332069397, 0.08670244365930557, -0.44014227390289307, 0.20428359508514404, 0.34703636169433594, 0.47372618317604065, 0.22472916543483734, 0.09396384656429291, 0.20512594282627106, 0.019605346024036407, -0.24078886210918427, 0.02286338247358799, 0.07406561076641083], [0.09245946258306503, -0.24757905304431915, -0.15673552453517914, 0.1656266301870346, -0.2521362006664276, -0.016573911532759666, 0.3770322799682617, -0.2365102469921112, -0.15744666755199432, -0.1704426109790802, -0.27762433886528015, -0.1266476958990097, 0.028617842122912407, -0.2042022943496704, -0.20476384460926056, 0.39513468742370605, 0.07686273753643036, -0.062075819820165634, 0.002716628834605217, 0.20563292503356934, 0.2533082664012909], [0.1292782425880432, 0.24245403707027435, 0.04446212947368622, -0.042493052780628204, -0.05757424235343933, -0.10699602961540222, 0.3349728286266327, -0.29159337282180786, -0.07431692630052567, -0.2069622278213501, 0.07578715682029724, 0.22554674744606018, 0.023134393617510796, 0.03651769459247589, -0.14828333258628845, -0.27510151267051697, -0.3137928545475006, 0.16894979774951935, 0.015355709008872509, -0.1912311464548111, -0.08338455855846405], [0.29721981287002563, 0.21787197887897491, -0.10105925798416138, -0.042393140494823456, -0.2083507478237152, 0.2781006395816803, 0.20013727247714996, 0.07872699946165085, -0.23701179027557373, -0.11147213727235794, 0.16062763333320618, 0.3912731409072876, 0.12640859186649323, -0.08718778938055038, 0.092072032392025, -0.3037755787372589, -0.34696799516677856, 0.08743182569742203, 0.3028223216533661, 0.06947008520364761, -0.21144750714302063], [-0.06397581100463867, -0.19695407152175903, -0.22248481214046478, -0.08431397378444672, 0.27989697456359863, 0.6072481274604797, -0.28715649247169495, -0.170328289270401, -0.12532511353492737, 0.09522124379873276, -0.3638491630554199, 0.14094997942447662, 0.13624446094036102, 0.286042720079422, -0.31806594133377075, -0.10551992803812027, 0.18815018236637115, 0.5621093511581421, 0.23764845728874207, -0.2952177822589874, -0.23984023928642273], [0.002723383717238903, -0.20278646051883698, -0.1515704095363617, -0.07660750299692154, 0.09708331525325775, 0.7257357239723206, 0.29323431849479675, -0.026817742735147476, 0.32584723830223083, 0.6285232901573181, -0.3110966980457306, -0.4445197284221649, -0.043943122029304504, 0.4269647002220154, -0.37464091181755066, 0.08853886276483536, 0.37932515144348145, 0.2862972319126129, -0.14585521817207336, -0.24724775552749634, -0.02619912661612034], [-0.07573553174734116, -0.2357345074415207, -0.3470533490180969, -0.14557698369026184, -0.20190930366516113, -0.06200668215751648, -0.46955955028533936, 0.039704687893390656, 0.02534794807434082, -0.12447787076234818, 0.01129960734397173, 0.006518990267068148, -0.238040030002594, 0.4723474085330963, -0.3326306641101837, -0.2638298273086548, -0.033549122512340546, 0.19287846982479095, 0.029454857110977173, -0.025628497824072838, -0.43399497866630554], [0.2783638536930084, 0.2241985946893692, 0.1841345876455307, 0.2928943932056427, -0.28991398215293884, 0.33738642930984497, 0.2975825071334839, 0.009416875429451466, -0.33935368061065674, 0.07571351528167725, 0.3149547278881073, 0.0657685175538063, 0.20724205672740936, 0.20522435009479523, 0.20659126341342926, 0.023853784427046776, -0.3558177053928375, -0.32608065009117126, -0.037233516573905945, -0.21483269333839417, 0.02318400889635086], [0.26161232590675354, 0.14222000539302826, 0.09688863903284073, 0.24110302329063416, 0.3858183026313782, 0.47396090626716614, -0.288972944021225, -0.13671167194843292, -0.11030638217926025, -0.22376662492752075, -0.3219633102416992, -0.01067144051194191, 0.024710826575756073, 0.012957106344401836, -0.3667465150356293, 0.06972122937440872, 0.2907397150993347, 0.37627077102661133, -0.24922645092010498, 0.06720717251300812, -0.45631730556488037], [-0.09991240501403809, 0.2608001232147217, -0.21250897645950317, -0.006136702373623848, 0.2887454628944397, 0.5764357447624207, 0.07612849026918411, 0.14308075606822968, 0.1038748174905777, 0.11417515575885773, -0.303147554397583, 0.22355249524116516, 0.14246511459350586, 0.421812504529953, 0.12768106162548065, -0.19183889031410217, -0.0014470532769337296, 3.2463459968566895, 0.000940679747145623, 0.10716632753610611, -0.18299147486686707], [-0.01870630495250225, 0.135204017162323, 0.18032494187355042, -0.13234661519527435, 0.16938628256320953, -0.19045357406139374, -0.462862491607666, 0.12482218444347382, -0.18243983387947083, 0.33650848269462585, 0.037281785160303116, 0.2708985209465027, 0.39421963691711426, 0.19728004932403564, -0.13018973171710968, 0.10561912506818771, -0.20218579471111298, 0.27285027503967285, 0.2644023597240448, -0.21356190741062164, 0.12019544839859009], [-0.18107900023460388, 0.007910883985459805, -0.003861908568069339, -0.27741241455078125, -0.25204920768737793, 0.39621004462242126, -0.23429752886295319, -0.23882818222045898, -0.5275052189826965, 0.2952921688556671, -0.37962403893470764, -0.1767236441373825, -0.2725968658924103, 0.2422984391450882, 0.08519936352968216, 0.08197548985481262, -0.5040424466133118, 0.45670685172080994, -0.07579787075519562, 0.053892698138952255, -0.052393145859241486], [-0.027244599536061287, -0.2094375640153885, -0.3194783329963684, 0.2531922459602356, 0.5779082179069519, 0.280486136674881, 0.3437686264514923, 0.05865497887134552, 0.3341076374053955, 0.6008194088935852, 0.2091393768787384, 0.1701602190732956, 0.4302383065223694, 0.589345395565033, -0.384544312953949, 0.08245351165533066, 0.2640095353126526, 0.5399594902992249, 0.21418410539627075, -0.30549031496047974, -0.0015175293665379286], [-0.18161728978157043, -0.05795819312334061, -0.014713622629642487, 0.026512471958994865, -0.11859738826751709, -0.05393822491168976, 0.2208186239004135, -0.2656233608722687, 0.04528602957725525, -0.23360206186771393, -0.3686746656894684, -0.21649685502052307, 0.07107411324977875, 0.248374804854393, -0.1988557130098343, 0.17305226624011993, -0.011888428591191769, 0.3846808969974518, 0.14361469447612762, 0.04721548780798912, 0.27406343817710876], [-0.03218192607164383, 0.03807598724961281, 0.2854945957660675, -0.22126995027065277, 0.29899948835372925, 0.10579515993595123, -0.14446090161800385, 0.15524809062480927, 0.26407158374786377, -0.1405458301305771, 0.04991711303591728, -0.19584691524505615, 0.13339410722255707, -0.022505102679133415, -0.18572577834129333, 0.11669661849737167, 0.4006548821926117, 0.16877804696559906, 0.07456677407026291, 0.22783564031124115, 0.23711785674095154], [-0.0696825459599495, -0.3051353394985199, 0.19771653413772583, -0.14687758684158325, 0.09427206963300705, 0.5220948457717896, -0.27190977334976196, -0.19066792726516724, 0.13700145483016968, 0.5292208790779114, -0.07171321660280228, 0.11656827479600906, -0.0771501362323761, 0.5187836289405823, -0.300322026014328, -0.2914755046367645, 0.04562767222523689, 0.38910332322120667, 0.00998693611472845, -0.3937041759490967, 0.11090238392353058], [0.0775633230805397, 0.1081157922744751, -0.07100813090801239, 0.033806148916482925, 0.29785338044166565, -0.11813025921583176, 0.18954776227474213, 0.13773930072784424, 0.17027547955513, -0.25118911266326904, -0.09901084750890732, -0.12490922957658768, 0.07746647298336029, 0.27367889881134033, -0.3857235908508301, -0.30158019065856934, 0.0471162386238575, -0.05791805312037468, -0.10786563903093338, -0.19141119718551636, 0.07292941957712173], [-0.13516734540462494, -0.20160089433193207, 0.23757117986679077, -0.2074158638715744, -0.2165856957435608, -0.0963052287697792, 0.17404121160507202, -0.4036119878292084, -0.1724923551082611, 0.11361654102802277, 0.15431569516658783, -0.3635163903236389, 0.33483561873435974, 0.25439050793647766, 0.3080427944660187, 0.15972000360488892, -0.1714491993188858, 0.048706311732530594, 0.29241490364074707, 0.029272031038999557, 0.2864346504211426], [-0.019145458936691284, -0.3245384991168976, -0.3063317537307739, -0.2148578017950058, 0.12079181522130966, 0.16131316125392914, -0.3455018997192383, -0.23091191053390503, -0.04544583335518837, 0.20839658379554749, -0.012772240675985813, -0.08985815197229385, 0.3137269616127014, -0.12201281636953354, 0.1901693493127823, -0.22726953029632568, -0.13361161947250366, 0.11417003720998764, -0.3158104717731476, 0.19463935494422913, -0.29996100068092346], [0.19570402801036835, -0.14434367418289185, -0.23173218965530396, -0.2774515748023987, 0.5143612623214722, 0.02398858778178692, -0.04575973004102707, -0.013408241793513298, 0.500329852104187, 0.5441073179244995, 0.09670231491327286, 0.11095020174980164, 0.1894656866788864, 0.46604597568511963, 0.06673887372016907, 0.07607512176036835, 0.40137019753456116, 0.4102334976196289, 0.17368192970752716, -0.37709134817123413, -0.3463452458381653], [-0.2530737519264221, 0.14630617201328278, -0.28548479080200195, -0.2107468545436859, -0.27174437046051025, 0.6488370299339294, 0.2850479781627655, -0.0918072834610939, 0.16360002756118774, 0.6935907602310181, -0.3632967472076416, 0.08499518781900406, -0.23863950371742249, 0.4445424973964691, 0.1988324671983719, -0.3945879340171814, -0.14101062715053558, 0.2897881865501404, -0.2145191729068756, -0.20162531733512878, 0.07724074274301529], [-0.27026596665382385, -0.1294122189283371, -0.3544389307498932, 0.1147269457578659, 0.10994793474674225, -0.026278303936123848, 0.0406012125313282, -0.24992109835147858, 0.46785739064216614, 0.038065746426582336, 0.18611614406108856, -0.3718844950199127, 0.4346126317977905, 0.18204812705516815, -0.42381298542022705, -0.2798697054386139, 0.3792380392551422, 0.17527465522289276, -0.3997703790664673, -0.1379883736371994, 0.11657918989658356], [0.27164793014526367, -0.10740626603364944, 0.22747616469860077, -0.1911773383617401, -0.1762765347957611, 0.2856844961643219, -0.13797996938228607, 0.10509530454874039, 0.06551861763000488, 0.12323067337274551, -0.27279919385910034, -0.387596070766449, -0.25659292936325073, -0.2465980350971222, 0.18551397323608398, -0.22366653382778168, 0.28047797083854675, 0.3660818040370941, 0.13569478690624237, 0.0017831167206168175, 0.13843080401420593], [0.15932632982730865, 0.2272404134273529, 0.010747120715677738, -0.24708564579486847, -0.8496997356414795, 0.522940993309021, 0.0352771170437336, -0.18594056367874146, 0.0675663873553276, 0.45148909091949463, -0.26170259714126587, 0.0013934425078332424, -0.4689132869243622, 0.2561194598674774, -0.011038310825824738, -0.24961359798908234, -0.1871163547039032, -0.0501675009727478, 0.008470023050904274, -0.3701431155204773, 0.04684193432331085]]}, "GRUCell_0": {"hn": {"bias": [-0.08818544447422028, 0.1728484034538269, 0.048730071634054184, -0.08225850015878677, 0.06145426630973816, -0.07007423788309097, 0.12958286702632904, 0.09405548870563507, -0.1043008416891098, 0.10892535746097565, 0.22630953788757324, 0.08114249259233475, 0.18949192762374878, -0.046151697635650635, 0.07785072922706604, -0.006257012020796537, -0.06716318428516388, 0.006988015957176685, -0.018983665853738785, 0.025255734100937843, 0.04598095640540123, 0.321755588054657, 0.05310716852545738, -0.04864538460969925, -0.020889582112431526, 0.09581925719976425, -0.03155182674527168, 0.34917470812797546, -0.10674342513084412, 0.18150940537452698], "kernel": [[0.18740403652191162, 0.026906143873929977, 0.2223389893770218, -0.016977723687887192, 0.1226055771112442, -0.023604953661561012, 0.26439476013183594, 0.027569521218538284, 0.1270529180765152, -0.053124409168958664, -0.06720336526632309, 0.2617553770542145, -0.16699284315109253, 0.057494498789310455, -0.42140087485313416, 0.19852280616760254, -0.03960708528757095, 0.04464169964194298, -0.13024409115314484, -0.0903533548116684, -0.24061618745326996, 0.20841920375823975, -0.006264471914619207, 0.5312046408653259, 0.012957020662724972, 0.015457321889698505, 0.02289472706615925, 0.07909336686134338, 0.022192804142832756, -0.26092082262039185], [0.23424798250198364, -0.23009967803955078, 0.057500313967466354, -0.05916102975606918, 0.08234541118144989, -0.2897356450557709, 0.25382566452026367, 0.10544776916503906, -0.3615432679653168, 0.1429360806941986, -0.2738470733165741, 0.10319908708333969, 0.2605358362197876, 0.03890096768736839, 0.28322917222976685, -0.21732935309410095, 0.013899906538426876, -0.10616087168455124, -0.05975533276796341, 0.36308541893959045, -0.028757687658071518, -0.35576215386390686, -0.10630818456411362, 0.09890270978212357, 0.2516788840293884, 0.10188500583171844, 0.326078861951828, 0.14004503190517426, -0.011691584251821041, 0.020297294482588768], [0.0011369765270501375, -0.1295243352651596, -0.05942673981189728, 0.2675040364265442, -0.011226529255509377, 0.18513338267803192, -0.15797556936740875, 0.012870144098997116, -0.055761151015758514, 0.2338683009147644, 0.0837327167391777, 0.14418792724609375, -0.05569272115826607, -0.15041466057300568, 0.112749382853508, -0.09674636274576187, 0.049967143684625626, 0.4990216791629791, 0.046463530510663986, -0.15641720592975616, -0.48328161239624023, -0.12815183401107788, -0.21989227831363678, 0.026651086285710335, 0.10173627734184265, -0.28083524107933044, 0.22759994864463806, 0.07449737936258316, 0.07029799371957779, 0.13710586726665497], [-0.5531370639801025, -0.3833495080471039, -0.6301062703132629, -0.31276828050613403, -1.0527561902999878, 0.16036944091320038, -0.646954357624054, -0.5206117630004883, 0.8995119333267212, -0.12362805008888245, -1.042879343032837, 0.6191763877868652, -0.7087650299072266, -0.775336503982544, -0.8391309976577759, 0.9896265268325806, 0.5363453030586243, 1.0234911441802979, 0.8977305293083191, -0.36802080273628235, 0.5244153738021851, 0.6070377230644226, 0.17288558185100555, 0.6359864473342896, 0.4973398745059967, -0.6495907306671143, -0.9236828088760376, -0.6710416674613953, 0.26100239157676697, -0.46832334995269775], [-0.15368831157684326, -0.2914338707923889, -0.0290156789124012, 0.6245142817497253, -0.10216871649026871, -0.2715860605239868, -0.07242508232593536, 0.11923620104789734, -0.43001288175582886, -0.23832638561725616, 0.14242085814476013, 0.2969805598258972, 0.0523451566696167, -0.06424286216497421, -0.037401631474494934, -0.5652252435684204, -0.10357523709535599, -0.042821042239665985, -0.020211244001984596, -0.10297971218824387, 0.09830399602651596, -0.23329882323741913, -0.05458560213446617, 0.10531982779502869, 0.09804605692625046, 0.431072473526001, 0.06929265707731247, 0.13884493708610535, -0.09982128441333771, -0.0428428091108799], [0.15540462732315063, 0.12130575627088547, -0.14863093197345734, 0.09866435825824738, -0.30284422636032104, -0.22250433266162872, -0.003758765058591962, 0.2437877058982849, 0.10243741422891617, -0.02482074685394764, 0.042839717119932175, 0.2261725664138794, -0.016571499407291412, 0.12605629861354828, 0.5158082246780396, 0.04884756729006767, -0.11674853414297104, -0.3311508893966675, -0.12347427755594254, -0.10189589112997055, -0.18808233737945557, 0.08631200343370438, -0.22774063050746918, 0.02998322807252407, -0.170227512717247, -0.02254512906074524, 0.07007205486297607, 0.057680804282426834, -0.10634234547615051, 0.47725585103034973], [-0.21758846938610077, -0.1117854043841362, -0.13631491363048553, -0.011553906835615635, -0.11333177983760834, -0.22449927031993866, -0.1451888084411621, 0.17324897646903992, 0.2385861724615097, 0.07350371778011322, -0.21386513113975525, -0.22866474092006683, -0.15626177191734314, 0.18850652873516083, 0.04941696673631668, -0.33779871463775635, -0.23945821821689606, -0.10179543495178223, 0.22288945317268372, -0.058074429631233215, -0.09180434048175812, 0.0858532190322876, -0.3103402256965637, 0.09596887230873108, 0.17527277767658234, 0.02154572680592537, 0.1382749080657959, -0.2515479326248169, -0.47910773754119873, -0.012123892083764076], [0.2587210237979889, -0.17752262949943542, 0.09437578171491623, -0.10006602853536606, -0.4912123680114746, 0.05209057033061981, -0.27347901463508606, 0.0005498099490068853, 0.1426141858100891, 0.056685708463191986, 0.033242132514715195, -0.10311733186244965, 0.023874839767813683, 0.2146269828081131, -0.06935635954141617, 0.002218683483079076, -0.2062753587961197, 0.32346946001052856, -0.20874592661857605, 0.06779196858406067, 0.09193515032529831, 0.3237021565437317, -0.10408605635166168, -0.09547789394855499, 0.3008321523666382, -0.0032164582516998053, -0.1578301340341568, 0.3613387644290924, 0.06445811688899994, 0.11406917124986649], [-0.3029879629611969, -0.030216922983527184, 0.43975260853767395, -0.12146173417568207, 0.027093693614006042, 0.06394806504249573, 0.022410744801163673, -0.13206444680690765, 0.05841699615120888, 0.13955006003379822, -0.078165702521801, 0.34884199500083923, -0.23769190907478333, -0.1465654969215393, 0.4021094739437103, -0.03747788071632385, 0.08176589757204056, 0.37899190187454224, 0.09832906723022461, 0.17202571034431458, 0.06519033759832382, 0.2012099176645279, 0.10143730044364929, 0.12373729050159454, -0.1699109524488449, 0.25100523233413696, -0.035761043429374695, -0.19922009110450745, -0.1625441461801529, -0.14537855982780457], [-0.006109533831477165, -0.14440742135047913, -0.0362243615090847, 0.24345803260803223, 0.1521671861410141, 0.16480693221092224, 0.17334173619747162, -0.3087487518787384, 0.10860008001327515, -0.19130194187164307, -0.10957245528697968, 0.24503421783447266, 0.18347564339637756, 0.5812351107597351, 0.3144219219684601, -0.16737988591194153, -0.13838866353034973, -0.12806648015975952, 0.038610849529504776, -0.0776592567563057, -0.31941547989845276, -0.016346560791134834, 0.025322673842310905, -0.0114094577729702, 0.03323579579591751, 0.23967495560646057, 0.07166088372468948, 0.19381846487522125, -0.24783997237682343, -0.04695698618888855], [-0.01428384892642498, -0.08377239853143692, 0.24039894342422485, 0.32487818598747253, 0.2590966522693634, 0.0012159335892647505, 0.08321651816368103, 0.5052140355110168, -0.3839787542819977, -0.12411535531282425, -0.34451013803482056, -0.19681806862354279, 0.23778830468654633, 0.1996736377477646, 0.16514171659946442, -0.1731444001197815, -0.195097416639328, 0.1930992603302002, -0.16154232621192932, -0.10810379683971405, 0.2417462170124054, -0.07334709912538528, -0.019528107717633247, 0.15709102153778076, -0.36898261308670044, 0.3277006149291992, 0.2598452866077423, 0.1865747570991516, -0.3752029240131378, 0.3041079640388489], [-0.3403605818748474, -0.1484157145023346, -0.14237187802791595, -0.008877195417881012, -0.044536881148815155, -0.5488405227661133, -0.04936562106013298, -0.20120343565940857, -0.04131603240966797, -0.046777840703725815, -0.30831530690193176, -0.08226368576288223, -0.029920106753706932, -0.16961920261383057, -0.39680415391921997, 0.021034913137555122, -0.21996714174747467, 0.17767579853534698, 0.06291404366493225, 0.1630244255065918, -0.08593083173036575, 0.4126425087451935, -0.05142979696393013, 0.08828515559434891, -0.12514223158359528, -0.20737208425998688, 0.18306730687618256, 0.053602349013090134, 0.16359379887580872, -0.02441120706498623], [0.08516234904527664, -0.28361931443214417, 0.04025609418749809, 0.17119552195072174, 0.1788175106048584, 0.00446208193898201, 0.2597365081310272, -0.11480140686035156, 0.2587878704071045, 0.2707476317882538, 0.3137228488922119, -0.08981963247060776, 0.03975600004196167, -0.020404664799571037, 0.020771970972418785, -0.21948620676994324, 0.02579152025282383, -0.10778171569108963, 0.23738674819469452, 0.11367037892341614, 0.12955796718597412, 0.20505936443805695, 0.1891370266675949, 0.12526658177375793, -0.14583609998226166, 0.00911423284560442, 0.07627906650304794, 0.23753239214420319, -0.10551539808511734, 0.19476792216300964], [-0.3973059356212616, -0.12636186182498932, -0.28376150131225586, -0.47781404852867126, -0.2841431796550751, -0.047848593443632126, 0.07246407121419907, 0.05533125251531601, 0.4516650140285492, -0.4511474072933197, 0.06233461573719978, 0.03923407942056656, -0.1134096086025238, 0.12676475942134857, -0.12775176763534546, -0.0666281059384346, 0.46772435307502747, 0.45908814668655396, -0.06215629354119301, 0.004307326395064592, -0.00035905741970054805, -0.039830245077610016, -0.005228517577052116, 0.0386660173535347, 0.02334759384393692, -0.27327269315719604, -0.28903236985206604, -0.02771083451807499, -0.12404392659664154, -0.09104232490062714], [-0.009994151070713997, -0.2029493898153305, -0.427392840385437, 0.005148420110344887, 0.168392151594162, -0.1673666536808014, -0.04545415937900543, 0.17347736656665802, 0.17437578737735748, -0.14920082688331604, -0.1819261759519577, 0.21226866543293, -0.07127761840820312, -0.22533561289310455, 0.0807410255074501, 0.16315852105617523, -0.3277801275253296, 0.20070473849773407, 0.33524444699287415, 0.04113337770104408, -0.011128981597721577, -0.07196217775344849, 0.06460336595773697, 0.050838250666856766, -0.21041390299797058, 0.3584604859352112, 0.05906670168042183, 0.16871093213558197, 0.07296524941921234, 0.09658114612102509], [0.1599883884191513, 0.3603549599647522, -0.25359365344047546, 0.06394364684820175, -0.10905178636312485, -0.2526436150074005, 0.3967428207397461, 0.11324991285800934, -0.39691972732543945, 0.13463334739208221, 0.19623123109340668, -0.20835836231708527, -0.3836095333099365, 0.5658992528915405, 0.15495647490024567, 0.06407160311937332, -0.026974499225616455, -0.03228866681456566, 0.006320029962807894, -0.2685847282409668, 0.19809681177139282, -0.3051188588142395, 0.19418345391750336, -0.06147521361708641, 0.1168750524520874, -0.018829520791769028, 0.30165040493011475, 0.26512640714645386, -0.0009183681104332209, -0.04226905480027199], [-0.07738596946001053, -0.03125819191336632, -0.0553598515689373, -0.11265359818935394, -0.010083326138556004, -0.11600959300994873, -0.23650117218494415, -0.2625313699245453, 0.31401026248931885, -0.2455102801322937, -0.0019328686175867915, -0.06981972604990005, -0.0017121592536568642, -0.288223534822464, 0.04682676121592522, 0.4295516908168793, 0.3752865493297577, -0.006967299617826939, 0.11272083967924118, -0.20365723967552185, 0.1729981005191803, 0.23187926411628723, -0.3977277874946594, -0.345289021730423, 0.34370577335357666, 0.08065705746412277, 0.2267417162656784, 0.1911102533340454, -0.09940768033266068, -0.15190820395946503], [-0.12816491723060608, -0.43907466530799866, -0.04126545786857605, -0.15987853705883026, 0.35946717858314514, -0.14367547631263733, -0.2959272563457489, -0.41514816880226135, 0.33206605911254883, -0.30873242020606995, -0.05582550913095474, -0.28599387407302856, -0.39172622561454773, -0.18510504066944122, 0.2390870600938797, 0.2610342800617218, 0.3457876741886139, 0.006559972185641527, 0.061997778713703156, -0.13149158656597137, -0.1683572679758072, -0.061748191714286804, 0.10005784034729004, 0.6579068303108215, 0.19510777294635773, -0.3384867012500763, -0.34481334686279297, -0.14130176603794098, 0.16949056088924408, -0.04741993919014931], [0.26415613293647766, -0.3045057952404022, -0.2970459461212158, 0.32010191679000854, -0.1777464598417282, -0.18985462188720703, 0.0922795981168747, 0.4141786992549896, -0.18280291557312012, -0.1287965029478073, 0.2562715709209442, -0.1659136265516281, 0.4651343822479248, -0.03565588593482971, 0.20619215071201324, 0.06676458567380905, -0.08764784783124924, 0.17468023300170898, 0.23858870565891266, 0.15594574809074402, -0.2238013744354248, 0.21307870745658875, -0.005507299210876226, 0.2338980883359909, 0.11579838395118713, 0.08631327003240585, 0.16666068136692047, -0.27800559997558594, -0.21866121888160706, -0.07934833317995071], [-0.44009116291999817, -0.08601506799459457, -0.1058196946978569, -0.005751464515924454, -0.3516509234905243, 0.23972660303115845, 0.09326890856027603, -0.07017900049686432, 0.4285239577293396, -0.37752535939216614, -0.1900511234998703, -0.19238081574440002, -0.19553148746490479, 0.16291531920433044, 0.08961407095193863, 0.1605111062526703, 0.2766924798488617, -0.0666428953409195, 0.1630842685699463, 0.06391558796167374, 0.17612595856189728, 0.25570037961006165, -0.32591304183006287, -0.156641885638237, 0.11841406673192978, -0.18293491005897522, 0.08542262017726898, -0.30464673042297363, 0.7006001472473145, -0.08479521423578262], [0.08486544340848923, -0.21819354593753815, -0.2964410185813904, -0.15512201189994812, -0.17012576758861542, 0.15385299921035767, -0.49860748648643494, -0.07767353951931, 0.12974035739898682, 0.037377648055553436, 0.03985876962542534, -0.15374477207660675, -0.2851623594760895, 0.06541363894939423, 0.07460406422615051, -0.02472614124417305, 0.04046289250254631, -0.1633492410182953, 0.15375371277332306, 0.33908286690711975, 0.11694686859846115, 0.05009492486715317, -0.3790335953235626, 0.08572763204574585, -0.32356518507003784, -0.09368966519832611, 0.16103680431842804, 0.1744362860918045, 0.17301726341247559, -0.31965094804763794], [-0.5013090968132019, -0.16686944663524628, -0.5522738099098206, -0.6621630787849426, -0.9184437394142151, 0.5587880611419678, -0.3391011655330658, -0.9920894503593445, 0.21191664040088654, -0.4937955439090729, -0.38273197412490845, 0.023194674402475357, -0.5846034288406372, -0.7278091311454773, -0.4530041217803955, 0.7918044924736023, -0.1052865982055664, 0.21119114756584167, 0.8184853196144104, -0.16999094188213348, 0.603973388671875, 0.6565706729888916, -0.1403721123933792, 0.31496796011924744, 0.39873239398002625, -0.5757855772972107, -0.5913618803024292, -0.24913306534290314, 0.2342761605978012, -0.2220386266708374], [0.17280487716197968, -0.22351408004760742, -0.008832615800201893, 0.2317003607749939, -0.011555520817637444, -0.26135534048080444, 0.12701208889484406, -0.38279634714126587, 0.004245433025062084, 0.07657971233129501, -0.20360907912254333, 0.0030887320172041655, 0.2874942123889923, -0.030786558985710144, -0.03158186003565788, -0.0025892623234540224, 0.20424897968769073, 0.31548210978507996, 0.07076513022184372, -0.13980215787887573, 0.013329883106052876, -0.19311854243278503, -0.3893176019191742, 0.09910618513822556, -0.3941535949707031, 0.26404187083244324, -0.3943083584308624, -0.29674530029296875, 0.018661709502339363, 0.03190170228481293], [-0.4308517873287201, -0.703079104423523, 0.0025198450312018394, -0.09255840629339218, -0.11389781534671783, -0.04265322908759117, 0.089649997651577, 0.04360358044505119, -0.1648469865322113, 0.21136115491390228, 0.03362090513110161, 0.11836250126361847, 0.23590539395809174, 0.15110737085342407, -0.04042137414216995, 0.21503596007823944, 0.14809952676296234, -0.1092996820807457, 0.20318950712680817, -0.23803548514842987, -0.2991009056568146, -0.04369048774242401, -0.13016459345817566, 0.0066734799183905125, -0.08213528245687485, 0.034099314361810684, 0.009631983935832977, 0.15308241546154022, -0.09077656269073486, 0.163639098405838], [-0.1401877999305725, 0.04052363336086273, 0.19169162213802338, 0.1924985945224762, 0.11552645266056061, -0.2894560992717743, -0.19180376827716827, -0.08728485554456711, 0.058720801025629044, -0.01837465912103653, 0.29517751932144165, 0.24962320923805237, 0.5010930299758911, 0.1184689998626709, -0.00032208484481088817, -0.024524832144379616, -0.3175662159919739, 0.15917135775089264, 0.3068794906139374, -0.04388488084077835, 0.1849280595779419, -0.18856437504291534, -0.17900463938713074, 0.38576439023017883, 0.08917368948459625, -0.0752902403473854, 0.15391898155212402, -0.0672263503074646, 0.016889186576008797, 0.14501526951789856], [-0.32544857263565063, 0.1699019819498062, -0.2178567498922348, 0.19236743450164795, -0.13944128155708313, -0.05714702606201172, -0.04749303311109543, 0.06950131803750992, -0.10309512168169022, 0.41360709071159363, -0.08637497574090958, -0.13825492560863495, 0.35072875022888184, -0.02132667973637581, 0.3202373683452606, -0.13440430164337158, -0.08654407411813736, -0.057203259319067, -0.3094664216041565, -0.1747368425130844, 0.0020212193485349417, -0.0018506214255467057, 0.01034080982208252, 0.37180495262145996, -0.043836984783411026, 0.3123703598976135, 0.10374955832958221, 0.2290431261062622, -0.060632675886154175, -0.25454846024513245], [-0.5811252593994141, -0.4427340626716614, -0.9078078269958496, -0.49454250931739807, -0.591482400894165, 0.3018558621406555, -0.6842672228813171, -0.9201175570487976, 0.3751790523529053, -0.15582649409770966, -0.20590755343437195, 0.28934845328330994, -0.8036123514175415, -0.32088547945022583, -0.6653265953063965, 1.1485447883605957, 0.15160436928272247, 0.30742084980010986, 0.19753685593605042, 0.026481883600354195, 0.7230181097984314, 0.8286947011947632, -0.17544116079807281, 0.15645211935043335, 0.5045225024223328, -0.46052688360214233, -0.4778449237346649, -0.8062967658042908, 0.25570568442344666, -0.06982945650815964], [0.193086639046669, -0.06450691819190979, -0.16513845324516296, -0.05638544633984566, -0.0006975939031690359, -0.16382403671741486, -0.3931957483291626, -0.06651546061038971, -0.3196253776550293, -0.19764447212219238, -0.17086783051490784, 0.12643173336982727, 0.35942474007606506, 0.14120706915855408, 0.10829269886016846, -0.3305772542953491, 0.22908906638622284, 0.12090881168842316, 0.15261927247047424, -0.274255633354187, 0.0016553722089156508, 0.19905266165733337, 0.27963921427726746, 0.29082462191581726, -0.14795485138893127, 0.1339530497789383, 0.29686814546585083, -0.11774411052465439, 0.021878305822610855, 0.1639726161956787], [-0.03235909342765808, -0.3432232439517975, -0.0646665170788765, -0.13139259815216064, -0.15111936628818512, -0.10541436076164246, 0.02058921940624714, 0.022346658632159233, 0.21319545805454254, -0.12709614634513855, -0.042993493378162384, 0.017245301976799965, -0.13072539865970612, -0.08561664819717407, 0.2916942536830902, 0.14500296115875244, -0.2437371164560318, -0.08826373517513275, -0.2180759161710739, -0.18744927644729614, 0.14844852685928345, 0.12099931389093399, 0.33517149090766907, -0.28020164370536804, -0.05964721366763115, -0.4832340478897095, -0.021887512877583504, -0.10096391290426254, 0.08871672302484512, -0.31315088272094727], [-0.19152216613292694, -0.143050417304039, 0.05859125778079033, -0.5494635105133057, -0.3806433081626892, 0.2014617919921875, -0.35217520594596863, -0.45523813366889954, 0.3527891933917999, 0.10858897864818573, -0.2034722864627838, -0.31109827756881714, -0.44070953130722046, -0.10455752164125443, -0.37096118927001953, 0.21622352302074432, -0.13162416219711304, -0.14925667643547058, 0.08209019154310226, -0.21488851308822632, -0.14693282544612885, -0.21465423703193665, 0.033067017793655396, 0.01579972729086876, 0.1177605465054512, 0.37641507387161255, 0.10250090807676315, -0.4870968163013458, 0.124886654317379, -0.11993016302585602]]}, "hr": {"kernel": [[-0.0935516357421875, 0.19029554724693298, 0.2488866001367569, 0.18510904908180237, -0.18961265683174133, -0.02810519188642502, -0.10021398216485977, 0.2338094413280487, -0.2775578796863556, -0.16003893315792084, -0.32737600803375244, 0.20245088636875153, 0.12010834366083145, 0.11969362199306488, 0.3173172175884247, 0.21076282858848572, -0.0829513743519783, -0.008056113496422768, -0.3175290524959564, -0.16050057113170624, 0.07872232049703598, -0.0527728870511055, 0.19429995119571686, -0.0565786175429821, 0.24230916798114777, -0.16292135417461395, 0.1393454372882843, 0.1023506447672844, -0.02104242518544197, -0.1834062933921814], [0.16619278490543365, 0.16034187376499176, 0.12802591919898987, -0.3198644816875458, -0.12701526284217834, 0.034909605979919434, -0.2753071188926697, 0.07565408200025558, 0.007138821296393871, -0.2487301379442215, -0.09474829584360123, 0.06244617700576782, 0.2854841649532318, 0.3669564127922058, 0.35522356629371643, 0.019404971972107887, -0.38540834188461304, 0.12652865052223206, 0.3669201135635376, -0.013417349196970463, -0.38215315341949463, -0.19133441150188446, -0.06506424397230148, 0.17387321591377258, -0.23702330887317657, 0.2878919541835785, 0.024217691272497177, -0.09064043313264847, -0.16568323969841003, 0.036707885563373566], [-0.16035838425159454, -0.03745126724243164, 0.0874636247754097, -0.06405020505189896, 0.27295711636543274, 0.03920533508062363, -0.059423208236694336, -0.08034519851207733, -0.37397220730781555, 0.2087155431509018, 0.055134836584329605, -0.3410125970840454, 0.38174501061439514, -0.003735054051503539, 0.15244060754776, 0.05799097567796707, -0.2361413538455963, -0.1607106477022171, 0.13089673221111298, -0.2394346296787262, 0.2887400984764099, -0.16442520916461945, 0.010396145284175873, -0.0247346218675375, 0.14498956501483917, 0.16824740171432495, -0.03255196288228035, -0.4277147650718689, -0.0204575527459383, 0.03130120038986206], [0.41766414046287537, 0.15896399319171906, 0.6308725476264954, 0.6178926825523376, 0.6816098093986511, -0.04342980682849884, 0.2368723303079605, 1.1755428314208984, 0.7941028475761414, -0.17221203446388245, 0.787220299243927, 0.0881013423204422, 0.8529770970344543, 0.6663925647735596, 0.9551334977149963, 0.8606590628623962, -0.29840460419654846, 1.0470227003097534, 0.9352011680603027, -0.814335286617279, 0.34352317452430725, 0.4266453683376312, -0.47839927673339844, 0.0930330753326416, -0.08959052711725235, 0.7562479972839355, 0.35599517822265625, 0.7104361057281494, -0.11394495517015457, -0.38908490538597107], [0.010978151112794876, -0.005730500444769859, 0.1092015951871872, 0.22758007049560547, -0.15172342956066132, 0.31454581022262573, 0.09827093780040741, 0.2458542138338089, -0.1867312639951706, -0.09061332792043686, -0.0169354397803545, -0.2504447102546692, 0.07432156056165695, 0.10120704025030136, 0.12744386494159698, 0.5196362733840942, 0.12609833478927612, 0.16704484820365906, 0.03718218952417374, 0.09038690477609634, 0.006110182497650385, 0.09035404026508331, -0.20066575706005096, 0.3676566779613495, -0.3581342101097107, 0.4302382469177246, 0.11877584457397461, -0.1201399639248848, 0.06022067368030548, -0.1523028165102005], [0.05983223766088486, -0.007255932316184044, 0.33020663261413574, 0.23945440351963043, 0.44946804642677307, 0.004724753089249134, -0.3572361171245575, 0.1844748556613922, 0.22329019010066986, -0.3921884596347809, 0.11448334902524948, -0.43334275484085083, 0.017146427184343338, 0.28349000215530396, 0.43513765931129456, 0.4634464979171753, -0.4258493483066559, 0.3388521671295166, -0.08036811649799347, -0.07846879214048386, -0.21199563145637512, 0.6984266042709351, 0.13378049433231354, -0.13145777583122253, -0.4956282377243042, -0.26099082827568054, 0.2873140275478363, 0.2613154649734497, 0.23769663274288177, 0.23859699070453644], [0.1340222805738449, 0.02266542986035347, -0.16375429928302765, 0.4109255373477936, 0.20561400055885315, 0.018140973523259163, -0.2508618235588074, 0.22578060626983643, 0.05331607535481453, 0.11493918299674988, 0.36045604944229126, -0.12056530267000198, 0.4081299304962158, 0.2320639193058014, 0.3657667636871338, 0.2924354374408722, 0.037805818021297455, -0.08840950578451157, 0.06335405260324478, 0.18939591944217682, -0.3383329212665558, -0.23193120956420898, -0.26362860202789307, 0.022958606481552124, -0.025877634063363075, -0.03726763650774956, 0.020063629373908043, 0.17237842082977295, -0.17278911173343658, -0.21272629499435425], [0.18372099101543427, 0.014244663529098034, 0.34126734733581543, 0.037692274898290634, 0.2220822423696518, -0.22271636128425598, 0.1202152818441391, -0.16050761938095093, -0.3870754539966583, -0.08856519311666489, 0.1929815113544464, 0.4086815118789673, -0.2641967236995697, -0.19155727326869965, -0.2344513088464737, -0.20446814596652985, 0.08461698144674301, 0.2205457240343094, 0.00862235389649868, 0.034457702189683914, 0.13919179141521454, -0.12018905580043793, -0.045022301375865936, -0.3331690728664398, 0.1795266717672348, -0.012351533398032188, 0.058970529586076736, -0.07526116073131561, 0.1071072593331337, 0.0636059120297432], [-0.0652233436703682, 0.17731687426567078, -0.12069226801395416, -0.13748347759246826, 0.28294965624809265, -0.26947087049484253, 0.0842495784163475, -0.088307224214077, -0.00015935738338157535, -0.40533819794654846, 0.06875254213809967, -0.2254602164030075, 0.09924405068159103, -0.22141586244106293, 0.03873875364661217, -0.043146051466464996, -0.0037344673182815313, 0.29570814967155457, -0.044013798236846924, -0.014878123067319393, -0.2199617475271225, 0.12733769416809082, -0.1832900196313858, 0.18146923184394836, 0.04884636029601097, -0.027624385431408882, 0.160223588347435, -0.04527844861149788, 0.19455061852931976, -0.3771118223667145], [-0.29186511039733887, 0.22204795479774475, -0.2512759864330292, -0.35246819257736206, 0.1663026362657547, 0.2301640808582306, -0.3620276153087616, 0.09884152561426163, -0.2967076301574707, 0.3322359323501587, -0.1235862448811531, 0.1100824624300003, -0.1586475372314453, -0.16643647849559784, 0.08959799259901047, -0.08752132207155228, -0.14408902823925018, -0.025090649724006653, -0.044537827372550964, 0.15049299597740173, 0.18410493433475494, -0.030337058007717133, -0.26125475764274597, 0.0037235126364976168, -0.18412244319915771, 0.3016910254955292, 0.0322059690952301, 0.37671959400177, 0.004257966298609972, -0.14244039356708527], [-0.023186270147562027, -0.23238219320774078, -0.37610915303230286, 0.1475105881690979, -0.14499394595623016, 0.03294733166694641, 0.14743681252002716, 0.12339408695697784, 0.002347673522308469, -0.1427823007106781, -0.1798066347837448, -0.029212556779384613, 0.023554012179374695, 0.3822638690471649, 0.3326818346977234, -0.01605273224413395, -0.09115283191204071, -0.17109180986881256, 0.014885412529110909, -0.25668346881866455, -0.21898576617240906, 0.1422460377216339, -0.5086176991462708, -0.21215181052684784, -0.20782570540905, 0.0070044538006186485, 0.3464003801345825, -0.06613676995038986, 0.03338971734046936, -0.024973707273602486], [-0.02998451329767704, -0.35468757152557373, 0.05851849541068077, 0.030016779899597168, 0.17439819872379303, -0.46488988399505615, -0.22006551921367645, 0.11161122471094131, -0.168386772274971, -0.3955709636211395, 0.29965826869010925, 0.04400887340307236, 0.018244389444589615, 0.09374601393938065, 0.30087360739707947, 0.765642523765564, -0.2472051978111267, -0.06404775381088257, 0.5334972143173218, -0.1542932242155075, 0.21994636952877045, 0.4297026991844177, 0.14792758226394653, 0.1155676543712616, -0.15448646247386932, 0.3845793306827545, 0.22062723338603973, 0.12921029329299927, -0.0032379627227783203, -0.3688168525695801], [-0.26683491468429565, -0.3897993564605713, 0.02939102239906788, 0.004653534851968288, 0.19793953001499176, 0.047002796083688736, -0.26231712102890015, -0.23511405289173126, -0.17852303385734558, -0.07600020617246628, -0.381401002407074, -0.05618414282798767, 0.2854052186012268, -0.13835911452770233, 0.06965836137533188, 0.06922611594200134, 0.29195085167884827, 0.13388580083847046, 0.0355999618768692, -0.1425788849592209, -0.20905981957912445, -0.30067044496536255, -0.17564506828784943, 0.28026318550109863, -0.3930165767669678, -0.06542789936065674, 0.07690884172916412, 0.04730122536420822, -0.285942405462265, -0.024563049897551537], [0.16191987693309784, 0.1806466281414032, 0.18007877469062805, 0.20949438214302063, 0.2055538147687912, 0.3006223142147064, 0.09865555912256241, -0.013409648090600967, 0.1269633173942566, 0.3533783257007599, 0.2553686797618866, -0.061893727630376816, -0.0355735719203949, 0.03808462619781494, -0.1905234009027481, 0.050302498042583466, 0.12854650616645813, -0.11079134792089462, 0.1265736073255539, -0.5435259938240051, -0.29219475388526917, 0.1460314244031906, 0.1772751361131668, 0.24567653238773346, 0.28645193576812744, 0.1523057520389557, 0.36196497082710266, 0.23523947596549988, -0.37327080965042114, -0.32751137018203735], [0.3775002658367157, 0.0917964056134224, -0.42005935311317444, -0.013041532598435879, 0.16097229719161987, 0.02965550124645233, -0.1722603291273117, -0.11005654186010361, -0.05481317639350891, 0.01842011883854866, -0.26958611607551575, -0.017730705440044403, -0.15101997554302216, -0.10205760598182678, 0.0632806196808815, 0.6435978412628174, -0.1419961303472519, 0.05079355463385582, 0.2618137001991272, -0.22542889416217804, 0.15210236608982086, -0.2565925419330597, -0.1841048002243042, 0.23106148838996887, -0.16401967406272888, -0.1541513353586197, 0.07234272360801697, -0.07066789269447327, -0.24295516312122345, 0.0489482618868351], [-0.27870550751686096, -0.041169408708810806, -0.0781824141740799, 0.39752674102783203, -0.2162567526102066, -0.12147950381040573, -0.2569499611854553, 0.11834575980901718, -0.03474263846874237, -0.23013819754123688, 0.05160512402653694, -0.23322844505310059, 0.09757950901985168, -0.30937451124191284, 0.010355557315051556, 0.14001397788524628, -0.40990373492240906, -0.04904783144593239, 0.06386817246675491, 0.09070651978254318, -0.0753111019730568, -0.0750727653503418, -0.16598691046237946, -0.2163805067539215, -0.25727027654647827, 0.12818309664726257, 0.42221805453300476, 0.06204511597752571, -0.40126362442970276, 0.1127391904592514], [0.07417400926351547, -0.23669281601905823, 0.5401667952537537, 0.12887084484100342, 0.04374583810567856, 0.2927812337875366, -0.20029284060001373, 0.08539222925901413, 0.2987660765647888, -0.13121621310710907, 0.023395290598273277, -0.007008025888353586, -0.051539331674575806, 0.1492408663034439, 0.06307675689458847, 0.15855270624160767, -0.1947501003742218, -0.10008996725082397, 0.1323108822107315, 0.0662832260131836, 0.2316807508468628, 0.02030367963016033, -0.28701651096343994, -0.04344154894351959, -0.02990635298192501, -0.19713862240314484, -0.0759914442896843, -0.07559151947498322, 0.12681840360164642, -0.3567929267883301], [-0.03985978290438652, 0.17335481941699982, 0.45067930221557617, -0.2779920995235443, 0.4063440263271332, -0.2326551228761673, 0.16497544944286346, 0.005742322653532028, 0.16389994323253632, 0.08670220524072647, 0.3063647449016571, 0.04737149178981781, -0.008505215868353844, 0.28996050357818604, 0.739318311214447, 0.497245192527771, 0.3816898763179779, 0.24851864576339722, 0.3111453652381897, 0.07206398993730545, -0.0877823606133461, 0.4376992881298065, 0.005964652169495821, -0.1716545969247818, -0.0335463285446167, 0.3195609152317047, -0.0905030369758606, 0.12648779153823853, -0.3876549303531647, -0.04802706092596054], [0.28498324751853943, -0.1863081306219101, 0.02701309509575367, -0.054617419838905334, -0.22167326509952545, 0.24659094214439392, -0.07863540202379227, 0.08660382777452469, -0.005372729152441025, 0.1651780903339386, -0.04062915965914726, -0.15333954989910126, 0.30102503299713135, -0.29547110199928284, 0.36977195739746094, 0.43601128458976746, -0.08552511781454086, 0.2438785582780838, 0.09720844775438309, 0.07423102855682373, -0.3081355392932892, 0.3171166181564331, 0.026814434677362442, -0.2370559126138687, -0.07350406795740128, -0.0032866017427295446, 0.3640527129173279, -0.1564938873052597, 0.11507990956306458, -0.13338766992092133], [-0.01039985753595829, 0.32622194290161133, 0.2464565932750702, 0.01778130605816841, -0.06122317537665367, -0.11839114129543304, -0.14131560921669006, 0.2493000030517578, 0.026286955922842026, 0.08459540456533432, 0.05539321154356003, 0.0704721212387085, 0.21340499818325043, -0.17248988151550293, -0.04948006570339203, 0.21378609538078308, 0.17045889794826508, -0.18714193999767303, -0.32803237438201904, -0.41730526089668274, -0.18170160055160522, 0.3389802873134613, -0.21849653124809265, -0.03988415747880936, -0.2294483631849289, -0.10441084951162338, -0.42570924758911133, -0.08137810230255127, -0.11335151642560959, 0.05608392134308815], [-0.06932338327169418, 0.1444069892168045, 0.4093210697174072, 0.22379297018051147, 0.4654768109321594, -0.07329653203487396, 0.22673286497592926, 0.2117547243833542, 0.10680320113897324, 0.2906692922115326, -0.29129156470298767, 0.25997495651245117, 0.29664137959480286, -0.2146739959716797, 0.3092658519744873, 0.3204241394996643, -0.06497945636510849, -0.31281352043151855, 0.16950194537639618, 0.10148050636053085, -0.19261331856250763, 0.2817491292953491, 0.08525698632001877, -0.061882179230451584, -0.3768751621246338, 0.07781974971294403, 0.11693357676267624, -0.034091513603925705, 0.2136388123035431, 0.12067630141973495], [0.44230127334594727, 0.5322778820991516, 0.5959399938583374, 0.7478177547454834, 0.3682347536087036, -0.2239258587360382, 0.5507862567901611, -0.08242229372262955, 0.39790743589401245, -0.016280310228466988, 0.7108815908432007, 0.13162817060947418, 0.7612330913543701, 0.4545436203479767, 1.0770790576934814, 0.6763964891433716, -0.25894036889076233, 0.5793934464454651, 0.6507429480552673, -0.3966427445411682, 0.6898947358131409, 0.6420589685440063, -0.1630192995071411, 0.25177866220474243, -0.25383052229881287, 0.5519960522651672, 0.3217487037181854, 0.5588318109512329, -0.08021128177642822, -0.34959256649017334], [-0.32455962896347046, -0.06527717411518097, -0.17468687891960144, 0.04103957116603851, -0.01953469216823578, -0.02915552444756031, -0.14673002064228058, 0.030794618651270866, 0.08244669437408447, 0.2992734909057617, 0.24569639563560486, 0.4509539008140564, -0.004434759262949228, 0.14946094155311584, 0.1485074758529663, 0.1873071938753128, -0.008352678269147873, 0.3629360496997833, 0.06745952367782593, -0.0637115091085434, -0.0113679189234972, 0.06779976189136505, 0.04911709204316139, 0.2685665190219879, -0.3307704031467438, -0.19430914521217346, 0.0719883143901825, -0.33966806530952454, -0.12613750994205475, -0.20206069946289062], [0.06410860270261765, -0.012275103479623795, -0.05043395981192589, 0.09527676552534103, 0.004811778198927641, 0.18616382777690887, -0.2825693190097809, 0.04155693203210831, 0.10755032300949097, -0.19833894073963165, -0.01755475252866745, 0.15760739147663116, 0.31765398383140564, -0.13690359890460968, 0.17838121950626373, -0.13425081968307495, 0.21381354331970215, 0.09330067038536072, 0.14894184470176697, 0.13672828674316406, 0.3853916525840759, 0.41535302996635437, 0.0005889568710699677, 0.20285770297050476, 0.2722136676311493, 0.09134702384471893, 0.1857970654964447, -0.06984754651784897, -0.10890120267868042, 0.28519028425216675], [-0.21065069735050201, 0.29301050305366516, -0.06435856223106384, 0.27309808135032654, -0.18760132789611816, 0.05652809515595436, -0.02284953184425831, 0.2829747200012207, -0.2539291977882385, 0.04192807897925377, 0.015428388491272926, -0.19269320368766785, -0.24376146495342255, -0.06141853705048561, 0.3122459352016449, -0.026994353160262108, 0.2090359926223755, 0.029363801702857018, 0.6051968336105347, 0.04526754468679428, -0.18836680054664612, -0.20742946863174438, -0.08418912440538406, 0.24319902062416077, 0.12583312392234802, -0.18305832147598267, -0.15733005106449127, -0.01648290455341339, 0.22254468500614166, 0.09401215612888336], [0.01930181309580803, -0.30250197649002075, 0.1054060235619545, -0.11258050799369812, -0.1061728447675705, -0.3802867829799652, 0.1010514497756958, 0.29721033573150635, 0.37964993715286255, -0.02925470471382141, 0.10003427416086197, -0.19308966398239136, -0.018185606226325035, -0.1819838136434555, 0.38784658908843994, 0.2723689377307892, -0.19124004244804382, 0.08747047930955887, -0.15489614009857178, 0.007327820174396038, -0.004084737505763769, -0.3722097873687744, -0.21657103300094604, 0.19652177393436432, -0.17770163714885712, 0.13421250879764557, 0.26499950885772705, 0.22860895097255707, -0.09943853318691254, 0.08422424644231796], [0.496970534324646, 0.2686749994754791, 0.6320626735687256, 0.6626092791557312, 0.6236282587051392, -0.22171109914779663, 0.4239950180053711, 0.7752619981765747, 0.21051371097564697, -0.150868758559227, 0.49312880635261536, -0.031236154958605766, 0.4689234793186188, 0.4413922429084778, 0.81332927942276, 0.4527275264263153, -0.39468687772750854, 0.4247191548347473, 0.44472619891166687, 0.03471799194812775, 0.42661261558532715, 0.7627794742584229, -0.07395463436841965, 0.3816570043563843, -0.3214878439903259, 0.3320687711238861, 0.32689565420150757, 0.2347167432308197, -0.5404757261276245, -0.3301147222518921], [-0.3206552565097809, -0.1562124490737915, -0.16851894557476044, -0.0356743261218071, -0.00867435336112976, 0.3978334665298462, -0.007017701398581266, -0.010992130264639854, -0.051996562629938126, -0.2386588305234909, 0.130559504032135, 0.047208044677972794, 0.15893658995628357, -0.06734925508499146, 0.22068460285663605, 0.48037779331207275, -0.38282275199890137, -0.042124249041080475, -0.130534365773201, 0.03634314611554146, -0.4478054344654083, -0.12299881130456924, -0.2733820676803589, 0.2574991285800934, 0.20703554153442383, 0.09836030006408691, 0.11487586796283722, -0.009257837198674679, 0.09092064201831818, 0.3528212904930115], [-0.23297204077243805, 0.252963125705719, 0.24789518117904663, -0.24722668528556824, -0.048509374260902405, -0.0779133290052414, 0.31698474287986755, 0.06766101717948914, 0.06121392548084259, -0.148522287607193, 0.12632864713668823, 0.02891607955098152, 0.38762369751930237, 0.08106031268835068, -0.22641779482364655, 0.2820591628551483, 0.13047261536121368, -0.25902655720710754, 0.0416511669754982, 0.21926449239253998, 0.18405914306640625, -0.09465848654508591, -0.04599417373538017, -0.047851111739873886, -0.3164905905723572, -0.3122825026512146, 0.27946344017982483, 0.1555422693490982, -0.19388912618160248, 0.07883379608392715], [0.2491103708744049, -0.04010749235749245, 0.42199429869651794, 0.14521382749080658, 0.3660731613636017, 0.15015415847301483, 0.574089765548706, 0.34701356291770935, 0.01651308871805668, -0.12605394423007965, 0.5581257343292236, -0.1964975893497467, 0.31992217898368835, -0.19844400882720947, 0.2940761148929596, 0.21643321216106415, -0.21648728847503662, -0.1284172534942627, 0.41979584097862244, -0.288827508687973, -0.016225196421146393, 0.4736325442790985, 0.20037990808486938, -0.00310166971758008, 0.0419582836329937, -0.23286902904510498, -0.08234667032957077, 0.5430604219436646, -0.3807591497898102, -0.06744740158319473]]}, "hz": {"kernel": [[0.24592947959899902, 0.02507186308503151, 0.18451160192489624, -0.051569532603025436, 0.35048747062683105, -0.18087637424468994, 0.016281496733427048, 0.16217397153377533, -0.0484766960144043, 0.14745572209358215, 0.0858355239033699, 0.08033198863267899, 0.2372756451368332, -0.033724989742040634, -0.08911335468292236, 0.4817033112049103, -0.023552387952804565, -0.168528214097023, 0.5164620280265808, -0.008264387957751751, -0.03717324510216713, -0.1410626620054245, -0.08777640759944916, -0.12002108246088028, -0.08402671664953232, 0.05614388734102249, -0.09520439803600311, -0.08181358128786087, -0.03519940376281738, 0.13555438816547394], [0.03577516973018646, -0.25393906235694885, -0.06222276762127876, -0.17978353798389435, -0.007737019564956427, -0.13152892887592316, 0.2637462019920349, 0.13304345309734344, -0.03398079052567482, -0.3833255171775818, 0.10696335881948471, 0.445913165807724, 0.34383806586265564, 0.2917567193508148, -0.06920912116765976, -0.03587621822953224, -0.04135126620531082, 0.3628539741039276, 0.005295576993376017, -0.2250497043132782, 0.13022096455097198, 0.3544778525829315, 0.2434932142496109, 0.21034418046474457, -0.598164975643158, -0.11011650413274765, 0.09691943973302841, 0.27032211422920227, 0.26299822330474854, 0.008700714446604252], [-0.06064223125576973, -0.051261793822050095, -0.22933226823806763, -0.03674831986427307, -0.06220494583249092, -0.10357748717069626, 0.09515801072120667, -0.26702049374580383, 0.07299026101827621, 0.0019291980424895883, -0.17088869214057922, 0.14268110692501068, 0.24509762227535248, 0.03244772180914879, -0.38931548595428467, 0.01968369446694851, -0.4129941165447235, -0.013462101109325886, -0.10980522632598877, -0.18675461411476135, -0.1412365883588791, -0.03986474499106407, 0.11499951034784317, 0.14745476841926575, 0.42944398522377014, 0.21788285672664642, -0.026774490252137184, 0.06770802289247513, 0.09921891242265701, -0.1390334665775299], [-0.5398184061050415, -0.339473694562912, -0.47341808676719666, 