{"iterations": 1000, "returned_params": [[[[1.570796326794897, -1.8012703055495597e-15], [1.570796326794897, -1.8012703055495597e-15], [1.570796326794897, -1.8012703055495597e-15], [1.570796326794897, -1.8012703055495597e-15], [1.570796326794897, -1.8012703055495597e-15], [1.570796326794897, -1.8012703055495597e-15], [1.570796326794897, -1.8012703055495597e-15], [1.570796326794897, -1.8012703055495597e-15], [1.570796326794897, -1.8012703055495597e-15], [1.570796326794897, -1.8012703055495597e-15]], [[0.0, 0.0], [0.0, 0.0], [0.0, 0.0], [0.0, 0.0], [0.0, 0.0], [0.0, 0.0], [0.0, 0.0], [0.0, 0.0], [0.0, 0.0], [0.0, 0.0]], [[3.198260765676089, 0.0, 0.0, 2.831863089244685, 3.193444804128055, 0.0, 0.0, 4.132732234137518, 3.190332498375728, 1.0525561614648842, 0.0, 0.0, 3.1709855346741267, 2.424231858189122, 0.0], [3.140678485657907, 0.0, 0.0, 2.983999382024382, 3.1309180095405535, 0.0, 0.0, 3.932217251373075, 3.156485914200984, 1.1310432320969466, 0.0, 0.0, 3.139083867624194, 2.434101100165333, 0.0], [3.1235534314971853, 0.0, 0.0, 3.2073220429144893, 3.135038492675216, 0.0, 0.0, 4.158541592453059, 3.1490120347784343, 1.1333148769607937, 0.0, 0.0, 3.1761842275794394, 2.5573841751771567, 0.0], [3.0912154022599623, 0.0, 0.0, 2.841013413849721, 3.090513263970524, 0.0, 0.0, 3.8396423697768616, 3.094847052786032, 1.0379455775246844, 0.0, 0.0, 3.100056934753696, 2.3824623340213456, 0.0], [3.1594608224268645, 0.0, 0.0, 2.848098811910664, 3.149201978517926, 0.0, 0.0, 3.929136689738648, 3.1639615151683187, 0.9990958298156001, 0.0, 0.0, 3.149362233739697, 2.436737169180611, 0.0], [3.163201863720286, 0.0, 0.0, 3.062258261437889, 3.1551139462982847, 0.0, 0.0, 4.117015805753306, 3.164514860137533, 1.0253268810524743, 0.0, 0.0, 3.1941286169698, 2.536814071264382, 0.0], [3.114180878862699, 0.0, 0.0, 2.7795898791323, 3.1125379351400153, 0.0, 0.0, 3.8453122994143247, 3.111357288938658, 0.9955533788793545, 0.0, 0.0, 3.1096551965584283, 2.397873234226549, 0.0], [3.132901982681688, 0.0, 0.0, 2.9383752697027226, 3.1331326568350493, 0.0, 0.0, 3.9338669403218565, 3.138100084660769, 1.0397087940723346, 0.0, 0.0, 3.1284979905211814, 2.417996087207667, 0.0], [3.133875316486879, 0.0, 0.0, 2.7771965357831006, 3.1317372460550255, 0.0, 0.0, 3.8729580617286703, 3.1326837033559576, 0.9878300805116342, 0.0, 0.0, 3.1319873943502823, 2.4214235664797017, 0.0], [3.1250233229654367, 0.0, 0.0, 2.9216076691741883, 3.1285752950677828, 0.0, 0.0, 3.915028159579619, 3.1412740704205455, 1.0580791312954256, 0.0, 0.0, 3.114679899951733, 2.394911788346447, 0.0]], [[0.0, 0.0], [0.0, 0.0], [0.0, 0.0], [0.0, 0.0], [0.0, 0.0], [0.0, 0.0], [0.0, 0.0], [0.0, 0.0], [0.0, 0.0], [0.0, 0.0]]]], "final_fidelity": 0.9802514427971869, "final_purity": -1, "optimized_trainable_parameters": {"initial_params": [[1.570796326794897, -1.8012703055495597e-15], [-1.3175074087819514, 1.3318745472976856], [0.4772778420518262, 1.1923763861901362, -0.9010030875098405, -0.0631237241149105, 0.010175745932540366, -0.6944343811378926, -0.5045604229512405, 1.226988064481387, 0.4745049839226395, -1.2839033335156373, -0.9735639795031124, 0.22918536062935532, -0.3587501437208183, -0.8879627293750545, -1.1919668679752333], [0.7871853617856772, -0.06394168367583902]], "rnn_params": {"params": {"Dense_0": {"bias": [-0.06771592050790787, 0.26015856862068176, 0.0006178393377922475, -0.1715213507413864, -0.060954879969358444, -0.0824831873178482, -0.17408157885074615, -0.009345926344394684, 0.07284841686487198, -0.15328945219516754, 0.011615771800279617, -0.11998876929283142, -0.023144124075770378, 0.13217222690582275, -0.11985254287719727, -0.0875602662563324, -0.02814342826604843, -0.12333884090185165, 0.2567821443080902, -0.04470882564783096, -0.18049810826778412, 0.21023020148277283, 0.18876183032989502, -0.03235209733247757, 0.30827853083610535, 0.15150408446788788, 0.16381831467151642, 0.16111022233963013, -0.013756451196968555, 0.2658049166202545], "kernel": [[-0.34701240062713623, -0.04919342324137688, 0.35782402753829956, -0.2715466320514679, 0.14811965823173523, -0.014690246433019638, -0.12241899222135544, 0.21630394458770752, -0.012540731579065323, -0.4182630479335785, -0.24727563560009003, 0.26289913058280945, 0.09142052382230759, -0.034066129475831985, -0.19254472851753235, 0.16710461676120758, -0.25790858268737793, 0.09349999576807022, -0.21937651932239532, 0.08596807718276978, -0.24475176632404327, -0.0030704073142260313, -0.3354824483394623, -0.21248792111873627, -0.1568548083305359, -0.03968581557273865, 0.305215984582901, -0.017143651843070984, 0.18573926389217377, 0.0041564092971384525], [0.09404495358467102, -0.09208501130342484, -0.1360120177268982, -0.15610286593437195, 0.05828648433089256, -0.28767022490501404, 0.09329400956630707, -0.2927340269088745, -0.20061875879764557, -0.3640111982822418, -0.14585204422473907, 0.3048786520957947, -0.17234490811824799, 0.8531842231750488, 0.17123380303382874, 0.17191843688488007, 0.047306668013334274, -0.34572869539260864, 0.16264082491397858, -0.16250447928905487, 0.15243516862392426, -0.25501176714897156, -0.011437552981078625, -0.11568295210599899, 0.10046364367008209, -0.24757876992225647, 0.21100348234176636, -0.13350895047187805, -0.26154080033302307, -0.2305077612400055], [0.04445566609501839, -0.3610265851020813, -0.013965181075036526, -0.11149250715970993, -0.16821791231632233, -0.09314523637294769, 0.27629366517066956, -0.199411541223526, -0.17367634177207947, -0.18421275913715363, 0.02141602709889412, -0.2793203592300415, -0.21855925023555756, -0.25690338015556335, 0.0051340144127607346, 0.08042334020137787, -0.008817864581942558, 0.129375159740448, 0.07754207402467728, -0.24121057987213135, -0.14508017897605896, 0.07615631818771362, 0.07542445510625839, -0.06486955285072327, 0.042322997003793716, -0.21590888500213623, 0.4444054961204529, 0.3208753764629364, 0.14840833842754364, -0.1649387925863266], [0.2964535355567932, 0.04318293184041977, 0.28125250339508057, 0.16046282649040222, 0.025378039106726646, -0.17105425894260406, -0.09753809869289398, 0.27170130610466003, 0.12168293446302414, 0.13948865234851837, -0.05550036579370499, -0.06124440208077431, 0.6262979507446289, 0.08101630955934525, 0.09704133123159409, 0.2211703360080719, 0.42720046639442444, -0.0018435948295518756, 0.019055133685469627, -0.09365738183259964, -0.3962940275669098, -0.06964640319347382, -0.24955561757087708, 0.19315113127231598, -0.2710763216018677, -0.046987853944301605, 0.3773624002933502, -0.10424386709928513, -0.2503509223461151, -0.28171834349632263], [-0.28162628412246704, 0.054934240877628326, -0.02551651932299137, -0.14332453906536102, -0.021091867238283157, -0.23908433318138123, -0.10906177014112473, -0.27106979489326477, -0.13489125669002533, -0.17886167764663696, -0.5761781930923462, -0.06511202454566956, -0.1895650178194046, 0.11065054684877396, -0.22551433742046356, -0.24211576581001282, -0.2067573368549347, -0.06261476874351501, -0.3695965111255646, -0.12468548119068146, -0.3865603804588318, -0.3238615095615387, 0.019585618749260902, 0.22928106784820557, -0.047880589962005615, -0.06301719695329666, 0.050001129508018494, -0.2729554772377014, -0.5361655950546265, -0.10210712254047394], [-0.14398576319217682, 0.02192443050444126, 0.19018812477588654, 0.22518834471702576, 0.06635256856679916, -0.17514201998710632, 0.015114624984562397, 0.34010377526283264, 0.2490413635969162, 0.2879692614078522, 0.039337158203125, 0.23196086287498474, -0.11858642846345901, 0.2255849689245224, 0.2017432153224945, -0.006567276548594236, 0.19942310452461243, -0.2144068479537964, -0.1354290395975113, -0.1950007677078247, 0.30124759674072266, 0.46803975105285645, 0.1503506898880005, 0.05773786082863808, -0.2132609337568283, -0.19410963356494904, 0.04070509597659111, -0.21474020183086395, -0.01094131451100111, 0.329567015171051], [-0.1999220997095108, -0.01204532291740179, -0.1529884934425354, -0.07703275978565216, -0.004493751563131809, 0.2702382802963257, -0.36571380496025085, -0.3852730095386505, -0.5365745425224304, 0.15472550690174103, 0.05715658888220787, -0.07761380076408386, 0.09423737227916718, 0.11726019531488419, 0.2000543475151062, -0.19407007098197937, 0.06480754911899567, -0.14378702640533447, -0.09387993067502975, -0.24234150350093842, 0.09813157469034195, 0.9321104288101196, -0.22657878696918488, 0.28191474080085754, -0.345522403717041, -0.16314570605754852, 0.14849117398262024, -0.2526978850364685, -0.32166609168052673, -0.28643175959587097], [-0.1377231925725937, -0.31064245104789734, 0.04134915769100189, 0.23370319604873657, -0.1848790943622589, 0.018025239929556847, 0.2166113406419754, 0.36178502440452576, 0.1367327868938446, 0.24188758432865143, -0.22331134974956512, -0.13440799713134766, -0.05493050441145897, -0.03673495352268219, 0.028309274464845657, -0.028945347294211388, 0.016258036717772484, 0.21951566636562347, 0.19607482850551605, 0.20450623333454132, 0.25113338232040405, 0.11192666739225388, -0.1544094681739807, 0.22409115731716156, -0.2119462937116623, -0.16523469984531403, 0.32744866609573364, -0.11270392686128616, 0.22671763598918915, -0.11124344915151596], [-0.23721805214881897, 0.21527475118637085, -0.22661514580249786, -0.22638806700706482, -0.6101847887039185, 0.12576135993003845, 0.0443488173186779, 0.2011316418647766, -0.11961165815591812, -0.28071942925453186, 0.041108787059783936, 0.04816151410341263, 0.03994608670473099, 0.09627463668584824, -0.20201143622398376, 0.04684337228536606, 0.10596269369125366, -0.13470938801765442, 0.268372118473053, -0.28196626901626587, -0.16041645407676697, -0.07296307384967804, -0.3145850896835327, 0.1923496425151825, -0.053727686405181885, -0.14249040186405182, -0.13219080865383148, 0.02502659149467945, 0.17906367778778076, 0.3282984495162964], [-0.09188944101333618, -0.016022570431232452, 0.11149971187114716, 0.13665278255939484, 0.22299079596996307, 0.37268999218940735, -0.2162162810564041, -0.09337971359491348, -0.18275600671768188, 0.040648892521858215, -0.4387040436267853, 0.08832767605781555, -0.186104878783226, 0.0898795798420906, -0.29671624302864075, -0.24370574951171875, 0.27500131726264954, -0.1069793552160263, 0.03457661718130112, -0.07795552909374237, 0.19457900524139404, -0.23863396048545837, 0.15142448246479034, -0.15809467434883118, -0.2918037474155426, -0.05996334180235863, 0.3235021233558655, -0.2449028044939041, 0.15478451550006866, 0.10551366209983826], [-0.2908446490764618, -0.2231338620185852, -0.05303139239549637, -0.2583405673503876, 0.04932155832648277, 0.34334009885787964, 0.2975463271141052, -0.27151697874069214, 0.4746910035610199, 0.020838921889662743, 0.825057864189148, 0.12164530903100967, -0.2690477967262268, 0.07593543082475662, -0.19843195378780365, -0.034657277166843414, 0.3788260817527771, -0.2832077741622925, -0.36823976039886475, 0.19911505281925201, -0.004659710451960564, -0.03328913077712059, -0.09946665167808533, -0.1087498813867569, -0.30955904722213745, 0.2506706118583679, 0.047872383147478104, -0.1930539608001709, -0.03576697036623955, -0.23874251544475555], [-0.44768449664115906, 0.15646500885486603, -0.21493205428123474, -0.20920556783676147, -0.2546428143978119, -0.15587806701660156, -0.14478951692581177, -0.18896886706352234, 0.15199735760688782, -0.15230216085910797, -0.1170908585190773, -0.42891836166381836, 0.25732460618019104, 0.21900910139083862, -0.07309003919363022, -0.6494146585464478, -0.029682056978344917, -0.19744984805583954, 0.1968194991350174, -0.06188567727804184, 0.08391325920820236, -0.009369505569338799, -0.0771716982126236, -0.25610068440437317, 0.21271322667598724, 0.3312528133392334, 0.05162736028432846, -0.22613638639450073, -0.031347908079624176, 0.08116111159324646], [-0.1366138607263565, -0.019426817074418068, -0.04035414755344391, 0.06310242414474487, -0.19684043526649475, 0.012700775638222694, -0.2463725209236145, -0.13752353191375732, -0.0935303121805191, -0.011881571263074875, -0.1872549206018448, 0.17850160598754883, 0.22354450821876526, -0.5307497978210449, -0.11221826076507568, -0.301829993724823, 0.1914956271648407, 0.2076907455921173, 0.20534799993038177, -0.03577134758234024, -0.2471226304769516, -0.19592837989330292, -0.1256701499223709, -0.01693309284746647, -0.19138075411319733, 0.20518805086612701, 0.2689685523509979, 0.4235409200191498, 0.08584928512573242, -0.21670089662075043], [-0.12799854576587677, -0.20484384894371033, 0.13396857678890228, 0.2610969543457031, 0.11574986577033997, -0.05624527484178543, 0.37610533833503723, 0.2630253732204437, 0.05754256621003151, 0.18672862648963928, -0.1452871710062027, 0.08225445449352264, 0.1007164791226387, 0.0165320485830307, 0.10262267291545868, 0.22192057967185974, -0.27064239978790283, 0.26699116826057434, 0.08689465373754501, 0.3201252222061157, -0.21967825293540955, 0.03247232735157013, -0.06452613323926926, 0.05727708339691162, -0.14566928148269653, -0.20847289264202118, 0.10811060667037964, 0.2631183862686157, -0.19328612089157104, -0.22098089754581451], [0.2007475048303604, 0.09419944137334824, 0.08682869374752045, 0.1054023951292038, 0.1291213035583496, 0.41980472207069397, 0.15164798498153687, 0.2403271198272705, -0.07049647718667984, 0.3729659914970398, -0.08199567347764969, 0.09209289401769638, -0.00514665013179183, -0.27990812063217163, 0.29704731702804565, 0.2875445485115051, 0.09831060469150543, 0.316424697637558, -0.10390272736549377, -0.2315816432237625, 0.041230425238609314, -0.3058624267578125, 0.12821488082408905, 0.33968088030815125, -0.2227366417646408, 0.1107930913567543, 0.058507900685071945, -0.2984253466129303, 0.1582237184047699, -0.11028031259775162], [-0.21077878773212433, 0.19626811146736145, -0.3082866966724396, 0.3100295662879944, -0.27077987790107727, 0.14494261145591736, 0.07072121649980545, -0.07334044575691223, -0.2584002912044525, -0.18382275104522705, -0.0029193181544542313, -0.062402915209531784, -0.24025869369506836, 0.29492098093032837, -0.1621856987476349, 0.05464159697294235, 0.25515010952949524, -0.15826693177223206, 0.2896236777305603, -0.06528760492801666, -0.3617716431617737, 0.13365726172924042, 0.1232181191444397, -0.2940990924835205, 0.3381634056568146, -0.11968092620372772, 0.027600886300206184, -0.25970327854156494, -0.1245964989066124, 0.037606943398714066], [0.05738242343068123, 0.0639171302318573, 0.019057227298617363, -0.35750648379325867, -0.181487575173378, -0.14781537652015686, 0.18609479069709778, -0.23983584344387054, -0.09761431068181992, -0.24169781804084778, 0.29638010263442993, -0.2833792269229889, -0.03506062924861908, 0.33724015951156616, 0.00570316519588232, 0.37896808981895447, 0.30404138565063477, -0.07492233067750931, 0.11141136288642883, -0.15233086049556732, 0.1444559097290039, 0.026135893538594246, 0.13835708796977997, -0.26261499524116516, -0.18499326705932617, 0.10803346335887909, 0.21266813576221466, 0.11883125454187393, -0.08831189572811127, 0.1276417374610901], [-0.012042172253131866, 0.13635994493961334, 0.09592517465353012, -0.24614301323890686, 0.3112044334411621, -0.1010337844491005, 0.025469526648521423, -0.2608935832977295, -0.03286341577768326, -0.22733713686466217, 0.12287918478250504, 0.2635069489479065, 0.05337916314601898, 0.05755861476063728, 0.35647138953208923, -0.23621772229671478, 0.2124069184064865, -0.15573586523532867, 0.22483663260936737, -0.2199157476425171, -0.17636433243751526, -0.00826577190309763, -0.04437738656997681, -0.17581452429294586, 0.11687076091766357, -0.15531079471111298, -0.032570455223321915, 0.06134801730513573, -0.2266102433204651, -0.018166938796639442], [0.16125144064426422, 0.12520526349544525, 0.07040982693433762, -0.15727242827415466, 0.2590270936489105, -0.1848083883523941, -0.08075132220983505, -0.24680586159229279, -0.19311976432800293, 0.03477184846997261, 0.22902798652648926, 0.18785056471824646, -0.05974928289651871, 0.24520188570022583, 0.04079265519976616, -0.23382793366909027, 0.16520752012729645, 0.39450180530548096, 0.09419029951095581, 0.2049368917942047, -0.17216764390468597, -0.10088586807250977, -0.5568541884422302, -0.1351851224899292, 0.20339813828468323, 0.22500929236412048, -0.2498965859413147, 0.1781289428472519, 0.17398038506507874, -0.05445897951722145], [-0.11012768745422363, 0.36972102522850037, -0.25504544377326965, 0.10121847689151764, -0.06540113687515259, -0.04420207068324089, 0.25420382618904114, 0.2622966766357422, -0.1556442379951477, -0.23620104789733887, 0.006637310143560171, 0.09773609787225723, -0.30842748284339905, -0.2535269260406494, -0.07474055141210556, -0.014198041521012783, 0.06328567117452621, 0.08537926524877548, 0.038847796618938446, -0.11510784924030304, -0.048847004771232605, -0.14254622161388397, 0.01360753457993269, -0.15396349132061005, -0.05626055225729942, -0.13016022741794586, 0.08453129976987839, -0.0688190758228302, -0.22222435474395752, -0.07818222790956497], [-0.18780750036239624, 0.07004426419734955, -0.12495990842580795, -0.03736678510904312, -0.1919466108083725, 0.38861048221588135, 0.23971772193908691, 0.07363218069076538, 0.17574168741703033, -0.11265706270933151, 0.3102017045021057, 0.41823092103004456, 0.13111917674541473, 0.2514016628265381, -0.10178990662097931, -0.13510166108608246, 0.02152322046458721, 0.05144505575299263, 0.08417272567749023, 0.17279434204101562, 0.45423468947410583, 0.03674735501408577, 0.5999783277511597, -0.031303465366363525, 0.10985027253627777, 0.14383302628993988, -0.27347075939178467, -0.12016323208808899, 0.05937839671969414, -0.01156267523765564], [-0.34569525718688965, 0.16344620287418365, 0.23445448279380798, -0.048173632472753525, 0.38133344054222107, 0.004008909687399864, 0.3828986883163452, 0.2330094873905182, -0.4035056531429291, 0.030120568349957466, 0.019381677731871605, -0.09418924152851105, 0.04132715240120888, -0.1421806663274765, -0.2403278797864914, 0.08082179725170135, -0.12077968567609787, -0.4536379277706146, 0.23842817544937134, -0.16706939041614532, 0.08237314969301224, -0.0676315426826477, -0.4273380637168884, 0.13718922436237335, 0.3496977388858795, 0.048112571239471436, -0.013741763308644295, -0.22361621260643005, -0.07450618594884872, 0.1456739753484726], [-0.3341670334339142, -0.07958580553531647, 0.027882248163223267, -0.08441872149705887, -0.3648916184902191, -0.11061639338731766, -0.25053003430366516, -0.07624217122793198, 0.027174562215805054, 0.04799357429146767, -0.23838146030902863, -0.15825551748275757, -0.005530748516321182, 0.1761758029460907, -0.17978014051914215, -0.18012923002243042, -0.3385486304759979, -0.36904415488243103, -0.10509936511516571, -0.337964802980423, -0.23815026879310608, -0.24656808376312256, -0.32014891505241394, -0.013832306489348412, 0.15279939770698547, -0.20569315552711487, 0.11288553476333618, -0.31220343708992004, -0.07658565789461136, -0.04039579629898071], [-0.2392229437828064, -0.06615357846021652, 0.023976100608706474, -0.2609034478664398, -0.04780760407447815, -0.07436300814151764, -0.03451097011566162, -0.20711013674736023, 0.22111886739730835, -0.00944770872592926, -0.08271820098161697, -0.30690544843673706, -0.040932539850473404, 0.15801914036273956, 0.020870085805654526, 0.301009863615036, -0.15437279641628265, 0.16589024662971497, 0.07060656696557999, 0.2955820560455322, -0.2086617350578308, 0.04319607838988304, -0.16732825338840485, -0.10783563554286957, 0.15762530267238617, 0.18082155287265778, 0.011540845036506653, -0.30042657256126404, 0.24554650485515594, 0.11966414004564285], [0.14651750028133392, 0.1974327117204666, -0.320609450340271, -0.26486098766326904, -0.06292694061994553, 0.2669675052165985, -0.3399527668952942, 0.16427868604660034, 0.1806664764881134, 0.14825811982154846, 0.03187892958521843, 0.281900554895401, 0.3021698296070099, 0.14245331287384033, 0.07437478005886078, 0.33051449060440063, 0.026071833446621895, 0.20736227929592133, -0.14131052792072296, 0.16633747518062592, 0.10701118409633636, -0.08720816671848297, -0.41864556074142456, -0.18523584306240082, 0.2605333626270294, 0.05303886905312538, -0.2843776047229767, 0.1611592322587967, -0.18959002196788788, 0.08774435520172119], [-0.01998458243906498, -0.1402510404586792, 0.05932954326272011, 0.23717999458312988, 0.03167485073208809, -0.3249247372150421, -0.2896561920642853, -0.22939398884773254, -0.044025443494319916, 0.2526516020298004, -0.2630048394203186, -0.20865517854690552, -0.12041556090116501, -0.2999379336833954, -0.20971421897411346, 0.1869402676820755, 0.0413176566362381, 0.07744718343019485, -0.13805201649665833, -0.2149951159954071, -0.21540607511997223, -0.23961137235164642, -0.07875663787126541, -0.0626135841012001, -0.06529790908098221, 0.07103332877159119, 0.02055128663778305, 0.3035929203033447, -0.3373771011829376, 0.11768064647912979], [-0.02013864740729332, -0.1219240352511406, -0.30683642625808716, -0.23173101246356964, -0.194094717502594, 0.11887594312429428, 0.15871532261371613, 0.21140575408935547, -0.16510415077209473, 0.06916135549545288, -0.33422261476516724, -0.1709171086549759, -0.042302004992961884, 0.16919933259487152, 0.021230679005384445, -0.27085810899734497, -0.26323845982551575, -0.1466335505247116, -0.13131862878799438, -0.005466725677251816, 0.11322131007909775, 0.021548427641391754, 0.12449634075164795, -0.2654714286327362, 0.020414352416992188, -0.1090923547744751, -0.07576782256364822, -0.07878249883651733, -0.13589398562908173, -0.2068004459142685], [0.2017083317041397, -0.2110227644443512, -0.28538116812705994, -0.12141924351453781, 0.035962142050266266, 0.10233352333307266, 0.09860344976186752, -0.02787281945347786, -0.3345988690853119, 0.19475428760051727, 0.035167351365089417, -0.06596305221319199, -0.08022887259721756, 0.044996652752161026, -0.18024158477783203, -0.29805365204811096, -0.2648947834968567, 0.27572640776634216, 0.09739116579294205, 0.08537507802248001, 0.0851665511727333, -0.13131962716579437, -0.028884485363960266, -0.17744338512420654, 0.054303526878356934, -0.07349217683076859, -0.02981831505894661, -0.12459787726402283, -0.08165960013866425, 0.1513427495956421], [-0.11754848062992096, 0.03838701173663139, 0.25120115280151367, 0.07582618296146393, -0.23698732256889343, 0.33993464708328247, -0.3108287453651428, 0.14803656935691833, -0.04771355539560318, 0.1811308115720749, 0.19355392456054688, 0.22909574210643768, -0.05891525372862816, 0.2821401357650757, 0.009868763387203217, 0.16940225660800934, 0.2528102397918701, 0.0767131894826889, -0.25967615842819214, -0.06915298849344254, 0.2947028577327728, 0.3334626257419586, -0.04861777648329735, -0.030640406534075737, 0.2429722398519516, 0.20714524388313293, -0.3653935492038727, 0.16239942610263824, 0.18131248652935028, 0.0015301250386983156], [0.1366659253835678, 0.21178388595581055, -0.39439088106155396, -0.03668792545795441, -0.23585501313209534, -0.2025812268257141, 0.08398117870092392, 0.03233155980706215, -0.088241346180439, 0.11945644021034241, -0.5139745473861694, -0.3073135018348694, 0.05409655347466469, -0.31223180890083313, 0.015580834820866585, -0.12305666506290436, -0.011256874538958073, -0.2901882231235504, -0.219721257686615, 0.11694570630788803, -0.3613719642162323, -0.15376552939414978, -0.14119042456150055, -0.21675531566143036, -0.1678350567817688, 0.06851609796285629, 0.3711838126182556, -0.2935800850391388, 0.08737348020076752, -0.15426214039325714]]}, "Dense_1": {"bias": [-0.015796048566699028, 0.11942529678344727, -0.04125995934009552, -0.21684055030345917, 0.27266329526901245, 0.3776467442512512, 0.28818371891975403, -0.2073596864938736, -0.07866644114255905, -0.07316969335079193, -0.14606265723705292, 0.21274921298027039, -0.01317309495061636, 0.31332501769065857, -0.15882587432861328, 0.0, -0.027890929952263832, -0.10667058080434799, 0.31190818548202515, -0.13509811460971832, 0.15014977753162384, 0.3252401649951935, 0.07118158042430878, -0.07357773184776306, -0.061666980385780334, 0.24541079998016357, 0.166898712515831, 0.2707141637802124, -0.07991445809602737, -0.15812325477600098], "kernel": [[-0.05745445936918259, -0.24235235154628754, 0.17599493265151978, 0.00012075942504452541, 0.20115888118743896, 0.2628392279148102, 0.11039312928915024, 0.07155314832925797, -0.17806027829647064, 0.19403013586997986, -0.2041320502758026, -0.06200246512889862, 0.121085025370121, -0.045558471232652664, -0.2468567043542862, 0.05849232152104378, 0.2622363567352295, 0.1773776262998581, 0.23032569885253906, -0.22931933403015137, -0.20190154016017914, 0.2956951856613159, 0.29734209179878235, -0.06447968631982803, 0.12763825058937073, -0.1300988346338272, 0.07552046328783035, -0.017262840643525124, 0.07290872186422348, -0.218176007270813], [-0.2542281746864319, -0.17766302824020386, 0.19319508969783783, -0.02228703163564205, 0.20434732735157013, -0.033733826130628586, 0.10689976066350937, -0.3725135326385498, -0.23501962423324585, -0.20765642821788788, -0.177306666970253, -0.14630357921123505, -0.1571607142686844, -0.44402801990509033, -0.14794906973838806, 0.16210152208805084, -0.25980401039123535, -0.2316741943359375, 0.2691711187362671, 0.08423663675785065, -0.2891281247138977, -0.12194110453128815, 0.06449625641107559, 0.06417969614267349, 0.2560112476348877, 0.1525336503982544, 0.040021609514951706, 0.1655821055173874, -0.2130710482597351, -0.22081157565116882], [0.0933775082230568, 0.36943215131759644, 0.20714496076107025, 0.11600235104560852, 0.09074404835700989, 0.23523299396038055, -0.09687414765357971, -0.12401134520769119, -0.26998892426490784, 0.12040474265813828, -0.017770934849977493, 0.30704841017723083, 0.03628245368599892, -0.4996557831764221, 0.05180962756276131, -0.15997909009456635, 0.2599177658557892, -0.23930051922798157, 0.0513569638133049, -0.10285200923681259, 0.08606463670730591, 0.3085657060146332, 0.08655823767185211, 0.17636092007160187, 0.23853540420532227, -0.13949014246463776, -0.03735433518886566, 0.19234438240528107, -0.14907871186733246, -0.06796150654554367], [-0.1498895287513733, -0.1279914677143097, -0.12773825228214264, 0.22995957732200623, 0.21157550811767578, 0.15570588409900665, 0.02444821409881115, -0.07948820292949677, -0.2363443672657013, 0.24466079473495483, 0.18953058123588562, 0.11319421231746674, -0.19394643604755402, -0.06617962568998337, 0.22169534862041473, 0.10608205944299698, 0.13697901368141174, 0.12284114956855774, 0.1940857172012329, -0.14150817692279816, 0.22922283411026, -0.043749190866947174, -0.3564627766609192, -0.16784930229187012, -0.0739753320813179, -0.11750391870737076, -0.08999662846326828, -0.22381529211997986, -0.023607879877090454, -0.2118338942527771], [-0.12219765782356262, 0.07875044643878937, 0.3002416491508484, 0.2173238843679428, 0.0241272933781147, 0.24230313301086426, 0.3150920867919922, -0.16986075043678284, -0.06853050738573074, 0.19068989157676697, -0.35593220591545105, 0.09851934015750885, -0.09747228026390076, -0.31186696887016296, -0.021762896329164505, 0.18456292152404785, -0.19447802007198334, 0.21665818989276886, 0.0012543703196570277, -0.3667275309562683, -0.1707516610622406, 0.0829925462603569, -0.033300913870334625, 0.0942242369055748, -0.09580863267183304, 0.14118355512619019, -0.13197973370552063, 0.11266126483678818, -0.09817810356616974, 0.2611463963985443], [0.200600266456604, 0.2745493948459625, -0.05505838990211487, 0.03930920362472534, 0.1198897436261177, 0.09003262221813202, 0.3753318190574646, 0.013746613636612892, -0.09910207241773605, -0.18336500227451324, 0.09862866997718811, 0.3063032329082489, 0.09627159684896469, 0.01342068612575531, 0.0020918676164001226, -0.0008652282413095236, -0.2237526923418045, -0.3423769474029541, 0.1904546022415161, -0.06859336048364639, 0.16305288672447205, -0.17829127609729767, 0.22115854918956757, -0.21702153980731964, -0.24597373604774475, 0.0023540453985333443, -0.10739659518003464, 0.16895295679569244, 0.28019702434539795, -0.13737110793590546], [-0.27426913380622864, 0.16976642608642578, 0.0528135672211647, 0.20803776383399963, 0.38698434829711914, 0.00857489462941885, 0.28083503246307373, -0.1764933466911316, 0.10714256763458252, -0.21473439037799835, 0.1859598010778427, -0.0054101659916341305, -0.08549525588750839, -0.0563487745821476, -0.24830958247184753, -0.06882447004318237, 0.1106196790933609, -0.2119060605764389, -0.07730840891599655, -0.2852550148963928, 0.1452687680721283, -0.09554598480463028, 0.3062630891799927, -0.11512526869773865, -0.11894708126783371, 0.13071729242801666, 0.2641020119190216, -0.18639923632144928, -0.10559963434934616, -0.08014240860939026], [0.21149906516075134, -0.1307886689901352, 0.08338424563407898, 0.010637846775352955, -0.14952893555164337, 0.3287334740161896, 0.1682114452123642, 0.026608487591147423, -0.262138694524765, 0.16365192830562592, -0.36291927099227905, -0.13760071992874146, -0.10302230715751648, 0.33252590894699097, -0.156178817152977, 0.1955856829881668, 0.20802626013755798, 0.03224934637546539, 0.02254622057080269, -0.3348989486694336, 0.04760100319981575, 0.17561767995357513, 0.4544653594493866, -0.16950947046279907, -0.16934913396835327, 0.28275060653686523, 0.2945699691772461, 0.06861136853694916, -0.04428810626268387, -0.2672293186187744], [0.020006785169243813, 0.3438762426376343, 0.012446667067706585, 0.040326397866010666, 0.2802494466304779, 0.16154950857162476, 0.032655443996191025, 0.10289663821458817, 0.10824928432703018, -0.18384025990962982, -0.05807795375585556, 0.18217328190803528, 0.31459200382232666, -0.4073212444782257, -0.008040881715714931, -0.02025279402732849, -0.30666399002075195, -0.15910795331001282, 0.11075053364038467, 0.04707306623458862, -0.07284552603960037, 0.21525278687477112, 0.43110689520835876, -0.23608486354351044, 0.05723119154572487, 0.07214674353599548, -0.21972757577896118, 0.0400390662252903, 0.07310962677001953, 0.24594458937644958], [-0.20272250473499298, -0.06383859366178513, 0.029409175738692284, -0.14491574466228485, -0.1453140377998352, -0.16499626636505127, 0.2296227067708969, 0.07134424895048141, 0.009169111959636211, -0.17490695416927338, -0.08985288441181183, 0.07175809890031815, 0.013452830724418163, 0.09667973220348358, 0.092066191136837, 0.0684969574213028, 0.30046457052230835, -0.34070900082588196, 0.17808648943901062, -0.20000295341014862, -0.14739198982715607, 0.2404240220785141, 0.0038762076292186975, -0.008892021141946316, -0.26854559779167175, -0.21163101494312286, 0.3472819924354553, 0.1365656554698944, 0.04444616660475731, -0.21027450263500214], [-0.0892038345336914, 0.29523909091949463, 0.2763613760471344, -0.1226804256439209, 0.03535085171461105, 0.10681430250406265, 0.20056486129760742, -0.1504078209400177, 0.1598799079656601, 0.16551783680915833, -0.2054772675037384, 0.06885833293199539, -0.13684791326522827, 0.2894133925437927, -0.17060251533985138, -0.2821112871170044, -0.03827090561389923, 0.2054997831583023, 0.3260137736797333, 0.08164934068918228, 0.012528123334050179, 0.2444998025894165, -0.1392146497964859, -0.04217356815934181, 0.16680733859539032, 0.4203660488128662, 0.08362333476543427, 0.003010532585904002, -0.004924978595227003, 0.4374507665634155], [-0.1046881452202797, -0.25831326842308044, -0.11286582797765732, -0.47026681900024414, 0.07519148290157318, -0.09949638694524765, 0.05231901630759239, -0.048715442419052124, -0.2501778304576874, 0.15813319385051727, 0.11402775347232819, -0.12543688714504242, 0.12916016578674316, 0.175517737865448, 0.001778299338184297, 0.014779599383473396, 0.046393390744924545, 0.17757171392440796, 0.0999181717634201, -0.071051687002182, -0.13815532624721527, 0.27528467774391174, 0.00036534268292598426, -0.2706874907016754, 0.052162423729896545, -0.059968624264001846, -0.059222083538770676, 0.20861855149269104, -0.04749557003378868, -0.4839710295200348], [-0.22729481756687164, 0.3286437392234802, 0.09663135558366776, -0.13890023529529572, -0.16262876987457275, 0.15273365378379822, 0.3191336393356323, -0.14607380330562592, 0.1901901364326477, 0.012679755687713623, 0.06673634797334671, 0.6142975687980652, 0.22718249261379242, 0.04863499850034714, 0.14861023426055908, -0.23301094770431519, -0.3132559657096863, 0.17982512712478638, 0.2742290794849396, 0.004525628872215748, 0.01925082691013813, -0.1332831084728241, -0.3222394287586212, 0.19060464203357697, -0.10786572843790054, 0.18290239572525024, 0.1480710804462433, -0.09463292360305786, -0.12510079145431519, -0.05856605991721153], [-0.19925843179225922, -0.0641290694475174, -0.1630060076713562, 0.10838436335325241, 0.3217254877090454, 0.3696558475494385, 0.456072598695755, 0.10371047258377075, -0.024740029126405716, -0.18901947140693665, -0.05485285818576813, 0.3805844783782959, 0.1598980724811554, 0.4867059588432312, -0.08209756016731262, -0.2450096160173416, 0.27302035689353943, 0.22629603743553162, 0.34137773513793945, -0.015511331148445606, 0.05349549651145935, 0.004884214606136084, -0.05503016710281372, 0.17329813539981842, 0.1284637153148651, 0.05009402707219124, -0.21055319905281067, -0.10026562213897705, -0.42056408524513245, 0.07736513018608093], [-0.07900996506214142, -0.31768664717674255, 0.03424830362200737, -0.09123849868774414, -0.21610072255134583, 0.1515747308731079, 0.1622295081615448, -0.2854677736759186, 0.004105505533516407, -0.13860350847244263, 0.13981227576732635, -0.17119750380516052, 0.1848098486661911, 0.2267296016216278, -0.11555158346891403, -0.12498710304498672, 0.042463190853595734, -0.12445555627346039, 0.22493566572666168, 0.19832459092140198, 0.23096264898777008, -0.33006274700164795, -0.21074528992176056, -0.11071711033582687, -0.057264991104602814, 0.9124484062194824, 0.3573790192604065, -0.141265407204628, 0.1457085758447647, -0.14468687772750854], [-0.30706414580345154, 0.0947003960609436, 0.09116151183843613, -0.4182974398136139, -0.19460245966911316, 0.05523405596613884, 0.0021241626236587763, -0.10888907313346863, -0.20617620646953583, -0.26451370120048523, 0.11054021120071411, 0.10240069776773453, 0.1703985333442688, 0.2836853563785553, -0.02033057250082493, -0.25511831045150757, 0.03179829567670822, 0.11108513921499252, 0.3614840507507324, -0.2933957874774933, -0.00839755218476057, -0.01217267382889986, 0.036605846136808395, 0.25559884309768677, 0.14429810643196106, 0.0033983245957642794, -0.042328715324401855, 0.30105286836624146, 0.200068861246109, 0.17469392716884613], [0.27318885922431946, 0.1496039628982544, -0.23496250808238983, 0.32010066509246826, 0.10162918269634247, 0.22731703519821167, 0.02549511380493641, -0.29925912618637085, -0.38498690724372864, 0.08743271231651306, -0.3312097489833832, 0.4951748847961426, 0.16981402039527893, 0.04905034601688385, -0.05853862315416336, 0.25832459330558777, 0.17602825164794922, -0.40687012672424316, 0.08987832069396973, -0.17929527163505554, -0.18332216143608093, 0.028145698830485344, -0.15290091931819916, 0.11968955397605896, 0.26813527941703796, 0.010230057872831821, 0.11789865791797638, 0.20554067194461823, 0.14942403137683868, 0.17273622751235962], [0.1855582296848297, -0.11033295840024948, -0.2691291570663452, 0.1735665500164032, 0.22137926518917084, 0.10249112546443939, 0.012812714092433453, -0.11945072561502457, 0.14246098697185516, -0.004781579598784447, -0.2651611268520355, 0.12735143303871155, 0.3043222725391388, 0.07701970636844635, 0.29959869384765625, -0.009745579212903976, -0.324529767036438, 0.1377078890800476, -0.0405748188495636, 0.0650806650519371, 0.28385353088378906, 0.0953454077243805, -0.11202776432037354, -0.2582363188266754, -0.036055490374565125, 0.22577959299087524, 0.1311430186033249, 0.09732721745967865, 0.29493167996406555, -0.11471390724182129], [-0.031205270439386368, 0.08272668719291687, -0.08565665781497955, -0.15737782418727875, 0.3683389723300934, 0.037131041288375854, -0.061819855123758316, -0.006592807359993458, -0.21134911477565765, 0.22820821404457092, -0.22089819610118866, 0.009050605818629265, 0.047140393406152725, 0.0790046900510788, 0.21528002619743347, -0.10832980275154114, 0.16425320506095886, 0.001832986599765718, 0.20849592983722687, 0.09580783545970917, -0.08214724063873291, 0.31776508688926697, -0.06965562701225281, 0.013169875368475914, -0.20322883129119873, -0.02752533182501793, -0.1973700076341629, 0.18904393911361694, -0.3280148208141327, 0.2818168103694916], [-0.17713311314582825, -0.2549417018890381, -0.15726999938488007, -0.039005521684885025, -0.22612060606479645, -0.025885121896862984, 0.07071388512849808, -0.29303935170173645, -0.13201887905597687, -0.26339662075042725, 0.25947192311286926, -0.03593683987855911, 0.021404117345809937, -0.1155436784029007, -0.1485673040151596, -0.14946486055850983, 0.26538872718811035, 0.121755450963974, 0.08761215209960938, -0.0780922919511795, 0.03952431678771973, 0.18070146441459656, 0.25659286975860596, 0.018475491553544998, 0.07640191912651062, 0.1521477848291397, 0.13933195173740387, 0.1464354693889618, -0.012838601134717464, -0.18543599545955658], [-0.1386355608701706, 0.0338926836848259, 0.32185861468315125, -0.1488794982433319, -0.26818808913230896, 0.16771206259727478, -0.11232086271047592, 0.0029466713313013315, -0.03286357596516609, -0.038732074201107025, -0.1514405459165573, 0.3050059676170349, -0.11857357621192932, -0.18188080191612244, -0.06599228084087372, -0.1421295702457428, 0.1748277097940445, 0.17272967100143433, 0.38478386402130127, 0.19526225328445435, 0.2798812985420227, 0.3074271082878113, 0.025646692141890526, 0.08468150347471237, -0.32663920521736145, 0.2280634343624115, 0.1739656776189804, 0.05932021513581276, -0.2992869019508362, -0.2863750755786896], [0.10539823025465012, 0.4775501489639282, 0.06184237450361252, 0.10410217940807343, 0.010203948244452477, 0.3103148341178894, 0.4669952094554901, -0.40018871426582336, -0.2820502519607544, -0.17430558800697327, -0.13446472585201263, 0.4575134217739105, 0.38609692454338074, -0.5856770277023315, 0.21839143335819244, -0.06967469304800034, -0.17933779954910278, 0.09726506471633911, 0.29580673575401306, -0.011312134563922882, 0.02007901854813099, 0.39787882566452026, -0.05008773133158684, -0.15989984571933746, -0.4330020844936371, 0.3219950199127197, -0.3707677125930786, 0.18063132464885712, -0.16735024750232697, 0.03207571804523468], [-0.12100794166326523, -0.17642441391944885, 0.06692878156900406, -0.2970341444015503, 0.059293899685144424, 0.24399419128894806, 0.2831706404685974, -0.17687666416168213, 0.16355125606060028, -0.28620120882987976, -0.023204514756798744, 0.045930929481983185, 0.18461951613426208, -0.028394147753715515, 0.24871660768985748, -0.26744532585144043, 0.19214637577533722, -0.25664639472961426, 0.13516396284103394, 0.15385802090168, 0.31964513659477234, -0.10841652005910873, -0.2588523328304291, 0.1566944271326065, 0.07027433067560196, 0.2289281189441681, 0.06225446239113808, 0.31403765082359314, -0.1873873472213745, -0.13607650995254517], [0.2544795274734497, -0.048930369317531586, 0.22682000696659088, -0.24362526834011078, -0.12927716970443726, -0.03207480534911156, 0.2555379569530487, -0.35097968578338623, -0.00756404735147953, 0.23755915462970734, -0.2194029837846756, -0.20845936238765717, 0.20756198465824127, -0.1346748322248459, 0.10745727270841599, -0.14857135713100433, 0.0014712930424138904, -0.14364342391490936, -0.10712821781635284, -0.28348612785339355, 0.04937455803155899, 0.15285617113113403, 0.009173541329801083, 0.03773539885878563, -0.14717289805412292, 0.19478389620780945, 0.02587112970650196, 0.2647150754928589, 0.0016816785791888833, -0.30958735942840576], [-0.036421194672584534, 0.35153913497924805, -0.3550831079483032, -0.1545240730047226, 0.23280349373817444, 0.3818129003047943, -0.24754194915294647, -0.31690967082977295, 0.006846041418612003, -0.09287525713443756, 0.14087654650211334, 0.20905540883541107, 0.11778052151203156, -0.15545712411403656, 0.19052420556545258, -0.0805291011929512, -0.1425071358680725, -0.36750465631484985, -0.05646330863237381, -0.27501800656318665, -0.26695334911346436, -0.2058401107788086, -0.14163736999034882, -0.2496420294046402, 0.14914186298847198, 0.4130401611328125, -0.032938070595264435, 0.21462507545948029, -0.06596565991640091, -0.2789580523967743], [-0.015971047803759575, 0.2461523413658142, -0.3055283725261688, 0.32519906759262085, 0.14126288890838623, 0.27611446380615234, 0.1399325728416443, -0.15698382258415222, -0.3639223575592041, 0.09794372320175171, 0.15368686616420746, -0.13430681824684143, 0.07218139618635178, -0.1829414814710617, -0.04560014605522156, -0.3162185847759247, -0.32709646224975586, 0.07309664040803909, -0.24379080533981323, -0.29492348432540894, 0.09685992449522018, 0.20567600429058075, -0.2911898195743561, -0.12895919382572174, -0.2422197312116623, 0.3102893531322479, 0.18584342300891876, -0.20688211917877197, 0.25159934163093567, 0.019387414678931236], [-0.15410342812538147, -0.3018418252468109, -0.24391144514083862, -0.13227157294750214, -0.25031864643096924, -0.0541766956448555, 0.07183384895324707, -0.06562220305204391, -0.18435339629650116, -0.1274731159210205, -0.2584655284881592, -0.2521044611930847, 0.10586821287870407, 0.24645686149597168, -0.15527184307575226, -0.12595026195049286, -0.32239770889282227, -0.37115564942359924, 0.3138008117675781, -0.05705535411834717, 0.05668209493160248, 0.18509525060653687, 0.03558603301644325, -0.185532808303833, -0.1979607343673706, -0.741686224937439, 0.22639885544776917, 0.06600756198167801, -0.12263268232345581, -0.17086893320083618], [-0.3283587396144867, 0.07396756112575531, -0.12454777210950851, 0.10588650405406952, -0.12178780138492584, -0.04401618614792824, 0.21710769832134247, -0.10659320652484894, 0.18181590735912323, -0.10582724958658218, -0.055004265159368515, 0.09695444256067276, 0.13422779738903046, -0.06064713001251221, 0.008087891153991222, 0.002882711822167039, -0.08308512717485428, 0.138010174036026, 0.22621126472949982, -0.03432856872677803, -0.14737249910831451, 0.14024755358695984, -0.037306029349565506, -0.3587750196456909, 0.18711735308170319, 0.056618113070726395, -0.4693149924278259, 0.27317607402801514, -0.0992182120680809, 0.2157449871301651], [0.3112907111644745, 0.24382518231868744, -0.21488912403583527, -0.32261720299720764, 0.14333470165729523, -0.17522504925727844, -0.0689278319478035, -0.06428930163383484, -0.2869401276111603, -0.11223389208316803, -0.014563502743840218, 0.021261991932988167, -0.2389916330575943, 0.06833688914775848, -0.01971665397286415, 0.22880733013153076, 0.1559550017118454, 0.17371264100074768, 0.07794993370771408, -0.2969300448894501, 0.04937735199928284, 0.23160478472709656, 0.21091340482234955, -0.36337757110595703, 0.15266475081443787, -0.01415666937828064, -0.11769264191389084, 0.037411168217659, -0.0179290734231472, -0.05019443854689598], [-0.018982866778969765, 0.2015739530324936, 0.0028758689295500517, -0.303031325340271, 0.3907766044139862, -0.08565404266119003, 0.10267426818609238, 0.06224226579070091, -0.24865609407424927, -0.36004796624183655, -0.13546660542488098, -0.07431033998727798, 0.09463292360305786, -0.1767594814300537, 0.0894031822681427, -0.0728035718202591, -0.2423809915781021, 0.13364283740520477, -0.1293216198682785, -0.3055708408355713, 0.08362536132335663, 0.32432782649993896, 0.048903319984674454, -0.31091779470443726, -0.1680791676044464, 0.3493773341178894, -0.16054604947566986, 0.2569529712200165, -0.23908022046089172, -0.22477620840072632]]}, "Dense_2": {"bias": [0.10000000149011612, 0.10000000149011612, 0.07364456355571747, 0.02964729256927967, 0.4447702467441559, 0.051345158368349075, -0.021710151806473732, 0.8096010684967041, 0.41560301184654236, -0.06692060828208923, -0.024454958736896515, 0.7241372466087341, 0.5022212266921997, -0.06747268885374069, 0.014770192094147205, -0.03804396837949753, 0.5752793550491333, 0.4141305685043335, 0.03569912165403366, -0.023022927343845367, 0.13893915712833405], "kernel": [[-0.05154455453157425, -0.22473642230033875, -0.16573067009449005, 0.03929877653717995, 0.18833449482917786, -0.37589970231056213, 0.18798409402370453, 0.28736424446105957, 0.018581798300147057, -0.12421056628227234, -0.0917658731341362, -0.04020107537508011, 0.227010577917099, -0.19230112433433533, 0.06310367584228516, -0.3343982994556427, 0.4717329144477844, -0.28829386830329895, 0.031190499663352966, -0.3622860908508301, 0.19605275988578796], [-0.06351514160633087, 0.17137175798416138, -0.1219179555773735, -0.2202504575252533, 0.1872047483921051, 0.31799787282943726, -0.26544812321662903, -0.10027144104242325, 0.12504328787326813, -0.08430205285549164, -0.2163669317960739, 0.32726386189460754, 0.31227996945381165, -0.17005181312561035, 0.2568836808204651, -0.15549418330192566, 0.271153062582016, 0.02630889229476452, -0.18010643124580383, 0.20162290334701538, -0.1913021355867386], [0.1727483868598938, 0.3316898047924042, -0.26384231448173523, 0.2209353744983673, 0.16220837831497192, 0.22749362885951996, -0.11985770612955093, 0.31673628091812134, 0.1467183381319046, 0.12605580687522888, -0.10394686460494995, 0.09648963809013367, 0.31655657291412354, 0.28449931740760803, 0.0393550768494606, -0.2167731076478958, 0.10484903305768967, -0.1651168167591095, 0.24814224243164062, 0.06882021576166153, -0.4157549738883972], [0.03220644220709801, -0.24871979653835297, -0.23885978758335114, 0.07650729268789291, 0.5321336388587952, 0.10522418469190598, 0.2558401823043823, -0.031474675983190536, -0.044634535908699036, -0.13470134139060974, -0.2679709792137146, -0.36728939414024353, 0.5606124997138977, 0.002032643184065819, 0.20739227533340454, 0.24242496490478516, 0.6378039717674255, 0.10506966710090637, 0.05388297885656357, -0.2753610908985138, -0.0845080018043518], [-0.02654143050312996, -0.12014180421829224, -0.23714123666286469, -0.30537235736846924, 0.2985861003398895, 0.0444410964846611, 0.018501294776797295, -0.03214319422841072, 0.3547421395778656, -0.13172200322151184, -0.3163641691207886, 0.29290127754211426, 0.33517277240753174, 0.014100385829806328, -0.37676680088043213, 0.14215953648090363, 0.30887100100517273, 0.052114468067884445, 0.011920565739274025, -0.055760931223630905, 0.020995574072003365], [-0.3280831277370453, -0.121080681681633, 0.10015372931957245, -0.2774488031864166, 0.404497891664505, -0.25417593121528625, -0.12496226280927658, 0.7587599158287048, 0.15832273662090302, 0.04241231083869934, 0.05928431823849678, 0.493484228849411, 0.3491632640361786, 0.3835563659667969, 0.12201330810785294, -0.2503902316093445, 0.24289271235466003, 0.08937465399503708, -0.38155442476272583, 0.057335518300533295, 0.06964681297540665], [-0.020417649298906326, -0.3128921687602997, -0.023357823491096497, 0.028961678966879845, 0.24006274342536926, -0.21662257611751556, -0.3157375454902649, 0.3100530803203583, 0.31841379404067993, -0.3168085813522339, -0.4388134479522705, 0.6138066053390503, 0.4619767963886261, 0.4183673560619354, 0.20192688703536987, 0.100282683968544, 0.29914218187332153, -0.022427722811698914, -0.3027137815952301, 0.03768707066774368, 0.010776137933135033], [0.03274306282401085, -0.22500857710838318, -0.053338877856731415, 0.20003698766231537, -0.14121012389659882, -0.12926332652568817, 0.25779446959495544, -0.23364639282226562, 0.17091593146324158, -0.16959914565086365, -0.16276487708091736, -0.12332698702812195, -0.06373003125190735, -0.31753259897232056, -0.23789408802986145, 0.385857492685318, 0.18270011246204376, -0.0946333184838295, 3.122285124845803e-05, 0.31257978081703186, 0.2729116380214691], [0.0737433061003685, 0.2979779541492462, 0.07768862694501877, -0.09807561337947845, -0.012534055858850479, -0.11795099079608917, 0.3349728286266327, -0.2051594853401184, -0.05745018273591995, -0.3035566508769989, 0.02028060331940651, 0.24824310839176178, 0.11514442414045334, -0.08391504734754562, -0.2739589810371399, -0.21112564206123352, -0.11235523968935013, 0.24269676208496094, -0.02404518984258175, -0.19152039289474487, -0.19021083414554596], [0.2884689271450043, 0.2956143617630005, -0.12988467514514923, 0.03519713506102562, -0.05224315822124481, 0.24944977462291718, 0.20037981867790222, 0.18739522993564606, -0.0074545093812048435, -0.1396213173866272, 0.16240531206130981, 0.25281810760498047, 0.2583019435405731, -0.020605498924851418, 0.18285329639911652, -0.430337131023407, -0.2012011855840683, 0.199578657746315, 0.33531588315963745, 0.24646365642547607, -0.15064503252506256], [0.013412966392934322, -0.09177560359239578, -0.22963716089725494, 0.028839612379670143, 0.2652773857116699, 0.4217238128185272, -0.3140331506729126, -0.15672095119953156, -0.19439205527305603, -0.2405276894569397, -0.3757014870643616, 0.11416342854499817, 0.2417459934949875, 0.2114141583442688, -0.14289416372776031, -0.08940225839614868, 0.25727394223213196, 0.4835319519042969, 0.2739323079586029, -0.24164381623268127, -0.07487696409225464], [0.10607985407114029, -0.09024694561958313, -0.02501264214515686, 0.34976810216903687, -0.15115325152873993, 0.27905893325805664, 0.21243692934513092, 0.10546368360519409, 0.211945578455925, -0.10371936112642288, -0.3080575168132782, 0.014426104724407196, -0.21590326726436615, -0.44668492674827576, -0.0982896238565445, 0.1494368463754654, -0.12265767902135849, 0.06538544595241547, -0.030221963301301003, -0.02282785065472126, -0.028281966224312782], [0.05281144380569458, -0.1359865665435791, -0.31036651134490967, -0.20515801012516022, 0.023239856585860252, -0.2849029302597046, -0.41855689883232117, 0.5076834559440613, 0.13050517439842224, -0.5458483695983887, -0.012077086605131626, 0.35260602831840515, 0.04715676233172417, 0.41900700330734253, -0.16712665557861328, -0.28526604175567627, 0.3608922064304352, 0.30433157086372375, 0.12075255066156387, -0.041764505207538605, -0.20432180166244507], [0.33474990725517273, 0.2840287685394287, 0.2098047286272049, 0.3911897540092468, 1.4801220893859863, -0.021849628537893295, 0.24140849709510803, 0.59391850233078, 0.8434377908706665, -0.10779740661382675, 0.10172972828149796, 0.999995231628418, 2.06136417388916, -1.0787370204925537, 0.20818346738815308, -0.011100261472165585, 2.1034138202667236, 1.5890827178955078, -0.07833382487297058, -0.13119246065616608, 0.1233522891998291], [0.33197349309921265, 0.24693983793258667, 0.10287848114967346, 0.22296933829784393, 0.455005407333374, 0.35579192638397217, -0.2449793964624405, -0.17357663810253143, -0.1458040177822113, -0.3046332001686096, -0.3366534411907196, 0.004138455726206303, 0.04790880158543587, -0.1081877052783966, -0.2381150871515274, 0.09329600632190704, 0.0858689621090889, 0.39127838611602783, -0.17216646671295166, 0.0657162219285965, -0.41288599371910095], [-0.010753744281828403, 0.2608001232147217, -0.21250897645950317, -0.006136702373623848, 0.07487918436527252, 0.06918105483055115, 0.07612849026918411, 0.21214768290519714, 0.1366695612668991, -0.28301188349723816, -0.303147554397583, 0.15619894862174988, -0.04633021354675293, -0.1871025264263153, 0.12768106162548065, -0.19183889031410217, -0.3306031823158264, -0.05069603770971298, 0.000940679747145623, 0.1926937848329544, -0.09430299699306488], [0.09088554233312607, 0.23249803483486176, 0.24820363521575928, -0.14245755970478058, 0.12863889336585999, -0.33005955815315247, -0.4147949814796448, 0.2722489833831787, -0.16168932616710663, 0.21473534405231476, 0.0032382963690906763, 0.28538304567337036, 0.4709891676902771, 0.3017027676105499, -0.11539288610219955, 0.09196311980485916, -0.21792873740196228, 0.15749026834964752, 0.1583135426044464, -0.3086957335472107, 0.09049950540065765], [-0.2622552514076233, 0.028859151527285576, 0.09711572527885437, -0.19316112995147705, -0.09660589694976807, 0.24187393486499786, -0.11403658241033554, -0.16146191954612732, -0.2100791037082672, 0.06831788271665573, -0.3854774832725525, -0.029280146583914757, 0.08670473098754883, -0.08522165566682816, 0.17705300450325012, 0.062086716294288635, 0.16708527505397797, 0.2786332964897156, -0.08237858861684799, 0.18263348937034607, -0.022159641608595848], [0.05836760997772217, -0.10003653913736343, -0.318724125623703, 0.20886999368667603, 0.5467011332511902, -0.17908310890197754, -0.015774348750710487, 0.8971567153930664, 0.25333642959594727, -0.08181153237819672, 0.196309894323349, 0.8533453941345215, 0.46439412236213684, 0.14351236820220947, -0.3954503834247589, 0.08823542296886444, 0.34191152453422546, 0.6470357775688171, 0.2884128987789154, -0.2744753956794739, -0.05465061962604523], [-0.12325005978345871, 0.016345322132110596, 0.0003916863934136927, 0.06430671364068985, -0.15314903855323792, -0.17348712682724, 0.23136308789253235, -0.17508146166801453, 0.0328969769179821, -0.3804859519004822, -0.37005966901779175, -0.16558878123760223, 0.10427386313676834, 0.2860857844352722, -0.1695447415113449, 0.15324269235134125, -0.04267208278179169, 0.3454374670982361, 0.1337663233280182, 0.007589354179799557, 0.21073633432388306], [0.01846579648554325, 0.12148874998092651, 0.2892199158668518, 0.09273147583007812, 1.172938346862793, -0.15368051826953888, -0.13120518624782562, 0.5056908130645752, 0.3237708806991577, -0.38197216391563416, 0.055329661816358566, 0.0242665633559227, 0.5410565137863159, 0.17580987513065338, -0.14978259801864624, 0.12617091834545135, 0.6676084399223328, 0.10605689138174057, -0.03134527802467346, 0.1739807426929474, 0.18689276278018951], [0.006990207824856043, -0.2231573909521103, 0.2592334449291229, -0.10710475593805313, 0.39510664343833923, -0.14309588074684143, -0.4327114522457123, 0.5050941109657288, 0.28769394755363464, -0.07710154354572296, -0.06845901161432266, 0.645546019077301, 0.26388317346572876, 0.12810945510864258, -0.32320404052734375, -0.21051494777202606, 0.3522022068500519, 0.5332696437835693, -0.07690393924713135, -0.4715586006641388, 0.16874168813228607], [0.11195266246795654, 0.2164173424243927, -0.02277703583240509, -0.009352866560220718, 0.2864011526107788, -0.2812301218509674, 0.17093369364738464, 0.3571585714817047, 0.10991811752319336, -0.4058656096458435, -0.13376088440418243, 0.16267196834087372, 0.14803090691566467, 0.27307024598121643, -0.4112277925014496, -0.2745989263057709, 0.1726180911064148, -0.009138759225606918, -0.10092945396900177, -0.17046426236629486, 0.0012220769422128797], [-0.12132339924573898, -0.11287829279899597, 0.3098011910915375, -0.19794602692127228, -0.2281506508588791, -0.040438104420900345, 0.16040223836898804, -0.24110744893550873, -0.17746154963970184, -0.007932960987091064, 0.16485363245010376, -0.24004966020584106, 0.33309459686279297, 0.25635483860969543, 0.3002130389213562, 0.10365302115678787, -0.25242212414741516, -0.031373437494039536, 0.34947872161865234, 0.08027380704879761, 0.2558319568634033], [0.03480032458901405, -0.22047372162342072, -0.25992387533187866, -0.2891228199005127, 0.12510690093040466, 0.07666750252246857, -0.39311009645462036, -0.309169203042984, -0.09792598336935043, 0.1271064430475235, -0.012254870496690273, -0.10592105239629745, 0.016952186822891235, -0.19475139677524567, 0.22913019359111786, -0.21972589194774628, -0.14471174776554108, 0.18152928352355957, -0.24846109747886658, 0.1489138901233673, -0.41289228200912476], [0.28335222601890564, -0.021487535908818245, -0.23173218965530396, -0.28716808557510376, 0.43464136123657227, -0.12697362899780273, -0.08611453324556351, -0.03981819748878479, 0.4316565990447998, -0.01285310834646225, 0.08020252734422684, 0.28217148780822754, 0.1494661122560501, 0.3550831079483032, 0.1417565792798996, 0.07498127222061157, 0.25974997878074646, 0.3862825036048889, 0.245463028550148, -0.3911305367946625, -0.29044854640960693], [-0.16681179404258728, 0.2201683670282364, -0.21551886200904846, -0.04477676376700401, 1.3081682920455933, -0.04563726857304573, 0.10188645124435425, 0.721549928188324, 0.4034736156463623, 0.10569187998771667, -0.369117796421051, 0.6622170805931091, 0.5617538094520569, -0.1338799148797989, 0.16733723878860474, -0.25222328305244446, 0.5408717393875122, 0.33653491735458374, -0.2478996068239212, -0.23914416134357452, 0.04057929292321205], [-0.19385607540607452, -0.022305550053715706, -0.2871164083480835, 0.09384586662054062, 0.03305164352059364, -0.21978062391281128, -0.015027781948447227, 0.29742226004600525, 0.41677916049957275, -0.47435134649276733, 0.17817601561546326, 0.04759988933801651, 0.40408504009246826, 0.05015844106674194, -0.31995853781700134, -0.25366872549057007, 0.3241991400718689, 0.10192327946424484, -0.3658939301967621, -0.11841149628162384, 0.1511433720588684], [0.2111484557390213, -0.057100068777799606, 0.29947522282600403, -0.18000183999538422, -0.040109939873218536, 0.07028400897979736, -0.12840582430362701, 0.3360516428947449, 0.2800396680831909, -0.08083377033472061, -0.3029221296310425, -0.23781687021255493, 0.05365535244345665, -0.020541274920105934, 0.20506611466407776, -0.2355230152606964, 0.5420426726341248, 0.254326194524765, 0.05558938905596733, -0.0337955541908741, 0.17840096354484558], [0.10397598147392273, 0.28254231810569763, 0.010747120715677738, -0.13363194465637207, -0.04522882401943207, -0.18416142463684082, 0.0957229733467102, 0.17390155792236328, 0.354962557554245, -0.08014324307441711, -0.26170259714126587, 0.2607797384262085, 0.058522533625364304, -0.035182397812604904, 0.03468117490410805, -0.28966718912124634, 0.18573985993862152, 0.06914771348237991, -0.001479671336710453, -0.3150025010108948, 0.08953122794628143]]}, "GRUCell_0": {"hn": {"bias": [-0.1695334017276764, -0.037737250328063965, 0.05591447651386261, -0.10726790130138397, 0.05094980075955391, 0.008056439459323883, -0.15130476653575897, 0.003287858096882701, 0.06899542361497879, -0.028905173763632774, -0.20744021236896515, 0.08083949238061905, -0.0411272794008255, -0.10006380826234818, -0.05685478821396828, 0.1841372549533844, -0.052211299538612366, -0.26091063022613525, 0.036108504980802536, -0.06577852368354797, -0.24653001129627228, 0.2129662036895752, 0.20249667763710022, 0.0008488678140565753, 0.022346453741192818, 0.08045297861099243, -0.13432036340236664, 0.05539141222834587, -0.11861183494329453, 0.1886061429977417], "kernel": [[0.18740403652191162, 0.026906143873929977, 0.2223389893770218, -0.016977723687887192, 0.1226055771112442, -0.023604953661561012, 0.26439476013183594, 0.027569521218538284, 0.1270529180765152, -0.053124409168958664, -0.06720336526632309, 0.2617553770542145, -0.16699284315109253, 0.057494498789310455, -0.42140087485313416, 0.19852280616760254, -0.03960708528757095, 0.04464169964194298, -0.13024409115314484, -0.0903533548116684, -0.24061618745326996, 0.20841920375823975, -0.006264471914619207, 0.5312046408653259, 0.012957020662724972, 0.015457321889698505, 0.02289472706615925, 0.07909336686134338, 0.022192804142832756, -0.26092082262039185], [0.25022152066230774, -0.21590068936347961, 0.0520903617143631, -0.2534346282482147, 0.03860422596335411, -0.1533760130405426, 0.2844591438770294, -0.03270774334669113, -0.06948455423116684, 0.17072518169879913, -0.2998524010181427, 0.07014059275388718, 0.04614150896668434, -0.06199568882584572, 0.1672888547182083, -0.08798428624868393, 0.12324891984462738, -0.1306995153427124, -0.13372521102428436, 0.342131644487381, 0.036251381039619446, -0.3326534330844879, -0.049025800079107285, 0.054568201303482056, 0.39325904846191406, -0.11508862674236298, 0.26961058378219604, 0.0600300058722496, 0.13106293976306915, 0.019866252318024635], [0.007131524849683046, -0.01072545163333416, -0.03293462097644806, 0.24310168623924255, -0.013297704048454762, 0.2813136875629425, -0.09824545681476593, -0.021739080548286438, 0.03997340798377991, 0.17941565811634064, 0.015873409807682037, 0.04753700643777847, -0.16787219047546387, -0.18910910189151764, 0.052424926310777664, -0.024519307538866997, 0.06422009319067001, 0.5272435545921326, -0.06956109404563904, -0.11849513649940491, -0.405608594417572, -0.13016580045223236, -0.16185085475444794, -0.07627099752426147, 0.045056749135255814, -0.3683137893676758, 0.2725776135921478, 0.023283397778868675, 0.0876440480351448, 0.1093059629201889], [0.04514402151107788, 0.11916597187519073, 0.20517098903656006, 0.3393711745738983, -0.3545246720314026, -0.15178139507770538, -0.24568933248519897, 0.09541066735982895, 0.17077456414699554, 0.1152978390455246, -0.2875976264476776, 0.01729094423353672, 0.02938273176550865, 0.05827721953392029, -0.17130807042121887, 0.28214919567108154, 0.18518169224262238, -0.061664123088121414, 0.21489682793617249, 0.16897815465927124, -0.05346546322107315, -0.30724018812179565, 0.37485823035240173, -0.02893940359354019, -0.050429537892341614, -0.039268363267183304, 0.0032401257194578648, 0.0413752980530262, -0.10778650641441345, -0.027437901124358177], [-0.1390914022922516, -0.3002452552318573, -0.03223478049039841, 0.455689400434494, -0.14606459438800812, -0.11104889214038849, -0.04501822963356972, -0.009576019831001759, -0.1498328000307083, -0.20345698297023773, 0.11245474219322205, 0.2746596336364746, -0.1814650446176529, -0.2212754487991333, -0.1901412457227707, -0.4257758557796478, 0.014935899525880814, -0.06346797198057175, -0.0798829197883606, -0.11523042619228363, 0.1419667899608612, -0.18094588816165924, 0.008893312886357307, 0.07486262172460556, 0.22666539251804352, 0.23541052639484406, -0.01166139543056488, 0.04666842147707939, 0.03656890243291855, -0.04281463101506233], [0.178925022482872, 0.2248387634754181, 0.11209813505411148, -0.0016219938406720757, -0.26775023341178894, -0.1812475025653839, 0.05315599963068962, 0.13401855528354645, 0.11675790697336197, 0.011639651842415333, 0.12258037179708481, 0.30375462770462036, -0.14393267035484314, -0.0948394387960434, 0.3168831765651703, -0.025006935000419617, 0.0046225073747336864, -0.35178709030151367, -0.15104232728481293, -0.15688124299049377, -0.2109123021364212, 0.016043003648519516, -0.17277519404888153, 0.06504064053297043, -0.20982281863689423, 0.05150485038757324, 0.01886298879981041, 0.0010408787056803703, -0.014524574391543865, 0.48005741834640503], [-0.1504562944173813, -0.07476350665092468, -0.023720301687717438, -0.13554508984088898, -0.13245204091072083, -0.11556576937437057, -0.10388419777154922, 0.041523464024066925, 0.33665770292282104, 0.07603565603494644, -0.2262827306985855, -0.25028321146965027, -0.3520900309085846, 0.09876203536987305, -0.06578495353460312, -0.2277936339378357, -0.14158165454864502, -0.10091199725866318, 0.1477687954902649, -0.10267934203147888, -0.054617658257484436, 0.09586238116025925, -0.22597315907478333, 0.0744907408952713, 0.25913867354393005, -0.0907534584403038, 0.07178200781345367, -0.3232177495956421, -0.41223326325416565, -0.013355618342757225], [0.2048545628786087, -0.17752262949943542, 0.15408621728420258, -0.10006602853536606, -0.4454534351825714, -0.005122700240463018, -0.22717177867889404, -0.05785958468914032, 0.08418990671634674, 0.0023408059496432543, 0.033242132514715195, -0.10311733186244965, -0.025210373103618622, 0.1551453024148941, -0.024219289422035217, 0.058239374309778214, -0.26550331711769104, 0.2860037684440613, -0.24398498237133026, 0.12294932454824448, 0.1492847353219986, 0.27032408118247986, -0.052458371967077255, -0.03674907237291336, 0.24683348834514618, 0.05600447580218315, -0.19518879055976868, 0.3454034626483917, 0.12217503041028976, 0.17043536901474], [-0.25032538175582886, -0.07949551194906235, 0.38532406091690063, -0.12146173417568207, -0.02344588004052639, 0.011986548081040382, -0.03118951804935932, -0.07670167088508606, 0.003539124969393015, 0.08637723326683044, -0.0242878720164299, 0.34884199500083923, -0.18308234214782715, -0.09260330349206924, 0.45651450753211975, 0.014319691807031631, 0.08176589757204056, 0.3263331949710846, 0.15154434740543365, 0.22686240077018738, 0.11958424746990204, 0.14664645493030548, 0.04820045083761215, 0.06947077065706253, -0.1145397424697876, 0.25100523233413696, 0.01510935090482235, -0.1467459499835968, -0.10723459720611572, -0.1995750516653061], [0.05481430143117905, -0.0674518421292305, -0.09931091964244843, 0.27144402265548706, 0.06920208781957626, 0.2314138412475586, 0.08227274566888809, -0.34741219878196716, 0.15977872908115387, -0.19887301325798035, -0.13980385661125183, 0.15129980444908142, 0.12947383522987366, 0.5365331768989563, 0.2734025716781616, -0.10358765721321106, -0.12111866474151611, -0.11649975925683975, -0.011850875802338123, 0.02389959804713726, -0.2652135491371155, 0.019207293167710304, 0.058971017599105835, -0.08976615965366364, 0.04450346156954765, 0.15190280973911285, 0.14039798080921173, 0.174466073513031, -0.18884021043777466, -0.05836663395166397], [-0.0057854922488331795, -0.06718112528324127, 0.21116642653942108, 0.16214391589164734, 0.21152973175048828, 0.1508728265762329, 0.10797081142663956, 0.38233470916748047, -0.11952100694179535, -0.07936738431453705, -0.36320456862449646, -0.21973739564418793, 0.02221216820180416, 0.05924297869205475, 0.025422245264053345, -0.04482220485806465, -0.08581279218196869, 0.1688612550497055, -0.22122877836227417, -0.11184576153755188, 0.2988775372505188, -0.038260869681835175, 0.031240059062838554, 0.1278841495513916, -0.22691364586353302, 0.1365557610988617, 0.21136851608753204, 0.10107211768627167, -0.24493926763534546, 0.3182846009731293], [-0.23802222311496735, 0.12017174810171127, 0.10593210160732269, 0.06285407394170761, 0.08375884592533112, -0.5477561354637146, 0.04164571315050125, -0.22612178325653076, -0.12873965501785278, 0.020932434126734734, -0.15602044761180878, -0.20176996290683746, 0.021940890699625015, -0.07893795520067215, -0.14121055603027344, -0.18703730404376984, -0.19401517510414124, 0.07985451817512512, -0.07241583615541458, 0.18724983930587769, -0.31511542201042175, 0.22921998798847198, 0.07313336431980133, -0.1573719084262848, -0.18572428822517395, 0.11337701231241226, 0.23825938999652863, 0.0764879584312439, 0.16497600078582764, 0.08155127614736557], [0.11484165489673615, -0.24156230688095093, 0.09314395487308502, 0.16824105381965637, 0.1372980773448944, 0.0815824568271637, 0.2610163986682892, -0.22174619138240814, 0.4034448266029358, 0.3247542679309845, 0.2840895354747772, -0.15697506070137024, -0.038363583385944366, -0.14215528964996338, -0.0691315084695816, -0.15509416162967682, 0.16320334374904633, -0.08815611898899078, 0.20263803005218506, 0.07883360236883163, 0.18593761324882507, 0.2257126271724701, 0.24489133059978485, 0.03426278382539749, -0.10348290205001831, -0.06375309824943542, 0.04831187054514885, 0.1305304616689682, -0.02434297278523445, 0.24797187745571136], [-0.25116202235221863, 0.04688310995697975, -0.1738440990447998, -0.27424827218055725, -0.12270898371934891, -0.14063291251659393, 0.1900261491537094, 0.10899051278829575, 0.23511528968811035, -0.2783103883266449, 0.22568635642528534, -0.01395057700574398, 0.045873116701841354, 0.12586957216262817, -0.057493168860673904, -0.20362940430641174, 0.2931848466396332, 0.29014691710472107, -0.23342908918857574, 0.1820370852947235, -0.11121409386396408, -0.23709875345230103, 0.18277858197689056, 0.1034064069390297, -0.10929685086011887, -0.0916743054986, -0.12308348715305328, 0.15613944828510284, -0.25409024953842163, 0.07059428840875626], [0.03292686864733696, -0.14323657751083374, -0.5138486623764038, -0.09918985515832901, 0.12081219255924225, -0.10004176199436188, 0.004905537702143192, 0.12009967863559723, 0.35158172249794006, -0.13742896914482117, -0.18937024474143982, 0.1449345201253891, -0.18028543889522552, -0.23076294362545013, 0.06712884455919266, 0.24393215775489807, -0.31476160883903503, 0.14326773583889008, 0.22401906549930573, 0.0027079875580966473, 0.029209956526756287, -0.09641982614994049, 0.11686299741268158, -0.010774781927466393, -0.07513916492462158, 0.24128879606723785, 0.05556414648890495, 0.1295708864927292, 0.17212721705436707, 0.09620517492294312], [0.054603785276412964, 0.1718413531780243, -0.16216106712818146, 0.05188240483403206, -0.12567996978759766, -0.2503722608089447, 0.2897944450378418, -0.04598351567983627, -0.3348330855369568, 0.16645988821983337, 0.14736343920230865, -0.10865875333547592, -0.4170806407928467, 0.38167163729667664, 0.12109696120023727, 0.10202156752347946, 0.07618263363838196, 0.17616726458072662, 0.2422509640455246, -0.26351258158683777, 0.18357118964195251, -0.06979522109031677, 0.07411747425794601, 0.04795696958899498, 0.06440049409866333, 0.00959034264087677, 0.10856945067644119, 0.165816530585289, 0.026893936097621918, -0.017477909103035927], [0.06280338019132614, 0.0464576818048954, 0.10981273651123047, -0.026097029447555542, 0.08927824348211288, -0.20151746273040771, -0.09396129846572876, -0.11595580726861954, 0.1606569141149521, -0.2376464456319809, 0.09942654520273209, -0.07878752052783966, 0.09836037456989288, -0.23317743837833405, 0.010092551819980145, 0.294910728931427, 0.3500792682170868, 0.012190164998173714, -0.030548663809895515, -0.24245941638946533, 0.0994475781917572, 0.07339637726545334, -0.2633722722530365, -0.235832080245018, 0.1886795312166214, 0.16642995178699493, 0.31942206621170044, 0.28995510935783386, -0.26668381690979004, -0.13265302777290344], [-0.07759538292884827, -0.13359123468399048, 0.17403961718082428, 0.0875231996178627, 0.3169659376144409, -0.0785631462931633, -0.2590731382369995, -0.1509695053100586, -0.021734410896897316, -0.24597588181495667, 0.1114528700709343, -0.38066625595092773, -0.2674294114112854, -0.026956191286444664, 0.30564188957214355, 0.19932813942432404, 0.03893342241644859, -0.1212579682469368, -0.06644730269908905, 0.02573132887482643, -0.17090968787670135, -0.1905210316181183, 0.1058623194694519, 0.3435465693473816, 0.1227608323097229, -0.05816582590341568, -0.22561591863632202, 0.04142177477478981, 0.13699842989444733, 0.10980285704135895], [0.3026106655597687, -0.15391923487186432, -0.12852966785430908, 0.20553058385849, -0.17448197305202484, -0.10588952898979187, 0.14330437779426575, 0.2973172664642334, -0.13151487708091736, -0.10141066461801529, 0.2655505836009979, -0.24299301207065582, 0.2742134630680084, -0.09349492192268372, 0.1791197955608368, 0.07708055526018143, -0.03545711189508438, 0.14476177096366882, 0.12244295328855515, 0.1609707474708557, -0.2592211365699768, 0.18009185791015625, 0.07598192989826202, 0.15920616686344147, 0.13522158563137054, 0.1960875540971756, 0.11735673248767853, -0.3227788209915161, -0.15398183465003967, -0.06332539021968842], [-0.2411571592092514, 0.032861996442079544, 0.04437458515167236, 0.15214361250400543, -0.2640707194805145, 0.12854230403900146, 0.22686102986335754, 0.08303262293338776, 0.24226230382919312, -0.35466712713241577, -0.06826815754175186, -0.15787626802921295, -0.050256647169589996, 0.13409323990345, 0.04228857904672623, 0.08738849312067032, 0.19531846046447754, -0.07201007753610611, 0.002662257757037878, 0.10067451000213623, 0.1801910698413849, 0.13363708555698395, -0.18675416707992554, 0.00931341852992773, -0.043409619480371475, -0.08499234914779663, 0.22662441432476044, -0.19356213510036469, 0.5370140671730042, -0.04412250220775604], [0.2288135290145874, -0.1341678500175476, -0.12650124728679657, -0.012235620990395546, -0.05732358619570732, -0.025107119232416153, -0.3335735499858856, 0.06419777870178223, -0.016158180311322212, 0.0622846819460392, 0.1347842961549759, -0.11485160887241364, -0.12277120351791382, 0.07964520156383514, 0.014465335756540298, -0.18252478539943695, 0.009313109330832958, -0.11360105872154236, 0.030588781461119652, 0.26015737652778625, 0.06749572604894638, -0.09634597599506378, -0.3024836778640747, 0.20188435912132263, -0.5003846883773804, -0.03512676805257797, 0.24719446897506714, 0.22997167706489563, -0.006965742912143469, -0.3322388231754303], [-0.015914563089609146, 0.16267135739326477, -0.0022438857704401016, -0.07708626240491867, -0.34434306621551514, 0.2530633807182312, 0.22149747610092163, -0.3807147145271301, -0.22252868115901947, -0.28035756945610046, -0.11662299185991287, -0.12958304584026337, -0.0016381694003939629, -0.4113408625125885, 0.01595686934888363, 0.02421513944864273, -0.22669503092765808, -0.06654293090105057, 0.19404296576976776, 0.06313908845186234, 0.053038910031318665, -0.043158892542123795, 0.032910674810409546, 0.20452290773391724, -0.08897112309932709, -0.17026668787002563, 0.04340757429599762, 0.15032875537872314, -0.23580226302146912, 0.011120760813355446], [0.21444788575172424, -0.15449151396751404, -0.019377440214157104, 0.11900091916322708, -0.06145531311631203, -0.2071235477924347, 0.16916127502918243, -0.379493772983551, 0.09889929741621017, 0.04949139803647995, -0.21319670975208282, -0.09368614852428436, 0.16217473149299622, 0.009523248299956322, -0.012269299477338791, 0.0359976626932621, 0.11631122976541519, 0.2549763023853302, -0.050658077001571655, -0.16472885012626648, 0.06431885808706284, -0.23645618557929993, -0.35208451747894287, 0.04504488408565521, -0.27834105491638184, 0.12955665588378906, -0.3739372491836548, -0.2699078619480133, 0.018823111429810524, 0.02062324993312359], [-0.38674792647361755, -0.613170862197876, 0.036840710788965225, -0.18476051092147827, -0.18190637230873108, 0.003931591287255287, 0.033318471163511276, 0.03897654637694359, -0.19215638935565948, 0.11329648643732071, 0.01801360957324505, 0.052528265863657, 0.18952377140522003, 0.11762615293264389, -0.0910683423280716, 0.2590068578720093, 0.04626334458589554, -0.1354372352361679, 0.18341289460659027, -0.19863536953926086, -0.2238965630531311, -0.012158989906311035, -0.09983957558870316, 0.06980021297931671, -0.1282399445772171, -0.026977581903338432, 0.08695313334465027, 0.12675440311431885, -0.013658495619893074, 0.1598665863275528], [-0.13559986650943756, 0.16769275069236755, 0.12761937081813812, 0.07211887836456299, 0.1119178980588913, -0.2137698531150818, -0.11657847464084625, -0.07580530643463135, 0.1513269692659378, -0.004480493254959583, 0.2724725902080536, 0.17319390177726746, 0.3950735628604889, 0.1408555954694748, -0.009995310567319393, 0.01767916977405548, -0.36792442202568054, 0.13305330276489258, 0.18904022872447968, -0.008123116567730904, 0.2583141624927521, -0.22067631781101227, -0.15130561590194702, 0.30492594838142395, 0.12828820943832397, -0.19623242318630219, 0.22187723219394684, -0.06626434624195099, 0.015625443309545517, 0.1481543332338333], [-0.29869723320007324, 0.17159922420978546, -0.2462998330593109, 0.08386828005313873, -0.1662394106388092, 0.04782828316092491, -0.021069243550300598, -0.03516083210706711, 0.13403594493865967, 0.44435030221939087, -0.0886225476861, -0.15930789709091187, 0.2202909290790558, -0.1421917825937271, 0.2299695461988449, 0.007631650660187006, 0.024251429364085197, -0.07871463894844055, -0.34122875332832336, -0.20441396534442902, 0.024944894015789032, 0.0324532575905323, 0.0816899836063385, 0.3448566794395447, 0.08618000149726868, 0.19321294128894806, 0.03184095397591591, 0.13036328554153442, 0.06363943219184875, -0.22934386134147644], [-0.07554333657026291, -0.07140763103961945, -0.270844429731369, 0.09375803917646408, -0.0010915114544332027, 0.008363685570657253, -0.08420171588659286, -0.2756792902946472, -0.12445570528507233, 0.06574833393096924, 0.12866035103797913, 0.12832006812095642, -0.1950981616973877, 0.0520114004611969, -0.15529394149780273, 0.39699339866638184, 0.0069905538111925125, -0.05770161375403404, -0.43076667189598083, 0.2800544202327728, 0.1868717521429062, 0.06568180024623871, 0.04508611187338829, 0.0007635834044776857, -0.04927559942007065, -0.019374540075659752, 0.21456076204776764, -0.33512839674949646, -0.21571491658687592, 0.17957064509391785], [0.21396379172801971, -0.03654191270470619, -0.13187538087368011, -0.24032962322235107, -0.048295266926288605, -0.03998284414410591, -0.36404547095298767, -0.19730447232723236, -0.08092427253723145, -0.16848662495613098, -0.19501115381717682, 0.092362180352211, 0.12310142815113068, 0.04944756627082825, 0.007509307935833931, -0.22180163860321045, 0.3095180094242096, 0.09821342676877975, 0.06938271969556808, -0.28585490584373474, 0.06611010432243347, 0.21915002167224884, 0.33370667695999146, 0.25246474146842957, -0.029609613120555878, -0.055121343582868576, 0.23020614683628082, -0.1823100745677948, 0.1376170963048935, 0.15950551629066467], [0.08187758922576904, -0.2581859529018402, 0.10430866479873657, 0.030602840706706047, -0.06478925049304962, -0.23448602855205536, 0.10396504402160645, 0.0449853241443634, 0.10019977390766144, -0.09803470969200134, 0.03678710386157036, 0.032193124294281006, -0.0019287094473838806, -0.056645505130290985, 0.22565828263759613, 0.03709741309285164, -0.27066609263420105, -0.04838453233242035, -0.27286216616630554, -0.3042079508304596, 0.11259423941373825, 0.0071255662478506565, 0.31000465154647827, -0.20784807205200195, -0.1726331114768982, -0.4543326795101166, 0.04220319911837578, -0.08655712753534317, -0.03854202479124069, -0.3516334891319275], [0.08865877985954285, 0.019408728927373886, 0.2573343515396118, -0.2874104678630829, -0.11482483893632889, 0.22981403768062592, 0.007976953871548176, -0.11801657825708389, 0.0994444191455841, 0.0368352085351944, 0.2528880834579468, -0.1838136613368988, -0.08578195422887802, 0.03227011114358902, -0.15963231027126312, -0.03125505521893501, -0.18579411506652832, 0.0008209868101403117, -0.09857836365699768, -0.17870989441871643, -0.09503108263015747, -0.40095531940460205, 0.18880049884319305, -0.1255379170179367, -0.059510961174964905, 0.4258522093296051, 0.27475884556770325, -0.2047521471977234, 0.1315876841545105, -0.04584604874253273]]}, "hr": {"kernel": [[-0.0935516357421875, 0.19029554724693298, 0.2488866001367569, 0.18510904908180237, -0.18961265683174133, -0.02810519188642502, -0.10021398216485977, 0.2338094413280487, -0.2775578796863556, -0.16003893315792084, -0.32737600803375244, 0.20245088636875153, 0.12010834366083145, 0.11969362199306488, 0.3173172175884247, 0.21076282858848572, -0.0829513743519783, -0.008056113496422768, -0.3175290524959564, -0.16050057113170624, 0.07872232049703598, -0.0527728870511055, 0.19429995119571686, -0.0565786175429821, 0.24230916798114777, -0.16292135417461395, 0.1393454372882843, 0.1023506447672844, -0.02104242518544197, -0.1834062933921814], [0.24544835090637207, 0.15561868250370026, 0.2038329541683197, -0.4356934130191803, -0.09124613553285599, -0.07461430877447128, -0.12420053780078888, -0.023673003539443016, -0.13926158845424652, -0.10213843733072281, -0.06495727598667145, 0.15344731509685516, 0.1885974258184433, 0.40081459283828735, 0.12507125735282898, -0.2067502737045288, -0.28167250752449036, 0.13984474539756775, 0.30830538272857666, 0.03451137989759445, -0.1926887184381485, -0.066691093146801, 0.01878359541296959, 0.1427777260541916, -0.06617198884487152, 0.2156730443239212, -0.09486573189496994, -0.05838054418563843, -0.12998458743095398, 0.06655140966176987], [-0.17372842133045197, -0.13722670078277588, 0.07349012792110443, -0.09719933569431305, 0.239303857088089, -0.06299275904893875, 0.030977990478277206, -0.0048237512819468975, -0.27737975120544434, 0.18051305413246155, 0.12733827531337738, -0.4442821741104126, 0.2739515006542206, 0.052231766283512115, 0.07854060083627701, -0.04475550353527069, -0.21024565398693085, -0.10813448578119278, 0.028706248849630356, -0.28008386492729187, 0.35307449102401733, -0.17837993800640106, 0.09230191260576248, -0.1260962337255478, 0.08262242376804352, 0.06009332463145256, 0.03160267323255539, -0.3652168810367584, 0.052770547568798065, 0.0342523530125618], [0.05386028438806534, -0.10952317714691162, -0.10568815469741821, 0.06581669300794601, 0.09173639118671417, 0.2937634587287903, -0.01947849802672863, 0.44104254245758057, 0.08894093334674835, -0.3344764709472656, 0.19620069861412048, 0.14134034514427185, 0.08369506150484085, -0.06202312931418419, 0.132038876414299, 0.07469433546066284, 0.13044306635856628, 0.19479496777057648, 0.07827860116958618, -0.3268532454967499, -0.10763964802026749, -0.3149488568305969, -0.045464955270290375, -0.21411068737506866, -0.26173481345176697, 0.21385645866394043, 0.04250242933630943, -0.04313638433814049, 0.10346874594688416, 0.11245618760585785], [0.09850747138261795, -0.0011206786148250103, 0.21104474365711212, 0.11814236640930176, -0.11264725029468536, 0.19315572082996368, 0.24125349521636963, 0.13216255605220795, -0.33195334672927856, 0.07547582685947418, 0.013477656990289688, -0.15148885548114777, -0.037898652255535126, 0.15551449358463287, -0.11117688566446304, 0.30239954590797424, 0.2563415765762329, 0.201242133975029, 0.0006823159055784345, 0.13287007808685303, 0.19379663467407227, 0.23586073517799377, -0.11265052855014801, 0.34430062770843506, -0.17739538848400116, 0.355923056602478, -0.022457094863057137, -0.07670383900403976, 0.10245948284864426, -0.11983736604452133], [0.06806354224681854, -0.024596426635980606, 0.11844365298748016, 0.04917968437075615, 0.1419462263584137, -0.01842939667403698, -0.2872626483440399, -0.04816622659564018, -0.08934245258569717, -0.06984316557645798, 0.15226329863071442, -0.2819240093231201, -0.16082122921943665, 0.26513975858688354, -0.03626914694905281, 0.10873079299926758, -0.1310126781463623, 0.2653217315673828, -0.03950631991028786, -0.015195334330201149, -0.07460302859544754, 0.2416858971118927, 0.20033954083919525, -0.09632918238639832, -0.2362222522497177, -0.33118298649787903, 0.11880574375391006, 0.2626250982284546, 0.3309595286846161, 0.29548680782318115], [0.22787247598171234, 0.02588808722794056, -0.16569676995277405, 0.26575666666030884, 0.23179112374782562, -0.07543471455574036, -0.1505783200263977, 0.15292203426361084, -0.13489578664302826, 0.2863736152648926, 0.3904338777065277, 0.011776646599173546, 0.3146088719367981, 0.2623956501483917, 0.108298659324646, 0.07037373632192612, 0.1371990442276001, -0.07421786338090897, 0.012464824132621288, 0.25049829483032227, -0.1534574329853058, -0.16189558804035187, -0.16886039078235626, -0.009193263947963715, 0.19255603849887848, -0.10050011426210403, -0.09738186746835709, 0.21508218348026276, -0.08241251111030579, -0.17675432562828064], [0.16213613748550415, 0.014244663529098034, 0.2885962128639221, 0.037692274898290634, 0.2030491828918457, -0.21480879187583923, 0.1274924874305725, -0.11925831437110901, -0.3656013011932373, -0.060102857649326324, 0.1929815113544464, 0.4086815118789673, -0.26511552929878235, -0.14046846330165863, -0.2365621030330658, -0.16318275034427643, 0.0889698714017868, 0.21716764569282532, 0.013704181648790836, 0.06262997537851334, 0.15873883664608002, -0.12470127642154694, -0.062042783945798874, -0.3073235750198364, 0.19980014860630035, 0.00041214609518647194, 0.05251588299870491, -0.07439538091421127, 0.07210586220026016, 0.0718294233083725], [-0.04212547466158867, 0.18665719032287598, -0.14775125682353973, -0.13748347759246826, 0.28040722012519836, -0.2371527999639511, 0.04578040540218353, -0.04265396669507027, -0.04354283586144447, -0.4267050623893738, 0.025296110659837723, -0.2254602164030075, 0.13909277319908142, -0.23935553431510925, 0.08553760498762131, -0.053470443934202194, -0.0037344673182815313, 0.27592653036117554, -0.021394627168774605, 0.021998438984155655, -0.18376851081848145, 0.1764620989561081, -0.20904400944709778, 0.143914133310318, 0.1004512831568718, -0.027624385431408882, 0.19808995723724365, -0.061040036380290985, 0.14969037473201752, -0.42304936051368713], [-0.24290898442268372, 0.15632322430610657, -0.20318546891212463, -0.35009869933128357, 0.07571970671415329, 0.16203022003173828, -0.30912482738494873, 0.1515095829963684, -0.22562070190906525, 0.26797887682914734, -0.07470251619815826, 0.046435434371232986, -0.22053956985473633, -0.10653433203697205, 0.046603187918663025, -0.1574402004480362, -0.06431245058774948, -0.0016216575168073177, -0.08758284151554108, 0.05119474232196808, 0.2366405576467514, -0.04243851825594902, -0.22500480711460114, -0.0737389624118805, -0.10708975791931152, 0.22349046170711517, 0.10071085393428802, 0.4042569696903229, 0.08501669019460678, -0.11957670003175735], [0.06847415119409561, -0.24308498203754425, -0.2637989819049835, 0.060565035790205, -0.11797554790973663, -0.08656046539545059, 0.2930644750595093, 0.00769807631149888, -0.11633584648370743, -0.007887651212513447, -0.1566050797700882, 0.058187395334243774, -0.08037473261356354, 0.4315214157104492, 0.1205751970410347, -0.23177549242973328, 0.03165210410952568, -0.14807087182998657, -0.017665378749370575, -0.22082288563251495, -0.040307287126779556, 0.2851266860961914, -0.42350757122039795, -0.22818070650100708, -0.02000982128083706, -0.06618857383728027, 0.23431576788425446, -0.028075315058231354, 0.07620719075202942, 0.023243598639965057], [-0.10489490628242493, -0.3806098699569702, -0.23687852919101715, 0.003894966095685959, -0.18829584121704102, -0.3825839161872864, -0.20123401284217834, -0.024490894749760628, -0.2526133358478546, -0.23695923388004303, 0.15665696561336517, 0.13746199011802673, -0.06630119681358337, -0.03529120236635208, -0.052285999059677124, 0.19563446938991547, 0.004787541925907135, -0.2944141626358032, 0.26613369584083557, -0.014986400492489338, 0.011602298356592655, 0.06138847768306732, 0.2961171269416809, 0.0761769488453865, -0.033159758895635605, 0.21849539875984192, -0.010410339571535587, 0.11949489265680313, 0.1190677210688591, -0.14995793998241425], [-0.1995745152235031, -0.40267547965049744, 0.102910615503788, 0.014014731161296368, 0.15789927542209625, -0.025007540360093117, -0.13963884115219116, -0.2587012052536011, -0.221186563372612, 0.026590602472424507, -0.3491765260696411, 0.02320128120481968, 0.2258860170841217, -0.03289937600493431, -0.03573501855134964, -0.1365686058998108, 0.3900245428085327, 0.1934695839881897, -0.03944121301174164, -0.09862921386957169, -0.15760375559329987, -0.22980912029743195, -0.07901743799448013, 0.21039004623889923, -0.1771954447031021, -0.13334570825099945, -0.023913783952593803, 0.14592616260051727, -0.15798044204711914, 0.07829035818576813], [0.11391296237707138, 0.0352640338242054, 0.1312083750963211, 0.054847653955221176, 0.06318990886211395, 0.1455751210451126, -0.04184620454907417, -0.08272159844636917, -0.0002130988286808133, 0.18002189695835114, 0.20489253103733063, -0.06759275496006012, -0.2550048232078552, 0.01420830562710762, -0.11320681869983673, -0.09759175032377243, 0.027362672612071037, -0.10963904857635498, -0.00508373137563467, -0.42224958539009094, -0.3024722933769226, -0.020469481125473976, 0.1798335760831833, 0.24646277725696564, 0.15722844004631042, 0.15787199139595032, 0.5093497633934021, 0.07618705183267593, -0.23632417619228363, -0.13576816022396088], [0.4769863486289978, 0.07681208848953247, -0.3595920503139496, -0.05883274972438812, 0.18460290133953094, -0.02852691523730755, -0.04634220898151398, -0.09840089827775955, -0.10840320587158203, 0.0053792959079146385, -0.2559400796890259, 0.02756689302623272, -0.19703136384487152, -0.09133101999759674, 0.04598166421055794, 0.4139959514141083, -0.09278616309165955, 0.02323787286877632, 0.147901713848114, -0.18449120223522186, 0.24268247187137604, -0.1663404256105423, -0.10589490085840225, 0.18877333402633667, -0.02791461907327175, -0.2141018807888031, 0.025180701166391373, -0.05933911353349686, -0.16923029720783234, 0.10242854803800583], [-0.2141799032688141, 0.09418114274740219, 0.034864235669374466, 0.39410120248794556, -0.23331162333488464, -0.1340736448764801, -0.17377376556396484, -0.08069024980068207, -0.10132362693548203, 0.0054709417745471, 0.06554198265075684, -0.0765974298119545, 0.07128836214542389, -0.17264430224895477, -0.023541569709777832, 0.12890709936618805, -0.31902438402175903, 0.18141575157642365, 0.18198812007904053, 0.08058039098978043, -0.04732826352119446, 0.04491637647151947, -0.33085376024246216, -0.15505333244800568, -0.18437479436397552, 0.1147809699177742, 0.2146448940038681, -0.037026818841695786, -0.4202713966369629, 0.1542212963104248], [0.07650768756866455, -0.32603880763053894, 0.34912192821502686, 0.034784406423568726, -0.08799292147159576, 0.25249236822128296, -0.35877901315689087, -0.08789180219173431, 0.18585500121116638, -0.13971781730651855, 0.048537254333496094, 0.004436120390892029, -0.16182704269886017, 0.05842357128858566, 0.0059332894161343575, 0.022295361384749413, -0.15343965590000153, -0.13043025135993958, 0.10956801474094391, 0.07146988064050674, 0.14547522366046906, -0.1505121886730194, -0.384494811296463, 0.08459139615297318, 0.06429774314165115, -0.17998933792114258, 0.02254125103354454, -0.14851853251457214, 0.17692066729068756, -0.3512255847454071], [-0.09508969634771347, 0.013726575300097466, 0.16230879724025726, -0.31529542803764343, 0.12312421947717667, 0.017385343089699745, -0.07411903887987137, -0.20265936851501465, 0.011936597526073456, -0.06521724164485931, 0.11430028080940247, -0.0868707001209259, -0.20938898622989655, 0.0668194442987442, 0.4226109981536865, 0.34957069158554077, 0.377986341714859, -0.1466776728630066, -0.022818973287940025, 0.12592002749443054, -0.11434335261583328, 0.12474764138460159, -0.035332392901182175, -0.3345426619052887, -0.017084239050745964, 0.06866071373224258, 0.014231783337891102, -0.13230620324611664, -0.28782883286476135, 0.02730349451303482], [0.3177708089351654, -0.19343529641628265, -0.106355682015419, -0.22476507723331451, -0.45049402117729187, 0.13584549725055695, -0.025911610573530197, -0.020298723131418228, -0.17297399044036865, 0.29389941692352295, -0.03549112007021904, -0.09717558324337006, 0.1740158647298813, -0.3130180239677429, 0.02499772422015667, 0.04138851538300514, 0.03529952093958855, 0.20016629993915558, -0.025773217901587486, 0.13897743821144104, -0.22648264467716217, -0.028573913499712944, 0.12475236505270004, -0.2706470489501953, 0.025145452469587326, -0.11450950056314468, 0.21117888391017914, -0.14324767887592316, 0.15813001990318298, -0.11666380614042282], [0.13553637266159058, 0.20429383218288422, 0.10144830495119095, -0.09049534797668457, -0.20701798796653748, -0.2584635317325592, -0.3182327449321747, 0.08090777695178986, -0.0896715521812439, 0.05375747010111809, 0.1701720505952835, 0.008957047946751118, 0.06219187378883362, -0.17492225766181946, -0.1117454320192337, -0.020859895274043083, 0.17501695454120636, -0.20321783423423767, -0.319240003824234, -0.3786194324493408, -0.11626746505498886, 0.15216641128063202, -0.2951365113258362, 0.12366840988397598, -0.10496295988559723, -0.03874237835407257, -0.28424447774887085, -0.17780040204524994, 0.09366857260465622, 0.1631259173154831], [0.027465257793664932, 0.06351466476917267, 0.23913684487342834, 0.11785396188497543, 0.33987656235694885, -0.0541960671544075, 0.03874490410089493, 0.07360364496707916, 0.00926242209970951, 0.2613592743873596, -0.22292280197143555, 0.2376628965139389, 0.14296910166740417, -0.24920915067195892, 0.1997334212064743, 0.08301825821399689, -0.07814604789018631, -0.33313992619514465, 0.2536507546901703, 0.08678451925516129, -0.19422636926174164, 0.15047889947891235, -0.03602832183241844, 0.04693656787276268, -0.22518719732761383, 0.05321015790104866, 0.21568599343299866, -0.07830126583576202, 0.3531326651573181, 0.10553282499313354], [0.10355233401060104, 0.1877203732728958, -0.054688964039087296, 0.16245000064373016, -0.17540626227855682, 0.12208414077758789, 0.12777072191238403, -0.6052704453468323, -0.024398120120167732, -0.07199592888355255, 0.2578136622905731, 0.0920783281326294, 0.13590052723884583, -0.05873170495033264, 0.3982086181640625, -0.13061703741550446, 0.005185319576412439, -0.04120294377207756, -0.09991435706615448, -0.08938334137201309, 0.20618505775928497, -0.1365414410829544, 0.03067805804312229, 0.08277462422847748, -0.22334671020507812, 0.08671446889638901, 0.014188158325850964, 0.1725502461194992, 0.20404233038425446, -0.019402550533413887], [-0.2954491376876831, -0.05902666598558426, -0.15505041182041168, -0.08681020140647888, 0.015695467591285706, -0.07240641117095947, -0.03053872287273407, 0.055239636451005936, 0.09222029149532318, 0.28368276357650757, 0.2623923122882843, 0.43151673674583435, -0.061106834560632706, 0.11844068765640259, 0.1522103101015091, 0.04050033167004585, -0.04099765047430992, 0.31651145219802856, -0.0577794648706913, -0.04512150585651398, 0.08169178664684296, 0.1253001093864441, 0.1085902750492096, 0.23354749381542206, -0.2082085758447647, -0.2666991651058197, 0.07536694407463074, -0.37237387895584106, -0.05240551382303238, -0.15509918332099915], [0.12465513497591019, -0.07918959110975266, -0.04762723296880722, 0.007731611840426922, -0.004490727558732033, 0.11691682785749435, -0.30612754821777344, 0.06997299939393997, 0.1303928792476654, -0.11340416222810745, 0.03676655516028404, 0.08912654221057892, 0.2631618082523346, -0.09868831187486649, 0.11739352345466614, -0.19507651031017303, 0.2510336637496948, 0.06572655588388443, 0.12162818759679794, 0.06934033334255219, 0.3896179795265198, 0.3743862211704254, 0.04496635124087334, 0.12460034340620041, 0.3351387083530426, 0.06253533810377121, 0.26259106397628784, -0.027312222868204117, -0.08042336255311966, 0.32361042499542236], [-0.20051869750022888, 0.18881674110889435, -0.005917147733271122, 0.08745492994785309, -0.2391550987958908, -0.019031517207622528, 0.07918722927570343, 0.17413243651390076, -0.17425782978534698, 0.032340340316295624, 0.043804652988910675, -0.20435971021652222, -0.31493890285491943, -0.07852575182914734, 0.30036500096321106, -0.19443026185035706, 0.2222035974264145, 0.02621079608798027, 0.46642231941223145, 0.0014044728595763445, -0.08917509019374847, -0.18675971031188965, -0.04259433224797249, 0.1971336156129837, 0.19568464159965515, -0.26391491293907166, -0.09611361473798752, -0.042599793523550034, 0.1377890408039093, 0.1572772115468979], [0.12559257447719574, -0.302280992269516, 0.22751584649085999, -0.15731176733970642, -0.084431953728199, -0.4569898545742035, 0.23029866814613342, 0.21237921714782715, 0.27476030588150024, 0.10471086204051971, 0.10454463958740234, -0.1039876937866211, -0.07585910707712173, -0.11258074641227722, 0.2817336618900299, 0.05376292020082474, -0.1005842387676239, 0.12446512281894684, -0.2013421654701233, 0.05344671383500099, 0.12103930860757828, -0.17748777568340302, -0.12357446551322937, 0.18579243123531342, 0.009053408168256283, 0.08504457026720047, 0.13980405032634735, 0.27939993143081665, -0.028724305331707, 0.1504739224910736], [0.16367493569850922, -0.09946297854185104, -0.06725192815065384, 0.07386593520641327, 0.08398942649364471, 0.10588199645280838, -0.009049617685377598, 0.19288836419582367, -0.2829529643058777, -0.23256978392601013, 0.05780085548758507, -0.08134689182043076, -0.16982156038284302, -0.10440748184919357, 0.12875549495220184, -0.34186699986457825, -0.11099684983491898, -0.2646477222442627, -0.31946173310279846, 0.3761708438396454, -0.03015589527785778, -0.03168531879782677, 0.12792405486106873, 0.1652914583683014, -0.29377514123916626, -0.10532156378030777, 0.07504928857088089, -0.20862245559692383, -0.23893001675605774, 0.07298688590526581], [-0.23029792308807373, -0.15388496220111847, -0.1085730493068695, -0.1571696251630783, 0.02759253792464733, 0.29333287477493286, 0.13426068425178528, -0.11978062242269516, -0.20044298470020294, -0.09680523723363876, 0.16192887723445892, 0.14832213521003723, 0.04808618128299713, -0.04649454355239868, -0.0020507986191660166, 0.2620271146297455, -0.28232112526893616, -0.03918759524822235, -0.1958581805229187, 0.07624921202659607, -0.26596003770828247, -0.00922315288335085, -0.19404295086860657, 0.2296323925256729, 0.3790261447429657, 0.020907903090119362, -0.018119553104043007, 0.007315549999475479, 0.1329742968082428, 0.3846126198768616], [-0.11680002510547638, 0.1939077228307724, 0.0982789695262909, -0.3016495406627655, -0.13966511189937592, 0.016129523515701294, 0.20869748294353485, 0.07734057307243347, -0.025077173486351967, -0.1570543348789215, 0.18265534937381744, 0.04662252217531204, 0.2730681002140045, 0.05678557977080345, -0.3288363218307495, 0.13016930222511292, 0.15066349506378174, -0.2732410430908203, 0.12271445244550705, 0.06944306939840317, 0.1616181880235672, -0.14794385433197021, -0.08044975250959396, 0.032316919416189194, -0.20169255137443542, -0.37573546171188354, 0.3651870787143707, 0.1444011628627777, -0.07147514075040817, 0.034046828746795654], [0.06858354061841965, -0.1816616654396057, 0.17144261300563812, -0.07625976949930191, 0.06459737569093704, 0.2101123034954071, 0.2151898592710495, 0.09490299224853516, -0.14842768013477325, 0.004197551868855953, 0.15517963469028473, 0.04406259208917618, 0.0765031948685646, -0.28097110986709595, 0.11707911640405655, -0.054003506898880005, -0.17656293511390686, -0.006910038646310568, 0.1957091987133026, -0.24813520908355713, 0.037882789969444275, 0.3953878879547119, 0.010280911810696125, -0.048913389444351196, -0.04473074525594711, -0.24469764530658722, -0.33947649598121643, 0.31416139006614685, -0.27980199456214905, -0.1687987744808197]]}, "hz": {"kernel": [[0.24592947959899902, 0.02507186308503151, 0.18451160192489624, -0.051569532603025436, 0.35048747062683105, -0.18087637424468994, 0.016281496733427048, 0.16217397153377533, -0.0484766960144043, 0.14745572209358215, 0.0858355239033699, 0.08033198863267899, 0.2372756451368332, -0.033724989742040634, -0.08911335468292236, 0.4817033112049103, -0.023552387952804565, -0.168528214097023, 0.5164620280265808, -0.008264387957751751, -0.03717324510216713, -0.1410626620054245, -0.08777640759944916, -0.12002108246088028, -0.08402671664953232, 0.05614388734102249, -0.09520439803600311, -0.08181358128786087, -0.03519940376281738, 0.13555438816547394], [-0.1732766330242157, -0.21855100989341736, -0.03654193505644798, -0.22580298781394958, 0.04606851935386658, -0.08293721079826355, 0.13771884143352509, 0.08277609944343567, -0.02132485806941986, -0.350272536277771, -0.029921408742666245, 0.2727217674255371, 0.27673062682151794, 0.03957130014896393, 0.05121288821101189, 0.09605305641889572, -0.2125604897737503, 0.1775485724210739, -0.06918301433324814, -0.12878307700157166, 0.08428949117660522, 0.08616439253091812, 0.10869995504617691, 0.09880968928337097, -0.5581319332122803, -0.0336039736866951, 0.10362016409635544, 0.11715877056121826, 0.2741430103778839, 0.01460291538387537], [-0.0838981345295906, 0.10959327220916748, -0.15648943185806274, 0.03134597837924957, -0.053606800734996796, -0.06503406167030334, 0.19619858264923096, -0.21939264237880707, 0.04060474783182144, 0.05623922869563103, -0.2102113515138626, 0.07384311407804489, 0.324660986661911, 0.06838946789503098, -0.4537038803100586, 0.06847790628671646, -0.3832162320613861, -0.03353499248623848, -0.049922067672014236, -0.07335833460092545, -0.09213102608919144, -0.05516136810183525, 0.03891804814338684, 0.22820021212100983, 0.38935813307762146, 0.28313180804252625, -0.02794545330107212, -0.02467217855155468, 0.17454755306243896, -0.04564478248357773], [-0.07310304790735245, 0.165660560131073, 0.20128169655799866, -0.11272371560335159, -0.41849789023399353, -0.13409027457237244, -0.2588386833667755, -0.0030443635769188404, -0.06313149631023407, 0.019124949350953102, 0.002975031966343522, -0.08015385270118713, -0.21852034330368042, -0.4353167712688446, -0.14965537190437317, 0.1494065672159195, -0.2475845068693161, 0.03456886485219002, 0.1436213105916977, 0.011682608164846897, 0.2572798728942871, 0.2835058569908142, -0.041884828358888626, 0.013604073785245419, -0.12280566990375519, 0.2748201787471771, 0.1712522655725479, -0.03450039401650429, -0.05990687757730484, 0.06804480403661728], [-0.3012799918651581, -0.12257666885852814, 0.012628319673240185, 0.06484757363796234, 0.11181334406137466, -0.05536651983857155, 0.004197732079774141, -0.28462088108062744, -0.06273756176233292, 0.056764889508485794, 0.15993058681488037, -0.17338816821575165, -0.08973607420921326, -0.002015190664678812, 0.1983991265296936, 0.14616021513938904, -0.4713893234729767, -0.2380763292312622, 0.040970105677843094, -0.15232519805431366, 0.12034797668457031, -0.11581684648990631, 0.0022564574610441923, 0.11122360825538635, 0.03514913469552994, -0.45281848311424255, 0.12211471796035767, -0.1983160376548767, -0.17538198828697205, -0.16230328381061554], [-0.24316827952861786, -0.052899379283189774, 0.2515375018119812, -0.16465307772159576, -0.07738324999809265, -0.16675208508968353, -0.02059563808143139, -0.10654943436384201, 0.12987105548381805, -0.0660143494606018, -0.22055982053279877, 0.2956031262874603, -0.2377106100320816, 0.12970073521137238, 0.08031035214662552, 0.3351692259311676, 0.0307221170514822, -0.12020482867956161, -0.2724246680736542, 0.18493859469890594, 