{"iterations": 1536, "final_fidelity": 0.705463803991359, "final_purity": -1, "optimized_trainable_parameters": {"initial_params": [[], [5.812326890621769, 1.8715191373518396, 4.477425714900923, 5.890269849423138, 1.8146570029530065, 2.893189922173831, 3.7404381448273436, 1.5777810663033576, 0.620994891814323, 3.864856988789411, 6.231246671239149, 4.934966989762335, 4.981546340195808, 1.1192127716910714, 2.344204195149228, 6.307789010684075, 5.218484959495083, 2.2090679368862562, 4.797623141852699, 5.823692301996493, 0.31556435942240246, 3.030490137966179, 1.7194749653008563, 4.973147098793945, 2.1101587208352393, 5.761418510212814, 1.7378942656024712, 0.7489007037358073, 4.463045824492963, 4.689046136443772, 1.767639208597413, 2.5254916655092416, 2.1186945886862363, 5.204177235276981, 5.665705478983033, 2.2968943463662996, 2.855878533005641, 0.6522975772936652, 3.9298459555004097, 3.6084936017262184, 3.7692283670685587, 3.6303310113268448, 0.6207926218368923, 3.7409038793616074, 5.723220750518726, 3.722899579187097, 5.434779557779153, 4.0106792444627954, 2.5607915416242704, 3.6208438586059253, 1.4732495566829824, 6.027600351085779, 1.4745133273364592, 0.5026579935413034, 3.084843341081983, 2.5505854402911914, 1.4161781806985452, 0.8600533914748334, 6.4474528526032815, 3.052098612763482, 0.8015420896994662, 3.6679987305346375, 6.224967910607109, 3.422109975404165, 1.5684742873121535, 6.210723564665219, -4.108846328489539e-18, 6.332836758249771, 4.716557995695188, 1.5707962753521807, 4.70815392042993, 4.802532759402558], [6.094363009698324, 1.980346031110394, 4.153791127233861, 6.229067048932181, 1.7751352004394012, 2.233601835029501, 3.3002877923679588, 2.0270080429275144, 0.3686831206784092, 3.864856988789411, 5.998718376191112, 5.270125085447247, 4.981546340195808, 1.1192127716910714, 2.344204195149228, 4.8330570839390745, 5.218484959495083, 2.2090679368862562, 4.797623141852699, 5.823692301996493, 0.31556435942240246, 3.030490137966179, 1.7194749653008563, 4.973147098793945, 2.1101587208352393, 5.761418510212814, 1.7378942656024712, 0.7489007037358073, 4.456599926224252, 4.691879038729621, 2.3886105832554008, 2.29713601226842, 2.258161719529259, 4.80035533176193, 5.280894609627821, 2.701561590392014, 1.9916554950935172, 0.6522975772936652, 3.7174330446199817, 4.025395429880456, 3.7692283670685587, 3.6303310113268448, 0.6207926218368923, 3.844441479341378, 5.723220750518726, 3.722899579187097, 5.434779557779153, 4.0106792444627954, 2.5607915416242704, 3.6208438586059253, 1.4732495566829824, 6.027600351085779, 1.4745133273364592, 0.5026579935413034, 3.084843341081983, 2.5505854402911914, 2.8747856376057754, 0.05932658899645032, 4.925228858701095, 3.671936945383406, 1.7285193729825767, 3.917877352620044, 5.354829688403799, 3.4221099749950374, 1.761416159209946, 5.784620527289228, 0.0007077399087626888, 6.180694055093325, 5.245667767192338, 1.3114847229744826, 4.644379254015441, 5.143584142402586], [0.08062436666431605, 0.923948835561414, 0.7339523451366718, 0.5794502442667795, 0.5976030059699919, 0.7000266287193331, 0.8056200973061387, 0.8894700350923472, 0.07627888141344874, 0.8728580575304441, 0.22663938029178654, 0.6564232100473297, 0.29224536994517436, 0.6596231091705356, 0.629365131022366, 0.4619819572813424, 0.8193514805281565, 0.6512831230341642, 0.9733046870263129, 0.9444505395292015, 0.9182082032288363, 0.5543627964382509, 0.7830599900634658, 0.6542280042611439, 0.7626502422760495, 0.9888408853930919, 0.6299959315030015, 0.9162851472155082, 0.706661011532282, 0.827052482249405, 0.4143085575562553, 0.301302335753453, 0.05760853211194594, 0.7207888384390386, 0.1923819370949056, 0.15724463390189425, 0.9167070879854895, 0.5428114841934542, 0.30390380628201474, 0.2765018768384566, 0.5833472829696598, 0.7757670168741624, 0.8151969697108865, 0.6730294070586214, 0.3425704284896489, 0.2816810660044804, 0.32252491583720855, 0.2149071806352678, 0.7559688675013756, 0.3074243349346728, 0.950506417112257, 0.8364326348445001, 0.9862761290834987, 0.1625085191882869, 0.5606424964766055, 0.1594550505153438, 0.4145701339543364, 0.06871425770856554, 0.5767713099864875, 0.185962538695982, 0.8177615934270606, 0.5290150682036481, 0.4916001550510516, 0.6132162644788453]], "rnn_params": {"params": {"Dense_0": {"bias": [3.1912460327148438, 3.103647232055664, 3.1247854232788086, 3.0980868339538574, 3.2571535110473633, 3.142886161804199, 3.180258274078369, 3.1313650608062744, 3.082514524459839, 3.1415927410125732, 3.1211001873016357, 3.1654293537139893, 3.1415927410125732, 3.1415927410125732, 3.1415927410125732, 3.1821889877319336, 3.1415927410125732, 3.1415927410125732, 3.1415927410125732, 3.1415927410125732, 3.1415927410125732, 3.1415927410125732, 3.1415927410125732, 3.1415927410125732, 3.1415927410125732, 3.1415927410125732, 3.1415927410125732, 3.1415927410125732, 3.2287957668304443, 3.2720608711242676, 3.125396490097046, 3.147505283355713, 3.1077680587768555, 3.181992292404175, 3.370462417602539, 3.178931713104248, 3.103694438934326, 3.1415927410125732, 3.24308180809021, 3.0031466484069824, 3.1415927410125732, 3.1415927410125732, 3.1415927410125732, 2.995958089828491, 3.1415927410125732, 3.1415927410125732, 3.1415927410125732, 3.1415927410125732, 3.1415927410125732, 3.1415927410125732, 3.1415927410125732, 3.1415927410125732, 3.1415927410125732, 3.1415927410125732, 3.1415927410125732, 3.1415927410125732, 3.0485966205596924, 3.080772876739502, 3.142404556274414, 3.172973871231079, 3.0401294231414795, 3.1354591846466064, 3.146932363510132, 3.1415927410125732, 3.1114628314971924, 3.0985147953033447, 3.095334053039551, 3.1932995319366455, 3.188027858734131, 3.194420099258423, 3.134830951690674, 3.1478230953216553, 3.1918022632598877, 3.1946630477905273, 3.2350223064422607, 3.138789176940918, 3.1788570880889893, 3.18656325340271, 3.099323272705078, 3.3029258251190186, 3.183476448059082, 3.1415927410125732, 3.1340582370758057, 3.192692518234253, 3.1415927410125732, 3.1415927410125732, 3.1415927410125732, 3.1638143062591553, 3.1415927410125732, 3.1415927410125732, 3.1415927410125732, 3.1415927410125732, 3.1415927410125732, 3.1415927410125732, 3.1415927410125732, 3.1415927410125732, 3.1415927410125732, 3.1415927410125732, 3.1415927410125732, 3.1415927410125732, 3.193617343902588, 3.0984551906585693, 3.1510064601898193, 3.171459197998047, 3.2735776901245117, 3.1687917709350586, 3.0231778621673584, 3.182375907897949, 3.196087598800659, 3.1415927410125732, 3.1055867671966553, 3.1257221698760986, 3.1415927410125732, 3.1415927410125732, 3.1415927410125732, 3.186703681945801, 3.1415927410125732, 3.1415927410125732, 3.1415927410125732, 3.1415927410125732, 3.1415927410125732, 3.1415927410125732, 3.1415927410125732, 3.1415927410125732, 3.1415927410125732, 3.1415927410125732, 3.1415927410125732, 3.1415927410125732, 3.190398931503296, 3.215496301651001, 3.205883264541626, 3.1496012210845947, 3.1716601848602295, 3.1704485416412354, 3.132169485092163, 3.1415927410125732, 3.143826484680176, 3.17979097366333, 3.199599266052246, 3.0725045204162598, 3.1707441806793213, 3.153559684753418, 3.1185109615325928, 3.1275267601013184, 3.1987788677215576, 3.113813638687134, 3.1159064769744873, 3.198746919631958, 3.094334125518799, 3.1738154888153076, 3.1878509521484375, 3.181342363357544, 3.3095569610595703, 3.1415927410125732, 2.9796242713928223, 2.9903204441070557, 3.1415927410125732, 3.1415927410125732, 3.1415927410125732, 3.1350910663604736, 3.1415927410125732, 3.1415927410125732, 3.1415927410125732, 3.1415927410125732, 3.1415927410125732, 3.1415927410125732, 3.1415927410125732, 3.1415927410125732, 3.1415927410125732, 3.1415927410125732, 3.1415927410125732, 3.1415927410125732, 2.9445135593414307, 3.0399205684661865, 3.0826144218444824, 3.2891030311584473, 3.134665012359619, 3.035026788711548, 3.017439842224121, 2.953277349472046, 3.364433765411377, 3.1415927410125732, 3.2109735012054443, 2.9898788928985596, 3.1415927410125732, 3.1415927410125732, 3.1415927410125732, 3.047771453857422, 3.1415927410125732, 3.1415927410125732, 3.1415927410125732, 3.1415927410125732, 3.1415927410125732, 3.1415927410125732, 3.1415927410125732, 3.1415927410125732, 3.1415927410125732, 3.1415927410125732, 3.1415927410125732, 3.1415927410125732, 3.008228302001953, 3.4764490127563477, 3.3466708660125732, 3.0673041343688965, 3.034226179122925, 2.961102247238159, 3.1914310455322266, 3.1415927410125732], "kernel": [[-0.09794863313436508, -0.12252277880907059, 0.11737731844186783, -0.162037655711174, 0.1678577959537506, 0.01105039194226265, -0.019854148849844933, 0.1343034952878952, -0.1802191287279129, -0.12196922302246094, -0.07980258762836456, 0.1637059450149536, 0.06906227767467499, 0.003314841538667679, -0.059839241206645966, 0.13457326591014862, -0.11067640036344528, 0.03344724699854851, -0.15226875245571136, 0.044100385159254074, -0.0452943816781044, 0.020017001777887344, -0.14598530530929565, -0.10254927724599838, -0.10453002154827118, -0.018412653356790543, 0.1523095667362213, -0.08039117604494095, 0.2286670058965683, 0.10688435286283493, 0.04426797851920128, -0.03299326077103615, -0.12631726264953613, -0.032584041357040405, 0.24347606301307678, -0.11544714123010635, 0.01669590175151825, -0.06874766200780869, 0.01277281902730465, -0.23105552792549133, -0.11769058555364609, 0.14503911137580872, -0.08481695502996445, -0.0019364175386726856, 0.14014659821987152, 0.07329833507537842, 0.006989157758653164, -0.12717357277870178, 0.11466741561889648, -0.06445130705833435, 0.11857102066278458, -0.14081914722919464, -0.011992082931101322, -0.055718570947647095, 0.09369600564241409, -0.10727445781230927, 0.011250687763094902, -0.12743911147117615, -0.10066293925046921, -0.012628935277462006, -0.02740253321826458, -0.15831434726715088, -0.019337283447384834, -0.07845180481672287, -0.17351248860359192, -0.08381420373916626, 0.08388862013816833, -0.11265195906162262, -0.026907213032245636, -0.04390048235654831, 0.0523374080657959, -0.10491707921028137, -0.041946277022361755, -0.06145063787698746, 0.09282338619232178, 0.0707889199256897, 0.006521544419229031, 0.08585286140441895, 0.04256662726402283, 0.032232824712991714, -0.06503791362047195, 0.09683675318956375, 0.10940591245889664, 0.03153816610574722, 0.07655082643032074, -0.08466792106628418, 0.15254177153110504, 0.16772489249706268, 0.08460470288991928, -0.0349842868745327, 0.05775022879242897, 0.05265633761882782, 0.09158731251955032, 0.07796468585729599, 0.02992280013859272, -0.09402693808078766, -0.05578629672527313, 0.06324663758277893, 0.07557650655508041, 0.06198056414723396, -0.016303623095154762, -0.051636964082717896, 0.15228652954101562, 0.06465668231248856, 0.14116618037223816, 0.16020320355892181, 0.04433085396885872, 0.06004157289862633, 0.08943470567464828, -0.03651916980743408, -0.1785285472869873, -0.08635935187339783, -0.09259884804487228, 0.1489463448524475, -0.08039238303899765, 0.0572841614484787, 0.1442158967256546, -0.04941383749246597, -0.1270333230495453, -0.08185000717639923, -0.1130208969116211, 0.06713752448558807, 0.07427836954593658, -0.048975661396980286, 0.053642433136701584, -0.08863712847232819, 0.031497467309236526, -0.07356744259595871, 0.07444853335618973, -0.008637954480946064, -0.10745534300804138, 0.009236032143235207, -0.060638122260570526, 0.118428535759449, -0.06736133992671967, -0.08793756365776062, -0.012628864496946335, 0.017263324931263924, 0.006129151210188866, -0.010433749295771122, -0.0730934664607048, 0.029347557574510574, 0.09513156116008759, 0.11814231425523758, 0.0994386076927185, 0.06862115114927292, 0.05122514069080353, 0.09130559861660004, -0.1631077378988266, 0.015424362383782864, -0.08453115075826645, 0.12785856425762177, 0.2285202145576477, 0.12050100415945053, -0.19951486587524414, -0.23939384520053864, -0.047450169920921326, 0.1513194590806961, 0.06285127997398376, 0.027274688705801964, -0.09043298661708832, 0.07179278880357742, -0.04936852678656578, 0.08421353995800018, 0.03554166853427887, -0.03628439083695412, 0.051341548562049866, -0.1166900247335434, -0.11148203909397125, -0.15355134010314941, 0.12055078148841858, 0.13107183575630188, -0.17631836235523224, -0.11175324767827988, -0.1679317206144333, -0.007313001900911331, 0.04338033124804497, -0.17236414551734924, -0.21113605797290802, 0.007935109548270702, 0.15365071594715118, 0.010748420841991901, -0.0032077436335384846, -0.23375220596790314, -0.03903624787926674, 0.15630534291267395, -0.12664636969566345, -0.20871375501155853, -0.15702955424785614, 0.09701463580131531, 0.08994416147470474, -0.0630776509642601, 0.05670531094074249, 0.02416299469769001, 0.1148395836353302, -0.11596997827291489, 0.02163758873939514, -0.14149747788906097, -0.01550990529358387, -0.14273923635482788, -0.048789676278829575, 0.29024025797843933, 0.30075275897979736, -0.04365549981594086, -0.12203650176525116, -0.19036488234996796, 0.10694367438554764, -0.13616278767585754], [-0.10491912066936493, -0.13455307483673096, -0.054852019995450974, -0.20635759830474854, 0.046101417392492294, 0.06385712325572968, -0.11484290659427643, -0.03879203647375107, -0.03291552886366844, 0.13828779757022858, 0.015369352884590626, 0.13583867251873016, -0.10807684063911438, -0.0779157355427742, 0.004576939158141613, -0.0188949815928936, 0.031145641580224037, 0.037475548684597015, -0.010362675413489342, 0.11349900811910629, 0.11735287308692932, 0.10524570941925049, 0.11013896763324738, 0.14183437824249268, -0.042303089052438736, 0.1458406150341034, -0.06483417749404907, -0.0626298263669014, 0.21025018393993378, 0.019817166030406952, 0.058439165353775024, -0.022025950253009796, -0.10554119944572449, 0.14916937053203583, 0.12883923947811127, -0.07783205807209015, -0.11159796267747879, 0.036092426627874374, 0.055883150547742844, 0.017984677106142044, -0.10003571957349777, -0.14055047929286957, -0.055693019181489944, -0.11617463082075119, 0.06253344565629959, 0.05092926323413849, -0.10331504791975021, 0.023266276344656944, 0.04284567013382912, -0.062213338911533356, 0.11332794278860092, -0.1494826376438141, -0.06714849919080734, -0.011204427108168602, -0.14177986979484558, 0.08391918241977692, -0.15357740223407745, -0.14026936888694763, 0.018453076481819153, 0.10477917641401291, 0.024812228977680206, 0.12460830807685852, -0.028727997094392776, -0.0002320911589777097, -0.004395091440528631, 0.05193132907152176, 0.1164012923836708, 0.08104483783245087, -0.07004200667142868, -0.024053018540143967, -0.060785211622714996, -0.014143628999590874, -0.09818882495164871, 0.09125421941280365, -0.07325318455696106, 0.10918431729078293, -0.10944071412086487, -0.07597280293703079, 0.1183248907327652, 0.046145424246788025, 0.06238653138279915, -0.0013481804635375738, 0.14424893260002136, -0.08650051057338715, 0.09984507411718369, -0.060107938945293427, -0.11172938346862793, 0.003343555610626936, 0.1534077525138855, -0.14230458438396454, 0.08731518685817719, 0.09555444121360779, -0.1089622750878334, -0.10949467122554779, -0.06346885114908218, -0.13580599427223206, 0.03715839609503746, 0.10286154597997665, 0.0938761979341507, -0.12265463173389435, 0.19079959392547607, -0.0729304626584053, 0.12139421701431274, 0.011220193468034267, -0.08276274800300598, 0.021415363997220993, -0.12785373628139496, -0.009452310390770435, 0.18498055636882782, -0.08158554881811142, -0.18107911944389343, 0.11794605106115341, -0.009464632719755173, -0.004158675204962492, 0.021659960970282555, 0.035749826580286026, -0.11199937015771866, 0.15278109908103943, -0.0285885501652956, -0.11873838305473328, -0.016578031703829765, -0.06681295484304428, -0.11783204972743988, 0.04276231303811073, -0.08448424935340881, -0.056406062096357346, -0.12432454526424408, -0.0004967757849954069, -0.0003051787498407066, 0.012101291678845882, 0.07743904739618301, -0.1227048933506012, -0.05087146908044815, -0.14421391487121582, 0.07134588062763214, 0.04958763346076012, 0.03048202022910118, -0.11310125142335892, 0.002348679583519697, 0.060059450566768646, 0.10093006491661072, 0.02711441181600094, 0.0557396337389946, -0.04855017736554146, 0.03782709315419197, -0.046905141323804855, -0.003114221850410104, 0.18098202347755432, 0.12194231897592545, -0.11630879342556, -0.03589130938053131, 0.10315029323101044, 0.10434191673994064, -0.08262081444263458, -0.16836285591125488, -0.10457106679677963, -0.06139229238033295, 0.03498228266835213, -0.09254660457372665, -0.082694411277771, -0.004774506203830242, 0.01800987310707569, -0.11965008825063705, 0.1284288614988327, 0.12348184734582901, -0.14065654575824738, -0.030813612043857574, -0.09815377742052078, 0.130273699760437, 0.13134807348251343, 0.08137302845716476, -0.0018130820244550705, -0.2657776474952698, -0.1925416737794876, -0.19993095099925995, 0.08750567585229874, -0.1157229021191597, 0.021199991926550865, 0.025500653311610222, 0.011030379682779312, 0.35620051622390747, -0.1532270610332489, -0.0012435740791261196, -0.28348109126091003, 0.05432477593421936, 0.15467287600040436, 0.1106802225112915, -0.07412037253379822, 0.1460401564836502, 0.11567693948745728, 0.07261307537555695, 0.09099479764699936, -0.06613458693027496, 0.015799006447196007, 0.040800876915454865, 0.10423913598060608, 0.06760117411613464, 0.10763286799192429, -0.1317509263753891, 0.1476481407880783, -0.10324892401695251, 0.2937227189540863, 0.1413847804069519, -0.11538739502429962, 0.025442691519856453, -0.03726887330412865, 0.05403827875852585, -0.07270729541778564], [0.05064080283045769, 0.12429498136043549, -0.11344341933727264, -0.14888817071914673, 0.07970517128705978, 0.15876416862010956, 0.0278380885720253, 0.07408035546541214, 0.012388565577566624, 0.14495328068733215, 0.1285911649465561, 0.07727521657943726, -0.035848524421453476, 0.14675630629062653, -0.031032415106892586, -0.1190243735909462, -0.02956385537981987, -0.13830679655075073, 0.11458167433738708, 0.05036730319261551, -0.039963286370038986, 0.12001864612102509, 0.03320315480232239, -0.14475208520889282, -0.029631389304995537, -0.14394031465053558, 0.0642269030213356, 0.12011756747961044, 0.12374341487884521, 0.10068550705909729, -0.21771802008152008, -0.13197530806064606, -0.04171096161007881, 0.09871996194124222, 0.033266276121139526, -0.003225562861189246, -0.07120871543884277, 0.15358279645442963, -0.1678563803434372, 0.1856183260679245, 0.08082018792629242, 0.05604276433587074, -0.15179423987865448, -0.36639317870140076, 0.004272506106644869, 0.03166043758392334, -0.1107863336801529, 0.15543203055858612, -0.059196874499320984, 0.10650898516178131, 0.11508132517337799, -0.03857903182506561, 0.13101550936698914, -0.010259253904223442, -0.09721897542476654, 0.04527053236961365, 0.06222328543663025, -0.14102570712566376, 0.17002436518669128, 0.08298356831073761, 0.05933551490306854, -0.11329542845487595, -0.040289901196956635, -0.017070189118385315, -0.10510286688804626, 0.10897592455148697, 0.06473272293806076, -0.2035834938287735, -0.17589546740055084, -0.06655074656009674, 0.18606817722320557, 0.03518427535891533, 0.014903285540640354, -0.056580040603876114, 0.17156101763248444, -0.11906182020902634, 0.04957578703761101, 0.18133802711963654, -0.039893511682748795, 0.1681792140007019, 0.1658654361963272, 0.01954100839793682, 0.04772932082414627, -0.039626628160476685, 0.04947618767619133, 0.045675963163375854, 0.13718155026435852, -0.11770101636648178, -0.13240674138069153, 0.037615422159433365, 0.14902257919311523, 0.08791617304086685, -0.04333748668432236, 0.02765522710978985, -0.02471863478422165, 0.043517377227544785, 0.06710909307003021, -0.1341918408870697, 0.14442463219165802, 0.008349527604877949, 0.11481469124555588, -0.17823688685894012, -0.1121584102511406, -0.12711946666240692, 0.10323525220155716, 0.10724013298749924, -0.09061404317617416, -0.020379573106765747, 0.115191251039505, -0.15807822346687317, 0.08041252940893173, -0.13287949562072754, 0.07758136093616486, -0.11885421723127365, -0.13143037259578705, -0.019137030467391014, -0.13982240855693817, -0.07834554463624954, -0.004715262446552515, -0.11574027687311172, 0.010256906971335411, 0.03282346576452255, -0.13230937719345093, -0.08193923532962799, 0.08346521854400635, 0.11088695377111435, 0.08415040373802185, -0.09201473742723465, 0.15142425894737244, -0.10281676799058914, -0.10291130095720291, -0.20709627866744995, -0.11217156797647476, -0.025870313867926598, 0.06716539710760117, 0.0896577462553978, 0.012925299815833569, 0.2193974256515503, -0.012778607197105885, -0.03600979968905449, 0.09882060438394547, -0.004861440043896437, 0.06890618056058884, -0.010504961013793945, -0.1301664113998413, 0.07283598929643631, -0.21644710004329681, -0.019475016742944717, 0.12935155630111694, 0.07651177793741226, -0.18073612451553345, 0.47302505373954773, 0.38837820291519165, -0.03050452284514904, -0.3736943006515503, 0.07968694716691971, -0.11578990519046783, 0.059963975101709366, -0.035810936242341995, -0.0032481462694704533, 0.12951284646987915, 0.10618414729833603, -0.03491160646080971, -0.11124135553836823, 0.13022005558013916, 0.06524884700775146, -0.14500178396701813, -0.0953892394900322, 0.020995108410716057, 0.018923358991742134, 0.08933155238628387, 0.03132961690425873, 0.013819604180753231, -0.09313727170228958, 0.014292125590145588, -0.14559577405452728, 0.13511323928833008, 0.05898663029074669, 0.03428247198462486, 0.13284286856651306, 0.2949367165565491, -0.10346245765686035, 0.12548257410526276, -0.29295939207077026, -0.13100484013557434, 0.031101124361157417, -0.10799968987703323, -0.10314515978097916, -0.14323276281356812, 0.13978947699069977, 0.056388650089502335, -0.04461434856057167, 0.0028005766216665506, -0.07981297373771667, -0.0036111732479184866, 0.14810891449451447, 0.05381513014435768, 0.0396365225315094, -0.13595791161060333, -0.13393250107765198, -0.24421806633472443, -0.6465783715248108, 0.646116316318512, -0.6370824575424194, 0.5064274072647095, -0.061632342636585236, 0.4927935302257538, -0.06821500509977341], [0.074119433760643, -0.024971654638648033, -0.17207519710063934, -0.15130983293056488, -0.054847124963998795, -0.08767800778150558, -0.1072983667254448, 0.060116931796073914, 0.07580146193504333, 0.0031542214564979076, 0.12658217549324036, -0.0004227706522215158, 0.1443987786769867, 0.10917574167251587, -0.14904317259788513, -0.025739913806319237, -0.08514141291379929, -0.04467480257153511, 0.047556426376104355, -0.11505383998155594, -0.14472807943820953, 0.05457715690135956, -0.07988705486059189, -0.12142769992351532, 0.10317616164684296, -0.09014926105737686, -0.03214763477444649, -0.012939564883708954, -0.022923925891518593, 0.11668314784765244, 0.05251741781830788, -0.004572093021124601, 0.060169581323862076, -0.04591059684753418, 0.11401480436325073, -0.004701210651546717, -0.11949102580547333, -0.06336020678281784, 0.06539154052734375, -0.03904486447572708, -0.13960526883602142, -0.02183152176439762, -0.06647490710020065, -0.1412079632282257, 0.13022013008594513, 0.04537796601653099, 0.07639728486537933, -0.031707677990198135, 0.0030361127573996782, 0.14879567921161652, 0.027416851371526718, -0.06308503448963165, -0.13900530338287354, -0.13319113850593567, -0.03834807500243187, -0.11263579875230789, -0.039840102195739746, -0.13271118700504303, -0.06255506724119186, 0.15092818439006805, 0.060149844735860825, -0.05920589342713356, 0.06705504655838013, -0.15822018682956696, -0.045875612646341324, 0.07836691290140152, -0.059880033135414124, -0.08274232596158981, -0.06928105652332306, -0.15665879845619202, -1.3941629731561989e-05, 0.009224426001310349, 0.021032091230154037, -0.03519027680158615, 0.1602562814950943, -0.037039753049612045, -0.10352789610624313, -0.104988694190979, -0.05633765831589699, 0.04326998442411423, -0.04544835910201073, 0.14932914078235626, -0.11968737840652466, 0.13540048897266388, 0.0053799268789589405, 0.13235725462436676, -0.15078838169574738, -0.08991865068674088, -0.08539069443941116, -0.08098198473453522, 0.0410691574215889, 0.07358062267303467, 0.09099797904491425, -0.14879144728183746, 0.10365385562181473, 0.010074027813971043, 0.07866425067186356, 0.1170194074511528, -0.12460698187351227, -0.14566655457019806, 0.052164044231176376, 0.1115167886018753, -0.12114646285772324, 0.1499350219964981, 0.16373293101787567, 0.0313049741089344, -0.1685408353805542, 0.18869701027870178, 0.1494768112897873, 0.03437553718686104, -0.054597266018390656, 0.12471523880958557, 0.02814446948468685, 0.11689490079879761, -0.06523086130619049, 0.16246110200881958, -0.010056046769022942, -0.10274305939674377, -0.11678549647331238, -0.12307016551494598, 0.12548787891864777, 0.024173177778720856, -0.10050546377897263, 0.12384843826293945, -0.10884715616703033, 0.030906356871128082, 0.01299540139734745, -0.07248618453741074, 0.0763932317495346, 0.11354494839906693, -0.057950593531131744, -0.19194923341274261, -0.1278848648071289, -0.12167543172836304, 0.0424453429877758, 0.14601081609725952, -0.06240825355052948, -0.03046621009707451, -0.059783563017845154, -0.055844079703092575, -0.006585944909602404, -0.007949946448206902, 0.1076250672340393, -0.024962905794382095, -0.04284289851784706, 0.03998918831348419, -0.12137007713317871, -0.07748519629240036, 0.017845336347818375, -0.05780591070652008, -0.054579589515924454, 0.3459285497665405, 0.21347539126873016, 0.14759285748004913, -0.36533236503601074, 0.09896346181631088, 0.026299702003598213, -0.10156866908073425, -0.1471894383430481, -0.13867563009262085, -0.05111365765333176, 0.028594568371772766, 0.13363003730773926, 0.11870691925287247, -0.017496591433882713, -0.014355846680700779, -0.1437549740076065, -0.017478762194514275, 0.005456280894577503, 0.13905280828475952, 0.07541070133447647, -0.09914456307888031, -0.10407381504774094, -0.1371275931596756, -0.08231094479560852, 0.0046162051148712635, 0.21209873259067535, 0.10677977651357651, 0.0306351650506258, -0.0011162437731400132, 0.23893143236637115, -0.012290837243199348, 0.05634794384241104, -0.316506564617157, 0.04845045879483223, -0.114501953125, 0.11066432297229767, -0.14175014197826385, -0.11184367537498474, -0.04331227391958237, 0.05371367558836937, 0.076780304312706, 0.08719828724861145, 0.010083340108394623, -0.10820217430591583, 0.11211032420396805, 0.12212669849395752, -0.0026285997591912746, -0.04354364797472954, 0.08205912262201309, -0.21496552228927612, -0.4654116630554199, 0.41907620429992676, -0.35667264461517334, 0.33646154403686523, 0.09036983549594879, 0.4025441110134125, -0.0028260154649615288], [0.09077049791812897, -0.07149405777454376, 0.012620728462934494, -0.016164442524313927, 0.030461575835943222, -0.1264161467552185, 0.02697758935391903, 0.10866901278495789, -0.12165852636098862, 0.07289339601993561, 0.05242782458662987, 0.05456092953681946, -0.1130606085062027, 0.15233322978019714, -0.15770785510540009, 0.13320010900497437, -0.0447315089404583, 0.05513446405529976, -0.02062934823334217, 0.10860961675643921, -0.014002240262925625, 0.14234478771686554, -0.08963583409786224, 0.03891776129603386, 0.07794666290283203, 0.017341649159789085, -0.11023292690515518, -0.08056334406137466, 0.10678130388259888, 0.2579883933067322, 0.012368091382086277, -0.07445521652698517, 0.09399671107530594, 0.17977188527584076, 0.01747816987335682, 0.19113604724407196, 0.033068783581256866, -0.00865884404629469, 0.20212583243846893, 0.04438314214348793, -0.12229125946760178, 2.9451462978613563e-05, -0.07075505703687668, -0.14367133378982544, 0.11251257359981537, 0.09770439565181732, 0.03514661267399788, 0.06725404411554337, -0.10919705033302307, -0.1350586861371994, 0.031368836760520935, -0.123702771961689, 0.030567172914743423, -0.02089872770011425, 0.04581379517912865, -0.12283675372600555, -0.13691148161888123, 0.06548470258712769, -0.1241316869854927, 0.017909228801727295, -0.043306563049554825, -0.05899030715227127, -0.02244030125439167, 0.09993846714496613, 0.09658708423376083, -0.1832471638917923, 0.0776156410574913, 0.09421255439519882, 0.08149632066488266, 0.09159102290868759, 0.09499824792146683, 0.0012196401366963983, -0.06338303536176682, -0.16758191585540771, 0.006822051014751196, 0.018649829551577568, 0.08524847775697708, -0.003018696326762438, -0.0035624925512820482, -0.0067433384247124195, 0.15651030838489532, -0.10399061441421509, -0.1363075226545334, -0.12404783815145493, 0.06796315312385559, -0.005001827608793974, -0.06850588321685791, -0.050618112087249756, 0.002498188056051731, -0.13179351389408112, 0.09119944274425507, 0.0009168944670818746, 0.08468321710824966, -0.14055907726287842, 0.09019457548856735, 0.0064667160622775555, -0.03340102359652519, -0.06777894496917725, 0.12470339983701706, -0.14350539445877075, 0.13716238737106323, 0.037957821041345596, -0.13604505360126495, -0.06281057745218277, 0.09191538393497467, -0.07047013938426971, -0.026791993528604507, -0.014508744701743126, -0.13320615887641907, 0.08382817357778549, -0.104911670088768, 0.08675489574670792, -0.15546473860740662, 0.12410354614257812, -0.10058654844760895, 0.14948023855686188, -0.11768785864114761, -0.1407778412103653, -0.09250356256961823, -0.1370847523212433, 0.12455160170793533, 0.07783075422048569, 0.11312651634216309, -0.004986117593944073, -0.08338981121778488, -0.1223207488656044, 0.013928725384175777, 0.04756619408726692, 0.1489485204219818, 0.14232279360294342, 0.017113186419010162, 0.02531484328210354, -0.1598559021949768, 0.05514857918024063, 0.048254940658807755, -0.1510203629732132, -0.022580282762646675, -0.16371390223503113, 0.07993943989276886, -0.14105390012264252, 0.007535749580711126, 0.08562575280666351, 0.16127163171768188, 0.025686968117952347, -0.06787145882844925, -0.10078176856040955, 0.05254429951310158, -0.06140248104929924, 0.0444912351667881, 0.016760118305683136, 0.12267942726612091, 0.05692707747220993, 0.257577508687973, -0.09023576229810715, -0.00039151491364464164, -0.39285704493522644, 0.004623463377356529, -0.14332391321659088, 0.03275502473115921, 0.11547920107841492, 0.014981633983552456, 0.11789090931415558, -0.061799466609954834, -0.026076052337884903, -0.0021803167182952166, -0.09766540676355362, -0.032093197107315063, -0.03841644152998924, -0.012551055289804935, -0.07224659621715546, 0.08530177175998688, 0.09614691138267517, -0.061182714998722076, -0.06292808055877686, -0.08427374064922333, -0.16435573995113373, -0.04374729469418526, 0.1659422069787979, 0.3982561528682709, 0.17157681286334991, 0.20252743363380432, 0.14150689542293549, 0.13794749975204468, -0.043900080025196075, 0.11457383632659912, -0.1284772753715515, -0.04987078905105591, -0.41736847162246704, -0.14346730709075928, 0.07911257445812225, 0.0023079272359609604, -0.12492496520280838, 0.01166357472538948, 0.09011337906122208, -0.030009450390934944, -0.1260337084531784, -0.0599634051322937, 0.05841111019253731, -0.05332088842988014, -0.024436121806502342, 0.07148914784193039, -0.3122757077217102, 0.29006874561309814, -0.003651808714494109, 0.11883988976478577, -0.31487125158309937, -0.04167136549949646, -0.0464315190911293], [-0.06724649667739868, -0.07542777061462402, 0.04401616007089615, -0.08443255722522736, -0.11693786829710007, -0.09805874526500702, -0.13864822685718536, -0.09081953763961792, 0.017987221479415894, -0.08395586162805557, -0.121893011033535, 0.14887844026088715, -0.02380109764635563, 0.08671370148658752, 0.026130905374884605, -0.15439380705356598, 0.042761292308568954, -0.12616507709026337, -0.09837894141674042, -0.09570858627557755, 0.08933859318494797, -0.018796922639012337, 0.1179487556219101, -0.07028807699680328, -0.04551628977060318, -0.07155107706785202, -0.107072614133358, -0.13881057500839233, 0.011864193715155125, -0.08062291145324707, -0.08135081827640533, -0.03603516146540642, 0.1385822892189026, -0.007073511369526386, -0.0775439590215683, 0.08082346618175507, 0.06699737906455994, 0.02937234565615654, -0.2042980194091797, 0.22255542874336243, 0.11640872806310654, 0.14549590647220612, 0.14093467593193054, 0.24644598364830017, 0.040549136698246, -0.104282446205616, 0.0948389321565628, -0.09822376817464828, 0.1281873732805252, -0.06755552440881729, -0.0585714653134346, 0.0126157496124506, 0.07619169354438782, 0.09347784519195557, -0.1518976241350174, 0.04179034009575844, 0.05136234685778618, 0.19618423283100128, 0.10527937859296799, 0.1511688381433487, 0.12847046554088593, 0.11922682821750641, -0.14569205045700073, 0.09192974865436554, 0.051047153770923615, 0.12789224088191986, 0.044209741055965424, -0.020979885011911392, -0.03167436644434929, -0.024953724816441536, -0.10436556488275528, 0.01880146935582161, 0.04556678608059883, 0.05369832366704941, -0.009462196379899979, 0.04612761735916138, 0.12879566848278046, -0.19873416423797607, 0.03703881800174713, -0.21472017467021942, -0.008241971023380756, 0.13663744926452637, -0.028959503397345543, 0.03879258781671524, 0.11925593763589859, 0.13322365283966064, -0.15647165477275848, 0.12464096397161484, -0.03621087595820427, 0.021685589104890823, 0.09614032506942749, 0.009554236195981503, 0.11833813786506653, -0.11252661794424057, -0.10384976118803024, 0.06188486889004707, 0.09513768553733826, -0.13337628543376923, -0.13325117528438568, 0.0825086161494255, 0.05655256658792496, -0.012558737769722939, 0.10927028954029083, 0.045451488345861435, -0.012857313267886639, -0.053033094853162766, 0.11847507208585739, -0.04119464382529259, -0.17447571456432343, 0.046860381960868835, -0.11733542382717133, 0.13850246369838715, -0.07401663810014725, 0.025028973817825317, -0.005889232736080885, -0.22193220257759094, 0.040118154138326645, -0.13775210082530975, 0.10191228240728378, -0.020403655245900154, 0.01835901290178299, -0.12921541929244995, 0.05248848721385002, 0.045041773468256, -0.1580767184495926, -0.11835861206054688, -0.07753116637468338, 0.04112476482987404, -0.02994830161333084, -0.03418419882655144, -0.08944191783666611, 0.03972068428993225, -0.09268269687891006, -0.08389850705862045, -0.14726200699806213, -0.11103281378746033, 0.03171370550990105, -0.0746651366353035, 0.09656167775392532, 0.0012988087255507708, 0.00146852049510926, 0.04261622205376625, 0.01989581249654293, -0.03843396529555321, -0.14005248248577118, 0.10414431244134903, -0.08364937454462051, -0.13257913291454315, -0.06871483474969864, -0.15983836352825165, 0.1730661690235138, 0.1615619659423828, -0.20432882010936737, -0.11501284688711166, 0.242453470826149, 0.2699977159500122, 0.14473837614059448, 0.08003253489732742, -0.06504473090171814, 0.13404719531536102, -0.0422518327832222, 0.11068760603666306, -0.007016110699623823, 0.11822418868541718, 0.05550260841846466, 0.12206681072711945, -0.03930407389998436, -0.10885147005319595, -0.09722363203763962, 0.031045816838741302, -0.012732609175145626, -0.07621622085571289, 0.27063101530075073, -0.018093355000019073, 0.01871395856142044, -0.02383160963654518, 0.03020504117012024, 0.2574882209300995, 0.04608415067195892, 0.2955900728702545, -0.3127504885196686, -0.10265807062387466, -0.006359666120260954, 0.13604405522346497, -0.1260598748922348, -0.08286543935537338, 0.14510391652584076, 0.015256170183420181, 0.09031809866428375, -0.15073195099830627, 0.02250496856868267, -0.11656048893928528, 0.027776097878813744, -0.11671750992536545, -0.04978383705019951, 0.04596446081995964, 0.15388154983520508, -0.1149601861834526, 0.1272600293159485, 0.145865336060524, 0.20085984468460083, -0.5046799778938293, 0.1312485933303833, 0.10057400166988373, 0.22919687628746033, 0.17389334738254547, 0.10333670675754547, 0.028840288519859314], [0.09006839990615845, 0.05309182032942772, 0.021826814860105515, -0.01888563297688961, 0.14040496945381165, 0.142618790268898, 0.09104950726032257, -0.15037856996059418, -0.20899789035320282, -0.04327434301376343, -0.09407612681388855, -0.08956450968980789, -0.05191785842180252, -0.13196492195129395, 0.06371994316577911, 0.06261397898197174, -0.1540742665529251, -0.03280026093125343, -0.11345085501670837, 0.06551871448755264, -0.11928875744342804, -0.0615944042801857, -0.0548117458820343, -0.05208657681941986, 0.11052997410297394, -0.008999958634376526, 0.026160091161727905, 0.024886637926101685, 0.17193445563316345, 0.2133585810661316, -0.047821544110774994, -0.11547800153493881, -0.1305103600025177, -0.06350724399089813, 0.2563510239124298, -0.08266892284154892, -0.0813833549618721, -0.0778365433216095, -0.025207463651895523, -0.15663021802902222, 0.03991146385669708, -0.09147348254919052, 0.07786330580711365, -0.2771355211734772, 0.03661078214645386, 0.051308196038007736, -0.10576508939266205, 0.035626694560050964, -0.08275588601827621, 0.05051955580711365, -0.0017422925448045135, -0.11525353044271469, 0.06274490058422089, -0.12457310408353806, 0.15053486824035645, 0.09314070641994476, 0.05850132927298546, 0.02776939980685711, -0.01633317954838276, 0.13130788505077362, -0.12625569105148315, -0.09151920676231384, -0.05000663921236992, 0.026576651260256767, 0.08042825758457184, 0.06806851178407669, -0.05937261879444122, -0.036714646965265274, 0.052827827632427216, -0.09589562565088272, -0.12001339346170425, 0.12555475533008575, -0.020454304292798042, 0.0456334687769413, 0.11519096791744232, -0.10843411087989807, 0.09097982943058014, 0.09242666512727737, 0.11680352687835693, 0.09759080410003662, 0.10514600574970245, 0.1008693277835846, -0.010401992127299309, 0.04234647378325462, 0.07394804060459137, -0.112381711602211, -0.04213327169418335, -0.07063091546297073, -0.03323601558804512, 0.05492255091667175, 0.043218206614255905, -0.12189082056283951, 0.14526918530464172, 0.1543533354997635, 0.042433008551597595, -0.05493064969778061, 0.0522686243057251, -0.12035521864891052, -0.12659363448619843, -0.1476287841796875, 0.15670984983444214, 0.1032327339053154, -0.0707356259226799, 0.007885674014687538, -0.040774933993816376, -0.00692172022536397, 0.02185460738837719, 0.15321609377861023, 0.12080863863229752, -0.06037762016057968, 0.016198577359318733, 0.15302570164203644, -0.0699625164270401, -0.1387288123369217, -0.15679705142974854, 0.07184915989637375, 0.10016465187072754, 0.04127436876296997, 0.006799123715609312, 0.15710663795471191, -0.050498396158218384, 0.062372785061597824, -0.1574125736951828, 0.12534458935260773, 0.10598646849393845, 0.05520264059305191, -0.14800602197647095, -0.10352374613285065, 0.06587735563516617, 0.166451558470726, -0.1514943689107895, -0.1307065635919571, 0.09612751007080078, 0.09050698578357697, 0.1395990550518036, -0.14111097157001495, 0.14736820757389069, 0.09637310355901718, -0.077534981071949, -0.030452433973550797, 0.015879012644290924, -0.11058985441923141, -0.01544913649559021, 0.0944473147392273, -0.03853125497698784, -0.07915264368057251, -0.05735285207629204, -0.05720392242074013, -0.09147973358631134, 0.028987770900130272, 0.12458135932683945, 0.09017883241176605, 0.23289398849010468, 0.0748654305934906, -0.28418639302253723, -0.22251814603805542, 0.12314565479755402, -0.062254033982753754, 0.026301860809326172, 0.06805595755577087, 0.0585860013961792, -0.10195823758840561, -0.13465546071529388, -0.04948265850543976, 0.04162222146987915, -0.059123244136571884, 0.10865715891122818, 0.15681461989879608, 0.01633344776928425, 0.13255342841148376, -0.14129970967769623, 0.1494157463312149, -0.05782509967684746, -0.06663546711206436, 0.05958223342895508, 0.01949988305568695, 0.198136568069458, -0.00895632617175579, 0.13395962119102478, 0.012497966177761555, 0.33419620990753174, -0.01440115924924612, -0.10205931216478348, -0.04315005987882614, -0.08935513347387314, -0.1026199534535408, -0.09295234084129333, -0.22064173221588135, -0.1181187629699707, 0.13160890340805054, -0.12436198443174362, -0.00791865773499012, -0.029877865687012672, -0.14607301354408264, 0.06082222983241081, -0.13687415421009064, 0.045320235192775726, 0.08802016079425812, -0.0977587178349495, -0.05290425196290016, -0.1683821827173233, 0.08701308071613312, 0.5704301595687866, -0.15480849146842957, 0.17514553666114807, -0.27118954062461853, 0.20970644056797028, 0.09644331783056259], [0.20202580094337463, -0.030923018231987953, 0.11260109394788742, -0.20108748972415924, 0.06169929355382919, 0.014354866929352283, -0.04874294996261597, -0.12272242456674576, 0.036158330738544464, -0.03730330616235733, 0.13491995632648468, 0.2039690911769867, -0.12470623850822449, 0.02944302186369896, -0.14393126964569092, -0.04158082976937294, 0.10711758583784103, -0.06908877938985825, -0.0433373749256134, 0.11600904911756516, 0.08194411545991898, 0.03184732794761658, 0.03807449713349342, 0.1393888145685196, -0.03134585916996002, -0.06885453313589096, 0.0815105214715004, 0.11809059977531433, 0.08810082077980042, 0.07365081459283829, 0.046674713492393494, -0.033891938626766205, 0.11541317403316498, -0.0591924786567688, 0.21530331671237946, -0.055727772414684296, -0.05992326885461807, -0.02276083268225193, -0.030672332271933556, -0.06898455321788788, -0.11892281472682953, -0.0390474908053875, -0.0086951470002532, -0.20750248432159424, 0.12931369245052338, -0.12651072442531586, -0.016270343214273453, 0.037231456488370895, -0.12135642021894455, 0.13711942732334137, 0.025084620341658592, -0.15755203366279602, 0.014082001522183418, -0.09284834563732147, 0.1448121964931488, 0.041786666959524155, -0.1120419129729271, -0.10067594796419144, 0.07488095760345459, 0.12321890890598297, -0.08560869842767715, -0.09298037737607956, -0.13122141361236572, -0.002442275872454047, 0.018160395324230194, 0.10006395727396011, 0.13680124282836914, -0.1878938376903534, 0.0035633565858006477, 0.06703188270330429, 0.16872532665729523, -0.03074299916625023, 0.15776784718036652, -0.0684671476483345, -0.023455914109945297, 0.008917445316910744, -0.09726116806268692, 0.15521332621574402, -0.11561491340398788, -0.024267401546239853, -0.16261623799800873, -0.012121283449232578, 0.14032475650310516, -0.1695847362279892, -0.15589489042758942, -0.157208651304245, 0.07423949241638184, -0.08269806206226349, 0.14354825019836426, -0.10658934712409973, -0.1043962761759758, 0.028220634907484055, 0.0920514166355133, 0.03274287283420563, 0.0796811580657959, 0.15409353375434875, 0.08404527604579926, 0.1055503711104393, 0.0012747031869366765, -0.0014100739499554038, 0.05848109722137451, -0.1164713129401207, -0.07914925366640091, 0.06169557943940163, 0.12973278760910034, -0.1731594353914261, -0.19069558382034302, 0.07243864983320236, -0.10775230824947357, 0.10251975059509277, 0.10248865932226181, 0.11024830490350723, 0.05897681787610054, -0.09028981626033783, 0.09927251189947128, 0.09471796452999115, -0.117836132645607, -0.011914706788957119, -0.036258991807699203, 0.14194341003894806, 0.1331789493560791, 0.002985613653436303, -0.11697045713663101, -0.008372013457119465, -0.059253543615341187, 0.016973203048110008, 0.11759715527296066, 0.0562942773103714, -0.14335897564888, -0.07640521973371506, -0.13037438690662384, -0.05512681603431702, -0.06624496728181839, -0.07248678058385849, -0.15163704752922058, 0.12120836973190308, 0.025291357189416885, 0.015916116535663605, 0.20227855443954468, -0.0783039852976799, -0.13639725744724274, -0.002917200792580843, 0.04641754925251007, -0.0008504767902195454, -0.12060949206352234, 0.08791276812553406, -0.12094434350728989, -0.0407523438334465, 0.04097149893641472, -0.22270603477954865, 0.2070648968219757, -0.028564704582095146, 0.4968903660774231, 0.11773934215307236, -0.5553991198539734, -0.11694150418043137, -0.10859182476997375, -0.15540684759616852, -0.08402930200099945, -0.042454417794942856, -0.004836589097976685, 0.043710969388484955, -0.03974497690796852, -0.12507109344005585, -0.04432521015405655, 0.054998867213726044, 0.1325041800737381, 0.06022653728723526, 0.05273829400539398, -0.061356935650110245, 0.04271223023533821, 0.1479048728942871, -0.04965493455529213, 0.08835819363594055, -0.1763460785150528, 0.08145361393690109, 0.08229012042284012, 0.2037067860364914, 0.2907468378543854, 0.38323265314102173, 0.36400753259658813, 0.0525248683989048, 0.08459840714931488, 0.08415520936250687, -0.016014782711863518, -0.013556568883359432, -0.05540633946657181, -0.09003946930170059, 0.07078087329864502, -0.14745715260505676, 0.147563636302948, 0.00832692813128233, 0.037573933601379395, -0.1353418529033661, 0.01489869225770235, -0.1367635428905487, -0.07508139312267303, -0.059968817979097366, -0.08064283430576324, -0.1132378876209259, 0.05329250171780586, -1.0170689821243286, 0.6531367301940918, -0.9474548697471619, 0.6340503096580505, -0.17401742935180664, 0.4204801917076111, 0.0655960962176323], [-0.03780350089073181, 0.1807941198348999, -0.0616588369011879, 0.0592912957072258, -0.015084826387465, -0.0162022914737463, -0.028125867247581482, 0.001530991867184639, 0.061730533838272095, 0.03250805661082268, 0.1558810919523239, -0.11265148967504501, -0.028550656512379646, 0.08769960701465607, 0.0037775475066155195, -0.06812949478626251, -0.018942590802907944, 0.08062334358692169, 0.1155598908662796, 0.05326369032263756, 0.12771184742450714, 0.057902030646800995, -0.0925387293100357, -0.028555048629641533, -0.0635739341378212, -0.0335991233587265, 0.11998124420642853, -0.14362607896327972, 0.0008251673425547779, 0.023724451661109924, 0.14170561730861664, -0.14313435554504395, 0.09432370215654373, 0.026827722787857056, -0.28644707798957825, -0.15131402015686035, 0.13172470033168793, 0.10025879740715027, -0.05958445370197296, 0.04358076676726341, 0.04593481868505478, -0.1300879418849945, -0.06335611641407013, 0.003990063909441233, 0.06680522859096527, -0.08213766664266586, -0.03344667702913284, -0.14380089938640594, 0.13861119747161865, -0.02142658270895481, 0.10795566439628601, 0.0049835811369121075, 0.03266345337033272, -0.01682935282588005, 0.09982448816299438, -0.008876473642885685, 0.06953216344118118, 0.021774455904960632, 0.0038443233352154493, -0.1375017911195755, -0.03408484533429146, 0.10754985362291336, -0.1317090392112732, 0.14899642765522003, -0.058738723397254944, -0.08642039448022842, 0.06269269436597824, 0.12172304093837738, -0.11979623883962631, -0.14273443818092346, -0.09604721516370773, -0.1520327925682068, -0.0553613156080246, 0.09166765958070755, -0.09323552250862122, 0.0874188020825386, -0.17372609674930573, -0.010103347711265087, 0.08960847556591034, -0.06655676662921906, -0.0388827919960022, -0.1275937259197235, -0.05672938749194145, 0.022707592695951462, -0.14175553619861603, 0.015373512171208858, 0.018520010635256767, -0.12824571132659912, 0.07008933275938034, 0.1077083945274353, -0.0887606143951416, -0.0204186849296093, -0.1170819029211998, -0.020356524735689163, -0.008423080667853355, 0.1444610208272934, -0.09587851911783218, 0.03491239994764328, 0.08550581336021423, 0.08038299530744553, 0.08084584027528763, 0.012880869209766388, -0.04659343138337135, -0.05601942911744118, 0.10613320767879486, -0.024456465616822243, 0.023557862266898155, -0.10045640170574188, -0.03360191732645035, 0.10563971102237701, -0.053919389843940735, -0.11895295977592468, -0.026122651994228363, -0.0020175387617200613, 0.15105783939361572, -0.21652691066265106, 0.0973556712269783, -0.002491071354597807, 0.005444205366075039, -0.06120971590280533, 0.06539466232061386, 0.15854816138744354, -0.03157510980963707, 0.0139559805393219, 0.13954629004001617, 0.046953506767749786, -0.026352548971772194, -0.14714571833610535, 0.08948083221912384, -0.08763714134693146, 0.12436641752719879, 0.07635150849819183, -0.09860320389270782, 0.04027203842997551, 0.05258085951209068, -0.13699498772621155, 0.0006579388864338398, -0.06485150754451752, 0.07580354809761047, 0.06729712337255478, -0.0059639704413712025, 0.020199161022901535, -0.028027357533574104, -0.006907358765602112, -0.1645490825176239, -0.16423696279525757, 0.11462128907442093, -0.0059774345718324184, -0.020762810483574867, 0.10118654370307922, -0.022932661697268486, -0.004877583589404821, -0.0695393830537796, -0.12325535714626312, 0.25047415494918823, 0.21592187881469727, -0.01893509551882744, -0.1137123629450798, -0.044338345527648926, -0.06550874561071396, -0.1313912719488144, -0.027749599888920784, -0.1164899617433548, 0.06116243451833725, 0.0005317162722349167, 0.11638779193162918, 0.07583308964967728, 0.00718630850315094, -0.013380125164985657, -0.0437459833920002, -0.11662207543849945, -0.12372555583715439, 0.31581616401672363, -0.021120954304933548, 0.12548834085464478, -0.16975878179073334, 0.09185296297073364, 0.29165321588516235, 0.06841319054365158, 0.13509462773799896, -0.14251546561717987, 0.011467937380075455, 0.026457248255610466, 0.22783656418323517, 0.10157234221696854, 0.031155066564679146, -0.0984906479716301, 0.16530348360538483, -0.14384381473064423, 0.08026352524757385, 0.08086198568344116, 0.08362281322479248, 0.07174694538116455, 0.14470374584197998, 0.012118443846702576, -0.06564587354660034, -0.13818387687206268, 0.05638391897082329, 0.07379598170518875, 0.060915201902389526, 0.21774256229400635, -0.48740601539611816, -0.008576975204050541, 0.20976419746875763, 0.06365705281496048, 0.2014862596988678, 0.1057627722620964, 0.08230124413967133], [0.18549761176109314, 0.12308114767074585, 0.02168992906808853, -0.16092942655086517, 0.06992588937282562, 0.09214764833450317, 0.043738339096307755, 0.002564313355833292, -0.08940202742815018, -0.08929819613695145, -0.12569035589694977, -0.09965896606445312, 0.055774446576833725, -0.07745647430419922, -0.013787941075861454, -0.09270993620157242, -0.04053698480129242, 0.09076513350009918, 0.08559923619031906, -0.1510438770055771, -0.1197345033288002, -0.09598580002784729, -0.05993024259805679, -0.12508271634578705, -0.13637757301330566, -0.0842670351266861, -0.026729701086878777, 0.15178772807121277, 0.02012054994702339, 0.19741076231002808, -0.18617059290409088, 0.0968690738081932, 0.017500974237918854, 0.008782890625298023, 0.14563675224781036, 0.11854643374681473, 0.08594364672899246, -0.06836846470832825, 0.19869250059127808, 0.08238659054040909, -0.12984654307365417, -0.08262721449136734, -0.10856562852859497, -0.17739644646644592, -0.07986108958721161, -0.1258319467306137, 0.05474977567791939, 0.0014927121810615063, 0.09100385010242462, 0.03819699585437775, -0.06966572999954224, -0.13309676945209503, -0.05183427035808563, -0.12091843038797379, -0.07408171147108078, -0.12976916134357452, -0.022631194442510605, 0.05604067072272301, -0.06130353733897209, -0.009831485338509083, -0.012074935249984264, -0.09470295161008835, -0.11435355246067047, -0.00010043024667538702, -0.11916489154100418, 0.0459599569439888, -0.04630128666758537, -0.013274755328893661, -0.10328849405050278, 0.09665250778198242, 0.02783738449215889, -0.02515510283410549, 0.18049585819244385, 0.10069145262241364, 0.06802260130643845, 0.06250655651092529, 0.10309092700481415, -3.989480683230795e-05, -0.016041619703173637, 0.18775716423988342, -0.06045983359217644, -0.022961996495723724, 0.15744531154632568, 0.1705542653799057, -0.052411679178476334, -0.13736779987812042, -0.1101977601647377, 0.17006587982177734, 0.11766699701547623, 0.012023692019283772, 0.04588371515274048, -0.12231578677892685, -0.05584394931793213, 0.0653364434838295, -0.009962430223822594, 0.12128858268260956, 0.139309361577034, 0.03271326795220375, 0.00280909426510334, 0.15102975070476532, 0.10695796459913254, -0.07716728001832962, -0.005214550998061895, -0.009498098865151405, 0.03401266410946846, 0.14364613592624664, -0.1861206293106079, -0.04946510121226311, 0.1170075461268425, -0.14512643218040466, 0.0832434818148613, -0.15532159805297852, 0.06842684000730515, 0.09221574664115906, 0.059137552976608276, -0.027340292930603027, -0.07751890271902084, -0.11641277372837067, -0.0860709547996521, -0.12095761299133301, 0.10358764976263046, -0.15745186805725098, -0.10955603420734406, 0.03678885102272034, -0.1256033033132553, -0.1356651782989502, -0.14938296377658844, -0.07535660266876221, 0.08761946111917496, -0.09497930854558945, 0.04622162505984306, -0.023892845958471298, 0.06534914672374725, -0.05756009742617607, -0.09506215155124664, -0.028383828699588776, 0.01732928864657879, -0.020441949367523193, -0.0722542479634285, 0.1721344292163849, 0.14023777842521667, -0.006593448109924793, 0.021667325869202614, -0.12050232291221619, -0.09583444893360138, -0.017745647579431534, -0.07088205218315125, 0.12885726988315582, 0.14530813694000244, -0.07041297852993011, -0.02342160977423191, 0.12707827985286713, 0.178885817527771, -0.022203829139471054, -0.19115859270095825, -0.21852242946624756, 0.023398658260703087, -0.031339649111032486, -0.1323689967393875, -0.02448648400604725, -0.09513136744499207, -0.06148939207196236, 0.07980237156152725, 0.10992739349603653, -0.08638840913772583, -0.12146002799272537, -0.03000793606042862, -0.11324538290500641, -0.09091503918170929, 0.07799588143825531, -0.10081909596920013, 0.09501776099205017, -0.014875884167850018, -0.09246041625738144, -0.07716698199510574, -0.11898016184568405, 0.06178396940231323, -0.07330162078142166, 0.044144853949546814, -0.06566254794597626, 0.3172109127044678, -0.08483312278985977, 0.12755195796489716, -0.2143459916114807, 0.11135367304086685, 0.03283444419503212, 0.06571715325117111, -0.20394423604011536, 0.053591251373291016, 0.058530278503894806, -0.0027350489981472492, -0.014639762230217457, -0.027246804907917976, 0.03929059952497482, 0.0016062782378867269, 0.13912802934646606, 0.007815539836883545, 0.04836626723408699, 0.13024069368839264, -0.08325228095054626, -0.17580407857894897, -0.22168129682540894, 0.6633652448654175, -0.39330801367759705, 0.09414389729499817, -0.07812684029340744, 0.11492472141981125, 0.0019637462683022022], [0.14781172573566437, 0.03683460131287575, -0.10828334093093872, -0.0615190826356411, 0.014715275727212429, 0.060476746410131454, -0.1328122466802597, 0.03999345377087593, -0.08113345503807068, 0.06329448521137238, 0.07415661215782166, -0.09362133592367172, 0.02389214001595974, 0.08044201135635376, 0.03158760070800781, 0.041071221232414246, -0.102643683552742, 0.04144354537129402, -0.15614567697048187, 0.04047740250825882, 0.004784651566296816, -0.04553109034895897, -0.016070542857050896, -0.004116390831768513, -0.04607904702425003, 0.12170585989952087, 0.07405100762844086, 0.04791124537587166, -0.010971332900226116, 0.16149260103702545, 0.012111782096326351, -0.006405350752174854, 0.09525474160909653, 0.09239361435174942, 0.0726262629032135, -0.14658482372760773, 0.10722756385803223, 0.01574377529323101, -0.035718176513910294, -0.1448182314634323, -0.021401144564151764, 0.0186258926987648, 0.09576279670000076, -0.08113723248243332, 0.07775156199932098, 0.11830266565084457, -0.1393122673034668, 0.09870805591344833, 0.0278639979660511, 0.03799912706017494, -0.12176578491926193, -0.11288874596357346, -0.14271020889282227, -0.1340680867433548, 0.009369767270982265, 0.07891859859228134, -0.1667037308216095, -0.12261956930160522, 0.1510045826435089, 0.06857345253229141, -0.11840114742517471, -0.12059228122234344, -0.11122872680425644, 0.1495966613292694, -0.12220925092697144, 0.06241117790341377, -0.007401777431368828, 0.03969546779990196, -0.08137667179107666, -0.05649973452091217, -0.06608062982559204, -0.11349929124116898, -0.09042178839445114, -0.17800886929035187, -0.058301616460084915, -0.007481968495994806, -0.09520051628351212, 0.13364264369010925, -0.022004732862114906, 0.17187871038913727, 0.017385905608534813, -0.00921826995909214, -0.007467920426279306, 0.01562993973493576, 0.13333620131015778, -0.14373056590557098, 0.09425490349531174, 0.05545880272984505, 0.0821809396147728, -0.056676462292671204, -0.13263238966464996, 0.0035632862709462643, 0.01052026730030775, -0.019083639606833458, 0.12200351804494858, -0.06377127766609192, -0.05502680316567421, -0.020981743931770325, -0.08856762945652008, 0.06721895188093185, 0.03626581281423569, -0.0974491760134697, -0.08716610074043274, 0.04789284989237785, -0.1599138230085373, 0.1390412598848343, 0.02519986592233181, -0.04041897878050804, -0.15279556810855865, 0.11202098429203033, -0.05257830023765564, 0.12132278829813004, -0.13668295741081238, 0.08713794499635696, 0.056706443428993225, 0.10538199543952942, 0.08938624709844589, -0.02011232078075409, 0.10771403461694717, 0.12114972621202469, 0.1213049367070198, -0.0633208379149437, 0.003911025356501341, 0.10070079565048218, -0.10067641735076904, -0.06560669094324112, 0.018839813768863678, 0.11591807752847672, 0.10917261987924576, -0.04070359840989113, -0.17994537949562073, -0.24173030257225037, -0.12781372666358948, 0.10435561835765839, 0.15500421822071075, 0.012027136981487274, -0.05850435793399811, -0.05027605593204498, 0.016784964129328728, 0.060153666883707047, -0.07432667165994644, 0.0722668319940567, 0.04230376332998276, 0.09654459357261658, -0.0046233320608735085, -0.013992464169859886, 0.029915453866124153, -0.09221907705068588, -0.1301833540201187, -0.07092016935348511, 0.02984522096812725, -0.03380703926086426, 0.22899611294269562, -0.04117530211806297, -0.15931296348571777, -0.07057640701532364, 0.009456455707550049, -0.04819417744874954, -0.0853395164012909, 0.09992634505033493, 0.11628066003322601, -0.1321115791797638, 0.1294012814760208, 0.04918625205755234, 0.05061805620789528, 0.1187310740351677, -0.1465011090040207, 0.022487251088023186, -0.0026834900490939617, 0.061762820929288864, -0.07548762112855911, -0.11512576788663864, -0.10745503753423691, -0.14530426263809204, -0.026343554258346558, 0.04609614238142967, 0.16425451636314392, 0.26639410853385925, 0.09159684926271439, 0.3085590600967407, 0.18472185730934143, 0.11302211135625839, 0.16623415052890778, 0.22030803561210632, 0.13088946044445038, 0.03496108204126358, 0.024183133617043495, -0.6066749095916748, -0.07117343693971634, -0.1362902820110321, -0.11511721462011337, 0.11798210442066193, -0.10043209791183472, -0.02881462313234806, -0.049567002803087234, -0.12332936376333237, -0.01232619397342205, -0.07561061531305313, -0.03530522435903549, -0.07085469365119934, 0.17184269428253174, -0.7671797275543213, 0.6520150303840637, -0.5141865611076355, 0.29288479685783386, -0.05704735964536667, 0.06995158642530441, -0.026782093569636345], [0.22882424294948578, -0.15224729478359222, -0.13064680993556976, -0.017178203910589218, 0.018332477658987045, -0.12958168983459473, -0.01647334359586239, 0.058830492198467255, -0.186540424823761, -0.017338281497359276, -0.22273829579353333, -0.09244167804718018, 0.02755328267812729, 0.03232142701745033, 0.15568728744983673, -0.03355662524700165, 0.08880558609962463, 0.08714385330677032, 0.0798824355006218, -0.14535747468471527, 0.1420375555753708, 0.10868290066719055, 0.14927458763122559, 0.01524688582867384, 0.11156604439020157, 0.02970747835934162, -0.09925533086061478, -0.08474715054035187, -0.12665432691574097, 0.04993226006627083, 0.1367766559123993, 0.09873052686452866, 0.15390166640281677, -0.0586371086537838, -0.013835849240422249, 0.2777043282985687, 0.06620663404464722, 0.04888015240430832, 0.05900399759411812, -0.09186732769012451, -0.057422783225774765, -0.12592019140720367, -0.04296919330954552, 0.08314394950866699, 0.15587584674358368, 0.12240815162658691, -0.004877700004726648, 0.02687506563961506, -0.0951022207736969, 0.08116263151168823, 0.15783679485321045, 0.1550452560186386, -0.10140388458967209, -0.14501135051250458, 0.04650427773594856, -0.09214268624782562, -0.3827803134918213, -0.0016661566914990544, -0.012064691632986069, -0.04819422587752342, 0.03255568444728851, -0.029602976515889168, 0.1568753868341446, -0.007812624797224998, 0.1141095831990242, -0.06115934997797012, -0.11607837677001953, 0.03620635345578194, -0.04219367727637291, 0.09322082251310349, -0.09820055961608887, -0.09990710020065308, 0.048898812383413315, -0.24531607329845428, 0.024034522473812103, 0.0746639147400856, 0.05656418949365616, -0.010413206182420254, 0.05498473718762398, 0.0025765590835362673, -0.11971478164196014, -0.07723286747932434, 0.03578002750873566, -0.008597616106271744, 0.11510297656059265, -0.062428925186395645, 0.13394415378570557, 0.008581390604376793, -0.013661769218742847, -0.03156647831201553, 0.025865349918603897, 0.10005998611450195, -0.1030469611287117, 0.10145411640405655, -0.14445404708385468, -0.14750458300113678, 0.07023530453443527, 0.10148103535175323, -0.12295236438512802, 0.05310666561126709, -0.059859149158000946, 0.18491174280643463, -0.17239992320537567, 0.15213286876678467, -0.039570875465869904, -0.09162595123052597, -0.1540464162826538, -0.08626314252614975, -0.22945815324783325, 0.0004607374721672386, -0.05376695469021797, -0.061282478272914886, 0.023262150585651398, 0.0743570327758789, 0.09971205145120621, -0.026599986478686333, -0.010864106938242912, -0.07555227726697922, 0.07028663903474808, 0.0744527280330658, -0.006681128870695829, -0.09349923580884933, 0.14824292063713074, 0.026095813140273094, -0.08764350414276123, -0.0017005002591758966, 0.08366960287094116, -0.01216061506420374, -0.015095400623977184, 0.06978107988834381, -0.01707492768764496, -0.19035041332244873, -0.09191495180130005, -0.1023673340678215, -0.21117699146270752, -0.07170181721448898, 0.0008089695475064218, -0.18388906121253967, -0.01039084605872631, -0.039405208081007004, 0.09477917104959488, -0.010591298341751099, 0.1265583038330078, -0.015628425404429436, 0.03239202871918678, 0.014479057863354683, 0.09661584347486496, -0.006754996255040169, 0.04509514197707176, 0.0173600222915411, -0.028229257091879845, -0.39634889364242554, -0.3516334593296051, -0.13810256123542786, 0.4403214454650879, 0.10714232176542282, -0.06286747753620148, -0.0809316337108612, 0.13043008744716644, -0.10445033013820648, -0.1255260705947876, 0.006199835799634457, -0.062239762395620346, -0.08545879274606705, 0.1515948623418808, -0.00621660565957427, -0.15580543875694275, -0.01899842731654644, -0.13781392574310303, 0.028397683054208755, -0.015124802477657795, 0.10534337908029556, -0.23877501487731934, -0.0075162239372730255, -0.14568819105625153, 0.17730547487735748, -0.14448530972003937, -0.23183554410934448, -0.28383293747901917, -0.4256742596626282, -0.13325278460979462, 0.07225780189037323, -0.03240993246436119, 0.021488545462489128, 0.047451455146074295, 0.101316437125206, -0.14084886014461517, -0.025047091767191887, 0.051310885697603226, 0.1483713537454605, 0.12366850674152374, 0.022852744907140732, 0.005024048499763012, 0.0520605705678463, 0.0076170265674591064, -0.08255790174007416, -0.12591136991977692, 0.13485729694366455, -0.1515158861875534, -0.10233663767576218, 0.04242272675037384, 0.9901502728462219, -0.660494863986969, 0.7519360184669495, -0.398140549659729, 0.08209951221942902, -0.3598419427871704, -0.14158757030963898], [0.005281614605337381, -0.05635678395628929, 0.06834530085325241, 0.07208633422851562, 0.09878578037023544, -0.1407720297574997, 0.17455820739269257, -0.07592872530221939, -0.013734687119722366, -0.14425897598266602, -0.08656548708677292, 0.13733886182308197, 0.09459098428487778, 0.15784898400306702, -0.038231782615184784, 0.05158834904432297, 0.10315511375665665, 0.05922836810350418, -0.0798024833202362, 0.062382664531469345, 0.037885066121816635, 0.08439138531684875, 0.09163239598274231, -0.04488217458128929, 0.01943895034492016, -0.04081302881240845, -0.10841439664363861, -0.06743813306093216, 0.04483477398753166, 0.25787553191185, 0.055574800819158554, -0.04614917188882828, 0.025575386360287666, 0.18987534940242767, 0.13275307416915894, 0.1361052542924881, -0.10501591116189957, -0.1313292533159256, -0.041016921401023865, -0.17788280546665192, 0.12163208425045013, 0.1481815129518509, 0.10133139044046402, -0.19966796040534973, -0.011607245542109013, -0.016834501177072525, 0.05596762150526047, 0.10474912822246552, -0.05707939714193344, 0.12512356042861938, 0.11470545828342438, -0.12249639630317688, -0.04683373123407364, -0.0010308012133464217, 0.011700710281729698, -0.03318574279546738, -0.24383853375911713, -0.1385084092617035, 0.15943263471126556, 0.06085329130291939, -0.12323445081710815, -0.1125880554318428, -0.01731701008975506, 0.08693663030862808, 0.08386653661727905, 0.09794504195451736, -0.033968485891819, -0.003239530138671398, 0.11178026348352432, -0.11523032188415527, -0.014863409101963043, -0.08826758712530136, 0.038271889090538025, 0.09231435507535934, 0.0599210150539875, 0.020854176953434944, -0.04229787737131119, -0.022422878071665764, -0.123566634953022, 0.20259621739387512, 0.006840740796178579, 0.1521616280078888, -0.02323192171752453, -0.09154820442199707, 0.05416321009397507, -0.0247272290289402, 0.03031570091843605, -0.12062862515449524, 0.15203428268432617, 0.004011228680610657, -0.022996066138148308, 0.01558625977486372, -0.09823671728372574, 0.142944797873497, -0.08193927258253098, -0.05977484956383705, 0.141310915350914, -0.13927073776721954, -0.15006951987743378, 0.048862285912036896, 0.1681685745716095, -0.1516578197479248, 0.001994396559894085, -0.055395979434251785, -0.050905339419841766, -0.07373334467411041, 0.022447362542152405, -0.024538956582546234, -0.03566165268421173, 0.13968154788017273, -0.024430343881249428, 0.1241159662604332, 0.007338183932006359, 0.09744686633348465, 0.09130199253559113, 0.0009027320775203407, -0.043755143880844116, -0.09246237576007843, 0.10544373095035553, -0.1024758368730545, -0.1474759727716446, -0.03847023472189903, 0.07582461088895798, 0.025130577385425568, 0.09441529214382172, -0.05275942012667656, 0.13086526095867157, -0.005370538681745529, 0.056816939264535904, -0.039113640785217285, 0.1123679056763649, -0.18399612605571747, 0.02640572562813759, -0.03653566166758537, 0.15847183763980865, 0.014393550343811512, 0.06914230436086655, -0.12908847630023956, -0.01899203285574913, -0.012244490906596184, 0.07458946853876114, -0.010452262125909328, 0.006100303027778864, -0.1208169013261795, -0.08467742055654526, 0.013586800545454025, 0.05289149656891823, 0.18143825232982635, -0.054463956505060196, -0.03313345089554787, 0.1406310796737671, 0.005720645654946566, -0.030543141067028046, 0.06569679081439972, -0.0830027386546135, -0.14364628493785858, -0.0726504772901535, 0.1458248645067215, 0.11282216012477875, -0.021697252988815308, 0.012111971154808998, 0.033264368772506714, 0.1212407723069191, -0.0462992899119854, 0.1273587942123413, -0.10563240200281143, 0.11084016412496567, 0.06060846149921417, 0.08072569966316223, -0.004276443272829056, 0.10258391499519348, 0.15537092089653015, -0.1374232918024063, -0.23836714029312134, -0.16507409512996674, 0.018644776195287704, -0.023868383839726448, -0.16112028062343597, -0.038824789226055145, -0.08025874197483063, 0.2582315504550934, -0.03721684589982033, 0.12273328751325607, -0.2768109142780304, 0.12590867280960083, -0.0422750748693943, -0.0998142659664154, -0.18591514229774475, -0.027877362444996834, -0.1284402459859848, 0.11867202073335648, -0.10538376867771149, -0.019730927422642708, -0.14301736652851105, 0.13749045133590698, -5.958432302577421e-05, -0.0675472691655159, -0.11745985597372055, -0.022357825189828873, 0.05926554277539253, -0.03617992624640465, 0.427751749753952, 0.19424490630626678, -0.17323631048202515, -0.2057008594274521, -0.12598533928394318, 0.07620447874069214, 0.09740280359983444], [-0.020694134756922722, -0.16774018108844757, -0.013028983026742935, -0.0002519715635571629, 0.003776127938181162, -0.05837707966566086, -0.03486967831850052, 0.12451791763305664, 0.07553761452436447, -0.00823160819709301, 0.12148237228393555, -0.13679751753807068, -0.14929139614105225, -0.032129690051078796, -0.04295264929533005, -0.17345808446407318, 0.053157731890678406, 0.015986882150173187, 0.0738985687494278, 0.0005866822320967913, -0.12120893597602844, -0.09885186702013016, -0.06191931664943695, -0.04421466961503029, 0.02990659698843956, 0.14507396519184113, -0.04922895133495331, 0.0014824155950918794, 0.20475324988365173, 0.20813535153865814, -0.19246643781661987, 0.028716905042529106, 0.06674095243215561, 0.051343657076358795, 0.08445198088884354, -0.11720338463783264, -0.05521520599722862, 0.0951806902885437, -0.07041050493717194, 0.02952619083225727, -0.01910695806145668, -0.07561969757080078, 0.05971375107765198, -0.11357226967811584, -0.12863266468048096, -0.037645138800144196, -0.0777258574962616, 0.14063088595867157, -0.059646859765052795, -0.06206801161170006, -0.13660545647144318, 0.109315425157547, -0.032768577337265015, 0.08667966723442078, 0.14179198443889618, -0.08950405567884445, -0.20403559505939484, -0.10787643492221832, -0.04462644085288048, 0.08631108701229095, -0.18171465396881104, -0.06666453182697296, 0.029144054278731346, 0.15152153372764587, 0.0709412470459938, -0.006340730469673872, 0.06234913691878319, -0.03801196068525314, 0.13744060695171356, -0.04320267587900162, -0.13377946615219116, -0.13235417008399963, -0.0072417594492435455, 0.0950050875544548, -0.08643884211778641, 0.08119802922010422, -0.1011241227388382, 0.07535785436630249, 0.04497840255498886, 0.06983695179224014, 0.07036148756742477, -0.023769034072756767, 0.09173106402158737, -0.016347838565707207, -0.04226326569914818, 0.1062193512916565, -0.12502214312553406, -0.07417263090610504, 0.14690427482128143, -0.0366470068693161, -0.07000446319580078, -0.06285206973552704, 0.15113559365272522, -0.09751754254102707, -0.10279283672571182, -0.09199652820825577, 0.06107400730252266, 0.1313612163066864, 0.00987365934997797, 0.12994083762168884, 0.007557110860943794, 0.05848993733525276, 0.06422857940196991, 0.11067521572113037, -0.022346289828419685, -0.008465917780995369, -0.21052686870098114, 0.025311779230833054, 0.053894177079200745, -0.072971411049366, -0.13003917038440704, 0.009633739478886127, -0.12395091354846954, -0.08634547889232635, 0.05973691865801811, 0.08135872334241867, 0.023670723661780357, 0.027756111696362495, 0.11869625002145767, -0.10146509855985641, 0.13853086531162262, 0.1111375167965889, -0.14355437457561493, -0.08874142169952393, -0.010301236063241959, 0.020631998777389526, -0.02966633066534996, -0.0780801847577095, 0.16951094567775726, 0.10027807205915451, 0.021982520818710327, -0.1233702003955841, 0.05678507313132286, 0.007653961889445782, -0.03739400580525398, -0.15651321411132812, -0.05091063305735588, 0.1292954683303833, -0.07309962064027786, 0.1277572512626648, -0.08494579046964645, -0.08166186511516571, -0.05164771154522896, 0.07774744182825089, -0.11224085092544556, -0.05573881044983864, -0.1175355613231659, 0.1491411179304123, -0.06449796259403229, 0.06967213749885559, 0.06338944286108017, 0.24939385056495667, 0.11710668355226517, 0.07774565368890762, -0.09330159425735474, -0.08693539351224899, 0.11389202624559402, -0.0636826902627945, 0.11227518320083618, 0.17662106454372406, 0.0044815815053880215, -0.1265357881784439, 0.007182106375694275, -0.04807122424244881, -0.09093548357486725, -0.10787393152713776, -0.012525048106908798, 0.08134422451257706, 0.08006326854228973, -0.15300731360912323, -0.14909902215003967, -0.12095519155263901, -0.3008078634738922, -0.13638167083263397, -0.17427977919578552, -0.018455374985933304, 0.01572495885193348, -0.13032563030719757, -0.04638979211449623, 0.043547648936510086, 0.3035762906074524, -0.022394469007849693, 0.22166112065315247, -0.4100680947303772, 0.04429564252495766, 0.04384906589984894, -0.009093687869608402, -0.1662309318780899, 0.1030479446053505, -0.047618888318538666, 0.1324073076248169, -0.06045832484960556, 0.1280232071876526, -0.06392091512680054, -0.1325865089893341, -0.12705758213996887, 0.1421077400445938, 0.08895810693502426, 0.027206186205148697, 0.06818623095750809, -0.053911007940769196, 0.23433539271354675, 0.2095191776752472, -0.2095431238412857, 0.17401033639907837, 0.028457632288336754, 0.16703097522258759, 0.09836319088935852], [-0.13344518840312958, -0.07999687641859055, 0.15144352614879608, 0.012590521946549416, -0.09180338680744171, -0.03584849834442139, -0.09526459127664566, 0.16812963783740997, 0.07374748587608337, 0.03343736752867699, 0.0664495900273323, -0.06532654166221619, 0.03035033866763115, -0.14332425594329834, -0.0068527269177138805, 0.15365533530712128, 0.08262539654970169, 0.12195112556219101, 0.061194196343421936, 0.10998489707708359, -0.1361013799905777, 0.12860643863677979, -0.10230366885662079, 0.05325626954436302, 0.046505752950906754, 0.039334170520305634, 0.044498663395643234, -0.0025168887805193663, -0.18308134377002716, -0.1107918918132782, 0.11342327296733856, -0.11511599272489548, -0.03425070643424988, -0.11432716250419617, -0.15283742547035217, 0.1376393735408783, 0.06615714728832245, -0.1072540134191513, -0.11751259863376617, 0.04402481019496918, 0.048433613032102585, 0.04106196388602257, -0.022468475624918938, -0.0432712584733963, -0.07330537587404251, 0.10539834201335907, 0.016991108655929565, 0.011712710373103619, 0.12779948115348816, -0.08850796520709991, 0.014690034091472626, -0.019970590248703957, 0.07845260202884674, -0.1112995371222496, 0.15304739773273468, 0.0016235403018072248, 0.206618070602417, -0.1780991405248642, -0.07465320825576782, 0.055229343473911285, 0.10969041287899017, 0.04756828397512436, -0.13299383223056793, 0.01451215147972107, 0.016606604680418968, 0.11588654667139053, 0.08024254441261292, 0.060514289885759354, -0.011560680344700813, -0.0008676606812514365, -0.05981183797121048, 0.019548440352082253, 0.08832564949989319, 0.008408600464463234, -0.11668408662080765, -0.057186421006917953, -0.1444290578365326, 0.11897186934947968, 0.07632721215486526, 0.0059060403145849705, 0.055053163319826126, 0.0576326884329319, -0.06097729876637459, 0.03433835506439209, -0.11357139050960541, 0.025974903255701065, 0.06430871039628983, -0.06329290568828583, 0.007753797806799412, 0.017681855708360672, -0.1184811145067215, -0.13922534883022308, 0.042687397450208664, 0.06600269675254822, 0.12349104136228561, 0.009786062873899937, 0.017576618120074272, 0.07539445906877518, -0.08905168622732162, -0.024295829236507416, 0.06950187683105469, 0.012070690281689167, -0.016690298914909363, 0.06289051473140717, -0.0695357620716095, 0.03933721408247948, -0.004828098230063915, -0.14489179849624634, -0.005939295515418053, 0.04215121269226074, -0.018694981932640076, 0.17744080722332, -0.008136704564094543, -0.08865882456302643, 0.07869619876146317, -0.2831193506717682, -0.05287745222449303, 0.03660714626312256, -0.03989794850349426, -0.036191266030073166, -0.11284241080284119, 0.06939415633678436, 0.06084604188799858, 0.12659034132957458, -0.0870642438530922, -0.1544199287891388, -0.11246230453252792, 0.11164489388465881, 0.032854143530130386, 0.005570448003709316, 0.012707472778856754, 0.03738914057612419, 0.0959044024348259, 0.11478860676288605, -0.12361811101436615, -0.013680052943527699, -0.09517094492912292, 0.010256716050207615, -0.09532260149717331, -0.10418379306793213, 0.018398698419332504, -0.1971677988767624, 0.024178076535463333, -0.02403860166668892, -0.0649116262793541, -0.10027368366718292, 0.2028684914112091, 0.07750632613897324, -0.013287547044456005, 0.12684108316898346, 0.2012414038181305, -0.2678026258945465, 0.2750149667263031, 0.000824148824904114, -0.040878862142562866, -0.32405886054039, -0.11239144206047058, 0.12875626981258392, 0.07151541858911514, 0.10740795731544495, 0.13139399886131287, 0.02738838456571102, -0.03128502517938614, 0.15112866461277008, 0.09424029290676117, 0.06694817543029785, -0.04802394285798073, -0.010808913968503475, -0.11748692393302917, -0.08785136789083481, -0.024836137890815735, -0.011159568093717098, -0.06123323366045952, -0.07316959649324417, 0.0038046136032789946, -0.029819991439580917, -0.17139901220798492, -0.007073971442878246, -0.05286852642893791, -0.06157669425010681, 0.10231732577085495, -0.10667164623737335, 0.15837174654006958, 0.06854461133480072, 0.043769266456365585, 0.1497451663017273, 0.15052759647369385, -0.3622881770133972, 0.11927736550569534, 0.1185968741774559, 0.15438346564769745, -0.0749451145529747, -0.006537391804158688, 0.07258222252130508, -0.054748643189668655, -0.031050169840455055, -0.03718137368559837, 0.06894193589687347, 0.027040986344218254, 0.05480713024735451, 0.17809708416461945, 0.03601997718214989, 0.1894088238477707, -0.19396047294139862, -0.14281849563121796, -0.24403871595859528, -0.1432165950536728, -0.11613226681947708], [0.031499650329351425, 0.00701897032558918, -0.07509813457727432, 0.19633065164089203, -0.09873321652412415, 0.08770454674959183, -0.09664168208837509, -0.0624639056622982, 0.09564653784036636, -0.030878761783242226, -0.025776522234082222, 0.04737524688243866, -0.09662090241909027, -0.021881641820073128, -0.11764761805534363, 0.16147351264953613, -0.10416717827320099, 0.04707346856594086, -0.0010022582719102502, 0.13576136529445648, 0.06986924260854721, 0.05123399943113327, -0.08013924956321716, -0.07790301740169525, -0.12348116189241409, -0.14371560513973236, -0.11449608206748962, 0.1128663718700409, -0.19066141545772552, 0.06699569523334503, 0.03330335393548012, -0.1040211096405983, 0.006978158373385668, -0.10084693878889084, -0.22621780633926392, -0.08760713785886765, 0.02665085345506668, 0.010340492241084576, 0.10338596999645233, -0.0028330660425126553, -0.09751265496015549, 0.025989970192313194, -0.14658232033252716, 0.23527735471725464, -0.017810791730880737, -0.04769308492541313, -0.1425517499446869, 0.09647046029567719, 0.12529894709587097, 0.02178976684808731, 0.14420640468597412, 0.13688461482524872, -0.13325682282447815, -0.009444114752113819, -0.10249022394418716, -0.13332033157348633, 0.011664736084640026, -0.08224592357873917, -0.04176726192235947, -0.1363803893327713, 0.15662313997745514, -0.02252696081995964, -0.11738833785057068, 0.030224772170186043, -0.04515566676855087, 0.02401694841682911, 0.08425553888082504, 0.045427631586790085, -0.07339771836996078, -0.08170537650585175, -0.05452537536621094, 0.10105636715888977, -0.18286500871181488, -0.09516119211912155, -0.07423171401023865, 0.1487312614917755, 0.048432476818561554, -0.11196863651275635, 0.028550008311867714, -0.23639355599880219, 0.016726864501833916, -0.15401577949523926, 0.12159150838851929, 0.044041454792022705, -0.05149255320429802, -0.06870099157094955, -0.0004897346952930093, -0.09518931806087494, -0.014772255904972553, -0.07416900247335434, -0.12581703066825867, 0.061392899602651596, 0.0795525312423706, -0.12791962921619415, 0.08421044051647186, 0.038108035922050476, -0.007646212819963694, 0.03875524923205376, -0.07785967737436295, -0.11195474117994308, 0.07190889120101929, -0.010261181741952896, 0.021598875522613525, -0.011126221157610416, -0.040589429438114166, -0.02172125317156315, 0.17451195418834686, 0.01110452227294445, -0.1502222716808319, -0.106184221804142, 0.08531505614519119, -0.05858257785439491, -0.07107292860746384, -0.02226053550839424, -0.0755692720413208, -0.19582222402095795, -0.04728648066520691, 0.10536226630210876, -0.09558162093162537, -0.08725783228874207, 0.13473521173000336, -0.12209433317184448, 0.04121826961636543, 0.040104225277900696, -0.13089631497859955, -0.1042972058057785, 0.06777311861515045, -0.10501857846975327, -0.08274340629577637, -0.18776337802410126, -0.12345800548791885, 0.0011779916239902377, -0.1278081238269806, -0.11559652537107468, -0.04530393332242966, -0.09594389796257019, 0.0014531599590554833, 0.010606731288135052, 0.024585561826825142, -0.11498580873012543, 0.13435819745063782, -0.014507199637591839, -0.034203190356492996, -0.05980582535266876, -0.1850924789905548, -0.12497197091579437, -0.024408012628555298, 0.037789538502693176, -0.07316569238901138, 0.06996554136276245, 0.07869762182235718, -0.2441069483757019, -0.3266605734825134, -0.09812288731336594, 0.3159352242946625, 0.21487335860729218, 0.023427465930581093, -0.11254963278770447, 0.13393132388591766, -0.009039828553795815, -0.05294157937169075, -0.08140868693590164, -0.00506701460108161, 0.13626937568187714, -0.050509560853242874, 0.12980373203754425, -0.025722559541463852, 0.13136298954486847, -0.03292298689484596, -0.05159411579370499, 0.13313624262809753, 0.06878188252449036, 0.06395275145769119, -0.04388159513473511, 0.020971104502677917, -0.13421981036663055, -0.07177960127592087, -0.1560029536485672, 0.09935260564088821, 0.0838317796587944, -0.15354853868484497, 0.09556227177381516, -0.15799608826637268, 0.2507992088794708, -0.03487526252865791, 0.08461382240056992, -0.1558832973241806, 0.3119291365146637, 0.012043111957609653, 0.05954392999410629, -0.030649244785308838, -0.029800867661833763, 0.14210005104541779, -0.1330142319202423, 0.10785337537527084, -0.12242348492145538, -0.048488352447748184, -0.15460124611854553, -0.15869155526161194, 0.04484621062874794, 0.23437821865081787, 0.4015699028968811, -0.6257537603378296, 0.5742318630218506, -0.29977062344551086, 0.1190090924501419, -0.3039763867855072, 0.13310979306697845], [-0.0583614744246006, 0.03666782006621361, -0.06667425483465195, 0.19863954186439514, 0.035544347018003464, 0.08174914121627808, 0.03022747114300728, 0.043790288269519806, 0.11035801470279694, -0.1192181184887886, -0.14763689041137695, 0.033840734511613846, -0.01885688677430153, -0.14812950789928436, -0.13269446790218353, 0.13544724881649017, -0.13372504711151123, 0.09950891882181168, 0.06570140272378922, 0.13601559400558472, 0.08979126811027527, 0.13035865128040314, 0.04654020071029663, 0.05015190318226814, -0.027051130309700966, -0.0502246618270874, -0.12209777534008026, -0.052472587674856186, -0.09429881721735, 0.12352753430604935, 0.12481153011322021, -0.15292637050151825, 0.1741562783718109, -0.05273492634296417, 0.07057680934667587, -0.04972140118479729, -0.15995998680591583, 0.04061564803123474, 0.22156183421611786, -0.16250163316726685, -0.11349662393331528, 0.10321447253227234, 0.13330167531967163, 0.3744959533214569, 0.07907740771770477, -0.03653839975595474, 0.15691395103931427, 0.09988940507173538, 0.1343044638633728, -0.14620129764080048, -0.15315237641334534, 0.1561436653137207, 0.02008260414004326, 0.04481528326869011, 0.04892868548631668, -0.10816678404808044, -0.13762256503105164, 0.06360388547182083, 0.07948821783065796, -0.1057981327176094, 0.07840975373983383, -0.05543573573231697, 0.16674059629440308, 0.01923680305480957, 0.13691389560699463, 0.0848853662610054, -0.10125608742237091, -0.06750258058309555, 0.27478620409965515, -0.19474050402641296, -0.13473284244537354, -0.0803716704249382, 0.11309131234884262, -0.17178791761398315, 0.04394790157675743, -0.12423717975616455, 0.20791320502758026, 0.017157355323433876, -0.1528678834438324, 0.03088085725903511, -0.11236009746789932, 0.10394920408725739, -0.10658096522092819, -0.10576756298542023, -0.03418958932161331, -0.10121861845254898, 0.049856558442115784, 0.0015420510899275541, -0.15206782519817352, -0.06826209276914597, -0.024647125974297523, 0.08399523049592972, -0.054706964641809464, -0.0561353974044323, 0.1406935304403305, -0.062170106917619705, 0.02786494605243206, -0.0220619086176157, -0.07648484408855438, -0.07486993074417114, -0.02803693898022175, 0.0868920087814331, 0.04152980074286461, 0.07612639665603638, 0.11345373094081879, -0.016699543222784996, 0.24837011098861694, -0.09972415864467621, 0.1325656920671463, 0.09662862122058868, 0.08815433830022812, -0.1337030977010727, -0.07240290194749832, 0.14855487644672394, 0.02568667195737362, 0.012340158224105835, -0.011033737100660801, 0.04867168515920639, -0.047510698437690735, 0.005518477410078049, -0.15043000876903534, 0.0699770525097847, -0.11247649788856506, 0.02097080461680889, 0.025856075808405876, -0.02896237187087536, 0.1332094520330429, 0.11154556274414062, 0.026299484074115753, -0.12920746207237244, 0.24752944707870483, 0.25563710927963257, 0.15936078131198883, 0.07414038479328156, -0.13323159515857697, -0.1242896020412445, -0.14460282027721405, 0.12323933094739914, -0.13004322350025177, -0.016142694279551506, -0.07322145998477936, -0.04331660270690918, 0.16132178902626038, 0.07061970978975296, -0.06689417362213135, -0.09324418008327484, 0.186500683426857, -0.025442006066441536, -0.17265969514846802, 0.13738280534744263, 0.07285021245479584, -0.08817901462316513, -0.49648115038871765, -0.144972026348114, 0.34208059310913086, 0.06895161420106888, 0.03882516548037529, 0.06821276992559433, -0.10076022893190384, 0.006050650030374527, -0.14952030777931213, -0.15419460833072662, -0.06135481595993042, 0.055143699049949646, -0.06012478470802307, 0.014405588619410992, 0.034277793020009995, 0.09664739668369293, 0.13044488430023193, -0.13792085647583008, -0.012914050370454788, -0.07893052697181702, 0.06704439967870712, -0.004627528600394726, 0.17789217829704285, 0.07642083615064621, -0.18825697898864746, -0.07782179862260818, -0.012719874270260334, -0.2878795564174652, -0.22895747423171997, -0.06878684461116791, 0.01794014312326908, -0.08883385360240936, 0.14578519761562347, 0.05423407256603241, 0.0075797392055392265, -0.20335006713867188, 0.14756648242473602, 0.015333498828113079, -0.08473841100931168, -0.0038440595380961895, -0.0801362544298172, 0.01353540737181902, -0.023021768778562546, -0.14757663011550903, -0.08553329110145569, -0.07521513849496841, 0.09064941108226776, -0.1455659717321396, -0.005203510168939829, 0.809516966342926, -0.5297355651855469, 0.6083048582077026, -0.29759398102760315, -0.02369571290910244, -0.3543850779533386, -0.11205456405878067], [-0.1479894518852234, -0.1150946170091629, 0.14830400049686432, 0.15478721261024475, -0.182804137468338, 0.15655465424060822, -0.04304958134889603, 0.059239163994789124, -0.09095514565706253, -0.046636734157800674, 0.09401695430278778, 0.04630519822239876, -0.04506425932049751, -0.1311476230621338, 0.014392528682947159, -0.0031959274783730507, 0.15404728055000305, 0.10689620673656464, 0.058053188025951385, -0.13120050728321075, -0.02564847655594349, 0.1374482810497284, -0.02315676212310791, 0.032893650233745575, -0.10545232892036438, -0.028524573892354965, 0.027045035734772682, -0.1472296416759491, -0.04494462162256241, 0.01007985882461071, 0.03779228404164314, 0.10212495923042297, -0.10967355221509933, 0.018352221697568893, -0.23137272894382477, 0.12763763964176178, 0.010984225198626518, 0.07782901078462601, -0.02232286147773266, -0.051425132900476456, 0.09233707189559937, -0.09819860011339188, 0.15064381062984467, 0.10313060879707336, 0.07007256150245667, 0.09548391401767731, 0.14980146288871765, 0.0026280698366463184, 0.01731094904243946, 0.08294845372438431, -0.07822921872138977, -0.09378889948129654, 0.015271037817001343, -0.11928584426641464, 0.02012602426111698, -0.15252196788787842, -0.02350272797048092, -0.027455953881144524, 0.07648609578609467, -0.15601935982704163, 0.178130641579628, 0.025192338973283768, 0.0697246640920639, -0.07810626178979874, 0.0030148394871503115, -0.09291858226060867, -0.05751961097121239, -0.03861340135335922, 0.051828499883413315, 0.05115853622555733, 0.04295527562499046, -0.03370428457856178, -0.022633293643593788, -0.11109565198421478, 0.0813259705901146, -0.0854993686079979, 0.07816170901060104, -0.19051380455493927, 0.09378420561552048, -0.06833823025226593, -0.13078157603740692, -0.012765505351126194, 0.13766054809093475, -0.09518496692180634, 0.050005897879600525, 0.11172348260879517, 0.07502661645412445, 0.03811541572213173, -0.1538759022951126, -0.15738597512245178, 0.052928708493709564, 0.06660811603069305, 0.07978450506925583, 0.02966424822807312, 0.06650662422180176, 0.09812311083078384, 0.11536327004432678, -0.04016021266579628, 0.06278900802135468, 0.11772139370441437, -0.004014120437204838, -0.03826349973678589, 0.05953385680913925, -0.14616215229034424, 0.07944200187921524, -0.07936851680278778, 0.009734571911394596, -0.06626687198877335, 0.10633136332035065, -0.012283910065889359, -0.08232303708791733, -0.029176853597164154, -0.09683943539857864, 0.02206781506538391, -0.059459589421749115, -0.030048713088035583, -0.08380834013223648, 0.0757535919547081, -0.019503379240632057, 0.06138256564736366, 0.09815177321434021, 0.0021188019309192896, -0.11168668419122696, -0.12655766308307648, 0.013078417629003525, 0.12624725699424744, 0.11169588565826416, -0.011881583370268345, 0.039082881063222885, 0.08623211830854416, 0.027891822159290314, -0.05525261536240578, 0.08162367343902588, 0.04338657855987549, 0.06310217082500458, -0.10328715294599533, 0.0729622170329094, 0.04907835274934769, -0.09322298318147659, 0.09906964749097824, -0.15128223598003387, 0.02073099836707115, 0.1485462486743927, 0.14488184452056885, -0.003044027602300048, -0.027603089809417725, 0.0914396196603775, 0.03268921747803688, -0.1314605176448822, -0.10159239917993546, -0.05967022851109505, -0.2312461882829666, -0.11112949997186661, 0.020481863990426064, 0.14968357980251312, 0.11679093539714813, -0.09722548723220825, 0.10547942668199539, -0.15242233872413635, 0.00383814238011837, -0.010000058449804783, -0.05901751294732094, -0.09869283437728882, 0.13513562083244324, 0.1532091647386551, 0.01998872309923172, -0.1197674423456192, -0.09185540676116943, -0.15689554810523987, 0.12151060253381729, -0.005282184109091759, -0.011537175625562668, 0.28580042719841003, 0.03936199098825455, 0.1450089067220688, -0.15712356567382812, -0.08901602029800415, 0.09333202987909317, -0.011074327863752842, 0.013941450044512749, -0.22210544347763062, -0.026356862857937813, -0.014819773845374584, 0.27785149216651917, -0.0718897357583046, -0.10269956290721893, -0.06742177903652191, -0.13260355591773987, 0.10206067562103271, 0.025678003206849098, -0.07889463752508163, 0.012511155568063259, 0.08715800940990448, -0.03735039755702019, -0.08870212733745575, -0.09665943682193756, 0.11123162508010864, 0.13317376375198364, -0.03503758832812309, -0.01057776901870966, 0.28735607862472534, -0.13950304687023163, -0.1373419165611267, 0.1704992651939392, 0.04582073539495468, -0.07417353242635727, -0.1153104156255722, 0.03103991225361824], [-0.06335202604532242, -0.016866253688931465, -0.09303981810808182, 0.1968015879392624, -0.11545692384243011, 0.017706526443362236, -0.04806751385331154, -0.08772629499435425, 0.14666908979415894, 0.11313048750162125, 0.13269616663455963, 0.056013405323028564, -0.116797536611557, 0.14123544096946716, 0.08073558658361435, -0.004643460735678673, -0.12501494586467743, 0.0940345823764801, 0.009360075928270817, -0.05087282136082649, -0.032378967851400375, -0.052105505019426346, 0.039686642587184906, -0.03169787675142288, 0.0150863416492939, -0.0827128067612648, -0.12859614193439484, 0.12022999674081802, -0.07561379671096802, -0.17392082512378693, -0.054835572838783264, 0.018077468499541283, -0.03197653591632843, 0.08737989515066147, -0.07840587943792343, -0.030352920293807983, -0.12437421083450317, 0.018344702199101448, -0.22796829044818878, -0.020306464284658432, -0.013452580198645592, -0.12011385709047318, -0.03291197121143341, 0.3247102200984955, -0.11282052844762802, 0.010016790591180325, -0.027549609541893005, 0.1362643539905548, 0.03898945823311806, -0.10235682129859924, 0.06762389093637466, 0.15634573996067047, -0.13700127601623535, -0.09500731527805328, -0.0706024244427681, 0.011360428296029568, 0.2175549864768982, 0.05952882394194603, 0.004512346815317869, -0.025314319878816605, 0.09719618409872055, 0.04905599355697632, -0.02607071027159691, 0.0986340120434761, 0.0008591896621510386, 0.14949555695056915, 0.13806667923927307, -0.07717099785804749, 0.14160962402820587, -0.10422998666763306, 0.019669663161039352, -0.10276561975479126, -0.1676284670829773, -0.07747595012187958, 0.07139360904693604, -0.10757952183485031, 0.10524623841047287, 0.00501534529030323, 0.13209639489650726, -0.1499565988779068, 0.024920813739299774, 0.15646059811115265, 0.06230270117521286, -0.007352994289249182, 0.15725979208946228, 0.056468524038791656, -0.13117162883281708, -0.0016089794225990772, -0.14344248175621033, -0.05867253988981247, 0.05828732252120972, -0.02205490507185459, 0.14063039422035217, 0.07970251142978668, 0.008920840919017792, 0.10714805871248245, -0.007676421664655209, 0.08915847539901733, -0.056482113897800446, 0.03830038011074066, 0.07597341388463974, -0.0986979752779007, 0.015881212428212166, -0.11155645549297333, -0.094780333340168, -0.14310333132743835, 0.15740594267845154, 0.017939798533916473, -0.1082582101225853, 0.060886092483997345, -0.05078514292836189, -0.0809834748506546, -0.14741790294647217, -0.01333659142255783, 0.06865071505308151, -0.08694548904895782, 0.0376385897397995, 0.07268893718719482, -0.1240915060043335, 0.15335489809513092, -0.05009739100933075, -0.0020120118279010057, 0.013482674956321716, -0.02156221866607666, -0.012328692711889744, 0.14742891490459442, 0.033414576202631, -0.016441525891423225, 0.016556238755583763, -0.17314915359020233, -0.029091738164424896, -0.018028773367404938, 0.04948781803250313, 0.022772759199142456, -0.0011016492499038577, -0.11419456452131271, 0.1546548306941986, 0.050244204699993134, -0.04189513251185417, -0.007527486886829138, 0.10689584165811539, -0.007661269512027502, 0.08963429182767868, 0.029065264388918877, -0.10000911355018616, 0.05947478860616684, -0.1226792186498642, -0.09121713042259216, 0.09773886948823929, 0.16057975590229034, -0.05430428683757782, -0.14763197302818298, -0.18200542032718658, 0.05129676312208176, 0.2938414216041565, 0.09443868696689606, -0.14144879579544067, -0.08139891922473907, 0.02113710343837738, 0.021642053499817848, 0.04680083692073822, -0.01203069556504488, -0.14987073838710785, 0.11245102435350418, 0.027816982939839363, -0.11455661058425903, 0.019580112770199776, -0.12382379174232483, -0.005506401415914297, -0.02930140495300293, 0.08347479999065399, -0.12440101057291031, 0.10759922116994858, -0.0237574502825737, -0.0961042046546936, -0.07105644792318344, 0.0108858123421669, 0.12127075344324112, 0.01707354374229908, 0.0004830252437386662, -0.42889049649238586, -0.140265092253685, -0.04609181359410286, 0.14118073880672455, -0.13848872482776642, -0.057226501405239105, -0.06835650652647018, 0.14622250199317932, -0.06872033327817917, 0.0954432561993599, -0.08714691549539566, -0.07120553404092789, -0.07570865750312805, -0.11258786916732788, -0.07564347237348557, 0.14699259400367737, -0.15200218558311462, -0.09872467070817947, -0.01850982755422592, 0.04139088839292526, -0.002242880640551448, 0.1580190658569336, -0.5767152905464172, 0.34034714102745056, -0.20286548137664795, 0.07437407225370407, -0.2674783766269684, -0.043237436562776566], [0.019229192286729813, -0.12676487863063812, -0.056158967316150665, -0.0166318416595459, -0.009790265001356602, 0.11178654432296753, -0.12282140552997589, -0.01740155555307865, -0.07844116538763046, -0.13069605827331543, -0.03704234957695007, -0.047789521515369415, 0.09427326172590256, 0.1586698293685913, -0.0031368837226182222, 0.019344469532370567, -0.07303357124328613, -0.07671546190977097, 0.14323408901691437, 0.02699131891131401, -0.015191012062132359, -0.02151690609753132, 0.12930899858474731, -0.048170629888772964, -0.03844517469406128, -0.13573668897151947, -0.023701122030615807, 0.13746602833271027, 0.03319656476378441, 0.12630844116210938, -0.13738560676574707, -0.13620738685131073, -0.1528475135564804, -0.0645785704255104, 0.0755065530538559, 0.013882545754313469, -0.16951051354408264, 0.13491256535053253, 0.10483890026807785, -0.048469994217157364, 0.011285285465419292, -0.022613953799009323, 0.022262316197156906, -0.027376338839530945, -0.15068821609020233, 0.05065973475575447, -0.1507359892129898, -0.0413680262863636, 0.09988902509212494, 0.0362577810883522, -0.09600287675857544, -0.05278099700808525, -0.07086067646741867, 0.04554259777069092, 0.11516165733337402, -0.04236876964569092, -0.22706560790538788, 0.027583621442317963, -0.11260978877544403, -0.12681517004966736, -0.1472804993391037, 0.15585820376873016, 0.13224725425243378, 0.05725311487913132, 0.0023767822422087193, 0.03095252998173237, -0.007623776327818632, -0.12197384983301163, -0.026283591985702515, -0.08324897289276123, -0.1450522094964981, 0.0625515729188919, 0.05917796492576599, -0.04613484442234039, 0.031060563400387764, -0.05365081876516342, -0.0855633020401001, 0.0038387090899050236, 0.016461342573165894, 0.2724784016609192, -0.06166277080774307, -0.14286984503269196, 0.11737222224473953, 0.19101735949516296, -0.09336503595113754, -0.033302564173936844, 0.0034815187100321054, 0.14914502203464508, -0.12940245866775513, -0.08650742471218109, 0.0897807776927948, -0.03438340872526169, 0.0756848081946373, -0.06838898360729218, -0.011239594779908657, -0.10014542192220688, 0.12697377800941467, -0.08343001455068588, 0.031447384506464005, -0.012096185237169266, -0.07236632704734802, -0.14075571298599243, -0.11362935602664948, -0.04478636756539345, 0.07956802099943161, -0.10177576541900635, -0.04944530129432678, 0.18184559047222137, 0.11193206906318665, -0.025567011907696724, 0.005482749547809362, -0.008664081804454327, 0.07671625167131424, -0.11171946674585342, -0.1573057919740677, 0.12476441264152527, 0.1395452320575714, -0.12252160906791687, -0.004626718815416098, -0.022244220599532127, 0.07076573371887207, 0.1276044398546219, 0.10814031958580017, 0.08574910461902618, -0.05956770479679108, 0.09970153123140335, -0.10835988074541092, 0.12479723989963531, 0.11034327745437622, 0.0700882077217102, -0.09838712960481644, -0.13491371273994446, -0.08647340536117554, 0.03611638396978378, -0.11201341450214386, -0.10704781860113144, 0.00627481983974576, -0.03498073294758797, -0.028986047953367233, -0.04343128576874733, -0.09096702188253403, 0.05086613819003105, 0.023541491478681564, 0.11673256009817123, -0.02919751964509487, -0.02134626917541027, -0.07517854869365692, 0.1685001254081726, -0.1674657016992569, 0.065127894282341, -0.04971831291913986, -0.035617295652627945, 0.09907946735620499, 0.1100844219326973, -0.019400905817747116, -0.011477123014628887, 0.0621248334646225, 0.13385780155658722, -0.13352392613887787, 0.04054773598909378, -0.07933266460895538, 0.002176834037527442, -0.07273640483617783, 0.03638603165745735, -0.12025755643844604, -0.12782661616802216, 0.09628194570541382, 0.13290885090827942, 0.12409510463476181, -0.020177394151687622, 0.06306436657905579, 0.13610884547233582, -0.1436345875263214, -0.13745062053203583, 0.06663914024829865, 0.02718060277402401, 0.10074153542518616, -0.27493539452552795, -0.15008600056171417, -0.1483089029788971, 0.16540880501270294, 0.13465934991836548, 0.14072363078594208, -0.08766411989927292, 0.005134131759405136, 0.08992871642112732, -0.09749119728803635, 0.02800700068473816, 0.14595186710357666, 0.06424647569656372, -0.0347214974462986, 0.07507866621017456, -0.09362824261188507, 0.08131109923124313, -0.11906306445598602, 0.080739825963974, 0.04847347363829613, 0.024078350514173508, 0.04805195331573486, 0.007997775450348854, -0.16769081354141235, 0.32957589626312256, -0.09721805155277252, 0.10047603398561478, -0.28129956126213074, -0.03352094069123268, -0.12125959247350693, 0.03446407988667488], [0.11172548681497574, 0.1516769975423813, -0.03961946815252304, 0.07913082838058472, -0.14265447854995728, 0.030095648020505905, 0.031387705355882645, 0.14675121009349823, 0.13742172718048096, 0.0068305060267448425, 0.13141506910324097, -0.1303974986076355, 0.003671439131721854, 0.03769124671816826, 0.018029330298304558, -0.02763894945383072, -0.15522654354572296, -0.035838719457387924, 0.02129431627690792, 0.12726734578609467, -0.0065391333773732185, -0.02148079127073288, -0.05588259920477867, 0.026833614334464073, 0.1387808918952942, 0.04256599396467209, 0.006033764220774174, 0.03052591159939766, -0.07522187381982803, -0.11701881885528564, 0.025094611570239067, -0.028940236195921898, 0.09821773320436478, -0.025613069534301758, -0.3240516781806946, -0.014584428630769253, 0.016218863427639008, 0.014126178808510303, 0.01604408025741577, 0.24689893424510956, 0.1073237806558609, 0.11332006752490997, 0.05657550320029259, 0.27823224663734436, 0.10717376321554184, 0.09366674721240997, 0.10636630654335022, -0.1268891990184784, -0.023972582072019577, 0.14042434096336365, -0.08563728630542755, -0.009042545221745968, -0.011075718328356743, -0.062360405921936035, 0.020207906141877174, -0.025554632768034935, 0.18090185523033142, 0.07161052525043488, -0.051763780415058136, -0.13490207493305206, 0.08968934416770935, -0.02879500202834606, -0.04161832481622696, 0.06021131947636604, 0.17614337801933289, 0.09180653095245361, 0.015277664177119732, 0.03244955092668533, -0.07882722467184067, -0.1707925796508789, 0.018400145694613457, -0.14952169358730316, 0.007357765920460224, -0.009065520949661732, 0.012711622752249241, -0.10521072894334793, -0.09971437603235245, -0.21475930511951447, -0.11477919667959213, -0.08145438879728317, 0.1082911267876625, 