{"iterations": 1000, "final_fidelity": 0.995897035947382, "final_purity": -1, "optimized_trainable_parameters": {"initial_params": [[], [6.266682410322399, 2.1945806912320314, 3.9412682986882226, 6.230394872636412, 2.0126945880161617, 1.8612020243620344, 3.2098950733871656, 1.9353433853075317, 1.5370982543491136, 3.864856988789411, 5.792215661716702, 5.243562846585274, 4.981546340195808, 1.1192127716910714, 2.344204195149228, 5.560583614859825, 5.218484959495083, 2.2090679368862562, 4.797623141852699, 5.823692301996493, 0.31556435942240246, 3.030490137966179, 1.7194749653008563, 4.973147098793945, 2.1101587208352393, 5.761418510212814, 1.7378942656024712, 0.7489007037358073, 4.712051394163485, 4.499725181932576, 2.433793266825672, 2.3321634888088707, 2.38564331420212, 4.813148919250794, 5.23162514979044, 2.789990489977841, 2.1306899738345706, 0.6522975772936652, 3.5180556575710304, 4.24087883845111, 3.7692283670685587, 3.6303310113268448, 0.6207926218368923, 3.6478973716954015, 5.723220750518726, 3.722899579187097, 5.434779557779153, 4.0106792444627954, 2.5607915416242704, 3.6208438586059253, 1.4732495566829824, 6.027600351085779, 1.4745133273364592, 0.5026579935413034, 3.084843341081983, 2.5505854402911914, 3.0014620674624637, -0.020374669403376046, 5.08765551453517, 3.7982753318209546, 2.0122105150218874, 3.910630344424798, 5.449928383007185, 3.4221099768480587, 2.3479258603211344, 5.807453974890401, -0.4177539904352937, 5.860784803075478, 5.675532690081981, 0.9005195547183072, 4.447845712193947, 5.540841745793042], [6.094363009698324, 1.980346031110394, 4.153791127233861, 6.229067048932181, 1.7751352004394012, 2.233601835029501, 3.3002877923679588, 2.0270080429275144, 0.3686831206784092, 3.864856988789411, 5.998718376191112, 5.270125085447247, 4.981546340195808, 1.1192127716910714, 2.344204195149228, 4.8330570839390745, 5.218484959495083, 2.2090679368862562, 4.797623141852699, 5.823692301996493, 0.31556435942240246, 3.030490137966179, 1.7194749653008563, 4.973147098793945, 2.1101587208352393, 5.761418510212814, 1.7378942656024712, 0.7489007037358073, 4.456599926224252, 4.691879038729621, 2.3886105832554008, 2.29713601226842, 2.258161719529259, 4.80035533176193, 5.280894609627821, 2.701561590392014, 1.9916554950935172, 0.6522975772936652, 3.7174330446199817, 4.025395429880456, 3.7692283670685587, 3.6303310113268448, 0.6207926218368923, 3.844441479341378, 5.723220750518726, 3.722899579187097, 5.434779557779153, 4.0106792444627954, 2.5607915416242704, 3.6208438586059253, 1.4732495566829824, 6.027600351085779, 1.4745133273364592, 0.5026579935413034, 3.084843341081983, 2.5505854402911914, 2.8747856376057754, 0.05932658899645032, 4.925228858701095, 3.671936945383406, 1.7285193729825767, 3.917877352620044, 5.354829688403799, 3.4221099749950374, 1.761416159209946, 5.784620527289228, 0.0007077399087626888, 6.180694055093325, 5.245667767192338, 1.3114847229744826, 4.644379254015441, 5.143584142402586], [0.08062436666431605, 0.923948835561414, 0.7339523451366718, 0.5794502442667795, 0.5976030059699919, 0.7000266287193331, 0.8056200973061387, 0.8894700350923472, 0.07627888141344874, 0.8728580575304441, 0.22663938029178654, 0.6564232100473297, 0.29224536994517436, 0.6596231091705356, 0.629365131022366, 0.4619819572813424, 0.8193514805281565, 0.6512831230341642, 0.9733046870263129, 0.9444505395292015, 0.9182082032288363, 0.5543627964382509, 0.7830599900634658, 0.6542280042611439, 0.7626502422760495, 0.9888408853930919, 0.6299959315030015, 0.9162851472155082, 0.706661011532282, 0.827052482249405, 0.4143085575562553, 0.301302335753453, 0.05760853211194594, 0.7207888384390386, 0.1923819370949056, 0.15724463390189425, 0.9167070879854895, 0.5428114841934542, 0.30390380628201474, 0.2765018768384566, 0.5833472829696598, 0.7757670168741624, 0.8151969697108865, 0.6730294070586214, 0.3425704284896489, 0.2816810660044804, 0.32252491583720855, 0.2149071806352678, 0.7559688675013756, 0.3074243349346728, 0.950506417112257, 0.8364326348445001, 0.9862761290834987, 0.1625085191882869, 0.5606424964766055, 0.1594550505153438, 0.4145701339543364, 0.06871425770856554, 0.5767713099864875, 0.185962538695982, 0.8177615934270606, 0.5290150682036481, 0.4916001550510516, 0.6132162644788453]], "rnn_params": {"params": {"Dense_0": {"bias": [3.0328283309936523, 3.1215310096740723, 3.349595308303833, 3.1172025203704834, 3.235086679458618, 3.1297061443328857, 3.0579395294189453, 3.1723251342773438, 3.265902280807495, 3.1415927410125732, 3.0860273838043213, 3.2474074363708496, 3.1415927410125732, 3.1415927410125732, 3.1415927410125732, 3.2630531787872314, 3.1415927410125732, 3.1415927410125732, 3.1415927410125732, 3.1415927410125732, 3.1415927410125732, 3.1415927410125732, 3.1415927410125732, 3.1415927410125732, 3.1415927410125732, 3.1415927410125732, 3.1415927410125732, 3.1415927410125732, 3.118065595626831, 3.264039993286133, 3.186469316482544, 3.2480316162109375, 3.1449360847473145, 3.165146589279175, 3.1898531913757324, 3.1058833599090576, 3.052142858505249, 3.1415927410125732, 3.1963236331939697, 3.0397446155548096, 3.1415927410125732, 3.1415927410125732, 3.1415927410125732, 3.0967350006103516, 3.1415927410125732, 3.1415927410125732, 3.1415927410125732, 3.1415927410125732, 3.1415927410125732, 3.1415927410125732, 3.1415927410125732, 3.1415927410125732, 3.1415927410125732, 3.1415927410125732, 3.1415927410125732, 3.1415927410125732, 3.1304869651794434, 3.233614921569824, 3.2533745765686035, 3.084876537322998, 3.0755503177642822, 3.166666269302368, 3.0930140018463135, 3.1415927410125732, 3.1133644580841064, 3.1166322231292725, 3.0988142490386963, 3.1786794662475586, 3.180386781692505, 3.1691555976867676, 3.1161255836486816, 3.123361587524414, 3.076430559158325, 3.014225721359253, 3.1080517768859863, 3.0869991779327393, 3.278137445449829, 3.1883530616760254, 3.176004409790039, 3.297067403793335, 3.067953586578369, 3.1415927410125732, 3.039583444595337, 2.986593246459961, 3.1415927410125732, 3.1415927410125732, 3.1415927410125732, 2.962341547012329, 3.1415927410125732, 3.1415927410125732, 3.1415927410125732, 3.1415927410125732, 3.1415927410125732, 3.1415927410125732, 3.1415927410125732, 3.1415927410125732, 3.1415927410125732, 3.1415927410125732, 3.1415927410125732, 3.1415927410125732, 3.0938475131988525, 3.14155650138855, 3.3010380268096924, 3.1909244060516357, 3.222048759460449, 3.1562211513519287, 3.0607569217681885, 3.103911876678467, 3.2111992835998535, 3.1415927410125732, 3.1444356441497803, 3.202125310897827, 3.1415927410125732, 3.1415927410125732, 3.1415927410125732, 3.158959150314331, 3.1415927410125732, 3.1415927410125732, 3.1415927410125732, 3.1415927410125732, 3.1415927410125732, 3.1415927410125732, 3.1415927410125732, 3.1415927410125732, 3.1415927410125732, 3.1415927410125732, 3.1415927410125732, 3.1415927410125732, 3.087843418121338, 3.0803091526031494, 3.0857019424438477, 3.0864875316619873, 3.090428113937378, 3.0993785858154297, 3.1021769046783447, 3.1415927410125732, 3.1608176231384277, 3.175642728805542, 3.185081720352173, 3.094538450241089, 3.172785758972168, 3.164761543273926, 3.11704421043396, 3.1383073329925537, 3.2078702449798584, 3.169419050216675, 3.2418200969696045, 3.152696371078491, 3.103980779647827, 3.185904026031494, 3.231442928314209, 3.2728164196014404, 3.2077953815460205, 3.1415927410125732, 3.0992865562438965, 3.0281476974487305, 3.1415927410125732, 3.1415927410125732, 3.1415927410125732, 3.3401148319244385, 3.1415927410125732, 3.1415927410125732, 3.1415927410125732, 3.1415927410125732, 3.1415927410125732, 3.1415927410125732, 3.1415927410125732, 3.1415927410125732, 3.1415927410125732, 3.1415927410125732, 3.1415927410125732, 3.1415927410125732, 2.908360004425049, 3.1054306030273438, 3.113438129425049, 3.2871882915496826, 2.9054691791534424, 3.1992413997650146, 3.200953722000122, 2.893007755279541, 3.136530876159668, 3.1415927410125732, 3.2058959007263184, 3.1350672245025635, 3.1415927410125732, 3.1415927410125732, 3.1415927410125732, 2.8598990440368652, 3.1415927410125732, 3.1415927410125732, 3.1415927410125732, 3.1415927410125732, 3.1415927410125732, 3.1415927410125732, 3.1415927410125732, 3.1415927410125732, 3.1415927410125732, 3.1415927410125732, 3.1415927410125732, 3.1415927410125732, 3.1490609645843506, 3.200563430786133, 3.1816625595092773, 3.172046422958374, 3.1594901084899902, 3.1715993881225586, 3.185763359069824, 3.1415927410125732], "kernel": [[-0.25573021173477173, -0.10537836700677872, 0.33622413873672485, -0.14675645530223846, 0.17083655297756195, -0.0007315183174796402, -0.13632336258888245, 0.17533205449581146, -0.00900866836309433, -0.12196922302246094, -0.10864531248807907, 0.2445184290409088, 0.06906227767467499, 0.003314841538667679, -0.059839241206645966, 0.23381158709526062, -0.11067640036344528, 0.03344724699854851, -0.15226875245571136, 0.044100385159254074, -0.0452943816781044, 0.020017001777887344, -0.14598530530929565, -0.10254927724599838, -0.10453002154827118, -0.018412653356790543, 0.1523095667362213, -0.08039117604494095, 0.11917851865291595, 0.11043298244476318, 0.13430485129356384, 0.06475648283958435, -0.09452378004789352, -0.0535653792321682, 0.08854985982179642, -0.1753646582365036, -0.052788443863391876, -0.06874766200780869, -0.007968602702021599, -0.23503346741199493, -0.11769058555364609, 0.14503911137580872, -0.08481695502996445, 0.10560619086027145, 0.14014659821987152, 0.07329833507537842, 0.006989157758653164, -0.12717357277870178, 0.11466741561889648, -0.06445130705833435, 0.11857102066278458, -0.14081914722919464, -0.011992082931101322, -0.055718570947647095, 0.09369600564241409, -0.10727445781230927, 0.07835230231285095, 0.01720254495739937, 0.0031680753454566, -0.1301044225692749, -0.00689634308218956, -0.14082156121730804, -0.0805656835436821, -0.07845180481672287, -0.16651038825511932, -0.07654566317796707, 0.07512227445840836, -0.11403511464595795, -0.017134422436356544, -0.06602506339550018, 0.02777733840048313, -0.12186458706855774, -0.13440322875976562, -0.2045687735080719, 0.01727009378373623, 0.010735138319432735, 0.06132331117987633, 0.07107490301132202, 0.11213178932666779, -0.04265650734305382, -0.15554577112197876, 0.09683675318956375, 0.08134975284337997, -0.14434826374053955, 0.07655082643032074, -0.08466792106628418, 0.15254177153110504, -0.02768879570066929, 0.08460470288991928, -0.0349842868745327, 0.05775022879242897, 0.05265633761882782, 0.09158731251955032, 0.07796468585729599, 0.02992280013859272, -0.09402693808078766, -0.05578629672527313, 0.06324663758277893, 0.07557650655508041, 0.06198056414723396, -0.11144362390041351, -0.03829870745539665, 0.27419084310531616, 0.08545149862766266, 0.11231783777475357, 0.15782438218593597, 0.09276075661182404, -0.024599364027380943, 0.1023021712899208, -0.03651916980743408, -0.1579904556274414, -0.031379055231809616, -0.09259884804487228, 0.1489463448524475, -0.08039238303899765, 0.003351577091962099, 0.1442158967256546, -0.04941383749246597, -0.1270333230495453, -0.08185000717639923, -0.1130208969116211, 0.06713752448558807, 0.07427836954593658, -0.048975661396980286, 0.053642433136701584, -0.08863712847232819, 0.031497467309236526, -0.07356744259595871, -0.014305667951703072, -0.12596258521080017, -0.1847149133682251, -0.016810206696391106, -0.12353029102087021, 0.07280202209949493, -0.09746082872152328, -0.08793756365776062, -0.00442694965749979, -0.00899762287735939, 0.011480102315545082, -0.040670666843652725, -0.09594935178756714, 0.023462917655706406, 0.08273068070411682, 0.12434090673923492, 0.14764854311943054, 0.06859970837831497, 0.20185019075870514, 0.05002758279442787, -0.14733049273490906, -0.008091138675808907, -0.0344494953751564, 0.11293349415063858, 0.12278158217668533, 0.12050100415945053, -0.07838013768196106, -0.22845274209976196, -0.047450169920921326, 0.1513194590806961, 0.06285127997398376, 0.17430779337882996, -0.09043298661708832, 0.07179278880357742, -0.04936852678656578, 0.08421353995800018, 0.03554166853427887, -0.03628439083695412, 0.051341548562049866, -0.1166900247335434, -0.11148203909397125, -0.15355134010314941, 0.12055078148841858, 0.13107183575630188, -0.13951224088668823, -0.0548614040017128, -0.12033702433109283, -0.0031524302903562784, -0.17391054332256317, -0.060967326164245605, -0.08137630671262741, -0.03487971052527428, -0.0908721536397934, 0.010748420841991901, -0.023948561400175095, -0.05498053878545761, -0.03903624787926674, 0.15630534291267395, -0.12664636969566345, -0.391027569770813, -0.15702955424785614, 0.09701463580131531, 0.08994416147470474, -0.0630776509642601, 0.05670531094074249, 0.02416299469769001, 0.1148395836353302, -0.11596997827291489, 0.02163758873939514, -0.14149747788906097, -0.01550990529358387, -0.14273923635482788, 0.08426711708307266, 0.1764194667339325, -0.010181339457631111, 0.1592504382133484, -0.12701302766799927, -0.04386686161160469, 0.03262791782617569, -0.13616278767585754], [-0.2707488238811493, -0.10227163881063461, 0.1578686386346817, -0.1848401427268982, 0.0752711147069931, 0.06024955213069916, -0.22664964199066162, 0.014184596948325634, 0.13252811133861542, 0.13828779757022858, 0.0040220776572823524, 0.2179071009159088, -0.10807684063911438, -0.0779157355427742, 0.004576939158141613, 0.08809524774551392, 0.031145641580224037, 0.037475548684597015, -0.010362675413489342, 0.11349900811910629, 0.11735287308692932, 0.10524570941925049, 0.11013896763324738, 0.14183437824249268, -0.042303089052438736, 0.1458406150341034, -0.06483417749404907, -0.0626298263669014, 0.10135950893163681, 0.013478269800543785, 0.1708477884531021, 0.07996799051761627, -0.07050108909606934, 0.17545773088932037, -0.01791820116341114, -0.1385928839445114, -0.18311583995819092, 0.036092426627874374, 0.023099541664123535, -0.009809513576328754, -0.10003571957349777, -0.14055047929286957, -0.055693019181489944, -0.014494560658931732, 0.06253344565629959, 0.05092926323413849, -0.10331504791975021, 0.023266276344656944, 0.04284567013382912, -0.062213338911533356, 0.11332794278860092, -0.1494826376438141, -0.06714849919080734, -0.011204427108168602, -0.14177986979484558, 0.08391918241977692, -0.08986414968967438, 0.01312186848372221, 0.1236642375588417, -0.018661102280020714, 0.04613441973924637, 0.15408942103385925, -0.10215391218662262, -0.0002320911589777097, -0.009268696419894695, 0.05711347609758377, 0.09876555949449539, 0.11575708538293839, -0.03635472431778908, -0.06269332766532898, -0.07099514454603195, -0.03807467594742775, -0.18883268535137177, -0.044263314455747604, -0.12615564465522766, 0.046022605150938034, -0.13511092960834503, -0.08392839878797531, 0.1804446130990982, -0.07098130881786346, -0.01634289138019085, -0.0013481804635375738, 0.13792367279529572, -0.25370267033576965, 0.09984507411718369, -0.060107938945293427, -0.11172938346862793, -0.19630467891693115, 0.1534077525138855, -0.14230458438396454, 0.08731518685817719, 0.09555444121360779, -0.1089622750878334, -0.10949467122554779, -0.06346885114908218, -0.13580599427223206, 0.03715839609503746, 0.10286154597997665, 0.0938761979341507, -0.12265463173389435, 0.09241321682929993, -0.07685777544975281, 0.22949634492397308, 0.026554463431239128, -0.10670002549886703, 0.02293315716087818, -0.08748485147953033, -0.10199631750583649, 0.2024504691362381, -0.08158554881811142, -0.16216881573200226, 0.18018057942390442, -0.009464632719755173, -0.004158675204962492, 0.021659960970282555, -0.03352871164679527, -0.11199937015771866, 0.15278109908103943, -0.0285885501652956, -0.11873838305473328, -0.016578031703829765, -0.06681295484304428, -0.11783204972743988, 0.04276231303811073, -0.08448424935340881, -0.056406062096357346, -0.12432454526424408, -0.0004967757849954069, -0.09345447272062302, -0.10090597718954086, 0.012460920959711075, -0.13709323108196259, -0.10779182612895966, -0.17927749454975128, 0.020710209384560585, 0.04958763346076012, 0.003232869552448392, -0.13008782267570496, 0.007641662377864122, 0.012819189578294754, 0.08431913703680038, 0.01826050691306591, 0.05032460018992424, -0.06395376473665237, 0.049839433282613754, -0.06365884840488434, 0.13515788316726685, 0.13549205660820007, 0.1120305061340332, -0.15977099537849426, 0.020767569541931152, 0.12918972969055176, 0.030556771904230118, -0.08262081444263458, -0.051334183663129807, -0.12623365223407745, -0.06139229238033295, 0.03498228266835213, -0.09254660457372665, 0.0610802099108696, -0.004774506203830242, 0.01800987310707569, -0.11965008825063705, 0.1284288614988327, 0.12348184734582901, -0.14065654575824738, -0.030813612043857574, -0.09815377742052078, 0.130273699760437, 0.13134807348251343, 0.08137302845716476, -0.0018130820244550705, -0.26032882928848267, -0.17903071641921997, -0.17528830468654633, 0.1079084724187851, -0.3418618440628052, 0.1189158484339714, 0.1406654268503189, -0.03665996342897415, 0.11549199372529984, -0.1532270610332489, -0.04061882197856903, -0.11005669087171555, 0.05432477593421936, 0.15467287600040436, 0.1106802225112915, -0.33144766092300415, 0.1460401564836502, 0.11567693948745728, 0.07261307537555695, 0.09099479764699936, -0.06613458693027496, 0.015799006447196007, 0.040800876915454865, 0.10423913598060608, 0.06760117411613464, 0.10763286799192429, -0.1317509263753891, 0.1476481407880783, 0.04032059758901596, 0.15890231728553772, -0.10345496982336044, 0.05227318033576012, -0.013194998726248741, 0.03348111733794212, -0.009595341049134731, -0.07270729541778564], [-0.10146968811750412, 0.10026883333921432, 0.005396568216383457, -0.14651407301425934, 0.1599530726671219, 0.11633752286434174, -0.09775904566049576, 0.161311537027359, 0.10704698413610458, 0.14495328068733215, 0.11852356046438217, 0.11316421627998352, -0.035848524421453476, 0.14675630629062653, -0.031032415106892586, 0.014596249908208847, -0.02956385537981987, -0.13830679655075073, 0.11458167433738708, 0.05036730319261551, -0.039963286370038986, 0.12001864612102509, 0.03320315480232239, -0.14475208520889282, -0.029631389304995537, -0.14394031465053558, 0.0642269030213356, 0.12011756747961044, 0.03649642691016197, 0.11832702159881592, -0.07749628275632858, -0.0844818726181984, -0.1203380674123764, 0.061750225722789764, -0.022371981292963028, -0.03099537082016468, -0.15894147753715515, 0.15358279645442963, 0.015487085096538067, 0.0840599462389946, 0.08082018792629242, 0.05604276433587074, -0.15179423987865448, -0.15615861117839813, 0.004272506106644869, 0.03166043758392334, -0.1107863336801529, 0.15543203055858612, -0.059196874499320984, 0.10650898516178131, 0.11508132517337799, -0.03857903182506561, 0.13101550936698914, -0.010259253904223442, -0.09721897542476654, 0.04527053236961365, 0.100335031747818, -0.026012584567070007, 0.22599099576473236, -0.12391266971826553, 0.05911358445882797, -0.08190687745809555, -0.07733670622110367, -0.017070189118385315, -0.03248671442270279, 0.08000043034553528, 0.06678649038076401, -0.11734902858734131, -0.07476919144392014, -0.06533560156822205, 0.15562313795089722, 0.0016181070823222399, -0.09109270572662354, -0.2096061259508133, 0.1341719776391983, -0.15774114429950714, -0.11524129658937454, 0.03210792690515518, -0.15364305675029755, 0.023206010460853577, 0.1602146476507187, 0.01954100839793682, 0.07403475791215897, 0.055847641080617905, 0.04947618767619133, 0.045675963163375854, 0.13718155026435852, -0.11597287654876709, -0.13240674138069153, 0.037615422159433365, 0.14902257919311523, 0.08791617304086685, -0.04333748668432236, 0.02765522710978985, -0.02471863478422165, 0.043517377227544785, 0.06710909307003021, -0.1341918408870697, 0.14442463219165802, 0.008349527604877949, 0.03350554779171944, -0.2605257034301758, -0.13321949541568756, -0.24626310169696808, -0.10126996040344238, 0.012657137587666512, -0.07421967387199402, -0.15002350509166718, -0.018121369183063507, -0.15807822346687317, 0.15646186470985413, -0.23363226652145386, 0.07758136093616486, -0.11885421723127365, -0.13143037259578705, -0.22291234135627747, -0.13982240855693817, -0.07834554463624954, -0.004715262446552515, -0.11574027687311172, 0.010256906971335411, 0.03282346576452255, -0.13230937719345093, -0.08193923532962799, 0.08346521854400635, 0.11088695377111435, 0.08415040373802185, -0.09201473742723465, 0.020697981119155884, -0.23286934196949005, -0.12545597553253174, -0.23774945735931396, -0.18883079290390015, -0.1263590008020401, -0.054878491908311844, 0.0896577462553978, -0.015647856518626213, 0.13145732879638672, 0.08014209568500519, -0.10145352780818939, 0.09728721529245377, 0.17938581109046936, 0.009166303090751171, -0.01762104220688343, 0.13238053023815155, -0.149944469332695, -0.06449473649263382, -0.07224996387958527, 0.13143478333950043, 0.17508089542388916, -0.20737726986408234, 0.046207062900066376, 0.24214990437030792, -0.03050452284514904, -0.1947917640209198, 0.09004184603691101, -0.11578990519046783, 0.059963975101709366, -0.035810936242341995, -0.09441809356212616, 0.12951284646987915, 0.10618414729833603, -0.03491160646080971, -0.11124135553836823, 0.13022005558013916, 0.06524884700775146, -0.14500178396701813, -0.0953892394900322, 0.020995108410716057, 0.018923358991742134, 0.08933155238628387, 0.03132961690425873, 0.19400468468666077, -0.09437558799982071, 0.11965297162532806, 0.07208793610334396, 0.11645185202360153, -0.05857449397444725, -0.20733708143234253, -0.048133138567209244, 0.15178416669368744, -0.10346245765686035, -0.033208202570676804, -0.04206413775682449, -0.13100484013557434, 0.031101124361157417, -0.10799968987703323, -0.01995631493628025, -0.14323276281356812, 0.13978947699069977, 0.056388650089502335, -0.04461434856057167, 0.0028005766216665506, -0.07981297373771667, -0.0036111732479184866, 0.14810891449451447, 0.05381513014435768, 0.0396365225315094, -0.13595791161060333, -0.13393250107765198, -0.1495407074689865, -0.13512198626995087, 0.0008328629191964865, -0.03320348262786865, 0.16655460000038147, -0.04167871177196503, 0.1780293881893158, -0.06821500509977341], [-0.07864030450582504, -0.015129434876143932, -0.008109780959784985, -0.16116298735141754, 0.004668075125664473, -0.06469965726137161, -0.20824135839939117, 0.15389685332775116, 0.19797366857528687, 0.0031542214564979076, 0.14052864909172058, 0.056723471730947495, 0.1443987786769867, 0.10917574167251587, -0.14904317259788513, 0.10074096918106079, -0.08514141291379929, -0.04467480257153511, 0.047556426376104355, -0.11505383998155594, -0.14472807943820953, 0.05457715690135956, -0.07988705486059189, -0.12142769992351532, 0.10317616164684296, -0.09014926105737686, -0.03214763477444649, -0.012939564883708954, -0.10539116710424423, 0.11453333497047424, 0.15637314319610596, 0.06858896464109421, 0.03638605400919914, -0.051558200269937515, 0.056982751935720444, -0.07591698318719864, -0.19420203566551208, -0.06336020678281784, 0.16732165217399597, -0.10561525076627731, -0.13960526883602142, -0.02183152176439762, -0.06647490710020065, 0.04462752491235733, 0.13022013008594513, 0.04537796601653099, 0.07639728486537933, -0.031707677990198135, 0.0030361127573996782, 0.14879567921161652, 0.027416851371526718, -0.06308503448963165, -0.13900530338287354, -0.13319113850593567, -0.03834807500243187, -0.11263579875230789, 0.08341097086668015, 0.028407419100403786, 0.047444216907024384, 0.02717636525630951, 0.10725343227386475, -0.00030483229784294963, 0.058657776564359665, -0.15822018682956696, -0.028535334393382072, 0.042711980640888214, -0.07820741087198257, -0.06386999040842056, -0.05038250982761383, -0.1414634883403778, 0.035103388130664825, 0.02164814993739128, -0.03578577935695648, -0.14583639800548553, 0.1589883416891098, -0.042657576501369476, -0.24287624657154083, -0.23052679002285004, -0.10342235118150711, -0.10468392074108124, -0.02792627550661564, 0.14932914078235626, -0.058632563799619675, 0.23509110510349274, 0.0053799268789589405, 0.13235725462436676, -0.15078838169574738, -0.1175868883728981, -0.08539069443941116, -0.08098198473453522, 0.0410691574215889, 0.07358062267303467, 0.09099797904491425, -0.14879144728183746, 0.10365385562181473, 0.010074027813971043, 0.07866425067186356, 0.1170194074511528, -0.12460698187351227, -0.14566655457019806, -0.05208360031247139, 0.03437332063913345, -0.09634730964899063, 0.04758887365460396, -0.040771301835775375, -0.013460418209433556, -0.14207276701927185, 0.06335686892271042, 0.03876768425107002, 0.03437553718686104, 0.01561610959470272, 0.07246347516775131, 0.02814446948468685, 0.11689490079879761, -0.06523086130619049, 0.01833205297589302, -0.010056046769022942, -0.10274305939674377, -0.11678549647331238, -0.12307016551494598, 0.12548787891864777, 0.024173177778720856, -0.10050546377897263, 0.12384843826293945, -0.10884715616703033, 0.030906356871128082, 0.01299540139734745, -0.07248618453741074, -0.02756338380277157, 0.026775481179356575, -0.06489527970552444, -0.2000005841255188, -0.19820259511470795, -0.20378223061561584, -0.042240943759679794, 0.14601081609725952, -0.05808771774172783, -0.10762544721364975, -0.027811357751488686, -0.07739797979593277, -0.062287427484989166, 0.17205768823623657, 0.125970721244812, 0.0022155947517603636, 0.14631973206996918, -0.19257259368896484, 0.061585932970047, -0.07996933907270432, 0.017273997887969017, 0.018504736945033073, -0.07841672003269196, 0.019779305905103683, 0.10512399673461914, 0.14759285748004913, -0.23945701122283936, 0.05934593081474304, 0.026299702003598213, -0.10156866908073425, -0.1471894383430481, -0.11509094387292862, -0.05111365765333176, 0.028594568371772766, 0.13363003730773926, 0.11870691925287247, -0.017496591433882713, -0.014355846680700779, -0.1437549740076065, -0.017478762194514275, 0.005456280894577503, 0.13905280828475952, 0.07541070133447647, -0.09914456307888031, -0.018624037504196167, -0.09020552039146423, 0.007969615049660206, 0.15046995878219604, 0.14089331030845642, 0.08003789186477661, -0.11782267689704895, -0.14276482164859772, 0.09281172603368759, -0.012290837243199348, 0.03142273798584938, -0.07723391801118851, 0.04845045879483223, -0.114501953125, 0.11066432297229767, -0.18721704185009003, -0.11184367537498474, -0.04331227391958237, 0.05371367558836937, 0.076780304312706, 0.08719828724861145, 0.010083340108394623, -0.10820217430591583, 0.11211032420396805, 0.12212669849395752, -0.0026285997591912746, -0.04354364797472954, 0.08205912262201309, -0.12536576390266418, -0.16396169364452362, -0.04494522511959076, 0.07979286462068558, 0.0732467770576477, 0.08021660149097443, 0.14857777953147888, -0.0028260154649615288], [0.03337594494223595, -0.06802530586719513, 0.1403106451034546, 0.011070323176681995, -0.07817650586366653, -0.148318812251091, -0.0411071702837944, 0.1422545164823532, -0.011048723012208939, 0.07289339601993561, 0.04700755327939987, 0.12974733114242554, -0.1130606085062027, 0.15233322978019714, -0.15770785510540009, 0.18852701783180237, -0.0447315089404583, 0.05513446405529976, -0.02062934823334217, 0.10860961675643921, -0.014002240262925625, 0.14234478771686554, -0.08963583409786224, 0.03891776129603386, 0.07794666290283203, 0.017341649159789085, -0.11023292690515518, -0.08056334406137466, 0.06551200151443481, 0.20723609626293182, 0.05450693890452385, -0.010901358909904957, 0.10704465210437775, 0.10572700947523117, -0.19753283262252808, 0.20875705778598785, -0.002949593821540475, -0.00865884404629469, 0.1221638023853302, 0.04171471670269966, -0.12229125946760178, 2.9451462978613563e-05, -0.07075505703687668, -0.02298281155526638, 0.11251257359981537, 0.09770439565181732, 0.03514661267399788, 0.06725404411554337, -0.10919705033302307, -0.1350586861371994, 0.031368836760520935, -0.123702771961689, 0.030567172914743423, -0.02089872770011425, 0.04581379517912865, -0.12283675372600555, -0.04894601181149483, 0.03459451347589493, -0.14666315913200378, -0.0217104721814394, 0.0005142884328961372, -0.09948564320802689, -0.03859266638755798, 0.09993846714496613, 0.09723341464996338, -0.16879841685295105, 0.06642698496580124, 0.017139632254838943, 0.08718320727348328, 0.14630503952503204, 0.06646152585744858, -0.010830922052264214, -0.021421121433377266, -0.15801164507865906, -0.06691046804189682, -0.03049354813992977, 0.14919288456439972, -0.026382118463516235, 0.06303767114877701, -0.017106840386986732, 0.06452947854995728, -0.10399061441421509, -0.15837930142879486, -0.269155353307724, 0.06796315312385559, -0.005001827608793974, -0.06850588321685791, -0.2008107602596283, 0.002498188056051731, -0.13179351389408112, 0.09119944274425507, 0.0009168944670818746, 0.08468321710824966, -0.14055907726287842, 0.09019457548856735, 0.0064667160622775555, -0.03340102359652519, -0.06777894496917725, 0.12470339983701706, -0.14350539445877075, 0.0832875519990921, 0.05668752267956734, -0.017415137961506844, -0.08741943538188934, 0.17585431039333344, -0.053912945091724396, 0.03301040455698967, -0.07570798695087433, -0.08064163476228714, 0.08382817357778549, -0.13255704939365387, 0.13889148831367493, -0.15546473860740662, 0.12410354614257812, -0.10058654844760895, 0.09805792570114136, -0.11768785864114761, -0.1407778412103653, -0.09250356256961823, -0.1370847523212433, 0.12455160170793533, 0.07783075422048569, 0.11312651634216309, -0.004986117593944073, -0.08338981121778488, -0.1223207488656044, 0.013928725384175777, 0.04756619408726692, 0.11448028683662415, 0.07298193126916885, 0.040409862995147705, 0.11998303979635239, -0.15713158249855042, 0.06851118057966232, -0.004623163491487503, -0.1510203629732132, -0.007812046445906162, -0.08798954635858536, 0.06535489857196808, -0.07987441122531891, 0.023820318281650543, 0.008724295534193516, 0.12887559831142426, 0.024854369461536407, 0.044669874012470245, 0.05479747802019119, -0.07264532893896103, -0.10185236483812332, 0.0907093733549118, -0.01526166032999754, -0.0010969166178256273, 0.2522343099117279, 0.12377062439918518, -0.09023576229810715, 0.04403312876820564, -0.14600490033626556, 0.004623463377356529, -0.14332391321659088, 0.03275502473115921, 0.1071876585483551, 0.014981633983552456, 0.11789090931415558, -0.061799466609954834, -0.026076052337884903, -0.0021803167182952166, -0.09766540676355362, -0.032093197107315063, -0.03841644152998924, -0.012551055289804935, -0.07224659621715546, 0.08530177175998688, 0.09614691138267517, -0.12377440184354782, -0.08345097303390503, 0.10434340685606003, -0.07695680856704712, -0.11223994195461273, 0.11115457862615585, 0.18298888206481934, -0.08961156755685806, 0.009655355475842953, 0.14150689542293549, -0.06070227548480034, -0.1324150413274765, 0.11457383632659912, -0.1284772753715515, -0.04987078905105591, -0.3002043664455414, -0.14346730709075928, 0.07911257445812225, 0.0023079272359609604, -0.12492496520280838, 0.01166357472538948, 0.09011337906122208, -0.030009450390934944, -0.1260337084531784, -0.0599634051322937, 0.05841111019253731, -0.05332088842988014, -0.024436121806502342, 0.06526701152324677, -0.04263946786522865, 0.006195080932229757, -0.0035940802190452814, -0.01007700152695179, 0.09496311098337173, -0.10362935811281204, -0.0464315190911293], [0.08855561912059784, -0.08567994087934494, -0.17713212966918945, -0.08885497599840164, -0.11933432519435883, -0.07582060992717743, -0.019209187477827072, -0.1343366950750351, -0.1433289498090744, -0.08395586162805557, -0.06515692919492722, 0.047465819865465164, -0.02380109764635563, 0.08671370148658752, 0.026130905374884605, -0.24347715079784393, 0.042761292308568954, -0.12616507709026337, -0.09837894141674042, -0.09570858627557755, 0.08933859318494797, -0.018796922639012337, 0.1179487556219101, -0.07028807699680328, -0.04551628977060318, -0.07155107706785202, -0.107072614133358, -0.13881057500839233, 0.10139695554971695, -0.10006078332662582, -0.1387559026479721, -0.1370677947998047, 0.09812992811203003, 0.03214079141616821, 0.08636582642793655, 0.1248331069946289, 0.11976709961891174, 0.02937234565615654, -0.15874776244163513, 0.2053234577178955, 0.11640872806310654, 0.14549590647220612, 0.14093467593193054, 0.16140586137771606, 0.040549136698246, -0.104282446205616, 0.0948389321565628, -0.09822376817464828, 0.1281873732805252, -0.06755552440881729, -0.0585714653134346, 0.0126157496124506, 0.07619169354438782, 0.09347784519195557, -0.1518976241350174, 0.04179034009575844, -0.030080601572990417, 0.09256808459758759, 0.0010407252702862024, 0.18795573711395264, 0.08501385152339935, 0.10861015319824219, -0.0972224548459053, 0.09192974865436554, 0.03278869017958641, 0.09164338558912277, -0.008818141184747219, -0.01228601485490799, -0.0018628836842253804, 0.031614892184734344, -0.09197401255369186, 0.04115509241819382, 0.1608985811471939, 0.19547338783740997, 0.06302779912948608, 0.14370901882648468, 0.09857180714607239, -0.19383646547794342, -0.039578575640916824, -0.12757734954357147, 0.10860811173915863, 0.13663744926452637, -0.0003149895928800106, 0.23987656831741333, 0.11925593763589859, 0.13322365283966064, -0.15647165477275848, 0.3331206142902374, -0.03621087595820427, 0.021685589104890823, 0.09614032506942749, 0.009554236195981503, 0.11833813786506653, -0.11252661794424057, -0.10384976118803024, 0.06188486889004707, 0.09513768553733826, -0.13337628543376923, -0.13325117528438568, 0.0825086161494255, 0.19161085784435272, -0.00931743998080492, 0.006587398704141378, 0.015563664957880974, 0.0018987699877470732, -0.03460853174328804, 0.05953322350978851, 0.04737956449389458, -0.19162319600582123, 0.046860381960868835, -0.11115819960832596, 0.06556674838066101, -0.07401663810014725, 0.025028973817825317, -0.005889232736080885, -0.16681507229804993, 0.040118154138326645, -0.13775210082530975, 0.10191228240728378, -0.020403655245900154, 0.01835901290178299, -0.12921541929244995, 0.05248848721385002, 0.045041773468256, -0.1580767184495926, -0.11835861206054688, -0.07753116637468338, 0.04112476482987404, 0.015967432409524918, 0.09412139654159546, 0.005472363904118538, 0.03099840320646763, -0.06289899349212646, -0.04866162687540054, -0.08186466991901398, -0.11103281378746033, 0.11590632796287537, -0.09755447506904602, 0.10475021600723267, 0.017187586054205894, -0.0036322714295238256, 0.1559227854013443, -0.005083254538476467, 0.056343454867601395, -0.1925792545080185, 0.11469019949436188, -0.1628425419330597, -0.08035571873188019, -0.05275074392557144, -0.16800019145011902, 0.07281384617090225, -0.009800245985388756, -0.1439242959022522, -0.11501284688711166, 0.1532038003206253, 0.22642077505588531, 0.14473837614059448, 0.08003253489732742, -0.06504473090171814, -0.07620757818222046, -0.0422518327832222, 0.11068760603666306, -0.007016110699623823, 0.11822418868541718, 0.05550260841846466, 0.12206681072711945, -0.03930407389998436, -0.10885147005319595, -0.09722363203763962, 0.031045816838741302, -0.012732609175145626, -0.07621622085571289, 0.241146057844162, -0.11063766479492188, -0.011789961718022823, 0.027309125289320946, 0.3320450782775879, 0.047265831381082535, -0.22882802784442902, 0.19029073417186737, -0.15219594538211823, -0.10265807062387466, -0.021599408239126205, -0.024926530197262764, -0.1260598748922348, -0.08286543935537338, 0.14510391652584076, 0.13905194401741028, 0.09031809866428375, -0.15073195099830627, 0.02250496856868267, -0.11656048893928528, 0.027776097878813744, -0.11671750992536545, -0.04978383705019951, 0.04596446081995964, 0.15388154983520508, -0.1149601861834526, 0.1272600293159485, 0.145865336060524, 0.07050221413373947, -0.09586245566606522, 0.054803505539894104, 0.08203400671482086, 0.06566774100065231, -0.019974343478679657, 0.013167659752070904, 0.028840288519859314], [-0.06645127385854721, 0.08414766192436218, 0.219758078455925, -0.019216742366552353, 0.1642369031906128, 0.13980184495449066, -0.011795961298048496, -0.08779603242874146, -0.06243949010968208, -0.04327434301376343, -0.10059326142072678, -0.023853829130530357, -0.05191785842180252, -0.13196492195129395, 0.06371994316577911, 0.15750953555107117, -0.1540742665529251, -0.03280026093125343, -0.11345085501670837, 0.06551871448755264, -0.11928875744342804, -0.0615944042801857, -0.0548117458820343, -0.05208657681941986, 0.11052997410297394, -0.008999958634376526, 0.026160091161727905, 0.024886637926101685, 0.07477975636720657, 0.19463393092155457, 0.05073152109980583, -0.028405098244547844, -0.11078949272632599, -0.043410785496234894, 0.12475230544805527, -0.15819375216960907, -0.14291974902153015, -0.0778365433216095, -0.03955338895320892, -0.18469515442848206, 0.03991146385669708, -0.09147348254919052, 0.07786330580711365, -0.17331016063690186, 0.03661078214645386, 0.051308196038007736, -0.10576508939266205, 0.035626694560050964, -0.08275588601827621, 0.05051955580711365, -0.0017422925448045135, -0.11525353044271469, 0.06274490058422089, -0.12457310408353806, 0.15053486824035645, 0.09314070641994476, 0.13168449699878693, 0.16657356917858124, 0.0822964459657669, 0.0069323135539889336, -0.10751913487911224, -0.06322844326496124, -0.11612312495708466, 0.026576651260256767, 0.05030785873532295, 0.10689260810613632, -0.06013864278793335, 0.0020010194275528193, 0.08652982115745544, -0.12488755583763123, -0.08788847923278809, 0.11916791647672653, -0.10453056544065475, -0.09215637296438217, 0.06366263329982758, -0.19997619092464447, 0.02534717693924904, 0.06074533984065056, 0.14795377850532532, -0.05359572544693947, 0.02561040408909321, 0.1008693277835846, -0.028037237003445625, -0.08693644404411316, 0.07394804060459137, -0.112381711602211, -0.04213327169418335, -0.29768821597099304, -0.03323601558804512, 0.05492255091667175, 0.043218206614255905, -0.12189082056283951, 0.14526918530464172, 0.1543533354997635, 0.042433008551597595, -0.05493064969778061, 0.0522686243057251, -0.12035521864891052, -0.12659363448619843, -0.1476287841796875, 0.05807330831885338, 0.07901088148355484, 0.0052657900378108025, -0.01230936124920845, -0.09300492703914642, -0.03596513718366623, 0.038002923130989075, 0.060094717890024185, 0.12489651143550873, -0.06037762016057968, 0.04323849454522133, 0.193913534283638, -0.0699625164270401, -0.1387288123369217, -0.15679705142974854, -0.016414331272244453, 0.10016465187072754, 0.04127436876296997, 0.006799123715609312, 0.15710663795471191, -0.050498396158218384, 0.062372785061597824, -0.1574125736951828, 0.12534458935260773, 0.10598646849393845, 0.05520264059305191, -0.14800602197647095, -0.10352374613285065, -0.033550459891557693, 0.028815679252147675, -0.22995208203792572, -0.13996621966362, 0.031579598784446716, 0.05106314644217491, 0.0630873590707779, -0.14111097157001495, 0.13793128728866577, 0.15122269093990326, -0.0669175237417221, -0.023462073877453804, 0.03767143562436104, -0.12262182682752609, -0.020718155428767204, 0.07173993438482285, 0.12846094369888306, -0.14996033906936646, 0.030035892501473427, -0.1286708414554596, -0.16850607097148895, 0.028798462823033333, 0.013044141232967377, 0.06914733350276947, 0.0496906116604805, 0.0748654305934906, -0.16432218253612518, -0.25619399547576904, 0.12314565479755402, -0.062254033982753754, 0.026301860809326172, 0.16266991198062897, 0.0585860013961792, -0.10195823758840561, -0.13465546071529388, -0.04948265850543976, 0.04162222146987915, -0.059123244136571884, 0.10865715891122818, 0.15681461989879608, 0.01633344776928425, 0.13255342841148376, -0.14129970967769623, 0.1494157463312149, 0.025072241201996803, -0.13489757478237152, 0.10616063326597214, 0.033117979764938354, -0.035074520856142044, -0.021131698042154312, 0.0548265278339386, -0.10818160325288773, 0.08242017775774002, -0.01440115924924612, -0.10185045003890991, 0.0643068328499794, -0.08935513347387314, -0.1026199534535408, -0.09295234084129333, -0.3443530201911926, -0.1181187629699707, 0.13160890340805054, -0.12436198443174362, -0.00791865773499012, -0.029877865687012672, -0.14607301354408264, 0.06082222983241081, -0.13687415421009064, 0.045320235192775726, 0.08802016079425812, -0.0977587178349495, -0.05290425196290016, -0.16080352663993835, 0.10576868802309036, 0.1323816031217575, 0.07763823121786118, 0.037888262420892715, 0.0005319137708283961, 0.09970974177122116, 0.09644331783056259], [0.09024372696876526, -0.21912339329719543, 0.13169355690479279, -0.1743844449520111, 0.1095782220363617, -0.12926989793777466, -0.218424454331398, -0.030334828421473503, 0.0669354796409607, -0.03730330616235733, -0.18554219603538513, 0.1285286396741867, -0.12470623850822449, 0.02944302186369896, -0.14393126964569092, 0.03434889018535614, 0.10711758583784103, -0.06908877938985825, -0.0433373749256134, 0.11600904911756516, 0.08194411545991898, 0.03184732794761658, 0.03807449713349342, 0.1393888145685196, -0.03134585916996002, -0.06885453313589096, 0.0815105214715004, 0.11809059977531433, 0.06868812441825867, 0.25810155272483826, 0.06585485488176346, -0.12597638368606567, 0.07148214429616928, -0.13099826872348785, 0.27000942826271057, -0.24783697724342346, -0.12415499240159988, -0.02276083268225193, 0.332642525434494, -0.13318607211112976, -0.11892281472682953, -0.0390474908053875, -0.0086951470002532, 0.09687815606594086, 0.12931369245052338, -0.12651072442531586, -0.016270343214273453, 0.037231456488370895, -0.12135642021894455, 0.13711942732334137, 0.025084620341658592, -0.15755203366279602, 0.014082001522183418, -0.09284834563732147, 0.1448121964931488, 0.041786666959524155, -0.13060280680656433, -0.030268166214227676, 0.13438081741333008, -0.07769537717103958, -0.1867683231830597, 0.010328547097742558, -0.05233585089445114, -0.002442275872454047, 0.1337878257036209, 0.002921579172834754, 0.08139826357364655, -0.00461841095238924, 0.12681156396865845, 0.006310910452157259, 0.07195642590522766, 0.024634674191474915, 0.2666681706905365, -0.07520651817321777, 0.0497591532766819, 0.07750211656093597, -0.19186562299728394, 0.1232910081744194, -0.07646545767784119, -0.0764073058962822, -0.0816941037774086, -0.012121283449232578, 0.18342141807079315, -0.12034602463245392, -0.15589489042758942, -0.157208651304245, 0.07423949241638184, -0.15099109709262848, 0.14354825019836426, -0.10658934712409973, -0.1043962761759758, 0.028220634907484055, 0.0920514166355133, 0.03274287283420563, 0.0796811580657959, 0.15409353375434875, 0.08404527604579926, 0.1055503711104393, 0.0012747031869366765, -0.0014100739499554038, -0.19470931589603424, -0.17161031067371368, -0.1868954598903656, 0.09319551289081573, 0.015538851730525494, -0.045989397913217545, -0.10268094390630722, -0.10489436984062195, -0.07491481304168701, 0.10251975059509277, 0.16056177020072937, 0.10996585339307785, 0.05897681787610054, -0.09028981626033783, 0.09927251189947128, 0.011741259135305882, -0.117836132645607, -0.011914706788957119, -0.036258991807699203, 0.14194341003894806, 0.1331789493560791, 0.002985613653436303, -0.11697045713663101, -0.008372013457119465, -0.059253543615341187, 0.016973203048110008, 0.11759715527296066, 0.0562942773103714, -0.12301171571016312, -0.11777523159980774, -0.051752131432294846, 0.03299493342638016, -0.059026796370744705, -0.09642989933490753, -0.17907239496707916, 0.12120836973190308, 0.0023748574312776327, 0.11169540882110596, 0.10576555132865906, 0.011628490872681141, -0.2777077853679657, -0.015117685310542583, 0.195356547832489, 0.12495096027851105, 0.22310499846935272, -0.05679388344287872, 0.0599062442779541, -0.16114138066768646, -0.020253796130418777, -0.018099620938301086, -0.06329319626092911, -0.43035516142845154, 0.2634110152721405, 0.11773934215307236, -0.4237372875213623, 0.05461463704705238, -0.10859182476997375, -0.15540684759616852, -0.08402930200099945, -0.14253485202789307, -0.004836589097976685, 0.043710969388484955, -0.03974497690796852, -0.12507109344005585, -0.04432521015405655, 0.054998867213726044, 0.1325041800737381, 0.06022653728723526, 0.05273829400539398, -0.061356935650110245, 0.04271223023533821, 0.1479048728942871, 0.13834722340106964, 0.11002004891633987, -0.028121793642640114, 0.11302229017019272, 0.14921851456165314, 0.010356551967561245, -0.2596087157726288, -0.016748003661632538, 0.09499988704919815, 0.0525248683989048, -0.016217531636357307, 0.22570471465587616, -0.016014782711863518, -0.013556568883359432, -0.05540633946657181, 0.2691516578197479, 0.07078087329864502, -0.14745715260505676, 0.147563636302948, 0.00832692813128233, 0.037573933601379395, -0.1353418529033661, 0.01489869225770235, -0.1367635428905487, -0.07508139312267303, -0.059968817979097366, -0.08064283430576324, -0.1132378876209259, -0.0768895149230957, -0.22090470790863037, -0.07431357353925705, -0.06808469444513321, 0.1847587674856186, 0.06827548146247864, 0.20906591415405273, 0.0655960962176323], [0.12192690372467041, 0.14865253865718842, -0.2596034109592438, 0.05335041135549545, -0.031951017677783966, -0.009376363828778267, 0.08538677543401718, -0.05424380302429199, -0.08853498846292496, 0.03250805661082268, 0.17046555876731873, -0.17986945807933807, -0.028550656512379646, 0.08769960701465607, 0.0037775475066155195, -0.15578265488147736, -0.018942590802907944, 0.08062334358692169, 0.1155598908662796, 0.05326369032263756, 0.12771184742450714, 0.057902030646800995, -0.0925387293100357, -0.028555048629641533, -0.0635739341378212, -0.0335991233587265, 0.11998124420642853, -0.14362607896327972, 0.09271256625652313, 0.050068438053131104, 0.04509506747126579, -0.2287161499261856, 0.06891638785600662, 0.003427902003750205, -0.12018446624279022, -0.07932371646165848, 0.18954624235630035, 0.10025879740715027, -0.016494350507855415, 0.04351356253027916, 0.04593481868505478, -0.1300879418849945, -0.06335611641407013, -0.09435059130191803, 0.06680522859096527, -0.08213766664266586, -0.03344667702913284, -0.14380089938640594, 0.13861119747161865, -0.02142658270895481, 0.10795566439628601, 0.0049835811369121075, 0.03266345337033272, -0.01682935282588005, 0.09982448816299438, -0.008876473642885685, -0.011382406577467918, -0.12718556821346283, -0.09724661707878113, -0.03915046900510788, -0.06459959596395493, 0.07909614592790604, -0.06830225139856339, 0.14899642765522003, -0.06892997026443481, -0.1399373859167099, 0.046030353754758835, 0.20510035753250122, -0.128289595246315, -0.15278106927871704, -0.20167949795722961, -0.14259502291679382, 0.031295761466026306, 0.1959708034992218, -0.08837240189313889, 0.16300471127033234, -0.11545559018850327, -0.018292395398020744, 0.026175158098340034, 0.0369829460978508, 0.04322177171707153, -0.1275937259197235, -0.0708494558930397, 0.1582951843738556, -0.14175553619861603, 0.015373512171208858, 0.018520010635256767, 0.03426841273903847, 0.07008933275938034, 0.1077083945274353, -0.0887606143951416, -0.0204186849296093, -0.1170819029211998, -0.020356524735689163, -0.008423080667853355, 0.1444610208272934, -0.09587851911783218, 0.03491239994764328, 0.08550581336021423, 0.08038299530744553, 0.1598900854587555, 0.026890825480222702, -0.1370496302843094, -0.08499894291162491, 0.10027367621660233, -0.015902407467365265, -0.03373676910996437, 0.0010156510397791862, -0.047414395958185196, 0.10563971102237701, -0.08605235815048218, -0.2008911818265915, -0.026122651994228363, -0.0020175387617200613, 0.15105783939361572, -0.12392619997262955, 0.0973556712269783, -0.002491071354597807, 0.005444205366075039, -0.06120971590280533, 0.06539466232061386, 0.15854816138744354, -0.03157510980963707, 0.0139559805393219, 0.13954629004001617, 0.046953506767749786, -0.026352548971772194, -0.14714571833610535, 0.1787112057209015, 0.040668003261089325, 0.19705812633037567, 0.06731722503900528, -0.055128131061792374, 0.05304596200585365, 0.1551775485277176, -0.13699498772621155, 0.018221311271190643, -0.11833859980106354, 0.08091144263744354, 0.01997523568570614, -0.01972052827477455, 0.08790555596351624, -0.062296971678733826, 0.028389519080519676, -0.204721599817276, -0.10800251364707947, -0.009570655412971973, -0.02042379416525364, 0.001536702737212181, 0.11384153366088867, -0.11702991276979446, -0.054601795971393585, -0.12558791041374207, -0.12325535714626312, 0.14744047820568085, 0.22746896743774414, -0.01893509551882744, -0.1137123629450798, -0.044338345527648926, -0.21749919652938843, -0.1313912719488144, -0.027749599888920784, -0.1164899617433548, 0.06116243451833725, 0.0005317162722349167, 0.11638779193162918, 0.07583308964967728, 0.00718630850315094, -0.013380125164985657, -0.0437459833920002, -0.11662207543849945, -0.12372555583715439, 0.239322230219841, -0.05248061195015907, 0.07946152240037918, -0.20982196927070618, 0.24522660672664642, 0.12195068597793579, -0.1186864823102951, 0.13598588109016418, -0.039454326033592224, 0.011467937380075455, 0.027387388050556183, -0.017354575917124748, 0.10157234221696854, 0.031155066564679146, -0.0984906479716301, 0.3629201054573059, -0.14384381473064423, 0.08026352524757385, 0.08086198568344116, 0.08362281322479248, 0.07174694538116455, 0.14470374584197998, 0.012118443846702576, -0.06564587354660034, -0.13818387687206268, 0.05638391897082329, 0.07379598170518875, 0.060915201902389526, 0.026031633839011192, -0.1215427815914154, -0.004561827518045902, 0.08514390140771866, -0.07708481699228287, 0.07241536676883698, 0.05889345332980156, 0.08230124413967133], [0.0666278526186943, 0.1551804542541504, 0.1665836125612259, -0.16874456405639648, 0.08934426307678223, 0.06294969469308853, -0.047705721110105515, 0.08311336487531662, 0.03133672475814819, -0.08929819613695145, -0.09284504503011703, -0.05307967960834503, 0.055774446576833725, -0.07745647430419922, -0.013787941075861454, 0.0007161324028857052, -0.04053698480129242, 0.09076513350009918, 0.08559923619031906, -0.1510438770055771, -0.1197345033288002, -0.09598580002784729, -0.05993024259805679, -0.12508271634578705, -0.13637757301330566, -0.0842670351266861, -0.026729701086878777, 0.15178772807121277, -0.05630335956811905, 0.14959834516048431, -0.0762873962521553, 0.16058208048343658, -0.017017874866724014, 0.01941286027431488, 0.032033324241638184, 0.06480694562196732, 0.025594552978873253, -0.06836846470832825, 0.25469496846199036, 0.053630124777555466, -0.12984654307365417, -0.08262721449136734, -0.10856562852859497, -0.023907523602247238, -0.07986108958721161, -0.1258319467306137, 0.05474977567791939, 0.0014927121810615063, 0.09100385010242462, 0.03819699585437775, -0.06966572999954224, -0.13309676945209503, -0.05183427035808563, -0.12091843038797379, -0.07408171147108078, -0.12976916134357452, 0.07615184783935547, 0.19231446087360382, 0.02619062177836895, -0.11097691208124161, 0.05248401686549187, -0.05011295527219772, -0.13075131177902222, -0.00010043024667538702, -0.12746082246303558, 0.08019144088029861, -0.08446469902992249, -0.011231639422476292, -0.08399088680744171, 0.11372470110654831, 0.08509835600852966, -0.027670377865433693, 0.07071050256490707, -0.03489614650607109, 0.01526357140392065, 0.00948356930166483, 0.0012112316908314824, -0.12778012454509735, -0.10726144909858704, -0.009484385140240192, -0.12890687584877014, -0.022961996495723724, 0.135380357503891, 0.2245742231607437, -0.052411679178476334, -0.13736779987812042, -0.1101977601647377, 0.03566815331578255, 0.11766699701547623, 0.012023692019283772, 0.04588371515274048, -0.12231578677892685, -0.05584394931793213, 0.0653364434838295, -0.009962430223822594, 0.12128858268260956, 0.139309361577034, 0.03271326795220375, 0.00280909426510334, 0.15102975070476532, 0.04785798862576485, -0.10949311405420303, 0.054536063224077225, -0.1025574803352356, -0.15483227372169495, 0.0569818913936615, -0.17321591079235077, -0.13921745121479034, 0.01944124512374401, -0.14512643218040466, 0.13058604300022125, -0.2131260335445404, 0.06842684000730515, 0.09221574664115906, 0.059137552976608276, -0.14775414764881134, -0.07751890271902084, -0.11641277372837067, -0.0860709547996521, -0.12095761299133301, 0.10358764976263046, -0.15745186805725098, -0.10955603420734406, 0.03678885102272034, -0.1256033033132553, -0.1356651782989502, -0.14938296377658844, -0.07535660266876221, -0.017598366364836693, -0.21579493582248688, -0.001103340880945325, -0.04631508141756058, 0.010652424767613411, -0.1155402883887291, -0.14847998321056366, -0.028383828699588776, 0.03691941499710083, -0.04066406190395355, -0.07029300183057785, 0.17419736087322235, 0.1440601795911789, 0.04721350222826004, 0.025927351787686348, -0.09417255967855453, 0.06370092928409576, -0.19626764953136444, 0.09442070871591568, 0.1063443198800087, 0.12840615212917328, 0.025618700310587883, -0.10119272023439407, -0.08356594294309616, 0.070712611079216, -0.022203829139471054, -0.0315253846347332, -0.14309662580490112, 0.023398658260703087, -0.031339649111032486, -0.1323689967393875, -0.0588802695274353, -0.09513136744499207, -0.06148939207196236, 0.07980237156152725, 0.10992739349603653, -0.08638840913772583, -0.12146002799272537, -0.03000793606042862, -0.11324538290500641, -0.09091503918170929, 0.07799588143825531, -0.10081909596920013, 0.09501776099205017, 0.1614108681678772, -0.04790171980857849, 0.011991537176072598, 0.04814185947179794, -0.006844369228929281, -0.08353183418512344, -0.10207748413085938, -0.14355359971523285, 0.179539293050766, -0.08483312278985977, 0.08331272751092911, -0.0327264629304409, 0.11135367304086685, 0.03283444419503212, 0.06571715325117111, -0.14535488188266754, 0.053591251373291016, 0.058530278503894806, -0.0027350489981472492, -0.014639762230217457, -0.027246804907917976, 0.03929059952497482, 0.0016062782378867269, 0.13912802934646606, 0.007815539836883545, 0.04836626723408699, 0.13024069368839264, -0.08325228095054626, -0.0912565141916275, 0.011467546224594116, 0.14893431961536407, -0.03326161950826645, -0.10129674524068832, 0.045231908559799194, -0.054170433431863785, 0.0019637462683022022], [0.057217810302972794, -0.014754218980669975, 0.038425151258707047, -0.03724263980984688, 0.016768652945756912, 0.03983863815665245, -0.22148142755031586, 0.0783141478896141, 0.018373889848589897, 0.06329448521137238, -0.006738071795552969, -0.03131794556975365, 0.02389214001595974, 0.08044201135635376, 0.03158760070800781, 0.12443619221448898, -0.102643683552742, 0.04144354537129402, -0.15614567697048187, 0.04047740250825882, 0.004784651566296816, -0.04553109034895897, -0.016070542857050896, -0.004116390831768513, -0.04607904702425003, 0.12170585989952087, 0.07405100762844086, 0.04791124537587166, -0.03922847658395767, 0.22635260224342346, 0.07397677004337311, 0.04216674342751503, 0.1172095462679863, 0.021459661424160004, -0.04993577301502228, -0.1804960072040558, 0.037426162511110306, 0.01574377529323101, 0.021449649706482887, -0.18886986374855042, -0.021401144564151764, 0.0186258926987648, 0.09576279670000076, 0.10657483339309692, 0.07775156199932098, 0.11830266565084457, -0.1393122673034668, 0.09870805591344833, 0.0278639979660511, 0.03799912706017494, -0.12176578491926193, -0.11288874596357346, -0.14271020889282227, -0.1340680867433548, 0.009369767270982265, 0.07891859859228134, -0.0608089379966259, -0.07626023143529892, 0.2058880478143692, -0.03298572450876236, -0.12255322188138962, -0.0824221670627594, -0.07951068133115768, 0.1495966613292694, -0.0767902210354805, 0.0572226345539093, -0.04644814878702164, 0.017082814127206802, -0.034001510590314865, -0.019785156473517418, -0.08516819030046463, -0.07437159866094589, 0.015471384860575199, -0.1671423465013504, -0.10466929525136948, -0.0840601995587349, -0.22518274188041687, 0.10580594092607498, 0.08714757859706879, 0.10670175403356552, 0.01422860100865364, -0.00921826995909214, 0.02430269867181778, -0.16009852290153503, 0.13333620131015778, -0.14373056590557098, 0.09425490349531174, -0.18052548170089722, 0.0821809396147728, -0.056676462292671204, -0.13263238966464996, 0.0035632862709462643, 0.01052026730030775, -0.019083639606833458, 0.12200351804494858, -0.06377127766609192, -0.05502680316567421, -0.020981743931770325, -0.08856762945652008, 0.06721895188093185, -0.14207647740840912, -0.18397420644760132, -0.07839968800544739, -0.002744140103459358, -0.06824015080928802, 0.18276871740818024, 0.09369205683469772, -0.15849894285202026, -0.08132071793079376, 0.11202098429203033, -0.058537501841783524, 0.20622983574867249, -0.13668295741081238, 0.08713794499635696, 0.056706443428993225, 0.016396012157201767, 0.08938624709844589, -0.02011232078075409, 0.10771403461694717, 0.12114972621202469, 0.1213049367070198, -0.0633208379149437, 0.003911025356501341, 0.10070079565048218, -0.10067641735076904, -0.06560669094324112, 0.018839813768863678, 0.11591807752847672, 0.08495784550905228, -0.10925643891096115, -0.11065295338630676, -0.09828641265630722, -0.13989116251468658, 0.1227254867553711, 0.08321013301610947, 0.012027136981487274, 0.05264934152364731, -0.0010965446708723903, 0.04767870903015137, 0.08602931350469589, -0.07978404313325882, 0.08743554353713989, -0.06136562302708626, 0.13181209564208984, 0.23111329972743988, -0.22852587699890137, 0.18706285953521729, -0.10655488818883896, -0.13023340702056885, -0.11661921441555023, -0.17515753209590912, -0.25594034790992737, 0.04002124071121216, -0.04117530211806297, -0.165993332862854, 0.053194042295217514, 0.009456455707550049, -0.04819417744874954, -0.0853395164012909, 0.03511101379990578, 0.11628066003322601, -0.1321115791797638, 0.1294012814760208, 0.04918625205755234, 0.05061805620789528, 0.1187310740351677, -0.1465011090040207, 0.022487251088023186, -0.0026834900490939617, 0.061762820929288864, -0.07548762112855911, -0.11512576788663864, -0.08230998367071152, -0.056660812348127365, 0.14302009344100952, 0.19741305708885193, 0.06513597071170807, 0.05106267333030701, -0.14790067076683044, 0.06013407185673714, -0.02669028751552105, 0.11302211135625839, 0.06408926099538803, 0.11349347233772278, 0.13088946044445038, 0.03496108204126358, 0.024183133617043495, -0.02418876439332962, -0.07117343693971634, -0.1362902820110321, -0.11511721462011337, 0.11798210442066193, -0.10043209791183472, -0.02881462313234806, -0.049567002803087234, -0.12332936376333237, -0.01232619397342205, -0.07561061531305313, -0.03530522435903549, -0.07085469365119934, 0.03339897096157074, -0.09074404835700989, 0.027495110407471657, 0.004537021741271019, -0.0129578597843647, 0.18188326060771942, 0.059491753578186035, -0.026782093569636345], [0.17275483906269073, -0.031767841428518295, 0.07389765977859497, 0.027153244242072105, 0.1342262476682663, 0.012844228185713291, 0.004706401377916336, 0.06334283202886581, 0.012698511593043804, -0.017338281497359276, -0.1905464380979538, 0.02569422870874405, 0.02755328267812729, 0.03232142701745033, 0.15568728744983673, 0.00740471389144659, 0.08880558609962463, 0.08714385330677032, 0.0798824355006218, -0.14535747468471527, 0.1420375555753708, 0.10868290066719055, 0.14927458763122559, 0.01524688582867384, 0.11156604439020157, 0.02970747835934162, -0.09925533086061478, -0.08474715054035187, -0.12649835646152496, -0.0016525930259376764, 0.2245675027370453, 0.2224055975675583, 0.38641077280044556, 0.21866288781166077, -0.1981503665447235, 0.1941087394952774, -0.012991569936275482, 0.04888015240430832, -0.30084386467933655, -0.10015575587749481, -0.057422783225774765, -0.12592019140720367, -0.04296919330954552, -0.13898396492004395, 0.15587584674358368, 0.12240815162658691, -0.004877700004726648, 0.02687506563961506, -0.0951022207736969, 0.08116263151168823, 0.15783679485321045, 0.1550452560186386, -0.10140388458967209, -0.14501135051250458, 0.04650427773594856, -0.09214268624782562, -0.09905028343200684, 0.2139599323272705, 0.17510728538036346, 0.15374857187271118, 0.19736774265766144, 0.1158609464764595, 0.21523834764957428, -0.007812624797224998, -0.014615830034017563, 0.007627978455275297, 0.3097900450229645, -0.07069076597690582, -0.16841140389442444, 0.08728930354118347, -0.013265038840472698, -0.13572368025779724, 0.19385235011577606, -0.08681565523147583, -0.13294292986392975, 0.08421415090560913, 0.0853818953037262, 0.10320035368204117, 0.23875100910663605, 0.08464860171079636, -0.08685100823640823, -0.07723286747932434, 0.08330513536930084, -0.09400232881307602, 0.11510297656059265, -0.062428925186395645, 0.13394415378570557, -0.22176063060760498, -0.013661769218742847, -0.03156647831201553, 0.025865349918603897, 0.10005998611450195, -0.1030469611287117, 0.10145411640405655, -0.14445404708385468, -0.14750458300113678, 0.07023530453443527, 0.10148103535175323, -0.12295236438512802, 0.05310666561126709, -0.23703157901763916, 0.1259409338235855, -0.08191579580307007, 0.15686507523059845, 0.14966794848442078, 0.11571130901575089, -0.10623908042907715, -0.18865205347537994, 0.024409623816609383, 0.0004607374721672386, -0.1565106362104416, 0.07711426168680191, 0.023262150585651398, 0.0743570327758789, 0.09971205145120621, 0.1606069654226303, -0.010864106938242912, -0.07555227726697922, 0.07028663903474808, 0.0744527280330658, -0.006681128870695829, -0.09349923580884933, 0.14824292063713074, 0.026095813140273094, -0.08764350414276123, -0.0017005002591758966, 0.08366960287094116, -0.01216061506420374, 0.08105291426181793, 0.22696034610271454, 0.15130038559436798, 0.09050697088241577, 0.0525939017534256, 0.07348186522722244, 0.07667355984449387, -0.07170181721448898, 0.007616217713803053, 0.021684465929865837, -0.08132830262184143, 0.09778565913438797, 0.07009807229042053, 0.04271053522825241, 0.07572571933269501, -0.044216789305210114, -0.10290215164422989, -0.05851985141634941, 0.12357620894908905, 0.05832899361848831, -0.014628413133323193, -0.04539090767502785, 0.02701103314757347, 0.07573013007640839, -0.11568545550107956, -0.13810256123542786, 0.31988978385925293, 0.04243997856974602, -0.06286747753620148, -0.0809316337108612, 0.13043008744716644, 0.07307504117488861, -0.1255260705947876, 0.006199835799634457, -0.062239762395620346, -0.08545879274606705, 0.1515948623418808, -0.00621660565957427, -0.15580543875694275, -0.01899842731654644, -0.13781392574310303, 0.028397683054208755, -0.015124802477657795, 0.10534337908029556, -0.29783469438552856, 0.025964627042412758, -0.054726630449295044, 0.006636512465775013, -0.16269001364707947, -0.0877482146024704, 0.08140919357538223, -0.21836750209331512, 0.00020832064910791814, 0.07225780189037323, 0.2772371768951416, -0.1123756542801857, 0.047451455146074295, 0.101316437125206, -0.14084886014461517, -0.31379351019859314, 0.051310885697603226, 0.1483713537454605, 0.12366850674152374, 0.022852744907140732, 0.005024048499763012, 0.0520605705678463, 0.0076170265674591064, -0.08255790174007416, -0.12591136991977692, 0.13485729694366455, -0.1515158861875534, -0.10233663767576218, -0.051674734801054, 0.1151309385895729, 0.06716471910476685, 0.04856422543525696, -0.06264128535985947, 0.0769263356924057, -0.05401742085814476, -0.14158757030963898], [-0.14076492190361023, -0.03736518695950508, 0.28623756766319275, 0.09673231840133667, 0.07147085666656494, -0.14887532591819763, 0.06139397248625755, -0.03669917210936546, 0.16312070190906525, -0.14425897598266602, -0.11270783096551895, 0.22173772752285004, 0.09459098428487778, 0.15784898400306702, -0.038231782615184784, 0.13031795620918274, 0.10315511375665665, 0.05922836810350418, -0.0798024833202362, 0.062382664531469345, 0.037885066121816635, 0.08439138531684875, 0.09163239598274231, -0.04488217458128929, 0.01943895034492016, -0.04081302881240845, -0.10841439664363861, -0.06743813306093216, -0.05679074302315712, 0.24711352586746216, 0.11858079582452774, 0.057169150561094284, 0.061688847839832306, 0.17608682811260223, -0.046332769095897675, 0.06420069932937622, -0.15526068210601807, -0.1313292533159256, -0.09225403517484665, -0.14077457785606384, 0.12163208425045013, 0.1481815129518509, 0.10133139044046402, -0.09181541949510574, -0.011607245542109013, -0.016834501177072525, 0.05596762150526047, 0.10474912822246552, -0.05707939714193344, 0.12512356042861938, 0.11470545828342438, -0.12249639630317688, -0.04683373123407364, -0.0010308012133464217, 0.011700710281729698, -0.03318574279546738, -0.14856623113155365, 0.01103342603892088, 0.2687157988548279, -0.016785753890872, -0.07701441645622253, -0.078856460750103, -0.06112233176827431, 0.08693663030862808, 0.08764879405498505, 0.10846977680921555, -0.05062675103545189, -0.03527558967471123, 0.09492623805999756, -0.10362082719802856, -0.010742560029029846, -0.10229551047086716, -0.03611917048692703, -0.021581390872597694, -0.011838003993034363, -0.02915368229150772, 0.011768225580453873, -0.02493785321712494, -0.04069887846708298, 0.12994113564491272, -0.08989359438419342, 0.1521616280078888, -0.036952972412109375, -0.26209425926208496, 0.05416321009397507, -0.0247272290289402, 0.03031570091843605, -0.29508355259895325, 0.15203428268432617, 0.004011228680610657, -0.022996066138148308, 0.01558625977486372, -0.09823671728372574, 0.142944797873497, -0.08193927258253098, -0.05977484956383705, 0.141310915350914, -0.13927073776721954, -0.15006951987743378, 0.048862285912036896, 0.08035974204540253, -0.13488422334194183, 0.1331358402967453, -0.02983478456735611, -0.08098451048135757, -0.06753159314393997, 0.10598639398813248, -0.1103532463312149, -0.024054862558841705, 0.13968154788017273, -0.0034233124461025, 0.20195066928863525, 0.007338183932006359, 0.09744686633348465, 0.09130199253559113, -0.04692092910408974, -0.043755143880844116, -0.09246237576007843, 0.10544373095035553, -0.1024758368730545, -0.1474759727716446, -0.03847023472189903, 0.07582461088895798, 0.025130577385425568, 0.09441529214382172, -0.05275942012667656, 0.13086526095867157, -0.005370538681745529, -0.018595963716506958, -0.15228943526744843, 0.036353949457407, -0.18707910180091858, -0.020215127617120743, -0.07195629179477692, 0.12181135267019272, 0.014393550343811512, 0.039527516812086105, -0.0717630386352539, -0.03407732769846916, 0.010071874596178532, 0.057394303381443024, -9.775187209015712e-05, 0.040375567972660065, -0.09005943685770035, -0.08294598013162613, 0.08126673102378845, 0.17076757550239563, 0.14316682517528534, -0.036555271595716476, -0.06392388045787811, 0.201618492603302, 0.17035506665706635, -0.11610208451747894, 0.06569679081439972, 0.006917634978890419, -0.10888060927391052, -0.0726504772901535, 0.1458248645067215, 0.11282216012477875, 0.11346165090799332, 0.012111971154808998, 0.033264368772506714, 0.1212407723069191, -0.0462992899119854, 0.1273587942123413, -0.10563240200281143, 0.11084016412496567, 0.06060846149921417, 0.08072569966316223, -0.004276443272829056, 0.10258391499519348, 0.15537092089653015, -0.1947697103023529, -0.16384223103523254, -0.13939514756202698, -0.044912632554769516, -0.22162197530269623, 0.01399104855954647, 0.10540547966957092, -0.08984225988388062, 0.041409317404031754, -0.03721684589982033, 0.07030010223388672, -0.13466639816761017, 0.12590867280960083, -0.0422750748693943, -0.0998142659664154, -0.3143920302391052, -0.027877362444996834, -0.1284402459859848, 0.11867202073335648, -0.10538376867771149, -0.019730927422642708, -0.14301736652851105, 0.13749045133590698, -5.958432302577421e-05, -0.0675472691655159, -0.11745985597372055, -0.022357825189828873, 0.05926554277539253, 0.07039157301187515, 0.06697411835193634, 0.05444934964179993, -0.11728669703006744, -0.0798071101307869, 0.06614961475133896, 0.09599295258522034, 0.09740280359983444], [-0.15720535814762115, -0.15113325417041779, 0.16256172955036163, 0.034083977341651917, 0.06712288409471512, -0.06128309667110443, -0.1331203728914261, 0.18393853306770325, 0.2068224549293518, -0.00823160819709301, 0.10483523458242416, -0.04974504932761192, -0.14929139614105225, -0.032129690051078796, -0.04295264929533005, -0.05375025048851967, 0.053157731890678406, 0.015986882150173187, 0.0738985687494278, 0.0005866822320967913, -0.12120893597602844, -0.09885186702013016, -0.06191931664943695, -0.04421466961503029, 0.02990659698843956, 0.14507396519184113, -0.04922895133495331, 0.0014824155950918794, 0.14356082677841187, 0.2155783474445343, -0.06761252135038376, 0.11902249604463577, 0.09108684957027435, 0.07608542591333389, -0.051112473011016846, -0.14793820679187775, -0.13552740216255188, 0.0951806902885437, -0.06545600295066833, -0.0247490257024765, -0.01910695806145668, -0.07561969757080078, 0.05971375107765198, 0.013910180889070034, -0.12863266468048096, -0.037645138800144196, -0.0777258574962616, 0.14063088595867157, -0.059646859765052795, -0.06206801161170006, -0.13660545647144318, 0.109315425157547, -0.032768577337265015, 0.08667966723442078, 0.14179198443889618, -0.08950405567884445, -0.10781478136777878, 0.028577767312526703, 0.04963630437850952, 0.0037508029490709305, -0.1392732411623001, -0.02491946704685688, 0.004200799856334925, 0.15152153372764587, 0.09063950181007385, -0.021820805966854095, 0.039716433733701706, 0.028166750445961952, 0.13774818181991577, -0.04475300386548042, -0.08705904334783554, -0.1320635825395584, -0.11313039809465408, -0.025084754452109337, -0.16251441836357117, 0.004965631756931543, -0.1653507947921753, 0.03298825025558472, 0.08323202282190323, -0.08255039900541306, -0.011125888675451279, -0.023769034072756767, 0.0664677768945694, -0.1269523799419403, -0.04226326569914818, 0.1062193512916565, -0.12502214312553406, -0.2820705473423004, 0.14690427482128143, -0.0366470068693161, -0.07000446319580078, -0.06285206973552704, 0.15113559365272522, -0.09751754254102707, -0.10279283672571182, -0.09199652820825577, 0.06107400730252266, 0.1313612163066864, 0.00987365934997797, 0.12994083762168884, -0.09403686970472336, 0.022996462881565094, 0.15084615349769592, 0.05784928426146507, -0.10833518207073212, -0.03233665972948074, -0.1822923868894577, -0.08086298406124115, 0.05681346729397774, -0.072971411049366, -0.0874224305152893, 0.0598679780960083, -0.12395091354846954, -0.08634547889232635, 0.05973691865801811, -0.013926581479609013, 0.023670723661780357, 0.027756111696362495, 0.11869625002145767, -0.10146509855985641, 0.13853086531162262, 0.1111375167965889, -0.14355437457561493, -0.08874142169952393, -0.010301236063241959, 0.020631998777389526, -0.02966633066534996, -0.0780801847577095, 0.06922947615385056, -0.0018088645301759243, -0.03079959563910961, -0.13641808927059174, 0.0006186324753798544, -0.0403921864926815, -0.08530499041080475, -0.15651321411132812, -0.054312627762556076, 0.11741098016500473, -0.07739478349685669, 0.10629870742559433, -0.09397805482149124, -0.06466832756996155, -0.04488816857337952, 0.09803749620914459, 0.0035026180557906628, -0.13549953699111938, 0.0539209209382534, 0.14454033970832825, -0.1119944229722023, 0.027955157682299614, 0.0814487636089325, 0.24604758620262146, 0.021876366809010506, 0.07774565368890762, 0.050901494920253754, -0.13490211963653564, 0.11389202624559402, -0.0636826902627945, 0.11227518320083618, 0.2485441267490387, 0.0044815815053880215, -0.1265357881784439, 0.007182106375694275, -0.04807122424244881, -0.09093548357486725, -0.10787393152713776, -0.012525048106908798, 0.08134422451257706, 0.08006326854228973, -0.15300731360912323, -0.14909902215003967, -0.12095519155263901, -0.261227548122406, -0.09543664753437042, -0.13525530695915222, 0.018942221999168396, -0.18930824100971222, -0.027181873098015785, -0.06388406455516815, 0.0076425401493906975, 0.06706512719392776, -0.022394469007849693, 0.14899864792823792, -0.21642471849918365, 0.04429564252495766, 0.04384906589984894, -0.009093687869608402, -0.339237779378891, 0.1030479446053505, -0.047618888318538666, 0.1324073076248169, -0.06045832484960556, 0.1280232071876526, -0.06392091512680054, -0.1325865089893341, -0.12705758213996887, 0.1421077400445938, 0.08895810693502426, 0.027206186205148697, 0.06818623095750809, -0.006014456506818533, 0.09160078316926956, -0.09897568821907043, -0.0008130649221129715, 0.09581367671489716, 0.10849662125110626, 0.04789097607135773, 0.09836319088935852], [-0.021177588030695915, -0.14407970011234283, 0.06472103297710419, -0.07877086848020554, -0.20023104548454285, -0.0030366091523319483, -0.028645958751440048, 0.07229841500520706, -0.02190934494137764, 0.03343736752867699, 0.0005551584181375802, -0.15618330240249634, 0.03035033866763115, -0.14332425594329834, -0.0068527269177138805, 0.05023324862122536, 0.08262539654970169, 0.12195112556219101, 0.061194196343421936, 0.10998489707708359, -0.1361013799905777, 0.12860643863677979, -0.10230366885662079, 0.05325626954436302, 0.046505752950906754, 0.039334170520305634, 0.044498663395643234, -0.0025168887805193663, -0.16017666459083557, -0.05705169588327408, -0.10965075343847275, -0.20923148095607758, -0.03131507337093353, -0.15811128914356232, 0.0161578431725502, 0.02526223659515381, 0.16131630539894104, -0.1072540134191513, -0.07359541207551956, 0.18911756575107574, 0.048433613032102585, 0.04106196388602257, -0.022468475624918938, -0.1752505898475647, -0.07330537587404251, 0.10539834201335907, 0.016991108655929565, 0.011712710373103619, 0.12779948115348816, -0.08850796520709991, 0.014690034091472626, -0.019970590248703957, 0.07845260202884674, -0.1112995371222496, 0.15304739773273468, 0.0016235403018072248, 0.105814628303051, -0.197341650724411, -0.07297137379646301, 0.047828901559114456, 0.029192544519901276, 0.09720806777477264, -0.08695128560066223, 0.01451215147972107, 0.019140934571623802, 0.10343668609857559, 0.2469402253627777, 0.03202733024954796, 0.041775330901145935, 0.053775954991579056, -0.11064611375331879, -0.025447800755500793, 0.20552296936511993, 0.09923186898231506, -0.04756970331072807, -0.018278026953339577, -0.06374580413103104, 0.2035546898841858, 0.2369367629289627, 0.15596331655979156, 0.17216120660305023, 0.0576326884329319, 0.00029000971699133515, -0.21137581765651703, -0.11357139050960541, 0.025974903255701065, 0.06430871039628983, -0.14512105286121368, 0.007753797806799412, 0.017681855708360672, -0.1184811145067215, -0.13922534883022308, 0.042687397450208664, 0.06600269675254822, 0.12349104136228561, 0.009786062873899937, 0.017576618120074272, 0.07539445906877518, -0.08905168622732162, -0.024295829236507416, -0.00947608519345522, 0.0271823201328516, -0.08338551968336105, 0.20422063767910004, 0.07370322942733765, 0.17809158563613892, -0.04761708155274391, -0.050263043493032455, 0.15260863304138184, 0.04215121269226074, -0.11370596289634705, 0.3097561001777649, -0.008136704564094543, -0.08865882456302643, 0.07869619876146317, -0.04610243812203407, -0.05287745222449303, 0.03660714626312256, -0.03989794850349426, -0.036191266030073166, -0.11284241080284119, 0.06939415633678436, 0.06084604188799858, 0.12659034132957458, -0.0870642438530922, -0.1544199287891388, -0.11246230453252792, 0.11164489388465881, 0.13404028117656708, 0.11730065941810608, 0.0627494603395462, 0.05165845528244972, 0.13778263330459595, 0.241763174533844, 0.07331030070781708, -0.013680052943527699, -0.11608754098415375, 0.13713228702545166, -0.03231589123606682, 0.036413926631212234, 0.018133975565433502, -0.06760860979557037, 0.022648045793175697, -0.017607536166906357, -0.040182314813137054, 0.15841634571552277, -0.01000248733907938, 0.09285956621170044, 0.10778393596410751, 0.13609381020069122, 0.11195571720600128, -0.23696152865886688, 0.10331616550683975, 0.000824148824904114, 0.009818407706916332, -0.2706162929534912, -0.11239144206047058, 0.12875626981258392, 0.07151541858911514, 0.2825573682785034, 0.13139399886131287, 0.02738838456571102, -0.03128502517938614, 0.15112866461277008, 0.09424029290676117, 0.06694817543029785, -0.04802394285798073, -0.010808913968503475, -0.11748692393302917, -0.08785136789083481, -0.024836137890815735, -0.011159568093717098, -0.13023197650909424, -0.05859430134296417, 0.0029486215207725763, -0.18024000525474548, -0.15609070658683777, -0.08917313069105148, 0.020676836371421814, -0.160211980342865, 0.007715514395385981, -0.10667164623737335, 0.2479427605867386, -0.1230875700712204, 0.043769266456365585, 0.1497451663017273, 0.15052759647369385, -0.13391003012657166, 0.11927736550569534, 0.1185968741774559, 0.15438346564769745, -0.0749451145529747, -0.006537391804158688, 0.07258222252130508, -0.054748643189668655, -0.031050169840455055, -0.03718137368559837, 0.06894193589687347, 0.027040986344218254, 0.05480713024735451, -0.06044154614210129, 0.03583839163184166, -0.03559540957212448, -0.13930194079875946, 0.07284348458051682, 0.13507340848445892, -0.029785657301545143, -0.11613226681947708], [0.20746789872646332, -0.030234435573220253, -0.27006402611732483, 0.21443983912467957, -0.1422673910856247, 0.07702352851629257, 0.026229307055473328, -0.11314870417118073, -0.06063888594508171, -0.030878761783242226, -0.04410392418503761, -0.014334890991449356, -0.09662090241909027, -0.021881641820073128, -0.11764761805534363, 0.05030352249741554, -0.10416717827320099, 0.04707346856594086, -0.0010022582719102502, 0.13576136529445648, 0.06986924260854721, 0.05123399943113327, -0.08013924956321716, -0.07790301740169525, -0.12348116189241409, -0.14371560513973236, -0.11449608206748962, 0.1128663718700409, -0.05400210991501808, 0.10537341982126236, -0.10186425596475601, -0.18321430683135986, 0.008448638021945953, -0.10418743640184402, -0.08691442757844925, -0.03035733476281166, 0.11974168568849564, 0.010340492241084576, 0.10078397393226624, 0.07141255587339401, -0.09751265496015549, 0.025989970192313194, -0.14658232033252716, 0.09113054722547531, -0.017810791730880737, -0.04769308492541313, -0.1425517499446869, 0.09647046029567719, 0.12529894709587097, 0.02178976684808731, 0.14420640468597412, 0.13688461482524872, -0.13325682282447815, -0.009444114752113819, -0.10249022394418716, -0.13332033157348633, -0.058549221605062485, -0.2701825797557831, -0.15090344846248627, 0.001765996916219592, 0.11720665544271469, -0.07592734694480896, -0.08664588630199432, 0.030224772170186043, 0.01507958397269249, -0.01722589135169983, 0.01611318625509739, 0.04708923026919365, -0.11622875183820724, -0.02593294158577919, -0.05511509254574776, 0.1408478021621704, -0.033137883991003036, 0.09534934908151627, 0.029643824324011803, 0.19570782780647278, 0.07700791209936142, -0.05310053750872612, 0.0654807761311531, -0.05752992257475853, 0.12899526953697205, -0.15401577949523926, 0.19162142276763916, 0.10754169523715973, -0.05149255320429802, -0.06870099157094955, -0.0004897346952930093, 0.08932812511920929, -0.014772255904972553, -0.07416900247335434, -0.12581703066825867, 0.061392899602651596, 0.0795525312423706, -0.12791962921619415, 0.08421044051647186, 0.038108035922050476, -0.007646212819963694, 0.03875524923205376, -0.07785967737436295, -0.11195474117994308, 0.13170255720615387, -0.014582978561520576, -0.0842335894703865, 0.0317731536924839, 0.09360545128583908, 0.07190876454114914, 0.16969095170497894, 0.08592122793197632, -0.09730814397335052, -0.106184221804142, 0.02443004585802555, -0.09167419373989105, -0.07107292860746384, -0.02226053550839424, -0.0755692720413208, -0.07426540553569794, -0.04728648066520691, 0.10536226630210876, -0.09558162093162537, -0.08725783228874207, 0.13473521173000336, -0.12209433317184448, 0.04121826961636543, 0.040104225277900696, -0.13089631497859955, -0.1042972058057785, 0.06777311861515045, -0.10501857846975327, 0.10640553385019302, -0.024890104308724403, -0.005079280585050583, 0.08469168841838837, -0.014378194697201252, -0.019079390913248062, 0.06773441284894943, -0.09594389796257019, 0.08092942088842392, 0.03584802895784378, -0.00923523586243391, -0.1068773865699768, 0.09844258427619934, -0.09569944441318512, -0.05880647152662277, -0.02366817370057106, -0.24736279249191284, 0.038180697709321976, -0.09580104798078537, 0.10273697972297668, -0.026444939896464348, 0.04457780718803406, 0.12828141450881958, 0.024417787790298462, -0.18288901448249817, -0.09812288731336594, 0.06289786100387573, 0.2784721553325653, 0.023427465930581093, -0.11254963278770447, 0.13393132388591766, -0.1357884556055069, -0.05294157937169075, -0.08140868693590164, -0.00506701460108161, 0.13626937568187714, -0.050509560853242874, 0.12980373203754425, -0.025722559541463852, 0.13136298954486847, -0.03292298689484596, -0.05159411579370499, 0.13313624262809753, 0.06878188252449036, -0.017566345632076263, -0.019240442663431168, -0.04982490465044975, -0.21846449375152588, 0.08620841056108475, -0.04093392938375473, 0.15275327861309052, 0.30077970027923584, 0.08936577290296555, 0.09556227177381516, -0.14646506309509277, 0.018409334123134613, -0.03487526252865791, 0.08461382240056992, -0.1558832973241806, 0.41652047634124756, 0.012043111957609653, 0.05954392999410629, -0.030649244785308838, -0.029800867661833763, 0.14210005104541779, -0.1330142319202423, 0.10785337537527084, -0.12242348492145538, -0.048488352447748184, -0.15460124611854553, -0.15869155526161194, 0.04484621062874794, 0.10237438976764679, 0.1454641968011856, -0.05450033023953438, 0.148355633020401, -0.10100874304771423, -0.06876681745052338, -0.15141236782073975, 0.13310979306697845], [0.03343263268470764, 0.1445303112268448, -0.08455751836299896, 0.27494171261787415, -0.013570311479270458, 0.2090310901403427, 0.18636390566825867, -0.13082996010780334, 0.10312623530626297, -0.1192181184887886, 0.014031581580638885, 0.10217747837305069, -0.01885688677430153, -0.14812950789928436, -0.13269446790218353, 0.04282234609127045, -0.13372504711151123, 0.09950891882181168, 0.06570140272378922, 0.13601559400558472, 0.08979126811027527, 0.13035865128040314, 0.04654020071029663, 0.05015190318226814, -0.027051130309700966, -0.0502246618270874, -0.12209777534008026, -0.052472587674856186, -0.039273474365472794, 0.016387704759836197, 0.031765345484018326, -0.09218721836805344, 0.301640123128891, 0.016408026218414307, -0.016896557062864304, 0.02445324882864952, -0.09986553341150284, 0.04061564803123474, -0.14698167145252228, -0.08385245501995087, -0.11349662393331528, 0.10321447253227234, 0.13330167531967163, 0.10491172224283218, 0.07907740771770477, -0.03653839975595474, 0.15691395103931427, 0.09988940507173538, 0.1343044638633728, -0.14620129764080048, -0.15315237641334534, 0.1561436653137207, 0.02008260414004326, 0.04481528326869011, 0.04892868548631668, -0.10816678404808044, -0.18435019254684448, -0.0161608699709177, 0.02016947977244854, 0.07913201302289963, 0.10919477790594101, -0.12154890596866608, 0.11546719074249268, 0.01923680305480957, 0.14023147523403168, 0.06319128721952438, -0.062365707010030746, -0.2013920694589615, 0.1646018773317337, 0.0210206750780344, 0.05665651708841324, -0.0325944647192955, 0.09204307198524475, -0.09242858737707138, -0.01893429458141327, -0.10878930240869522, 0.3130115866661072, 0.15264248847961426, -0.06464934349060059, 0.12602750957012177, -0.18081039190292358, 0.10394920408725739, -0.14766825735569, -0.25734859704971313, -0.03418958932161331, -0.10121861845254898, 0.049856558442115784, -0.006797274108976126, -0.15206782519817352, -0.06826209276914597, -0.024647125974297523, 0.08399523049592972, -0.054706964641809464, -0.0561353974044323, 0.1406935304403305, -0.062170106917619705, 0.02786494605243206, -0.0220619086176157, -0.07648484408855438, -0.07486993074417114, 0.1629037708044052, 0.16086211800575256, 0.1264377385377884, 0.13858427107334137, 0.3020860254764557, -0.040952932089567184, 0.2559069097042084, 0.07746467739343643, 0.2080024778842926, 0.09662862122058868, 0.0244322270154953, -0.02892214246094227, -0.07240290194749832, 0.14855487644672394, 0.02568667195737362, 0.20567448437213898, -0.011033737100660801, 0.04867168515920639, -0.047510698437690735, 0.005518477410078049, -0.15043000876903534, 0.0699770525097847, -0.11247649788856506, 0.02097080461680889, 0.025856075808405876, -0.02896237187087536, 0.1332094520330429, 0.11154556274414062, 0.06145879626274109, -0.05465351790189743, 0.1913089156150818, 0.2016206681728363, 0.18345195055007935, 0.17203351855278015, 0.0006349795730784535, -0.1242896020412445, 0.029414227232336998, 0.0232956875115633, -0.06919457763433456, -0.0424615740776062, -0.04768924042582512, -0.07814265042543411, 0.0383431501686573, 0.07102508842945099, -0.2600192427635193, 0.21924227476119995, -0.003144168062135577, 0.0832454189658165, -0.12066534906625748, -0.044455111026763916, 0.158852219581604, 0.225792795419693, -0.29955047369003296, -0.144972026348114, 0.19605089724063873, 0.11464842408895493, 0.03882516548037529, 0.06821276992559433, -0.10076022893190384, 0.06967366486787796, -0.14952030777931213, -0.15419460833072662, -0.06135481595993042, 0.055143699049949646, -0.06012478470802307, 0.014405588619410992, 0.034277793020009995, 0.09664739668369293, 0.13044488430023193, -0.13792085647583008, -0.012914050370454788, -0.07893052697181702, -0.2934269309043884, 0.07043532282114029, 0.06065734848380089, -0.10674047470092773, -0.23466335237026215, 0.04620656743645668, 0.2049737423658371, -0.07799965888261795, -0.1368497610092163, -0.06878684461116791, 0.08064992725849152, -0.13759812712669373, 0.14578519761562347, 0.05423407256603241, 0.0075797392055392265, -0.3103412091732025, 0.14756648242473602, 0.015333498828113079, -0.08473841100931168, -0.0038440595380961895, -0.0801362544298172, 0.01353540737181902, -0.023021768778562546, -0.14757663011550903, -0.08553329110145569, -0.07521513849496841, 0.09064941108226776, -0.1455659717321396, 0.08470002561807632, 0.18605969846248627, -0.13979597389698029, -0.0459468811750412, 0.0637613981962204, -0.012841430492699146, -0.0824999213218689, -0.11205456405878067], [0.012752915732562542, -0.14780426025390625, -0.05062303692102432, 0.14035578072071075, -0.20903033018112183, 0.16076649725437164, 0.06305024027824402, 0.006351941730827093, -0.24186159670352936, -0.046636734157800674, 0.09908685833215714, -0.024918746203184128, -0.04506425932049751, -0.1311476230621338, 0.014392528682947159, -0.10479666292667389, 0.15404728055000305, 0.10689620673656464, 0.058053188025951385, -0.13120050728321075, -0.02564847655594349, 0.1374482810497284, -0.02315676212310791, 0.032893650233745575, -0.10545232892036438, -0.028524573892354965, 0.027045035734772682, -0.1472296416759491, 0.05204583704471588, 0.026950551196932793, -0.07664284110069275, 0.007841209881007671, -0.13172702491283417, -0.004197167232632637, -0.0852002501487732, 0.1867418736219406, 0.08219502121210098, 0.07782901078462601, 0.001431107521057129, -0.019794190302491188, 0.09233707189559937, -0.09819860011339188, 0.15064381062984467, -0.0007960475631989539, 0.07007256150245667, 0.09548391401767731, 0.14980146288871765, 0.0026280698366463184, 0.01731094904243946, 0.08294845372438431, -0.07822921872138977, -0.09378889948129654, 0.015271037817001343, -0.11928584426641464, 0.02012602426111698, -0.15252196788787842, -0.0891508162021637, -0.17486119270324707, -0.023673253133893013, -0.02893383614718914, 0.1636098027229309, 0.004513000138103962, 0.14529579877853394, -0.07810626178979874, 0.009384924545884132, -0.09410621970891953, -0.041498906910419464, -0.07626819610595703, 0.07864192128181458, 0.07019210606813431, 0.0012180579360574484, -0.021644437685608864, 0.06493750959634781, 0.006959543563425541, 0.11669398099184036, -0.004778469447046518, 0.13660816848278046, -0.16736069321632385, 0.050939761102199554, 0.03415868431329727, -0.055165134370326996, -0.012765505351126194, 0.14089910686016083, 0.030513353645801544, 0.050005897879600525, 0.11172348260879517, 0.07502661645412445, 0.20690961182117462, -0.1538759022951126, -0.15738597512245178, 0.052928708493709564, 0.06660811603069305, 0.07978450506925583, 0.02966424822807312, 0.06650662422180176, 0.09812311083078384, 0.11536327004432678, -0.04016021266579628, 0.06278900802135468, 0.11772139370441437, 0.07390806823968887, -0.025894319638609886, -0.03171450272202492, -0.14648613333702087, 0.12262752652168274, -0.05881420895457268, -0.022198885679244995, 0.030838318169116974, 0.10532693564891815, -0.012283910065889359, -0.12022331357002258, -0.0776076689362526, -0.09683943539857864, 0.02206781506538391, -0.059459589421749115, 0.06029665097594261, -0.08380834013223648, 0.0757535919547081, -0.019503379240632057, 0.06138256564736366, 0.09815177321434021, 0.0021188019309192896, -0.11168668419122696, -0.12655766308307648, 0.013078417629003525, 0.12624725699424744, 0.11169588565826416, -0.011881583370268345, 0.13192960619926453, 0.20689700543880463, 0.09021031856536865, -0.04891786351799965, 0.13657844066619873, 0.06800294667482376, 0.1351463943719864, -0.10328715294599533, 0.10489057004451752, 0.06619793176651001, -0.11555161327123642, 0.11298394948244095, -0.13879959285259247, 0.0023831529542803764, 0.1282559335231781, 0.1440141350030899, -0.04194105789065361, 0.09277696162462234, -0.02940285950899124, 0.07783503085374832, -0.11206808686256409, -0.05967682972550392, -0.13408122956752777, -0.09120471030473709, -0.0937662199139595, 0.020481863990426064, 0.030657999217510223, 0.15098363161087036, -0.09722548723220825, 0.10547942668199539, -0.15242233872413635, -0.06013665348291397, -0.010000058449804783, -0.05901751294732094, -0.09869283437728882, 0.13513562083244324, 0.1532091647386551, 0.01998872309923172, -0.1197674423456192, -0.09185540676116943, -0.15689554810523987, 0.12151060253381729, -0.005282184109091759, -0.011537175625562668, 0.21716533601284027, 0.02191072329878807, 0.0948624238371849, -0.17357340455055237, 0.03932478278875351, 0.033167269080877304, -0.07260008156299591, 0.022218862548470497, -0.023996425792574883, -0.026356862857937813, -0.0025723788421601057, 0.031004495918750763, -0.0718897357583046, -0.10269956290721893, -0.06742177903652191, 0.008712606504559517, 0.10206067562103271, 0.025678003206849098, -0.07889463752508163, 0.012511155568063259, 0.08715800940990448, -0.03735039755702019, -0.08870212733745575, -0.09665943682193756, 0.11123162508010864, 0.13317376375198364, -0.03503758832812309, -0.01057776901870966, 0.12595470249652863, -0.029424183070659637, 0.07425989955663681, -0.0011689880630001426, 0.09235717356204987, -0.11786702275276184, -0.059618473052978516, 0.03103991225361824], [0.1008690595626831, -0.042435839772224426, -0.3059134781360626, 0.1890382468700409, -0.13232237100601196, 0.029899446293711662, 0.06975122541189194, -0.13522323966026306, -0.014287345111370087, 0.11313048750162125, 0.15590356290340424, -0.018193447962403297, -0.116797536611557, 0.14123544096946716, 0.08073558658361435, -0.10869725793600082, -0.12501494586467743, 0.0940345823764801, 0.009360075928270817, -0.05087282136082649, -0.032378967851400375, -0.052105505019426346, 0.039686642587184906, -0.03169787675142288, 0.0150863416492939, -0.0827128067612648, -0.12859614193439484, 0.12022999674081802, 0.03643253445625305, -0.16899316012859344, -0.16015367209911346, -0.07363522797822952, -0.05853875353932381, 0.08410797268152237, 0.07423011213541031, 0.028662024065852165, -0.049631889909505844, 0.018344702199101448, -0.21218129992485046, 0.013219908811151981, -0.013452580198645592, -0.12011385709047318, -0.03291197121143341, 0.21435222029685974, -0.11282052844762802, 0.010016790591180325, -0.027549609541893005, 0.1362643539905548, 0.03898945823311806, -0.10235682129859924, 0.06762389093637466, 0.15634573996067047, -0.13700127601623535, -0.09500731527805328, -0.0706024244427681, 0.011360428296029568, 0.165928915143013, -0.08805440366268158, -0.09361544996500015, 0.11357653141021729, 0.08850307017564774, 0.01892266795039177, 0.04310518503189087, 0.0986340120434761, 0.011849372647702694, 0.13428786396980286, 0.13805335760116577, -0.05455482378602028, 0.09417510777711868, -0.07683383673429489, 0.051574669778347015, -0.07867293059825897, -0.07253403961658478, 0.06983376294374466, 0.14334096014499664, -0.040402282029390335, 0.11033044755458832, 0.016950685530900955, 0.06797533482313156, -0.04403538629412651, 0.10984223335981369, 0.15646059811115265, 0.08041331171989441, 0.17357473075389862, 0.15725979208946228, 0.056468524038791656, -0.13117162883281708, 0.2072380930185318, -0.14344248175621033, -0.05867253988981247, 0.05828732252120972, -0.02205490507185459, 0.14063039422035217, 0.07970251142978668, 0.008920840919017792, 0.10714805871248245, -0.007676421664655209, 0.08915847539901733, -0.056482113897800446, 0.03830038011074066, 0.17643508315086365, -0.10139449685811996, -0.0939534455537796, -0.12565436959266663, -0.06448416411876678, -0.14104163646697998, 0.11450071632862091, 0.10667894780635834, -0.12271760404109955, 0.060886092483997345, -0.06899041682481766, -0.13880504667758942, -0.14741790294647217, -0.01333659142255783, 0.06865071505308151, -0.02226002886891365, 0.0376385897397995, 0.07268893718719482, -0.1240915060043335, 0.15335489809513092, -0.05009739100933075, -0.0020120118279010057, 0.013482674956321716, -0.02156221866607666, -0.012328692711889744, 0.14742891490459442, 0.033414576202631, -0.016441525891423225, 0.1120498925447464, -0.05884232372045517, 0.038171686232089996, 0.007599039934575558, 0.11238588392734528, 0.07015164196491241, 0.04010458290576935, -0.11419456452131271, 0.14049071073532104, 0.05221383273601532, -0.045125775039196014, 0.0033484469167888165, 0.12342571467161179, -0.047131672501564026, 0.11224361509084702, 0.022944074124097824, -0.18436084687709808, 0.1216893419623375, -0.22294577956199646, -0.031097259372472763, 0.12711885571479797, 0.1639411896467209, -0.014928254298865795, -0.06216420233249664, -0.01554533839225769, 0.05129676312208176, 0.12666723132133484, 0.10403000563383102, -0.14144879579544067, -0.08139891922473907, 0.02113710343837738, -0.12410219758749008, 0.04680083692073822, -0.01203069556504488, -0.14987073838710785, 0.11245102435350418, 0.027816982939839363, -0.11455661058425903, 0.019580112770199776, -0.12382379174232483, -0.005506401415914297, -0.02930140495300293, 0.08347479999065399, -0.12440101057291031, 0.10834385454654694, -0.028484107926487923, -0.12458929419517517, -0.1282217800617218, 0.2622116804122925, 0.11918777227401733, 0.024185173213481903, 0.1607249677181244, -0.13964346051216125, -0.140265092253685, -0.011698512360453606, -0.0008837053901515901, -0.13848872482776642, -0.057226501405239105, -0.06835650652647018, 0.31293660402297974, -0.06872033327817917, 0.0954432561993599, -0.08714691549539566, -0.07120553404092789, -0.07570865750312805, -0.11258786916732788, -0.07564347237348557, 0.14699259400367737, -0.15200218558311462, -0.09872467070817947, -0.01850982755422592, 0.04139088839292526, -0.10619741678237915, 0.05542851984500885, -0.06403590738773346, 0.02815178595483303, -0.06605057418346405, -0.10141150653362274, -0.11722493916749954, -0.043237436562776566], [-0.10360994189977646, -0.11109504848718643, 0.13942618668079376, 0.006979398895055056, -0.030658690258860588, 0.09583795070648193, -0.22785741090774536, 0.03188779205083847, 0.0767565593123436, -0.13069605827331543, -0.061369623988866806, 0.037958916276693344, 0.09427326172590256, 0.1586698293685913, -0.0031368837226182222, 0.10096651315689087, -0.07303357124328613, -0.07671546190977097, 0.14323408901691437, 0.02699131891131401, -0.015191012062132359, -0.02151690609753132, 0.12930899858474731, -0.048170629888772964, -0.03844517469406128, -0.13573668897151947, -0.023701122030615807, 0.13746602833271027, -0.03865998983383179, 0.11254630237817764, -0.07194457203149796, -0.04363656044006348, -0.1257983148097992, -0.07854515314102173, -0.11414376646280289, -0.03970782458782196, -0.2118963897228241, 0.13491256535053253, 0.06986655294895172, -0.0016961179208010435, 0.011285285465419292, -0.022613953799009323, 0.022262316197156906, 0.10425486415624619, -0.15068821609020233, 0.05065973475575447, -0.1507359892129898, -0.0413680262863636, 0.09988902509212494, 0.0362577810883522, -0.09600287675857544, -0.05278099700808525, -0.07086067646741867, 0.04554259777069092, 0.11516165733337402, -0.04236876964569092, -0.1188882514834404, 0.17536498606204987, -0.005927351303398609, -0.18117079138755798, -0.0821845605969429, 0.19228824973106384, 0.10587771981954575, 0.05725311487913132, 0.005869883578270674, 0.03721720352768898, -0.008960604667663574, -0.09396161139011383, -0.08212227374315262, -0.09697751700878143, -0.16870705783367157, 0.05459001660346985, -0.010011657141149044, -0.1394369900226593, -0.021182535216212273, -0.10196369141340256, -0.0490267388522625, -0.00032701599411666393, 0.10217072814702988, 0.1909962147474289, -0.15264791250228882, -0.14286984503269196, 0.11610879004001617, 0.029182588681578636, -0.09336503595113754, -0.033302564173936844, 0.0034815187100321054, -0.008535335771739483, -0.12940245866775513, -0.08650742471218109, 0.0897807776927948, -0.03438340872526169, 0.0756848081946373, -0.06838898360729218, -0.011239594779908657, -0.10014542192220688, 0.12697377800941467, -0.08343001455068588, 0.031447384506464005, -0.012096185237169266, -0.1565922498703003, -0.1413853019475937, 0.004324819892644882, -0.024483559653162956, 0.053496431559324265, -0.0895889550447464, 0.03400158882141113, 0.08457119762897491, 0.12361011654138565, -0.025567011907696724, 0.03420763462781906, 0.061877552419900894, 0.07671625167131424, -0.11171946674585342, -0.1573057919740677, 0.07406894117593765, 0.1395452320575714, -0.12252160906791687, -0.004626718815416098, -0.022244220599532127, 0.07076573371887207, 0.1276044398546219, 0.10814031958580017, 0.08574910461902618, -0.05956770479679108, 0.09970153123140335, -0.10835988074541092, 0.12479723989963531, 0.04673295095562935, -0.026303362101316452, -0.15955504775047302, -0.12349208444356918, -0.12015675008296967, 0.01800351031124592, -0.1374785602092743, -0.10704781860113144, -0.03141545504331589, -0.029170190915465355, -0.027802443131804466, -0.06733860075473785, -0.09039003401994705, 0.015889812260866165, 0.06535705924034119, 0.11530804634094238, -0.010738731361925602, -0.022493235766887665, 0.030635220929980278, 0.13495248556137085, -0.17706267535686493, 0.055397845804691315, 0.06983530521392822, 0.02329391986131668, 0.10716885328292847, 0.1100844219326973, 0.07869292050600052, 0.03361513093113899, 0.0621248334646225, 0.13385780155658722, -0.13352392613887787, 0.1545712649822235, -0.07933266460895538, 0.002176834037527442, -0.07273640483617783, 0.03638603165745735, -0.12025755643844604, -0.12782661616802216, 0.09628194570541382, 0.13290885090827942, 0.12409510463476181, -0.020177394151687622, 0.06306436657905579, 0.13610884547233582, -0.12387712299823761, -0.03097955510020256, 0.05648789182305336, -0.04153510555624962, -0.02328193560242653, -0.09043318033218384, 0.0321032851934433, -0.08730081468820572, 0.03828904777765274, 0.13465934991836548, 0.1405254304409027, 0.12262052297592163, 0.005134131759405136, 0.08992871642112732, -0.09749119728803635, -0.01370609924197197, 0.14595186710357666, 0.06424647569656372, -0.0347214974462986, 0.07507866621017456, -0.09362824261188507, 0.08131109923124313, -0.11906306445598602, 0.080739825963974, 0.04847347363829613, 0.024078350514173508, 0.04805195331573486, 0.007997775450348854, -0.04250900819897652, -0.052707966417074203, -0.07598631083965302, 0.15031518042087555, -0.07324476540088654, 0.10393153876066208, -0.049584731459617615, 0.03446407988667488], [0.26226750016212463, 0.13198858499526978, -0.25571155548095703, 0.04283187538385391, -0.12888970971107483, 0.04019385948777199, 0.13949957489967346, 0.10278546065092087, -0.03651603311300278, 0.0068305060267448425, 0.16147750616073608, -0.20777302980422974, 0.003671439131721854, 0.03769124671816826, 0.018029330298304558, -0.1126101091504097, -0.15522654354572296, -0.035838719457387924, 0.02129431627690792, 0.12726734578609467, -0.0065391333773732185, -0.02148079127073288, -0.05588259920477867, 0.026833614334464073, 0.1387808918952942, 0.04256599396467209, 0.006033764220774174, 0.03052591159939766, 0.032993383705616, -0.1193329244852066, -0.05124390870332718, -0.13159297406673431, 0.05991706624627113, -0.012687912210822105, -0.16473087668418884, 0.0606863833963871, 0.0693841427564621, 0.014126178808510303, 0.04371922090649605, 0.22975951433181763, 0.1073237806558609, 0.11332006752490997, 0.05657550320029259, 0.16071192920207977, 0.10717376321554184, 0.09366674721240997, 0.10636630654335022, -0.1268891990184784, -0.023972582072019577, 0.14042434096336365, -0.08563728630542755, -0.009042545221745968, -0.011075718328356743, -0.062360405921936035, 0.020207906141877174, -0.025554632768034935, 0.11439760029315948, -0.07024446129798889, -0.14966078102588654, -0.015223273076117039, 0.06679633259773254, -0.04850827902555466, 0.01535932905972004, 0.06021131947636604, 0.16200801730155945, 0.11598500609397888, 0.05940777435898781, 0.04507197067141533, -0.09442246705293655, -0.1839456707239151, 0.02921198308467865, -0.13995108008384705, 0.09149780124425888, 0.10926773399114609, 0.06386610120534897, -0.07231862097978592, -0.1623830497264862, -0.20506547391414642, -0.18354833126068115, -0.025439495220780373, 0.18565261363983154, -0.00416526198387146, 