{"iterations": 1000, "final_fidelity": 0.9970247264466124, "final_purity": -1, "optimized_trainable_parameters": {"initial_params": [[], [6.111917451806965, 2.7259593430458446, 4.306072436123419, 6.30640226532855, 1.7240521340281278, 2.5146342695568116, 3.5851238057477617, 1.7054918159844197, 1.6365231098108564, 3.864856988789411, 6.010626407154509, 5.067772875878074, 4.981546340195808, 1.1192127716910714, 2.344204195149228, 5.8466106631839665, 5.218484959495083, 2.2090679368862562, 4.797623141852699, 5.823692301996493, 0.31556435942240246, 3.030490137966179, 1.7194749653008563, 4.973147098793945, 2.1101587208352393, 5.761418510212814, 1.7378942656024712, 0.7489007037358073, 4.381961017000795, 4.635285321203252, 1.834755115792391, 3.3216093551417742, 2.1569030079629132, 4.789938531606016, 5.312061386977178, 2.4996043617231303, 2.7996143294807867, 0.6522975772936652, 4.35669758802777, 3.8665003488474325, 3.7692283670685587, 3.6303310113268448, 0.6207926218368923, 3.9328234495846273, 5.723220750518726, 3.722899579187097, 5.434779557779153, 4.0106792444627954, 2.5607915416242704, 3.6208438586059253, 1.4732495566829824, 6.027600351085779, 1.4745133273364592, 0.5026579935413034, 3.084843341081983, 2.5505854402911914, 2.6394871852329627, 0.26472527262643264, 5.125131961358871, 3.1984133774354113, 1.2927784007963434, 3.807930116904686, 5.209898929932947, 3.422109975546103, 2.0568678501276345, 5.806068990812478, -0.39375993151200933, 6.179189944945779, 5.769781522011337, 1.0422626648625077, 3.515745557286092, 5.765208561443068], [6.094363009698324, 1.980346031110394, 4.153791127233861, 6.229067048932181, 1.7751352004394012, 2.233601835029501, 3.3002877923679588, 2.0270080429275144, 0.3686831206784092, 3.864856988789411, 5.998718376191112, 5.270125085447247, 4.981546340195808, 1.1192127716910714, 2.344204195149228, 4.8330570839390745, 5.218484959495083, 2.2090679368862562, 4.797623141852699, 5.823692301996493, 0.31556435942240246, 3.030490137966179, 1.7194749653008563, 4.973147098793945, 2.1101587208352393, 5.761418510212814, 1.7378942656024712, 0.7489007037358073, 4.456599926224252, 4.691879038729621, 2.3886105832554008, 2.29713601226842, 2.258161719529259, 4.80035533176193, 5.280894609627821, 2.701561590392014, 1.9916554950935172, 0.6522975772936652, 3.7174330446199817, 4.025395429880456, 3.7692283670685587, 3.6303310113268448, 0.6207926218368923, 3.844441479341378, 5.723220750518726, 3.722899579187097, 5.434779557779153, 4.0106792444627954, 2.5607915416242704, 3.6208438586059253, 1.4732495566829824, 6.027600351085779, 1.4745133273364592, 0.5026579935413034, 3.084843341081983, 2.5505854402911914, 2.8747856376057754, 0.05932658899645032, 4.925228858701095, 3.671936945383406, 1.7285193729825767, 3.917877352620044, 5.354829688403799, 3.4221099749950374, 1.761416159209946, 5.784620527289228, 0.0007077399087626888, 6.180694055093325, 5.245667767192338, 1.3114847229744826, 4.644379254015441, 5.143584142402586], [0.08062436666431605, 0.923948835561414, 0.7339523451366718, 0.5794502442667795, 0.5976030059699919, 0.7000266287193331, 0.8056200973061387, 0.8894700350923472, 0.07627888141344874, 0.8728580575304441, 0.22663938029178654, 0.6564232100473297, 0.29224536994517436, 0.6596231091705356, 0.629365131022366, 0.4619819572813424, 0.8193514805281565, 0.6512831230341642, 0.9733046870263129, 0.9444505395292015, 0.9182082032288363, 0.5543627964382509, 0.7830599900634658, 0.6542280042611439, 0.7626502422760495, 0.9888408853930919, 0.6299959315030015, 0.9162851472155082, 0.706661011532282, 0.827052482249405, 0.4143085575562553, 0.301302335753453, 0.05760853211194594, 0.7207888384390386, 0.1923819370949056, 0.15724463390189425, 0.9167070879854895, 0.5428114841934542, 0.30390380628201474, 0.2765018768384566, 0.5833472829696598, 0.7757670168741624, 0.8151969697108865, 0.6730294070586214, 0.3425704284896489, 0.2816810660044804, 0.32252491583720855, 0.2149071806352678, 0.7559688675013756, 0.3074243349346728, 0.950506417112257, 0.8364326348445001, 0.9862761290834987, 0.1625085191882869, 0.5606424964766055, 0.1594550505153438, 0.4145701339543364, 0.06871425770856554, 0.5767713099864875, 0.185962538695982, 0.8177615934270606, 0.5290150682036481, 0.4916001550510516, 0.6132162644788453]], "rnn_params": {"params": {"Dense_0": {"bias": [3.1460371017456055, 3.1076347827911377, 3.1692798137664795, 3.1423935890197754, 3.251091480255127, 3.140589714050293, 3.0829858779907227, 3.209650754928589, 3.2367327213287354, 3.1415927410125732, 3.0434792041778564, 3.2342724800109863, 3.1415927410125732, 3.1415927410125732, 3.1415927410125732, 3.2069497108459473, 3.1415927410125732, 3.1415927410125732, 3.1415927410125732, 3.1415927410125732, 3.1415927410125732, 3.1415927410125732, 3.1415927410125732, 3.1415927410125732, 3.1415927410125732, 3.1415927410125732, 3.1415927410125732, 3.1415927410125732, 3.28623366355896, 3.1889336109161377, 3.1207404136657715, 3.1812281608581543, 3.1255111694335938, 3.1927456855773926, 3.178161382675171, 3.0600101947784424, 3.128610610961914, 3.1415927410125732, 3.2304255962371826, 3.1201038360595703, 3.1415927410125732, 3.1415927410125732, 3.1415927410125732, 3.230835437774658, 3.1415927410125732, 3.1415927410125732, 3.1415927410125732, 3.1415927410125732, 3.1415927410125732, 3.1415927410125732, 3.1415927410125732, 3.1415927410125732, 3.1415927410125732, 3.1415927410125732, 3.1415927410125732, 3.1415927410125732, 3.182971477508545, 3.2095279693603516, 3.2148513793945312, 3.1862783432006836, 3.190645217895508, 3.1969821453094482, 3.1957907676696777, 3.1415927410125732, 3.119013547897339, 3.1038925647735596, 3.1008198261260986, 3.1727216243743896, 3.1778807640075684, 3.1737799644470215, 3.1374595165252686, 3.1342265605926514, 3.022242307662964, 3.0222606658935547, 3.0465445518493652, 3.046581268310547, 3.097698450088501, 3.0559277534484863, 3.053147315979004, 3.049769163131714, 3.0291996002197266, 3.1415927410125732, 3.03474497795105, 3.0238442420959473, 3.1415927410125732, 3.1415927410125732, 3.1415927410125732, 2.9847705364227295, 3.1415927410125732, 3.1415927410125732, 3.1415927410125732, 3.1415927410125732, 3.1415927410125732, 3.1415927410125732, 3.1415927410125732, 3.1415927410125732, 3.1415927410125732, 3.1415927410125732, 3.1415927410125732, 3.1415927410125732, 3.155330181121826, 3.069876194000244, 3.237368583679199, 3.093001127243042, 3.05561900138855, 3.0327513217926025, 3.0342512130737305, 3.086906909942627, 3.050189256668091, 3.1415927410125732, 3.1769778728485107, 3.0509753227233887, 3.1415927410125732, 3.1415927410125732, 3.1415927410125732, 3.024348735809326, 3.1415927410125732, 3.1415927410125732, 3.1415927410125732, 3.1415927410125732, 3.1415927410125732, 3.1415927410125732, 3.1415927410125732, 3.1415927410125732, 3.1415927410125732, 3.1415927410125732, 3.1415927410125732, 3.1415927410125732, 3.0125937461853027, 3.0149788856506348, 3.0150015354156494, 3.014397144317627, 3.0246050357818604, 3.0250470638275146, 3.022111177444458, 3.1415927410125732, 3.1485581398010254, 3.1667580604553223, 3.171734094619751, 3.1134884357452393, 3.168905735015869, 3.1760103702545166, 3.1366629600524902, 3.1489624977111816, 3.159275770187378, 3.08549165725708, 3.081350326538086, 3.185089111328125, 3.1459903717041016, 2.9823508262634277, 3.106193780899048, 2.9994709491729736, 3.113654136657715, 3.1415927410125732, 2.9824135303497314, 3.115025520324707, 3.1415927410125732, 3.1415927410125732, 3.1415927410125732, 3.1894445419311523, 3.1415927410125732, 3.1415927410125732, 3.1415927410125732, 3.1415927410125732, 3.1415927410125732, 3.1415927410125732, 3.1415927410125732, 3.1415927410125732, 3.1415927410125732, 3.1415927410125732, 3.1415927410125732, 3.1415927410125732, 3.1977944374084473, 2.980975866317749, 2.960775852203369, 3.0971555709838867, 3.088261842727661, 3.1619040966033936, 3.193394899368286, 2.9837112426757812, 3.000767469406128, 3.1415927410125732, 3.0872962474823, 2.9505558013916016, 3.1415927410125732, 3.1415927410125732, 3.1415927410125732, 3.0418598651885986, 3.1415927410125732, 3.1415927410125732, 3.1415927410125732, 3.1415927410125732, 3.1415927410125732, 3.1415927410125732, 3.1415927410125732, 3.1415927410125732, 3.1415927410125732, 3.1415927410125732, 3.1415927410125732, 3.1415927410125732, 3.098165988922119, 3.099259614944458, 3.093588352203369, 3.100830554962158, 3.096001386642456, 3.1060924530029297, 3.1049270629882812, 3.1415927410125732], "kernel": [[-0.15608401596546173, -0.11844193935394287, 0.16207830607891083, -0.1176629364490509, 0.18962523341178894, 0.011987394653260708, -0.11171276867389679, 0.19986213743686676, -0.03241552412509918, -0.12196922302246094, -0.15950621664524078, 0.2276904582977295, 0.06906227767467499, 0.003314841538667679, -0.059839241206645966, 0.17382028698921204, -0.11067640036344528, 0.03344724699854851, -0.15226875245571136, 0.044100385159254074, -0.0452943816781044, 0.020017001777887344, -0.14598530530929565, -0.10254927724599838, -0.10453002154827118, -0.018412653356790543, 0.1523095667362213, -0.08039117604494095, 0.2701031267642975, 0.03803425282239914, 0.04836098477244377, 0.004328262526541948, -0.11122354865074158, -0.03723819926381111, 0.07797161489725113, -0.21169087290763855, 0.018886828795075417, -0.06874766200780869, 0.026059335097670555, -0.159979447722435, -0.11769058555364609, 0.14503911137580872, -0.08481695502996445, 0.24319003522396088, 0.14014659821987152, 0.07329833507537842, 0.006989157758653164, -0.12717357277870178, 0.11466741561889648, -0.06445130705833435, 0.11857102066278458, -0.14081914722919464, -0.011992082931101322, -0.055718570947647095, 0.09369600564241409, -0.10727445781230927, 0.13515497744083405, -0.0048292167484760284, -0.03184736147522926, -0.02993997000157833, 0.10257279872894287, -0.08378230035305023, 0.026779258623719215, -0.07845180481672287, -0.17928485572338104, -0.09887576103210449, 0.0749950259923935, -0.13705387711524963, -0.04736962914466858, -0.04997050389647484, 0.0544697530567646, -0.11324618011713028, -0.20489837229251862, -0.22544045746326447, -0.0592256598174572, -0.018211962655186653, -0.06949152052402496, -0.044702060520648956, -0.014500344172120094, -0.17992772161960602, -0.20015397667884827, 0.09683675318956375, 0.02407671883702278, -0.1217629611492157, 0.07655082643032074, -0.08466792106628418, 0.15254177153110504, -0.003211319912225008, 0.08460470288991928, -0.0349842868745327, 0.05775022879242897, 0.05265633761882782, 0.09158731251955032, 0.07796468585729599, 0.02992280013859272, -0.09402693808078766, -0.05578629672527313, 0.06324663758277893, 0.07557650655508041, 0.06198056414723396, -0.04759569093585014, -0.08479808270931244, 0.23581133782863617, 0.002637720201164484, -0.025990555062890053, 0.04468841478228569, 0.05717586725950241, -0.03711681067943573, -0.0369919091463089, -0.03651916980743408, -0.11545126885175705, -0.16891531646251678, -0.09259884804487228, 0.1489463448524475, -0.08039238303899765, -0.10800114274024963, 0.1442158967256546, -0.04941383749246597, -0.1270333230495453, -0.08185000717639923, -0.1130208969116211, 0.06713752448558807, 0.07427836954593658, -0.048975661396980286, 0.053642433136701584, -0.08863712847232819, 0.031497467309236526, -0.07356744259595871, -0.0802355408668518, -0.1841980218887329, -0.246493861079216, -0.07876421511173248, -0.1783343255519867, 0.017462918534874916, -0.16065199673175812, -0.08793756365776062, -0.02413870394229889, 0.0018841777928173542, 0.005268091335892677, -0.011935667134821415, -0.09889726340770721, 0.05268792062997818, 0.09061848372220993, 0.12903626263141632, 0.06961803883314133, 0.025267640128731728, 0.06994710862636566, 0.0926290899515152, -0.11166395992040634, -0.13274098932743073, -0.10765699297189713, -0.08656084537506104, 0.0396343395113945, 0.12050100415945053, -0.13747258484363556, -0.15295574069023132, -0.047450169920921326, 0.1513194590806961, 0.06285127997398376, 0.09978383779525757, -0.09043298661708832, 0.07179278880357742, -0.04936852678656578, 0.08421353995800018, 0.03554166853427887, -0.03628439083695412, 0.051341548562049866, -0.1166900247335434, -0.11148203909397125, -0.15355134010314941, 0.12055078148841858, 0.13107183575630188, 0.07351613789796829, -0.14693352580070496, -0.2747274339199066, -0.1445389688014984, -0.004450380802154541, -0.07213925570249557, -0.03774213790893555, 0.016816120594739914, -0.19679512083530426, 0.010748420841991901, -0.13430294394493103, -0.22069838643074036, -0.03903624787926674, 0.15630534291267395, -0.12664636969566345, -0.2300100177526474, -0.15702955424785614, 0.09701463580131531, 0.08994416147470474, -0.0630776509642601, 0.05670531094074249, 0.02416299469769001, 0.1148395836353302, -0.11596997827291489, 0.02163758873939514, -0.14149747788906097, -0.01550990529358387, -0.14273923635482788, 0.07069297879934311, 0.11156187206506729, -0.07735806703567505, 0.1182149201631546, -0.17379888892173767, -0.09263697266578674, -0.025432875379920006, -0.13616278767585754], [-0.17684148252010345, -0.12160084396600723, -0.0073370723985135555, -0.17101086676120758, 0.11351703107357025, 0.06857660412788391, -0.20348437130451202, 0.030487708747386932, 0.10259834676980972, 0.13828779757022858, -0.0629621371626854, 0.1884654462337494, -0.10807684063911438, -0.0779157355427742, 0.004576939158141613, 0.020548664033412933, 0.031145641580224037, 0.037475548684597015, -0.010362675413489342, 0.11349900811910629, 0.11735287308692932, 0.10524570941925049, 0.11013896763324738, 0.14183437824249268, -0.042303089052438736, 0.1458406150341034, -0.06483417749404907, -0.0626298263669014, 0.23595739901065826, -0.058632317930459976, 0.05891493707895279, 0.0182277113199234, -0.09724905341863632, 0.16818253695964813, -0.025984324514865875, -0.16530363261699677, -0.1152430921792984, 0.036092426627874374, 0.07196422666311264, 0.061395835131406784, -0.10003571957349777, -0.14055047929286957, -0.055693019181489944, 0.12912660837173462, 0.06253344565629959, 0.05092926323413849, -0.10331504791975021, 0.023266276344656944, 0.04284567013382912, -0.062213338911533356, 0.11332794278860092, -0.1494826376438141, -0.06714849919080734, -0.011204427108168602, -0.14177986979484558, 0.08391918241977692, -0.027419323101639748, -0.01915011741220951, 0.08070444315671921, 0.07727362215518951, 0.14770512282848358, 0.193277969956398, 0.011825533583760262, -0.0002320911589777097, -0.02440112829208374, 0.03225388750433922, 0.11329294741153717, 0.1270606964826584, -0.0778016746044159, -0.029941190034151077, -0.0560385063290596, -0.02664833702147007, -0.24857129156589508, -0.052925486117601395, -0.18632538616657257, 0.06438437849283218, -0.18244440853595734, -0.1813313364982605, 0.06627272814512253, -0.13854628801345825, -0.055776529014110565, -0.0013481804635375738, 0.07107449322938919, -0.22975771129131317, 0.09984507411718369, -0.060107938945293427, -0.11172938346862793, -0.15578393638134003, 0.1534077525138855, -0.14230458438396454, 0.08731518685817719, 0.09555444121360779, -0.1089622750878334, -0.10949467122554779, -0.06346885114908218, -0.13580599427223206, 0.03715839609503746, 0.10286154597997665, 0.0938761979341507, -0.12265463173389435, 0.17719121277332306, -0.10831799358129501, 0.21159768104553223, -0.041997283697128296, -0.2125648856163025, -0.0764775350689888, -0.1047421246767044, -0.1120559424161911, 0.07815872877836227, -0.08158554881811142, -0.11302948743104935, 0.056604500859975815, -0.009464632719755173, -0.004158675204962492, 0.021659960970282555, -0.12699870765209198, -0.11199937015771866, 0.15278109908103943, -0.0285885501652956, -0.11873838305473328, -0.016578031703829765, -0.06681295484304428, -0.11783204972743988, 0.04276231303811073, -0.08448424935340881, -0.056406062096357346, -0.12432454526424408, -0.0004967757849954069, -0.13813939690589905, -0.138601154088974, -0.028588708490133286, -0.17792750895023346, -0.14008186757564545, -0.20887474715709686, -0.0154369305819273, 0.04958763346076012, 0.00785093940794468, -0.12576840817928314, 0.014354253187775612, 0.03724849969148636, 0.08255598694086075, 0.04629192873835564, 0.06642160564661026, -0.051879096776247025, 0.0184332188218832, -0.13740643858909607, 0.054841626435518265, 0.18359968066215515, 0.14972679316997528, -0.257004052400589, -0.02431716024875641, -0.16854259371757507, -0.04687481373548508, -0.08262081444263458, -0.0703020691871643, -0.006765749305486679, -0.06139229238033295, 0.03498228266835213, -0.09254660457372665, -0.000460621842648834, -0.004774506203830242, 0.01800987310707569, -0.11965008825063705, 0.1284288614988327, 0.12348184734582901, -0.14065654575824738, -0.030813612043857574, -0.09815377742052078, 0.130273699760437, 0.13134807348251343, 0.08137302845716476, -0.0018130820244550705, -0.0793159157037735, -0.19941085577011108, -0.3037146329879761, 0.024604391306638718, -0.19508452713489532, 0.1001436784863472, 0.21166974306106567, 0.04516146332025528, 0.013046324253082275, -0.1532270610332489, -0.13828520476818085, -0.26067090034484863, 0.05432477593421936, 0.15467287600040436, 0.1106802225112915, -0.13115470111370087, 0.1460401564836502, 0.11567693948745728, 0.07261307537555695, 0.09099479764699936, -0.06613458693027496, 0.015799006447196007, 0.040800876915454865, 0.10423913598060608, 0.06760117411613464, 0.10763286799192429, -0.1317509263753891, 0.1476481407880783, 0.04798450320959091, 0.09746383130550385, -0.16652029752731323, 0.022039959207177162, -0.04797687381505966, -0.0008004262344911695, -0.0484575517475605, -0.07270729541778564], [-0.04023730382323265, 0.08525252342224121, -0.049071766436100006, -0.040152814239263535, 0.21097184717655182, 0.1596226543188095, -0.10028477758169174, 0.18371105194091797, 0.11744165420532227, 0.14495328068733215, 0.014889514073729515, 0.15642382204532623, -0.035848524421453476, 0.14675630629062653, -0.031032415106892586, -0.00088783836690709, -0.02956385537981987, -0.13830679655075073, 0.11458167433738708, 0.05036730319261551, -0.039963286370038986, 0.12001864612102509, 0.03320315480232239, -0.14475208520889282, -0.029631389304995537, -0.14394031465053558, 0.0642269030213356, 0.12011756747961044, 0.11275116354227066, 0.1319105178117752, -0.06777194887399673, -0.07136806845664978, -0.04245558753609657, 0.1134500801563263, -0.060910336673259735, -0.011236035265028477, -0.1464105248451233, 0.15358279645442963, -0.06595390290021896, 0.11511117219924927, 0.08082018792629242, 0.05604276433587074, -0.15179423987865448, -0.04235440865159035, 0.004272506106644869, 0.03166043758392334, -0.1107863336801529, 0.15543203055858612, -0.059196874499320984, 0.10650898516178131, 0.11508132517337799, -0.03857903182506561, 0.13101550936698914, -0.010259253904223442, -0.09721897542476654, 0.04527053236961365, 0.14137373864650726, -0.03395912051200867, 0.21393339335918427, 0.010547605343163013, 0.16613677144050598, -0.02632107026875019, 0.04240163043141365, -0.017070189118385315, 0.006983431056141853, 0.13792435824871063, -0.0106803672388196, -0.16980592906475067, -0.12026713043451309, -0.006920245476067066, 0.16514436900615692, 0.09288940578699112, -0.10233613848686218, -0.2030620127916336, 0.09233443439006805, -0.046666793525218964, -0.0402568094432354, 0.09516532719135284, -0.11981251090765, 0.012922106310725212, 0.11613739281892776, 0.01954100839793682, -0.001580037409439683, -0.1059063971042633, 0.04947618767619133, 0.045675963163375854, 0.13718155026435852, -0.2573481500148773, -0.13240674138069153, 0.037615422159433365, 0.14902257919311523, 0.08791617304086685, -0.04333748668432236, 0.02765522710978985, -0.02471863478422165, 0.043517377227544785, 0.06710909307003021, -0.1341918408870697, 0.14442463219165802, 0.008349527604877949, 0.12125050276517868, -0.22544649243354797, -0.03869790583848953, -0.16848303377628326, -0.0075997281819581985, 0.039004094898700714, -0.021110421046614647, -0.14944429695606232, 0.06064366176724434, -0.15807822346687317, 0.16664619743824005, -0.17571966350078583, 0.07758136093616486, -0.11885421723127365, -0.13143037259578705, -0.16608211398124695, -0.13982240855693817, -0.07834554463624954, -0.004715262446552515, -0.11574027687311172, 0.010256906971335411, 0.03282346576452255, -0.13230937719345093, -0.08193923532962799, 0.08346521854400635, 0.11088695377111435, 0.08415040373802185, -0.09201473742723465, 0.06557191163301468, -0.1935332864522934, -0.08178454637527466, -0.19449685513973236, -0.1384170800447464, -0.06092224270105362, 0.01713527739048004, 0.0896577462553978, -0.04967739060521126, 0.16807423532009125, 0.0838855504989624, -0.15713270008563995, 0.12992997467517853, 0.1949625462293625, 0.03510577231645584, -0.015256631188094616, -0.003606438636779785, -0.05782525613903999, -0.1472291201353073, 0.03076191060245037, 0.20811770856380463, 0.06055920198559761, -0.07956191152334213, 0.13456721603870392, 0.11967485398054123, -0.03050452284514904, -0.16346612572669983, 0.08254846185445786, -0.11578990519046783, 0.059963975101709366, -0.035810936242341995, 0.11132877320051193, 0.12951284646987915, 0.10618414729833603, -0.03491160646080971, -0.11124135553836823, 0.13022005558013916, 0.06524884700775146, -0.14500178396701813, -0.0953892394900322, 0.020995108410716057, 0.018923358991742134, 0.08933155238628387, 0.03132961690425873, 0.024016087874770164, -0.12801580131053925, -0.03316619619727135, -0.04562251269817352, 0.0537051297724247, 0.08431093394756317, -0.037779100239276886, -0.2733265161514282, -0.04214942827820778, -0.10346245765686035, -0.033597663044929504, -0.12392832338809967, -0.13100484013557434, 0.031101124361157417, -0.10799968987703323, -0.15330354869365692, -0.14323276281356812, 0.13978947699069977, 0.056388650089502335, -0.04461434856057167, 0.0028005766216665506, -0.07981297373771667, -0.0036111732479184866, 0.14810891449451447, 0.05381513014435768, 0.0396365225315094, -0.13595791161060333, -0.13393250107765198, -0.10901237279176712, -0.04195452481508255, -0.030251367017626762, 0.02303939498960972, 0.11907896399497986, -0.09795840084552765, 0.15773241221904755, -0.06821500509977341], [-0.04714361950755119, -0.006507476791739464, -0.11832266300916672, -0.10945045948028564, -0.0019654606003314257, -0.07085654884576797, -0.20170970261096954, 0.11488021165132523, 0.18201525509357452, 0.0031542214564979076, 0.048895541578531265, 0.0368456095457077, 0.1443987786769867, 0.10917574167251587, -0.14904317259788513, 0.0275625791400671, -0.08514141291379929, -0.04467480257153511, 0.047556426376104355, -0.11505383998155594, -0.14472807943820953, 0.05457715690135956, -0.07988705486059189, -0.12142769992351532, 0.10317616164684296, -0.09014926105737686, -0.03214763477444649, -0.012939564883708954, -0.033403221517801285, 0.04034526273608208, 0.1303013563156128, 0.04312732070684433, 0.04245589300990105, -0.044754985719919205, 0.00256149610504508, -0.07555419206619263, -0.16300638020038605, -0.06336020678281784, 0.1307840645313263, -0.0694209486246109, -0.13960526883602142, -0.02183152176439762, -0.06647490710020065, 0.1241321936249733, 0.13022013008594513, 0.04537796601653099, 0.07639728486537933, -0.031707677990198135, 0.0030361127573996782, 0.14879567921161652, 0.027416851371526718, -0.06308503448963165, -0.13900530338287354, -0.13319113850593567, -0.03834807500243187, -0.11263579875230789, 0.08071105927228928, -0.011171041987836361, -0.016843613237142563, 0.08026207238435745, 0.1496441513299942, 0.001997940940782428, 0.11534449458122253, -0.15822018682956696, -0.05489271134138107, 0.038522642105817795, -0.04863877221941948, -0.14651787281036377, 0.10508280992507935, -0.09105517715215683, 0.023070311173796654, -0.1221064031124115, -0.0429769866168499, -0.1132361963391304, 0.15394029021263123, 0.107882559299469, -0.1608993411064148, -0.15788468718528748, -0.07398618012666702, -0.05643468722701073, -0.04228484630584717, 0.14932914078235626, -0.10136111080646515, 0.09772660583257675, 0.0053799268789589405, 0.13235725462436676, -0.15078838169574738, -0.16604740917682648, -0.08539069443941116, -0.08098198473453522, 0.0410691574215889, 0.07358062267303467, 0.09099797904491425, -0.14879144728183746, 0.10365385562181473, 0.010074027813971043, 0.07866425067186356, 0.1170194074511528, -0.12460698187351227, -0.14566655457019806, 0.0516664944589138, 0.051978353410959244, -0.028063056990504265, 0.1378456950187683, 0.06055033579468727, 0.06733322143554688, -0.08524378389120102, 0.06790453940629959, 0.10859403014183044, 0.03437553718686104, 0.03284216672182083, 0.1713951975107193, 0.02814446948468685, 0.11689490079879761, -0.06523086130619049, 0.044619251042604446, -0.010056046769022942, -0.10274305939674377, -0.11678549647331238, -0.12307016551494598, 0.12548787891864777, 0.024173177778720856, -0.10050546377897263, 0.12384843826293945, -0.10884715616703033, 0.030906356871128082, 0.01299540139734745, -0.07248618453741074, 0.023751987144351006, 0.07418879121541977, -0.019352801144123077, -0.15619614720344543, -0.14291459321975708, -0.1324070394039154, 0.039056241512298584, 0.14601081609725952, -0.0669463649392128, -0.06865982711315155, -0.024751048535108566, -0.0985063835978508, -0.05891098454594612, 0.1316596269607544, 0.19132934510707855, 0.003784721251577139, 0.0739147886633873, -0.04526299983263016, 0.06460804492235184, -0.1478119045495987, -0.05637503042817116, 0.022171393036842346, 0.060417864471673965, -0.22342947125434875, 0.018724074587225914, 0.14759285748004913, 0.14659705758094788, 0.19178269803524017, 0.026299702003598213, -0.10156866908073425, -0.1471894383430481, -0.16944560408592224, -0.05111365765333176, 0.028594568371772766, 0.13363003730773926, 0.11870691925287247, -0.017496591433882713, -0.014355846680700779, -0.1437549740076065, -0.017478762194514275, 0.005456280894577503, 0.13905280828475952, 0.07541070133447647, -0.09914456307888031, -0.26639053225517273, -0.05874013155698776, -0.21010538935661316, 0.19301444292068481, 0.03330729529261589, 0.045332591980695724, 0.07477898895740509, -0.1283884197473526, -0.04275251552462578, -0.012290837243199348, -0.2666569948196411, -0.1240982785820961, 0.04845045879483223, -0.114501953125, 0.11066432297229767, -0.14931052923202515, -0.11184367537498474, -0.04331227391958237, 0.05371367558836937, 0.076780304312706, 0.08719828724861145, 0.010083340108394623, -0.10820217430591583, 0.11211032420396805, 0.12212669849395752, -0.0026285997591912746, -0.04354364797472954, 0.08205912262201309, -0.06250632554292679, -0.1296594887971878, -0.1205347403883934, 0.12697334587574005, 0.03551683574914932, 0.04896515980362892, 0.10460672527551651, -0.0028260154649615288], [0.06634772568941116, -0.06309103220701218, 0.04350832849740982, -0.03641698509454727, -0.042446643114089966, -0.10690654069185257, -0.024193689227104187, 0.19028125703334808, 0.024431563913822174, 0.07289339601993561, -0.019419604912400246, 0.13519500195980072, -0.1130606085062027, 0.15233322978019714, -0.15770785510540009, 0.14670611917972565, -0.0447315089404583, 0.05513446405529976, -0.02062934823334217, 0.10860961675643921, -0.014002240262925625, 0.14234478771686554, -0.08963583409786224, 0.03891776129603386, 0.07794666290283203, 0.017341649159789085, -0.11023292690515518, -0.08056334406137466, 0.16677334904670715, 0.17708194255828857, -0.11354633420705795, -0.06113901734352112, 0.1316634863615036, 0.11934500187635422, -0.10214943438768387, 0.05020676925778389, 0.07533488422632217, -0.00865884404629469, 0.17375533282756805, 0.10012748092412949, -0.12229125946760178, 2.9451462978613563e-05, -0.07075505703687668, 0.04084803909063339, 0.11251257359981537, 0.09770439565181732, 0.03514661267399788, 0.06725404411554337, -0.10919705033302307, -0.1350586861371994, 0.031368836760520935, -0.123702771961689, 0.030567172914743423, -0.02089872770011425, 0.04581379517912865, -0.12283675372600555, -0.0051671951077878475, 0.11419185996055603, -0.076118104159832, 0.025159552693367004, 0.07029944658279419, -0.03751580789685249, 0.02008650079369545, 0.09993846714496613, 0.08449879288673401, -0.15144602954387665, 0.08186951279640198, 0.019845694303512573, -0.00987453293055296, 0.11549635231494904, 0.0988103374838829, 0.06450904905796051, -0.12928692996501923, -0.25349128246307373, -0.1662803590297699, -0.07592257112264633, 0.018753012642264366, -0.15516512095928192, -0.07803664356470108, -0.1575719118118286, 0.024991687387228012, -0.10399061441421509, -0.24411165714263916, -0.2687898278236389, 0.06796315312385559, -0.005001827608793974, -0.06850588321685791, -0.22786876559257507, 0.002498188056051731, -0.13179351389408112, 0.09119944274425507, 0.0009168944670818746, 0.08468321710824966, -0.14055907726287842, 0.09019457548856735, 0.0064667160622775555, -0.03340102359652519, -0.06777894496917725, 0.12470339983701706, -0.14350539445877075, 0.03550472855567932, 0.001062472234480083, -0.05243366211652756, -0.1581895649433136, 0.025733748450875282, -0.18744555115699768, -0.08007685095071793, -0.06247431039810181, -0.23379898071289062, 0.08382817357778549, -0.12034031748771667, -0.006302138790488243, -0.15546473860740662, 0.12410354614257812, -0.10058654844760895, -0.04337690398097038, -0.11768785864114761, -0.1407778412103653, -0.09250356256961823, -0.1370847523212433, 0.12455160170793533, 0.07783075422048569, 0.11312651634216309, -0.004986117593944073, -0.08338981121778488, -0.1223207488656044, 0.013928725384175777, 0.04756619408726692, -0.014719719998538494, -0.045769110321998596, -0.08553948998451233, -0.01111980713903904, -0.27991992235183716, -0.058762285858392715, -0.13864056766033173, -0.1510203629732132, 0.021078679710626602, -0.13295190036296844, 0.09815839678049088, -0.05145633593201637, 0.03605213388800621, 0.04608224704861641, 0.08458512276411057, 0.007236221339553595, 0.020270543172955513, -0.013598829507827759, -0.09609825909137726, 0.0022994407918304205, 0.1418685019016266, -0.09085969626903534, -0.050333596765995026, -0.011140989139676094, 0.09963179379701614, -0.09023576229810715, -0.14517346024513245, -0.16899412870407104, 0.004623463377356529, -0.14332391321659088, 0.03275502473115921, 0.14415358006954193, 0.014981633983552456, 0.11789090931415558, -0.061799466609954834, -0.026076052337884903, -0.0021803167182952166, -0.09766540676355362, -0.032093197107315063, -0.03841644152998924, -0.012551055289804935, -0.07224659621715546, 0.08530177175998688, 0.09614691138267517, 0.02516046166419983, -0.22519740462303162, 0.05685846507549286, -0.0893373116850853, 0.013783887960016727, 0.09099902957677841, 0.22937451303005219, -0.22731530666351318, -0.041322361677885056, 0.14150689542293549, 0.06029403209686279, -0.3054899573326111, 0.11457383632659912, -0.1284772753715515, -0.04987078905105591, -0.21578805148601532, -0.14346730709075928, 0.07911257445812225, 0.0023079272359609604, -0.12492496520280838, 0.01166357472538948, 0.09011337906122208, -0.030009450390934944, -0.1260337084531784, -0.0599634051322937, 0.05841111019253731, -0.05332088842988014, -0.024436121806502342, 0.05381821095943451, -0.12249726057052612, -0.014532101340591908, -0.06973530352115631, -0.04492717608809471, 0.0722494125366211, -0.12782521545886993, -0.0464315190911293], [-0.01640195958316326, -0.09034588932991028, -0.0008358524064533412, -0.10222470760345459, -0.13002566993236542, -0.09673292189836502, -0.0443171001970768, -0.1835857778787613, -0.13246499001979828, -0.08395586162805557, -0.03679712489247322, 0.053293533623218536, -0.02380109764635563, 0.08671370148658752, 0.026130905374884605, -0.19171009957790375, 0.042761292308568954, -0.12616507709026337, -0.09837894141674042, -0.09570858627557755, 0.08933859318494797, -0.018796922639012337, 0.1179487556219101, -0.07028807699680328, -0.04551628977060318, -0.07155107706785202, -0.107072614133358, -0.13881057500839233, -0.05436718463897705, -0.016081007197499275, -0.05999276787042618, -0.07682160288095474, 0.10929019749164581, -0.002862961497157812, 0.06999436765909195, 0.17747007310390472, 0.04079817235469818, 0.02937234565615654, -0.195511132478714, 0.12738919258117676, 0.11640872806310654, 0.14549590647220612, 0.14093467593193054, 0.03267836943268776, 0.040549136698246, -0.104282446205616, 0.0948389321565628, -0.09822376817464828, 0.1281873732805252, -0.06755552440881729, -0.0585714653134346, 0.0126157496124506, 0.07619169354438782, 0.09347784519195557, -0.1518976241350174, 0.04179034009575844, -0.0876365676522255, 0.09123380482196808, 0.01675463654100895, 0.09055492281913757, -0.03234587982296944, 0.07407213002443314, -0.19175784289836884, 0.09192974865436554, 0.031432006508111954, 0.1059429943561554, 0.006618070881813765, -0.0014265476493164897, 0.014730175957083702, 0.03197396546602249, -0.12479683011770248, 0.03112754225730896, 0.25292640924453735, 0.2399882972240448, 0.13361826539039612, 0.18318624794483185, 0.21986515820026398, -0.05901513248682022, 0.10977572947740555, 0.02134159579873085, 0.17259693145751953, 0.13663744926452637, 0.07865016907453537, 0.1974637657403946, 0.11925593763589859, 0.13322365283966064, -0.15647165477275848, 0.3062606453895569, -0.03621087595820427, 0.021685589104890823, 0.09614032506942749, 0.009554236195981503, 0.11833813786506653, -0.11252661794424057, -0.10384976118803024, 0.06188486889004707, 0.09513768553733826, -0.13337628543376923, -0.13325117528438568, 0.0825086161494255, 0.10650591552257538, 0.025048641487956047, 0.04419788345694542, 0.10383255034685135, 0.1630689799785614, 0.10338657349348068, 0.11957713216543198, 0.04266012832522392, -0.027178797870874405, 0.046860381960868835, -0.15647903084754944, 0.21882697939872742, -0.07401663810014725, 0.025028973817825317, -0.005889232736080885, -0.02965511754155159, 0.040118154138326645, -0.13775210082530975, 0.10191228240728378, -0.020403655245900154, 0.01835901290178299, -0.12921541929244995, 0.05248848721385002, 0.045041773468256, -0.1580767184495926, -0.11835861206054688, -0.07753116637468338, 0.04112476482987404, 0.1184132993221283, 0.18637976050376892, 0.1019747331738472, 0.12765604257583618, 0.02390056475996971, 0.04041368141770363, 0.017338573932647705, -0.11103281378746033, 0.11706587672233582, -0.08971823006868362, 0.09256120771169662, -0.005326644517481327, -0.0052139549516141415, 0.13490954041481018, -0.002471440937370062, 0.04993674159049988, -0.10225074738264084, 0.15012569725513458, -0.02940143458545208, -0.1343519240617752, -0.10229746252298355, 0.012805906124413013, 0.17748013138771057, 0.22360986471176147, -0.04968719556927681, -0.11501284688711166, 0.26193270087242126, 0.12890714406967163, 0.14473837614059448, 0.08003253489732742, -0.06504473090171814, 0.05228544399142265, -0.0422518327832222, 0.11068760603666306, -0.007016110699623823, 0.11822418868541718, 0.05550260841846466, 0.12206681072711945, -0.03930407389998436, -0.10885147005319595, -0.09722363203763962, 0.031045816838741302, -0.012732609175145626, -0.07621622085571289, 0.014793602749705315, 0.003418618580326438, 0.12181884795427322, 0.17684796452522278, 0.17983663082122803, 0.06391565501689911, -0.23204685747623444, 0.12288548797369003, -0.0076233986765146255, -0.10265807062387466, 0.09799476712942123, 0.16771425306797028, -0.1260598748922348, -0.08286543935537338, 0.14510391652584076, -0.02607150934636593, 0.09031809866428375, -0.15073195099830627, 0.02250496856868267, -0.11656048893928528, 0.027776097878813744, -0.11671750992536545, -0.04978383705019951, 0.04596446081995964, 0.15388154983520508, -0.1149601861834526, 0.1272600293159485, 0.145865336060524, 0.1262352615594864, 0.0038909155409783125, 0.16313062608242035, 0.16211381554603577, 0.15007327497005463, 0.05800461769104004, 0.10546787083148956, 0.028840288519859314], [0.008033931255340576, 0.07546506822109222, 0.07131513208150864, 0.009409799240529537, 0.1922793984413147, 0.15266425907611847, 0.010597090236842632, -0.08098568022251129, -0.08090754598379135, -0.04327434301376343, -0.1702139973640442, -0.04918096214532852, -0.05191785842180252, -0.13196492195129395, 0.06371994316577911, 0.08893202245235443, -0.1540742665529251, -0.03280026093125343, -0.11345085501670837, 0.06551871448755264, -0.11928875744342804, -0.0615944042801857, -0.0548117458820343, -0.05208657681941986, 0.11052997410297394, -0.008999958634376526, 0.026160091161727905, 0.024886637926101685, 0.18957312405109406, 0.12334952503442764, -0.04460006579756737, -0.07352294027805328, -0.1240895614027977, -0.04670342803001404, 0.11610531806945801, -0.18006964027881622, -0.08088156580924988, -0.0778365433216095, -0.010416092351078987, -0.11920537054538727, 0.03991146385669708, -0.09147348254919052, 0.07786330580711365, -0.04207215458154678, 0.03661078214645386, 0.051308196038007736, -0.10576508939266205, 0.035626694560050964, -0.08275588601827621, 0.05051955580711365, -0.0017422925448045135, -0.11525353044271469, 0.06274490058422089, -0.12457310408353806, 0.15053486824035645, 0.09314070641994476, 0.18641740083694458, 0.136082261800766, 0.039074789732694626, 0.09774943441152573, -0.01442087534815073, -0.03167462721467018, 0.007696800399571657, 0.026576651260256767, 0.05392388626933098, 0.06251408159732819, -0.058467015624046326, 0.003975441213697195, 0.12758460640907288, -0.07937239855527878, -0.07619881629943848, 0.09687580168247223, -0.13997557759284973, -0.0788528174161911, 0.022201355546712875, -0.09251198172569275, 0.027201803401112556, -0.0060545834712684155, 0.06366707384586334, -0.06215379759669304, -0.005155390128493309, 0.1008693277835846, -0.0804542750120163, -0.09152505546808243, 0.07394804060459137, -0.112381711602211, -0.04213327169418335, -0.22808805108070374, -0.03323601558804512, 0.05492255091667175, 0.043218206614255905, -0.12189082056283951, 0.14526918530464172, 0.1543533354997635, 0.042433008551597595, -0.05493064969778061, 0.0522686243057251, -0.12035521864891052, -0.12659363448619843, -0.1476287841796875, 0.15227115154266357, 0.06197961047291756, 0.016076214611530304, -0.04487878084182739, -0.151250958442688, -0.0927288681268692, 0.04958249256014824, 0.05354829877614975, 0.03181813657283783, -0.06037762016057968, 0.07949718087911606, 0.0977218896150589, -0.0699625164270401, -0.1387288123369217, -0.15679705142974854, -0.08152591437101364, 0.10016465187072754, 0.04127436876296997, 0.006799123715609312, 0.15710663795471191, -0.050498396158218384, 0.062372785061597824, -0.1574125736951828, 0.12534458935260773, 0.10598646849393845, 0.05520264059305191, -0.14800602197647095, -0.10352374613285065, -0.04787696897983551, 0.018551673740148544, -0.24351659417152405, -0.15401838719844818, 0.02557663805782795, 0.05081021413207054, 0.06161909177899361, -0.14111097157001495, 0.1573469638824463, 0.1503673642873764, -0.07191760092973709, -0.013095817528665066, 0.02169874496757984, -0.12306175380945206, 0.008086801506578922, 0.10199465602636337, 0.02902059443295002, -0.08962664753198624, -0.0520070381462574, -0.1089266762137413, -0.12824121117591858, -0.04042390361428261, 0.04633306339383125, -0.2094743847846985, -0.025517532601952553, 0.0748654305934906, -0.06596055626869202, -0.13380764424800873, 0.12314565479755402, -0.062254033982753754, 0.026301860809326172, 0.113539919257164, 0.0585860013961792, -0.10195823758840561, -0.13465546071529388, -0.04948265850543976, 0.04162222146987915, -0.059123244136571884, 0.10865715891122818, 0.15681461989879608, 0.01633344776928425, 0.13255342841148376, -0.14129970967769623, 0.1494157463312149, 0.07923415303230286, -0.12193477898836136, -0.020195219665765762, -0.05755222216248512, 0.05507878214120865, -0.01925739459693432, 0.15823863446712494, -0.04711981490254402, -0.014809779822826385, -0.01440115924924612, -0.264972984790802, -0.026410313323140144, -0.08935513347387314, -0.1026199534535408, -0.09295234084129333, -0.10348103940486908, -0.1181187629699707, 0.13160890340805054, -0.12436198443174362, -0.00791865773499012, -0.029877865687012672, -0.14607301354408264, 0.06082222983241081, -0.13687415421009064, 0.045320235192775726, 0.08802016079425812, -0.0977587178349495, -0.05290425196290016, -0.1254400908946991, 0.07899598032236099, 0.059793852269649506, 0.07257989794015884, 0.0026838623452931643, -0.024412624537944794, 0.06669863313436508, 0.09644331783056259], [0.09936090558767319, -0.07168424874544144, 0.03852441534399986, -0.22393067181110382, 0.06147164851427078, -0.04366529732942581, -0.1928587406873703, -0.12349694222211838, 0.10160992294549942, -0.03730330616235733, -0.08467807620763779, 0.16197435557842255, -0.12470623850822449, 0.02944302186369896, -0.14393126964569092, -0.03501463308930397, 0.10711758583784103, -0.06908877938985825, -0.0433373749256134, 0.11600904911756516, 0.08194411545991898, 0.03184732794761658, 0.03807449713349342, 0.1393888145685196, -0.03134585916996002, -0.06885453313589096, 0.0815105214715004, 0.11809059977531433, 0.030347593128681183, 0.07057341933250427, 0.12498657405376434, -0.11049049347639084, 0.08646966516971588, -0.07628627866506577, 0.15338236093521118, -0.10834697633981705, -0.07186213880777359, -0.02276083268225193, 0.11274100095033646, -0.06574133783578873, -0.11892281472682953, -0.0390474908053875, -0.0086951470002532, 0.15953923761844635, 0.12931369245052338, -0.12651072442531586, -0.016270343214273453, 0.037231456488370895, -0.12135642021894455, 0.13711942732334137, 0.025084620341658592, -0.15755203366279602, 0.014082001522183418, -0.09284834563732147, 0.1448121964931488, 0.041786666959524155, -0.045560892671346664, 0.02946988306939602, 0.14864668250083923, 0.14085133373737335, 0.02844312973320484, 0.03459103778004646, 0.00440110033378005, -0.002442275872454047, -0.08820945024490356, 0.06398238986730576, 0.09968580305576324, -0.06383275240659714, -0.04142780601978302, -0.002379522891715169, -0.015427883714437485, -0.047806236892938614, 0.033707231283187866, -0.24106062948703766, 0.0036283223889768124, 0.010367076843976974, -0.12664808332920074, 0.13625194132328033, -0.13712279498577118, -0.0879836156964302, -0.1056937724351883, -0.012121283449232578, 0.1432279795408249, -0.2648487389087677, -0.15589489042758942, -0.157208651304245, 0.07423949241638184, -0.27285850048065186, 0.14354825019836426, -0.10658934712409973, -0.1043962761759758, 0.028220634907484055, 0.0920514166355133, 0.03274287283420563, 0.0796811580657959, 0.15409353375434875, 0.08404527604579926, 0.1055503711104393, 0.0012747031869366765, -0.0014100739499554038, 0.04640136659145355, -0.15147317945957184, -0.08314499258995056, 0.09796717017889023, 0.022735681384801865, -0.2118818610906601, -0.16396014392375946, -0.0888480544090271, -0.08026260137557983, 0.10251975059509277, 0.1896224319934845, 0.07692179828882217, 0.05897681787610054, -0.09028981626033783, 0.09927251189947128, -0.05135726183652878, -0.117836132645607, -0.011914706788957119, -0.036258991807699203, 0.14194341003894806, 0.1331789493560791, 0.002985613653436303, -0.11697045713663101, -0.008372013457119465, -0.059253543615341187, 0.016973203048110008, 0.11759715527296066, 0.0562942773103714, -0.20209963619709015, -0.2089713215827942, -0.14670275151729584, -0.047025345265865326, -0.11880016326904297, -0.12923210859298706, -0.2214335948228836, 0.12120836973190308, 0.032628003507852554, -0.010960373096168041, 0.11847662180662155, -0.02377145364880562, -0.1002376452088356, -0.11414185911417007, 0.11601478606462479, 0.037905462086200714, 0.06376500427722931, -0.29961255192756653, 0.14093385636806488, -0.43558186292648315, -0.0250728540122509, 0.046701837331056595, 0.08125028759241104, 0.10392066091299057, 0.053163208067417145, 0.11773934215307236, 0.16059072315692902, -0.003261733567342162, -0.10859182476997375, -0.15540684759616852, -0.08402930200099945, -0.4780239462852478, -0.004836589097976685, 0.043710969388484955, -0.03974497690796852, -0.12507109344005585, -0.04432521015405655, 0.054998867213726044, 0.1325041800737381, 0.06022653728723526, 0.05273829400539398, -0.061356935650110245, 0.04271223023533821, 0.1479048728942871, -0.22475425899028778, -0.34747597575187683, -0.27737513184547424, 0.4202249348163605, -0.011471249163150787, 0.03053818643093109, 0.42346838116645813, 0.7088877558708191, 0.47571784257888794, 0.0525248683989048, -0.19742566347122192, 0.15174810588359833, -0.016014782711863518, -0.013556568883359432, -0.05540633946657181, -0.19529514014720917, 0.07078087329864502, -0.14745715260505676, 0.147563636302948, 0.00832692813128233, 0.037573933601379395, -0.1353418529033661, 0.01489869225770235, -0.1367635428905487, -0.07508139312267303, -0.059968817979097366, -0.08064283430576324, -0.1132378876209259, 0.03408472612500191, -0.13849012553691864, -0.06104234978556633, -0.08664938062429428, 0.02738245762884617, -0.02412302792072296, -0.0038767275400459766, 0.0655960962176323], [0.044730447232723236, 0.15259523689746857, -0.1046183779835701, 0.04737187176942825, -0.05607585236430168, -0.02341066114604473, 0.06132938712835312, -0.07595120370388031, -0.07162235677242279, 0.03250805661082268, 0.2384166121482849, -0.15356549620628357, -0.028550656512379646, 0.08769960701465607, 0.0037775475066155195, -0.08842417597770691, -0.018942590802907944, 0.08062334358692169, 0.1155598908662796, 0.05326369032263756, 0.12771184742450714, 0.057902030646800995, -0.0925387293100357, -0.028555048629641533, -0.0635739341378212, -0.0335991233587265, 0.11998124420642853, -0.14362607896327972, -0.02260507456958294, 0.12808385491371155, 0.1831732839345932, -0.18062974512577057, 0.08600331842899323, 0.015835050493478775, -0.13148783147335052, -0.04222298786044121, 0.11897383630275726, 0.10025879740715027, -0.05933351442217827, -0.023518390953540802, 0.04593481868505478, -0.1300879418849945, -0.06335611641407013, -0.22951287031173706, 0.06680522859096527, -0.08213766664266586, -0.03344667702913284, -0.14380089938640594, 0.13861119747161865, -0.02142658270895481, 0.10795566439628601, 0.0049835811369121075, 0.03266345337033272, -0.01682935282588005, 0.09982448816299438, -0.008876473642885685, -0.07396144419908524, -0.11547363549470901, -0.07316377758979797, -0.12665966153144836, -0.16229203343391418, 0.0366944782435894, -0.17558878660202026, 0.14899642765522003, -0.04132930561900139, -0.11931230127811432, 0.05281153693795204, 0.1493946611881256, -0.1151709333062172, -0.17922313511371613, -0.13542070984840393, -0.16715297102928162, 0.10668430477380753, 0.23070956766605377, -0.016197163611650467, 0.14336304366588593, -0.10222556442022324, 0.07288952171802521, 0.14002978801727295, 0.0755544975399971, 0.10068751126527786, -0.1275937259197235, 0.020405342802405357, 0.15888434648513794, -0.14175553619861603, 0.015373512171208858, 0.018520010635256767, 0.013755030930042267, 0.07008933275938034, 0.1077083945274353, -0.0887606143951416, -0.0204186849296093, -0.1170819029211998, -0.020356524735689163, -0.008423080667853355, 0.1444610208272934, -0.09587851911783218, 0.03491239994764328, 0.08550581336021423, 0.08038299530744553, 0.0818924531340599, 0.04611622542142868, -0.13823741674423218, -0.03467121720314026, 0.19040776789188385, 0.08660808950662613, -0.008763410151004791, 0.004842640366405249, 0.07310324162244797, 0.10563971102237701, -0.1289309859275818, -0.0792233943939209, -0.026122651994228363, -0.0020175387617200613, 0.15105783939361572, -0.028731318190693855, 0.0973556712269783, -0.002491071354597807, 0.005444205366075039, -0.06120971590280533, 0.06539466232061386, 0.15854816138744354, -0.03157510980963707, 0.0139559805393219, 0.13954629004001617, 0.046953506767749786, -0.026352548971772194, -0.14714571833610535, 0.23744264245033264, 0.09251350164413452, 0.2515682876110077, 0.12202081829309464, -0.011067332699894905, 0.09153760969638824, 0.2010599970817566, -0.13699498772621155, 0.019482417032122612, -0.11216867715120316, 0.07353227585554123, 0.02530398592352867, -0.028413675725460052, 0.06161566451191902, -0.04250514879822731, 0.02498737722635269, -0.12144037336111069, -0.16249902546405792, 0.03782442584633827, -0.061219047755002975, -0.031008074060082436, 0.19152049720287323, -0.09175533056259155, 0.21120662987232208, -0.04470051825046539, -0.12325535714626312, 0.1141180470585823, 0.1256103664636612, -0.01893509551882744, -0.1137123629450798, -0.044338345527648926, -0.17139829695224762, -0.1313912719488144, -0.027749599888920784, -0.1164899617433548, 0.06116243451833725, 0.0005317162722349167, 0.11638779193162918, 0.07583308964967728, 0.00718630850315094, -0.013380125164985657, -0.0437459833920002, -0.11662207543849945, -0.12372555583715439, 0.1747099608182907, -0.05439598113298416, 0.19917359948158264, -0.18756450712680817, 0.16956518590450287, 0.1475173532962799, -0.2121906578540802, 0.05572368949651718, 0.07539290189743042, 0.011467937380075455, 0.1475447565317154, 0.15446257591247559, 0.10157234221696854, 0.031155066564679146, -0.0984906479716301, 0.19357067346572876, -0.14384381473064423, 0.08026352524757385, 0.08086198568344116, 0.08362281322479248, 0.07174694538116455, 0.14470374584197998, 0.012118443846702576, -0.06564587354660034, -0.13818387687206268, 0.05638391897082329, 0.07379598170518875, 0.060915201902389526, 0.054120223969221115, -0.030204271897673607, 0.08943423628807068, 0.15869909524917603, 0.01449713297188282, 0.146505206823349, 0.14315448701381683, 0.08230124413967133], [0.11531595885753632, 0.1383281946182251, 0.06987708806991577, -0.1346488744020462, 0.13586774468421936, 0.10322669893503189, -0.04706679284572601, 0.08792326599359512, 0.035654306411743164, -0.08929819613695145, -0.21452553570270538, -0.05784248933196068, 0.055774446576833725, -0.07745647430419922, -0.013787941075861454, -0.05306762829422951, -0.04053698480129242, 0.09076513350009918, 0.08559923619031906, -0.1510438770055771, -0.1197345033288002, -0.09598580002784729, -0.05993024259805679, -0.12508271634578705, -0.13637757301330566, -0.0842670351266861, -0.026729701086878777, 0.15178772807121277, 0.03140108287334442, 0.12152386456727982, -0.17797964811325073, 0.13514533638954163, 0.026998156681656837, 0.025391077622771263, 0.03406381234526634, 0.032450366765260696, 0.07302512973546982, -0.06836846470832825, 0.23833011090755463, 0.09777368605136871, -0.12984654307365417, -0.08262721449136734, -0.10856562852859497, 0.07176283746957779, -0.07986108958721161, -0.1258319467306137, 0.05474977567791939, 0.0014927121810615063, 0.09100385010242462, 0.03819699585437775, -0.06966572999954224, -0.13309676945209503, -0.05183427035808563, -0.12091843038797379, -0.07408171147108078, -0.12976916134357452, 0.11400295048952103, 0.15706847608089447, -0.012962724082171917, -0.04700639471411705, 0.10483892261981964, -0.024603651836514473, -0.0453355573117733, -0.00010043024667538702, -0.11685481667518616, 0.05522499233484268, -0.05127539485692978, -0.03600328043103218, -0.030204152688384056, 0.15416550636291504, 0.06387041509151459, -0.04095984250307083, 0.038298316299915314, -0.034097131341695786, -0.04868531599640846, 0.11796976625919342, 0.04999355599284172, -0.11339112371206284, -0.08727055042982101, -0.005575569812208414, -0.16420303285121918, -0.022961996495723724, 0.08680727332830429, 0.04522860795259476, -0.052411679178476334, -0.13736779987812042, -0.1101977601647377, -0.0006061987951397896, 0.11766699701547623, 0.012023692019283772, 0.04588371515274048, -0.12231578677892685, -0.05584394931793213, 0.0653364434838295, -0.009962430223822594, 0.12128858268260956, 0.139309361577034, 0.03271326795220375, 0.00280909426510334, 0.15102975070476532, 0.08931170403957367, -0.11452916264533997, 0.09663382917642593, -0.055463772267103195, -0.11789420992136002, 0.06241992115974426, -0.1631285697221756, -0.14152725040912628, 0.031647518277168274, -0.14512643218040466, 0.13045477867126465, -0.22012032568454742, 0.06842684000730515, 0.09221574664115906, 0.059137552976608276, -0.18267498910427094, -0.07751890271902084, -0.11641277372837067, -0.0860709547996521, -0.12095761299133301, 0.10358764976263046, -0.15745186805725098, -0.10955603420734406, 0.03678885102272034, -0.1256033033132553, -0.1356651782989502, -0.14938296377658844, -0.07535660266876221, -0.026417003944516182, -0.2253534197807312, -0.013454931788146496, -0.06220958009362221, 0.00428283866494894, -0.11443894356489182, -0.14132077991962433, -0.028383828699588776, 0.013937299139797688, -0.028992323204874992, -0.11964944005012512, 0.17629829049110413, 0.1397927701473236, 0.03084218129515648, 0.07448044419288635, -0.06746325641870499, -0.041965968906879425, -0.1050751656293869, 0.017548898234963417, 0.13649919629096985, 0.19010688364505768, -0.1557333916425705, 0.021469853818416595, -0.13612216711044312, 0.023287655785679817, -0.022203829139471054, -0.08651284873485565, -0.14760811626911163, 0.023398658260703087, -0.031339649111032486, -0.1323689967393875, 0.0769292563199997, -0.09513136744499207, -0.06148939207196236, 0.07980237156152725, 0.10992739349603653, -0.08638840913772583, -0.12146002799272537, -0.03000793606042862, -0.11324538290500641, -0.09091503918170929, 0.07799588143825531, -0.10081909596920013, 0.09501776099205017, 0.10172757506370544, -0.10890164971351624, -0.15296025574207306, -0.11924473941326141, -0.01671760529279709, -0.015491504222154617, 0.06575902551412582, -0.1940898895263672, 0.019735051319003105, -0.08483312278985977, -0.04103415831923485, -0.15420840680599213, 0.11135367304086685, 0.03283444419503212, 0.06571715325117111, -0.15670821070671082, 0.053591251373291016, 0.058530278503894806, -0.0027350489981472492, -0.014639762230217457, -0.027246804907917976, 0.03929059952497482, 0.0016062782378867269, 0.13912802934646606, 0.007815539836883545, 0.04836626723408699, 0.13024069368839264, -0.08325228095054626, -0.009863975457847118, 0.05585074424743652, 0.11605285108089447, 0.021639002487063408, -0.12898720800876617, 0.019351625815033913, -0.04946855828166008, 0.0019637462683022022], [0.08439536392688751, 0.04732411354780197, -0.0553070567548275, -0.03722259774804115, 0.08506126701831818, 0.07167200744152069, -0.20162302255630493, 0.11865712702274323, 0.05070328712463379, 0.06329448521137238, -0.009859303943812847, -0.033308252692222595, 0.02389214001595974, 0.08044201135635376, 0.03158760070800781, 0.07412851601839066, -0.102643683552742, 0.04144354537129402, -0.15614567697048187, 0.04047740250825882, 0.004784651566296816, -0.04553109034895897, -0.016070542857050896, -0.004116390831768513, -0.04607904702425003, 0.12170585989952087, 0.07405100762844086, 0.04791124537587166, 0.019487537443637848, 0.11639802902936935, 0.011078918352723122, 0.043201033025979996, 0.12077394872903824, 0.06682886183261871, -0.020502302795648575, -0.23526939749717712, 0.10286085307598114, 0.01574377529323101, -0.0124655207619071, -0.12968143820762634, -0.021401144564151764, 0.0186258926987648, 0.09576279670000076, 0.15504813194274902, 0.07775156199932098, 0.11830266565084457, -0.1393122673034668, 0.09870805591344833, 0.0278639979660511, 0.03799912706017494, -0.12176578491926193, -0.11288874596357346, -0.14271020889282227, -0.1340680867433548, 0.009369767270982265, 0.07891859859228134, -0.047673601657152176, -0.039480630308389664, 0.21670272946357727, 0.031843725591897964, -0.02310776151716709, -0.07618317008018494, -0.06285969167947769, 0.1495966613292694, -0.18053412437438965, 0.09078320115804672, -0.04806598275899887, -0.13283680379390717, -0.0839989185333252, -0.05641133338212967, -0.06525518000125885, -0.08784546703100204, -0.09575150161981583, -0.2603026032447815, -0.21008627116680145, -0.1111801415681839, -0.15692710876464844, -0.00829154159873724, -0.06661165505647659, 0.07317321747541428, -0.07734202593564987, -0.00921826995909214, -0.08846113830804825, -0.11968782544136047, 0.13333620131015778, -0.14373056590557098, 0.09425490349531174, -0.1383751779794693, 0.0821809396147728, -0.056676462292671204, -0.13263238966464996, 0.0035632862709462643, 0.01052026730030775, -0.019083639606833458, 0.12200351804494858, -0.06377127766609192, -0.05502680316567421, -0.020981743931770325, -0.08856762945652008, 0.06721895188093185, -0.005011468660086393, -0.16149292886257172, -0.035150934010744095, -0.05007224157452583, -0.17078067362308502, 0.04625150188803673, 0.03374594822525978, -0.12850335240364075, -0.20981428027153015, 0.11202098429203033, -0.022428462281823158, 0.07437165826559067, -0.13668295741081238, 0.08713794499635696, 0.056706443428993225, -0.08872132003307343, 0.08938624709844589, -0.02011232078075409, 0.10771403461694717, 0.12114972621202469, 0.1213049367070198, -0.0633208379149437, 0.003911025356501341, 0.10070079565048218, -0.10067641735076904, -0.06560669094324112, 0.018839813768863678, 0.11591807752847672, -0.02088208682835102, -0.2122051864862442, -0.21118859946727753, -0.19626396894454956, -0.22397534549236298, 0.04595267027616501, -0.008108926005661488, 0.012027136981487274, 0.04006890580058098, -0.01351866777986288, 0.07646608352661133, 0.08252646774053574, -0.02755776233971119, 0.1045512780547142, -0.15811188519001007, 0.048861514776945114, 0.03839137777686119, 0.0466628260910511, -0.07550764828920364, -0.04401232302188873, -0.07766128331422806, -0.07203720510005951, -0.13888615369796753, -0.08136186003684998, -0.09602733701467514, -0.04117530211806297, -0.17855408787727356, 0.10356784611940384, 0.009456455707550049, -0.04819417744874954, -0.0853395164012909, 0.22484137117862701, 0.11628066003322601, -0.1321115791797638, 0.1294012814760208, 0.04918625205755234, 0.05061805620789528, 0.1187310740351677, -0.1465011090040207, 0.022487251088023186, -0.0026834900490939617, 0.061762820929288864, -0.07548762112855911, -0.11512576788663864, -0.03844168782234192, -0.26018762588500977, -0.03425268828868866, 0.08910439908504486, 0.023064136505126953, 0.17115898430347443, 0.12541070580482483, 0.0323425829410553, -0.11890175193548203, 0.11302211135625839, -0.03652486205101013, -0.10831855237483978, 0.13088946044445038, 0.03496108204126358, 0.024183133617043495, -0.18271709978580475, -0.07117343693971634, -0.1362902820110321, -0.11511721462011337, 0.11798210442066193, -0.10043209791183472, -0.02881462313234806, -0.049567002803087234, -0.12332936376333237, -0.01232619397342205, -0.07561061531305313, -0.03530522435903549, -0.07085469365119934, 0.004931173287332058, -0.05540240928530693, 0.004578955937176943, 0.005159227177500725, -0.07144764065742493, 0.12551212310791016, -0.023171402513980865, -0.026782093569636345], [-0.037023041397333145, 0.09661168605089188, -0.15438660979270935, -0.2456120252609253, -0.1551082879304886, -0.1142004132270813, 0.1030927523970604, -0.044905830174684525, -0.19660790264606476, -0.017338281497359276, 0.009674159809947014, -0.2699703872203827, 0.02755328267812729, 0.03232142701745033, 0.15568728744983673, -0.26832833886146545, 0.08880558609962463, 0.08714385330677032, 0.0798824355006218, -0.14535747468471527, 0.1420375555753708, 0.10868290066719055, 0.14927458763122559, 0.01524688582867384, 0.11156604439020157, 0.02970747835934162, -0.09925533086061478, -0.08474715054035187, -0.29090559482574463, -0.18641474843025208, -0.04649217426776886, 0.07972874492406845, 0.045778680592775345, -0.011898468248546124, -0.12742024660110474, 0.14232656359672546, 0.05433405563235283, 0.04888015240430832, -0.10691365599632263, -0.0349917858839035, -0.057422783225774765, -0.12592019140720367, -0.04296919330954552, -0.18501237034797668, 0.15587584674358368, 0.12240815162658691, -0.004877700004726648, 0.02687506563961506, -0.0951022207736969, 0.08116263151168823, 0.15783679485321045, 0.1550452560186386, -0.10140388458967209, -0.14501135051250458, 0.04650427773594856, -0.09214268624782562, -0.16087360680103302, 0.0835656076669693, 0.029751691967248917, -0.07618779689073563, 0.04348409175872803, -0.10452302545309067, -0.009051376953721046, -0.007812624797224998, -0.18546171486377716, 0.08471254259347916, 0.2684935927391052, -0.1385771781206131, -0.10149259865283966, 0.0705505758523941, 0.09236233681440353, -0.12515924870967865, 0.2402569204568863, 0.02202671207487583, 0.14749088883399963, 0.2494744211435318, 0.19863559305667877, 0.13748987019062042, 0.19912904500961304, 0.16054417192935944, 0.03932186961174011, -0.07723286747932434, 0.12470157444477081, 0.15982578694820404, 0.11510297656059265, -0.062428925186395645, 0.13394415378570557, 0.07483737915754318, -0.013661769218742847, -0.03156647831201553, 0.025865349918603897, 0.10005998611450195, -0.1030469611287117, 0.10145411640405655, -0.14445404708385468, -0.14750458300113678, 0.07023530453443527, 0.10148103535175323, -0.12295236438512802, 0.05310666561126709, -0.09757765382528305, 0.20125576853752136, -0.037935107946395874, 0.33259886503219604, 0.1723596751689911, 0.17943474650382996, -0.02684425376355648, -0.0096094636246562, -0.08679892867803574, 0.0004607374721672386, -0.09854397177696228, 0.07239215075969696, 0.023262150585651398, 0.0743570327758789, 0.09971205145120621, 0.09366271644830704, -0.010864106938242912, -0.07555227726697922, 0.07028663903474808, 0.0744527280330658, -0.006681128870695829, -0.09349923580884933, 0.14824292063713074, 0.026095813140273094, -0.08764350414276123, -0.0017005002591758966, 0.08366960287094116, -0.01216061506420374, 0.11746679991483688, 0.27023565769195557, 0.19714030623435974, 0.14772672951221466, 0.10785942524671555, 0.11988953500986099, 0.11817539483308792, -0.07170181721448898, 0.12396377325057983, -0.027693772688508034, 0.12526266276836395, 0.07396098226308823, 0.13994966447353363, 0.016506293788552284, 0.06807118654251099, -0.13474774360656738, 0.01966082490980625, -0.1020415797829628, 0.44826698303222656, -0.03078536130487919, 0.06748757511377335, 0.030388163402676582, 0.037060681730508804, -0.4350687265396118, 0.030010094866156578, -0.13810256123542786, 0.3423946499824524, 0.28735658526420593, -0.06286747753620148, -0.0809316337108612, 0.13043008744716644, -0.2500205934047699, -0.1255260705947876, 0.006199835799634457, -0.062239762395620346, -0.08545879274606705, 0.1515948623418808, -0.00621660565957427, -0.15580543875694275, -0.01899842731654644, -0.13781392574310303, 0.028397683054208755, -0.015124802477657795, 0.10534337908029556, -0.3517398238182068, 0.10270886868238449, 0.0692007765173912, 0.2973283529281616, -0.23742130398750305, -0.2795584797859192, -0.03495776653289795, 0.08942396193742752, 0.1265791803598404, 0.07225780189037323, -0.10961814224720001, 0.03658384829759598, 0.047451455146074295, 0.101316437125206, -0.14084886014461517, -0.015453468076884747, 0.051310885697603226, 0.1483713537454605, 0.12366850674152374, 0.022852744907140732, 0.005024048499763012, 0.0520605705678463, 0.0076170265674591064, -0.08255790174007416, -0.12591136991977692, 0.13485729694366455, -0.1515158861875534, -0.10233663767576218, -0.03094637580215931, 0.08179549127817154, 0.025712687522172928, 0.01554145012050867, -0.07006938755512238, 0.12159526348114014, -0.06385377794504166, -0.14158757030963898], [-0.04113192483782768, -0.04980017617344856, 0.11281590163707733, 0.10950057953596115, 0.09240344166755676, -0.13992652297019958, 0.08276297897100449, 0.0008387948619201779, 0.13872642815113068, -0.14425897598266602, -0.1623387336730957, 0.19894462823867798, 0.09459098428487778, 0.15784898400306702, -0.038231782615184784, 0.07134512066841125, 0.10315511375665665, 0.05922836810350418, -0.0798024833202362, 0.062382664531469345, 0.037885066121816635, 0.08439138531684875, 0.09163239598274231, -0.04488217458128929, 0.01943895034492016, -0.04081302881240845, -0.10841439664363861, -0.06743813306093216, 0.09825428575277328, 0.1698833853006363, 0.036740992218256, -0.012480804696679115, 0.042134448885917664, 0.197710782289505, -0.05240168049931526, 0.009721893817186356, -0.08102364093065262, -0.1313292533159256, -0.054662879556417465, -0.06724684685468674, 0.12163208425045013, 0.1481815129518509, 0.10133139044046402, 0.027628108859062195, -0.011607245542109013, -0.016834501177072525, 0.05596762150526047, 0.10474912822246552, -0.05707939714193344, 0.12512356042861938, 0.11470545828342438, -0.12249639630317688, -0.04683373123407364, -0.0010308012133464217, 0.011700710281729698, -0.03318574279546738, -0.10816317051649094, -0.014907622709870338, 0.23013237118721008, 0.06649015843868256, 0.020915048196911812, -0.05450068414211273, 0.030566392466425896, 0.08693663030862808, 0.08627557754516602, 0.11633697152137756, -0.024031994864344597, -0.044016629457473755, 0.09530556201934814, -0.11677824705839157, 0.0014472304610535502, -0.09420859068632126, -0.12656965851783752, -0.07040040194988251, -0.1005859375, -0.08240995556116104, -0.12365145981311798, -0.15169796347618103, -0.17972272634506226, -0.027412207797169685, -0.14505575597286224, 0.1521616280078888, -0.1104213148355484, -0.244061678647995, 0.05416321009397507, -0.0247272290289402, 0.03031570091843605, -0.2876340448856354, 0.15203428268432617, 0.004011228680610657, -0.022996066138148308, 0.01558625977486372, -0.09823671728372574, 0.142944797873497, -0.08193927258253098, -0.05977484956383705, 0.141310915350914, -0.13927073776721954, -0.15006951987743378, 0.048862285912036896, 0.135667085647583, -0.18756219744682312, 0.08591901510953903, -0.12120289355516434, -0.22670167684555054, -0.20200563967227936, 0.045125849545001984, -0.1180158481001854, -0.1720842719078064, 0.13968154788017273, 0.038435522466897964, 0.05935055762529373, 0.007338183932006359, 0.09744686633348465, 0.09130199253559113, -0.17198912799358368, -0.043755143880844116, -0.09246237576007843, 0.10544373095035553, -0.1024758368730545, -0.1474759727716446, -0.03847023472189903, 0.07582461088895798, 0.025130577385425568, 0.09441529214382172, -0.05275942012667656, 0.13086526095867157, -0.005370538681745529, -0.10923543572425842, -0.2351425439119339, -0.049748215824365616, -0.2734529674053192, -0.09787213057279587, -0.15167449414730072, 0.0326111763715744, 0.014393550343811512, 0.07937469333410263, -0.12660564482212067, -0.017168670892715454, 0.005021965131163597, 0.07994763553142548, -0.010629279538989067, -0.006082179956138134, -0.12395958602428436, -0.10101758688688278, 0.003871535649523139, 0.032589390873909, 0.18936051428318024, -0.006989122834056616, -0.210805281996727, 0.09143724292516708, -0.1651517003774643, -0.1698746532201767, 0.06569679081439972, -0.10140227526426315, -0.040143392980098724, -0.0726504772901535, 0.1458248645067215, 0.11282216012477875, 0.036802973598241806, 0.012111971154808998, 0.033264368772506714, 0.1212407723069191, -0.0462992899119854, 0.1273587942123413, -0.10563240200281143, 0.11084016412496567, 0.06060846149921417, 0.08072569966316223, -0.004276443272829056, 0.10258391499519348, 0.15537092089653015, 0.10039235651493073, -0.2848673462867737, -0.28293511271476746, -0.15574857592582703, -0.052427615970373154, -0.02058636024594307, 0.13115984201431274, -0.042705897241830826, -0.06444086134433746, -0.03721684589982033, 0.02253197878599167, -0.311678409576416, 0.12590867280960083, -0.0422750748693943, -0.0998142659664154, -0.18566587567329407, -0.027877362444996834, -0.1284402459859848, 0.11867202073335648, -0.10538376867771149, -0.019730927422642708, -0.14301736652851105, 0.13749045133590698, -5.958432302577421e-05, -0.0675472691655159, -0.11745985597372055, -0.022357825189828873, 0.05926554277539253, 0.04982723295688629, -0.01718922331929207, 0.012430205941200256, -0.16908590495586395, -0.10723318159580231, 0.03241628408432007, 0.048833880573511124, 0.09740280359983444], [-0.11493512243032455, -0.15546616911888123, 0.04364607855677605, 0.0536898709833622, 0.08450982719659805, -0.04887869209051132, -0.11534298956394196, 0.1775384098291397, 0.1987973302602768, -0.00823160819709301, 0.050633132457733154, -0.07736995071172714, -0.14929139614105225, -0.032129690051078796, -0.04295264929533005, -0.12264596670866013, 0.053157731890678406, 0.015986882150173187, 0.0738985687494278, 0.0005866822320967913, -0.12120893597602844, -0.09885186702013016, -0.06191931664943695, -0.04421466961503029, 0.02990659698843956, 0.14507396519184113, -0.04922895133495331, 0.0014824155950918794, 0.22368685901165009, 0.13868968188762665, -0.14235153794288635, 0.0805150493979454, 0.06707633286714554, 0.08026745170354843, -0.05574255809187889, -0.1855085790157318, -0.08243352919816971, 0.0951806902885437, -0.03882914409041405, 0.0313652865588665, -0.01910695806145668, -0.07561969757080078, 0.05971375107765198, 0.11249753087759018, -0.12863266468048096, -0.037645138800144196, -0.0777258574962616, 0.14063088595867157, -0.059646859765052795, -0.06206801161170006, -0.13660545647144318, 0.109315425157547, -0.032768577337265015, 0.08667966723442078, 0.14179198443889618, -0.08950405567884445, -0.05977186560630798, 0.011392036452889442, 0.022469913586974144, 0.0866217240691185, -0.06806241720914841, -0.010549357160925865, 0.07677366584539413, 0.15152153372764587, 0.07932096719741821, -0.02989191748201847, 0.06768593937158585, 0.03526609018445015, 0.16093143820762634, -0.02940681017935276, -0.10537272691726685, -0.13360020518302917, -0.13319814205169678, -0.021142080426216125, -0.2084185928106308, 0.09868860989809036, -0.1849564015865326, -0.032232869416475296, 0.004232031758874655, -0.11325768381357193, -0.015741197392344475, -0.023769034072756767, 0.044010940939188004, -0.15242785215377808, -0.04226326569914818, 0.1062193512916565, -0.12502214312553406, -0.20740242302417755, 0.14690427482128143, -0.0366470068693161, -0.07000446319580078, -0.06285206973552704, 0.15113559365272522, -0.09751754254102707, -0.10279283672571182, -0.09199652820825577, 0.06107400730252266, 0.1313612163066864, 0.00987365934997797, 0.12994083762168884, 0.0025806522462517023, 0.005889963358640671, 0.14829707145690918, 0.02843618392944336, -0.1660401076078415, -0.08294070512056351, -0.1819944828748703, -0.08098684996366501, -0.018230251967906952, -0.072971411049366, -0.06587953865528107, -0.02234620973467827, -0.12395091354846954, -0.08634547889232635, 0.05973691865801811, -0.06327518075704575, 0.023670723661780357, 0.027756111696362495, 0.11869625002145767, -0.10146509855985641, 0.13853086531162262, 0.1111375167965889, -0.14355437457561493, -0.08874142169952393, -0.010301236063241959, 0.020631998777389526, -0.02966633066534996, -0.0780801847577095, 0.060991667211055756, -0.008639566600322723, -0.04025314375758171, -0.14677350223064423, -0.007128443103283644, -0.04428662732243538, -0.08961839228868484, -0.15651321411132812, -0.04282352700829506, 0.13163353502750397, -0.0743173360824585, 0.11157909035682678, -0.0908304750919342, -0.03596816211938858, -0.03879059478640556, 0.1008409932255745, -0.06222260370850563, -0.14184635877609253, -0.12860989570617676, 0.08629865199327469, -0.12277325242757797, 0.055294279009103775, 0.0766637846827507, 0.11367478966712952, -0.09026046097278595, 0.07774565368890762, 0.2450430542230606, -0.08206586539745331, 0.11389202624559402, -0.0636826902627945, 0.11227518320083618, 0.19523341953754425, 0.0044815815053880215, -0.1265357881784439, 0.007182106375694275, -0.04807122424244881, -0.09093548357486725, -0.10787393152713776, -0.012525048106908798, 0.08134422451257706, 0.08006326854228973, -0.15300731360912323, -0.14909902215003967, -0.12095519155263901, -0.09978954493999481, -0.11678388714790344, -0.28030627965927124, 0.0030332542955875397, -0.1424000859260559, 0.019173525273799896, 0.02745414339005947, 0.2605213224887848, 0.043151870369911194, -0.022394469007849693, 0.03234177082777023, -0.24111121892929077, 0.04429564252495766, 0.04384906589984894, -0.009093687869608402, -0.15331406891345978, 0.1030479446053505, -0.047618888318538666, 0.1324073076248169, -0.06045832484960556, 0.1280232071876526, -0.06392091512680054, -0.1325865089893341, -0.12705758213996887, 0.1421077400445938, 0.08895810693502426, 0.027206186205148697, 0.06818623095750809, 0.028978873044252396, 0.06501474976539612, -0.12326739728450775, 0.0036957403644919395, 0.088271364569664, 0.08674445003271103, 0.016391105949878693, 0.09836319088935852], [-0.0007124816766008735, -0.10803847014904022, 0.09004393219947815, -0.018028516322374344, -0.17138145864009857, -0.04035568982362747, -0.029382001608610153, 0.1521642953157425, -0.016481749713420868, 0.03343736752867699, 0.13387252390384674, -0.13347898423671722, 0.03035033866763115, -0.14332425594329834, -0.0068527269177138805, 0.09637261182069778, 0.08262539654970169, 0.12195112556219101, 0.061194196343421936, 0.10998489707708359, -0.1361013799905777, 0.12860643863677979, -0.10230366885662079, 0.05325626954436302, 0.046505752950906754, 0.039334170520305634, 0.044498663395643234, -0.0025168887805193663, -0.16285398602485657, -0.05183534696698189, 0.05243543162941933, -0.176934614777565, -0.0077390787191689014, -0.09809644520282745, -0.0835442841053009, 0.14368197321891785, 0.13795070350170135, -0.1072540134191513, -0.16264136135578156, 0.17787916958332062, 0.048433613032102585, 0.04106196388602257, -0.022468475624918938, -0.2251431792974472, -0.07330537587404251, 0.10539834201335907, 0.016991108655929565, 0.011712710373103619, 0.12779948115348816, -0.08850796520709991, 0.014690034091472626, -0.019970590248703957, 0.07845260202884674, -0.1112995371222496, 0.15304739773273468, 0.0016235403018072248, 0.05906642973423004, -0.22735638916492462, -0.10848856717348099, 0.05848648026585579, 0.029604468494653702, 0.026678573340177536, -0.16306732594966888, 0.01451215147972107, 0.014708767645061016, 0.11180726438760757, 0.09434802830219269, 0.06028781831264496, -0.009504327550530434, 0.028350237756967545, -0.13663634657859802, -0.04985307157039642, 0.1421799659729004, 0.058843035250902176, -0.07267095893621445, -0.16399553418159485, -0.03220134600996971, 0.10462500154972076, 0.08634744584560394, -0.014053069986402988, 0.11178992688655853, 0.0576326884329319, -0.07365208119153976, 0.08030173927545547, -0.11357139050960541, 0.025974903255701065, 0.06430871039628983, -0.044106386601924896, 0.007753797806799412, 0.017681855708360672, -0.1184811145067215, -0.13922534883022308, 0.042687397450208664, 0.06600269675254822, 0.12349104136228561, 0.009786062873899937, 0.017576618120074272, 0.07539445906877518, -0.08905168622732162, -0.024295829236507416, 0.055909596383571625, 0.058341965079307556, -0.09986018389463425, 0.14586485922336578, 0.0008091632043942809, 0.044356510043144226, -0.09357763081789017, -0.027090109884738922, 0.05289888754487038, 0.04215121269226074, -0.10316561162471771, 0.14047999680042267, -0.008136704564094543, -0.08865882456302643, 0.07869619876146317, -0.09188759326934814, -0.05287745222449303, 0.03660714626312256, -0.03989794850349426, -0.036191266030073166, -0.11284241080284119, 0.06939415633678436, 0.06084604188799858, 0.12659034132957458, -0.0870642438530922, -0.1544199287891388, -0.11246230453252792, 0.11164489388465881, 0.06278660148382187, 0.047704000025987625, 0.001836684299632907, -0.0031393561512231827, 0.0859442800283432, 0.1882343292236328, 0.004394856747239828, -0.013680052943527699, 0.0016627699369564652, -0.018368076533079147, -0.05946730077266693, 0.00877833180129528, -0.024663077667355537, -0.14703930914402008, -0.006867197807878256, -0.028286630287766457, 0.12868617475032806, -0.027307521551847458, -0.22350311279296875, 0.009343622252345085, 0.09525861591100693, 0.057943716645240784, 0.014453771524131298, 0.15041866898536682, -0.0060177939012646675, 0.000824148824904114, -0.2725708782672882, -0.3166409730911255, -0.11239144206047058, 0.12875626981258392, 0.07151541858911514, 0.5732436776161194, 0.13139399886131287, 0.02738838456571102, -0.03128502517938614, 0.15112866461277008, 0.09424029290676117, 0.06694817543029785, -0.04802394285798073, -0.010808913968503475, -0.11748692393302917, -0.08785136789083481, -0.024836137890815735, -0.011159568093717098, 0.4277815520763397, -0.24991467595100403, -0.26918190717697144, -0.49441957473754883, -0.06545266509056091, 0.2991649806499481, -0.07816778868436813, 0.18127602338790894, -0.03900216147303581, -0.10667164623737335, 0.37250426411628723, -0.24174831807613373, 0.043769266456365585, 0.1497451663017273, 0.15052759647369385, -0.025729918852448463, 0.11927736550569534, 0.1185968741774559, 0.15438346564769745, -0.0749451145529747, -0.006537391804158688, 0.07258222252130508, -0.054748643189668655, -0.031050169840455055, -0.03718137368559837, 0.06894193589687347, 0.027040986344218254, 0.05480713024735451, -0.10277005285024643, 0.016142798587679863, -0.022178106009960175, -0.062123339623212814, 0.13340330123901367, 0.13311684131622314, -0.012384614907205105, -0.11613226681947708], [0.10540694743394852, -0.015463714487850666, -0.12096327543258667, 0.15890765190124512, -0.16174496710300446, 0.06887097656726837, 0.005094468127936125, -0.1508810669183731, -0.03191855922341347, -0.030878761783242226, 0.06419622153043747, 0.00043892578105442226, -0.09662090241909027, -0.021881641820073128, -0.11764761805534363, 0.10657556354999542, -0.10416717827320099, 0.04707346856594086, -0.0010022582719102502, 0.13576136529445648, 0.06986924260854721, 0.05123399943113327, -0.08013924956321716, -0.07790301740169525, -0.12348116189241409, -0.14371560513973236, -0.11449608206748962, 0.1128663718700409, -0.19547955691814423, 0.15895777940750122, 0.04922014847397804, -0.14314275979995728, 0.0006316190701909363, -0.10801355540752411, -0.08283745497465134, -0.019929412752389908, 0.05040504038333893, 0.010340492241084576, 0.06201945245265961, -0.010146858170628548, -0.09751265496015549, 0.025989970192313194, -0.14658232033252716, -0.06338600814342499, -0.017810791730880737, -0.04769308492541313, -0.1425517499446869, 0.09647046029567719, 0.12529894709587097, 0.02178976684808731, 0.14420640468597412, 0.13688461482524872, -0.13325682282447815, -0.009444114752113819, -0.10249022394418716, -0.13332033157348633, -0.1227317750453949, -0.22720064222812653, -0.09248512238264084, -0.09088922291994095, 0.02891256846487522, -0.10733246803283691, -0.1919926106929779, 0.030224772170186043, -0.00967185664921999, 0.039774056524038315, 0.1117776408791542, -0.007434024941176176, -0.06996940076351166, -0.1377817839384079, -0.05826371908187866, 0.07183708250522614, -0.04655151441693306, 0.035115912556648254, 0.013401214964687824, 0.054062534123659134, 0.09609871357679367, -0.04740353301167488, 0.06060228496789932, -0.04120289534330368, 0.12566480040550232, -0.15401577949523926, 0.18647129833698273, 0.14719028770923615, -0.05149255320429802, -0.06870099157094955, -0.0004897346952930093, 0.03560980036854744, -0.014772255904972553, -0.07416900247335434, -0.12581703066825867, 0.061392899602651596, 0.0795525312423706, -0.12791962921619415, 0.08421044051647186, 0.038108035922050476, -0.007646212819963694, 0.03875524923205376, -0.07785967737436295, -0.11195474117994308, 0.06899736821651459, 0.016522353515028954, -0.10054624825716019, 0.0180069487541914, 0.09694978594779968, 0.0496109239757061, 0.12141618132591248, 0.10892632603645325, -0.04362217336893082, -0.106184221804142, 0.0034541317727416754, -0.024469226598739624, -0.07107292860746384, -0.02226053550839424, -0.0755692720413208, -0.027915600687265396, -0.04728648066520691, 0.10536226630210876, -0.09558162093162537, -0.08725783228874207, 0.13473521173000336, -0.12209433317184448, 0.04121826961636543, 0.040104225277900696, -0.13089631497859955, -0.1042972058057785, 0.06777311861515045, -0.10501857846975327, 0.08943870663642883, -0.048067040741443634, -0.02200234867632389, 0.07256957143545151, -0.034029506146907806, -0.044057704508304596, 0.03639085218310356, -0.09594389796257019, 0.05861148610711098, 0.023131581023335457, 0.05560081824660301, -0.09801754355430603, 0.1115412563085556, -0.0598558709025383, -0.12905164062976837, -0.13477222621440887, -0.13258545100688934, -0.033728085458278656, -0.17233528196811676, 0.12058086693286896, -0.08587396144866943, 0.1435060203075409, 0.061452992260456085, 0.09966610372066498, -0.13013331592082977, -0.09812288731336594, 0.08598273247480392, 0.16553528606891632, 0.023427465930581093, -0.11254963278770447, 0.13393132388591766, -0.07053551822900772, -0.05294157937169075, -0.08140868693590164, -0.00506701460108161, 0.13626937568187714, -0.050509560853242874, 0.12980373203754425, -0.025722559541463852, 0.13136298954486847, -0.03292298689484596, -0.05159411579370499, 0.13313624262809753, 0.06878188252449036, -0.019868331030011177, 0.004706687293946743, 0.06458686292171478, -0.13870024681091309, 0.02405867911875248, -0.07881700992584229, 0.014533628709614277, 0.21391262114048004, 0.19057464599609375, 0.09556227177381516, 0.020652323961257935, 0.10788822174072266, -0.03487526252865791, 0.08461382240056992, -0.1558832973241806, 0.19684787094593048, 0.012043111957609653, 0.05954392999410629, -0.030649244785308838, -0.029800867661833763, 0.14210005104541779, -0.1330142319202423, 0.10785337537527084, -0.12242348492145538, -0.048488352447748184, -0.15460124611854553, -0.15869155526161194, 0.04484621062874794, 0.04390591382980347, 0.1472282111644745, 0.030147450044751167, 0.12312085926532745, -0.037546031177043915, -0.030186431482434273, -0.13409565389156342, 0.13310979306697845], [0.08530425280332565, 0.023683449253439903, -0.03916648030281067, 0.14830856025218964, -0.04327579587697983, 0.11568146198987961, 0.16769827902317047, 0.005789993330836296, 0.042270466685295105, -0.1192181184887886, 0.047979701310396194, 0.03992148116230965, -0.01885688677430153, -0.14812950789928436, -0.13269446790218353, 0.08837589621543884, -0.13372504711151123, 0.09950891882181168, 0.06570140272378922, 0.13601559400558472, 0.08979126811027527, 0.13035865128040314, 0.04654020071029663, 0.05015190318226814, -0.027051130309700966, -0.0502246618270874, -0.12209777534008026, -0.052472587674856186, -0.03687498718500137, 0.11049588769674301, -0.08495686203241348, -0.13066314160823822, 0.14323611557483673, -0.04620658606290817, 0.047895438969135284, -0.014064162038266659, -0.11939657479524612, 0.04061564803123474, 0.00835369247943163, -0.12949329614639282, -0.11349662393331528, 0.10321447253227234, 0.13330167531967163, 0.06584492325782776, 0.07907740771770477, -0.03653839975595474, 0.15691395103931427, 0.09988940507173538, 0.1343044638633728, -0.14620129764080048, -0.15315237641334534, 0.1561436653137207, 0.02008260414004326, 0.04481528326869011, 0.04892868548631668, -0.10816678404808044, -0.16734544932842255, -0.021215230226516724, 0.03779255598783493, -0.030314065515995026, 0.03442118689417839, -0.12667374312877655, 0.09018240869045258, 0.01923680305480957, 0.09317042678594589, 0.16596612334251404, -0.10380489379167557, -0.06994479894638062, -0.009342627599835396, 0.001524749561212957, 0.07766093313694, 0.16382300853729248, 0.07780282199382782, -0.1575363576412201, -0.02101113460958004, -0.2374526709318161, 0.1384245604276657, 0.05618996545672417, -0.16559454798698425, 0.0944344699382782, -0.2813534736633301, 0.10394920408725739, -0.27211833000183105, -0.020848048850893974, -0.03418958932161331, -0.10121861845254898, 0.049856558442115784, -0.009857110679149628, -0.15206782519817352, -0.06826209276914597, -0.024647125974297523, 0.08399523049592972, -0.054706964641809464, -0.0561353974044323, 0.1406935304403305, -0.062170106917619705, 0.02786494605243206, -0.0220619086176157, -0.07648484408855438, -0.07486993074417114, -0.01608067937195301, 0.1247350350022316, -0.04087826982140541, -0.02903836779296398, 0.2034955620765686, -0.2461935430765152, 0.23894819617271423, 0.035163138061761856, 0.03011946752667427, 0.09662862122058868, 0.010331524536013603, -0.17061494290828705, -0.07240290194749832, 0.14855487644672394, 0.02568667195737362, 0.17076073586940765, -0.011033737100660801, 0.04867168515920639, -0.047510698437690735, 0.005518477410078049, -0.15043000876903534, 0.0699770525097847, -0.11247649788856506, 0.02097080461680889, 0.025856075808405876, -0.02896237187087536, 0.1332094520330429, 0.11154556274414062, -0.029117388650774956, -0.1264476180076599, 0.11885594576597214, 0.129141703248024, 0.10545270144939423, 0.056149739772081375, -0.13296976685523987, -0.1242896020412445, -0.12027443200349808, 0.040756355971097946, -0.011816365644335747, -0.0584733746945858, 0.17744289338588715, -0.005118655972182751, -0.003161044791340828, -0.007826310582458973, 0.004410874098539352, 0.15950118005275726, 0.34452030062675476, 0.035060200840234756, 0.09883399307727814, -0.15667569637298584, 0.004711949732154608, 0.019254356622695923, 0.19055207073688507, -0.144972026348114, -0.1763126105070114, 0.40690600872039795, 0.03882516548037529, 0.06821276992559433, -0.10076022893190384, 0.001290458138100803, -0.14952030777931213, -0.15419460833072662, -0.06135481595993042, 0.055143699049949646, -0.06012478470802307, 0.014405588619410992, 0.034277793020009995, 0.09664739668369293, 0.13044488430023193, -0.13792085647583008, -0.012914050370454788, -0.07893052697181702, 0.11861708760261536, 0.003886408405378461, 0.2514973282814026, -0.3264111280441284, 0.04252709075808525, -0.1195962131023407, 0.07714158296585083, -0.11755174398422241, 0.00818472821265459, -0.06878684461116791, 0.43953937292099, -0.13652877509593964, 0.14578519761562347, 0.05423407256603241, 0.0075797392055392265, -0.054391276091337204, 0.14756648242473602, 0.015333498828113079, -0.08473841100931168, -0.0038440595380961895, -0.0801362544298172, 0.01353540737181902, -0.023021768778562546, -0.14757663011550903, -0.08553329110145569, -0.07521513849496841, 0.09064941108226776, -0.1455659717321396, 0.15767140686511993, 0.05266914144158363, -0.1476932018995285, -0.11942252516746521, 0.05193180590867996, 0.03551211208105087, -0.1536659151315689, -0.11205456405878067], [-0.05221131443977356, -0.13914290070533752, 0.10465887188911438, 0.1270744949579239, -0.21645024418830872, 0.15080741047859192, 0.04051603749394417, 0.011795795522630215, -0.21944963932037354, -0.046636734157800674, 0.17177411913871765, 0.011044547893106937, -0.04506425932049751, -0.1311476230621338, 0.014392528682947159, -0.0318664014339447, 0.15404728055000305, 0.10689620673656464, 0.058053188025951385, -0.13120050728321075, -0.02564847655594349, 0.1374482810497284, -0.02315676212310791, 0.032893650233745575, -0.10545232892036438, -0.028524573892354965, 0.027045035734772682, -0.1472296416759491, -0.056734755635261536, 0.10411912202835083, 0.04337942972779274, 0.06481178104877472, -0.11289414763450623, 0.026585659012198448, -0.08208119124174118, 0.22109363973140717, 0.021940095350146294, 0.07782901078462601, -0.04576713964343071, -0.07969171553850174, 0.09233707189559937, -0.09819860011339188, 0.15064381062984467, -0.13314062356948853, 0.07007256150245667, 0.09548391401767731, 0.14980146288871765, 0.0026280698366463184, 0.01731094904243946, 0.08294845372438431, -0.07822921872138977, -0.09378889948129654, 0.015271037817001343, -0.11928584426641464, 0.02012602426111698, -0.15252196788787842, -0.14875103533267975, -0.1470779925584793, 0.014499394223093987, -0.1113121435046196, 0.0795370414853096, -0.03694000840187073, 0.035801637917757034, -0.07810626178979874, 0.03469836711883545, -0.06744658201932907, -0.06029609963297844, -0.11951431632041931, 0.0597592256963253, 0.04908626899123192, 0.06288778781890869, -0.026990799233317375, 0.11751571297645569, 0.01631772331893444, 0.16513581573963165, -0.08414933830499649, 0.13403668999671936, -0.09645385295152664, 0.1402885764837265, 0.06010835990309715, -0.023067506030201912, -0.012765505351126194, 0.2040298879146576, 0.04109878093004227, 0.050005897879600525, 0.11172348260879517, 0.07502661645412445, 0.1722477674484253, -0.1538759022951126, -0.15738597512245178, 0.052928708493709564, 0.06660811603069305, 0.07978450506925583, 0.02966424822807312, 0.06650662422180176, 0.09812311083078384, 0.11536327004432678, -0.04016021266579628, 0.06278900802135468, 0.11772139370441437, -0.0027315067127346992, -0.004258263390511274, -0.044013455510139465, -0.1128910705447197, 0.1843591034412384, 0.004987308289855719, -0.01923467218875885, 0.035440415143966675, 0.1992657631635666, -0.012283910065889359, -0.15335853397846222, 0.019427353516221046, -0.09683943539857864, 0.02206781506538391, -0.059459589421749115, 0.13178367912769318, -0.08380834013223648, 0.0757535919547081, -0.019503379240632057, 0.06138256564736366, 0.09815177321434021, 0.0021188019309192896, -0.11168668419122696, -0.12655766308307648, 0.013078417629003525, 0.12624725699424744, 0.11169588565826416, -0.011881583370268345, 0.16106626391410828, 0.23277994990348816, 0.1186070591211319, -0.020046867430210114, 0.15814369916915894, 0.08323553204536438, 0.15349510312080383, -0.10328715294599533, 0.10195201635360718, 0.06875710934400558, -0.09102790057659149, 0.11150559037923813, -0.143711656332016, 0.015260196290910244, 0.12162595242261887, 0.1491851508617401, 0.05840614065527916, 0.037599802017211914, -0.002145534148439765, 0.06620689481496811, -0.10259149223566055, -0.047987669706344604, -0.1258249133825302, 0.08690471202135086, -0.036816272884607315, 0.020481863990426064, -0.06732504069805145, 0.07674989104270935, -0.09722548723220825, 0.10547942668199539, -0.15242233872413635, -0.07479376345872879, -0.010000058449804783, -0.05901751294732094, -0.09869283437728882, 0.13513562083244324, 0.1532091647386551, 0.01998872309923172, -0.1197674423456192, -0.09185540676116943, -0.15689554810523987, 0.12151060253381729, -0.005282184109091759, -0.011537175625562668, 0.25649815797805786, 0.0005956331733614206, 0.1959826797246933, -0.22017928957939148, 0.015556090511381626, 0.08790922164916992, -0.21812483668327332, -0.012242771685123444, 0.04397900775074959, -0.026356862857937813, 0.13039976358413696, 0.16583213210105896, -0.0718897357583046, -0.10269956290721893, -0.06742177903652191, -0.09386086463928223, 0.10206067562103271, 0.025678003206849098, -0.07889463752508163, 0.012511155568063259, 0.08715800940990448, -0.03735039755702019, -0.08870212733745575, -0.09665943682193756, 0.11123162508010864, 0.13317376375198364, -0.03503758832812309, -0.01057776901870966, 0.08703261613845825, -0.0021290844306349754, 0.12833359837532043, 0.031299490481615067, 0.14288119971752167, -0.07707088440656662, -0.03853916376829147, 0.03103991225361824], [0.00854708906263113, -0.029517369344830513, -0.14009332656860352, 0.15110570192337036, -0.18834613263607025, 0.013920680619776249, 0.04315024986863136, -0.1528988927602768, 0.006037349812686443, 0.11313048750162125, 0.21398769319057465, -0.0015427892794832587, -0.116797536611557, 0.14123544096946716, 0.08073558658361435, -0.04548841714859009, -0.12501494586467743, 0.0940345823764801, 0.009360075928270817, -0.05087282136082649, -0.032378967851400375, -0.052105505019426346, 0.039686642587184906, -0.03169787675142288, 0.0150863416492939, -0.0827128067612648, -0.12859614193439484, 0.12022999674081802, -0.10547637194395065, -0.1011541485786438, -0.07473841309547424, -0.022191951051354408, -0.0474756695330143, 0.09348403662443161, 0.08154666423797607, 0.05618367716670036, -0.11928483098745346, 0.018344702199101448, -0.2507902681827545, -0.06157604232430458, -0.013452580198645592, -0.12011385709047318, -0.03291197121143341, 0.07090246677398682, -0.11282052844762802, 0.010016790591180325, -0.027549609541893005, 0.1362643539905548, 0.03898945823311806, -0.10235682129859924, 0.06762389093637466, 0.15634573996067047, -0.13700127601623535, -0.09500731527805328, -0.0706024244427681, 0.011360428296029568, 0.10158918052911758, -0.06044059991836548, -0.05581003054976463, 0.009214058518409729, -0.020789574831724167, -0.019942644983530045, -0.06941968947649002, 0.0986340120434761, -0.0031868864316493273, 0.18490912020206451, 0.15303416550159454, -0.03969893231987953, 0.07144983112812042, -0.11832420527935028, 0.00238680187612772, -0.05819312483072281, -0.017433471977710724, 0.0695415735244751, 0.20654946565628052, -0.05215644836425781, 0.17807093262672424, 0.12151303142309189, 0.18371616303920746, 0.043171171098947525, 0.14333747327327728, 0.15646059811115265, 0.13507629930973053, 0.14224979281425476, 0.15725979208946228, 0.056468524038791656, -0.13117162883281708, 0.15743675827980042, -0.14344248175621033, -0.05867253988981247, 0.05828732252120972, -0.02205490507185459, 0.14063039422035217, 0.07970251142978668, 0.008920840919017792, 0.10714805871248245, -0.007676421664655209, 0.08915847539901733, -0.056482113897800446, 0.03830038011074066, 0.09511096030473709, -0.06258544325828552, -0.07099167257547379, -0.050271667540073395, 0.05556601658463478, -0.04436444118618965, 0.13412268459796906, 0.11768601089715958, 0.00422449316829443, 0.060886092483997345, -0.11601919680833817, -0.012326639145612717, -0.14741790294647217, -0.01333659142255783, 0.06865071505308151, 0.07427235692739487, 0.0376385897397995, 0.07268893718719482, -0.1240915060043335, 0.15335489809513092, -0.05009739100933075, -0.0020120118279010057, 0.013482674956321716, -0.02156221866607666, -0.012328692711889744, 0.14742891490459442, 0.033414576202631, -0.016441525891423225, 0.15429304540157318, -0.02356353960931301, 0.0773579552769661, 0.04694781079888344, 0.14467592537403107, 0.10039817541837692, 0.07642823457717896, -0.11419456452131271, 0.1185702532529831, 0.063153937458992, -0.05610313639044762, -0.009063700214028358, 0.1404135376214981, -0.05320149287581444, 0.09244973212480545, -0.002515407046303153, -0.08863861858844757, 0.08497710525989532, -0.1671416014432907, -0.07376736402511597, 0.08052285760641098, 0.25667187571525574, 0.012372846715152264, 0.21151404082775116, 0.06924363970756531, 0.05129676312208176, 0.05741557106375694, -0.06132391095161438, -0.14144879579544067, -0.08139891922473907, 0.02113710343837738, -0.02568175084888935, 0.04680083692073822, -0.01203069556504488, -0.14987073838710785, 0.11245102435350418, 0.027816982939839363, -0.11455661058425903, 0.019580112770199776, -0.12382379174232483, -0.005506401415914297, -0.02930140495300293, 0.08347479999065399, -0.12440101057291031, -0.010780423879623413, -0.025841709226369858, -0.01698320358991623, -0.0204874686896801, 0.11062279343605042, 0.1276971697807312, -0.04414515569806099, 0.09889576584100723, -0.03290509805083275, -0.140265092253685, 0.13581471145153046, 0.0975303202867508, -0.13848872482776642, -0.057226501405239105, -0.06835650652647018, 0.06381922215223312, -0.06872033327817917, 0.0954432561993599, -0.08714691549539566, -0.07120553404092789, -0.07570865750312805, -0.11258786916732788, -0.07564347237348557, 0.14699259400367737, -0.15200218558311462, -0.09872467070817947, -0.01850982755422592, 0.04139088839292526, -0.11167465150356293, 0.10647235065698624, 0.019768649712204933, 0.05815793573856354, -0.017379820346832275, -0.0647173598408699, -0.06444037705659866, -0.043237436562776566], [-0.02232983522117138, -0.11642752587795258, -0.008907828480005264, 0.021313173696398735, 0.023379236459732056, 0.11892043054103851, -0.211190864443779, 0.07270541042089462, 0.07571812719106674, -0.13069605827331543, -0.11196178197860718, 0.02298516035079956, 0.09427326172590256, 0.1586698293685913, -0.0031368837226182222, 0.047261908650398254, -0.07303357124328613, -0.07671546190977097, 0.14323408901691437, 0.02699131891131401, -0.015191012062132359, -0.02151690609753132, 0.12930899858474731, -0.048170629888772964, -0.03844517469406128, -0.13573668897151947, -0.023701122030615807, 0.13746602833271027, 0.09251818805932999, 0.0438600517809391, -0.15053172409534454, -0.09574238955974579, -0.13000717759132385, -0.04573533311486244, -0.09725149720907211, -0.10600502789020538, -0.14090268313884735, 0.13491256535053253, 0.0914536863565445, 0.06623812764883041, 0.011285285465419292, -0.022613953799009323, 0.022262316197156906, 0.1993635594844818, -0.15068821609020233, 0.05065973475575447, -0.1507359892129898, -0.0413680262863636, 0.09988902509212494, 0.0362577810883522, -0.09600287675857544, -0.05278099700808525, -0.07086067646741867, 0.04554259777069092, 0.11516165733337402, -0.04236876964569092, -0.08808229863643646, 0.153916597366333, -0.035944562405347824, -0.11122629791498184, 0.004181212279945612, 0.23180225491523743, 0.1774001568555832, 0.05725311487913132, 0.008267492055892944, 0.04470000043511391, 0.009123588912189007, -0.10612870007753372, -0.06360794603824615, -0.11825039237737656, -0.14741399884223938, 0.055633608251810074, -0.11135724931955338, -0.20660196244716644, -0.1217213124036789, -0.15319038927555084, -0.16450285911560059, -0.12637992203235626, -0.0397968515753746, 0.03770425543189049, -0.20878353714942932, -0.14286984503269196, 0.031528372317552567, 0.040463920682668686, -0.09336503595113754, -0.033302564173936844, 0.0034815187100321054, -0.012194412760436535, -0.12940245866775513, -0.08650742471218109, 0.0897807776927948, -0.03438340872526169, 0.0756848081946373, -0.06838898360729218, -0.011239594779908657, -0.10014542192220688, 0.12697377800941467, -0.08343001455068588, 0.031447384506464005, -0.012096185237169266, -0.10959099233150482, -0.17848724126815796, -0.029907461255788803, -0.1062282919883728, -0.08540426194667816, -0.2295990288257599, -0.03836534917354584, 0.08804968744516373, -0.020894719287753105, -0.025567011907696724, 0.06733306497335434, -0.0761127918958664, 0.07671625167131424, -0.11171946674585342, -0.1573057919740677, -0.04910556226968765, 0.1395452320575714, -0.12252160906791687, -0.004626718815416098, -0.022244220599532127, 0.07076573371887207, 0.1276044398546219, 0.10814031958580017, 0.08574910461902618, -0.05956770479679108, 0.09970153123140335, -0.10835988074541092, 0.12479723989963531, -0.05533618479967117, -0.12215562909841537, -0.25842469930648804, -0.2226734310388565, -0.20939412713050842, -0.07270701229572296, -0.23834910988807678, -0.10704781860113144, -0.03734598308801651, -0.04283374547958374, -0.017475975677371025, -0.05660054832696915, -0.09131386131048203, 0.032288242131471634, 0.038804106414318085, 0.09618405252695084, -0.037585146725177765, 0.006412504706531763, -0.09433063864707947, 0.2109927386045456, -0.13140474259853363, -0.07627435028553009, -0.03711451217532158, -0.1729852259159088, 0.0340169295668602, 0.1100844219326973, -0.05207769200205803, 0.09227098524570465, 0.0621248334646225, 0.13385780155658722, -0.13352392613887787, 0.13832059502601624, -0.07933266460895538, 0.002176834037527442, -0.07273640483617783, 0.03638603165745735, -0.12025755643844604, -0.12782661616802216, 0.09628194570541382, 0.13290885090827942, 0.12409510463476181, -0.020177394151687622, 0.06306436657905579, 0.13610884547233582, 0.11651326715946198, -0.18068857491016388, -0.06747513264417648, -0.16703321039676666, 0.09383495897054672, -0.08068186789751053, 0.06445351243019104, -0.05897894129157066, -0.11442678421735764, 0.13465934991836548, 0.0903419479727745, -0.08131816238164902, 0.005134131759405136, 0.08992871642112732, -0.09749119728803635, 0.019851088523864746, 0.14595186710357666, 0.06424647569656372, -0.0347214974462986, 0.07507866621017456, -0.09362824261188507, 0.08131109923124313, -0.11906306445598602, 0.080739825963974, 0.04847347363829613, 0.024078350514173508, 0.04805195331573486, 0.007997775450348854, -0.10440851747989655, -0.15190988779067993, -0.15999408066272736, 0.07566685974597931, -0.1432228535413742, 0.03689827397465706, -0.13039441406726837, 0.03446407988667488], [0.16097505390644073, 0.15247225761413574, -0.08960725367069244, 0.028215238824486732, -0.17088443040847778, 0.030567843466997147, 0.11824987083673477, 0.07919095456600189, -0.009683248586952686, 0.0068305060267448425, 0.20837469398975372, -0.19184495508670807, 0.003671439131721854, 0.03769124671816826, 0.018029330298304558, -0.05920596048235893, -0.15522654354572296, -0.035838719457387924, 0.02129431627690792, 0.12726734578609467, -0.0065391333773732185, -0.02148079127073288, -0.05588259920477867, 0.026833614334464073, 0.1387808918952942, 0.04256599396467209, 0.006033764220774174, 0.03052591159939766, -0.11945405602455139, -0.04751807451248169, 0.013246194459497929, -0.06745857745409012, 0.08339595794677734, -0.026891008019447327, -0.1474953442811966, 0.09319388121366501, 0.0015113144181668758, 0.014126178808510303, 0.012189896777272224, 0.158639594912529, 0.1073237806558609, 0.11332006752490997, 0.05657550320029259, 0.027072111144661903, 0.10717376321554184, 0.09366674721240997, 0.10636630654335022, -0.1268891990184784, -0.023972582072019577, 0.14042434096336365, -0.08563728630542755, -0.009042545221745968, -0.011075718328356743, -0.062360405921936035, 0.020207906141877174, -0.025554632768034935, 0.058983489871025085, -0.04742269217967987, -0.115075021982193, -0.11608190089464188, -0.044170115143060684, -0.10493385791778564, -0.09362959861755371, 0.06021131947636604, 0.16686652600765228, 0.11412938684225082, 0.03378203138709068, 0.055062659084796906, -0.07913997769355774, -0.17671608924865723, 0.02551826275885105, -0.15388666093349457, 0.1740420013666153, 0.1505131721496582, 0.16478727757930756, 0.0002532884245738387, -0.017622973769903183, -0.08293718844652176, -0.04465525597333908, 0.1286773830652237, 0.23866361379623413, 