{"iterations": 0, "final_fidelity": 0.275305985742099, "final_purity": -1, "optimized_trainable_parameters": {"initial_params": [[], [7.218577802101945, 2.3514859187310035, 3.215471953467886, 6.229067048932181, 1.7751352004394012, 2.233601835029501, 3.6297312517493334, 2.0318472862405326, 0.6099485482884804, 3.864856988789411, 5.998718376191112, 5.270125085447247, 6.107090168522746, 1.1264037659459263, 2.2312862808601, 4.6885618563597475, 4.711986041626106, 3.1187820662497105, 4.712510524972741, 6.3777225197812335], [0.08062436666431605, 0.923948835561414, 0.7339523451366718, 0.5794502442667795, 0.5976030059699919, 0.7000266287193331, 0.8056200973061387, 0.8894700350923472, 0.07627888141344874, 0.8728580575304441, 0.22663938029178654, 0.6564232100473297, 0.29224536994517436, 0.6596231091705356, 0.629365131022366, 0.4619819572813424]], "rnn_params": {"params": {"Dense_0": {"bias": [3.299680233001709, 3.0611250400543213, 3.5254058837890625, 3.1415927410125732, 3.1415927410125732, 3.1415927410125732, 3.1691513061523438, 3.60060715675354, 3.2404983043670654, 3.1415927410125732, 3.1415927410125732, 3.1415927410125732, 3.1071417331695557, 1.5543489456176758, 2.377413511276245, 3.941763401031494, 3.1010987758636475, 2.0723421573638916, 3.2339155673980713, 2.8720295429229736, 3.448704242706299, 2.636411190032959, 1.418731451034546, 3.1415927410125732, 3.1415927410125732, 3.1415927410125732, 2.5025556087493896, 3.1596150398254395, 3.3185606002807617, 3.1415927410125732, 3.1415927410125732, 3.1415927410125732, 3.7066874504089355, 3.7249388694763184, 1.5656200647354126, 4.427524566650391], "kernel": [[-0.07859532535076141, -0.27344653010368347, -0.12893930077552795, -0.20588016510009766, 0.15167783200740814, 0.025185370817780495, 0.05887174978852272, -0.2815297245979309, -0.020351123064756393, -0.23161502182483673, -0.11628645658493042, 0.28738605976104736, -0.6519768238067627, -0.8623942136764526, -0.13231603801250458, 0.9851019382476807, 0.3661107122898102, -0.4589407742023468, -0.42915162444114685, 0.04261977970600128, 0.038406919687986374, -0.16012847423553467, -0.610959529876709, -0.1947372704744339, -0.19849862158298492, -0.034964945167303085, 0.5691286325454712, -0.5605940818786621, 0.2560890018939972, 0.0003999012988060713, 0.16602632403373718, -0.06228741258382797, -0.2096056044101715, 0.10487346351146698, -1.1954517364501953, 0.7716274261474609], [0.04851173982024193, -0.4375855326652527, 0.03515176475048065, -0.2576797902584076, -0.22349004447460175, 0.27542388439178467, -0.0071312193758785725, -0.0008879936067387462, 0.36127743124961853, 0.13919080793857574, 0.013272151350975037, -0.24149790406227112, -0.7342946529388428, -1.1924747228622437, -0.10743178427219391, 0.7861608266830444, -0.4371170103549957, -0.10493630915880203, -0.009313475340604782, -0.08168163895606995, 0.5004360675811768, 0.031228214502334595, -0.23009060323238373, -0.1379624307155609, 0.1064402386546135, -0.3008345365524292, 0.150821715593338, -0.2968747317790985, -0.26538655161857605, -0.11208551377058029, 0.2201961725950241, -0.290767639875412, 0.9849938750267029, 1.4604954719543457, -0.6718456745147705, 1.0943658351898193], [0.20536105334758759, -0.4515991806983948, -0.5045934319496155, 0.13165904581546783, -0.01965324766933918, 0.05447053909301758, 0.06510178744792938, -1.3630725145339966, -0.3844382166862488, 0.18388940393924713, 0.2156192660331726, -0.009000834077596664, -0.38906043767929077, 0.43403732776641846, -0.07662107795476913, 0.7999107241630554, 0.39575812220573425, -0.8868064880371094, 0.030135812237858772, 0.492176353931427, 0.7057979702949524, 0.33096450567245483, 0.4923601448535919, -0.17855367064476013, -0.10593610256910324, 0.12010301649570465, 0.01831561140716076, -0.4496663510799408, -0.9245939254760742, -0.01682964153587818, 0.28213220834732056, 0.07483531534671783, 2.085087299346924, 0.2006288468837738, -0.9260532855987549, 1.2997896671295166], [-0.04766036570072174, -0.2056405246257782, 0.05332380533218384, -0.1589178889989853, -0.17584176361560822, 0.28284358978271484, 0.03998412564396858, 0.13370470702648163, 0.18940460681915283, -0.09383504837751389, -0.24123156070709229, -0.1554301232099533, -1.0943058729171753, -0.10233782976865768, 0.28404727578163147, 0.972293496131897, -0.22015559673309326, 0.015616318210959435, -0.03506177291274071, 0.17330828309059143, 0.3393779993057251, -0.2669220268726349, 0.1703154444694519, 0.07566861808300018, -0.13206274807453156, 0.24141831696033478, -0.029725464060902596, 0.060992877930402756, -0.10856998711824417, -0.020526660606265068, -0.02261854149401188, -0.04035753756761551, 0.2373705953359604, 0.8054938316345215, 0.04891177639365196, 0.4199325740337372], [0.3548465669155121, 0.06285758316516876, 0.12221849709749222, 0.06980207562446594, -0.26042747497558594, 0.02231971174478531, 0.1461430788040161, -0.42549899220466614, -0.2890717387199402, 0.22882692515850067, -0.011320376768708229, -0.23921631276607513, -0.49618443846702576, 0.41294771432876587, 0.24608328938484192, 1.1699272394180298, -0.06422261148691177, -0.7178881764411926, -0.0793890655040741, 1.4358692169189453, -0.5438823699951172, 0.49782028794288635, 0.11912767589092255, -0.22159002721309662, -0.21170026063919067, -0.29158827662467957, 1.417147159576416, 0.23483552038669586, -0.28355872631073, -0.033443912863731384, -0.24789877235889435, -0.2401793748140335, 1.2827805280685425, -0.5934464335441589, -1.3459975719451904, 1.582146167755127], [0.3962292969226837, 0.1707114726305008, -0.4552118182182312, -0.06805985420942307, -0.07412838935852051, 0.2968180477619171, -0.29522839188575745, -1.1064622402191162, -0.19337967038154602, 0.18422718346118927, 0.17080062627792358, -0.11978211998939514, -0.03341098129749298, 1.2334966659545898, 0.02379673160612583, 0.05851394683122635, 0.7685163617134094, -0.9430117011070251, -0.5626043677330017, 0.5010135173797607, 0.4851994514465332, 0.11267182230949402, 0.8366631269454956, 0.2957990765571594, -0.25011515617370605, -0.11272148787975311, 0.43616411089897156, 0.10926321148872375, -0.15569761395454407, -0.1820802390575409, -0.06083963066339493, -0.2828112244606018, -0.5103635787963867, -0.9002507328987122, -1.4495580196380615, -0.7304914593696594], [-0.09779741615056992, 0.07957222312688828, 0.014138003811240196, 0.25187987089157104, -0.20523390173912048, -0.14795909821987152, -0.13291767239570618, 0.002940811449661851, -0.003940560854971409, 0.07116467505693436, -0.019678335636854172, 0.2155304104089737, -0.8089858293533325, -0.09957262128591537, -0.3303261697292328, 0.7823432087898254, -0.5694348812103271, 0.09261069446802139, 0.02068561501801014, -0.8362993001937866, 0.10658238083124161, 0.1628701239824295, 0.4356420338153839, -0.032767754048109055, -0.12294510006904602, 0.1920935958623886, -0.2689998745918274, -0.3824690580368042, -0.2754732370376587, 0.06853818148374557, -0.03351752460002899, 0.17104294896125793, 0.2991308867931366, 0.9458926916122437, 0.577061653137207, 0.6371996402740479], [-0.29465314745903015, -0.005921836476773024, 0.10159173607826233, 0.04418179765343666, 0.08136233687400818, -0.1181408241391182, 0.10624607652425766, -0.1505061686038971, -0.154698446393013, -0.021276790648698807, -0.26923471689224243, 0.159359410405159, -0.30475524067878723, 0.870604932308197, -0.10849861055612564, -0.5397270917892456, -0.24411164224147797, 0.5807937383651733, 0.20359648764133453, -0.7974589467048645, -0.06258516758680344, 0.2713463008403778, 1.4944676160812378, 0.27990955114364624, -0.15726500749588013, -0.14854316413402557, -0.2547799050807953, -0.7062496542930603, -0.6252040266990662, 0.09011480957269669, -0.24328218400478363, 0.19746239483356476, 0.5000014305114746, 0.1340184509754181, 1.0673118829727173, 0.9379384517669678], [0.14886042475700378, 0.3860558867454529, 0.44501546025276184, -0.23328730463981628, 0.1896020919084549, -0.11414274573326111, 0.032376233488321304, 0.725182056427002, 0.4918232858181, -0.27023112773895264, 0.1658082902431488, 0.18145433068275452, 0.8627356290817261, 0.27345073223114014, 0.05178755894303322, -1.1739286184310913, -0.035152316093444824, 1.049689531326294, 0.22684170305728912, -1.0046738386154175, -0.42764490842819214, 0.12214658409357071, -0.1933847963809967, -0.025186162441968918, -0.25828662514686584, 0.02105962298810482, -0.605522871017456, 0.10900402069091797, 0.351413756608963, -0.15492792427539825, -0.29974761605262756, 0.24390262365341187, -1.2722147703170776, -0.5586432814598083, 1.5422691106796265, -1.9682420492172241], [0.0979384258389473, 0.1447702944278717, 0.05562107264995575, -0.22547978162765503, -0.0314810685813427, -0.12687532603740692, 0.01872633583843708, -0.018872015178203583, -0.27227604389190674, -0.10711301863193512, -0.23608769476413727, -0.0009433587547391653, -0.6242203712463379, -0.09657509624958038, 0.0169733427464962, 0.6689053177833557, -0.08990643173456192, -0.008319958113133907, 0.032298870384693146, 0.47147971391677856, 0.11081531643867493, 0.0006449722568504512, 0.2287713885307312, 0.026715606451034546, 0.123817577958107, 0.024599285796284676, 0.023219434544444084, -0.0628475621342659, 0.10832396894693375, -0.1862870752811432, 0.10289906710386276, 0.273438960313797, 0.6002914905548096, 0.2702384889125824, -0.5963952541351318, 0.5110589861869812], [0.00030383828561753035, -0.13995638489723206, 0.2940272092819214, -0.01763167232275009, -0.11658168584108353, 0.06643005460500717, -0.042285192757844925, -0.15426291525363922, 0.2086132913827896, 0.03420007973909378, -0.22721107304096222, 0.24388164281845093, -0.7101988792419434, -0.6613215208053589, -0.1001402735710144, 0.6455016732215881, 0.3549385368824005, -0.1577184945344925, -0.04077327251434326, 0.28859323263168335, 0.36223992705345154, -0.21861733496189117, -0.07838722318410873, 0.04306483268737793, -0.27154117822647095, 0.20472171902656555, 0.23950164020061493, 0.053003739565610886, 0.10175926238298416, -0.290972501039505, -0.08962878584861755, -0.13747677206993103, 0.8502405285835266, 0.49579837918281555, -1.086593747138977, 1.079038381576538], [0.04621776565909386, -0.014952593483030796, -0.17123869061470032, 0.17279574275016785, -0.1255871206521988, 0.030001727864146233, 0.017353925853967667, -0.034132640808820724, -0.06274651736021042, 0.20439082384109497, -0.2501901388168335, 0.2803783416748047, 0.3435351550579071, -0.4539868235588074, -0.004146448336541653, 0.28550082445144653, -0.11408773809671402, -0.07836367934942245, -0.04694110527634621, -0.021802840754389763, 0.014230957254767418, -0.04305167496204376, -0.21014800667762756, -0.09955364465713501, 0.1916481852531433, 0.26539430022239685, 0.043073542416095734, 0.030593033879995346, -0.008466608822345734, 0.27526092529296875, 0.22332888841629028, 0.19980213046073914, -0.26578792929649353, -0.04022816941142082, 0.0819988027215004, -0.1773674488067627], [0.14533944427967072, -0.27027440071105957, 0.45221543312072754, 0.09564563632011414, -0.07588880509138107, 0.22791096568107605, 0.23676085472106934, -0.2644292116165161, 0.15262353420257568, -0.27333730459213257, 0.12196450680494308, 0.2280987948179245, -0.6436011791229248, -0.628765344619751, -0.3962593674659729, 0.5502802133560181, -0.1913606822490692, -0.1082969680428505, -0.040139179676771164, 0.08274642378091812, 0.32364794611930847, 0.05807558074593544, 0.015701908618211746, 0.29774028062820435, 0.15347453951835632, 0.10642313212156296, 0.13628190755844116, -0.23448286950588226, 0.04547683894634247, 0.06012199446558952, -0.21037913858890533, 0.29515963792800903, 0.549895167350769, 0.9792856574058533, -0.7273013591766357, 0.9603828191757202], [0.0289407167583704, 0.16111904382705688, 0.29002562165260315, 0.0859670639038086, 0.11357016861438751, -0.22317799925804138, 0.1694687008857727, 1.28578782081604, 0.2879789173603058, -0.217558816075325, -0.08736243844032288, -0.03241565451025963, 0.7574999332427979, -0.2657415270805359, 0.6418445706367493, -0.79830402135849, -0.8628437519073486, 1.121713399887085, 0.4096826910972595, -0.1515643149614334, -0.9045610427856445, -0.061525292694568634, 0.44779568910598755, -0.2561641335487366, 0.03724380210042, 0.28291842341423035, 0.3439110517501831, 0.034905195236206055, -0.13543687760829926, 0.03710765019059181, 0.08860146254301071, -0.16139665246009827, -0.01920398324728012, 1.793575406074524, 1.7957855463027954, -0.7949599027633667], [-0.15785282850265503, -0.042289141565561295, 0.8391141891479492, 0.1669495552778244, -0.08229628205299377, 0.05251624807715416, 0.10620073974132538, 0.31497493386268616, 0.4727059602737427, -0.25482532382011414, 0.27425703406333923, 0.015855442732572556, -0.5589682459831238, -0.19211317598819733, -0.7022831439971924, -0.1121182069182396, -0.11904086172580719, 0.5294351577758789, -0.26198306679725647, -1.5356374979019165, 0.903033435344696, -0.4649352729320526, 0.8368515372276306, -0.231726735830307, 0.14732412993907928, -0.2256997525691986, -1.1940057277679443, 0.008095378056168556, 0.02333684265613556, -0.14877529442310333, -0.008954108692705631, -0.21978649497032166, -0.7438482642173767, 0.6040127873420715, -0.37955331802368164, -0.6987334489822388], [0.11966925114393234, 0.17951878905296326, 0.16384556889533997, -0.17473256587982178, 0.27137491106987, -0.22108158469200134, 0.023140445351600647, 0.06577937304973602, -0.28376615047454834, 0.019538085907697678, 0.17144717276096344, 0.17025673389434814, -0.2079126089811325, -0.41306552290916443, 0.08895555138587952, 0.8128278255462646, -0.0405692383646965, -0.1121884360909462, 0.0663691908121109, 0.08986299484968185, -0.27121642231941223, -0.18510520458221436, -0.5296776294708252, -0.1851300746202469, 0.235787495970726, 0.24590608477592468, 0.18202745914459229, 0.2317495346069336, 0.07826273888349533, -0.057926956564188004, -0.09822749346494675, 0.22839216887950897, -0.4493856430053711, 0.008119422011077404, -0.1507706195116043, -0.4547833800315857], [0.22787867486476898, 0.3120907247066498, 0.062084391713142395, -0.21124321222305298, 0.24728305637836456, 0.12390513718128204, -0.17688705027103424, 0.04335392639040947, -0.11336912214756012, 0.03593475744128227, 0.1696372926235199, 0.0594937838613987, -0.6782236099243164, 0.4346868693828583, 0.5202254056930542, 0.15054218471050262, -0.6345306634902954, -0.14487822353839874, 0.06821054965257645, 0.39800986647605896, -0.3643733561038971, 0.2009291797876358, -0.1365574151277542, -0.08515173196792603, -0.24877333641052246, 0.059059880673885345, -0.29554522037506104, -0.1430908888578415, 0.25056546926498413, 0.265455037355423, 0.10707995295524597, -0.08472099155187607, 0.1498144567012787, -0.015262904576957226, 1.3428524732589722, 0.8139619827270508], [0.036710355430841446, 0.13654635846614838, -0.06392094492912292, -0.25433284044265747, -0.14321821928024292, -0.05985810235142708, 0.05353396385908127, 0.7134548425674438, 0.17209869623184204, -0.16434599459171295, 0.29416704177856445, -0.12953776121139526, 1.2268434762954712, 0.0792696624994278, -0.07773006707429886, -0.8705951571464539, -0.4682419002056122, 0.49401289224624634, 0.11528027802705765, -0.4010607600212097, -0.369507759809494, 0.00920791830867529, -0.05183378607034683, 0.018741734325885773, 0.2742079198360443, 0.2073206752538681, -0.3205229341983795, 0.4133858382701874, -0.13755851984024048, -0.08483579009771347, 0.09030789136886597, -0.21848298609256744, -1.2164992094039917, 0.7761210203170776, 1.0798048973083496, -1.5169451236724854], [0.434299498796463, -0.10958382487297058, -0.41370514035224915, -0.024571754038333893, -0.23864920437335968, 0.09370752424001694, 0.17425845563411713, -0.7014096975326538, 0.1591711938381195, -0.17993244528770447, -0.07910864055156708, 0.05256520211696625, -0.3488530218601227, 1.4422416687011719, 0.4345584511756897, -0.3964732587337494, 0.2979528605937958, -0.47219231724739075, -0.08174670487642288, 0.9022771716117859, -0.2097741812467575, 0.3406313955783844, 0.5826851725578308, -0.06021170690655708, 0.0057654655538499355, 0.28255748748779297, 0.5042195320129395, 0.6725321412086487, -0.44748061895370483, -0.2529250383377075, -0.07282157242298126, -0.2138911932706833, -0.31456950306892395, -0.8743785619735718, -1.1262493133544922, -0.1951853632926941], [0.3202531635761261, -0.3279546797275543, -0.021232105791568756, -0.3004542589187622, 0.08647026121616364, 0.07967618107795715, 0.29489654302597046, -0.6862496137619019, -0.11885014921426773, -0.29711854457855225, -0.07900168001651764, -0.052753761410713196, -0.3399680256843567, -1.0551596879959106, 0.36417365074157715, 0.4444490969181061, -0.1500914841890335, -0.4647288918495178, -0.013072442263364792, 0.8142914772033691, -0.16816091537475586, 0.1943456083536148, -0.21185751259326935, 0.18138346076011658, 0.01021628174930811, 0.2513415217399597, 0.8232940435409546, -0.6539782881736755, -0.015286093577742577, -0.15378178656101227, 0.07798880338668823, 0.13972686231136322, -0.07747653126716614, 0.7226035594940186, -0.9121925234794617, 1.2670198678970337], [-0.14744551479816437, 0.30016520619392395, -0.26859235763549805, -0.2766153812408447, -0.03171757236123085, 0.2507145404815674, -0.1636955738067627, 0.5478286743164062, 0.09801769256591797, 0.09847341477870941, -0.08950018137693405, 0.2482195943593979, 1.2895079851150513, 0.7550487518310547, 0.2938716411590576, -0.6604084372520447, -0.2011040449142456, 0.5776129364967346, 0.027426064014434814, -0.3841799199581146, -0.38792967796325684, 0.01899583451449871, -0.00493269506841898, -0.23370568454265594, 0.23829682171344757, 0.045903969556093216, -0.3924248516559601, 0.31800663471221924, -0.23652338981628418, 0.05869002640247345, 0.024677785113453865, -0.1376485675573349, -0.7754329442977905, -0.30630525946617126, 1.6202179193496704, -1.4518102407455444], [-0.2038508504629135, 0.18447647988796234, -0.085174560546875, 0.2772691249847412, -0.08782322704792023, -0.15133492648601532, -0.16732075810432434, 0.10001891106367111, 0.060602303594350815, 0.26059389114379883, 0.26771706342697144, 0.08896347880363464, 0.5655596852302551, 0.5024899244308472, 0.4676848351955414, -1.0118786096572876, 0.35270950198173523, -0.01937115378677845, -0.0654267743229866, 0.2039979249238968, -0.02200971730053425, -0.07769230008125305, -0.23596929013729095, 0.23630471527576447, 0.04994215816259384, -0.19287513196468353, 0.03508135303854942, 0.028297273442149162, 0.06994384527206421, 0.05430002510547638, 0.2537584602832794, 0.2254200428724289, -0.9072455167770386, -0.62972491979599, 0.22267058491706848, -1.0482003688812256], [-0.0073387096635997295, -0.11706936359405518, 0.34085026383399963, -0.18827185034751892, -0.1024622917175293, -0.1611270159482956, 0.14480996131896973, -0.013720633462071419, 0.07645154744386673, 0.14947861433029175, 0.06192467734217644, -0.20114129781723022, -0.684821367263794, -1.066818118095398, -0.48457789421081543, 1.100636601448059, -0.2559918463230133, -0.22571007907390594, 0.14040787518024445, -0.3082801401615143, 0.1477794498205185, -0.12349624931812286, -0.0267778467386961, 0.14580294489860535, 0.16558630764484406, 0.01914788968861103, -0.06738879531621933, 0.07326969504356384, 0.27669671177864075, -0.004991613794118166, -0.08268777281045914, 0.15582722425460815, 0.7738785147666931, 0.3796866834163666, -0.6350839734077454, 0.9979102611541748], [-0.0959894135594368, 0.29329121112823486, 0.28433123230934143, -0.005366498604416847, 0.08453437685966492, -0.08364026248455048, -0.11911555379629135, 0.3885433077812195, -0.05840197578072548, -0.19831158220767975, 0.059760984033346176, 0.23585161566734314, 0.8876442909240723, 0.4585743844509125, 0.36798620223999023, -0.8442206978797913, -0.5378101468086243, 0.5193645358085632, 0.026448242366313934, -0.43913984298706055, -0.32201775908470154, 0.024371789768338203, -0.22089408338069916, 0.20624563097953796, -0.026589734479784966, 0.2703074812889099, -0.26470252871513367, 0.10285183042287827, -0.12774933874607086, 0.03293114900588989, -0.20932823419570923, -0.1529867947101593, -0.6545729041099548, 0.13742391765117645, 1.4757524728775024, -1.0608394145965576], [-0.0741267055273056, 0.17098158597946167, -0.33302223682403564, 0.26618027687072754, 0.14647558331489563, -0.01644282229244709, -0.10110537707805634, 0.18125303089618683, -0.22859489917755127, 5.5927233916008845e-05, -0.13436123728752136, -0.0877826139330864, 0.9916259050369263, 0.38178616762161255, 0.28505098819732666, -0.7576412558555603, -0.3155069351196289, 0.1738971620798111, 0.21447642147541046, -0.7388210296630859, -0.12776021659374237, -0.008343033492565155, -0.26679903268814087, -0.23326243460178375, -0.08878318965435028, 0.14286158978939056, -0.17518940567970276, 0.10245080292224884, -0.1061883196234703, -0.17285865545272827, -0.06374561786651611, 0.18977944552898407, -0.30472612380981445, -0.2968008816242218, 0.7209529280662537, -0.7878279089927673], [-0.28934091329574585, -0.26970818638801575, 0.12508074939250946, 0.03783930465579033, -0.015024370513856411, -0.24727465212345123, -0.38394585251808167, -0.47946223616600037, -0.31439095735549927, -0.1335727870464325, 0.011662122793495655, -0.15653939545154572, -0.11309754848480225, -1.1434694528579712, 0.5829171538352966, -0.09026245772838593, -0.25941768288612366, 0.4192276895046234, 0.15304037928581238, -0.7358078956604004, 0.6537740230560303, -1.0519070625305176, 0.3427812457084656, 0.0017411485314369202, 0.16081027686595917, -0.2669164836406708, 0.6997147798538208, 0.4577348232269287, -1.1636168956756592, -0.12870970368385315, 0.23680712282657623, -0.27251142263412476, 0.04167451336979866, 2.767665147781372, -0.658460259437561, 0.7498213052749634], [0.47037458419799805, -0.2684410810470581, -0.03553017973899841, -0.033394165337085724, -0.25033462047576904, 0.15918660163879395, 0.21814598143100739, -0.7228202223777771, -0.5438919067382812, 0.23566801846027374, -0.19101013243198395, 0.16629165410995483, -1.2854212522506714, -0.6176183819770813, -0.6987972855567932, 1.1138521432876587, 0.9123263359069824, -0.9140897393226624, -0.28206923604011536, 0.6325206756591797, 0.35095280408859253, -0.33784419298171997, 0.40123987197875977, 0.09032643586397171, 0.2386186569929123, 0.17013432085514069, 0.2817699611186981, 0.6243246793746948, 0.09842813014984131, 0.14445939660072327, -0.010650040581822395, -0.28678205609321594, 1.1734784841537476, -0.9243757128715515, -2.093620777130127, 1.1456393003463745], [-0.017165185883641243, -0.4119866192340851, 0.39737260341644287, 0.027115507051348686, 0.030972689390182495, 0.005991330835968256, -0.17399565875530243, -0.5711669921875, 0.03601374849677086, 0.05507373437285423, -0.07705723494291306, -0.034131139516830444, -0.8592713475227356, -1.2043342590332031, -0.19222110509872437, 0.8563516736030579, 0.25319668650627136, -1.1196593046188354, -0.04463300481438637, 0.6150223016738892, 0.5446551442146301, -0.041697967797517776, -0.44772014021873474, -0.04951745644211769, -0.004140340723097324, -0.18546298146247864, 0.2946179211139679, -0.30509886145591736, -0.005720756482332945, -0.13719360530376434, 0.1619849056005478, 0.1825794279575348, 1.138444185256958, 0.38825103640556335, -1.7200210094451904, 1.327107310295105], [-0.1286858171224594, 0.49348166584968567, -0.03706730157136917, -0.13886286318302155, 0.05489524081349373, 0.26871633529663086, -0.1391812562942505, 0.1327974647283554, 0.26943033933639526, -0.24397358298301697, -0.09470278024673462, -0.2675032615661621, 0.2780165374279022, 1.2087303400039673, 0.4073578715324402, -1.3625729084014893, 0.2446410059928894, 0.6597570180892944, -0.03956758975982666, -0.5965483784675598, -0.3317635953426361, 0.1598615050315857, 0.47468894720077515, -0.04640328884124756, 0.11418142169713974, -0.21338245272636414, -0.17617620527744293, 0.004334593657404184, -0.22029173374176025, 0.14205941557884216, -0.2474527209997177, -0.08817172795534134, -0.703759491443634, -1.0643150806427002, 1.7437891960144043, -1.5164281129837036], [0.026729196310043335, -0.46793365478515625, 0.13782383501529694, -0.2135232836008072, -0.0655103474855423, -0.15942907333374023, -0.001962613547220826, 0.17876026034355164, -0.02033982425928116, 0.1646661013364792, 0.049621619284152985, -0.23700295388698578, -0.3272058069705963, -1.502724289894104, -0.6302756667137146, 0.8971325755119324, -0.18187466263771057, -0.366808146238327, -0.04854044318199158, 0.1793816238641739, 0.5346062779426575, -0.37870046496391296, -0.4641862213611603, -0.2635961174964905, 0.1746821105480194, 0.05840097367763519, 0.22261863946914673, 0.0038725652266293764, 0.3501399755477905, 0.07664777338504791, 0.21558044850826263, 0.17944979667663574, 1.1779640913009644, 1.1073479652404785, -1.3104890584945679, 1.253631830215454]]}, "GRUCell_0": {"hn": {"bias": [-0.13546718657016754, 0.10468488931655884, -0.4466714560985565, 0.008954266086220741, 0.06177696958184242, -0.012791984714567661, -0.44055435061454773, -1.028106451034546, 0.0191301628947258, -0.04936112090945244, -0.00933113694190979, 0.05199172720313072, -0.024221690371632576, 0.6069692373275757, -0.08758687973022461, 0.12386977672576904, 0.07111380249261856, -0.03617945313453674, 0.05361252278089523, -0.16181357204914093, 0.051703933626413345, 0.3500172793865204, 0.13327011466026306, -0.08043693006038666, 0.011874938383698463, 0.027895038947463036, -0.3065052032470703, -0.006155321840196848, -0.01656375080347061, 0.038529545068740845], "kernel": [[-0.03581874072551727, -0.7352437973022461, 0.35970017313957214, 0.0040906257927417755, 2.1711058616638184, 0.28446146845817566, -0.19354556500911713, 0.6801854968070984, 1.0087302923202515, -0.055889956653118134, -0.37554335594177246, 0.2148740291595459, -0.10910864919424057, 0.024357635527849197, -1.2777940034866333, 0.2026185542345047, 0.7457194924354553, 0.29821258783340454, 1.8006398677825928, 0.4221070110797882, -0.05008058249950409, -0.07069199532270432, -0.3053911328315735, 0.7780554890632629, 0.018648479133844376, -1.183158040046692, 0.4264433979988098, -0.0701795145869255, 0.46708858013153076, -0.5958489775657654], [0.4696073532104492, -1.1459417343139648, 0.3463404178619385, -0.27886584401130676, 3.534212112426758, 0.5404694676399231, -0.5297625660896301, -0.06732533127069473, 1.0183850526809692, 0.17472252249717712, -0.5718176364898682, 0.09980319440364838, 0.31108468770980835, -1.8477528095245361, -1.18817937374115, 0.045098137110471725, 1.9025849103927612, -0.0030252914875745773, 2.32627010345459, 1.4050052165985107, -0.26300346851348877, -0.3497407138347626, 0.13774026930332184, 0.08969524502754211, 0.21859458088874817, -2.124868631362915, 0.9641761183738708, -0.02021089941263199, -0.16768774390220642, -0.0938495621085167], [0.1575692594051361, -0.05374862253665924, -2.6064393520355225, 0.6167544722557068, 0.39343738555908203, 1.3682678937911987, -0.5185736417770386, -0.12170659750699997, -0.6997244358062744, 0.1673043966293335, 0.45805758237838745, -0.010343153029680252, -0.3467816114425659, -0.8410810828208923, -0.1480085551738739, -0.6315289735794067, -0.9052140712738037, -0.026855317875742912, -0.4560341536998749, -0.06824363768100739, -0.008241141214966774, -0.11055117100477219, -0.42059600353240967, -0.3509162366390228, -0.7037494778633118, 0.2674908936023712, 1.3482496738433838, 0.33922842144966125, 0.23611409962177277, 0.2829352021217346], [0.17101049423217773, -0.25168198347091675, -0.19798950850963593, -0.022269004955887794, 0.2809949219226837, 0.10561593621969223, -0.6912621855735779, -0.2638551890850067, 0.6713093519210815, 0.09119535982608795, -0.7207947373390198, 0.07757662981748581, 0.14472296833992004, -0.505865752696991, -0.6309910416603088, 0.34918850660324097, 0.47863057255744934, 0.3154140114784241, 1.0340204238891602, 0.4696601331233978, -0.31806614995002747, -0.14456361532211304, 0.45544224977493286, -0.25435516238212585, -0.32566148042678833, -0.8218145966529846, 0.12494806200265884, -0.03553198650479317, 0.037100549787282944, 0.022855520248413086], [-1.8650966882705688, 1.2055301666259766, 0.09528353810310364, 1.4846653938293457, -1.3737962245941162, 0.04240581393241882, -0.6285541653633118, 0.8564385771751404, -1.3198190927505493, 0.14428767561912537, 0.38983815908432007, 0.08805955946445465, -0.5153040289878845, 0.8476755619049072, 0.38834038376808167, -1.1021008491516113, -2.3919124603271484, 0.06834043562412262, -2.549898386001587, -2.6002049446105957, 0.2743625342845917, 0.07901112735271454, 0.04955671355128288, -0.11303184926509857, 0.22610145807266235, 2.5532965660095215, 0.15439753234386444, 0.557990312576294, -0.5440693497657776, 1.0186517238616943], [0.3331620693206787, 0.2229490727186203, -0.9990992546081543, 0.07721612602472305, -2.512861490249634, -0.7717403173446655, 0.6255081295967102, 0.5637719631195068, -0.227300226688385, 0.0141075374558568, -0.0043462421745061874, 0.25308626890182495, -0.28335461020469666, 1.532361388206482, 0.9440881013870239, 0.0036855838261544704, -0.793549120426178, -0.6192035675048828, -2.2391884326934814, -1.707000494003296, 0.6746842265129089, 0.004630013834685087, -0.6400926113128662, 0.43942639231681824, -0.20337240397930145, 0.7595611810684204, -0.7897415161132812, 0.041537944227457047, 1.295604944229126, 0.2422691434621811], [-0.3310248851776123, -0.009693297557532787, -0.09869155287742615, -0.13113345205783844, 1.030900478363037, 0.9715750217437744, -1.2178592681884766, -0.58057701587677, 0.40948742628097534, 0.019322628155350685, -0.024959934875369072, -0.16230140626430511, -0.29230332374572754, -1.8443487882614136, -0.396124005317688, -0.04160202294588089, 0.19710756838321686, 0.32987287640571594, 1.6831625699996948, 0.4151330888271332, -0.13172012567520142, 0.5365152955055237, 0.08209516853094101, -0.26004669070243835, 0.17806442081928253, -0.07297491282224655, 0.8502686023712158, -0.366620808839798, -0.9920321106910706, 0.24820733070373535], [-0.05934266373515129, 0.19798056781291962, -1.023026943206787, 0.03215530887246132, 0.32901427149772644, 1.4296095371246338, -0.7281387448310852, -0.9872288107872009, -0.718974232673645, -0.12031342834234238, 0.6012330055236816, 0.13925865292549133, -0.1611495018005371, -2.1348378658294678, 0.0559697262942791, 0.6810029149055481, -0.695157527923584, 0.3875148892402649, 0.8547250032424927, 0.006811230443418026, 0.19139713048934937, 0.6129372119903564, 0.3733045756816864, -0.645085871219635, -0.35023194551467896, 0.9172709584236145, 0.845668613910675, 0.534303605556488, -0.6321205496788025, 0.534389078617096], [-0.6149117946624756, 0.9098719358444214, 0.7233557105064392, 0.23581106960773468, -3.2713494300842285, -0.8362442851066589, 0.9060208797454834, -0.602446436882019, -0.9080155491828918, 0.18326827883720398, 0.482907235622406, 0.3184771239757538, -0.5352469086647034, 1.135231375694275, 1.766316294670105, -0.07714366912841797, -1.1533358097076416, 0.1894586831331253, -2.3841700553894043, -0.8583046793937683, 0.41315439343452454, 0.17979200184345245, 0.051726311445236206, -0.05676048994064331, 0.3976556360721588, 2.726048469543457, -0.623687744140625, -0.14518608152866364, -0.19129157066345215, -0.03018956631422043], [0.11518216133117676, -0.21469391882419586, -0.8189379572868347, 0.04850953072309494, 0.5701569318771362, 0.4304172694683075, -0.22327232360839844, -0.24897639453411102, 0.2763895094394684, -0.29194459319114685, -1.0208145380020142, 0.23887845873832703, 0.21778498589992523, 0.07683556526899338, 0.04883614182472229, 0.07213696837425232, 0.17732568085193634, 0.4937610328197479, 0.7269677519798279, 0.17768776416778564, -0.5684399008750916, 0.24628356099128723, 0.08992171287536621, -0.07324519008398056, -0.0637933537364006, -0.6098822355270386, 0.23782207071781158, 0.12560591101646423, 0.11342977732419968, -0.18862459063529968], [0.26728516817092896, -0.6809283494949341, 0.06246637925505638, -0.11661607027053833, 2.057068347930908, 0.5697925686836243, -0.4855678379535675, 0.7185977697372437, 0.727287769317627, -0.0743807926774025, -0.8572893738746643, -0.23412711918354034, 0.29886630177497864, -0.6992362141609192, -1.033498764038086, 0.060562752187252045, 1.1812565326690674, 0.4042105972766876, 1.6296509504318237, 0.7798343300819397, -0.16283634305000305, -0.031289611011743546, -0.07264627516269684, 0.04677312448620796, -0.5219058394432068, -1.5830074548721313, 0.4522346258163452, 0.08759349584579468, 0.033724889159202576, 0.21834033727645874], [-0.3439570367336273, 0.2378578633069992, 1.1954257488250732, 0.4048432409763336, 0.08813764154911041, -0.9897103309631348, 0.4583737254142761, 0.4697124660015106, 0.038307640701532364, 0.06458302587270737, 0.06685686856508255, -0.3568633198738098, -0.12152832746505737, 0.7434655427932739, -0.03545231744647026, -0.8964111804962158, 0.2330075204372406, -0.7478039860725403, -0.5063467621803284, 0.08543883264064789, 0.13772743940353394, 0.005530628841370344, 0.0070976815186440945, 0.17709828913211823, 0.5610594749450684, 0.5917438864707947, 0.07793950289487839, -0.06735041737556458, 0.05528441071510315, -0.0004392501141410321], [-0.37492045760154724, -0.9189996123313904, 0.44851961731910706, 0.15144646167755127, 2.28806471824646, 0.3048951327800751, -0.018904661759734154, 0.1260027289390564, 0.9900055527687073, 0.3049241304397583, 0.038034725934267044, -0.1383032202720642, -0.1212252825498581, -0.6307302117347717, -0.7283781170845032, -0.18550048768520355, 1.2628028392791748, 0.16816286742687225, 2.3453752994537354, 0.6631855964660645, 0.33619776368141174, -0.06584018468856812, 0.4294874668121338, 0.19735361635684967, -0.01755794696509838, -0.8983969688415527, 0.43644726276397705, -0.08525507897138596, -0.37074533104896545, -0.15110452473163605], [-0.48759445548057556, 0.7054667472839355, 1.2329643964767456, 0.10480818152427673, 1.2927415370941162, 0.20026469230651855, 0.462470144033432, -0.607185423374176, 0.1257036030292511, -0.094110868871212, 0.3032233417034149, 0.10558708757162094, 0.036542776972055435, -1.6905617713928223, 0.4319341778755188, -0.5886245965957642, 1.0135538578033447, 0.13357612490653992, -0.02782466448843479, 0.21415342390537262, -0.8250794410705566, 0.19834397733211517, 0.8762481212615967, -0.3627036511898041, -0.4873446524143219, 0.8677864670753479, 0.46992161870002747, 0.377166748046875, -1.644170880317688, 0.8092801570892334], [1.0059466361999512, -0.0485418327152729, 0.26050859689712524, -0.9050006866455078, 0.14768318831920624, -0.07388526201248169, 0.7088846564292908, 0.43188390135765076, -0.05186008661985397, -0.6790505051612854, -1.1071500778198242, 0.508803129196167, 0.74484783411026, -2.1673684120178223, -0.8090211749076843, 0.512239933013916, 2.1435201168060303, 0.30666154623031616, 1.5903816223144531, 2.4629857540130615, -1.172382116317749, 0.38204827904701233, 0.4730643928050995, -0.8384966850280762, -0.2349497228860855, -2.010735273361206, 0.3787787854671478, 1.0255303382873535, 0.00514227757230401, -0.8544020652770996], [-0.32072049379348755, 0.6884398460388184, 1.5099645853042603, 0.10720688849687576, 0.432244211435318, -0.48120665550231934, 0.7259369492530823, 0.9756528735160828, -0.33086973428726196, 0.2893911600112915, 0.01238324772566557, -0.28868621587753296, -0.2579450011253357, 0.7623843550682068, 0.19645211100578308, -0.9498239755630493, 0.5205361247062683, 0.37160494923591614, 0.1853424608707428, -0.1267375349998474, 0.311361700296402, -0.44704580307006836, -0.15990759432315826, 0.3107015788555145, 0.488117516040802, -0.19437310099601746, -0.2076607644557953, 0.20349101722240448, -0.18800057470798492, -0.4433048665523529], [-1.8508648872375488, 0.9833628535270691, 1.5313342809677124, 0.8746740818023682, 0.47534066438674927, -0.20943805575370789, 0.02933030016720295, 1.1615644693374634, -0.5396897792816162, 0.052181847393512726, 0.5630497932434082, -0.44621315598487854, -0.04278022050857544, 1.1302568912506104, 0.7433130741119385, -0.8086346387863159, -1.0318169593811035, 0.5435282588005066, -0.9433973431587219, -1.7192946672439575, 0.778557300567627, -0.14587804675102234, -0.985535740852356, 0.4621172249317169, 1.4892789125442505, 2.0208182334899902, 0.23922567069530487, 0.41372916102409363, -0.7087832689285278, -0.26524314284324646], [-0.4048236310482025, 0.4972388446331024, 0.40737369656562805, 0.23123688995838165, -1.8356435298919678, -0.8501647710800171, 0.38656100630760193, -0.43793046474456787, -0.7897471785545349, -0.22699743509292603, 0.28351283073425293, -0.3904527723789215, -0.4963371753692627, 0.8499612808227539, 1.6259816884994507, 0.06318807601928711, -0.8395388126373291, -0.2599758505821228, -2.4784886837005615, -1.0526052713394165, 0.08555857092142105, -0.08388103544712067, 0.22950540482997894, 0.541104257106781, 0.5622573494911194, 1.7340178489685059, -0.7458198070526123, -0.027897322550415993, -0.10669826716184616, 0.07423719763755798], [-0.5534770488739014, 0.5357897877693176, -0.8510070443153381, 0.46598711609840393, -3.8967347145080566, -0.6280127763748169, 0.6752355694770813, 0.555647075176239, -1.0242362022399902, -0.16086335480213165, 0.10864589363336563, -0.26130399107933044, -0.008150771260261536, 1.8171159029006958, 1.8361862897872925, -0.09274404495954514, -1.9629201889038086, 0.06280407309532166, -3.017509698867798, -1.8884189128875732, 0.6867985725402832, 0.46440860629081726, -0.24728572368621826, 0.6021680235862732, 0.4864608645439148, 2.851757287979126, -0.9305470585823059, -0.27474525570869446, 0.3822026550769806, 0.13188958168029785], [-1.5660479068756104, -0.6276520490646362, -0.5227519273757935, 0.08056540787220001, 1.843669056892395, 0.7375211119651794, -0.3758324682712555, 0.6100286245346069, 0.7968253493309021, -0.3631470501422882, -0.30455583333969116, -0.13665175437927246, -0.5058037042617798, 0.642500102519989, -0.19270570576190948, 0.018146438524127007, -0.5514154434204102, 0.04175232723355293, 1.1549626588821411, -1.155709981918335, 0.8538613319396973, -0.14505398273468018, -0.16684044897556305, 0.4142487645149231, 0.2364250123500824, -0.3175656795501709, 0.9114404916763306, -0.4591037929058075, 0.4593754708766937, 0.1707904040813446], [0.5744950771331787, 0.874622642993927, -0.22263532876968384, 0.13256393373012543, -2.766608476638794, -0.2702964246273041, 0.2019868791103363, -0.5102101564407349, -0.9517703652381897, 0.12130977213382721, 0.5332356095314026, -0.11318070441484451, -0.0839340090751648, 0.2990013062953949, 0.7896400094032288, -0.21356751024723053, -1.0913296937942505, -0.3919711112976074, -1.8527872562408447, 0.04696347191929817, -0.26777127385139465, 0.11261298507452011, -0.1486254781484604, -0.23069612681865692, -0.56227046251297, 1.511327862739563, -0.238177090883255, 0.5405988097190857, -0.227409228682518, 0.14603111147880554], [0.01653432473540306, 0.5527160167694092, -0.22418077290058136, -0.14775075018405914, -2.0711348056793213, -0.4442097842693329, 1.0152580738067627, -0.01079978421330452, -0.67650306224823, -0.3004779517650604, 0.1396912932395935, -0.1743663102388382, -0.22470524907112122, 1.0967216491699219, 0.48630833625793457, -0.06159190088510513, -1.1953177452087402, -0.4296264052391052, -1.1835142374038696, -0.4869386851787567, 0.3791666030883789, -0.45974448323249817, -0.2174454778432846, 0.2939872741699219, -0.034836918115615845, 0.778736412525177, -0.5223283171653748, 0.147808238863945, 0.14965102076530457, -0.03716764226555824], [-0.2441704124212265, -0.3465627133846283, 0.542384922504425, 0.20583193004131317, 2.2154624462127686, -0.004253380000591278, -0.05285201966762543, 0.10486719012260437, 0.39668551087379456, 0.10011649876832962, -0.3635282516479492, -0.131195530295372, 0.34803274273872375, -0.4962935149669647, -0.6836292743682861, -0.06929033249616623, 1.0361120700836182, 0.42103326320648193, 1.5936949253082275, 0.6088488101959229, -0.10986720025539398, -0.5059155225753784, -0.26268547773361206, 0.069100022315979, -0.3569068908691406, -0.7966931462287903, -0.011585387401282787, -0.18940269947052002, -0.5062238574028015, -0.48847413063049316], [-0.2985604703426361, 0.35679006576538086, 0.23724570870399475, 0.03606685623526573, -2.0810964107513428, -0.32365691661834717, 0.6428041458129883, -0.2809622585773468, -1.00970458984375, 0.2341703325510025, 0.7145100831985474, 0.022223737090826035, 0.06102154403924942, 0.39541974663734436, 0.5375924706459045, 0.1328296810388565, -0.8829987049102783, -0.579683244228363, -1.563845157623291, -0.4148683547973633, -0.3610735535621643, -0.16244664788246155, -0.024768905714154243, -0.3508809506893158, -0.2485329657793045, 1.9128215312957764, -0.2137966752052307, 0.35805389285087585, -0.37166541814804077, 0.49516189098358154], [-0.006505805999040604, 0.4742007851600647, 0.4249556362628937, 0.4146541357040405, -0.8584854602813721, -0.6215117573738098, 0.3348807096481323, -0.48667633533477783, -0.20515429973602295, 0.03294156491756439, 0.7252707481384277, 0.14924800395965576, 0.17313431203365326, 0.7004836201667786, 0.32887139916419983, 0.1833982616662979, -1.1356804370880127, -0.2908153235912323, -0.8217061758041382, -0.11750639975070953, 0.25476980209350586, -0.2305239737033844, 0.1650509387254715, -0.021379271522164345, 0.32914596796035767, 0.6256150603294373, 0.04400763660669327, -0.0884733721613884, -0.10246358811855316, 0.23948954045772552], [0.48550543189048767, -1.0554836988449097, -1.3101568222045898, -0.5535151958465576, -0.058128926903009415, 0.19053596258163452, -1.0946767330169678, -1.178295373916626, 2.518000602722168, 0.5075334906578064, -1.381966471672058, -0.19650505483150482, 0.5839701294898987, -0.879732608795166, 0.29331648349761963, -0.1316843032836914, 1.2015736103057861, -0.17976056039333344, -0.23636698722839355, -0.2225107103586197, -1.0556961297988892, 0.7645503282546997, 0.5603757500648499, 0.08030305802822113, -0.09816168248653412, -1.3521753549575806, 0.061056096106767654, -0.028798280283808708, 0.4759581685066223, 0.10910677164793015], [-0.6452459096908569, -0.6951987743377686, -0.27558988332748413, -0.009940235875546932, 0.5337178707122803, -0.08343008160591125, -0.27440908551216125, 0.7101208567619324, 0.39332059025764465, -0.10127776116132736, -0.630815327167511, 0.10912802070379257, 0.08694495260715485, 0.9734410047531128, -0.5911181569099426, 0.43420544266700745, 0.8297471404075623, 0.2807164788246155, 0.5830802917480469, 0.5239315629005432, 0.3397156596183777, 0.24832668900489807, -0.19976583123207092, 0.25597482919692993, 0.3130425810813904, -2.079765558242798, -0.2035713791847229, -0.19499042630195618, 0.1790710836648941, -0.3411198556423187], [0.43896597623825073, -1.097379446029663, 0.11316881328821182, -0.3694781959056854, 3.6768181324005127, 0.20457708835601807, -1.0087287425994873, 0.6100822687149048, 0.9619667530059814, -0.1460530161857605, -0.48167121410369873, 0.054157886654138565, 0.38918381929397583, -0.9515288472175598, -1.3231335878372192, -0.15375250577926636, 1.9402776956558228, 0.12963639199733734, 2.6076531410217285, 0.7393462657928467, -0.1343810111284256, -0.09272262454032898, 0.31099265813827515, 0.4882200360298157, -0.22238999605178833, -2.4568710327148438, 0.8163281679153442, -0.25517353415489197, -0.02776896208524704, -0.2208886295557022], [0.2748214900493622, 0.7856030464172363, -0.23647524416446686, -0.024048032239079475, -3.179906129837036, -0.4726121127605438, 0.6934380531311035, -0.7628622055053711, -0.8862350583076477, -0.03479890152812004, 0.44324415922164917, 0.09194054454565048, -0.1308441162109375, 0.37052029371261597, 1.0889185667037964, 0.15157054364681244, -1.5061691999435425, -0.249295175075531, -1.762089490890503, -1.0130161046981812, 0.08526945859193802, 0.16227103769779205, 0.2646750807762146, -0.6343487501144409, -0.22225047647953033, 1.3441050052642822, -0.6312824487686157, 0.10870548337697983, 0.14049261808395386, 0.26207298040390015], [0.15446142852306366, -1.0298587083816528, 0.8858590722084045, -0.41215378046035767, 3.811666488647461, 0.5251296758651733, -0.5175976753234863, 0.4661518931388855, 1.0806008577346802, -0.06334035098552704, -0.37352460622787476, -0.17297303676605225, 0.2779136896133423, -1.3704262971878052, -1.5540564060211182, -0.017708178609609604, 2.1169257164001465, 0.3153189420700073, 2.291152238845825, 1.2174382209777832, -0.3460533916950226, -0.48196107149124146, 0.37553468346595764, 0.2944449186325073, -0.038912925869226456, -2.1046133041381836, 0.593742311000824, -0.24364851415157318, -0.3863341808319092, -1.077251672744751]]}, "hr": {"kernel": [[-0.13607560098171234, 0.583066463470459, -0.4526813328266144, 0.970333456993103, 2.0246143341064453, 0.0018872444052249193, -0.15747636556625366, 0.39841440320014954, -0.2581349313259125, -0.33549150824546814, 0.12195011228322983, 0.4761696457862854, -0.19191472232341766, -0.1903601735830307, 0.41218066215515137, 0.8403522372245789, 1.4560068845748901, 0.21908868849277496, 1.1170307397842407, -0.5486640930175781, -0.3330504298210144, -0.5449811220169067, -0.08257988095283508, -0.1024039164185524, -0.3441711664199829, 1.0846253633499146, -0.30586954951286316, -0.14279742538928986, -1.2253785133361816, -0.6542127132415771], [0.04151810705661774, 0.48781996965408325, 1.1403204202651978, -0.07276268303394318, 1.6410713195800781, -0.8954245448112488, -0.5831453204154968, 1.7685669660568237, 0.05295197293162346, -0.36146819591522217, 0.3763648271560669, 0.25759413838386536, 0.1355065405368805, -1.7906006574630737, 0.1679566651582718, 0.5126290321350098, 2.0684990882873535, 0.5529833436012268, 1.4992518424987793, -0.16756820678710938, -0.8747498393058777, -0.05400481075048447, 0.5409927368164062, -0.4580188989639282, -0.7199278473854065, 0.7416766881942749, -1.4612278938293457, -0.27432289719581604, -0.22895625233650208, -0.6411877274513245], [-0.024530773982405663, 1.2871371507644653, 0.28840240836143494, 1.0807809829711914, -2.476012706756592, -0.8216499090194702, 0.6098029613494873, 1.1679996252059937, 0.3808402121067047, 0.698176920413971, 0.9294937252998352, 0.563069760799408, 1.3542017936706543, -0.3940475881099701, 0.8267873525619507, 1.8491131067276, 0.6653134822845459, -0.059670690447092056, -2.938215494155884, -1.4331369400024414, 0.15380673110485077, 2.052431344985962, -0.09258575737476349, -0.4164319932460785, -1.2282582521438599, 1.9257981777191162, -0.4546685218811035, -0.14590556919574738, -0.6720185279846191, 1.066296100616455], [-0.30323806405067444, 0.16770729422569275, 0.868774950504303, 0.003904531477019191, -0.1742057353258133, 0.03331030160188675, 0.2809096574783325, 0.9410844445228577, 0.22136063873767853, -0.14607512950897217, 0.5188344717025757, 0.36264264583587646, 0.4091106057167053, -0.6998125910758972, 0.2583094537258148, 0.6566647887229919, 1.0886571407318115, 0.8416974544525146, 0.2620655596256256, -0.6905441284179688, -0.3419385850429535, 0.3259243965148926, 0.5964958071708679, -0.8046074509620667, -0.6255453824996948, 0.14322902262210846, -0.2195340394973755, -0.08937530219554901, -0.018691757693886757, 0.05740346759557724], [1.1714411973953247, 0.15811745822429657, 0.3523513376712799, 1.3169962167739868, -1.9740208387374878, 1.392868161201477, 0.9223378896713257, 0.25296100974082947, -1.0957951545715332, 0.12520897388458252, -0.11381354928016663, 0.5607569813728333, -0.1606910079717636, 1.0287785530090332, 0.3504350483417511, 0.6936579942703247, -0.11031955480575562, 0.12516914308071136, -3.779134511947632, 0.7956855297088623, 0.01757129281759262, 1.189293622970581, -0.7681097984313965, 1.1837793588638306, -0.07255475223064423, 1.676927924156189, 1.3954546451568604, 0.45348086953163147, -0.17370103299617767, -0.780671238899231], [0.050187788903713226, 0.9610516428947449, -0.6065359711647034, 0.5895234942436218, -1.7777825593948364, 1.0055773258209229, 0.9939243793487549, 0.09551956504583359, 0.20628823339939117, 0.9757608771324158, 0.5869007110595703, 0.15122923254966736, -0.4753762483596802, 0.9791041016578674, 1.407177448272705, 0.834327757358551, -1.3032238483428955, 0.10838988423347473, -2.2106053829193115, -0.872660756111145, -0.500522792339325, 1.2497515678405762, -0.6350221633911133, 0.7607406377792358, -0.06046643108129501, 0.3296884000301361, 2.3243722915649414, 0.9567553400993347, 0.03574048727750778, 1.537318468093872], [0.08622509241104126, 0.5163856148719788, 2.25565767288208, 0.29501208662986755, -1.4936480522155762, -1.336477518081665, -0.9696013927459717, 1.1961239576339722, 0.32075390219688416, 0.10663746297359467, 0.4200751483440399, 0.1585751473903656, 0.7287766933441162, -1.7350568771362305, -0.22326350212097168, 1.1464358568191528, 1.6250057220458984, 0.6337578296661377, -0.34780752658843994, 0.25530803203582764, -0.10414212197065353, 0.758758008480072, 1.047837257385254, -0.5246809720993042, -0.0012826534220948815, 0.08929358422756195, -1.718640685081482, 0.3121986985206604, 0.799868643283844, 0.13868914544582367], [0.022708045318722725, 1.5207593441009521, 2.6837692260742188, 0.4489809572696686, -3.266326665878296, -1.9907379150390625, -0.6548109650611877, 1.798628330230713, 0.525854229927063, 0.38150569796562195, 0.5033029317855835, 1.14547598361969, 1.083823561668396, -2.839959144592285, -0.10956742614507675, 1.7570816278457642, 1.1130965948104858, 0.7399569749832153, -1.9872955083847046, -0.43787482380867004, 0.26894062757492065, 1.6558035612106323, 1.2149989604949951, -1.0325454473495483, 0.652319610118866, 0.45162254571914673, -1.2098101377487183, 0.26772838830947876, 0.5837891101837158, 1.592279076576233], [0.2545525133609772, -0.7867391109466553, -0.7764989137649536, -0.7002090811729431, -1.1002578735351562, 0.20960186421871185, -0.21933099627494812, -0.9586297273635864, -0.231632798910141, -0.6306057572364807, -0.932719886302948, -0.6567322611808777, 0.000112945657747332, 1.0472817420959473, -0.5155591368675232, -1.2453069686889648, -2.071331262588501, -0.19104057550430298, -0.7890793681144714, 0.4382328391075134, 0.7781496047973633, -0.21245093643665314, 0.04766489937901497, 0.23328541219234467, 1.4466450214385986, -0.31261733174324036, 0.8744563460350037, -0.04609403759241104, 0.8890299797058105, -0.20441927015781403], [-0.5924797654151917, 0.6837038993835449, 0.4138244390487671, 0.07629544287919998, -0.2140205204486847, 0.08669453859329224, 0.1793103963136673, 0.6831806302070618, -0.1935373842716217, 0.6025380492210388, 0.8419484496116638, 0.37538787722587585, 0.17046348750591278, -1.057917833328247, 0.41486623883247375, 0.7240678071975708, 0.8512720465660095, 0.6476758718490601, -0.42521846294403076, -0.23667339980602264, -0.07095736265182495, 0.6995987892150879, 0.1951650083065033, -0.2813950181007385, -0.5869949460029602, 1.1218743324279785, -0.045934807509183884, 0.3456275761127472, 0.14067770540714264, 0.42151427268981934], [-0.3449150025844574, 0.3157557249069214, -0.2342173457145691, 0.2462088167667389, 1.502463459968567, -0.3458988666534424, 0.4073548913002014, 0.851242184638977, 0.14834387600421906, 0.17722781002521515, 0.5935574173927307, 0.43389859795570374, 0.11902228742837906, -0.4160476326942444, 0.6460075974464417, 0.5452592372894287, 1.9008774757385254, 0.12731395661830902, 0.8389599323272705, -0.6689923405647278, -0.5056072473526001, 0.5396283268928528, -0.24109767377376556, -0.6571119427680969, -0.5532333850860596, 0.3718550503253937, -0.1295323371887207, -0.1980428397655487, -0.3016321361064911, 0.0628117248415947], [0.41907042264938354, -1.2449043989181519, -1.282873511314392, -0.11540315300226212, 0.7984262108802795, -0.09048531204462051, -0.45797210931777954, -0.6884284019470215, -0.4726956784725189, -0.6705734729766846, -0.27276942133903503, -0.23845160007476807, -0.6743029952049255, 1.0356773138046265, -0.4883478879928589, -0.34174349904060364, -0.24828645586967468, -1.5936198234558105, 0.6146726608276367, 0.4836587607860565, 0.34003517031669617, -1.0881125926971436, -0.29854458570480347, 0.7169679403305054, 0.20257358253002167, -0.2500455975532532, 0.09645108878612518, 0.21099570393562317, 0.1572982221841812, -0.7139213681221008], [-0.10167739540338516, -0.6422566175460815, 0.3881816267967224, 0.4159138798713684, 2.198284864425659, -0.19993335008621216, -0.2832548916339874, 0.2183792144060135, -0.35918599367141724, -0.38343319296836853, -0.09436863660812378, -0.39993301033973694, -0.14115497469902039, -1.0439362525939941, -0.17236953973770142, 0.24225479364395142, 1.9677644968032837, 0.4790200889110565, 1.2657408714294434, -0.1134059950709343, -0.6118758916854858, -0.7810476422309875, 0.28042060136795044, 0.014810105785727501, -0.6463020443916321, 0.44397681951522827, -0.8600152730941772, -0.02298731543123722, -0.4039022922515869, -1.0365872383117676], [-0.08249807357788086, -1.0561515092849731, 2.386946678161621, -0.6554413437843323, 0.27889689803123474, -1.6547133922576904, -1.7405427694320679, -0.37026113271713257, -0.31182828545570374, -0.9636414647102356, -0.27895620465278625, -0.3915114998817444, -0.12756387889385223, -0.6638422012329102, -1.8765897750854492, -1.6102668046951294, 0.7017116546630859, -0.5076489448547363, -1.3446812629699707, 0.9385796785354614, -0.09046056121587753, -0.6993423104286194, 1.2411396503448486, -1.0698009729385376, 1.1813374757766724, -0.7205427885055542, -1.0936336517333984, -0.08258458226919174, 1.5678794384002686, -0.51328444480896], [-1.2767503261566162, -0.29847952723503113, 0.25760704278945923, -0.8348845839500427, -1.6361640691757202, -1.7395342588424683, -1.7926571369171143, -0.05118430405855179, -0.054108720272779465, -0.0050499048084020615, 1.1082122325897217, -0.11215335875749588, 0.7135942578315735, -1.6449296474456787, -0.5290949940681458, -0.19574394822120667, 0.8266282677650452, 0.570660412311554, 1.6697684526443481, -0.4395270049571991, 0.41945573687553406, 0.3450668752193451, 1.0340300798416138, -1.8702462911605835, 0.42981046438217163, -0.6473934054374695, -1.8188639879226685, -0.7520626187324524, 1.1856334209442139, 0.8242297172546387], [0.5581488609313965, -1.5917266607284546, -1.136269450187683, -0.014870371669530869, 1.7788467407226562, 0.31984859704971313, -0.563821017742157, -1.3121446371078491, -0.6941443681716919, -0.6090563535690308, -0.16187697649002075, -0.8097361326217651, -1.0505101680755615, 0.9631532430648804, -0.8023373484611511, -0.5685229301452637, 0.03413316234946251, 0.25611671805381775, 1.8358209133148193, 0.689368724822998, 0.177604541182518, -1.7412470579147339, -0.8373228311538696, 0.3032382130622864, -0.6895459294319153, -0.1295183151960373, 0.2737565040588379, -0.2652377188205719, -0.08220964670181274, -1.1216850280761719], [1.92474365234375, -1.6517043113708496, -0.5221649408340454, 0.586108922958374, 1.8096752166748047, 0.8102792501449585, -0.8253230452537537, -0.936612606048584, -0.5690829157829285, -0.657305121421814, -1.707245111465454, -0.11014832556247711, -1.1993545293807983, 1.4887222051620483, -0.5504087209701538, -0.2447369247674942, -0.5794793963432312, 0.10239128023386002, -0.1258111596107483, 2.162083387374878, 0.36801162362098694, -0.5309701561927795, -0.9688268899917603, 1.3914783000946045, 0.5983306169509888, 1.0626760721206665, 0.22866013646125793, 0.09320724755525589, -0.48607027530670166, -1.5689195394515991], [0.3573944866657257, -1.1328926086425781, -0.04895859956741333, -1.0285451412200928, -0.36204972863197327, 0.4535793364048004, -0.2916419506072998, -1.0226932764053345, -0.41903790831565857, -0.37368664145469666, -0.6206848621368408, -0.5505930781364441, -0.5417269468307495, 1.1801518201828003, -0.15245208144187927, -0.813897430896759, -1.0943880081176758, -0.5221554636955261, -1.0706907510757446, 0.7714483141899109, 0.34003499150276184, -0.5244174003601074, -0.29395508766174316, 0.05565623193979263, 0.7021453380584717, -1.1390787363052368, 0.46926337480545044, -0.09269203245639801, 0.38361310958862305, -0.09596715867519379], [0.8091465830802917, 0.21925178170204163, -0.37363308668136597, 0.22680294513702393, -3.5320944786071777, 1.324441909790039, 1.4465091228485107, -0.0008998118573799729, -0.4687229096889496, 0.9667866826057434, 0.2834344804286957, 0.24410860240459442, 0.2771390676498413, 0.959638774394989, 0.8813429474830627, 0.4335358440876007, -2.387265682220459, 0.09285275638103485, -3.2783889770507812, -0.07109841704368591, -0.1419384777545929, 1.1152141094207764, -0.800658106803894, 1.162011742591858, 0.2283945083618164, 0.30302712321281433, 2.462010383605957, 0.5281854271888733, 0.008371400646865368, 0.5048789381980896], [1.165568232536316, 0.8247876763343811, 0.01661781594157219, 1.2463505268096924, 1.2368195056915283, -0.1980857104063034, 0.3760707974433899, 0.41465091705322266, -0.24732452630996704, 0.012998946942389011, 0.3272491991519928, 0.6515101194381714, -0.016904324293136597, -0.32441624999046326, 0.3473984897136688, 1.1734216213226318, 1.2263014316558838, -0.21891483664512634, -0.4076523184776306, -0.4658583402633667, -0.9267767071723938, 0.09890482574701309, -0.6871050000190735, 0.5177357196807861, -1.0470808744430542, 1.3233510255813599, -0.6299183964729309, 0.27060848474502563, -1.3888001441955566, 0.11530060321092606], [0.10612901300191879, -0.3036794364452362, 0.2621309757232666, -0.5423621535301208, -1.9614161252975464, 0.0031459687743335962, -0.1859765350818634, -0.1757114827632904, -0.07972622662782669, 0.5477603077888489, -0.6863086819648743, 0.21027302742004395, 0.5207902193069458, 0.5438030958175659, 0.13351376354694366, -0.5993567109107971, -1.4716299772262573, -0.5989645719528198, -0.8995466828346252, 0.4491310119628906, 0.6059772968292236, 0.6869465112686157, 0.3086157739162445, -0.004698904696851969, 0.46485087275505066, -0.7581227421760559, 0.986303985118866, 0.05621776357293129, 0.9018759727478027, 1.0344918966293335], [0.23309850692749023, -0.25117045640945435, -1.292064905166626, -0.2850787341594696, 0.03179522231221199, 0.7869090437889099, 0.34864866733551025, -2.4086501598358154, -0.06765754520893097, 0.11682513356208801, -0.1586644947528839, 0.01745610311627388, 0.09298849105834961, 1.8219548463821411, 0.41202184557914734, -0.8349621295928955, -1.793766736984253, -0.5813584327697754, -0.136524498462677, -0.026970241218805313, 0.6182007789611816, -0.7966609597206116, -0.7284038066864014, 0.41650712490081787, 0.14086417853832245, -0.6474024057388306, 1.2297983169555664, 0.30022141337394714, -0.23256909847259521, 0.35931816697120667], [-0.11453335732221603, -1.047631859779358, -0.25409242510795593, 0.05635214224457741, 2.554098606109619, -0.1685098260641098, -0.8767305612564087, 0.15305443108081818, -0.3704065680503845, -0.4528481960296631, 0.40091750025749207, -0.2898537814617157, -0.5954130291938782, -0.19553148746490479, -0.31278231739997864, 0.11412287503480911, 1.2903411388397217, 0.48846346139907837, 1.7433369159698486, 0.42526039481163025, -0.3100488781929016, -0.9047923684120178, 0.3874548077583313, -0.18822617828845978, -0.6540362238883972, 0.6123306155204773, -0.9219702482223511, -0.8586093783378601, 0.1480288952589035, -1.6554813385009766], [0.3987783193588257, -0.9602477550506592, -0.3609132170677185, -0.7828672528266907, -0.793865442276001, 0.2554416358470917, -0.9189148545265198, -0.48370102047920227, -0.1253174990415573, -0.19108708202838898, -0.8336411714553833, -0.28937608003616333, 0.29523512721061707, 0.9578641057014465, -0.34052619338035583, -1.1918911933898926, -0.9666006565093994, -0.4173097014427185, -0.6484821438789368, 0.7683905959129333, 1.3154966831207275, -0.04629695788025856, 0.04265976324677467, 0.03871089965105057, 1.0485646724700928, -0.7939061522483826, 0.8548436760902405, -0.024275269359350204, 0.36756631731987, 0.46786531805992126], [0.12360258400440216, -0.5475522875785828, -0.4980698823928833, -0.30787327885627747, -0.7418143153190613, -0.0617198571562767, -0.1735782027244568, -0.16094759106636047, -0.2803387939929962, -0.08507224172353745, -0.7170122861862183, -0.7241876721382141, -0.36368420720100403, 0.5544760823249817, -0.1153753325343132, -0.9434861540794373, -1.0109807252883911, -0.5347215533256531, 0.5350862145423889, 0.3087831139564514, 0.3862673044204712, -0.6847004294395447, 0.06164552643895149, -0.0339534766972065, 1.7184916734695435, -0.9513019919395447, 0.025681601837277412, -0.15904854238033295, 0.7116194367408752, 0.07574903964996338], [-0.875669538974762, -0.11756438761949539, 1.2617710828781128, -0.9773304462432861, 0.19095125794410706, -0.6180431246757507, -0.30513909459114075, 1.475103735923767, 1.5831974744796753, -0.013146642595529556, 1.5123039484024048, 0.20549936592578888, 0.2392469346523285, 0.2948044538497925, 0.8534142374992371, 0.9985300898551941, 1.4838831424713135, 1.6150981187820435, -0.2420457899570465, -1.915433645248413, -0.6894720792770386, 0.9247795343399048, 0.07139584422111511, -0.5455164313316345, -0.5057116150856018, -1.5019174814224243, -0.4392830729484558, 0.17559301853179932, 0.25559505820274353, -0.023092156276106834], [0.2569718658924103, 0.6630878448486328, -1.087395429611206, 1.093053936958313, 1.3979437351226807, 0.9252345561981201, 1.1440212726593018, 0.4212906062602997, -0.14934785664081573, -0.10798380523920059, 1.1190929412841797, 0.31864720582962036, -0.7286742329597473, 0.07287303358316422, 0.8005057573318481, -0.14514365792274475, 0.9762555360794067, 0.19451330602169037, 0.7504624128341675, 0.05364202335476875, -1.04871666431427, 0.3119507133960724, -0.6494889259338379, 0.6356920599937439, -0.9205557107925415, 2.026762008666992, 0.4321652352809906, -0.4444083571434021, -0.938418447971344, -0.835216224193573], [-0.48941656947135925, 0.040804918855428696, -0.10848156362771988, 0.34506702423095703, 3.569240093231201, 0.1329958140850067, 0.14389798045158386, 0.13464964926242828, -0.18814794719219208, -0.5479305982589722, 0.6119736433029175, 0.13014671206474304, -0.3802341818809509, -1.103154182434082, 0.20369663834571838, 0.6368633508682251, 1.8187052011489868, 0.02467452362179756, 1.4546535015106201, -0.029504898935556412, -1.4119786024093628, -0.7439746856689453, -0.873928427696228, -0.11357694119215012, -0.4974936246871948, 0.6980743408203125, -0.845007598400116, -0.43089351058006287, -0.3404183089733124, -0.8394437432289124], [-0.31168270111083984, 0.19302304089069366, 0.44877058267593384, -1.0419206619262695, -3.7600340843200684, 0.18876612186431885, 0.2878144383430481, -0.0023908382281661034, 0.02176760882139206, 0.3643629252910614, -0.31254562735557556, 0.31451278924942017, 0.7666823267936707, 0.617565929889679, -0.3335338532924652, -0.27251553535461426, -1.314791202545166, -0.43041130900382996, -1.4291986227035522, -0.1005295142531395, 0.9895339608192444, 0.5659418106079102, 0.1338718980550766, 0.022671159356832504, 0.5425741076469421, -1.1682569980621338, 1.402599573135376, 0.4381367862224579, 0.6192178726196289, 1.1255180835723877], [0.07056554406881332, -0.5656148195266724, 0.4038320481777191, 0.23148584365844727, 4.035660266876221, 0.054961755871772766, 0.12439320981502533, 0.08124276250600815, -0.19418872892856598, -0.7009799480438232, 0.8340712189674377, -0.5262239575386047, -0.49514538049697876, -1.7178088426589966, -0.0031628343276679516, -0.2883450984954834, 2.604233503341675, 0.2540704011917114, 2.228795051574707, -0.02132757566869259, -1.2018448114395142, -0.5767170786857605, 0.2537245452404022, -0.3391600251197815, -0.6774718165397644, 0.8717279434204102, -1.4533469676971436, -0.24806679785251617, 0.042090993374586105, -2.204401731491089]]}, "hz": {"kernel": [[0.04583154618740082, -0.04625299200415611, 0.2610771954059601, 0.041407227516174316, 0.9071508646011353, 1.1085360050201416, 0.5314558744430542, 1.028485894203186, -1.3813889026641846, 0.1178659051656723, -0.025927497074007988, 0.28659588098526, 0.19569294154644012, 1.5378879308700562, -0.3161948323249817, 1.095412254333496, -0.8918466567993164, 0.2727654278278351, 1.6877249479293823, -1.327471375465393, -0.01086942944675684, -0.11401842534542084, 0.17580300569534302, -0.5675927996635437, -0.39073386788368225, 0.12121235579252243, 0.8654782176017761, -0.18906083703041077, -0.7008635997772217, -0.308869332075119], [-0.4113907217979431, 0.08570921421051025, -1.2846834659576416, 0.030050944536924362, 0.6419926881790161, 1.0604110956192017, 0.4706571400165558, 1.1981512308120728, -1.1145451068878174, -0.4257126450538635, -0.06590709835290909, 0.4791557788848877, 0.3159559369087219, 1.3381385803222656, -0.2838769853115082, 0.8197779059410095, -0.27065080404281616, 0.5408613681793213, 1.1798925399780273, -0.6923425793647766, -0.29188069701194763, 0.34801995754241943, 0.2813795506954193, -0.3220086097717285, -0.7048258185386658, 0.6098313331604004, 0.9486711025238037, -0.2470780909061432, -0.7590979337692261, -0.7233112454414368], [-2.0234110355377197, 0.37226030230522156, 0.6229193210601807, 0.04924361780285835, 1.736964464187622, 2.4179458618164062, 0.40006983280181885, 0.4567731022834778, -1.2214958667755127, -0.42179930210113525, -0.9479284286499023, -0.1073998510837555, -0.05399060621857643, 2.316272020339966, -1.1759490966796875, -0.5575478672981262, 0.26569482684135437, -0.942112147808075, 1.9154654741287231, -0.8342159986495972, -1.0605573654174805, 0.20556746423244476, -0.4693118929862976, -0.6974126100540161, -1.8456577062606812, 0.9871241450309753, 1.4571845531463623, -0.9057292342185974, -0.778937578201294, -0.32301995158195496], [-0.5869033932685852, 0.5437913537025452, 0.3115851879119873, 0.16750659048557281, -0.6983689069747925, 0.3561130464076996, -0.20091281831264496, 0.7843633890151978, -0.08902204781770706, -0.1276702582836151, -0.0464586466550827, 0.003268019761890173, -0.28873756527900696, 0.46878519654273987, -0.3566869795322418, 1.1730512380599976, 0.6448532938957214, -0.12818525731563568, 0.8102738261222839, -0.16488254070281982, -0.1444828063249588, 0.5914002060890198, -0.34773993492126465, -0.4609616994857788, -0.6881618499755859, 0.7956461906433105, 0.4850303828716278, -0.3144407570362091, 0.39739054441452026, -0.6608197093009949], [-0.579221785068512, 0.45777174830436707, 1.0619266033172607, 0.18736489117145538, 0.7479283213615417, 0.8527057766914368, 0.2310580462217331, 0.595041036605835, 0.3369142413139343, 0.4234938323497772, 0.12023988366127014, -0.23216256499290466, 0.39616644382476807, 0.2993299663066864, 1.2771260738372803, -0.3600858747959137, 0.6116960048675537, -0.026919787749648094, 0.9574992060661316, 0.05235705524682999, 0.8972593545913696, 0.8680768609046936, -0.5718364715576172, 1.0509239435195923, 0.02786039188504219, 0.4752560555934906, 1.5190762281417847, 0.5851187705993652, -0.19032402336597443, -0.5529640913009644], [-1.2606538534164429, -0.6170594096183777, 2.6550650596618652, -1.1317154169082642, 1.1148808002471924, 0.766092836856842, -0.08443855494260788, -0.5585170984268188, 0.2600457966327667, 0.030852437019348145, -0.4819319248199463, -0.062441710382699966, -0.7451547384262085, 1.2321285009384155, -0.3817484676837921, -0.9497807621955872, -0.01588345132768154, -1.3418629169464111, -0.32229000329971313, 0.5708756446838379, -0.5028948187828064, 0.12317673861980438, -0.47629377245903015, -0.12048742920160294, -0.716101884841919, -0.47350409626960754, 0.18194788694381714, -0.6800118684768677, 0.8192682862281799, -0.013665317557752132], [-1.0440781116485596, 0.02313288301229477, -1.6840571165084839, 0.4144064784049988, 0.43986350297927856, 0.875790536403656, 0.0236189067363739, 0.8330579400062561, -0.029437856748700142, -0.4671984314918518, 0.11355461180210114, 0.19191409647464752, -0.042973779141902924, 0.9544798731803894, -0.7858496904373169, 0.4719582796096802, 0.1372082233428955, 0.07131625711917877, 0.8541264533996582, -0.6851489543914795, -0.69632488489151, 0.3836497366428375, 0.3302885591983795, -0.9037929773330688, -0.5966426134109497, 0.9611125588417053, 0.7659416794776917, -0.467714786529541, -0.8529195189476013, -0.8702895641326904], [-1.5337164402008057, 0.2658213973045349, -1.3515398502349854, 0.24301809072494507, 0.32101476192474365, 1.423038363456726, -0.0014586066827178001, 1.2143570184707642, -0.03724919632077217, -0.4039355218410492, -0.6713754534721375, 0.11225800216197968, -0.18844228982925415, 2.624436378479004, -0.24205602705478668, 0.21836137771606445, 0.6353104114532471, -0.30292293429374695, 1.8759138584136963, -0.20337028801441193, -1.368403673171997, 0.5486010909080505, -0.8757943511009216, -0.8065513968467712, -1.2031587362289429, 1.0447113513946533, 1.3322138786315918, -1.4087973833084106, -1.139543056488037, -0.33510613441467285], [0.4917972981929779, -0.8307086229324341, 0.1584540158510208, -0.36594080924987793, -1.286678433418274, -1.1220362186431885, -0.29806727170944214, -1.3639613389968872, 0.741156816482544, -0.058328308165073395, 0.09001462906599045, -0.2918585538864136, 0.022392109036445618, -2.2084641456604004, 0.5091705918312073, -0.5129124522209167, -0.9852388501167297, -0.03367960825562477, -1.497915506362915, 1.168892741203308, 0.5384156107902527, -0.21716347336769104, -0.15385402739048004, 0.5361746549606323, 0.7339738011360168, -1.2670114040374756, -1.3433961868286133, 0.23048977553844452, 1.3336281776428223, 0.8583152890205383], [-0.7119007110595703, 0.38292625546455383, 0.31932100653648376, 0.1933596134185791, 0.763321578502655, 0.52959144115448, 0.06355364620685577, 0.9880884289741516, 0.21336983144283295, 0.2251257598400116, 0.2739298939704895, -0.017811564728617668, 0.25232231616973877, 1.2906298637390137, -0.2525221109390259, 0.7231980562210083, 0.47783610224723816, 0.3350082337856293, 1.0316543579101562, -0.29536178708076477, -0.4100660979747772, 0.37119343876838684, 0.36561134457588196, -1.0539052486419678, -0.5201981067657471, 0.19740627706050873, 0.7079266309738159, -0.134724959731102, 0.04085685685276985, -0.2956857681274414], [-0.2670767307281494, 0.2947896122932434, 0.11715313792228699, 0.012159392237663269, 0.4826844334602356, 0.8723301887512207, 0.2535751760005951, 0.6331290006637573, -0.7011145949363708, -0.19813139736652374, -0.0662049800157547, 0.05557563528418541, 0.1779724806547165, 1.3856289386749268, -0.1846214085817337, 0.1868186742067337, 0.1522880643606186, 0.3422936499118805, 1.412173867225647, -0.5023157596588135, -0.605993390083313, 0.7149453163146973, 0.08072516322135925, -0.6129182577133179, -0.5583851933479309, 0.896726667881012, 0.1750490814447403, -0.0909268856048584, -0.5448450446128845, -0.22575201094150543], [0.9004308581352234, -0.5119739770889282, -0.26358720660209656, -0.3033314347267151, -0.6866710782051086, -0.5748592615127563, -0.19160202145576477, -0.8777380585670471, -0.11525967717170715, 0.20082660019397736, 0.3658386766910553, 0.011732475832104683, -0.04491199925541878, -1.0291494131088257, 0.14685764908790588, -0.5414203405380249, -0.5652045011520386, 0.2669961154460907, -1.0472525358200073, 0.3134233355522156, 0.5190740823745728, -0.4518170952796936, 0.6029580235481262, 0.7237364053726196, 0.7256193161010742, 0.10350123047828674, -0.45033878087997437, 0.14412449300289154, 0.11724022030830383, 0.5933419466018677], [0.41478797793388367, 0.10362235456705093, -1.3131026029586792, 0.43857502937316895, -0.08704296499490738, 0.917957067489624, 0.28710439801216125, 0.5661901235580444, -1.3566604852676392, -0.07790394872426987, 0.11592673510313034, 0.47821202874183655, -0.00296541815623641, 0.5039367079734802, -0.24282613396644592, 0.7301167249679565, -0.4494783580303192, 0.4011984169483185, 0.4758106470108032, -0.9169483184814453, 0.16137802600860596, -0.13576185703277588, 0.4665314853191376, -0.6565098166465759, 0.12778563797473907, 0.006971701048314571, 0.37918350100517273, 0.23058518767356873, -0.9340485334396362, -0.20461031794548035], [0.268001526594162, 0.8190602660179138, -2.5674564838409424, 0.9482154846191406, -1.298519492149353, -0.8472939729690552, 0.16771897673606873, -0.2384939044713974, 1.2206494808197021, 0.19899575412273407, 0.12316425889730453, 0.21921168267726898, 1.1509919166564941, -2.2279913425445557, 1.003591775894165, 0.9586120247840881, 0.7265668511390686, 0.186762273311615, -0.8316500782966614, -0.22449345886707306, 0.5444493293762207, -0.49407172203063965, 0.3293662369251251, 0.14539378881454468, 1.5490230321884155, 0.7594537138938904, -1.136771559715271, 0.5270205736160278, -0.8851839303970337, 1.0642036199569702], [0.9464144110679626, -0.1308816522359848, -2.217846393585205, 0.2552429735660553, -0.5505675673484802, 0.536615788936615, 0.3809244632720947, 0.6181740164756775, 0.034458428621292114, -0.7101544141769409, -0.5157573819160461, -0.5298754572868347, -0.1230621188879013, 0.6156930327415466, -0.9170365929603577, 0.7263193726539612, 0.24320301413536072, -0.030418815091252327, 0.30623430013656616, -0.6172413229942322, -1.2607213258743286, -0.2581978440284729, 0.055960822850465775, -1.7701148986816406, -1.1270642280578613, 0.09732523560523987, 0.676987886428833, -1.8091785907745361, -0.6456566452980042, -0.34782835841178894], [1.1894383430480957, -0.35994037985801697, -0.804360568523407, -0.010876885615289211, -0.6002363562583923, -0.7003731727600098, 0.10980608314275742, -0.7980153560638428, -0.5252264738082886, 0.028416618704795837, 0.02653944492340088, -0.2706614136695862, 0.4962743818759918, -2.2537283897399902, 0.26824092864990234, -0.21599262952804565, -1.036696195602417, 0.4742205739021301, -1.5575913190841675, 0.6219863891601562, 1.1176881790161133, -0.6499184370040894, 0.959729015827179, 0.6773655414581299, 0.6278483867645264, -0.24304474890232086, -0.7411106824874878, 0.5954821109771729, 0.4008011221885681, 0.3302136957645416], [0.3890239894390106, -0.6629809737205505, -0.12548646330833435, -0.15276393294334412, -0.5895566940307617, -0.21715448796749115, 0.11072862893342972, -0.32947295904159546, -1.0009288787841797, 0.32227104902267456, 0.34303221106529236, 0.6097155809402466, 0.18487326800823212, -1.4525063037872314, 0.8460702300071716, -0.11895236372947693, -1.77250337600708, 0.5627469420433044, -0.9256938695907593, 0.30149948596954346, 1.8430731296539307, -0.5422930717468262, 0.8433963060379028, 0.8158477544784546, 1.2068732976913452, -1.6891041994094849, 0.5535399317741394, 1.7228800058364868, 0.09818341583013535, 0.505917489528656], [0.3623204529285431, 0.2336902916431427, -0.08380603790283203, -0.016333648934960365, -0.9269343018531799, -1.5716720819473267, 0.036198679357767105, -0.8785879015922546, 0.7550051212310791, 0.08935660123825073, -0.036575157195329666, -0.14950256049633026, -0.049321603029966354, -1.8604695796966553, 0.2842197120189667, -0.41550004482269287, 0.15574471652507782, -0.2270517796278, -1.0363517999649048, 0.6204327344894409, 0.9073417782783508, -0.2337721437215805, 0.5638318061828613, 0.5502256751060486, 0.6944628357887268, -0.2221146672964096, -1.4223538637161255, 0.4083603024482727, 0.7881748080253601, 0.8668559789657593], [0.2889758050441742, -0.32092154026031494, 1.680899739265442, -1.0306602716445923, 1.0174959897994995, -0.4916430115699768, -0.20877331495285034, -0.7066563367843628, 0.9567526578903198, -0.04876284301280975, -0.22168435156345367, -0.6139709949493408, -0.5570524334907532, -0.2551986277103424, -0.07792264968156815, -1.188267707824707, 0.2636353671550751, -0.8332623839378357, -0.4395779073238373, 0.3535211682319641, -0.19008289277553558, 0.17677120864391327, -1.0018317699432373, -0.13269749283790588, -0.06087254360318184, 0.16568495333194733, 0.40296506881713867, -0.18680979311466217, 0.5734226703643799, -0.2835407555103302], [-0.5596305727958679, 0.3977968990802765, 0.18823637068271637, 0.15960857272148132, 0.5645318627357483, 1.838316798210144, 0.32263678312301636, 0.7970725893974304, -0.9354953169822693, 0.009029339998960495, -0.026963630691170692, 0.08658608049154282, -0.14577017724514008, 1.514951467514038, -0.2274048626422882, 0.26323848962783813, 0.1508948802947998, 0.07264392822980881, 1.5975735187530518, -1.7052600383758545, -0.015657931566238403, 0.5688969492912292, -0.8050364255905151, -0.5297818183898926, 0.8109381198883057, 1.1873451471328735, 1.4552139043807983, 0.6564751863479614, -0.7399420738220215, -0.9852880835533142], [-0.12079421430826187, -0.3055007755756378, 0.5614982843399048, -0.6778981685638428, -0.34335222840309143, -1.2037699222564697, -0.2719076871871948, -0.7312390804290771, 1.0715765953063965, -0.06605182588100433, -0.3314526081085205, -0.22629645466804504, -0.2447947859764099, -1.7874141931533813, 0.3842233717441559, -0.7077394127845764, 0.40741267800331116, -0.8438001871109009, -1.0311050415039062, 1.5120118856430054, -0.022511931136250496, -0.2466079443693161, -0.15867841243743896, 0.5299439430236816, 0.35434553027153015, -0.6794677972793579, -0.5430837273597717, 0.10165498405694962, 1.1724607944488525, 1.025559425354004], [0.3352380096912384, -0.6787945628166199, 0.7870272397994995, 0.19854336977005005, -0.7734469771385193, -1.2136311531066895, -0.11539606004953384, -0.5835451483726501, 0.16978944838047028, 0.06397603452205658, -0.15522819757461548, -0.36232393980026245, -0.06219467520713806, -1.1889718770980835, 0.4240485429763794, -0.4387698173522949, 0.14784610271453857, -0.1646353304386139, -1.0254642963409424, 0.05026668682694435, 0.4392920732498169, -0.4869512915611267, 0.09749605506658554, 0.5122221112251282, 0.2456711232662201, -0.6994159817695618, -1.0431398153305054, 0.43838563561439514, 0.6257278919219971, 1.008446455001831], [0.6073379516601562, -0.08881872147321701, -1.335279941558838, 0.6120964288711548, -0.3187122046947479, 0.3981720805168152, 0.41373613476753235, 1.249496340751648, -0.6258060932159424, -0.07461055368185043, 0.06940682232379913, 0.3657752275466919, 0.16877691447734833, -0.10054465383291245, 0.0298374705016613, 0.518764317035675, -1.7463715076446533, 0.5391815304756165, 0.26937374472618103, -0.38456931710243225, 0.603860080242157, -0.8186958432197571, 0.4572642743587494, 0.16496209800243378, -0.02920156717300415, -0.5787249207496643, -0.02730424515902996, 0.4471353590488434, -0.7527479529380798, -0.018696153536438942], [0.4397284686565399, -0.234328955411911, -0.01767810992896557, 0.15922410786151886, -0.6990246176719666, -1.3233953714370728, -0.5425772666931152, -1.1768633127212524, 0.7951303720474243, 0.05745883658528328, -0.2115776091814041, -0.17717735469341278, -0.017213771119713783, -1.7645936012268066, 0.46642187237739563, -0.4074953496456146, -0.39238277077674866, -0.17440995573997498, -1.0654120445251465, 0.5984163284301758, 0.6256402134895325, -0.757224440574646, 0.17243774235248566, 0.28208088874816895, 0.25386470556259155, -0.47514450550079346, -1.066282868385315, 0.4711528420448303, 0.9991262555122375, 0.9064158797264099], [0.9004778265953064, -0.38514769077301025, -0.4099527597427368, -0.15176187455654144, -0.5829159617424011, -0.6970841288566589, -0.3988971710205078, -1.1118535995483398, 0.46364298462867737, -0.10126814991235733, -0.1417125165462494, -0.3087131083011627, -0.11032679677009583, -1.4388426542282104, -0.037579141557216644, 0.18831944465637207, -0.29785093665122986, -0.23500221967697144, -0.9991635680198669, 0.9935787916183472, 0.591092050075531, -0.03429156914353371, 0.4481733441352844, 0.5184115767478943, 0.8907613754272461, -0.5359485149383545, -0.6634677648544312, 0.03187821805477142, 0.5314841270446777, 0.41576018929481506], [-0.062101516872644424, 1.3337393999099731, 0.5086032748222351, 0.6321803331375122, 0.22005335986614227, 0.2253606766462326, 0.5250731110572815, 1.6347534656524658, 0.6257625222206116, 0.04417496174573898, -0.07036422193050385, 0.07154487818479538, 0.10564467310905457, 0.9197075963020325, -0.8750796914100647, 0.5533959269523621, 1.762166142463684, -1.2174299955368042, -0.05859987437725067, -0.3339707553386688, 0.04327103868126869, 1.3673344850540161, -0.6328403353691101, -0.16665633022785187, -0.5256744027137756, 1.961358904838562, 0.466881662607193, -0.6974883675575256, -0.2352822870016098, -1.2314209938049316], [0.8232530355453491, -0.7940570712089539, 1.0615209341049194, -0.4540528357028961, 0.40706098079681396, 1.4019428491592407, 0.3863946497440338, 0.9070291519165039, -0.8959223031997681, 0.3279685378074646, -0.3504377603530884, 0.07035213708877563, -0.19799213111400604, 1.244753122329712, -0.4980168342590332, 0.563102126121521, -1.4343405961990356, 0.47864630818367004, 0.9240517616271973, -0.4752148687839508, 0.0017567022005096078, -0.27882707118988037, 0.1574600338935852, 0.03485162928700447, -0.23013544082641602, -1.2450969219207764, 1.2300350666046143, -0.5066025257110596, -0.33666765689849854, -1.354063868522644], [0.27906301617622375, 0.11802933365106583, -0.9036683440208435, 0.596691370010376, 0.07207485288381577, 1.3308223485946655, 0.6530272364616394, 1.2057366371154785, -1.3746839761734009, -0.1757250428199768, 0.11684282124042511, 0.5928145051002502, 0.34383267164230347, 1.3355867862701416, -0.19893090426921844, 0.8983926177024841, -0.19891463220119476, 0.4721120595932007, 1.416568398475647, -1.6898778676986694, 0.014463967643678188, -0.1482476443052292, 0.42933496832847595, -0.014961094595491886, 0.13291417062282562, 0.2523839473724365, 0.7172931432723999, -0.7035208940505981, -1.41556978225708, -0.66729736328125], [-0.12094756960868835, -0.22945226728916168, -0.0972202941775322, -0.8743296265602112, -0.5170839428901672, -1.3073067665100098, -0.8405675292015076, -1.3188728094100952, 1.4991978406906128, 0.01769201271235943, -0.4000273048877716, -0.32381319999694824, -0.39958488941192627, -0.731282114982605, 0.5692332983016968, -0.6138344407081604, 0.6937609910964966, -0.9842636585235596, -1.3937417268753052, 1.1946080923080444, -0.6583206653594971, -0.0026096696965396404, -0.4572671353816986, -0.006529359612613916, -0.49809086322784424, -0.7877681255340576, -0.8836196660995483, -0.5908917188644409, 1.4395155906677246, 0.7774827480316162], [0.44788336753845215, -0.40915700793266296, -1.4670988321304321, 0.7464097738265991, -0.17434419691562653, 1.1360507011413574, 0.8269030451774597, 1.2873170375823975, -1.3706144094467163, 0.4436379671096802, 0.09381862729787827, 0.6095909476280212, 0.7509557604789734, 0.5218368768692017, 0.38208842277526855, 1.1955151557922363, -0.590925395488739, 1.1217622756958008, 0.9308599233627319, -1.2356441020965576, 0.2949177026748657, -0.8006978034973145, 1.7998812198638916, 0.2984168529510498, 0.11200085282325745, -0.763261616230011, -0.22290219366550446, 0.47160643339157104, -1.108499526977539, 0.08720958232879639]]}, "in": {"bias": [-0.16565920412540436, -0.387486070394516, -0.5004104375839233, 0.02189474180340767, 0.009150522761046886, 0.07163327187299728, -0.3408562242984772, -0.43030238151550293, -0.027977513149380684, -0.0017582286382094026, 0.18261194229125977, -0.009490380994975567, -0.5116735696792603, -0.2070341408252716, -0.18126249313354492, 0.003652643645182252, 0.002829135861247778, -0.10371053218841553, 0.17812593281269073, -0.05544394254684448, 0.20455461740493774, 0.16174641251564026, -0.11484106630086899, 0.07071294635534286, -0.005347818601876497, -0.11777960509061813, -0.17121058702468872, -0.1432524174451828, 0.14975151419639587, 0.02782376855611801], "kernel": [[-0.9332589507102966, -0.9989275932312012, -1.3503328561782837, -0.06861887127161026, 0.007482830435037613, 0.3040309250354767, -0.8783610463142395, -0.6693615913391113, 0.9158592224121094, -0.023039069026708603, -0.28104734420776367, 0.012323363684117794, -0.6653534770011902, 0.24596039950847626, -0.12705771625041962, 0.16891774535179138, 0.1115412786602974, 1.5348584651947021, 1.125937819480896, -0.5595302581787109, 0.5334880352020264, 0.43767064809799194, -0.1661694496870041, 0.2621014416217804, 0.051149144768714905, -0.15629345178604126, -0.5106331706047058, -1.7111704349517822, 0.6846989989280701, -0.217010959982872]]}, "ir": {"bias": [-0.3220445215702057, -1.6110152006149292, 0.9816205501556396, -1.6450707912445068, -0.9494667053222656, -1.0760886669158936, -0.17416617274284363, 0.3118852376937866, -1.2532559633255005, -1.5509040355682373, -1.114686131477356, -1.785732626914978, -1.1834887266159058, -0.1313851773738861, -0.7431169748306274, -0.9039718508720398, -0.7661612033843994, -1.0212947130203247, -0.07428999990224838, 0.06361445039510727, -0.7179571986198425, -1.2921020984649658, -2.2638731002807617, -0.7670751810073853, -1.50846529006958, -1.2982722520828247, -0.8235553503036499, -1.4909648895263672, -2.0710620880126953, -1.941671371459961], "kernel": [[-0.8436205387115479, 2.1182916164398193, 0.6736844778060913, 0.6623246669769287, 0.40606367588043213, 0.11390861868858337, -2.392056465148926, 1.947186827659607, 2.0870330333709717, -0.5429888367652893, -0.23860101401805878, -0.6791674494743347, 1.5429058074951172, 3.3440420627593994, -2.8603200912475586, -1.7782195806503296, 0.4379218518733978, -0.8195496797561646, -0.052133943885564804, -1.9839476346969604, 0.8116127848625183, -0.6067233681678772, 1.390525221824646, 0.9968134164810181, -0.3240869343280792, 2.4027020931243896, -0.09814468771219254, 1.0466630458831787, 0.80353844165802, 0.2479720562696457]]}, "iz": {"bias": [2.59527325630188, 1.3900783061981201, 0.10595863312482834, 2.6954197883605957, 0.13790713250637054, 2.0062289237976074, 1.242723822593689, 0.2583255171775818, 0.8356164693832397, 2.5905628204345703, 2.3043391704559326, 2.956450939178467, 2.4614880084991455, 2.2616827487945557, 0.6135808229446411, 2.1404733657836914, 1.420076608657837, 2.0173354148864746, 1.106345534324646, 1.187997817993164, 1.8739339113235474, 2.4490606784820557, 2.197439670562744, 1.729192852973938, 2.1677157878875732, -0.5630553960800171, 2.263340473175049, 1.5752465724945068, 1.6263493299484253, 1.0960384607315063], "kernel": [[0.07728417962789536, -0.5782334804534912, -3.0434257984161377, -0.8388040065765381, 3.0718445777893066, -0.16400842368602753, -0.8422548770904541, -2.028796911239624, -0.6390964388847351, -0.3547956049442291, -0.9422345757484436, -0.7507445812225342, 0.4467516839504242, -0.6311954855918884, 0.440607488155365, -0.5936775207519531, -1.0512731075286865, -0.6221731901168823, 0.1529480367898941, 0.02488381415605545, 0.13984361290931702, -0.3906847834587097, 0.32414981722831726, -0.05905771255493164, -0.30269911885261536, -3.182065486907959, 0.7266084551811218, -0.11731630563735962, 0.004986441694200039, -0.02399308606982231]]}}}}}, "fidelity_each_timestep": [1.0, 0.8507467411048993, 0.8668123264317674, 0.8216641722676516, 0.5834438272129093, 0.4254044662408849, 0.3227206822867593, 0.28707329612046456, 0.2892370758045227, 0.30235602825171615, 0.322016755449663, 0.3237627893063779, 0.3198873606110492, 0.316484169818222, 0.32208087099361526, 0.3206323652510866, 0.30437869857453087, 0.2980690670987913, 0.26864042534937604, 0.27044645830363157, 0.275305985742099]}