{"iterations": 0, "final_fidelity": 0.2962249889712966, "final_purity": -1, "optimized_trainable_parameters": {"initial_params": [[], [6.08412419054214, 3.036848610422562, 4.0816738268135815, 5.995915120630274, 0.9270058701494313, 2.728433007585597, 3.3773867055585156, 2.7106964703592307, -0.056069046694072214, 3.864856988789411, 5.279302166848643, 5.358824196791052, 4.981546340195808, 1.1192127716910714, 2.344204195149228, 3.9719426384169827, 5.218484959495083, 2.2090679368862562, 4.797623141852699, 5.823692301996493, 0.31556435942240246, 3.030490137966179, 1.7194749653008563, 4.973147098793945, 2.1101587208352393, 5.761418510212814, 1.7378942656024712, 0.7489007037358073, 3.546919784378009, 4.811769065241488, 1.3858180041839838, 2.5936966374993786, 2.498491422108646, 4.831802187159958, 5.4776373022288745, 3.371230430792553, 2.96928664961393, 0.6522975772936652, 5.1519737310860885, 3.7137955436066794, 3.7692283670685587, 3.6303310113268448, 0.6207926218368923, 4.794071219552765, 5.723220750518726, 3.722899579187097, 5.434779557779153, 4.0106792444627954, 2.5607915416242704, 3.6208438586059253, 1.4732495566829824, 6.027600351085779, 1.4745133273364592, 0.5026579935413034, 3.084843341081983, 2.5505854402911914, 1.5052860326109125, 0.7352744679059249, 3.544861982813019, 5.374459172243812, 2.3109372273070132, 6.790258907062471, 2.6909099118450968, 3.028291570906006, 1.572076695579022, 6.3673822049747, 1.699240530694738e-30, 6.305633393493403, 4.713421784638956, 1.5556650911805057, 4.706010265111812, 6.283185307179587], [6.094363009698324, 1.980346031110394, 4.153791127233861, 6.229067048932181, 1.7751352004394012, 2.233601835029501, 3.3002877923679588, 2.0270080429275144, 0.3686831206784092, 3.864856988789411, 5.998718376191112, 5.270125085447247, 4.981546340195808, 1.1192127716910714, 2.344204195149228, 4.8330570839390745, 5.218484959495083, 2.2090679368862562, 4.797623141852699, 5.823692301996493, 0.31556435942240246, 3.030490137966179, 1.7194749653008563, 4.973147098793945, 2.1101587208352393, 5.761418510212814, 1.7378942656024712, 0.7489007037358073, 4.456599926224252, 4.691879038729621, 2.3886105832554008, 2.29713601226842, 2.258161719529259, 4.80035533176193, 5.280894609627821, 2.701561590392014, 1.9916554950935172, 0.6522975772936652, 3.7174330446199817, 4.025395429880456, 3.7692283670685587, 3.6303310113268448, 0.6207926218368923, 3.844441479341378, 5.723220750518726, 3.722899579187097, 5.434779557779153, 4.0106792444627954, 2.5607915416242704, 3.6208438586059253, 1.4732495566829824, 6.027600351085779, 1.4745133273364592, 0.5026579935413034, 3.084843341081983, 2.5505854402911914, 2.8747856376057754, 0.05932658899645032, 4.925228858701095, 3.671936945383406, 1.7285193729825767, 3.917877352620044, 5.354829688403799, 3.4221099749950374, 1.761416159209946, 5.784620527289228, 0.0007077399087626888, 6.180694055093325, 5.245667767192338, 1.3114847229744826, 4.644379254015441, 5.143584142402586], [0.08062436666431605, 0.923948835561414, 0.7339523451366718, 0.5794502442667795, 0.5976030059699919, 0.7000266287193331, 0.8056200973061387, 0.8894700350923472, 0.07627888141344874, 0.8728580575304441, 0.22663938029178654, 0.6564232100473297, 0.29224536994517436, 0.6596231091705356, 0.629365131022366, 0.4619819572813424, 0.8193514805281565, 0.6512831230341642, 0.9733046870263129, 0.9444505395292015, 0.9182082032288363, 0.5543627964382509, 0.7830599900634658, 0.6542280042611439, 0.7626502422760495, 0.9888408853930919, 0.6299959315030015, 0.9162851472155082, 0.706661011532282, 0.827052482249405, 0.4143085575562553, 0.301302335753453, 0.05760853211194594, 0.7207888384390386, 0.1923819370949056, 0.15724463390189425, 0.9167070879854895, 0.5428114841934542, 0.30390380628201474, 0.2765018768384566, 0.5833472829696598, 0.7757670168741624, 0.8151969697108865, 0.6730294070586214, 0.3425704284896489, 0.2816810660044804, 0.32252491583720855, 0.2149071806352678, 0.7559688675013756, 0.3074243349346728, 0.950506417112257, 0.8364326348445001, 0.9862761290834987, 0.1625085191882869, 0.5606424964766055, 0.1594550505153438, 0.4145701339543364, 0.06871425770856554, 0.5767713099864875, 0.185962538695982, 0.8177615934270606, 0.5290150682036481, 0.4916001550510516, 0.6132162644788453]], "rnn_params": {"params": {"Dense_0": {"bias": [3.5806586742401123, 3.1338908672332764, 3.7550125122070312, 3.991580009460449, 3.948230266571045, 4.027040004730225, 2.1728639602661133, 2.630793333053589, 2.5621912479400635, 3.1415927410125732, 2.962280511856079, 3.53635311126709, 3.1415927410125732, 3.1415927410125732, 3.1415927410125732, 2.632319211959839, 3.1415927410125732, 3.1415927410125732, 3.1415927410125732, 3.1415927410125732, 3.1415927410125732, 3.1415927410125732, 3.1415927410125732, 3.1415927410125732, 3.1415927410125732, 3.1415927410125732, 3.1415927410125732, 3.1415927410125732, 2.802377462387085, 3.088796854019165, 3.3936822414398193, 5.079155921936035, 2.8681633472442627, 3.3089990615844727, 3.5161285400390625, 2.6713736057281494, 3.119729518890381, 3.1415927410125732, 2.7600340843200684, 5.104506969451904, 3.1415927410125732, 3.1415927410125732, 3.1415927410125732, 3.6142189502716064, 3.1415927410125732, 3.1415927410125732, 3.1415927410125732, 3.1415927410125732, 3.1415927410125732, 3.1415927410125732, 3.1415927410125732, 3.1415927410125732, 3.1415927410125732, 3.1415927410125732, 3.1415927410125732, 3.1415927410125732, 1.9118931293487549, 3.960466146469116, 4.0024800300598145, 0.8070260286331177, 2.5187880992889404, 1.9481228590011597, 4.6106414794921875, 6.510085582733154, 4.4921417236328125, 3.1081690788269043, 3.12551212310791, 3.137373447418213, 3.1750288009643555, 3.124948024749756, 3.095951557159424, 3.1184310913085938, 3.155770778656006, 2.794914960861206, 3.198394775390625, 3.2737555503845215, 3.381406307220459, 3.0584537982940674, 3.3572165966033936, 3.4244167804718018, 3.1216752529144287, 3.1415927410125732, 3.24223256111145, 3.275505781173706, 3.1415927410125732, 3.1415927410125732, 3.1415927410125732, 3.3078713417053223, 3.1415927410125732, 3.1415927410125732, 3.1415927410125732, 3.1415927410125732, 3.1415927410125732, 3.1415927410125732, 3.1415927410125732, 3.1415927410125732, 3.1415927410125732, 3.1415927410125732, 3.1415927410125732, 3.1415927410125732, 3.0825648307800293, 2.9232654571533203, 3.1264894008636475, 3.3668956756591797, 3.180492877960205, 3.1356558799743652, 2.747451066970825, 3.1545259952545166, 3.1495649814605713, 3.1415927410125732, 3.0041720867156982, 3.136059284210205, 3.1415927410125732, 3.1415927410125732, 3.1415927410125732, 3.148256778717041, 3.1415927410125732, 3.1415927410125732, 3.1415927410125732, 3.1415927410125732, 3.1415927410125732, 3.1415927410125732, 3.1415927410125732, 3.1415927410125732, 3.1415927410125732, 3.1415927410125732, 3.1415927410125732, 3.1415927410125732, 3.391129732131958, 2.8951375484466553, 3.315671920776367, 3.2273948192596436, 3.339571952819824, 2.896646022796631, 3.1194517612457275, 2.748384714126587, 3.155707359313965, 3.14585280418396, 3.1439387798309326, 3.137821912765503, 3.1490252017974854, 3.1484806537628174, 3.1299633979797363, 3.1439599990844727, 4.011853218078613, 3.2900540828704834, 3.226529121398926, 3.276218891143799, 2.88628888130188, 3.719820022583008, 2.14009952545166, 2.806334972381592, 2.424905776977539, 3.1415927410125732, 3.7666192054748535, 3.7739932537078857, 3.1415927410125732, 3.1415927410125732, 3.1415927410125732, 2.7932281494140625, 3.1415927410125732, 3.1415927410125732, 3.1415927410125732, 3.1415927410125732, 3.1415927410125732, 3.1415927410125732, 3.1415927410125732, 3.1415927410125732, 3.1415927410125732, 3.1415927410125732, 3.1415927410125732, 3.1415927410125732, 2.595963954925537, 2.4481048583984375, 3.528308391571045, 3.8133301734924316, 2.6890385150909424, 2.7513818740844727, 3.252119541168213, 3.8525562286376953, 3.4452614784240723, 3.1415927410125732, 3.8528382778167725, 3.350008010864258, 3.1415927410125732, 3.1415927410125732, 3.1415927410125732, 3.1362340450286865, 3.1415927410125732, 3.1415927410125732, 3.1415927410125732, 3.1415927410125732, 3.1415927410125732, 3.1415927410125732, 3.1415927410125732, 3.1415927410125732, 3.1415927410125732, 3.1415927410125732, 3.1415927410125732, 3.1415927410125732, 4.749999046325684, 2.103437900543213, 3.392733097076416, 2.866624593734741, 2.8541452884674072, 2.131652355194092, 2.372413158416748, 4.344708442687988], "kernel": [[-0.08048411458730698, -0.09923262894153595, 0.2753106951713562, -0.11980753391981125, 0.07576413452625275, 0.028643028810620308, -0.08429097384214401, -0.1268218606710434, -0.4881669580936432, -0.12196922302246094, 0.22382907569408417, -0.04020049795508385, 0.06906227767467499, 0.003314841538667679, -0.059839241206645966, -0.10879264771938324, -0.11067640036344528, 0.03344724699854851, -0.15226875245571136, 0.044100385159254074, -0.0452943816781044, 0.020017001777887344, -0.14598530530929565, -0.10254927724599838, -0.10453002154827118, -0.018412653356790543, 0.1523095667362213, -0.08039117604494095, -0.012914241291582584, -0.15651379525661469, -0.1089906245470047, -0.12579570710659027, -0.13376741111278534, 0.08579343557357788, -0.04393038898706436, -0.014262472279369831, -0.14718185365200043, -0.06874766200780869, -0.36499255895614624, 0.2832164168357849, -0.11769058555364609, 0.14503911137580872, -0.08481695502996445, 0.21705114841461182, 0.14014659821987152, 0.07329833507537842, 0.006989157758653164, -0.12717357277870178, 0.11466741561889648, -0.06445130705833435, 0.11857102066278458, -0.14081914722919464, -0.011992082931101322, -0.055718570947647095, 0.09369600564241409, -0.10727445781230927, -0.09359481185674667, 0.15261155366897583, 0.10357353091239929, -0.5213375687599182, -0.09097806364297867, -0.22332963347434998, 0.18224598467350006, 0.5446017384529114, -0.022564711049199104, -0.11129604279994965, 0.07305170595645905, -0.11863051354885101, -0.02589777484536171, -0.03967922553420067, 0.008773363195359707, -0.12849824130535126, -0.1957205981016159, -0.04154857248067856, -0.04041481763124466, -0.1889156699180603, -0.050882820039987564, 0.023437948897480965, -0.06973149627447128, -0.013320024125277996, -0.14310818910598755, 0.09683675318956375, 0.022733479738235474, 0.031010420992970467, 0.07655082643032074, -0.08466792106628418, 0.15254177153110504, 0.036294493824243546, 0.08460470288991928, -0.0349842868745327, 0.05775022879242897, 0.05265633761882782, 0.09158731251955032, 0.07796468585729599, 0.02992280013859272, -0.09402693808078766, -0.05578629672527313, 0.06324663758277893, 0.07557650655508041, 0.06198056414723396, 0.028784265741705894, 0.10284177213907242, 0.12550866603851318, 0.006926479749381542, 0.06167636811733246, 0.005482514854520559, 0.17044585943222046, 0.22428256273269653, 0.01743549108505249, -0.03651916980743408, -0.20132069289684296, 0.14635828137397766, -0.09259884804487228, 0.1489463448524475, -0.08039238303899765, -0.12568403780460358, 0.1442158967256546, -0.04941383749246597, -0.1270333230495453, -0.08185000717639923, -0.1130208969116211, 0.06713752448558807, 0.07427836954593658, -0.048975661396980286, 0.053642433136701584, -0.08863712847232819, 0.031497467309236526, -0.07356744259595871, 0.0009310641908086836, -0.15041425824165344, -0.23296749591827393, -0.03452266380190849, -0.16213417053222656, 0.16728584468364716, 0.1233908087015152, 0.16309238970279694, -0.02504643425345421, 0.0103091299533844, 0.031125884503126144, -0.021069763228297234, -0.05654380843043327, 0.04519907757639885, 0.08555059134960175, 0.09445791691541672, 0.6273753643035889, 0.18886564671993256, 0.7434871196746826, 0.3669660985469818, 0.2019440233707428, 0.05940227210521698, -0.3941831588745117, -0.05133288726210594, -0.51398766040802, 0.12050100415945053, -0.9760882258415222, 0.9102395176887512, -0.047450169920921326, 0.1513194590806961, 0.06285127997398376, -0.27326297760009766, -0.09043298661708832, 0.07179278880357742, -0.04936852678656578, 0.08421353995800018, 0.03554166853427887, -0.03628439083695412, 0.051341548562049866, -0.1166900247335434, -0.11148203909397125, -0.15355134010314941, 0.12055078148841858, 0.13107183575630188, -0.946128785610199, -0.10141751915216446, -0.6567414402961731, -0.3306254744529724, -0.4448566436767578, -0.0326535589993, -0.2791964113712311, -0.01956057734787464, 0.06961233168840408, 0.010748420841991901, 1.2435327768325806, 0.4018603265285492, -0.03903624787926674, 0.15630534291267395, -0.12664636969566345, 1.0122770071029663, -0.15702955424785614, 0.09701463580131531, 0.08994416147470474, -0.0630776509642601, 0.05670531094074249, 0.02416299469769001, 0.1148395836353302, -0.11596997827291489, 0.02163758873939514, -0.14149747788906097, -0.01550990529358387, -0.14273923635482788, -0.31204453110694885, 0.0395231656730175, 1.246700406074524, 0.6975695490837097, 1.3257241249084473, -0.9647248387336731, 0.011935228481888771, 0.33304494619369507], [-0.274091511964798, 0.1369403451681137, 0.03694995865225792, -0.2589424252510071, 0.1201527938246727, 0.39582014083862305, -0.06998603790998459, 0.08354164659976959, -0.5439677238464355, 0.13828779757022858, 0.18950383365154266, -0.264914333820343, -0.10807684063911438, -0.0779157355427742, 0.004576939158141613, 0.1010865867137909, 0.031145641580224037, 0.037475548684597015, -0.010362675413489342, 0.11349900811910629, 0.11735287308692932, 0.10524570941925049, 0.11013896763324738, 0.14183437824249268, -0.042303089052438736, 0.1458406150341034, -0.06483417749404907, -0.0626298263669014, 0.04922192916274071, -0.48052310943603516, -0.06805156171321869, -0.13457641005516052, 0.26693105697631836, -0.012157830409705639, -0.06557025015354156, -0.12500649690628052, -0.36850929260253906, 0.036092426627874374, -0.14534974098205566, 0.23544228076934814, -0.10003571957349777, -0.14055047929286957, -0.055693019181489944, -0.058614347130060196, 0.06253344565629959, 0.05092926323413849, -0.10331504791975021, 0.023266276344656944, 0.04284567013382912, -0.062213338911533356, 0.11332794278860092, -0.1494826376438141, -0.06714849919080734, -0.011204427108168602, -0.14177986979484558, 0.08391918241977692, 0.02312513068318367, 0.037913013249635696, 0.07486321032047272, 0.009518581442534924, -0.3635715842247009, 0.13327540457248688, 0.04619617015123367, 0.1670655757188797, -0.06773824244737625, 0.024131160229444504, 0.09123636037111282, 0.15417520701885223, -0.023861920461058617, -0.026146721094846725, 0.03301488235592842, 0.01201160904020071, -0.3252592086791992, 0.23996959626674652, -0.38580694794654846, -0.24495863914489746, -0.267214834690094, -0.1364690214395523, -0.12192117422819138, -0.1157301738858223, -0.19816838204860687, -0.0013481804635375738, -0.07934105396270752, -0.14227908849716187, 0.09984507411718369, -0.060107938945293427, -0.11172938346862793, -0.281507283449173, 0.1534077525138855, -0.14230458438396454, 0.08731518685817719, 0.09555444121360779, -0.1089622750878334, -0.10949467122554779, -0.06346885114908218, -0.13580599427223206, 0.03715839609503746, 0.10286154597997665, 0.0938761979341507, -0.12265463173389435, 0.40888628363609314, 0.08410519361495972, 0.052047841250896454, -0.1397114247083664, -0.20125499367713928, -0.2731180787086487, -0.0340987890958786, 0.227446511387825, 0.1693074256181717, -0.08158554881811142, -0.07970552146434784, 0.32639625668525696, -0.009464632719755173, -0.004158675204962492, 0.021659960970282555, -0.1335335075855255, -0.11199937015771866, 0.15278109908103943, -0.0285885501652956, -0.11873838305473328, -0.016578031703829765, -0.06681295484304428, -0.11783204972743988, 0.04276231303811073, -0.08448424935340881, -0.056406062096357346, -0.12432454526424408, -0.0004967757849954069, -0.10536729544401169, -0.05063445493578911, -0.07975154370069504, -0.161794051527977, -0.32613831758499146, -0.056146904826164246, 0.32661062479019165, 0.6079256534576416, -0.03650251403450966, -0.09688304364681244, 0.0566781647503376, 0.049107253551483154, 0.05728113278746605, 0.027530808001756668, 0.06381120532751083, -0.09207941591739655, 1.0457226037979126, 0.3120540678501129, 0.6259080171585083, 0.4478842616081238, -0.07624909281730652, 0.312764436006546, -0.7231947779655457, -0.6871525049209595, -1.1939585208892822, -0.08262081444263458, -1.5453287363052368, 1.429665446281433, -0.06139229238033295, 0.03498228266835213, -0.09254660457372665, -0.8074905872344971, -0.004774506203830242, 0.01800987310707569, -0.11965008825063705, 0.1284288614988327, 0.12348184734582901, -0.14065654575824738, -0.030813612043857574, -0.09815377742052078, 0.130273699760437, 0.13134807348251343, 0.08137302845716476, -0.0018130820244550705, -1.3157845735549927, -0.16800402104854584, -0.8197166323661804, 0.042453646659851074, -0.7925688028335571, 0.6458932161331177, -0.12658073008060455, -0.7093950510025024, 0.4321005344390869, -0.1532270610332489, 1.7267022132873535, 1.528835415840149, 0.05432477593421936, 0.15467287600040436, 0.1106802225112915, 1.1052273511886597, 0.1460401564836502, 0.11567693948745728, 0.07261307537555695, 0.09099479764699936, -0.06613458693027496, 0.015799006447196007, 0.040800876915454865, 0.10423913598060608, 0.06760117411613464, 0.10763286799192429, -0.1317509263753891, 0.1476481407880783, -0.46796292066574097, -0.6610361933708191, 0.31357327103614807, 0.7744539976119995, 2.817429542541504, 0.0678412988781929, -0.20950016379356384, 0.11977937072515488], [-0.1887809932231903, -0.26986706256866455, 0.16863512992858887, -0.13669414818286896, -0.3922935724258423, 0.6314261555671692, 0.3386716842651367, -0.03544493392109871, 0.06615027040243149, 0.14495328068733215, 0.27106142044067383, -0.15443207323551178, -0.035848524421453476, 0.14675630629062653, -0.031032415106892586, -0.4653525948524475, -0.02956385537981987, -0.13830679655075073, 0.11458167433738708, 0.05036730319261551, -0.039963286370038986, 0.12001864612102509, 0.03320315480232239, -0.14475208520889282, -0.029631389304995537, -0.14394031465053558, 0.0642269030213356, 0.12011756747961044, 0.02009918913245201, 0.1964838057756424, 0.192964106798172, -0.6128544807434082, 0.02238437719643116, 0.4658105969429016, 0.02947046421468258, 0.3697449564933777, 0.21776720881462097, 0.15358279645442963, 0.48656225204467773, -0.07604677975177765, 0.08082018792629242, 0.05604276433587074, -0.15179423987865448, -0.19400757551193237, 0.004272506106644869, 0.03166043758392334, -0.1107863336801529, 0.15543203055858612, -0.059196874499320984, 0.10650898516178131, 0.11508132517337799, -0.03857903182506561, 0.13101550936698914, -0.010259253904223442, -0.09721897542476654, 0.04527053236961365, 0.5424047708511353, -0.12948183715343475, 0.10199811309576035, 0.866069495677948, 0.40350547432899475, 0.13332074880599976, -0.4482211172580719, -1.187598466873169, 0.15432041883468628, 0.0866059884428978, 0.07106960564851761, -0.038993000984191895, -0.02096051536500454, -0.08917180448770523, 0.24351143836975098, -0.08784137666225433, -0.06697999686002731, 0.12688970565795898, -0.07928671687841415, -0.13885478675365448, -0.15509848296642303, 0.11048666387796402, -0.27190202474594116, -0.0571482889354229, 0.38836053013801575, 0.01954100839793682, -0.11070812493562698, -0.3015616238117218, 0.04947618767619133, 0.045675963163375854, 0.13718155026435852, -0.49368807673454285, -0.13240674138069153, 0.037615422159433365, 0.14902257919311523, 0.08791617304086685, -0.04333748668432236, 0.02765522710978985, -0.02471863478422165, 0.043517377227544785, 0.06710909307003021, -0.1341918408870697, 0.14442463219165802, 0.008349527604877949, 0.37518346309661865, 0.13577482104301453, -0.26852288842201233, -0.3846772015094757, 0.052965063601732254, 0.06835593283176422, 0.5334993004798889, 0.049123313277959824, -0.12306642532348633, -0.15807822346687317, 0.20756882429122925, -0.30389466881752014, 0.07758136093616486, -0.11885421723127365, -0.13143037259578705, -0.12476586550474167, -0.13982240855693817, -0.07834554463624954, -0.004715262446552515, -0.11574027687311172, 0.010256906971335411, 0.03282346576452255, -0.13230937719345093, -0.08193923532962799, 0.08346521854400635, 0.11088695377111435, 0.08415040373802185, -0.09201473742723465, -0.19897742569446564, 0.25711047649383545, 0.17601358890533447, -0.11281312257051468, 0.04769539460539818, 0.12422177195549011, -0.03557467460632324, -0.25164756178855896, -0.040202926844358444, 0.05156979337334633, 0.03906979039311409, -0.01683564856648445, 0.04705223813652992, -0.027996035292744637, 0.01270950399339199, -0.0643368735909462, -0.3704565465450287, 0.383639931678772, 0.32496505975723267, -0.28922855854034424, 0.20516644418239594, 0.3015301525592804, 0.9437234401702881, 1.2174201011657715, 1.4536012411117554, -0.03050452284514904, -1.1574641466140747, 0.7010345458984375, -0.11578990519046783, 0.059963975101709366, -0.035810936242341995, -0.020881155505776405, 0.12951284646987915, 0.10618414729833603, -0.03491160646080971, -0.11124135553836823, 0.13022005558013916, 0.06524884700775146, -0.14500178396701813, -0.0953892394900322, 0.020995108410716057, 0.018923358991742134, 0.08933155238628387, 0.03132961690425873, -0.07747328281402588, -0.13848619163036346, -0.07048963010311127, -0.3488781750202179, 0.1559530794620514, -0.7261019945144653, -0.2735142111778259, -0.6330302357673645, -0.7244367003440857, -0.10346245765686035, 0.6464661955833435, 0.3548312485218048, -0.13100484013557434, 0.031101124361157417, -0.10799968987703323, 0.9042289853096008, -0.14323276281356812, 0.13978947699069977, 0.056388650089502335, -0.04461434856057167, 0.0028005766216665506, -0.07981297373771667, -0.0036111732479184866, 0.14810891449451447, 0.05381513014435768, 0.0396365225315094, -0.13595791161060333, -0.13393250107765198, -1.9768776893615723, 1.0928609371185303, 2.029783248901367, 0.6351420283317566, -0.198853999376297, -0.9076938033103943, 0.5348879098892212, 1.6948416233062744], [-0.21145781874656677, -0.36682480573654175, -0.14216144382953644, -0.4398486316204071, -0.6943908333778381, 0.22385387122631073, 0.4179844260215759, 0.3423158824443817, 0.0216069296002388, 0.0031542214564979076, 0.21010661125183105, -0.6104860901832581, 0.1443987786769867, 0.10917574167251587, -0.14904317259788513, -0.2024523764848709, -0.08514141291379929, -0.04467480257153511, 0.047556426376104355, -0.11505383998155594, -0.14472807943820953, 0.05457715690135956, -0.07988705486059189, -0.12142769992351532, 0.10317616164684296, -0.09014926105737686, -0.03214763477444649, -0.012939564883708954, 0.30350732803344727, 0.15542982518672943, 0.04863904044032097, -0.8599308729171753, 0.1660265475511551, 0.27917343378067017, -0.25593292713165283, 0.6994244456291199, 0.017465293407440186, -0.06336020678281784, 0.4454888105392456, -0.948214590549469, -0.13960526883602142, -0.02183152176439762, -0.06647490710020065, -0.35155370831489563, 0.13022013008594513, 0.04537796601653099, 0.07639728486537933, -0.031707677990198135, 0.0030361127573996782, 0.14879567921161652, 0.027416851371526718, -0.06308503448963165, -0.13900530338287354, -0.13319113850593567, -0.03834807500243187, -0.11263579875230789, 0.8024914860725403, -0.5786402821540833, -0.31956520676612854, 1.8551876544952393, 0.3437187969684601, 0.8045406341552734, -0.6921477913856506, -1.6599279642105103, -0.2396710366010666, 0.032457686960697174, -0.09820142388343811, -0.027658917009830475, -0.015607643872499466, -0.106429822742939, 0.061691056936979294, 0.008138785138726234, -0.07375773787498474, 0.15427951514720917, -0.073555588722229, -0.24026182293891907, -0.3306012749671936, -0.19856463372707367, -0.18474626541137695, -0.14243480563163757, -0.051430538296699524, 0.14932914078235626, -0.2616244852542877, -0.06613077223300934, 0.0053799268789589405, 0.13235725462436676, -0.15078838169574738, -0.3909347951412201, -0.08539069443941116, -0.08098198473453522, 0.0410691574215889, 0.07358062267303467, 0.09099797904491425, -0.14879144728183746, 0.10365385562181473, 0.010074027813971043, 0.07866425067186356, 0.1170194074511528, -0.12460698187351227, -0.14566655457019806, 0.2224763184785843, 0.32978034019470215, -0.22985656559467316, -0.11065629124641418, 0.0716717317700386, -0.09453679621219635, 0.2816011607646942, 0.3343980014324188, -0.032304126769304276, 0.03437553718686104, 0.05994585156440735, 0.14751577377319336, 0.02814446948468685, 0.11689490079879761, -0.06523086130619049, 0.06157337874174118, -0.010056046769022942, -0.10274305939674377, -0.11678549647331238, -0.12307016551494598, 0.12548787891864777, 0.024173177778720856, -0.10050546377897263, 0.12384843826293945, -0.10884715616703033, 0.030906356871128082, 0.01299540139734745, -0.07248618453741074, -0.20989498496055603, 0.43681153655052185, 0.06577890366315842, -0.15999045968055725, -0.206698477268219, -0.017062146216630936, 0.12569205462932587, 0.2645828425884247, -0.10703644901514053, -0.21182280778884888, 0.04169421270489693, -0.06668205559253693, -0.04922473430633545, 0.15790873765945435, 0.09762181341648102, -0.06739091873168945, -0.0031800984870642424, 0.1754978746175766, 0.38136547803878784, -0.19198088347911835, 0.7023471593856812, 0.19807346165180206, 0.4374067485332489, 1.1030004024505615, 0.20493122935295105, 0.14759285748004913, -1.0866727828979492, 0.7049352526664734, 0.026299702003598213, -0.10156866908073425, -0.1471894383430481, 0.17818643152713776, -0.05111365765333176, 0.028594568371772766, 0.13363003730773926, 0.11870691925287247, -0.017496591433882713, -0.014355846680700779, -0.1437549740076065, -0.017478762194514275, 0.005456280894577503, 0.13905280828475952, 0.07541070133447647, -0.09914456307888031, -0.6964070200920105, 0.45591089129447937, -0.22275406122207642, -0.6768578290939331, 0.2957924008369446, -0.2964959740638733, -0.09045522660017014, -0.550265371799469, -0.38616082072257996, -0.012290837243199348, 0.20032723248004913, 0.566025972366333, 0.04845045879483223, -0.114501953125, 0.11066432297229767, 1.6980631351470947, -0.11184367537498474, -0.04331227391958237, 0.05371367558836937, 0.076780304312706, 0.08719828724861145, 0.010083340108394623, -0.10820217430591583, 0.11211032420396805, 0.12212669849395752, -0.0026285997591912746, -0.04354364797472954, 0.08205912262201309, -2.164438486099243, 1.4908381700515747, 1.634498119354248, 0.9285189509391785, 0.7297797203063965, -1.1125445365905762, 0.7357915043830872, 0.5561224818229675], [0.21190419793128967, -0.07291053980588913, 0.13217872381210327, -0.007252741605043411, -0.23332861065864563, 0.31622713804244995, 0.4465523064136505, 0.19364330172538757, -0.14192138612270355, 0.07289339601993561, 0.17677034437656403, -0.13557055592536926, -0.1130606085062027, 0.15233322978019714, -0.15770785510540009, -0.3133034408092499, -0.0447315089404583, 0.05513446405529976, -0.02062934823334217, 0.10860961675643921, -0.014002240262925625, 0.14234478771686554, -0.08963583409786224, 0.03891776129603386, 0.07794666290283203, 0.017341649159789085, -0.11023292690515518, -0.08056334406137466, -0.023981446400284767, 0.09649931639432907, 0.2512824237346649, -0.20246925950050354, -0.07404527813196182, 0.22180497646331787, 0.16298004984855652, 0.42291945219039917, 0.08428610116243362, -0.00865884404629469, 0.5662084221839905, -0.13659006357192993, -0.12229125946760178, 2.9451462978613563e-05, -0.07075505703687668, -1.0202795267105103, 0.11251257359981537, 0.09770439565181732, 0.03514661267399788, 0.06725404411554337, -0.10919705033302307, -0.1350586861371994, 0.031368836760520935, -0.123702771961689, 0.030567172914743423, -0.02089872770011425, 0.04581379517912865, -0.12283675372600555, 0.205873042345047, 0.02672848291695118, -0.2034975290298462, 0.3206427991390228, 0.11048100888729095, 0.004016933962702751, -0.06582381576299667, -0.2791009843349457, 0.06242071092128754, -0.09868897497653961, 0.08939683437347412, 0.09681538492441177, 0.019280260428786278, -0.03546899929642677, 0.018384261056780815, 0.04311481490731239, 0.22381745278835297, -0.27267956733703613, 0.09974409639835358, 0.49076157808303833, 0.41053637862205505, 0.2430463284254074, 0.049879491329193115, 0.23254504799842834, 0.14069952070713043, -0.10399061441421509, -0.06487680971622467, 0.13397590816020966, 0.06796315312385559, -0.005001827608793974, -0.06850588321685791, 0.06972860544919968, 0.002498188056051731, -0.13179351389408112, 0.09119944274425507, 0.0009168944670818746, 0.08468321710824966, -0.14055907726287842, 0.09019457548856735, 0.0064667160622775555, -0.03340102359652519, -0.06777894496917725, 0.12470339983701706, -0.14350539445877075, 0.18367455899715424, -0.21174310147762299, 0.19826355576515198, 0.2487805336713791, 0.4984898269176483, -0.05772852152585983, 0.4850768446922302, 0.07503066956996918, -0.011682781390845776, 0.08382817357778549, 0.06021219119429588, 0.4429403841495514, -0.15546473860740662, 0.12410354614257812, -0.10058654844760895, 0.22047187387943268, -0.11768785864114761, -0.1407778412103653, -0.09250356256961823, -0.1370847523212433, 0.12455160170793533, 0.07783075422048569, 0.11312651634216309, -0.004986117593944073, -0.08338981121778488, -0.1223207488656044, 0.013928725384175777, 0.04756619408726692, 0.285137414932251, 0.13057014346122742, -0.014838151633739471, 0.2210233062505722, -0.09107546508312225, 0.0182854812592268, -0.06988165527582169, -0.19021131098270416, 0.007399421650916338, -0.2386879175901413, -0.027618706226348877, -0.021908970549702644, -0.038597263395786285, -0.026281382888555527, 0.0041910032741725445, 0.13129742443561554, -0.2518284320831299, 0.05202247574925423, 0.01614963263273239, -0.5577367544174194, 0.2479010373353958, 0.03604467958211899, 0.155471071600914, 0.5069692134857178, 0.011296704411506653, -0.09023576229810715, -0.534223735332489, 0.13090725243091583, 0.004623463377356529, -0.14332391321659088, 0.03275502473115921, -0.08631610870361328, 0.014981633983552456, 0.11789090931415558, -0.061799466609954834, -0.026076052337884903, -0.0021803167182952166, -0.09766540676355362, -0.032093197107315063, -0.03841644152998924, -0.012551055289804935, -0.07224659621715546, 0.08530177175998688, 0.09614691138267517, -0.2084057778120041, -0.3357582092285156, 0.16599930822849274, -0.524001955986023, 0.5169283747673035, -0.06757044047117233, -0.023502947762608528, 0.3144671320915222, -0.46567413210868835, 0.14150689542293549, -0.2462092787027359, 0.27355125546455383, 0.11457383632659912, -0.1284772753715515, -0.04987078905105591, 0.1934494972229004, -0.14346730709075928, 0.07911257445812225, 0.0023079272359609604, -0.12492496520280838, 0.01166357472538948, 0.09011337906122208, -0.030009450390934944, -0.1260337084531784, -0.0599634051322937, 0.05841111019253731, -0.05332088842988014, -0.024436121806502342, 0.15524457395076752, 0.7387704849243164, 0.09308426082134247, -0.04935760423541069, 0.593133807182312, -0.23598772287368774, -0.43701717257499695, -0.4336308240890503], [0.07737943530082703, -0.2632581293582916, -0.20474468171596527, -0.32840898633003235, -0.22356180846691132, -0.21150147914886475, 0.3266274333000183, 0.29443928599357605, 0.26072078943252563, -0.08395586162805557, -0.24912478029727936, 0.09653151780366898, -0.02380109764635563, 0.08671370148658752, 0.026130905374884605, -0.06840968877077103, 0.042761292308568954, -0.12616507709026337, -0.09837894141674042, -0.09570858627557755, 0.08933859318494797, -0.018796922639012337, 0.1179487556219101, -0.07028807699680328, -0.04551628977060318, -0.07155107706785202, -0.107072614133358, -0.13881057500839233, 0.2269945591688156, -0.05346972495317459, 0.050651561468839645, -0.4234910011291504, -0.001662079244852066, 0.3285349905490875, 0.21609394252300262, 0.28123170137405396, 0.5057594180107117, 0.02937234565615654, -0.030514484271407127, -0.4527131915092468, 0.11640872806310654, 0.14549590647220612, 0.14093467593193054, 0.0338287279009819, 0.040549136698246, -0.104282446205616, 0.0948389321565628, -0.09822376817464828, 0.1281873732805252, -0.06755552440881729, -0.0585714653134346, 0.0126157496124506, 0.07619169354438782, 0.09347784519195557, -0.1518976241350174, 0.04179034009575844, 0.5831437110900879, -0.3533921241760254, -0.19718971848487854, 1.2658737897872925, 0.22664691507816315, 0.6213061809539795, -0.389446884393692, -1.3688360452651978, -0.06303867697715759, 0.04038883000612259, -0.0186476930975914, 0.03659319132566452, -0.04025943949818611, 0.08682193607091904, -0.09849055111408234, 0.030734872445464134, 0.33868008852005005, -0.06311782449483871, 0.21329818665981293, 0.5218125581741333, 0.2447860985994339, -0.10985786467790604, 0.22690489888191223, -0.13134075701236725, 0.2446037381887436, 0.13663744926452637, 0.1975523680448532, 0.1075260117650032, 0.11925593763589859, 0.13322365283966064, -0.15647165477275848, 0.3953876495361328, -0.03621087595820427, 0.021685589104890823, 0.09614032506942749, 0.009554236195981503, 0.11833813786506653, -0.11252661794424057, -0.10384976118803024, 0.06188486889004707, 0.09513768553733826, -0.13337628543376923, -0.13325117528438568, 0.0825086161494255, -0.06932220607995987, -0.1361752599477768, 0.19446918368339539, 0.11583992838859558, 0.09992342442274094, 0.27689850330352783, 0.18972551822662354, -0.33637940883636475, -0.11618634313344955, 0.046860381960868835, -0.09007026255130768, -0.1452559530735016, -0.07401663810014725, 0.025028973817825317, -0.005889232736080885, -0.024935880675911903, 0.040118154138326645, -0.13775210082530975, 0.10191228240728378, -0.020403655245900154, 0.01835901290178299, -0.12921541929244995, 0.05248848721385002, 0.045041773468256, -0.1580767184495926, -0.11835861206054688, -0.07753116637468338, 0.04112476482987404, 0.08155553787946701, 0.21808002889156342, 0.19103951752185822, 0.10842729359865189, 0.14041976630687714, -0.18941012024879456, -0.4202117323875427, -0.6112104654312134, 0.1008429005742073, -0.04865040257573128, 0.051714468747377396, -0.02100217714905739, -0.0199995506554842, 0.13187873363494873, -0.015508286654949188, 0.07799777388572693, -0.31366291642189026, 0.2934507727622986, -0.18214188516139984, 0.2589564919471741, 0.08106812089681625, -0.03825196251273155, -0.009460731409490108, 0.5742068886756897, 0.21035394072532654, -0.11501284688711166, -0.039322033524513245, -0.23694291710853577, 0.14473837614059448, 0.08003253489732742, -0.06504473090171814, 0.9029375314712524, -0.0422518327832222, 0.11068760603666306, -0.007016110699623823, 0.11822418868541718, 0.05550260841846466, 0.12206681072711945, -0.03930407389998436, -0.10885147005319595, -0.09722363203763962, 0.031045816838741302, -0.012732609175145626, -0.07621622085571289, 0.29138222336769104, 0.05182966962456703, -0.754254162311554, 0.05378863587975502, 0.08870671689510345, -0.26915058493614197, -0.052625495940446854, -0.20158401131629944, -0.4110954999923706, -0.10265807062387466, -0.21633583307266235, -0.7029598355293274, -0.1260598748922348, -0.08286543935537338, 0.14510391652584076, 0.4258674085140228, 0.09031809866428375, -0.15073195099830627, 0.02250496856868267, -0.11656048893928528, 0.027776097878813744, -0.11671750992536545, -0.04978383705019951, 0.04596446081995964, 0.15388154983520508, -0.1149601861834526, 0.1272600293159485, 0.145865336060524, -0.6653943657875061, 0.7565167546272278, 0.17702265083789825, 0.19846834242343903, 0.18436822295188904, -0.7942620515823364, 0.5648342967033386, 0.2856326699256897], [0.02364441752433777, -0.12430103868246078, 0.11897175014019012, -0.15221452713012695, 0.008869619108736515, 0.38112324476242065, 0.0388239249587059, -0.44217148423194885, -0.599983274936676, -0.04327434301376343, 0.09002643078565598, -0.5804188847541809, -0.05191785842180252, -0.13196492195129395, 0.06371994316577911, -0.05662890151143074, -0.1540742665529251, -0.03280026093125343, -0.11345085501670837, 0.06551871448755264, -0.11928875744342804, -0.0615944042801857, -0.0548117458820343, -0.05208657681941986, 0.11052997410297394, -0.008999958634376526, 0.026160091161727905, 0.024886637926101685, -0.07188042998313904, -0.05983724817633629, -0.14550849795341492, -0.2502039670944214, -0.06293897330760956, 0.23087093234062195, -0.0019921925850212574, 0.06533901393413544, 0.01876242831349373, -0.0778365433216095, -0.3662731349468231, 0.19593839347362518, 0.03991146385669708, -0.09147348254919052, 0.07786330580711365, -0.20516707003116608, 0.03661078214645386, 0.051308196038007736, -0.10576508939266205, 0.035626694560050964, -0.08275588601827621, 0.05051955580711365, -0.0017422925448045135, -0.11525353044271469, 0.06274490058422089, -0.12457310408353806, 0.15053486824035645, 0.09314070641994476, 0.3212008476257324, -0.11443987488746643, -0.08260373026132584, -0.23317579925060272, -0.07331476360559464, 0.13808156549930573, -0.1970030814409256, 0.08450789749622345, -0.05926224961876869, -0.004044580273330212, -0.05125817283987999, 0.006929552648216486, 0.06441859155893326, -0.046544309705495834, -0.045916393399238586, 0.07612208276987076, -0.2391250729560852, 0.1935678869485855, -0.12899760901927948, -0.44424140453338623, -0.09084539860486984, -0.09849569946527481, -0.02468191646039486, -0.09506935626268387, -0.007993260398507118, 0.1008693277835846, -0.3219829201698303, -0.1101435124874115, 0.07394804060459137, -0.112381711602211, -0.04213327169418335, -0.519117534160614, -0.03323601558804512, 0.05492255091667175, 0.043218206614255905, -0.12189082056283951, 0.14526918530464172, 0.1543533354997635, 0.042433008551597595, -0.05493064969778061, 0.0522686243057251, -0.12035521864891052, -0.12659363448619843, -0.1476287841796875, 0.2949344515800476, 0.3713650107383728, -0.2798324227333069, -0.35430973768234253, -0.1675245314836502, -0.15857470035552979, 0.07073405385017395, 0.5388534069061279, -0.11157496273517609, -0.06037762016057968, 0.027082977816462517, 0.22946088016033173, -0.0699625164270401, -0.1387288123369217, -0.15679705142974854, -0.0813029482960701, 0.10016465187072754, 0.04127436876296997, 0.006799123715609312, 0.15710663795471191, -0.050498396158218384, 0.062372785061597824, -0.1574125736951828, 0.12534458935260773, 0.10598646849393845, 0.05520264059305191, -0.14800602197647095, -0.10352374613285065, -0.1642533242702484, 0.2224714308977127, -0.17708782851696014, -0.3309909701347351, -0.28953203558921814, 0.22425724565982819, 0.3793192505836487, 0.44625771045684814, 0.06017623469233513, 0.025020748376846313, -0.008182658813893795, 0.0020162081345915794, 0.021909357979893684, -0.02022860199213028, -0.04513339325785637, 0.024135982617735863, 0.7347280979156494, 0.3551710247993469, 1.048685908317566, 0.26577228307724, 0.7647058963775635, -0.3849346339702606, -0.3006475567817688, 1.505284070968628, -0.6221655011177063, 0.0748654305934906, -1.2193312644958496, 1.2053351402282715, 0.12314565479755402, -0.062254033982753754, 0.026301860809326172, 0.6038011908531189, 0.0585860013961792, -0.10195823758840561, -0.13465546071529388, -0.04948265850543976, 0.04162222146987915, -0.059123244136571884, 0.10865715891122818, 0.15681461989879608, 0.01633344776928425, 0.13255342841148376, -0.14129970967769623, 0.1494157463312149, -1.1996445655822754, -0.04041876643896103, -0.8130406141281128, -1.371274471282959, 0.4071824550628662, -0.7846937775611877, -0.07535595446825027, -0.11574824899435043, 0.10880367457866669, -0.01440115924924612, 0.5491587519645691, 0.023760702461004257, -0.08935513347387314, -0.1026199534535408, -0.09295234084129333, 1.9509272575378418, -0.1181187629699707, 0.13160890340805054, -0.12436198443174362, -0.00791865773499012, -0.029877865687012672, -0.14607301354408264, 0.06082222983241081, -0.13687415421009064, 0.045320235192775726, 0.08802016079425812, -0.0977587178349495, -0.05290425196290016, -1.3344560861587524, 1.008051872253418, 2.481987953186035, 0.9456023573875427, 1.1566025018692017, -2.148800849914551, -0.12509261071681976, 1.537541151046753], [-0.3775300681591034, -0.4169749319553375, -0.2169438898563385, -0.381207674741745, -0.5451253056526184, 0.11408974230289459, -0.2706861197948456, -0.21276672184467316, 0.08132285624742508, -0.03730330616235733, 0.23391039669513702, -0.32267212867736816, -0.12470623850822449, 0.02944302186369896, -0.14393126964569092, -0.31611499190330505, 0.10711758583784103, -0.06908877938985825, -0.0433373749256134, 0.11600904911756516, 0.08194411545991898, 0.03184732794761658, 0.03807449713349342, 0.1393888145685196, -0.03134585916996002, -0.06885453313589096, 0.0815105214715004, 0.11809059977531433, 0.2955193519592285, -0.01110142283141613, -0.022301778197288513, -0.47867292165756226, -0.3503032624721527, 0.3021559417247772, -0.5242957472801208, 0.42552104592323303, -0.3997502326965332, -0.02276083268225193, 0.2395675778388977, -0.500405490398407, -0.11892281472682953, -0.0390474908053875, -0.0086951470002532, -0.6140295267105103, 0.12931369245052338, -0.12651072442531586, -0.016270343214273453, 0.037231456488370895, -0.12135642021894455, 0.13711942732334137, 0.025084620341658592, -0.15755203366279602, 0.014082001522183418, -0.09284834563732147, 0.1448121964931488, 0.041786666959524155, 0.5499545335769653, -0.676932692527771, -0.5501618981361389, 0.8409030437469482, 0.675183117389679, 0.0843963623046875, -1.1404056549072266, -0.8062077760696411, -0.2667734920978546, 0.03992394730448723, 0.009441278874874115, -0.047644004225730896, -0.018739694729447365, -0.09181375056505203, 0.1570356786251068, -0.13554610311985016, -0.02878023497760296, 0.2601398229598999, -0.06978614628314972, -0.08996365964412689, -0.12613527476787567, 0.04898517206311226, -0.11048005521297455, -0.0432920828461647, -0.021372554823756218, -0.012121283449232578, 0.006877873092889786, -0.22275397181510925, -0.15589489042758942, -0.157208651304245, 0.07423949241638184, -0.3333354592323303, 0.14354825019836426, -0.10658934712409973, -0.1043962761759758, 0.028220634907484055, 0.0920514166355133, 0.03274287283420563, 0.0796811580657959, 0.15409353375434875, 0.08404527604579926, 0.1055503711104393, 0.0012747031869366765, -0.0014100739499554038, -0.18022802472114563, 0.19578443467617035, -0.2275504469871521, -0.1718268245458603, 0.21534310281276703, -0.10962173342704773, 0.32803723216056824, 0.16394448280334473, -0.6172350645065308, 0.10251975059509277, 0.17886503040790558, -0.03470423072576523, 0.05897681787610054, -0.09028981626033783, 0.09927251189947128, 0.07155275344848633, -0.117836132645607, -0.011914706788957119, -0.036258991807699203, 0.14194341003894806, 0.1331789493560791, 0.002985613653436303, -0.11697045713663101, -0.008372013457119465, -0.059253543615341187, 0.016973203048110008, 0.11759715527296066, 0.0562942773103714, -0.3736591041088104, 0.3054523766040802, 0.05309794470667839, 0.00042945315362885594, 0.14796367287635803, -0.00884208269417286, -0.11937563866376877, 0.119610995054245, -0.11299188435077667, -0.0033199803438037634, 0.02296409383416176, 0.024226751178503036, -0.15909257531166077, 0.037926118820905685, 0.18373049795627594, -0.01677856594324112, -0.006528557278215885, -0.6917632818222046, 0.2767332196235657, 0.10518663376569748, 0.19896945357322693, 0.14356926083564758, 0.9971618056297302, 0.39673593640327454, 0.6258842349052429, 0.11773934215307236, -0.44568681716918945, -0.17943578958511353, -0.10859182476997375, -0.15540684759616852, -0.08402930200099945, 0.1018359586596489, -0.004836589097976685, 0.043710969388484955, -0.03974497690796852, -0.12507109344005585, -0.04432521015405655, 0.054998867213726044, 0.1325041800737381, 0.06022653728723526, 0.05273829400539398, -0.061356935650110245, 0.04271223023533821, 0.1479048728942871, -0.5900453925132751, 0.2782125174999237, 1.0975871086120605, 0.24236802756786346, 0.43861034512519836, -0.4164644479751587, 0.049835361540317535, -0.3875184655189514, 0.23119835555553436, 0.0525248683989048, 0.25232937932014465, 0.875818133354187, -0.016014782711863518, -0.013556568883359432, -0.05540633946657181, 0.4089365005493164, 0.07078087329864502, -0.14745715260505676, 0.147563636302948, 0.00832692813128233, 0.037573933601379395, -0.1353418529033661, 0.01489869225770235, -0.1367635428905487, -0.07508139312267303, -0.059968817979097366, -0.08064283430576324, -0.1132378876209259, -0.9260941743850708, 0.7595532536506653, 0.9053021669387817, 0.6495701670646667, -0.9518952369689941, -0.7440592646598816, 0.42734581232070923, 1.1269452571868896], [0.37492144107818604, -0.18725059926509857, -0.3700453042984009, 0.10285894572734833, -0.16586725413799286, 0.01207436341792345, 0.10103415697813034, 0.6024854183197021, 0.23006173968315125, 0.03250805661082268, 0.008187898434698582, -0.06690963357686996, -0.028550656512379646, 0.08769960701465607, 0.0037775475066155195, 0.055504802614450455, -0.018942590802907944, 0.08062334358692169, 0.1155598908662796, 0.05326369032263756, 0.12771184742450714, 0.057902030646800995, -0.0925387293100357, -0.028555048629641533, -0.0635739341378212, -0.0335991233587265, 0.11998124420642853, -0.14362607896327972, 0.06124177947640419, 0.36526697874069214, 0.29171398282051086, -0.08109128475189209, -0.11452264338731766, 0.11105740070343018, 0.056860774755477905, 0.24319204688072205, 0.19194333255290985, 0.10025879740715027, 0.19576692581176758, -0.37482330203056335, 0.04593481868505478, -0.1300879418849945, -0.06335611641407013, -0.2761131525039673, 0.06680522859096527, -0.08213766664266586, -0.03344667702913284, -0.14380089938640594, 0.13861119747161865, -0.02142658270895481, 0.10795566439628601, 0.0049835811369121075, 0.03266345337033272, -0.01682935282588005, 0.09982448816299438, -0.008876473642885685, 0.2649386525154114, -0.3879786431789398, -0.3383263647556305, 0.7348933815956116, 0.7809175252914429, 0.3520376682281494, -0.7703502774238586, -0.9723588824272156, 0.0008866585558280349, -0.14927828311920166, 0.07628826051950455, 0.101864755153656, -0.1793917715549469, -0.09189873933792114, -0.10066439211368561, -0.1336604207754135, 0.2108495533466339, -0.0025835339911282063, 0.08124876767396927, 0.3550476133823395, 0.017714228481054306, 0.23117782175540924, 0.14273220300674438, 0.1437787562608719, -0.05266529694199562, -0.1275937259197235, 0.3019394874572754, 0.319223016500473, -0.14175553619861603, 0.015373512171208858, 0.018520010635256767, 0.28093287348747253, 0.07008933275938034, 0.1077083945274353, -0.0887606143951416, -0.0204186849296093, -0.1170819029211998, -0.020356524735689163, -0.008423080667853355, 0.1444610208272934, -0.09587851911783218, 0.03491239994764328, 0.08550581336021423, 0.08038299530744553, -0.2136399745941162, -0.2353227287530899, 0.27246466279029846, 0.2628089189529419, 0.1607930064201355, 0.09860682487487793, -0.19218873977661133, -0.4380084276199341, 0.30391430854797363, 0.10563971102237701, -0.07880475372076035, 0.026692062616348267, -0.026122651994228363, -0.0020175387617200613, 0.15105783939361572, -0.15878792107105255, 0.0973556712269783, -0.002491071354597807, 0.005444205366075039, -0.06120971590280533, 0.06539466232061386, 0.15854816138744354, -0.03157510980963707, 0.0139559805393219, 0.13954629004001617, 0.046953506767749786, -0.026352548971772194, -0.14714571833610535, 0.29089319705963135, -0.3202352225780487, -0.043396975845098495, 0.21404367685317993, 0.43335992097854614, -0.04057419300079346, 0.10329395532608032, -0.46407270431518555, 0.024244656786322594, -0.0179911982268095, 0.035002633929252625, 0.006062756292521954, 0.05704116076231003, 0.015709897503256798, -0.0032724179327487946, -0.01287857722491026, -0.596095621585846, -0.3376883268356323, -0.2234533131122589, -0.22963397204875946, 0.155093714594841, 0.06785987317562103, 0.316057950258255, 0.5180878639221191, 0.5574659109115601, -0.12325535714626312, 0.33523795008659363, -0.07848239690065384, -0.01893509551882744, -0.1137123629450798, -0.044338345527648926, 0.0634564682841301, -0.1313912719488144, -0.027749599888920784, -0.1164899617433548, 0.06116243451833725, 0.0005317162722349167, 0.11638779193162918, 0.07583308964967728, 0.00718630850315094, -0.013380125164985657, -0.0437459833920002, -0.11662207543849945, -0.12372555583715439, 0.4736863672733307, 0.09614571183919907, 0.6403281092643738, 0.46316826343536377, 0.2972896695137024, -0.2407584935426712, 0.08127954602241516, -0.08343971520662308, -0.3017255365848541, 0.011467937380075455, -0.4428282082080841, -0.06896073371171951, 0.10157234221696854, 0.031155066564679146, -0.0984906479716301, -0.5088872909545898, -0.14384381473064423, 0.08026352524757385, 0.08086198568344116, 0.08362281322479248, 0.07174694538116455, 0.14470374584197998, 0.012118443846702576, -0.06564587354660034, -0.13818387687206268, 0.05638391897082329, 0.07379598170518875, 0.060915201902389526, -0.7867591381072998, 0.6743879318237305, -0.7309414148330688, 0.015882307663559914, -1.1316627264022827, 0.7064265608787537, 0.3281964659690857, 0.14649008214473724], [0.04371150955557823, -0.07451584935188293, 0.057813819497823715, -0.09440377354621887, -0.30055639147758484, 0.17394225299358368, 0.31119248270988464, 0.22954492270946503, 0.05207078903913498, -0.08929819613695145, 0.029265480116009712, -0.34241005778312683, 0.055774446576833725, -0.07745647430419922, -0.013787941075861454, -0.18486547470092773, -0.04053698480129242, 0.09076513350009918, 0.08559923619031906, -0.1510438770055771, -0.1197345033288002, -0.09598580002784729, -0.05993024259805679, -0.12508271634578705, -0.13637757301330566, -0.0842670351266861, -0.026729701086878777, 0.15178772807121277, 0.03627985343337059, -0.021447110921144485, -0.11461284756660461, -0.3033386170864105, 0.03581914305686951, 0.23467187583446503, 0.03694859519600868, 0.3479982316493988, 0.00625836243852973, -0.06836846470832825, 0.33078882098197937, -0.17122800648212433, -0.12984654307365417, -0.08262721449136734, -0.10856562852859497, -0.07594083994626999, -0.07986108958721161, -0.1258319467306137, 0.05474977567791939, 0.0014927121810615063, 0.09100385010242462, 0.03819699585437775, -0.06966572999954224, -0.13309676945209503, -0.05183427035808563, -0.12091843038797379, -0.07408171147108078, -0.12976916134357452, 0.5365909934043884, -0.0287283007055521, -0.09278009831905365, 0.5687673091888428, 0.3093211054801941, 0.06251166760921478, -0.5362696647644043, -0.7503915429115295, -0.1348978877067566, 0.07485046237707138, -0.1259385347366333, 0.030608607456088066, -0.1159776896238327, 0.11196048557758331, 0.15311333537101746, 0.06854100525379181, 0.05206087976694107, 0.040427159518003464, -0.05541159212589264, -0.04367833584547043, -0.009098292328417301, -0.11504560708999634, -0.05021729692816734, 0.0741981714963913, -0.10449258238077164, -0.022961996495723724, 0.1261587291955948, 0.09776656329631805, -0.052411679178476334, -0.13736779987812042, -0.1101977601647377, 0.057008761912584305, 0.11766699701547623, 0.012023692019283772, 0.04588371515274048, -0.12231578677892685, -0.05584394931793213, 0.0653364434838295, -0.009962430223822594, 0.12128858268260956, 0.139309361577034, 0.03271326795220375, 0.00280909426510334, 0.15102975070476532, 0.10552892833948135, 0.017406126484274864, -0.08801732212305069, -0.16092263162136078, -0.10477354377508163, 0.07968633621931076, -0.08027203381061554, 0.003536425530910492, 0.02356903627514839, -0.14512643218040466, 0.05056868493556976, -0.07082345336675644, 0.06842684000730515, 0.09221574664115906, 0.059137552976608276, -0.17596089839935303, -0.07751890271902084, -0.11641277372837067, -0.0860709547996521, -0.12095761299133301, 0.10358764976263046, -0.15745186805725098, -0.10955603420734406, 0.03678885102272034, -0.1256033033132553, -0.1356651782989502, -0.14938296377658844, -0.07535660266876221, 0.0847698226571083, -0.11368169635534286, 0.17121517658233643, 0.000602967687882483, 0.07218126207590103, -0.09431597590446472, 0.007481402717530727, -0.008921369910240173, 0.028067762032151222, -0.031083934009075165, -0.03379704803228378, 0.105088010430336, 0.1720448136329651, 0.01972443424165249, 0.08349458873271942, -0.12747624516487122, 0.010545868426561356, 0.26045647263526917, 0.18809707462787628, 0.10792168974876404, 0.416382759809494, 0.02596162259578705, 0.14159153401851654, 0.30567872524261475, 0.06492830812931061, -0.022203829139471054, -0.5400379300117493, 0.15840166807174683, 0.023398658260703087, -0.031339649111032486, -0.1323689967393875, 0.20255854725837708, -0.09513136744499207, -0.06148939207196236, 0.07980237156152725, 0.10992739349603653, -0.08638840913772583, -0.12146002799272537, -0.03000793606042862, -0.11324538290500641, -0.09091503918170929, 0.07799588143825531, -0.10081909596920013, 0.09501776099205017, -0.1380292922258377, 0.13625149428844452, -0.26639148592948914, -0.5018734335899353, -0.05853785201907158, -0.2997554838657379, -0.07815171033143997, -0.2715325355529785, -0.25429612398147583, -0.08483312278985977, 0.13775846362113953, -0.022759687155485153, 0.11135367304086685, 0.03283444419503212, 0.06571715325117111, 0.5018194317817688, 0.053591251373291016, 0.058530278503894806, -0.0027350489981472492, -0.014639762230217457, -0.027246804907917976, 0.03929059952497482, 0.0016062782378867269, 0.13912802934646606, 0.007815539836883545, 0.04836626723408699, 0.13024069368839264, -0.08325228095054626, -0.7178229093551636, 0.5956161022186279, 0.8065409660339355, 0.34161272644996643, 0.40391725301742554, -0.5857337713241577, 0.31454920768737793, 0.3430125117301941], [0.24348905682563782, -0.01037508249282837, -0.16992715001106262, 0.24522732198238373, -0.18655188381671906, 0.11582537740468979, -0.45547524094581604, -0.2856465280056, -0.36280372738838196, 0.06329448521137238, 0.41800832748413086, 0.09799696505069733, 0.02389214001595974, 0.08044201135635376, 0.03158760070800781, -0.36794742941856384, -0.102643683552742, 0.04144354537129402, -0.15614567697048187, 0.04047740250825882, 0.004784651566296816, -0.04553109034895897, -0.016070542857050896, -0.004116390831768513, -0.04607904702425003, 0.12170585989952087, 0.07405100762844086, 0.04791124537587166, -0.37398916482925415, 0.044523026794195175, 0.3666369915008545, -0.09908737987279892, -0.14896859228610992, 0.29902157187461853, -0.12820573151111603, -0.0371742807328701, -0.3211948275566101, 0.01574377529323101, 0.06582194566726685, 0.1594746857881546, -0.021401144564151764, 0.0186258926987648, 0.09576279670000076, 0.26903030276298523, 0.07775156199932098, 0.11830266565084457, -0.1393122673034668, 0.09870805591344833, 0.0278639979660511, 0.03799912706017494, -0.12176578491926193, -0.11288874596357346, -0.14271020889282227, -0.1340680867433548, 0.009369767270982265, 0.07891859859228134, -0.4477517604827881, -0.07660853117704391, -0.08263732492923737, 0.3554287254810333, 0.2820923924446106, -0.6827744841575623, -0.3134647309780121, 1.3085931539535522, -0.007870648056268692, 0.10667027533054352, -0.014848158694803715, 0.004842516966164112, -0.03890880197286606, -0.07947466522455215, -0.10102850198745728, -0.10394677519798279, -0.08941961824893951, 0.032974716275930405, -0.31917428970336914, -0.4340684115886688, -0.30714350938796997, -0.0494045689702034, -0.0750802606344223, 0.13858291506767273, -0.18484608829021454, -0.00921826995909214, -0.20943932235240936, -0.34321925044059753, 0.13333620131015778, -0.14373056590557098, 0.09425490349531174, -0.24369776248931885, 0.0821809396147728, -0.056676462292671204, -0.13263238966464996, 0.0035632862709462643, 0.01052026730030775, -0.019083639606833458, 0.12200351804494858, -0.06377127766609192, -0.05502680316567421, -0.020981743931770325, -0.08856762945652008, 0.06721895188093185, 0.20987211167812347, 0.12623657286167145, -0.301731675863266, -0.25851601362228394, -0.15766975283622742, -0.10988273471593857, 0.20647980272769928, 0.37197163701057434, -0.26956331729888916, 0.11202098429203033, -0.09376686066389084, 0.4121921956539154, -0.13668295741081238, 0.08713794499635696, 0.056706443428993225, -0.19598005712032318, 0.08938624709844589, -0.02011232078075409, 0.10771403461694717, 0.12114972621202469, 0.1213049367070198, -0.0633208379149437, 0.003911025356501341, 0.10070079565048218, -0.10067641735076904, -0.06560669094324112, 0.018839813768863678, 0.11591807752847672, -0.059641771018505096, 0.03353932127356529, -0.055585071444511414, -0.15727178752422333, -0.3753737211227417, 0.3230243921279907, 0.24815194308757782, 0.3354184031486511, 0.0670914351940155, 0.0817217007279396, -0.019553104415535927, 0.028018048033118248, -0.04007982462644577, 0.03475768864154816, -0.02891237847507, 0.08123379200696945, -0.4161665439605713, -0.3123256266117096, -0.018971111625432968, -0.08999550342559814, -1.0852922201156616, 0.17240945994853973, 0.638317883014679, -0.37959104776382446, 1.1373200416564941, -0.04117530211806297, 0.3336482346057892, 0.6261548399925232, 0.009456455707550049, -0.04819417744874954, -0.0853395164012909, 0.34219372272491455, 0.11628066003322601, -0.1321115791797638, 0.1294012814760208, 0.04918625205755234, 0.05061805620789528, 0.1187310740351677, -0.1465011090040207, 0.022487251088023186, -0.0026834900490939617, 0.061762820929288864, -0.07548762112855911, -0.11512576788663864, 0.7627711892127991, 0.24747422337532043, 1.0356776714324951, 0.4539131224155426, 0.4718126952648163, 0.04546540230512619, -0.04365246742963791, 0.07538679987192154, 0.3620747923851013, 0.11302211135625839, 0.21152392029762268, -0.5953534841537476, 0.13088946044445038, 0.03496108204126358, 0.024183133617043495, -0.6880289912223816, -0.07117343693971634, -0.1362902820110321, -0.11511721462011337, 0.11798210442066193, -0.10043209791183472, -0.02881462313234806, -0.049567002803087234, -0.12332936376333237, -0.01232619397342205, -0.07561061531305313, -0.03530522435903549, -0.07085469365119934, -0.6514717936515808, -0.9264138340950012, 0.26633745431900024, -0.1572800874710083, -1.3114299774169922, 0.19513583183288574, 0.5473778247833252, 0.880024254322052], [0.31236958503723145, 0.2307109832763672, -0.27125346660614014, 0.10192893445491791, 0.10519729554653168, -0.07691128551959991, -0.22321756184101105, -0.2745465338230133, -0.2182183712720871, -0.017338281497359276, -0.1910381019115448, 0.011511302553117275, 0.02755328267812729, 0.03232142701745033, 0.15568728744983673, 0.08121585845947266, 0.08880558609962463, 0.08714385330677032, 0.0798824355006218, -0.14535747468471527, 0.1420375555753708, 0.10868290066719055, 0.14927458763122559, 0.01524688582867384, 0.11156604439020157, 0.02970747835934162, -0.09925533086061478, -0.08474715054035187, -0.3634503185749054, -0.21001364290714264, 0.04411477968096733, 0.2682245373725891, 0.28357890248298645, -0.06334363669157028, 0.030547408387064934, -0.19727015495300293, -0.2871769964694977, 0.04888015240430832, -0.1949334442615509, 0.18027997016906738, -0.057422783225774765, -0.12592019140720367, -0.04296919330954552, 0.14917291700839996, 0.15587584674358368, 0.12240815162658691, -0.004877700004726648, 0.02687506563961506, -0.0951022207736969, 0.08116263151168823, 0.15783679485321045, 0.1550452560186386, -0.10140388458967209, -0.14501135051250458, 0.04650427773594856, -0.09214268624782562, -0.42786136269569397, -0.05778193473815918, -0.0123901991173625, -0.3018641173839569, 0.00012002135918010026, -0.11111105233430862, 0.3242819011211395, 0.5306369066238403, 0.015916910022497177, 0.04085656255483627, 0.030278420075774193, -0.07785109430551529, -0.019609414041042328, -0.11541783809661865, -0.0395285040140152, -0.13953979313373566, 0.12555335462093353, -0.5264811515808105, -0.07973243296146393, -0.012009894475340843, 0.12390917539596558, -0.14672629535198212, 0.07030504196882248, 0.04832078143954277, -0.14578920602798462, -0.07723286747932434, -0.0459836944937706, -0.011186925694346428, 0.11510297656059265, -0.062428925186395645, 0.13394415378570557, -0.1241777092218399, -0.013661769218742847, -0.03156647831201553, 0.025865349918603897, 0.10005998611450195, -0.1030469611287117, 0.10145411640405655, -0.14445404708385468, -0.14750458300113678, 0.07023530453443527, 0.10148103535175323, -0.12295236438512802, 0.05310666561126709, -0.05350737273693085, -0.008302483707666397, -0.15872927010059357, 0.17953801155090332, -0.045562129467725754, -0.3003358840942383, -0.501886785030365, -0.04070841521024704, 0.16783413290977478, 0.0004607374721672386, -0.13647130131721497, -0.028448332101106644, 0.023262150585651398, 0.0743570327758789, 0.09971205145120621, -0.022497130557894707, -0.010864106938242912, -0.07555227726697922, 0.07028663903474808, 0.0744527280330658, -0.006681128870695829, -0.09349923580884933, 0.14824292063713074, 0.026095813140273094, -0.08764350414276123, -0.0017005002591758966, 0.08366960287094116, -0.01216061506420374, 0.057277463376522064, -0.0021538075525313616, -0.05441036820411682, -0.10967221856117249, -0.6173180937767029, -0.09519354999065399, 0.015655655413866043, 0.07240922749042511, 0.1545255035161972, -0.1907346099615097, 0.002023515524342656, 0.0572664774954319, 0.09116408973932266, -0.053273893892765045, -0.18046429753303528, 0.06946869194507599, 0.04623490944504738, 0.05236433073878288, -0.06695954501628876, 0.15097317099571228, -0.2701273262500763, -0.08215020596981049, -0.283415824174881, -0.24809308350086212, -0.16033244132995605, -0.13810256123542786, 0.5841778516769409, -0.12140433490276337, -0.06286747753620148, -0.0809316337108612, 0.13043008744716644, 0.1293943226337433, -0.1255260705947876, 0.006199835799634457, -0.062239762395620346, -0.08545879274606705, 0.1515948623418808, -0.00621660565957427, -0.15580543875694275, -0.01899842731654644, -0.13781392574310303, 0.028397683054208755, -0.015124802477657795, 0.10534337908029556, 0.18543370068073273, -0.1135290116071701, -0.13531269133090973, 0.08817430585622787, -0.019935665652155876, 0.036993250250816345, -0.04440179094672203, 0.24309539794921875, 0.22906678915023804, 0.07225780189037323, -0.15581253170967102, -0.28135862946510315, 0.047451455146074295, 0.101316437125206, -0.14084886014461517, -0.16130954027175903, 0.051310885697603226, 0.1483713537454605, 0.12366850674152374, 0.022852744907140732, 0.005024048499763012, 0.0520605705678463, 0.0076170265674591064, -0.08255790174007416, -0.12591136991977692, 0.13485729694366455, -0.1515158861875534, -0.10233663767576218, 0.6343151330947876, -0.295592337846756, -0.4884226322174072, -0.1498408019542694, -0.4237326681613922, 0.3220246136188507, -0.1883939802646637, -0.2619529366493225], [0.05022427812218666, 0.14720912277698517, 0.09824443608522415, 0.47929275035858154, 0.4019528925418854, -0.1927821785211563, -0.5792529582977295, -0.7978044152259827, -0.18902292847633362, -0.14425897598266602, -0.05874776467680931, 0.39520928263664246, 0.09459098428487778, 0.15784898400306702, -0.038231782615184784, -0.04207899048924446, 0.10315511375665665, 0.05922836810350418, -0.0798024833202362, 0.062382664531469345, 0.037885066121816635, 0.08439138531684875, 0.09163239598274231, -0.04488217458128929, 0.01943895034492016, -0.04081302881240845, -0.10841439664363861, -0.06743813306093216, -0.6655015349388123, -0.286798357963562, 0.1875786930322647, 0.6851211786270142, -0.06178417056798935, -0.09393606334924698, -0.015217659063637257, -0.5915907025337219, -0.36506912112236023, -0.1313292533159256, -0.6812590956687927, 1.0083348751068115, 0.12163208425045013, 0.1481815129518509, 0.10133139044046402, 0.3435428738594055, -0.011607245542109013, -0.016834501177072525, 0.05596762150526047, 0.10474912822246552, -0.05707939714193344, 0.12512356042861938, 0.11470545828342438, -0.12249639630317688, -0.04683373123407364, -0.0010308012133464217, 0.011700710281729698, -0.03318574279546738, -0.7361814379692078, 0.20554912090301514, 0.3238665759563446, -1.6754018068313599, -0.3561604619026184, -0.9575815796852112, 0.627873957157135, 2.1078693866729736, 0.34788352251052856, 0.1065787598490715, -0.0465102382004261, -0.02639017067849636, 0.09741923213005066, -0.12795495986938477, -0.02512635663151741, -0.09203687310218811, 0.17384015023708344, 0.14769691228866577, -0.18671303987503052, -0.5400195717811584, -0.20620939135551453, -0.08279260993003845, -0.14395657181739807, 0.15200023353099823, -0.28680986166000366, 0.1521616280078888, -0.04363315925002098, -0.2860294282436371, 0.05416321009397507, -0.0247272290289402, 0.03031570091843605, -0.09878747910261154, 0.15203428268432617, 0.004011228680610657, -0.022996066138148308, 0.01558625977486372, -0.09823671728372574, 0.142944797873497, -0.08193927258253098, -0.05977484956383705, 0.141310915350914, -0.13927073776721954, -0.15006951987743378, 0.048862285912036896, 0.14544358849525452, -0.016247108578681946, 0.11072862893342972, -0.08473982661962509, -0.3156800866127014, -0.4350039064884186, 0.07473625242710114, 0.2815706133842468, -0.0378669798374176, 0.13968154788017273, -0.08285445719957352, 0.6382876634597778, 0.007338183932006359, 0.09744686633348465, 0.09130199253559113, -0.2754598557949066, -0.043755143880844116, -0.09246237576007843, 0.10544373095035553, -0.1024758368730545, -0.1474759727716446, -0.03847023472189903, 0.07582461088895798, 0.025130577385425568, 0.09441529214382172, -0.05275942012667656, 0.13086526095867157, -0.005370538681745529, 0.04218906909227371, -0.5424747467041016, -0.18468265235424042, -0.19970770180225372, 0.013129428960382938, 0.029177939519286156, 0.35584601759910583, 0.40749043226242065, 0.10143881291151047, -0.10243697464466095, -0.009536617435514927, -0.019329728558659554, 0.06732258200645447, -0.05609620735049248, 0.0016868788516148925, -0.03313138335943222, 0.31815457344055176, 0.04939216747879982, 0.14422458410263062, 0.28153330087661743, -0.17920660972595215, 0.15438470244407654, -0.3467450737953186, -0.34395548701286316, -0.3789074122905731, 0.06569679081439972, 0.5111679434776306, 0.3090914785861969, -0.0726504772901535, 0.1458248645067215, 0.11282216012477875, -0.1795646995306015, 0.012111971154808998, 0.033264368772506714, 0.1212407723069191, -0.0462992899119854, 0.1273587942123413, -0.10563240200281143, 0.11084016412496567, 0.06060846149921417, 0.08072569966316223, -0.004276443272829056, 0.10258391499519348, 0.15537092089653015, -0.27994847297668457, -0.3839026689529419, 0.2838175594806671, 0.1386166661977768, -0.022438757121562958, -0.28978773951530457, 0.02944127842783928, 0.7690741419792175, 0.41649526357650757, -0.03721684589982033, 0.4092535078525543, 0.04215274751186371, 0.12590867280960083, -0.0422750748693943, -0.0998142659664154, -0.4297696352005005, -0.027877362444996834, -0.1284402459859848, 0.11867202073335648, -0.10538376867771149, -0.019730927422642708, -0.14301736652851105, 0.13749045133590698, -5.958432302577421e-05, -0.0675472691655159, -0.11745985597372055, -0.022357825189828873, 0.05926554277539253, 1.3212502002716064, -0.6681662201881409, -0.0694873183965683, -0.34830209612846375, -0.44802698493003845, -0.512799084186554, -0.4588501751422882, 0.8797782063484192], [-0.033543672412633896, -0.07702535390853882, 0.0727740004658699, 0.23239536583423615, 0.142239511013031, -0.03449990972876549, -0.27975994348526, -0.31977757811546326, -0.14402680099010468, -0.00823160819709301, 0.11295090615749359, -0.07442865520715714, -0.14929139614105225, -0.032129690051078796, -0.04295264929533005, -0.27589359879493713, 0.053157731890678406, 0.015986882150173187, 0.0738985687494278, 0.0005866822320967913, -0.12120893597602844, -0.09885186702013016, -0.06191931664943695, -0.04421466961503029, 0.02990659698843956, 0.14507396519184113, -0.04922895133495331, 0.0014824155950918794, -0.18543176352977753, -0.19002212584018707, -0.013595315627753735, 0.3733430504798889, 0.111095130443573, 0.04415415599942207, 0.003237982979044318, -0.3525303900241852, -0.05376362055540085, 0.0951806902885437, -0.48534372448921204, 0.7329789400100708, -0.01910695806145668, -0.07561969757080078, 0.05971375107765198, 0.48290392756462097, -0.12863266468048096, -0.037645138800144196, -0.0777258574962616, 0.14063088595867157, -0.059646859765052795, -0.06206801161170006, -0.13660545647144318, 0.109315425157547, -0.032768577337265015, 0.08667966723442078, 0.14179198443889618, -0.08950405567884445, -0.44006121158599854, 0.11109350621700287, 0.05363176390528679, -0.9318212270736694, -0.2834433317184448, -0.3797895312309265, 0.4572390913963318, 1.0852664709091187, 0.1744103878736496, -0.053094230592250824, 0.054054904729127884, 0.05001838505268097, 0.15905843675136566, -0.030883535742759705, -0.07542718201875687, -0.13483235239982605, -0.2523123323917389, 0.03819983825087547, -0.2119753509759903, -0.1135757714509964, -0.11941277235746384, -0.05584806203842163, 0.014273105189204216, 0.04357268288731575, -0.017024517059326172, -0.023769034072756767, 0.00740086380392313, -0.07774072885513306, -0.04226326569914818, 0.1062193512916565, -0.12502214312553406, -0.24021446704864502, 0.14690427482128143, -0.0366470068693161, -0.07000446319580078, -0.06285206973552704, 0.15113559365272522, -0.09751754254102707, -0.10279283672571182, -0.09199652820825577, 0.06107400730252266, 0.1313612163066864, 0.00987365934997797, 0.12994083762168884, 0.022476432844996452, 0.1575796902179718, -0.016768723726272583, 0.03345880284905434, -0.14633046090602875, -0.0885048657655716, -0.30094048380851746, 0.2149687558412552, -0.03012116439640522, -0.072971411049366, -0.21571899950504303, 0.15609653294086456, -0.12395091354846954, -0.08634547889232635, 0.05973691865801811, -0.03366175666451454, 0.023670723661780357, 0.027756111696362495, 0.11869625002145767, -0.10146509855985641, 0.13853086531162262, 0.1111375167965889, -0.14355437457561493, -0.08874142169952393, -0.010301236063241959, 0.020631998777389526, -0.02966633066534996, -0.0780801847577095, 0.18406355381011963, -0.05695353448390961, 0.013794559985399246, -0.21566398441791534, -0.04042080417275429, 0.011411340907216072, 0.08772347122430801, 0.0680776834487915, -0.07324141263961792, 0.09482313692569733, -0.07077480107545853, 0.08945876359939575, -0.08578964322805405, -0.06040700897574425, -0.04126313328742981, 0.1161966472864151, 0.27654576301574707, 0.18486592173576355, 0.2208830863237381, 0.2806427478790283, -0.07731765508651733, 0.10322839021682739, -0.32490143179893494, 0.3104313910007477, -0.10521125048398972, 0.07774565368890762, 0.17873354256153107, 0.357223242521286, 0.11389202624559402, -0.0636826902627945, 0.11227518320083618, 0.29206812381744385, 0.0044815815053880215, -0.1265357881784439, 0.007182106375694275, -0.04807122424244881, -0.09093548357486725, -0.10787393152713776, -0.012525048106908798, 0.08134422451257706, 0.08006326854228973, -0.15300731360912323, -0.14909902215003967, -0.12095519155263901, -0.39976567029953003, -0.24149557948112488, -0.4907694458961487, -0.3663792908191681, -0.0638318732380867, -0.35622066259384155, 0.009619742631912231, 0.6506903767585754, 0.2137615978717804, -0.022394469007849693, 0.49939531087875366, -0.28428637981414795, 0.04429564252495766, 0.04384906589984894, -0.009093687869608402, 0.13805034756660461, 0.1030479446053505, -0.047618888318538666, 0.1324073076248169, -0.06045832484960556, 0.1280232071876526, -0.06392091512680054, -0.1325865089893341, -0.12705758213996887, 0.1421077400445938, 0.08895810693502426, 0.027206186205148697, 0.06818623095750809, 0.1816420704126358, 0.46482884883880615, 0.6214388608932495, 0.16926299035549164, 0.15803126990795135, -0.9441954493522644, -0.30754342675209045, 0.9689126014709473], [0.06532740592956543, 0.19807147979736328, -0.16214534640312195, 0.1074981763958931, 0.11489923298358917, -0.031565990298986435, -0.006441790144890547, 0.35937291383743286, -0.08347337692975998, 0.03343736752867699, 0.04680321738123894, 0.08190561085939407, 0.03035033866763115, -0.14332425594329834, -0.0068527269177138805, 0.15811170637607574, 0.08262539654970169, 0.12195112556219101, 0.061194196343421936, 0.10998489707708359, -0.1361013799905777, 0.12860643863677979, -0.10230366885662079, 0.05325626954436302, 0.046505752950906754, 0.039334170520305634, 0.044498663395643234, -0.0025168887805193663, 0.057043012231588364, 0.23085860908031464, -0.10413084179162979, 0.1333429515361786, -0.04091319814324379, -0.3188709020614624, 0.21000339090824127, -0.13655316829681396, -0.18660704791545868, -0.1072540134191513, -0.09266789257526398, 0.08925255388021469, 0.048433613032102585, 0.04106196388602257, -0.022468475624918938, -0.1851630061864853, -0.07330537587404251, 0.10539834201335907, 0.016991108655929565, 0.011712710373103619, 0.12779948115348816, -0.08850796520709991, 0.014690034091472626, -0.019970590248703957, 0.07845260202884674, -0.1112995371222496, 0.15304739773273468, 0.0016235403018072248, -0.06278210133314133, 0.04467169940471649, 0.049159836024045944, 0.3196077048778534, -0.14042139053344727, -0.28154727816581726, 0.08243938535451889, 0.3825390636920929, -0.05420481786131859, 0.12916353344917297, 0.080294668674469, 0.07020831108093262, -0.034512028098106384, 0.09138783067464828, -0.09033367037773132, 0.038601167500019073, 0.24164040386676788, 0.06271757185459137, -0.05723769590258598, 0.08137776702642441, -0.0838850885629654, 0.15096472203731537, 0.12433437258005142, 0.049375034868717194, 0.07871793955564499, 0.0576326884329319, -0.022255627438426018, 0.07286377996206284, -0.11357139050960541, 0.025974903255701065, 0.06430871039628983, 0.06203308701515198, 0.007753797806799412, 0.017681855708360672, -0.1184811145067215, -0.13922534883022308, 0.042687397450208664, 0.06600269675254822, 0.12349104136228561, 0.009786062873899937, 0.017576618120074272, 0.07539445906877518, -0.08905168622732162, -0.024295829236507416, 0.07769641280174255, -0.09598211199045181, 0.09752888232469559, 0.111698217689991, 0.022910213097929955, 0.06843242794275284, 0.023571843281388283, -0.18349875509738922, 0.061296943575143814, 0.04215121269226074, 0.034156184643507004, 0.05511796474456787, -0.008136704564094543, -0.08865882456302643, 0.07869619876146317, -0.1348683089017868, -0.05287745222449303, 0.03660714626312256, -0.03989794850349426, -0.036191266030073166, -0.11284241080284119, 0.06939415633678436, 0.06084604188799858, 0.12659034132957458, -0.0870642438530922, -0.1544199287891388, -0.11246230453252792, 0.11164489388465881, -0.011722478084266186, 0.18339867889881134, -0.015375413931906223, 0.03690417483448982, 0.10750310122966766, 0.14169970154762268, -0.10080748051404953, -0.11947169154882431, 0.015084801241755486, -0.048007648438215256, -0.062236495316028595, 0.07784143090248108, -0.02200375311076641, -0.08759785443544388, -0.058781698346138, 0.003579068463295698, 0.16070829331874847, -0.015885736793279648, -0.2935347259044647, 0.04123599827289581, -0.038428302854299545, 0.07312019914388657, -0.10849282890558243, -0.11542600393295288, -0.33848440647125244, 0.000824148824904114, 0.4246668815612793, -0.40640750527381897, -0.11239144206047058, 0.12875626981258392, 0.07151541858911514, -0.23250587284564972, 0.13139399886131287, 0.02738838456571102, -0.03128502517938614, 0.15112866461277008, 0.09424029290676117, 0.06694817543029785, -0.04802394285798073, -0.010808913968503475, -0.11748692393302917, -0.08785136789083481, -0.024836137890815735, -0.011159568093717098, -0.14906932413578033, -0.077716164290905, -0.3019154965877533, 0.12493687868118286, -0.10765165090560913, 0.25718358159065247, -0.09569136798381805, -0.07346348464488983, -0.028963759541511536, -0.10667164623737335, -0.09160636365413666, 0.15920603275299072, 0.043769266456365585, 0.1497451663017273, 0.15052759647369385, -0.10053937882184982, 0.11927736550569534, 0.1185968741774559, 0.15438346564769745, -0.0749451145529747, -0.006537391804158688, 0.07258222252130508, -0.054748643189668655, -0.031050169840455055, -0.03718137368559837, 0.06894193589687347, 0.027040986344218254, 0.05480713024735451, 0.28355473279953003, -0.05792159587144852, -0.9571271538734436, -0.272993266582489, 0.32956889271736145, 0.5308781862258911, -0.2654324471950531, -0.9575883746147156], [-0.026640411466360092, 0.020189916715025902, 0.05013766139745712, -0.14965884387493134, 0.01578862965106964, 0.07727330923080444, 0.016533274203538895, 0.12710577249526978, 0.18758921325206757, -0.030878761783242226, -0.08026860654354095, 0.1347668170928955, -0.09662090241909027, -0.021881641820073128, -0.11764761805534363, 0.1387299746274948, -0.10416717827320099, 0.04707346856594086, -0.0010022582719102502, 0.13576136529445648, 0.06986924260854721, 0.05123399943113327, -0.08013924956321716, -0.07790301740169525, -0.12348116189241409, -0.14371560513973236, -0.11449608206748962, 0.1128663718700409, 0.11557146161794662, 0.045774586498737335, 0.011856386438012123, -0.1946410834789276, 0.004468396306037903, -0.044423751533031464, -0.1073954775929451, -0.04180213436484337, 0.29480186104774475, 0.010340492241084576, 0.5267544984817505, -0.14303946495056152, -0.09751265496015549, 0.025989970192313194, -0.14658232033252716, -0.31600722670555115, -0.017810791730880737, -0.04769308492541313, -0.1425517499446869, 0.09647046029567719, 0.12529894709587097, 0.02178976684808731, 0.14420640468597412, 0.13688461482524872, -0.13325682282447815, -0.009444114752113819, -0.10249022394418716, -0.13332033157348633, 0.0329643078148365, -0.2338266223669052, -0.002661066362634301, 0.4983569383621216, 0.1854112297296524, -0.022332435473799706, -0.08406741172075272, -0.13386094570159912, -0.045626234263181686, 0.021160786971449852, 0.14431485533714294, 0.0007146613206714392, -0.08503247797489166, -0.07021710276603699, -0.11905022710561752, 0.08043268322944641, -0.05873805657029152, -0.00420831935480237, 0.030472220852971077, 0.21186992526054382, 0.10834478586912155, -0.03580828756093979, 0.033286649733781815, -0.1798602044582367, 0.0672241598367691, -0.15401577949523926, 0.16529905796051025, 0.10043303668498993, -0.05149255320429802, -0.06870099157094955, -0.0004897346952930093, -0.03184530511498451, -0.014772255904972553, -0.07416900247335434, -0.12581703066825867, 0.061392899602651596, 0.0795525312423706, -0.12791962921619415, 0.08421044051647186, 0.038108035922050476, -0.007646212819963694, 0.03875524923205376, -0.07785967737436295, -0.11195474117994308, 0.05698452144861221, -0.06623569130897522, 0.08917620778083801, 0.02853049896657467, 0.09232134371995926, 0.032177094370126724, 0.09624680876731873, -0.03431224077939987, -0.05818358436226845, -0.106184221804142, 0.11697074770927429, -0.18422697484493256, -0.07107292860746384, -0.02226053550839424, -0.0755692720413208, -0.06778299808502197, -0.04728648066520691, 0.10536226630210876, -0.09558162093162537, -0.08725783228874207, 0.13473521173000336, -0.12209433317184448, 0.04121826961636543, 0.040104225277900696, -0.13089631497859955, -0.1042972058057785, 0.06777311861515045, -0.10501857846975327, -0.06349091976881027, -0.09313516318798065, -0.18360452353954315, 0.04185855761170387, -0.06762637943029404, -0.10400765389204025, -0.13499438762664795, -0.143605038523674, 0.04666513204574585, -0.04987889528274536, -0.03568406403064728, 0.016449743881821632, 0.07925858348608017, -0.002985594794154167, -0.09838113188743591, -0.08329975605010986, -0.11836870014667511, -0.06928227841854095, -0.034704286605119705, -0.02309349551796913, 0.03412836045026779, 0.056075286120176315, 0.05086137354373932, -0.015196694992482662, -0.14694227278232574, -0.09812288731336594, -0.08753534406423569, 0.14457610249519348, 0.023427465930581093, -0.11254963278770447, 0.13393132388591766, -0.15860676765441895, -0.05294157937169075, -0.08140868693590164, -0.00506701460108161, 0.13626937568187714, -0.050509560853242874, 0.12980373203754425, -0.025722559541463852, 0.13136298954486847, -0.03292298689484596, -0.05159411579370499, 0.13313624262809753, 0.06878188252449036, -0.10575827956199646, -0.05446530133485794, -0.04318610206246376, -0.09304305166006088, 0.046647630631923676, 0.07838335633277893, 0.11038587987422943, -0.028928304091095924, 0.0006103958003222942, 0.09556227177381516, -0.07796991616487503, 0.06199655681848526, -0.03487526252865791, 0.08461382240056992, -0.1558832973241806, 0.14959716796875, 0.012043111957609653, 0.05954392999410629, -0.030649244785308838, -0.029800867661833763, 0.14210005104541779, -0.1330142319202423, 0.10785337537527084, -0.12242348492145538, -0.048488352447748184, -0.15460124611854553, -0.15869155526161194, 0.04484621062874794, -0.09275571256875992, -0.015536797232925892, 0.14918193221092224, -0.011944680474698544, 0.3823870122432709, 0.4004799723625183, -0.02374517358839512, -0.3322201669216156], [0.06699810177087784, 0.11573591083288193, 0.07383314520120621, 0.3788513243198395, 0.5866121053695679, 0.12997126579284668, -0.3480513095855713, 0.18102020025253296, -0.23691757023334503, -0.1192181184887886, -0.4889662563800812, 0.378548800945282, -0.01885688677430153, -0.14812950789928436, -0.13269446790218353, 0.053766317665576935, -0.13372504711151123, 0.09950891882181168, 0.06570140272378922, 0.13601559400558472, 0.08979126811027527, 0.13035865128040314, 0.04654020071029663, 0.05015190318226814, -0.027051130309700966, -0.0502246618270874, -0.12209777534008026, -0.052472587674856186, -0.2562205195426941, -0.08892392367124557, 0.006707333028316498, 0.5304977893829346, 0.13710477948188782, -0.6562905311584473, 0.07028835266828537, -0.4291536211967468, -0.41465264558792114, 0.04061564803123474, -0.2974568009376526, 0.539951741695404, -0.11349662393331528, 0.10321447253227234, 0.13330167531967163, -0.09949754178524017, 0.07907740771770477, -0.03653839975595474, 0.15691395103931427, 0.09988940507173538, 0.1343044638633728, -0.14620129764080048, -0.15315237641334534, 0.1561436653137207, 0.02008260414004326, 0.04481528326869011, 0.04892868548631668, -0.10816678404808044, -0.8562795519828796, 0.6193360090255737, 0.5973944664001465, -1.7562552690505981, -0.6558932662010193, -0.8296013474464417, 0.9706575870513916, 1.253713607788086, 0.26529279351234436, 0.06161632388830185, 0.03250988572835922, -0.16087846457958221, 0.1013946384191513, 0.11037453263998032, 0.15773563086986542, 0.08482038229703903, 0.23510673642158508, -0.4294590353965759, 0.17114457488059998, 0.0989520400762558, 0.348318487405777, 0.23306064307689667, -0.07618103176355362, 0.12064899504184723, -0.02508966438472271, 0.10394920408725739, 0.12248903512954712, 0.21813151240348816, -0.03418958932161331, -0.10121861845254898, 0.049856558442115784, 0.22246363759040833, -0.15206782519817352, -0.06826209276914597, -0.024647125974297523, 0.08399523049592972, -0.054706964641809464, -0.0561353974044323, 0.1406935304403305, -0.062170106917619705, 0.02786494605243206, -0.0220619086176157, -0.07648484408855438, -0.07486993074417114, -0.22415043413639069, -0.07691444456577301, 0.24990370869636536, 0.28146126866340637, 0.1577131450176239, 0.0909358561038971, -0.3143317699432373, -0.32129183411598206, 0.7537607550621033, 0.09662862122058868, -0.014662147499620914, -0.017751028761267662, -0.07240290194749832, 0.14855487644672394, 0.02568667195737362, 0.05427415296435356, -0.011033737100660801, 0.04867168515920639, -0.047510698437690735, 0.005518477410078049, -0.15043000876903534, 0.0699770525097847, -0.11247649788856506, 0.02097080461680889, 0.025856075808405876, -0.02896237187087536, 0.1332094520330429, 0.11154556274414062, 0.1539434790611267, -0.593297004699707, 0.031145192682743073, 0.15879268944263458, 0.07921870797872543, -0.04547635838389397, -0.013897540047764778, -0.27985215187072754, -0.07595935463905334, 0.0009623083751648664, -0.00792201142758131, 0.00468006357550621, -0.09429698437452316, -0.0339631661772728, 0.0874825045466423, -0.019901525229215622, 0.16460996866226196, -0.08436493575572968, -0.6138929128646851, -0.06790829449892044, -0.6374508142471313, -0.05789732560515404, -0.8386248350143433, -1.012585997581482, -1.1127982139587402, -0.144972026348114, 0.8889172077178955, -0.5301207304000854, 0.03882516548037529, 0.06821276992559433, -0.10076022893190384, -1.1310909986495972, -0.14952030777931213, -0.15419460833072662, -0.06135481595993042, 0.055143699049949646, -0.06012478470802307, 0.014405588619410992, 0.034277793020009995, 0.09664739668369293, 0.13044488430023193, -0.13792085647583008, -0.012914050370454788, -0.07893052697181702, -0.6036052703857422, -0.273699015378952, 0.40087273716926575, 1.0523815155029297, -0.5807974338531494, 0.9932263493537903, 0.19984027743339539, -0.008680128492414951, -0.06349979341030121, -0.06878684461116791, -0.22852030396461487, 0.2625232934951782, 0.14578519761562347, 0.05423407256603241, 0.0075797392055392265, -1.6589549779891968, 0.14756648242473602, 0.015333498828113079, -0.08473841100931168, -0.0038440595380961895, -0.0801362544298172, 0.01353540737181902, -0.023021768778562546, -0.14757663011550903, -0.08553329110145569, -0.07521513849496841, 0.09064941108226776, -0.1455659717321396, 1.8425825834274292, -0.6676414608955383, -2.067683458328247, -0.9392960071563721, 0.45159339904785156, 2.003152847290039, -1.7496625185012817, -1.0437736511230469], [0.03868403285741806, -0.17423099279403687, 0.11642249673604965, -0.17870758473873138, -0.2770022749900818, 0.023729447275400162, 0.4382636249065399, 0.5507301688194275, 0.22994232177734375, -0.046636734157800674, -0.004627669230103493, -0.02320188283920288, -0.04506425932049751, -0.1311476230621338, 0.014392528682947159, 0.2247217744588852, 0.15404728055000305, 0.10689620673656464, 0.058053188025951385, -0.13120050728321075, -0.02564847655594349, 0.1374482810497284, -0.02315676212310791, 0.032893650233745575, -0.10545232892036438, -0.028524573892354965, 0.027045035734772682, -0.1472296416759491, 0.2333226352930069, 0.3640410602092743, -0.05721890181303024, -0.4126816391944885, 0.04865260422229767, -0.33368852734565735, -0.13764330744743347, 0.47155383229255676, 0.0006278266664594412, 0.07782901078462601, 0.4747091233730316, -1.140246033668518, 0.09233707189559937, -0.09819860011339188, 0.15064381062984467, -0.6220097541809082, 0.07007256150245667, 0.09548391401767731, 0.14980146288871765, 0.0026280698366463184, 0.01731094904243946, 0.08294845372438431, -0.07822921872138977, -0.09378889948129654, 0.015271037817001343, -0.11928584426641464, 0.02012602426111698, -0.15252196788787842, 0.21879269182682037, -0.3431755602359772, -0.2303192913532257, 1.165237545967102, 0.1463828831911087, 0.6830524802207947, -0.21161328256130219, -1.6508398056030273, -0.2262258678674698, -0.012881997041404247, -0.044643186032772064, -0.06737709045410156, 0.10228636860847473, -0.021315233781933784, -0.007041690405458212, -0.04427614063024521, 0.20581531524658203, -0.2832498550415039, 0.32415491342544556, 0.3581452965736389, 0.26372671127319336, 0.03404787927865982, -0.03231919929385185, -0.018222685903310776, 0.1352320909500122, -0.012765505351126194, 0.3024885654449463, 0.4904182553291321, 0.050005897879600525, 0.11172348260879517, 0.07502661645412445, 0.3194791078567505, -0.1538759022951126, -0.15738597512245178, 0.052928708493709564, 0.06660811603069305, 0.07978450506925583, 0.02966424822807312, 0.06650662422180176, 0.09812311083078384, 0.11536327004432678, -0.04016021266579628, 0.06278900802135468, 0.11772139370441437, 0.08401733636856079, -0.2712208330631256, 0.23880572617053986, 0.16673868894577026, 0.17652539908885956, 0.19948464632034302, 0.11478816717863083, -0.6069846749305725, 0.3915807902812958, -0.012283910065889359, -0.09766190499067307, -0.2958384156227112, -0.09683943539857864, 0.02206781506538391, -0.059459589421749115, 0.027209309861063957, -0.08380834013223648, 0.0757535919547081, -0.019503379240632057, 0.06138256564736366, 0.09815177321434021, 0.0021188019309192896, -0.11168668419122696, -0.12655766308307648, 0.013078417629003525, 0.12624725699424744, 0.11169588565826416, -0.011881583370268345, 0.2607886791229248, 0.1239420473575592, -0.026494713500142097, 0.03595910966396332, 0.3042854964733124, -0.1895258128643036, -0.19749566912651062, -0.5303904414176941, 0.0036457134410738945, 0.006376216188073158, -0.008665014989674091, 0.009584413841366768, -0.01660718210041523, -0.007203028537333012, 0.011483303271234035, -0.004415578208863735, -0.7435047626495361, -0.5908276438713074, -0.6969811320304871, -0.2992033064365387, 0.10238427668809891, 0.1847173273563385, 0.07777215540409088, -1.1022089719772339, 0.24240680038928986, 0.020481863990426064, 0.23667703568935394, -0.4700080156326294, -0.09722548723220825, 0.10547942668199539, -0.15242233872413635, -1.1677733659744263, -0.010000058449804783, -0.05901751294732094, -0.09869283437728882, 0.13513562083244324, 0.1532091647386551, 0.01998872309923172, -0.1197674423456192, -0.09185540676116943, -0.15689554810523987, 0.12151060253381729, -0.005282184109091759, -0.011537175625562668, -0.48666346073150635, 0.235724538564682, 1.0239444971084595, 0.6291851997375488, -0.5035715699195862, 1.18692946434021, 0.025897040963172913, -1.0166819095611572, -0.6067370176315308, -0.026356862857937813, -0.47753292322158813, 1.0961861610412598, -0.0718897357583046, -0.10269956290721893, -0.06742177903652191, -1.1184027194976807, 0.10206067562103271, 0.025678003206849098, -0.07889463752508163, 0.012511155568063259, 0.08715800940990448, -0.03735039755702019, -0.08870212733745575, -0.09665943682193756, 0.11123162508010864, 0.13317376375198364, -0.03503758832812309, -0.01057776901870966, 0.430031418800354, 0.1080322414636612, -1.6128926277160645, -0.2223769575357437, 0.29584676027297974, 1.773473858833313, 0.10676386207342148, -1.575433373451233], [0.09477181732654572, -0.1263684332370758, -0.2913663387298584, 0.05674330145120621, -0.09730525314807892, -0.19770880043506622, 0.30829551815986633, 0.3190843462944031, 0.5766880512237549, 0.11313048750162125, -0.004903816618025303, 0.2116740494966507, -0.116797536611557, 0.14123544096946716, 0.08073558658361435, 0.24085499346256256, -0.12501494586467743, 0.0940345823764801, 0.009360075928270817, -0.05087282136082649, -0.032378967851400375, -0.052105505019426346, 0.039686642587184906, -0.03169787675142288, 0.0150863416492939, -0.0827128067612648, -0.12859614193439484, 0.12022999674081802, 0.2389242798089981, 0.2230701744556427, 0.01818261668086052, -0.20455218851566315, -0.05330713838338852, 0.20777863264083862, 0.14809541404247284, 0.1780000776052475, 0.2728385031223297, 0.018344702199101448, 0.1398434191942215, -0.8408118486404419, -0.013452580198645592, -0.12011385709047318, -0.03291197121143341, -0.04353469982743263, -0.11282052844762802, 0.010016790591180325, -0.027549609541893005, 0.1362643539905548, 0.03898945823311806, -0.10235682129859924, 0.06762389093637466, 0.15634573996067047, -0.13700127601623535, -0.09500731527805328, -0.0706024244427681, 0.011360428296029568, 0.6473724246025085, -0.48167312145233154, -0.3619808554649353, 1.0066912174224854, 0.3257732391357422, 0.5322535634040833, -0.4339774250984192, -1.0753735303878784, -0.12986546754837036, 0.18246206641197205, 0.14571602642536163, -0.07104773819446564, 0.08364688605070114, -0.09244465082883835, 0.0171109139919281, -0.06580665707588196, 0.05511685088276863, -0.22038725018501282, 0.37668681144714355, 0.3855503499507904, 0.27995800971984863, 0.06947879493236542, 0.341886430978775, -0.056951310485601425, 0.3225085437297821, 0.15646059811115265, 0.2210928350687027, 0.07569149136543274, 0.15725979208946228, 0.056468524038791656, -0.13117162883281708, 0.20728039741516113, -0.14344248175621033, -0.05867253988981247, 0.05828732252120972, -0.02205490507185459, 0.14063039422035217, 0.07970251142978668, 0.008920840919017792, 0.10714805871248245, -0.007676421664655209, 0.08915847539901733, -0.056482113897800446, 0.03830038011074066, -0.027958214282989502, -0.2184666097164154, 0.04008715972304344, -0.006391344591975212, 0.08261688798666, 0.21042288839817047, 0.17180244624614716, -0.2794361710548401, -0.11667255312204361, 0.060886092483997345, -0.05197414383292198, -0.4700266420841217, -0.14741790294647217, -0.01333659142255783, 0.06865071505308151, 0.13610675930976868, 0.0376385897397995, 0.07268893718719482, -0.1240915060043335, 0.15335489809513092, -0.05009739100933075, -0.0020120118279010057, 0.013482674956321716, -0.02156221866607666, -0.012328692711889744, 0.14742891490459442, 0.033414576202631, -0.016441525891423225, 0.15217863023281097, 0.13063935935497284, 0.2175167202949524, 0.028941845521330833, 0.2279965877532959, -0.1324491798877716, -0.3905341923236847, -0.7228937149047852, 0.1272076666355133, 0.019605636596679688, -0.015350749716162682, 0.02392204850912094, 0.13073551654815674, -0.009063208475708961, 0.1218547448515892, 0.018538545817136765, -0.7653834819793701, -0.08862701803445816, -0.6898193359375, -0.18286941945552826, -0.18357104063034058, 0.010494050569832325, 0.46883657574653625, 0.43665382266044617, 0.606519877910614, 0.05129676312208176, 0.6402583122253418, -1.237348198890686, -0.14144879579544067, -0.08139891922473907, 0.02113710343837738, 0.8321764469146729, 0.04680083692073822, -0.01203069556504488, -0.14987073838710785, 0.11245102435350418, 0.027816982939839363, -0.11455661058425903, 0.019580112770199776, -0.12382379174232483, -0.005506401415914297, -0.02930140495300293, 0.08347479999065399, -0.12440101057291031, 1.0735642910003662, 0.291822224855423, 0.15525700151920319, 0.2893032133579254, 0.48529770970344543, -0.13758641481399536, 0.1610655039548874, -0.12376083433628082, -0.190975159406662, -0.140265092253685, -1.2456563711166382, -0.6810811758041382, -0.13848872482776642, -0.057226501405239105, -0.06835650652647018, -0.7718690037727356, -0.06872033327817917, 0.0954432561993599, -0.08714691549539566, -0.07120553404092789, -0.07570865750312805, -0.11258786916732788, -0.07564347237348557, 0.14699259400367737, -0.15200218558311462, -0.09872467070817947, -0.01850982755422592, 0.04139088839292526, -0.2389286458492279, 0.3709573447704315, -1.0898441076278687, -0.234247088432312, -1.5481473207473755, 0.35959210991859436, 0.24293208122253418, -0.5713067650794983], [-0.16919542849063873, -0.0008395130280405283, 0.1521507352590561, 0.1833694875240326, 0.08715677261352539, 0.1483951061964035, -0.3267238736152649, -0.5463613867759705, -0.3108445405960083, -0.13069605827331543, 0.07589136064052582, -0.07291509211063385, 0.09427326172590256, 0.1586698293685913, -0.0031368837226182222, -0.13078907132148743, -0.07303357124328613, -0.07671546190977097, 0.14323408901691437, 0.02699131891131401, -0.015191012062132359, -0.02151690609753132, 0.12930899858474731, -0.048170629888772964, -0.03844517469406128, -0.13573668897151947, -0.023701122030615807, 0.13746602833271027, -0.2753090560436249, -0.19640463590621948, -0.10456470400094986, 0.20004788041114807, -0.010576683096587658, 0.010589318349957466, -0.1175457313656807, -0.26654818654060364, -0.13557378947734833, 0.13491256535053253, -0.30836084485054016, 0.9051994681358337, 0.011285285465419292, -0.022613953799009323, 0.022262316197156906, 0.5857895016670227, -0.15068821609020233, 0.05065973475575447, -0.1507359892129898, -0.0413680262863636, 0.09988902509212494, 0.0362577810883522, -0.09600287675857544, -0.05278099700808525, -0.07086067646741867, 0.04554259777069092, 0.11516165733337402, -0.04236876964569092, -0.47784197330474854, 0.47279879450798035, 0.12668462097644806, -1.0595427751541138, -0.30781450867652893, -0.22232341766357422, 0.5131521821022034, 1.0448567867279053, 0.10412552207708359, 0.013108505867421627, -0.009107884019613266, -0.09954012185335159, -0.0748690813779831, -0.0966513529419899, -0.161468967795372, 0.06816153973340988, -0.18790572881698608, -0.054080672562122345, -0.1008269339799881, -0.3213859498500824, -0.10378029942512512, -0.08794847130775452, -0.03841833025217056, 0.2337629497051239, -0.17582757771015167, -0.14286984503269196, 0.0072170100174844265, 0.1514478474855423, -0.09336503595113754, -0.033302564173936844, 0.0034815187100321054, -0.00747010437771678, -0.12940245866775513, -0.08650742471218109, 0.0897807776927948, -0.03438340872526169, 0.0756848081946373, -0.06838898360729218, -0.011239594779908657, -0.10014542192220688, 0.12697377800941467, -0.08343001455068588, 0.031447384506464005, -0.012096185237169266, -0.061335816979408264, 0.01438207644969225, -0.1727878898382187, -0.09696116298437119, 0.005770308896899223, -0.2576776444911957, -0.06245271861553192, 0.44965359568595886, 0.0061965459026396275, -0.025567011907696724, -0.05253924801945686, 0.19748176634311676, 0.07671625167131424, -0.11171946674585342, -0.1573057919740677, -0.026564693078398705, 0.1395452320575714, -0.12252160906791687, -0.004626718815416098, -0.022244220599532127, 0.07076573371887207, 0.1276044398546219, 0.10814031958580017, 0.08574910461902618, -0.05956770479679108, 0.09970153123140335, -0.10835988074541092, 0.12479723989963531, 0.05256269499659538, -0.11055468767881393, -0.21846286952495575, -0.2069067507982254, -0.21808092296123505, 0.037914492189884186, 0.04019732400774956, 0.1810419112443924, -0.03759625181555748, -0.04082658141851425, -0.051211535930633545, -0.03324209526181221, -0.08576899021863937, 0.039101313799619675, 0.036098212003707886, 0.10356976091861725, 0.46500280499458313, 0.19148124754428864, 0.5076459646224976, 0.2898334860801697, -0.04088973626494408, 0.0135378148406744, -0.4176091253757477, -0.11698529869318008, -0.20680294930934906, 0.1100844219326973, -0.3350884020328522, 0.8867742419242859, 0.0621248334646225, 0.13385780155658722, -0.13352392613887787, -0.15213626623153687, -0.07933266460895538, 0.002176834037527442, -0.07273640483617783, 0.03638603165745735, -0.12025755643844604, -0.12782661616802216, 0.09628194570541382, 0.13290885090827942, 0.12409510463476181, -0.020177394151687622, 0.06306436657905579, 0.13610884547233582, -0.7237681746482849, -0.2822250723838806, -0.47232717275619507, -0.4465324580669403, -0.3022852838039398, -0.11776114255189896, -0.12148728966712952, 0.40166282653808594, 0.12560077011585236, 0.13465934991836548, 0.9884928464889526, 0.20165812969207764, 0.005134131759405136, 0.08992871642112732, -0.09749119728803635, 0.6213671565055847, 0.14595186710357666, 0.06424647569656372, -0.0347214974462986, 0.07507866621017456, -0.09362824261188507, 0.08131109923124313, -0.11906306445598602, 0.080739825963974, 0.04847347363829613, 0.024078350514173508, 0.04805195331573486, 0.007997775450348854, -0.024653814733028412, -0.006239036563783884, 0.9454054236412048, 0.3941854238510132, 0.5399700403213501, -0.7967084646224976, -0.39244017004966736, 0.6790626645088196], [-0.10405845195055008, 0.03950042650103569, -0.13475188612937927, -0.21290229260921478, 0.018564214929938316, -0.3361280858516693, 0.17989572882652283, 0.29517310857772827, 0.16399580240249634, 0.0068305060267448425, -0.10888943076133728, -0.2396073043346405, 0.003671439131721854, 0.03769124671816826, 0.018029330298304558, 0.23917706310749054, -0.15522654354572296, -0.035838719457387924, 0.02129431627690792, 0.12726734578609467, -0.0065391333773732185, -0.02148079127073288, -0.05588259920477867, 0.026833614334464073, 0.1387808918952942, 0.04256599396467209, 0.006033764220774174, 0.03052591159939766, 0.09939735382795334, -0.15704584121704102, -0.358713835477829, -0.04909463971853256, 0.24908357858657837, -0.02321777306497097, 0.11476440727710724, -0.3529141843318939, 0.4874523878097534, 0.014126178808510303, -0.08248496800661087, 0.006973443552851677, 0.1073237806558609, 0.11332006752490997, 0.05657550320029259, 0.6393704414367676, 0.10717376321554184, 0.09366674721240997, 0.10636630654335022, -0.1268891990184784, -0.023972582072019577, 0.14042434096336365, -0.08563728630542755, -0.009042545221745968, -0.011075718328356743, -0.062360405921936035, 0.020207906141877174, -0.025554632768034935, 0.4291134178638458, 0.20886334776878357, 0.2090100795030594, 0.3089240789413452, -0.08786715567111969, 0.2809019386768341, -0.0124239856377244, -0.7420241236686707, -0.06273256242275238, -0.027171187102794647, 0.008772500790655613, 0.024791955947875977, 0.04583645984530449, -0.024087276309728622, 0.03775894641876221, -0.015975667163729668, 0.22285281121730804, -0.12151969224214554, 0.21345558762550354, 0.347147136926651, 0.18556635081768036, 0.02997889555990696, 0.1011243388056755, 0.1417972594499588, 0.22914868593215942, -0.00416526198387146, 0.282606303691864, 0.23370274901390076, 0.09361541271209717, -0.018550295382738113, -0.14693592488765717, 0.26722729206085205, 0.11164720356464386, 0.07176511734724045, 0.013256186619400978, 0.08827761560678482, -0.11048110574483871, 0.017482547089457512, 0.10345912724733353, -0.022579088807106018, -0.01792299374938011, 0.06640797853469849, -0.09670653194189072, 0.01701662316918373, -0.2351495772600174, 0.019289975985884666, 0.25480565428733826, 0.30791613459587097, 0.376736044883728, 0.028191080316901207, 0.29613643884658813, -0.1614154577255249, 0.15288984775543213, -0.05579397827386856, 0.007565133739262819, 0.0221059862524271, -0.010158066637814045, -0.11338158696889877, 0.029069161042571068, 0.05485168844461441, -0.1195937991142273, 0.12756356596946716, -0.12629491090774536, 0.1273065209388733, 